svm_type nu_svc
kernel_type rbf
gamma 0.1111111111111111
nr_class 7
total_sv 489
rho -0.03405225836878694 -0.05402415008468027 -0.066604815156803304 1.2533584790563883 -0.028802681516568417 -0.051294794777537574 287.85675384415998 7.8306789276647182 30.893089117734558 881.1567132809281 874.86628219987574 -6.1317081657575434 35.870964256105438 -53.666211170509499 -114.65853742695279 78.471026264949316 -548.30194477692976 -109.13059099702578 -57.387841474569896 -34.101006500932371 -854.55835673442562
label 4 3 0 6 2 5 1
nr_sv 58 75 67 59 65 75 90
SV
0 0 0 2.0485367177184779 0 0 1:0.071781141 2:-0.0091899556 3:0.12441303 4:0.071655911 5:-0.0093220504 6:0.12384408 7:0.071380487 8:-0.0091960902 9:0.12324871 
1.7133040554473487 1.6904880681543251 2.2054397100430312 2.0485367177184779 2.3674108926874093 1.8935425634999286 1:0.048457987 2:0.0076342077 3:0.1388568 4:0.047587194 5:0.0050334858 6:0.13784736 7:0.047553489 8:0.0023263597 9:0.13729141 
1.7133040554473487 1.6904880681543251 2.2054397100430312 2.0485367177184779 2.3674108926874093 1.8935425634999286 1:0.053025429 2:0.0073589475 3:0.13400578 4:0.0539657 5:0.007901477 6:0.13322008 7:0.053272976 8:0.0067559876 9:0.13459428 
1.7133040554473487 1.6904880681543251 2.2054397100430312 2.0485367177184779 2.3674108926874093 1.8935425634999286 1:0.054224638 2:-0.0011542082 3:0.1340755 4:0.054481238 5:-0.0013051304 6:0.13400456 7:0.054703097 8:-0.0010213846 9:0.1339691 
1.7133040554473487 1.6904880681543251 2.2054397100430312 2.0485367177184779 2.3674108926874093 1.8935425634999286 1:0.054338787 2:0.0081561948 3:0.13428881 4:0.054799873 5:0.0080943081 6:0.13442235 7:0.054480659 8:0.0082897474 9:0.13431668 
1.7133040554473487 1.6904880681543251 2.2054397100430312 2.0485367177184779 2.3674108926874093 1.8935425634999286 1:0.095947608 2:0.0025614405 3:0.10847436 4:0.096035911 5:0.0025614405 6:0.10823514 7:0.096222303 8:0.0028278167 9:0.10827892 
1.7133040554473487 1.6904880681543251 2.2054397100430312 2.0485367177184779 2.3674108926874093 1.8935425634999286 1:0.096066472 2:0.0026723472 3:0.10863376 4:0.095809139 5:0.0026195092 6:0.10843832 7:0.095862711 8:0.0024150202 9:0.10845642 
1.7133040554473487 1.6904880681543251 2.2054397100430312 2.0485367177184779 2.3674108926874093 1.8935425634999286 1:0.095809868 2:0.0032753071 3:0.10886539 4:0.095570641 5:0.0031779516 6:0.10864353 7:0.095649901 8:0.0031779516 9:0.10858092 
1.7133040554473487 1.6904880681543251 2.2054397100430312 2.0485367177184779 2.3674108926874093 1.8935425634999286 1:0.054703618 2:-0.0011075009 3:0.13401594 4:0.054250851 5:-0.0015512182 6:0.13377671 7:0.054135397 8:-0.0014093452 9:0.13367104 
1.7133040554473487 1.6904880681543251 2.2054397100430312 2.0485367177184779 2.3674108926874093 1.8935425634999286 1:0.097253293 2:0.0037282673 3:0.10862261 4:0.09599381 5:0.0038610914 6:0.10784231 7:0.095513896 8:0.0036927993 9:0.10731028 
1.7133040554473487 1.6904880681543251 2.2054397100430312 2.0485367177184779 2.3674108926874093 1.8935425634999286 1:0.055107033 2:0.00041195445 3:0.13441155 4:0.05498253 5:0.00014630704 6:0.13389689 7:0.054796142 8:-0.0001110198 9:0.13383501 
1.7133040554473487 1.6904880681543251 0 0 2.3674108926874093 1.8935425634999286 1:0.054826662 2:-0.00097467725 3:0.13432684 4:0.05485308 5:-0.0011075009 6:0.13409666 7:0.055102087 8:-0.00075281863 9:0.13457512 
1.7133040554473487 1.6904880681543251 2.2054397100430312 2.0485367177184779 2.3674108926874093 1.8935425634999286 1:0.095304265 2:0.0048178108 3:0.10918169 4:0.095126923 5:0.0049423137 6:0.1095447 7:0.094647738 8:0.004658568 9:0.10922622 
1.7133040554473487 1.6904880681543251 2.2054397100430312 2.0485367177184779 2.3674108926874093 1.8935425634999286 1:0.095256389 2:0.0032408842 3:0.10871921 4:0.095105464 5:0.0036574536 6:0.10880824 7:0.095273757 8:0.003284673 9:0.10870257 
1.7133040554473487 1.6904880681543251 2.2054397100430312 2.0485367177184779 2.3674108926874093 1.8935425634999286 1:0.056334425 2:0.0030958486 3:0.13374197 4:0.055997842 5:0.0028385219 6:0.1333435 7:0.055926908 8:0.0031222676 9:0.13356463 
1.7133040554473487 1.6904880681543251 2.2054397100430312 2.0485367177184779 2.3674108926874093 1.8935425634999286 1:0.05481351 2:0.00047457031 3:0.13396783 4:0.054830879 5:0.00065191145 6:0.13355126 7:0.054848248 8:0.00055455602 9:0.13360409 
1.7133040554473487 1.6904880681543251 2.2054397100430312 2.0485367177184779 2.3674108926874093 1.8935425634999286 1:0.095945464 2:-0.00079156462 3:0.10630069 4:0.095955243 5:-0.00029865255 6:0.10678674 7:0.095522034 8:-0.00038987332 9:0.10694379 
0 0 0 0 0 1.8935425634999286 1:0.055448637 2:-0.0016070605 3:0.13425356 4:0.055280343 5:-0.0015889621 6:0.13387173 7:0.055005645 8:-0.0014742367 9:0.13405812 
1.7133040554473487 1.6904880681543251 0.5513599275107578 1.5364025382888584 2.3674108926874093 1.8935425634999286 1:0.055181344 2:-0.000984455 3:0.13459175 4:0.055154926 5:-0.001099909 6:0.13414804 7:0.054985906 8:-0.00082521235 9:0.13391786 
1.7133040554473487 1.6904880681543251 2.2054397100430312 2.0485367177184779 2.3674108926874093 1.8935425634999286 1:0.046282376 2:0.01912186 3:0.13574686 4:0.04623786 5:0.019246364 6:0.13585327 7:0.046344991 8:0.018971667 9:0.13605702 
1.7133040554473487 1.6904880681543251 2.2054397100430312 2.0485367177184779 2.3674108926874093 1.8935425634999286 1:0.096027667 2:0.003003126 3:0.10825326 4:0.096125027 5:0.0032249848 6:0.10829777 7:0.096010299 8:0.0030121752 9:0.10837776 
1.7133040554473487 0 0 0 2.3674108926874093 1.8935425634999286 1:0.055228499 2:-0.0015575029 3:0.13413869 4:0.055113045 5:-0.0016193902 6:0.1337576 7:0.054944026 8:-0.0017076965 9:0.13372212 
1.7133040554473487 1.6904880681543251 2.2054397100430312 2.0485367177184779 2.3674108926874093 1.8935425634999286 1:0.054855089 2:0.00064326945 3:0.13419395 4:0.054810573 5:0.00075872337 6:0.13444223 7:0.054659652 8:0.00066136788 9:0.13406945 
1.7133040554473487 1.2678660511157438 0 0 2.3674108926874093 1.8935425634999286 1:0.054535509 2:-0.0013149941 3:0.13408454 4:0.054845675 5:-0.0015006557 6:0.13420904 7:0.054978497 8:-0.0011904909 9:0.13411169 
1.7133040554473487 1.6904880681543251 2.2054397100430312 2.0485367177184779 2.3674108926874093 1.8935425634999286 1:0.09461373 2:0.0028247265 3:0.1088578 4:0.095225734 5:0.003303912 6:0.10906156 7:0.095695877 8:0.0036050275 9:0.10907966 
1.7133040554473487 1.6904880681543251 2.2054397100430312 2.0485367177184779 2.3674108926874093 1.8935425634999286 1:0.095362015 2:0.0033119564 3:0.10861597 4:0.095362015 5:0.0030191612 6:0.10862502 7:0.095317499 8:0.0031965025 9:0.10888162 
1.7133040554473487 1.6904880681543251 2.2054397100430312 2.0485367177184779 2.3674108926874093 1.8935425634999286 1:0.046373598 2:0.019192796 3:0.13552427 4:0.045938199 5:0.019192796 6:0.13508128 7:0.045831795 8:0.019237314 9:0.13488657 
0 0 0 0 0 1.8935425634999286 1:0.055359601 2:-0.0017141938 3:0.1336144 4:0.055421489 5:-0.0015987399 6:0.13379174 7:0.055350551 8:-0.0015806415 9:0.13426187 
1.7133040554473487 1.6904880681543251 2.2054397100430312 2.0485367177184779 2.3674108926874093 1.8935425634999286 1:0.044669664 2:0.018000603 3:0.13561943 4:0.044412338 5:0.018267708 6:0.13600055 7:0.044713454 8:0.017975641 9:0.13631976 
1.7133040554473487 1.6904880681543251 2.2054397100430312 2.0485367177184779 2.3674108926874093 1.8935425634999286 1:0.095676405 2:0.004122849 3:0.10973682 4:0.09574588 5:0.0040519122 6:0.11009151 7:0.095399521 8:0.0037779443 9:0.10987724 
1.7133040554473487 1.6904880681543251 2.2054397100430312 2.0485367177184779 2.3674108926874093 1.8935425634999286 1:0.053176876 2:0.0081764922 3:0.13426985 4:0.053487041 5:0.0080791375 6:0.13401253 7:0.053682482 8:0.0081410242 9:0.134048 
0 0 0 0 0 1.8935425634999286 1:0.054803312 2:-0.0016165122 3:0.13429495 4:0.054900668 5:-0.0016165122 6:0.13414403 7:0.054652391 8:-0.0018119517 9:0.13421497 
1.7133040554473487 1.6904880681543251 2.2054397100430312 2.0485367177184779 2.3674108926874093 1.8935425634999286 1:0.037540078 2:0.021324637 3:0.13827041 4:0.037469143 5:0.021182763 6:0.13812855 7:0.03734464 8:0.021218232 9:0.13798668 
0 0 0 0 0 1.8935425634999286 1:0.054802154 2:-0.0016541298 3:0.13418248 4:0.054766687 5:-0.001396803 6:0.13448433 7:0.054864039 8:-0.0013613347 9:0.13441339 
1.7133040554473487 1.6904880681543251 2.2054397100430312 2.0485367177184779 2.3674108926874093 1.8935425634999286 1:0.095821798 2:0.0031170461 3:0.1082901 4:0.0958037 5:0.0031970317 6:0.10844176 7:0.096176484 8:0.0032505984 9:0.10815801 
1.7133040554473487 1.6904880681543251 2.2054397100430312 2.0485367177184779 2.3674108926874093 1.8935425634999286 1:0.038070998 2:0.021296236 3:0.13748806 4:0.038230242 5:0.021004169 6:0.13734619 7:0.038584194 8:0.021031317 9:0.13773561 
0 0 0 0 0 1.8935425634999286 1:0.055430351 2:-0.0019059003 3:0.13384692 4:0.055403933 5:-0.0019858862 6:0.13375789 7:0.055492239 8:-0.0019775654 9:0.13324396 
1.7133040554473487 1.6904880681543251 2.2054397100430312 2.0485367177184779 2.3674108926874093 1.8935425634999286 1:0.054260814 2:-0.00070517079 3:0.1340784 4:0.054500042 5:-0.00080252628 6:0.13401652 7:0.054579299 8:-0.0012364656 9:0.13409578 
1.7133040554473487 1.6904880681543251 2.2054397100430312 2.0485367177184779 2.3674108926874093 1.8935425634999286 1:0.095663394 2:0.003657947 3:0.10875544 4:0.095477002 5:0.0036488978 6:0.10888826 7:0.0954951 8:0.0037288834 9:0.10907465 
1.7133040554473487 1.6904880681543251 2.2054397100430312 2.0485367177184779 2.3674108926874093 1.8935425634999286 1:0.038112602 2:0.021852186 3:0.13727774 4:0.038076406 5:0.02197669 6:0.13733058 7:0.037880965 8:0.022358519 9:0.13742794 
1.7133040554473487 1.6904880681543251 2.2054397100430312 2.0485367177184779 2.3674108926874093 1.8935425634999286 1:0.054626983 2:0.0037929108 3:0.13399818 4:0.054688871 5:0.0040057201 6:0.13417552 7:0.054670773 8:0.0037310236 9:0.13404269 
1.7133040554473487 1.6904880681543251 2.2054397100430312 2.0485367177184779 2.3674108926874093 1.8935425634999286 1:0.056089794 2:0.0041939065 3:0.13322909 4:0.056107162 5:0.0042384241 6:0.13311363 7:0.056000028 8:0.0042489307 9:0.13240354 
1.7133040554473487 1.6904880681543251 2.2054397100430312 2.0485367177184779 2.3674108926874093 1.8935425634999286 1:0.037449275 2:0.021309543 3:0.13825389 4:0.037413808 5:0.021132202 6:0.13810297 7:0.037324771 8:0.020981279 9:0.13793468 
0 0 0 2.0485367177184779 0 0 1:0.05456011 2:-0.0024573449 3:0.13320698 4:0.054861953 5:-0.0030512556 6:0.1327459 7:0.055375878 8:-0.0029539001 9:0.13287113 
0.42832601386183716 0 0 0 0.59185272317185234 1.8935425634999286 1:0.055021374 2:-0.0013384087 3:0.1342559 4:0.05511041 5:-0.001524799 6:0.13410571 7:0.055234913 8:-0.001471961 9:0.13407024 
1.7133040554473487 1.6904880681543251 2.2054397100430312 2.0485367177184779 2.3674108926874093 1.8935425634999286 1:0.094594172 2:0.0051294326 3:0.1091922 4:0.0948334 5:0.0050403978 6:0.10913032 7:0.09504621 8:0.0047302333 9:0.10916505 
1.7133040554473487 1.6904880681543251 2.2054397100430312 2.0485367177184779 2.3674108926874093 1.8935425634999286 1:0.054650602 2:0.00015722074 3:0.13416535 4:0.054269499 5:0.00013007309 6:0.13403253 7:0.054650602 8:2.3668394e-05 9:0.1347238 
1.7133040554473487 1.6904880681543251 2.2054397100430312 2.0485367177184779 2.3674108926874093 1.8935425634999286 1:0.054280621 2:0.0037769981 3:0.13440642 4:0.05449343 5:0.0038034173 6:0.13403364 7:0.054254203 8:0.0037408012 9:0.13403364 
1.7133040554473487 1.6904880681543251 2.2054397100430312 2.0485367177184779 2.3674108926874093 1.8935425634999286 1:0.054529627 2:0.0036322106 3:0.13410459 4:0.05412138 5:0.0035876932 6:0.13381251 7:0.054014975 8:0.0034986583 9:0.13389251 
1.7133040554473487 1.6904880681543251 2.2054397100430312 2.0485367177184779 2.3674108926874093 1.8935425634999286 1:0.054627713 2:0.0034374998 3:0.13383894 4:0.054538676 5:0.0032156413 6:0.13379441 7:0.054378706 8:0.0034374998 9:0.13390987 
1.7133040554473487 1.6904880681543251 2.2054397100430312 2.0485367177184779 2.3674108926874093 1.8935425634999286 1:0.095681963 2:0.0035700118 3:0.10902495 4:0.095646496 5:0.0035345436 6:0.10907779 7:0.095327278 8:0.003339104 9:0.10894424 
1.7133040554473487 1.6904880681543251 2.2054397100430312 2.0485367177184779 2.3674108926874093 1.8935425634999286 1:0.044822347 2:0.017838868 3:0.13821122 4:0.045142292 5:0.017761069 6:0.13801652 7:0.044894741 8:0.017531618 9:0.13789201 
1.7133040554473487 1.6904880681543251 2.2054397100430312 2.0485367177184779 2.3674108926874093 1.8935425634999286 1:0.052560778 2:0.0079343729 3:0.13427579 4:0.05227703 5:0.0082716859 6:0.13422223 7:0.052126109 8:0.0082981047 9:0.13433695 
0 0 0 2.0485367177184779 0 0 1:0.070646581 2:-0.0064205188 3:0.12686367 4:0.070557548 5:-0.0063209774 6:0.12655423 7:0.070335689 8:-0.0063376186 9:0.12694439 
1.7133040554473487 1.6904880681543251 2.2054397100430312 2.0485367177184779 2.3674108926874093 1.8935425634999286 1:0.094674885 2:0.0050925074 3:0.10911295 4:0.094533017 5:0.0054117215 6:0.10915673 7:0.094488494 8:0.0051453453 9:0.10944048 
1.7133040554473487 1.6904880681543251 2.2054397100430312 2.0485367177184779 2.3674108926874093 1.8935425634999286 1:0.053907228 2:6.5999945e-05 3:0.13377738 4:0.053915547 5:0.0003761648 6:0.13368835 7:0.054270229 8:0.00026976009 9:0.1338114 
1.7133040554473487 1.6904880681543251 2.2054397100430312 2.0485367177184779 2.3674108926874093 1.8935425634999286 1:0.046592643 2:0.0078548624 3:0.13685837 4:0.046290801 5:0.0076503739 6:0.13736471 7:0.046610015 8:0.0072421244 9:0.13700171 
1.7133040554473487 1.6904880681543251 2.2054397100430312 2.0485367177184779 2.3674108926874093 1.8935425634999286 1:0.094892036 2:0.0037960427 3:0.10851415 4:0.094492834 5:0.0036889094 6:0.10845226 7:0.094280024 8:0.0036700824 9:0.10834586 
-1.7133040554473487 0 251.18947817945849 62.385184147315869 33369.788396284974 19080.96537658646 1:0.0063392802 2:0.14129104 3:0.010142669 4:0.0063740198 5:0.14095373 6:0.0099917472 7:0.0065158927 8:0.14080353 9:0.010257395 
-1.7133040554473487 7648.603114644201 0 0 33369.788396284974 19080.96537658646 1:-0.002951442 2:0.14075264 3:0.009315707 4:-0.0030661672 5:0.14086882 6:0.0092357209 7:-0.0031899419 8:0.14100166 9:0.0092621396 
-1.7133040554473487 7648.603114644201 0 0 0 19080.96537658646 1:-0.0032420512 2:0.1401656 3:0.011265002 4:-0.0030556609 5:0.14021012 6:0.01107934 7:-0.0031446958 8:0.14046745 9:0.011283101 
-1.7133040554473487 7648.603114644201 0 0 33369.788396284974 19080.96537658646 1:-0.00086139472 2:0.13998064 3:0.012058995 4:-0.00095729296 5:0.14003276 6:0.012042354 7:-0.0020463016 8:0.14052857 9:0.012300409 
-0 7648.603114644201 251.18947817945849 62.385184147315869 33369.788396284974 19080.96537658646 1:0.0018471354 2:0.14166738 3:-0.0044309451 4:0.0019625893 5:0.14173833 6:-0.0045456703 7:0.0019890083 8:0.14158739 9:-0.0044218959 
-0 7648.603114644201 0 0 0 19080.96537658646 1:-0.0037067038 2:0.14366996 3:0.00291741 4:-0.0029452299 5:0.14290017 6:0.0030918366 7:-0.0019785381 8:0.14239602 9:0.0026987715 
-0 7648.603114644201 0 0 33369.788396284974 19080.96537658646 1:-0.0006771903 2:0.14135371 3:0.0074390761 4:-0.00091569001 5:0.14111448 6:0.0074919137 7:-0.00067646166 8:0.14130014 9:0.0075266537 
-1.7133040554473487 7648.603114644201 0 0 0 19080.96537658646 1:-0.0029590393 2:0.13550954 3:0.039737396 4:-0.0031371091 5:0.13585444 6:0.039302727 7:-0.0034306329 8:0.13637742 9:0.039240112 
-1.7133040554473487 0 251.18947817945849 62.385184147315869 33369.788396284974 19080.96537658646 1:0.0088276479 2:0.14027934 3:0.013373993 4:0.0087740815 5:0.1404129 6:0.013568704 7:0.0085703218 8:0.14080377 9:0.013604172 
-0 7648.603114644201 61.842060126132566 62.385184147315869 33369.788396284974 19080.96537658646 1:0.001174881 2:0.14149568 3:-0.0040845976 4:0.0011394128 5:0.14146021 6:-0.0041110164 7:0.001316754 8:0.14154852 9:-0.0042091005 
-1.7133040554473487 7648.603114644201 0 0 33369.788396284974 19080.96537658646 1:-0.000840718 2:0.14133969 3:0.012826333 4:-0.0010708972 5:0.14105522 6:0.012587104 7:-0.001407481 8:0.14122205 9:0.012019613 
-1.7133040554473487 0 0 0 33369.788396284974 19080.96537658646 1:0.0012967613 2:0.14158315 3:0.011248631 4:0.0015435816 5:0.14161104 6:0.01170899 7:0.0011617517 8:0.14112353 9:0.011459983 
-1.7133040554473487 0 251.18947817945849 62.385184147315869 0 19080.96537658646 1:0.0050061284 2:0.1401201 3:0.017735129 4:0.0048649844 5:0.13999413 6:0.017230252 7:0.0046876431 8:0.14010054 9:0.017868681 
-1.7133040554473487 0 251.18947817945849 62.385184147315869 33369.788396284974 19080.96537658646 1:0.019156732 2:0.14048589 3:0.0015730839 4:0.018731114 5:0.14049276 6:0.0019730124 7:0.018519032 8:0.1401804 9:0.001565492 
-1.7133040554473487 7648.603114644201 0 0 0 19080.96537658646 1:-0.0011432442 2:0.13619584 3:0.031157883 4:-0.0013379553 5:0.13581911 6:0.030563244 7:-0.0016133806 8:0.13521906 9:0.030084059 
-1.7133040554473487 0 251.18947817945849 0 33369.788396284974 19080.96537658646 1:0.0039293949 2:0.13433904 3:0.043296457 4:0.0040712678 5:0.1348982 6:0.043393813 7:0.0043021755 8:0.13520005 9:0.043730396 
-1.7133040554473487 7648.603114644201 0 0 33369.788396284974 19080.96537658646 1:-0.0003825509 2:0.13380499 3:0.046600133 4:-0.00064892693 5:0.13371524 6:0.046920803 7:-0.00088815537 8:0.13407823 9:0.046664207 
-1.7133040554473487 0 251.18947817945849 62.385184147315869 33369.788396284974 0 1:0.01613159 2:0.14209781 3:0.015265935 4:0.015384571 5:0.14231675 6:0.013119743 7:0.014823943 8:0.1431531 9:0.012994512 
-0 7648.603114644201 0 0 0 19080.96537658646 1:-0.0023028999 2:0.14194002 3:0.0038470066 4:-0.0022764807 5:0.14188572 6:0.0039715099 7:-0.0021346078 8:0.14151222 9:0.0039277207 
-1.7133040554473487 0 251.18947817945849 62.385184147315869 33369.788396284974 19080.96537658646 1:0.016173757 2:0.13975455 3:0.011829537 4:0.016278704 5:0.1389938 6:0.011642418 7:0.016437219 8:0.13879151 9:0.011934484 
-0 7648.603114644201 0 0 33369.788396284974 19080.96537658646 1:-0.0041675626 2:0.14186954 3:0.0066900233 4:-0.0040785277 5:0.14184311 6:0.0061844191 7:-0.0033427442 8:0.1415239 9:0.0061663206 
-0 7648.603114644201 251.18947817945849 62.385184147315869 33369.788396284974 19080.96537658646 1:0.010526023 2:0.14239633 3:-0.0088720038 4:0.010579589 5:0.14181905 6:-0.0091021831 7:0.010463407 8:0.14277524 9:-0.008986729 
-1.7133040554473487 7648.603114644201 0 0 33369.788396284974 19080.96537658646 1:0.0026086096 2:0.13439566 3:0.044301674 4:0.0027504824 5:0.13404931 6:0.044355243 7:0.0027595317 8:0.13392554 9:0.04401793 
-1.7133040554473487 0 251.18947817945849 62.385184147315869 33369.788396284974 19080.96537658646 1:0.0032582214 2:0.1402378 3:0.014124889 4:0.0037012098 5:0.14040609 6:0.013956597 7:0.0036031257 8:0.14042419 9:0.014178456 
-0 0 251.18947817945849 62.385184147315869 0 19080.96537658646 1:0.007853519 2:0.14162278 3:0.00029835529 4:0.0079953918 5:0.14156088 6:0.00017458082 7:0.0079863426 8:0.14183558 9:-0.00021556974 
-1.7133040554473487 0 251.18947817945849 62.385184147315869 33369.788396284974 19080.96537658646 1:0.0065689165 2:0.13977156 3:0.019110797 4:0.0067809974 5:0.14005748 6:0.01905723 7:0.0065327197 8:0.14012843 9:0.01910102 
-0 7648.603114644201 0 62.385184147315869 33369.788396284974 19080.96537658646 1:0.00023666311 2:0.14133415 3:0.0037051338 4:3.2902949e-05 5:0.14144055 6:0.0030840754 7:0.00050303914 8:0.14121869 9:0.0034032894 
-0 7648.603114644201 0 62.385184147315869 0 0 1:0.0014959081 2:0.14469614 3:0.0036388648 4:0.0018400838 5:0.14543192 6:0.0028578349 7:0.0012960967 8:0.14532261 9:0.0022556036 
-1.7133040554473487 0 251.18947817945849 62.385184147315869 33369.788396284974 19080.96537658646 1:0.0085233636 2:0.13274592 3:0.0089376718 4:0.010222196 5:0.13280137 6:0.0094237203 7:0.010601111 8:0.13504242 9:0.010037187 
-1.7133040554473487 0 0 0 33369.788396284974 19080.96537658646 1:0.00034306779 2:0.14157556 3:0.00897253 4:0.00079437696 5:0.14178838 6:0.0090344177 7:0.00078532775 8:0.14138845 9:0.0091762905 
-0 0 251.18947817945849 62.385184147315869 33369.788396284974 19080.96537658646 1:0.010185137 2:0.1419031 3:0.002429006 4:0.010237976 5:0.14205402 6:0.0023052315 7:0.010468155 8:0.1422661 9:0.0019505491 
-0 7648.603114644201 0 62.385184147315869 0 19080.96537658646 1:0.00088413143 2:0.14157154 3:-0.005616572 4:0.00068869186 5:0.1413761 6:-0.0059976734 7:0.00065249499 8:0.14136705 9:-0.0059803038 
-1.7133040554473487 7648.603114644201 0 0 33369.788396284974 19080.96537658646 1:-0.0020753295 2:0.14124584 3:0.0092056239 4:-0.0021288962 5:0.14086401 6:0.009134687 7:-0.0029091974 8:0.14085424 9:0.009764795 
-1.7133040554473487 0 251.18947817945849 0 0 19080.96537658646 1:0.0060313497 2:0.13728279 3:0.035390648 4:0.0058283189 5:0.1364377 6:0.036243343 7:0.0057143218 8:0.13557449 9:0.037390291 
-1.7133040554473487 7648.603114644201 0 0 0 19080.96537658646 1:-0.012260855 2:0.12997345 3:0.030152723 4:-0.013409565 5:0.13322043 6:0.032651412 7:-0.012030983 8:0.13377723 9:0.034229383 
-1.7133040554473487 0 0 0 33369.788396284974 19080.96537658646 1:0.00026269737 2:0.14065122 3:0.014266766 4:0.00013892288 5:0.14084594 6:0.014213929 7:6.8715037e-05 8:0.14064217 9:0.014222978 
-0 7648.603114644201 251.18947817945849 62.385184147315869 33369.788396284974 0 1:0.0020608857 2:0.14129251 3:-0.0047978166 4:0.0021408714 5:0.14152341 6:-0.0050551435 7:0.0021582412 8:0.14165624 9:-0.0050023055 
-1.7133040554473487 0 0 0 16684.894198142487 19080.96537658646 1:0.001087172 2:0.14059763 3:0.01457651 4:0.0008124754 5:0.1407652 6:0.014914551 7:0.0006351342 8:0.14068521 9:0.014940971 
-1.7133040554473487 0 251.18947817945849 62.385184147315869 33369.788396284974 19080.96537658646 1:0.016505124 2:0.14465344 3:0.040863373 4:0.016306769 5:0.1431902 6:0.039849978 7:0.0167664 8:0.141964 9:0.039761672 
-1.7133040554473487 0 0 0 0 19080.96537658646 1:0.00056987634 2:0.13388024 3:0.045288306 4:0.00042800342 5:0.13398737 6:0.045289036 7:0.00051703828 8:0.13434278 9:0.04535997 
-1.7133040554473487 7648.603114644201 0 0 0 19080.96537658646 1:-0.0020285395 2:0.1403755 3:0.011115537 4:-0.0020021205 5:0.14083877 6:0.011345716 7:-0.0014957873 8:0.14103493 9:0.011372135 
-1.7133040554473487 0 125.59473908972925 62.385184147315869 0 19080.96537658646 1:0.0033863677 2:0.14085096 3:0.013797354 4:0.0030581043 5:0.14093927 6:0.013283429 7:0.0032792344 8:0.1411966 9:0.013309848 
-0 7648.603114644201 251.18947817945849 62.385184147315869 0 19080.96537658646 1:0.003693958 2:0.14176101 3:-0.0055705439 4:0.0035701833 5:0.14117542 6:-0.0054641391 7:0.0037211056 8:0.14110375 9:-0.0056769484 
-0 7648.603114644201 0 0 0 4770.2413441466151 1:-0.002762224 2:0.14168051 3:0.0081296132 4:-0.0026912875 5:0.14152886 6:0.0077485118 7:-0.0025494145 8:0.14138553 9:0.0080594052 
-0.42832601386183716 7648.603114644201 0 0 0 0 1:-0.0013846746 2:0.14101348 3:0.0074430242 4:-0.0012073334 5:0.14095919 6:0.0076558339 7:-0.001083559 8:0.14093204 9:0.0084716031 
-1.7133040554473487 0 251.18947817945849 62.385184147315869 33369.788396284974 0 1:0.015566 2:0.14163965 3:0.0063724142 4:0.01619538 5:0.14116045 6:0.0063452665 7:0.016674565 8:0.14141778 9:0.0059105983 
-1.7133040554473487 0 0 0 0 0 1:-0.0032676731 2:0.14150467 3:0.035266145 4:-0.0034334738 5:0.14196722 6:0.035217984 7:-0.0031548285 8:0.1420472 9:0.035747822 
-1.7133040554473487 0 251.18947817945849 62.385184147315869 33369.788396284974 0 1:0.012517802 2:0.13565038 3:0.037927057 4:0.01256159 5:0.13555302 6:0.038228173 7:0.012286894 8:0.13588202 9:0.03814746 
-1.7133040554473487 0 251.18947817945849 62.385184147315869 0 0 1:0.0094819075 2:0.14116732 3:0.0043486624 4:0.0091091265 5:0.14088284 6:0.0043924512 7:0.0096230515 8:0.14083978 9:0.0040008433 
-0 7648.603114644201 0 62.385184147315869 0 0 1:0.0023432502 2:0.14416892 3:0.0071842404 4:0.0022270675 5:0.14377732 6:0.0073858143 7:0.0021456246 8:0.14386781 9:0.0062403248 
-1.7133040554473487 0 189.34741805332592 0 33369.788396284974 0 1:0.001775182 2:0.1274311 3:0.059054583 4:0.0020708915 5:0.12722048 6:0.059037214 7:0.0019945492 8:0.12759472 9:0.059107422 
-1.7133040554473487 0 251.18947817945849 62.385184147315869 0 0 1:0.008276798 2:0.14045741 3:0.012081225 4:0.0080647171 5:0.14116678 6:0.012853205 7:0.0083756105 8:0.14121203 9:0.012710604 
-1.7133040554473487 0 251.18947817945849 62.385184147315869 33369.788396284974 0 1:0.0098667338 2:0.13719257 3:0.039452192 4:0.0099195713 5:0.13617378 6:0.039372935 7:0.0098841033 8:0.13575721 9:0.039169175 
-0 7648.603114644201 0 0 0 0 1:-0.0035146487 2:0.14023609 3:0.006436916 4:-0.0036384231 5:0.14081263 6:0.0066504541 7:-0.0033984662 8:0.14141559 9:0.0067123414 
-1.7133040554473487 0 251.18947817945849 62.385184147315869 33369.788396284974 0 1:0.0091159809 2:0.13876548 3:0.016826496 4:0.0089129492 5:0.13893451 6:0.017359249 7:0.008985343 8:0.13901595 9:0.017377347 
-1.7133040554473487 0 251.18947817945849 62.385184147315869 33369.788396284974 19080.96537658646 1:0.019941711 2:0.14005184 3:-0.0032643221 4:0.01955156 5:0.14050314 6:-0.0035925852 7:0.020057165 8:0.14025559 9:-0.0033269379 
-1.7133040554473487 0 0 0 33369.788396284974 0 1:0.0021157417 2:0.13425603 3:0.04347146 4:0.0025685079 5:0.13423793 6:0.043400522 7:0.0023911669 8:0.13449381 9:0.04325865 
-0 7648.603114644201 251.18947817945849 62.385184147315869 0 19080.96537658646 1:0.0020900513 2:0.14157445 3:-0.0057493961 4:0.0020629037 5:0.1415473 6:-0.0057584453 7:0.001982918 8:0.14195482 9:-0.0062112116 
-0 7648.603114644201 0 0 0 0 1:-0.00030650865 2:0.14164695 3:0.0058028947 4:-2.3491424e-05 5:0.14149675 6:0.0056519726 7:0.00021573697 8:0.14176386 9:0.0055636662 
-1.7133040554473487 0 0 0 0 0 1:0.00064272619 2:0.14050173 3:0.01412593 4:0.0011657004 5:0.14056581 6:0.013602227 7:0.00090005297 8:0.14073337 9:0.013957638 
-0 7648.603114644201 0 0 0 0 1:-0.0023394329 2:0.14118513 3:0.0082154632 4:-0.0021620918 5:0.14098138 6:0.0087384374 7:-0.0021794616 8:0.14100779 9:0.0084373212 
-1.7133040554473487 0 251.18947817945849 62.385184147315869 33369.788396284974 0 1:0.018161623 2:0.14095002 3:0.0015840855 4:0.018152573 5:0.1410948 6:0.0015569379 7:0.018657448 8:0.14082158 9:0.0013607696 
-0 7648.603114644201 0 62.385184147315869 0 0 1:0.00040422642 2:0.14114776 3:0.0031459627 4:0.00093624983 5:0.14128891 6:0.0030214594 7:0.00074153891 8:0.14112892 9:0.003305934 
-1.7133040554473487 7648.603114644201 0 0 0 0 1:-0.0010687113 2:0.14106967 3:0.0092244859 4:-0.0012286827 5:0.14103493 6:0.009597267 7:-0.0011841651 8:0.14111492 9:0.010031935 
-0 7648.603114644201 0 0 0 0 1:-0.00065982047 2:0.14151149 3:0.0071017631 4:-0.00079264423 5:0.14166241 6:0.0076156881 7:-0.00015421605 8:0.14131823 9:0.0076337866 
-0 0 251.18947817945849 62.385184147315869 0 0 1:0.0074884005 2:0.14514758 3:0.0015596701 4:0.0075647431 5:0.14403902 6:0.00013189158 7:0.0069965227 8:0.14335461 9:0.0010457451 
-0 7648.603114644201 251.18947817945849 62.385184147315869 0 19080.96537658646 1:0.0018508228 2:0.14125305 3:-0.0065923129 4:0.0020726816 5:0.14132399 6:-0.0061485955 7:0.0021790862 8:0.14116402 9:-0.0061666939 
-1.7133040554473487 0 251.18947817945849 62.385184147315869 33369.788396284974 0 1:0.013254856 2:0.14070982 3:0.0080424519 4:0.013654056 5:0.1407355 6:0.0079088994 7:0.013148452 8:0.14046913 9:0.0079353182 
-1.7133040554473487 0 251.18947817945849 62.385184147315869 33369.788396284974 0 1:0.015837902 2:0.14065552 3:0.010317824 4:0.015812212 5:0.14073478 6:0.010459697 7:0.015474899 8:0.14109924 9:0.0099540926 
-1.7133040554473487 0 0 0 0 0 1:0.00091022043 2:0.14480529 3:0.031822619 4:0.0015848452 5:0.14460006 6:0.031394813 7:0.0014686626 8:0.14408614 9:0.030754198 
-0 7648.603114644201 0 0 0 0 1:-0.0036065981 2:0.14098779 3:0.006926608 4:-0.0035447109 5:0.14098779 6:0.0068292523 7:-0.0033756904 8:0.14122847 9:0.006926608 
-1.7133040554473487 0 0 0 0 0 1:0.0014570292 2:0.13496978 3:0.043580051 4:0.0014382021 5:0.1346596 6:0.043836647 7:0.0018366733 8:0.13478338 9:0.043872844 
-1.7133040554473487 0 251.18947817945849 62.385184147315869 0 0 1:0.0093166119 2:0.1401798 3:0.013337796 4:0.0089883481 5:0.14010959 6:0.01328423 7:0.0088826721 8:0.14023482 9:0.013266131 
-1.7133040554473487 7648.603114644201 0 0 0 0 1:0.00089941121 2:0.14085905 3:0.0083475579 4:0.00082847472 5:0.14110807 6:0.0080464426 7:0.00099676665 8:0.1410469 9:0.0078426821 
-1.7133040554473487 0 0 0 0 0 1:-0.0010187877 2:0.14090212 3:0.01302323 4:-0.00084144665 5:0.14081453 6:0.013484316 7:-0.00047844374 8:0.14044322 9:0.01322699 
-0 -7648.603114644201 215.93979437216504 0 2066.9245078751128 6658.2679319259223 1:-0.015327363 2:0.25000415 3:0.010125342 4:0.0067902859 5:0.17783059 6:-0.0037012511 7:0.01285117 8:0.096015719 9:0.0054780869 
-1.6904880681543251 -7648.603114644201 215.93979437216504 100.23700073721467 2066.9245078751128 6658.2679319259223 1:0.003206727 2:0.11677351 3:0.019668057 4:0.0090760493 5:0.12792615 6:0.024562674 7:0.0095726039 8:0.14884317 9:0.017768686 
-0 -7648.603114644201 215.93979437216504 100.23700073721467 2066.9245078751128 6658.2679319259223 1:0.027841888 2:0.13462427 3:-0.01311591 4:0.014757802 5:0.15013877 6:-0.042569539 7:0.0036486527 8:0.16135616 9:-0.059926078 
-1.6904880681543251 -899.67761269837945 0 0 0 0 1:-0.03256645 2:0.11516646 3:0.018101979 4:-0.029058855 5:0.099947798 6:0.006721237 7:-0.041811743 8:0.10071849 9:0.01175876 
-1.6904880681543251 -7648.603114644201 215.93979437216504 100.23700073721467 2066.9245078751128 6658.2679319259223 1:0.089421342 2:0.10470875 3:-0.070483954 4:0.084146702 5:0.10418853 6:-0.082130999 7:0.064150448 8:0.090637994 9:-0.090911068 
-1.6904880681543251 -7648.603114644201 215.93979437216504 4.7336467056583107 0 5556.1084139195546 1:-0.0066034478 2:0.14220966 3:0.0060951491 4:-0.00071760089 5:0.1104932 6:0.0064493375 7:-0.0052752095 8:0.08376526 9:0.003315676 
-0 -0 0 0 0 892.07141831873992 1:-0.016749337 2:0.21925587 3:0.061984267 4:-0.017853718 5:0.13577858 6:-0.0025714855 7:-0.026703805 8:0.13043036 9:-0.030987978 
-0.20473888959334277 -7648.603114644201 215.93979437216504 100.23700073721467 2066.9245078751128 6658.2679319259223 1:0.035840766 2:0.1522105 3:-0.0033872567 4:0.023895396 5:0.17939822 6:-0.016782402 7:-0.0020718116 8:0.16264289 9:-0.008803132 
-0 -5687.0600097222678 215.93979437216504 0 2066.9245078751128 6658.2679319259223 1:0.01914792 2:0.27090239 3:0.018386055 4:0.012925139 5:0.26434951 6:0.0029211778 7:-0.004824747 8:0.12690375 9:-0.010031167 
-1.6904880681543251 -7648.603114644201 215.93979437216504 100.23700073721467 2066.9245078751128 6658.2679319259223 1:0.0064744071 2:0.1213621 3:-0.0074471523 4:0.0065469182 5:0.13733177 6:0.0024178815 7:0.014051727 8:0.16370792 9:0.0011401789 
-1.6904880681543251 -7648.603114644201 215.93979437216504 100.23700073721467 2066.9245078751128 5766.1965136071822 1:0.0058189887 2:0.12287847 3:0.032829919 4:0.02034237 5:0.21213864 6:0.021097952 7:0.021843577 8:0.1016908 9:-0.012521676 
-1.6904880681543251 -7648.603114644201 215.93979437216504 100.23700073721467 0 6658.2679319259223 1:0.0051508475 2:0.11161588 3:0.0070939285 4:-0.0016646473 5:0.070709585 6:-0.0030541217 7:-0.0032565804 8:0.091433445 9:-0.020986662 
-1.6904880681543251 -7648.603114644201 215.93979437216504 0 2066.9245078751128 6658.2679319259223 1:-0.013155295 2:0.12914501 3:0.065087331 4:-0.0089520629 5:0.12526349 6:0.063829913 7:-0.0016854477 8:0.12052501 9:0.059739713 
-0 -7648.603114644201 95.609447144944141 0 2066.9245078751128 4180.5555924907867 1:-0.0019325749 2:0.22840658 3:0.0013059789 4:0.002315576 5:0.17017338 6:0.032679875 7:-0.01478989 8:0.15273794 9:0.027766242 
-1.6904880681543251 -7648.603114644201 215.93979437216504 100.23700073721467 2066.9245078751128 6658.2679319259223 1:-0.0024740686 2:0.10834039 3:0.0051662117 4:-0.010249392 5:0.14062024 6:0.010960649 7:-0.015350871 8:0.16817875 9:0.019704965 
-1.6904880681543251 -7648.603114644201 0 0 783.26142695305259 6658.2679319259223 1:-0.014735831 2:0.1099764 3:0.012191506 4:-0.024445497 5:0.15833374 6:0.017434975 7:-0.028375986 8:0.19378515 9:0.0038524058 
-1.6904880681543251 -7648.603114644201 0 0 0 0 1:-0.031863152 2:0.16191644 3:0.019432778 4:-0.017203913 5:0.16403772 6:0.032289223 7:-0.01768754 8:0.17061695 9:0.0030210711 
-0 -7648.603114644201 0 0 2066.9245078751128 6658.2679319259223 1:-0.030169535 2:0.15241716 3:0.031198192 4:-0.031655161 5:0.17812216 6:0.056662693 7:-0.018157585 8:0.22454052 9:0.019820626 
-0 -0 0 0 0 3579.8718574415034 1:-0.043769737 2:0.17549831 3:-0.024515926 4:-0.037837142 5:0.19879096 6:-0.02167379 7:-0.021085395 8:0.18110221 9:-0.011226693 
-0 -7648.603114644201 0 0 1549.29670406477 6658.2679319259223 1:-0.027893651 2:0.17656211 3:0.02514747 4:-0.034887333 5:0.22383671 6:0.027939871 7:-0.036303993 8:0.20964984 9:0.030923879 
-1.6904880681543251 -0 215.93979437216504 100.23700073721467 2066.9245078751128 6658.2679319259223 1:-0.010880178 2:0.014883181 3:0.02998085 4:-0.018311748 5:-0.0068682381 6:0.0029667523 7:-0.018869651 8:-0.023723412 9:0.036445189 
-1.6904880681543251 -1523.3546746204825 0 48.266618608897559 0 0 1:-0.027726955 2:0.085581305 3:-0.030453718 4:-0.031420941 5:0.11068613 6:-0.011746283 7:-0.030263065 8:0.12886625 9:0.010103134 
-1.6904880681543251 -7648.603114644201 0 100.23700073721467 2066.9245078751128 6658.2679319259223 1:0.0039116485 2:0.10887856 3:-0.001595134 4:-0.01073854 5:0.057933606 6:0.0078071675 7:-0.024185488 8:0.048220101 9:0.021413241 
-0 -0 0 0 1545.2684190023615 6139.5035746237727 1:-0.021415793 2:0.30389201 3:0.028650407 4:0.0087569986 5:0.19719621 6:0.030208773 7:0.022284779 8:0.080460201 9:-0.019052413 
-0 -7648.603114644201 215.93979437216504 100.23700073721467 2066.9245078751128 6658.2679319259223 1:0.0072289709 2:0.16764231 3:-0.020003446 4:0.0071971462 5:0.16214534 6:-0.018231187 7:0.0084534128 8:0.12134074 9:-0.010303485 
-1.6904880681543251 -7648.603114644201 215.93979437216504 100.23700073721467 2066.9245078751128 6658.2679319259223 1:-0.0049303772 2:0.07828 3:-5.0938281e-05 4:-0.0070819744 5:0.11468698 6:0.016234387 7:-0.0014333597 8:0.17417223 9:0.02517955 
-1.6904880681543251 -7648.603114644201 0 100.23700073721467 412.35467657915569 6658.2679319259223 1:-0.016455061 2:0.1094095 3:0.0013550273 4:-0.016782523 5:0.090422949 6:0.0038846254 7:-0.0035999998 8:0.074217846 9:0.0026033975 
-1.6904880681543251 -7648.603114644201 0 0 0 6658.2679319259223 1:-0.016638422 2:0.10670122 3:-0.0066843387 4:-0.023106026 5:0.11036288 6:-0.0042612638 7:-0.025170775 8:0.13449766 9:-0.002373973 
-1.6904880681543251 -7648.603114644201 0 0 0 2266.6155456939014 1:-0.016295046 2:0.14709548 3:0.021929357 4:-0.016065172 5:0.14092911 6:0.01174062 7:-0.023787891 8:0.15323148 9:0.002171789 
-1.6904880681543251 -7648.603114644201 215.93979437216504 100.23700073721467 2066.9245078751128 6658.2679319259223 1:-0.010432704 2:0.15144502 3:0.011559142 4:0.0051527282 5:0.10672183 6:0.010407823 7:0.01143655 8:0.057711294 9:0.01346392 
-1.6904880681543251 -0 0 100.23700073721467 0 0 1:-0.0042260688 2:0.066239245 3:-0.067465201 4:0.0015868655 5:0.047306898 6:-0.083276317 7:0.0020358474 8:0.035527123 9:-0.10472064 
-1.6904880681543251 -0 69.131204367176196 100.23700073721467 756.20538681605012 2024.628332893647 1:0.021033612 2:0.11490834 3:-0.01049284 4:0.010893744 5:-0.030979207 6:-0.072733093 7:-0.03034234 8:0.036947648 9:-0.040879431 
-0 -6047.3035829527398 0 0 2066.9245078751128 6658.2679319259223 1:-0.019661562 2:0.21696624 3:0.010399569 4:-0.024328491 5:0.26516082 6:0.014418597 7:-0.021364037 8:0.28830219 9:0.024418026 
-0 -7648.603114644201 0 0 0 6658.2679319259223 1:-0.033116387 2:0.15796824 3:0.013200952 4:-0.030365354 5:0.16261666 6:0.010624887 7:-0.02889762 8:0.13878552 9:0.0053806893 
-0 -7648.603114644201 215.93979437216504 100.23700073721467 2066.9245078751128 6658.2679319259223 1:0.013481086 2:0.17038638 3:-0.01690913 4:0.030245784 5:0.1840979 6:-0.015327281 7:0.013670344 8:0.20385412 9:0.0034357181 
-1.6904880681543251 -7648.603114644201 215.93979437216504 100.23700073721467 2066.9245078751128 6658.2679319259223 1:0.013652673 2:0.12865198 3:0.014589425 4:0.019242809 5:0.096268274 6:0.0070336585 7:0.017768939 8:0.10606886 9:0.0075682911 
-0 -7648.603114644201 0 14.038608072470673 706.63650608044304 6658.2679319259223 1:-0.010696446 2:0.15573036 3:-0.036982551 4:-0.0032621503 5:0.19342353 6:-0.029444037 7:0.0082973901 8:0.16569826 9:-0.0026042934 
-1.6904880681543251 -0 0 100.23700073721467 0 0 1:-0.030881439 2:0.12089214 3:0.022401721 4:-0.016880419 5:0.12913125 6:0.044683785 7:0.0050443296 8:0.087785091 9:0.0063833843 
-1.6904880681543251 -0 215.93979437216504 100.23700073721467 2066.9245078751128 6658.2679319259223 1:0.013355223 2:0.013370629 3:-0.01919062 4:0.00048037507 5:0.012858015 6:0.0043635045 7:-0.0067294071 8:0.0060177757 9:0.035222441 
-1.6904880681543251 -7648.603114644201 215.93979437216504 100.23700073721467 2066.9245078751128 6658.2679319259223 1:-0.0062486284 2:0.11823147 3:0.049523028 4:3.2891919e-05 5:0.12636309 6:0.0539339 7:0.0027394058 8:0.13714682 9:0.057394603 
-1.6904880681543251 -7648.603114644201 215.93979437216504 100.23700073721467 2066.9245078751128 6658.2679319259223 1:0.013376798 2:0.11203174 3:0.010332468 4:0.014992305 5:0.09895083 6:0.0068206899 7:0.017318332 8:0.12268532 9:0.0028361671 
-1.6904880681543251 -0 0 100.23700073721467 0 3487.8369733529435 1:-0.028746176 2:0.020314083 3:0.0028470896 4:-0.037936046 5:0.029392205 6:0.045916216 7:-0.027001041 8:0.12682016 9:0.018011957 
-1.6904880681543251 -0 0 0 0 0 1:-0.024539255 2:0.13495576 3:-0.0013574755 4:-0.02188612 5:0.12294691 6:0.0044502649 7:-0.011969167 8:0.11047728 9:0.0081599738 
-0 -1601.2995316914619 215.93979437216504 100.23700073721467 2066.9245078751128 6658.2679319259223 1:0.013108399 2:0.19126662 3:-0.062780296 4:0.033749638 5:0.14930493 6:-0.029207604 7:0.033067422 8:0.1373177 9:0.0094538014 
-1.6904880681543251 -0 0 0 0 0 1:-0.041282049 2:0.17936928 3:0.022032352 4:-0.031742975 5:0.11931489 6:0.018789255 7:-0.021799342 8:0.088230518 9:0.011118456 
-0 -0 154.53051371914518 0 163.0211754303013 6658.2679319259223 1:-0.044680392 2:0.19963221 3:0.037114058 4:-0.0094541409 5:0.24363521 6:0.053229656 7:-0.003700038 8:0.25702533 9:0.0050760919 
-1.6904880681543251 -0 215.93979437216504 0 2066.9245078751128 0 1:0.008827959 2:0.13887459 3:0.027081763 4:-0.0013849401 5:0.1732435 6:0.016932867 7:-0.0047513902 8:0.13065793 9:0.0075087071 
-1.6904880681543251 -0 215.93979437216504 100.23700073721467 1283.6630809220603 0 1:-0.00043296605 2:0.14110046 3:-0.0057081039 4:0.0086461721 5:0.12341523 6:-0.0081796451 7:0.0043209283 8:0.130724 9:-0.021578926 
-1.6904880681543251 -0 0 0 0 0 1:-0.029122583 2:0.10385036 3:-0.010185212 4:-0.042746566 5:0.055730198 6:0.0066603883 7:-0.056931249 8:0.08836741 9:0.024376946 
-1.6904880681543251 -7648.603114644201 215.93979437216504 100.23700073721467 2066.9245078751128 6658.2679319259223 1:0.00076489548 2:0.10916747 3:0.070191014 4:-0.00080931674 5:0.11326879 6:0.074383858 7:0.0024029207 8:0.11672068 9:0.065730949 
-1.6904880681543251 -7648.603114644201 215.93979437216504 100.23700073721467 2066.9245078751128 0 1:0.003764886 2:0.13799975 3:0.0044723541 4:0.0057414495 5:0.13618455 6:0.011963014 7:0.0078794375 8:0.12801428 9:0.0054904265 
-1.6904880681543251 -6748.9255019458215 0 0 321.96450340864845 6658.2679319259223 1:-0.020133907 2:0.13053402 3:0.026358484 4:-0.019437376 5:0.1467124 6:0.020704886 7:-0.016243849 8:0.15271646 9:0.025816565 
-1.2678660511157438 -0 0 0 0 0 1:-0.026613429 2:0.14980548 3:0.0081020777 4:-0.025228899 5:0.15055657 6:0.0076224693 7:-0.029973015 8:0.15623957 9:0.0091826482 
-1.6904880681543251 -0 0 100.23700073721467 517.6278038103427 0 1:-0.024034477 2:0.092910893 3:-0.032362257 4:-0.0064839547 5:0.15052909 6:-0.034429498 7:0.0081856257 8:0.1334206 9:-0.013532809 
-1.6904880681543251 -0 209.24978668405041 83.316627718795473 2066.9245078751128 0 1:-0.016769597 2:0.07108331 3:0.023375699 4:-0.026184473 5:0.12098606 6:0.041691338 7:-0.03279414 8:0.17273807 9:0.046760453 
-0 -0 0 0 0 4391.65238623202 1:-0.0036467773 2:0.17093696 3:-0.023860716 4:0.0038224931 5:0.16746071 6:-0.025044659 7:-0.006992708 8:0.16175824 9:-0.013979794 
-1.6904880681543251 -7648.603114644201 215.93979437216504 100.23700073721467 2066.9245078751128 6658.2679319259223 1:-0.013813769 2:0.065033808 3:-0.0019942408 4:-0.013470934 5:0.044261384 6:0.043147226 7:0.014607634 8:0.14722108 9:0.024113974 
-1.6904880681543251 -0 0 100.23700073721467 0 0 1:-0.019097576 2:0.10523517 3:-0.0040449289 4:-0.0052927248 5:0.074249973 6:-0.012231955 7:-0.006103936 8:0.068715774 9:-0.0032024346 
-1.6904880681543251 -0 0 0 0 0 1:-0.019118895 2:0.12623211 3:0.0034476114 4:-0.020077265 5:0.13323599 6:0.009888374 7:-0.024274058 8:0.15182905 9:0.010142786 
-0 -0 0 0 0 6658.2679319259223 1:-0.022321307 2:0.20497987 3:0.040693016 4:-0.021500014 5:0.22657175 6:0.02878328 7:-0.019837073 8:0.16005643 9:0.025174571 
-1.6904880681543251 -0 119.29843120117917 100.23700073721467 228.39834843326582 0 1:-0.024069897 2:0.096514123 3:-0.0044933246 4:-0.016881221 5:0.1600479 6:-0.0052834031 7:0.0089344556 8:0.14660542 9:-0.0051426807 
-1.6904880681543251 -0 0 0 0 0 1:-0.0050553735 2:0.14428883 3:-0.014285733 4:-0.010020009 5:0.088283476 6:-0.0030444897 7:-0.015213789 8:0.085938628 9:0.012620927 
-1.4857491785609822 -1961.5431049219335 215.93979437216504 100.23700073721467 2066.9245078751128 6658.2679319259223 1:0.0080359511 2:0.074895287 3:0.024074891 4:-0.00978807 5:0.12340419 6:-0.013410469 7:0.0017580494 8:0.24559976 9:-0.043821387 
-1.6904880681543251 -0 0 0 2066.9245078751128 6658.2679319259223 1:-0.025323386 2:0.15459081 3:0.01835604 4:-0.023640232 5:0.15769469 6:0.018337942 7:-0.0070966196 8:0.1714071 9:0.021836603 
-1.6904880681543251 -0 0 100.23700073721467 0 0 1:-0.02006201 2:0.086603632 3:-0.023401039 4:-0.018246152 5:0.0874599 6:-0.0064174691 7:-0.01153203 8:0.097371985 9:0.00033127316 
-1.6904880681543251 -0 0 0 0 0 1:-0.013908943 2:0.13088276 3:-0.0016127339 4:-0.012640289 5:0.13683262 6:-0.01042787 7:-0.018005112 8:0.15967087 9:-0.0039031727 
-1.6904880681543251 -6125.2484400237181 215.93979437216504 100.23700073721467 2066.9245078751128 0 1:0.019050516 2:0.15446641 3:0.00094260002 4:0.012905275 5:0.090508525 6:0.016213872 7:0.0090031577 8:0.093123018 9:0.0074680965 
-2.2054397100430312 -251.18947817945849 -215.93979437216504 0 54776.918056650597 7229.8212681422774 1:-0.030490411 2:0.12761629 3:0.018632276 4:-0.017155506 5:0.11670365 6:0.022579757 7:-0.00039671018 8:0.1058038 9:0.032192987 
-0 -251.18947817945849 -215.93979437216504 93.933664578436293 54776.918056650597 7229.8212681422774 1:0.03537668 2:0.15044247 3:-0.025898239 4:0.030459899 5:0.14376098 6:-0.01930686 7:0.024199579 8:0.1383936 9:-0.011516424 
-2.2054397100430312 -251.18947817945849 -215.93979437216504 127.50188473182126 54776.918056650597 7229.8212681422774 1:0.041953085 2:0.11645432 3:0.0036408076 4:0.033107346 5:0.1186882 6:0.004970925 7:0.023262055 8:0.1155464 9:0.0022453928 
-2.2054397100430312 -0 -0 319.99089173501835 5931.2877563231887 7229.8212681422774 1:0.07709918 2:0.14065183 3:-0.0039229218 4:0.076606082 5:0.15247072 6:0.019899459 7:0.061635692 8:0.15894914 9:0.041409236 
-0 -176.83429407514836 -0 319.99089173501835 54776.918056650597 3811.344110967183 1:0.10518283 2:0.32449226 3:0.012426818 4:0.11167514 5:0.29448905 6:-0.022053944 7:0.10004117 8:0.26997827 9:-0.026778809 
-2.2054397100430312 -0 -0 319.99089173501835 22576.161103135051 7229.8212681422774 1:0.067260349 2:0.11081144 3:0.036115046 4:0.055073359 5:0.11080517 6:0.048292987 7:0.04638054 8:0.11340982 9:0.041334116 
-2.2054397100430312 -251.18947817945849 -215.93979437216504 0 54776.918056650597 7229.8212681422774 1:-0.035415063 2:0.11252739 3:0.046344508 4:-0.035479443 5:0.11981994 6:0.040527223 7:-0.025769164 8:0.1281396 9:0.027433546 
-2.2054397100430312 -251.18947817945849 -215.93979437216504 0 54776.918056650597 7229.8212681422774 1:-0.014998481 2:0.11222816 3:0.033782102 4:-0.0084946799 5:0.11968949 6:0.035387338 7:0.000771696 8:0.12306383 9:0.033936902 
-0 -251.18947817945849 -215.93979437216504 319.99089173501835 54776.918056650597 7229.8212681422774 1:0.025047247 2:0.15024332 3:-0.011061682 4:0.012974132 5:0.14467903 6:-0.050751124 7:0.0083451625 8:0.14609576 9:-0.061956779 
-2.2054397100430312 -251.18947817945849 -215.93979437216504 319.99089173501835 54776.918056650597 7229.8212681422774 1:0.031037519 2:0.12251259 3:-0.022644752 4:0.030911864 5:0.11973441 6:-0.021090589 7:0.03174926 8:0.12050536 9:-0.019622548 
-0 -251.18947817945849 -215.93979437216504 272.76771195963704 43727.796292468665 7229.8212681422774 1:0.014447721 2:0.12377565 3:-0.028223417 4:0.0042111303 5:0.12060097 6:-0.019427226 7:-0.0062266111 8:0.11775528 9:0.0021847737 
-2.2054397100430312 -251.18947817945849 -215.93979437216504 319.99089173501835 54776.918056650597 7229.8212681422774 1:-0.0016658098 2:0.095335317 3:0.036301002 4:0.0096329944 5:0.095226961 6:0.024264651 7:0.0188427 8:0.10052113 9:0.014384388 
-2.2054397100430312 -0 -0 319.99089173501835 54776.918056650597 0 1:0.079115534 2:0.12164808 3:-0.0055159604 4:0.076623402 5:0.12307617 6:-0.0054565639 7:0.072652841 8:0.12751437 9:-0.003060637 
-2.2054397100430312 -251.18947817945849 -215.93979437216504 0 54776.918056650597 7229.8212681422774 1:-0.0034867223 2:0.11986074 3:0.032684772 4:0.0032234464 5:0.11514749 6:0.024118831 7:0.0051254268 8:0.10982222 9:0.021127537 
-2.2054397100430312 -0 -0 319.99089173501835 54776.918056650597 7229.8212681422774 1:0.075439318 2:0.10939394 3:0.011433529 4:0.067993245 5:0.1113037 6:0.021386069 7:0.057487014 8:0.12158086 9:0.025235886 
-2.2054397100430312 -0 -0 319.99089173501835 54776.918056650597 0 1:0.073077938 2:0.077244937 3:-0.020235274 4:0.06474916 5:0.07727077 6:-0.014512081 7:0.059815431 8:0.084941026 9:-0.0074432788 
-2.2054397100430312 -0 -0 0 54776.918056650597 0 1:0.074270027 2:0.13217355 3:0.022139403 4:0.069159754 5:0.13605725 6:0.030455612 7:0.06759934 8:0.13192834 9:0.046160141 
-2.2054397100430312 -0 -0 0 54776.918056650597 7229.8212681422774 1:0.044188257 2:0.11600948 3:0.039415848 4:0.052996108 5:0.1127888 6:0.051691193 7:0.062185907 8:0.11203826 9:0.058057069 
-2.2054397100430312 -251.18947817945849 -215.93979437216504 0 54776.918056650597 7229.8212681422774 1:0.02004258 2:0.12322418 3:0.023861174 4:0.025182676 5:0.12744861 6:0.024318618 7:0.032644542 8:0.12654492 9:0.025715606 
-0 -0 -0 319.99089173501835 54776.918056650597 4832.2190856444122 1:0.045398719 2:0.16714468 3:-0.011532852 4:0.05669426 5:0.15885951 6:-0.043410589 7:0.061439598 8:0.15199014 9:-0.05260384 
-2.2054397100430312 -0 -0 319.99089173501835 54776.918056650597 7229.8212681422774 1:0.095151145 2:0.099106723 3:-0.0091429574 4:0.089241133 5:0.099456415 6:-0.0068739071 7:0.077756908 8:0.10102339 9:-0.0090112386 
-2.2054397100430312 -0 -0 319.99089173501835 54776.918056650597 7229.8212681422774 1:0.05590168 2:0.10529006 3:0.011281831 4:0.061235148 5:0.10605426 6:0.015188014 7:0.074247551 8:0.10824175 9:0.023590648 
-2.2054397100430312 -105.45316727549398 -0 0 54776.918056650597 7229.8212681422774 1:0.032608533 2:0.10643728 3:0.037305537 4:0.035098408 5:0.10301787 6:0.040800131 7:0.037019334 8:0.10160071 9:0.040889051 
-0 -251.18947817945849 -215.93979437216504 0 54776.918056650597 7229.8212681422774 1:0.045088556 2:0.25770877 3:0.036440221 4:0.025606721 5:0.20728353 6:0.027989191 7:0.014292051 8:0.16452406 9:-0.0023124058 
-2.2054397100430312 -0 -0 319.99089173501835 54776.918056650597 0 1:0.10244899 2:0.090963507 3:0.05813835 4:0.10176125 5:0.091072097 6:0.058518417 7:0.091355716 8:0.097176506 9:0.053463218 
-0 -251.18947817945849 -215.93979437216504 0 54776.918056650597 7229.8212681422774 1:0.029953495 2:0.14549835 3:-0.016696595 4:0.025046187 5:0.14309617 6:-0.01461685 7:0.016497497 8:0.14056426 9:-0.010833901 
-2.2054397100430312 -0 -0 319.99089173501835 54776.918056650597 0 1:0.057320806 2:0.1020326 3:0.033209566 4:0.059842929 5:0.10090789 6:0.028018205 7:0.062867624 8:0.10371692 9:0.027667588 
-2.2054397100430312 -251.18947817945849 -215.93979437216504 0 54776.918056650597 7229.8212681422774 1:-0.016916938 2:0.11832193 3:0.026358454 4:-0.021641686 5:0.10430379 6:0.025276497 7:-0.016029998 8:0.10109455 9:0.0206287 
-0 -251.18947817945849 -0 319.99089173501835 54776.918056650597 7229.8212681422774 1:0.060647171 2:0.17500524 3:-0.036650212 4:0.059731741 5:0.18235795 6:-0.038537011 7:0.053761233 8:0.1997508 9:-0.024915564 
-2.2054397100430312 -251.18947817945849 -215.93979437216504 0 54776.918056650597 7229.8212681422774 1:0.006752196 2:0.11257344 3:0.0097252862 4:0.0085769877 5:0.11930321 6:0.0086491575 7:0.012808026 8:0.12587964 9:0.014148802 
-2.2054397100430312 -251.18947817945849 -215.93979437216504 0 0 7229.8212681422774 1:-0.0061059423 2:0.097416327 3:0.029715382 4:-0.0052643652 5:0.095443599 6:0.028059375 7:-0.0095715092 8:0.10065513 9:0.034931352 
-2.2054397100430312 -251.18947817945849 -215.93979437216504 0 54776.918056650597 7229.8212681422774 1:0.036641808 2:0.15213953 3:0.032195336 4:0.025808389 5:0.14608351 6:0.016772744 7:0.012433952 8:0.13220239 9:0.0048918747 
-2.2054397100430312 -0 -0 319.99089173501835 54776.918056650597 7229.8212681422774 1:0.052867371 2:0.1001965 3:0.025679018 4:0.048687525 5:0.10162033 6:0.025329553 7:0.045950222 8:0.1034886 9:0.028286227 
-2.2054397100430312 -251.18947817945849 -215.93979437216504 0 27388.459028325298 7229.8212681422774 1:-0.0036079832 2:0.11105306 3:0.037548245 4:-0.0072400811 5:0.1109152 6:0.040433017 7:-0.01029096 8:0.10837322 9:0.044256301 
-2.2054397100430312 -0 -0 319.99089173501835 0 7229.8212681422774 1:0.089125473 2:0.11729964 3:-0.0088793075 4:0.086487942 5:0.11333164 6:-0.0014584322 7:0.085662508 8:0.11315448 9:0.0082172253 
-0 -251.18947817945849 -215.93979437216504 0 0 7229.8212681422774 1:0.0078485614 2:0.13562451 3:-0.0025596734 4:0.0034022231 5:0.13265822 6:-0.0068474977 7:-0.0025668749 8:0.12743004 9:-0.0037728089 
-2.2054397100430312 -0 -0 319.99089173501835 0 7229.8212681422774 1:0.078004428 2:0.12415816 3:0.0096349205 4:0.074969956 5:0.12307802 6:0.012676869 7:0.077379185 8:0.12195481 9:0.018252245 
-0 -251.18947817945849 -215.93979437216504 319.99089173501835 0 7229.8212681422774 1:0.019004577 2:0.14017927 3:-0.030530003 4:0.016465319 5:0.15025091 6:-0.027997187 7:0.014795515 8:0.15597344 9:-0.02547281 
-2.2054397100430312 -0 -0 319.99089173501835 0 0 1:0.085215689 2:0.11610007 3:-0.0089480576 4:0.088385665 5:0.11947465 6:-0.010206087 7:0.09135917 8:0.12344781 9:-0.0097728762 
-2.2054397100430312 -251.18947817945849 -0 319.99089173501835 0 5225.9324742106637 1:0.095230224 2:0.27275766 3:0.071862048 4:0.075960279 5:0.21764863 6:0.10726936 7:0.038993571 8:0.19047839 9:0.12511612 
-2.2054397100430312 -251.18947817945849 -215.93979437216504 319.99089173501835 8058.5369614367391 0 1:0.027559753 2:0.10977944 3:-0.01415722 4:0.028904019 5:0.11434798 6:-0.0089947711 7:0.028466251 8:0.12312217 9:-0.010422549 
-2.2054397100430312 -251.18947817945849 -215.93979437216504 319.99089173501835 54776.918056650597 7229.8212681422774 1:-0.065145917 2:0.076518184 3:0.017163985 4:-0.03755328 5:0.10009506 6:0.0080070477 7:-0.021431991 8:0.11603825 9:0.011336408 
-2.2054397100430312 -151.83886276363978 -215.93979437216504 319.99089173501835 0 7229.8212681422774 1:0.040468359 2:0.080505697 3:0.016701808 4:0.025891408 5:0.092586754 6:0.038187236 7:0.017590995 8:0.11284139 9:0.047747323 
-2.2054397100430312 -0 -0 0 0 0 1:0.04379193 2:0.13318812 3:0.047980888 4:0.045579139 5:0.13027622 6:0.055948358 7:0.048839138 8:0.12190406 9:0.063503019 
-2.2054397100430312 -0 -0 319.99089173501835 0 0 1:0.041238684 2:0.11249808 3:0.0095793797 4:0.038892634 5:0.10434939 6:0.014313296 7:0.040161359 8:0.098694635 9:0.018203989 
-2.2054397100430312 -0 -215.93979437216504 84.483786717512956 0 0 1:0.0638998 2:0.15090768 3:0.01690177 4:0.04744339 5:0.11623639 6:-0.025245301 7:0.03232182 8:0.10036978 9:-0.039481787 
-0 -0 -0 319.99089173501835 0 0 1:0.064333862 2:0.13539455 3:-0.021480613 4:0.068353239 5:0.13545996 6:-0.019112561 7:0.069001068 8:0.13424779 9:-0.016056159 
-2.2054397100430312 -251.18947817945849 -215.93979437216504 0 0 7229.8212681422774 1:0.023585081 2:0.13925869 3:0.051749448 4:0.023833475 5:0.13955895 6:0.05437908 7:0.027880615 8:0.13887375 9:0.050915464 
-2.2054397100430312 -0 -0 0 0 0 1:0.05414256 2:0.11493768 3:0.065719593 4:0.057179406 5:0.11840682 6:0.070719582 7:0.057558323 8:0.12241819 9:0.069027613 
-0 -251.18947817945849 -215.93979437216504 81.495754883188781 0 7229.8212681422774 1:0.0053306926 2:0.16222629 3:-0.012633543 4:0.012261877 5:0.18553285 6:-0.022015561 7:0.021962003 8:0.20063341 9:-0.026144331 
-2.2054397100430312 -251.18947817945849 -215.93979437216504 0 0 2397.6021824978648 1:0.028190615 2:0.12876392 3:-0.0079437927 4:0.024748855 5:0.12353122 6:-0.0019166854 7:0.022337628 8:0.11979286 9:0.0061990991 
-2.2054397100430312 -251.18947817945849 -215.93979437216504 0 0 7229.8212681422774 1:0.008026866 2:0.13778885 3:0.036676071 4:0.025061206 5:0.15291131 6:0.049274887 7:0.032266211 8:0.15435007 9:0.055328905 
-2.2054397100430312 -251.18947817945849 -215.93979437216504 0 0 0 1:0.030796153 2:0.12047423 3:0.031951362 4:0.030141081 5:0.12060839 6:0.025871723 7:0.03074945 8:0.12020441 9:0.022844113 
-2.2054397100430312 -0 -0 319.99089173501835 0 0 1:0.036429865 2:0.089497753 3:0.013367632 4:0.037912667 5:0.1051427 6:0.019611075 7:0.0385695 8:0.12021061 9:0.025617781 
-0.5513599275107578 -0 -0 319.99089173501835 40787.093338890671 0 1:0.055863938 2:0.11777983 3:-0.020568012 4:0.074674978 5:0.14842492 6:-0.0063042608 7:0.080957488 8:0.16943064 9:0.0074917318 
-2.2054397100430312 -0 -0 0 32200.756953515545 0 1:0.036981632 2:0.10773949 3:0.070173095 4:0.050547677 5:0.11602181 6:0.08000581 7:0.064538309 8:0.12342858 9:0.086255385 
-0 -251.18947817945849 -215.93979437216504 299.78987233445878 0 7229.8212681422774 1:0.026361287 2:0.12828925 3:-0.018336123 4:0.027544805 5:0.15177235 6:-0.0022407908 7:0.032465111 8:0.17008447 9:0.0085116082 
-2.2054397100430312 -193.84737133436414 -215.93979437216504 319.99089173501835 11049.121764181928 0 1:0.034864141 2:0.11157135 3:0.0088174291 4:0.034876598 5:0.12586037 6:-0.011223274 7:0.038268973 8:0.14630972 9:-0.029025411 
-2.2054397100430312 -251.18947817945849 -215.93979437216504 319.99089173501835 0 0 1:0.029015384 2:0.11714999 3:-0.0065522109 4:0.02644139 5:0.11229966 6:-0.0045967814 7:0.023898065 8:0.11268368 9:-0.0020261218 
-2.0485367177184779 -62.385184147315869 -100.23700073721467 -319.99089173501835 197.15522645486598 70.536661764117412 1:-0.061168166 2:0.12412842 3:0.028410581 4:0.017437087 5:0.21781065 6:0.031857135 7:0.11625474 8:0.34301747 9:0.069316746 
-2.0485367177184779 -62.385184147315869 -100.23700073721467 -319.99089173501835 197.15522645486598 70.536661764117412 1:-0.063133715 2:-0.0080836824 3:-0.081447256 4:-0.076875793 5:0.041649902 6:-0.074491228 7:-0.068898333 8:0.13891477 9:-0.040960825 
-2.0485367177184779 -0 -0 -0 0 19.362830797272473 1:0.18511176 2:0.58894488 3:0.2347128 4:0.1998106 5:0.31101399 6:0.18136161 7:0.10303216 8:0.14436516 9:-0.094932495 
-2.0485367177184779 -62.385184147315869 -100.23700073721467 -319.99089173501835 197.15522645486598 70.536661764117412 1:0.15304055 2:0.19050735 3:0.027617289 4:0.092199961 5:0.16487449 6:0.20808537 7:0.043638723 8:0.22296307 9:0.10265325 
-0 -62.385184147315869 -100.23700073721467 -251.06291319267567 197.15522645486598 70.536661764117412 1:-0.08750677 2:0.1031034 3:-0.082740852 4:-0.087714895 5:0.093674119 6:-0.085247485 7:-0.17680285 8:-0.035124249 9:-0.067011382 
-2.0485367177184779 -62.385184147315869 -100.23700073721467 -319.99089173501835 197.15522645486598 70.536661764117412 1:0.0029403798 2:0.0050757334 3:0.02726721 4:0.018726945 5:0.061675065 6:0.019364141 7:0.011410496 8:0.08928347 9:0.0051593382 
-2.0485367177184779 -62.385184147315869 -100.23700073721467 -224.77955198686246 197.15522645486598 70.536661764117412 1:0.10925368 2:0.30501205 3:0.11053936 4:0.11950836 5:0.32179233 6:0.1162533 7:0.083089289 8:0.36411105 9:0.023794043 
-0 -62.385184147315869 -100.23700073721467 -319.99089173501835 197.15522645486598 70.536661764117412 1:-0.047018051 2:0.0096941042 3:-0.058392437 4:-0.076437945 5:0.03990295 6:-0.077962344 7:-0.037942979 8:0.15022842 9:-0.13083699 
-0 -62.385184147315869 -0 -319.99089173501835 197.15522645486598 70.536661764117412 1:0.12782387 2:0.22385827 3:-0.09965571 4:0.17116153 5:0.29486101 6:-0.067328126 7:0.16896672 8:0.27020047 9:0.071408666 
-2.0485367177184779 -0 -0 -0 0 0 1:0.029595913 2:0.082675361 3:-0.02773 4:-0.032158862 5:0.21799782 6:0.42943096 7:0.083099132 8:0.23914342 9:-0.349357 
-2.0485367177184779 -62.385184147315869 -100.23700073721467 -319.99089173501835 197.15522645486598 70.536661764117412 1:0.11596857 2:0.45956264 3:0.061396527 4:0.10360314 5:0.25996307 6:0.07286233 7:0.13852822 8:0.19598799 9:0.068089655 
-0 -62.385184147315869 -14.674020666949216 -0 0 70.536661764117412 1:0.030781414 2:0.72460107 3:0.13950322 4:0.051810494 5:0.48670758 6:0.103779 7:0.077634256 8:0.28359108 9:0.049897182 
-0 -62.385184147315869 -100.23700073721467 -0 180.04791376560769 70.536661764117412 1:0.035664631 2:0.25861163 3:0.061267507 4:0.014343638 5:0.32390513 6:0.043230753 7:0.044202534 8:0.48560458 9:-0.048179459 
-2.0485367177184779 -0 -0 -0 0 0 1:0.10870149 2:-0.014468571 3:-0.017210388 4:0.14476141 5:-0.053570188 6:0.0012057335 7:0.15446616 8:-0.05864824 9:0.017579688 
-2.0485367177184779 -0 -0 -0 0 0 1:0.13847763 2:0.027374331 3:-0.0578504 4:0.14743566 5:0.036003216 6:-0.060124217 7:0.1401324 8:0.047046062 9:-0.053630061 
-2.0485367177184779 -62.385184147315869 -100.23700073721467 -319.99089173501835 197.15522645486598 70.536661764117412 1:-0.073796546 2:0.11086133 3:0.049132174 4:0.0039455415 5:0.25463236 6:0.05194248 7:0.15405499 8:0.38434291 9:0.036784385 
-2.0485367177184779 -0 -0 -0 0 0 1:0.11821648 2:-0.12796398 3:0.0084911772 4:0.20553357 5:-0.10949858 6:0.0012871274 7:0.23928204 8:-0.078214769 9:0.035638497 
-2.0485367177184779 -62.385184147315869 -100.23700073721467 -319.99089173501835 197.15522645486598 70.536661764117412 1:0.10224432 2:0.3932703 3:0.18239644 4:0.058436524 5:0.17386898 6:0.19786945 7:-0.0044278035 8:0.097927494 9:0.0011106041 
-0 -62.385184147315869 -100.23700073721467 -133.50305790243755 2.1342969390774682 70.536661764117412 1:0.0028910571 2:0.077520432 3:-0.1943221 4:-0.0068659246 5:0.031526268 6:-0.15632085 7:0.032842346 8:0.096150776 9:-0.095343046 
-2.0485367177184779 -62.385184147315869 -100.23700073721467 -319.99089173501835 197.15522645486598 70.536661764117412 1:0.031027276 2:0.25211082 3:0.054091084 4:0.038783506 5:0.22894381 6:0.026322909 7:0.028974438 8:0.24183254 9:-0.012873661 
-2.0485367177184779 -62.385184147315869 -100.23700073721467 -319.99089173501835 197.15522645486598 70.536661764117412 1:0.20031184 2:0.11714782 3:0.09663818 4:0.15029399 5:0.15912293 6:0.065774001 7:0.083595015 8:0.16226969 9:0.076418585 
-2.0485367177184779 -62.385184147315869 -100.23700073721467 -319.99089173501835 197.15522645486598 70.536661764117412 1:0.13628442 2:0.14057494 3:-0.017494911 4:0.12487603 5:0.079359308 6:0.0089321939 7:0.11760206 8:0.026355192 9:0.016148197 
-0 -0 -21.807867618256974 -14.833687835938997 0 2.9597509481237303 1:0.29420732 2:0.31927095 3:-0.19075491 4:0.22993979 5:0.24240691 6:-0.19004907 7:0.07247791 8:0.095160747 9:0.17301467 
-2.0485367177184779 -62.385184147315869 -100.23700073721467 -319.99089173501835 197.15522645486598 70.536661764117412 1:0.081894127 2:0.0060542206 3:0.043120998 4:0.062931285 5:-0.0060329446 6:0.05501103 7:0.038602519 8:-0.036437118 9:0.068302186 
-0 -62.385184147315869 -100.23700073721467 -319.99089173501835 197.15522645486598 70.536661764117412 1:-0.051484572 2:0.14005184 3:-0.047755896 4:-0.054561311 5:0.14880244 6:-0.056271209 7:-0.24998326 8:0.0082494837 9:-0.0805527 
-0.61268049511215206 -62.385184147315869 -100.23700073721467 -319.99089173501835 197.15522645486598 70.536661764117412 1:-0.0063544002 2:0.28656923 3:-0.068714935 4:0.10421207 5:0.28166263 6:0.065205817 7:0.18805061 8:0.27367315 9:0.066081338 
-2.0485367177184779 -0 -0 -0 0 0 1:-0.11264552 2:-0.11931618 3:-0.059550289 4:-0.078977749 5:-0.091133072 6:-0.048442904 7:-0.01314935 8:-0.05359059 9:-0.028721723 
-2.0485367177184779 -0 -0 -0 0 0 1:0.11301796 2:-0.07038817 3:0.033950472 4:0.11179632 5:-0.070759188 6:0.044556153 7:0.093179566 8:0.043683602 9:0.033329343 
-2.0485367177184779 -62.385184147315869 -100.23700073721467 -319.99089173501835 197.15522645486598 70.536661764117412 1:0.024637882 2:0.058159775 3:0.018102819 4:0.016486168 5:0.08021197 6:0.016604765 7:0.027219151 8:0.12424271 9:0.021017985 
-2.0485367177184779 -62.385184147315869 -100.23700073721467 -319.99089173501835 197.15522645486598 70.536661764117412 1:-0.0024130528 2:0.026742646 3:-0.0465032 4:0.042444457 5:0.053143207 6:-0.075917874 7:0.056532256 8:0.073393149 9:-0.06952786 
-2.0485367177184779 -0 -21.202516743846516 -0 0 0 1:-0.17356757 2:-0.053564919 3:-0.089098011 4:-0.20606438 5:-0.10679362 6:-0.12351871 7:-0.18573342 8:-0.13611806 9:-0.13893532 
-0 -0 -73.955941088220811 -319.99089173501835 197.15522645486598 70.536661764117412 1:0.10412759 2:0.095648063 3:-0.090244338 4:0.10797158 5:0.10248147 6:-0.11920646 7:0.088154718 8:0.071173959 9:-0.12356071 
-2.0485367177184779 -0 -0 -0 0 0 1:-0.13240577 2:-0.12716223 3:-0.084470657 4:-0.10917179 5:-0.13333289 6:-0.10364108 7:-0.14413576 8:-0.15314375 9:-0.075727916 
-0 -21.183824113463643 -0 -0 0 0 1:0.025674124 2:0.813971 3:0.23774569 4:-0.0210471 5:0.51705536 6:0.22324559 7:0.066401475 8:0.39334151 9:0.089145726 
-2.0485367177184779 -62.385184147315869 -100.23700073721467 -319.99089173501835 197.15522645486598 70.536661764117412 1:0.0025949798 2:0.0067086563 3:-0.063314788 4:-0.0015658761 5:0.002176055 6:-0.06278189 7:-0.018367453 8:-0.0067448669 9:-0.02971535 
-2.0485367177184779 -0 -18.715154988548516 -34.756007255198384 197.15522645486598 70.536661764117412 1:0.065695661 2:-0.03022429 3:0.031145829 4:0.059276833 5:-0.025713468 6:0.041415718 7:0.0448207 8:-0.031358836 9:0.044692191 
-2.0485367177184779 -62.385184147315869 -100.23700073721467 -0 169.80830030846448 70.536661764117412 1:-0.1938846 2:-0.084800924 3:-0.030904581 4:-0.12443147 5:0.011957351 6:0.012498028 7:-0.05500928 8:0.056784541 9:0.020884585 
-0 -32.446165865891814 -0 -0 0 28.945780332272211 1:0.19107756 2:0.21618213 3:-0.14291117 4:0.10631003 5:0.37085757 6:-0.212655 7:0.07204161 8:0.47280875 9:0.16516242 
-2.0485367177184779 -62.385184147315869 -100.23700073721467 -319.99089173501835 197.15522645486598 70.536661764117412 1:-0.00090906463 2:-0.02534783 3:0.051790546 4:-0.010445199 5:-0.021754445 6:0.046761928 7:-0.0074595935 8:-0.01975337 9:0.030541574 
-2.0485367177184779 -0 -0 -0 0 0 1:0.14839453 2:-0.074332345 3:0.024444169 4:0.14394653 5:-0.064341253 6:0.0092957318 7:0.11460868 8:-0.024638081 9:0.0071634769 
-2.0485367177184779 -0 -0 -0 0 0 1:0.17506265 2:0.6469926 3:0.17207888 4:0.14997956 5:0.40565159 6:0.14089623 7:0.16340668 8:0.2755854 9:0.13843804 
-2.0485367177184779 -0 -0 -319.99089173501835 197.15522645486598 70.536661764117412 1:0.12147271 2:-0.003198002 3:0.008757901 4:0.10670765 5:0.017432877 6:0.032569141 7:0.091163216 8:0.028264672 9:0.033740179 
-2.0485367177184779 -62.385184147315869 -0 -319.99089173501835 197.15522645486598 70.536661764117412 1:0.20273931 2:0.20263721 3:0.13447897 4:0.14440994 5:0.25237084 6:0.11265177 7:0.11303075 8:0.26075128 9:0.07245519 
-0 -62.385184147315869 -100.23700073721467 -0 0 70.536661764117412 1:0.094323405 2:0.33692698 3:-0.062484739 4:0.11851946 5:0.34641804 6:-0.088841893 7:0.10322861 8:0.33791254 9:-0.09357108 
-2.0485367177184779 -20.163769342691371 -100.23700073721467 -11.087842927987683 197.15522645486598 70.536661764117412 1:0.072857799 2:-0.0033760722 3:-0.028458662 4:0.046870754 5:-0.040904347 6:0.0096157852 7:0.016800108 8:-0.066242818 9:0.081413779 
-2.0485367177184779 -62.385184147315869 -100.23700073721467 -319.99089173501835 197.15522645486598 70.536661764117412 1:-0.017441867 2:0.22264889 3:0.027398843 4:-0.027157737 5:0.23440015 6:0.064162317 7:-0.023210161 8:0.25979126 9:0.080809475 
-2.0485367177184779 -0 -0 -0 0 0 1:0.11817214 2:-0.038850097 3:0.033828375 4:0.22346743 5:-0.046121611 6:-0.014560165 7:0.24246365 8:-0.038618696 9:-0.024175069 
-0 -0 -0 -214.08933162242798 130.27144955986205 0 1:0.13397057 2:0.28203025 3:-0.041127275 4:0.1601999 5:0.26192354 6:-0.063025985 7:0.16005459 8:0.23846308 9:-0.12135554 
-2.0485367177184779 -0 -0 -0 0 0 1:0.27706949 2:0.31230965 3:-0.2911094 4:0.19473426 5:0.1424044 6:0.084719403 7:0.095393803 8:0.11840152 9:0.37251967 
-0 -0 -0 -206.76288987754361 150.83209965385612 0 1:0.20307732 2:0.35740774 3:-0.12299428 4:0.26685101 5:0.22468336 6:-0.18093956 7:0.15761496 8:0.092385563 9:0.17342013 
-2.0485367177184779 -0 -0 -0 0 0 1:-0.26078346 2:-0.2440658 3:-0.03767039 4:-0.25022649 5:-0.19122183 6:-0.036641599 7:-0.20676085 8:-0.14158042 9:0.011084395 
-0 -62.385184147315869 -100.23700073721467 -319.99089173501835 197.15522645486598 70.536661764117412 1:-0.05933227 2:0.11418333 3:-0.021346003 4:-0.027059878 5:0.20298092 6:-0.067221605 7:-0.00065658308 8:0.27256634 9:-0.051071812 
-2.0485367177184779 -62.385184147315869 -100.23700073721467 -319.99089173501835 197.15522645486598 70.536661764117412 1:0.031146104 2:-0.0063769748 3:0.076325227 4:0.0063936729 5:-0.0011857881 6:0.047328529 7:-0.012449942 8:0.011681116 9:0.0055440833 
-2.0485367177184779 -0 -0 -0 0 0 1:0.38953906 2:0.72954618 3:0.43246345 4:0.14920524 5:0.20722556 6:0.029321999 7:0.041562874 8:0.068894883 9:-0.17346596 
-2.0485367177184779 -50.976608972584899 -100.23700073721467 -0 0 70.536661764117412 1:-0.19109557 2:-0.14612181 3:-0.037467733 4:-0.16496211 5:-0.099289568 6:-0.014220082 7:-0.1041844 8:-0.045452977 9:0.030341133 
-2.0485367177184779 -62.385184147315869 -100.23700073721467 -0 0 70.536661764117412 1:-0.16754727 2:-0.066164079 3:-0.033138706 4:-0.16893404 5:-0.081816498 6:-0.033658931 7:-0.14034869 8:-0.10684998 9:-0.058178501 
-2.0485367177184779 -0 -0 -319.99089173501835 83.564101521088361 70.536661764117412 1:0.10815694 2:0.051333883 3:-0.064345058 4:0.10482384 5:0.063914812 6:-0.095477866 7:0.090770408 8:0.055643828 9:-0.087161635 
-2.0485367177184779 -62.385184147315869 -100.23700073721467 -0 54.644447519863469 70.536661764117412 1:-0.095271487 2:-0.040115226 3:-0.046572275 4:-0.091687989 5:-0.040323359 6:-0.046201258 7:0.0038352798 8:0.0086346915 9:-0.067068727 
-2.0485367177184779 -0 -0 -0 0 0 1:-0.10743325 2:-0.11384399 3:-0.091046713 4:-0.11317933 5:-0.12798261 6:-0.085165096 7:-0.13105223 8:-0.11733018 9:-0.090759469 
-0.92372204317670636 -62.385184147315869 -100.23700073721467 -0 0 19.003232370632386 1:-0.168664 2:-0.0051248106 3:-0.11715338 4:-0.22653899 5:-0.08802853 6:-0.11620434 7:-0.21138139 8:-0.13601031 9:-0.10563917 
-2.0485367177184779 -0 -0 -136.51624822802574 99.576218683450307 70.536661764117412 1:0.12643366 2:0.20143656 3:-0.093794595 4:0.17425544 5:0.16928493 6:0.08615761 7:0.14506824 8:0.15265978 9:0.085824095 
-2.0485367177184779 -62.385184147315869 -100.23700073721467 -319.99089173501835 197.15522645486598 70.536661764117412 1:0.038933017 2:0.027625353 3:0.025549273 4:0.033372778 5:0.041938304 6:0.019056683 7:0.018180953 8:0.046194106 9:0.026789766 
-2.0485367177184779 -0 -0 -52.572036110975326 114.89730432305994 13.287937341201589 1:0.12920058 2:0.010036894 3:0.023160938 4:0.14017694 5:-0.01337783 6:0.018315589 7:0.14179614 8:-0.0044031863 9:0.022137485 
-2.0485367177184779 -0 -0 -319.99089173501835 197.15522645486598 39.879626297703112 1:0.038816258 2:0.045506423 3:-0.055893839 4:0.081572544 5:0.052378847 6:-0.094924925 7:0.12765254 8:0.05792618 9:-0.1153103 
-2.0485367177184779 -62.385184147315869 -100.23700073721467 -319.99089173501835 197.15522645486598 70.536661764117412 1:0.10404119 2:0.051835881 3:0.037346066 4:0.096806939 5:0.046113537 6:0.017716691 7:0.082237467 8:0.011241422 9:0.010601769 
-0 -13187.773133785815 -0 -54776.918056650597 -197.15522645486598 37695.230677659682 1:0.070925026 2:0.16869803 3:-0.018969936 4:0.065565259 5:0.17145563 6:-0.0165714 7:0.060951241 8:0.17618718 9:-0.012665828 
-2.3674108926874093 -0 -0 -54776.918056650597 -0 37695.230677659682 1:0.034160877 2:0.10195372 3:0.10683165 4:0.033489473 5:0.093224465 6:0.1080434 7:0.034354133 8:0.084829071 9:0.10386033 
-2.3674108926874093 -33369.788396284974 -2066.9245078751128 -54776.918056650597 -197.15522645486598 37695.230677659682 1:0.028093021 2:0.099410662 3:-0.028904599 4:0.026514203 5:0.10229902 6:-0.036947801 7:0.025968639 8:0.10813371 9:-0.046639485 
-0 -33369.788396284974 -2066.9245078751128 -54776.918056650597 -179.38425087988966 37695.230677659682 1:-0.0057143825 2:0.14704604 3:-0.0038154929 4:6.8889269e-05 5:0.14840646 6:-0.011932006 7:0.0044736958 8:0.14845839 9:-0.022044941 
-0 -33369.788396284974 -1396.4894780110319 -54776.918056650597 -197.15522645486598 37695.230677659682 1:0.044869675 2:0.13624181 3:-0.024740659 4:0.047190177 5:0.14170993 6:-0.020231514 7:0.049260943 8:0.15033382 9:-0.022200061 
-2.3674108926874093 -33369.788396284974 -2066.9245078751128 -54776.918056650597 -0 37695.230677659682 1:-0.014463265 2:0.13423284 3:0.038182191 4:-0.011726805 5:0.13061217 6:0.045704372 7:-0.0039986786 8:0.12509692 9:0.044028622 
-0 -33369.788396284974 -2066.9245078751128 -54776.918056650597 -197.15522645486598 37695.230677659682 1:0.010278544 2:0.14948764 3:-0.0010267349 4:0.020285333 5:0.15243927 6:-0.011850491 7:0.021997846 8:0.15179409 9:-0.018762542 
-2.3674108926874093 -33369.788396284974 -0 -54776.918056650597 -0 37695.230677659682 1:0.018229676 2:0.12934311 3:0.067777948 4:0.018316408 5:0.1307526 6:0.074107208 7:0.020585952 8:0.13334681 9:0.073221537 
-0 -33369.788396284974 -2066.9245078751128 -54776.918056650597 -197.15522645486598 37695.230677659682 1:0.019330089 2:0.14027853 3:-0.022748475 4:0.021411903 5:0.13594065 6:-0.020488593 7:0.022570508 8:0.13837868 9:-0.018389409 
-0 -33369.788396284974 -2066.9245078751128 -54776.918056650597 -197.15522645486598 37695.230677659682 1:0.027660773 2:0.14906506 3:-0.02069917 4:0.027996629 5:0.15171517 6:-0.023280758 7:0.02541826 8:0.15162558 9:-0.024394424 
-2.3674108926874093 -33369.788396284974 -2066.9245078751128 -0 -0 37695.230677659682 1:-0.024839441 2:0.12597538 3:0.05949894 4:-0.027268227 5:0.12216869 6:0.065301157 7:-0.030236325 8:0.12029362 9:0.068238461 
-2.3674108926874093 -33369.788396284974 -90.323113435869814 -54776.918056650597 -197.15522645486598 37695.230677659682 1:0.042842208 2:0.12198811 3:0.00030958804 4:0.04555152 5:0.12040735 6:-0.0070558403 7:0.046848545 8:0.11861771 9:-0.012849126 
-2.3674108926874093 -33369.788396284974 -0 -595.12763336494595 -0 37695.230677659682 1:0.038942609 2:0.14493837 3:0.06657264 4:0.023309628 5:0.15967617 6:0.069721344 7:0.020573659 8:0.16599161 9:0.065426892 
-2.3674108926874093 -33369.788396284974 -2066.9245078751128 -54776.918056650597 -0 37695.230677659682 1:0.00080784985 2:0.12648338 3:0.062694043 4:-0.0025359392 5:0.12497634 6:0.061467415 7:-0.0039137952 8:0.12957015 9:0.05971283 
-2.3674108926874093 -0 -0 -0 -0 37695.230677659682 1:0.060211163 2:0.13785251 3:0.11657982 4:0.04935368 5:0.14774319 6:0.10860598 7:0.033991613 8:0.15652827 9:0.091539395 
-2.3674108926874093 -33369.788396284974 -2066.9245078751128 -0 -0 37695.230677659682 1:-0.023862125 2:0.14517718 3:0.053027081 4:-0.030376316 5:0.14309852 6:0.051728177 7:-0.033897871 8:0.14030581 9:0.054457164 
-2.3674108926874093 -33369.788396284974 -2066.9245078751128 -0 -0 37695.230677659682 1:-0.04256488 2:0.13688168 3:0.041212797 4:-0.030261897 5:0.14148787 6:0.049937912 7:-0.016423996 8:0.14371175 9:0.063286892 
-2.3674108926874093 -33369.788396284974 -0 -0 -0 37695.230677659682 1:0.0062370747 2:0.12443967 3:0.077846405 4:0.0024511406 5:0.12400148 6:0.079416056 7:0.018108659 8:0.1262237 9:0.08693064 
-2.3674108926874093 -0 -0 -54776.918056650597 -197.15522645486598 37695.230677659682 1:0.078177396 2:0.12196093 3:0.0012194312 4:0.07873304 5:0.11571452 6:0.0022180651 7:0.068751707 8:0.10839824 9:-0.0041230388 
-0 -33369.788396284974 -2066.9245078751128 -54776.918056650597 -197.15522645486598 37695.230677659682 1:0.033851145 2:0.14219463 3:-0.018484766 4:0.032725633 5:0.13806696 6:-0.023400702 7:0.031170861 8:0.13304562 9:-0.028296351 
-2.3674108926874093 -0 -0 -54776.918056650597 -197.15522645486598 37695.230677659682 1:0.066047995 2:0.10779002 3:-0.028326217 4:0.074642777 5:0.10603209 6:-0.031297532 7:0.073845644 8:0.10334284 9:-0.027980888 
-2.3674108926874093 -0 -0 -36034.838770311952 -177.33106645075694 37695.230677659682 1:0.060552584 2:0.15574915 3:0.054362041 4:0.063026314 5:0.16047786 6:0.05173053 7:0.060868887 8:0.16233351 9:0.052131184 
-2.3674108926874093 -0 -0 -0 -0 13635.846827995201 1:0.088844488 2:0.28986536 3:0.18436662 4:0.080386234 5:0.21442055 6:0.12609404 7:0.014813235 8:0.12496612 9:0.13154164 
-2.3674108926874093 -0 -0 -54776.918056650597 -197.15522645486598 37695.230677659682 1:0.051381726 2:0.11860221 3:-0.024482649 4:0.051214893 5:0.11496041 6:-0.029363538 7:0.052723805 8:0.11701768 9:-0.028114558 
-0 -33369.788396284974 -2066.9245078751128 -54776.918056650597 -0 37695.230677659682 1:-0.027148284 2:0.17112909 3:-0.033035107 4:-0.030457146 5:0.16714323 6:-0.033982856 7:-0.03527481 8:0.1657664 9:-0.034091328 
-0 -33369.788396284974 -2066.9245078751128 -54776.918056650597 -0 37695.230677659682 1:-0.0025434409 2:0.14806978 3:-0.0073756895 4:-0.0019335457 5:0.14342625 6:-0.0049196381 7:-0.0018853144 8:0.13813918 9:-0.0029789686 
-0 -33369.788396284974 -2066.9245078751128 -54776.918056650597 -197.15522645486598 37695.230677659682 1:0.01318144 2:0.13659566 3:-0.015858825 4:0.016705181 5:0.13792056 6:-0.014659039 7:0.023188698 8:0.14326399 9:-0.011836036 
-2.3674108926874093 -0 -0 -0 -197.15522645486598 17327.039739515465 1:0.033373569 2:0.048016481 3:0.13217119 4:0.017952012 5:0.10917556 6:0.18034495 7:0.094209295 8:0.24367603 9:0.28979074 
-2.3674108926874093 -0 -0 -54776.918056650597 -197.15522645486598 0 1:0.065917049 2:0.12248273 3:0.056034698 4:0.066413719 5:0.11150119 6:0.048004121 7:0.0648624 8:0.10166866 9:0.046384239 
-2.3674108926874093 -33369.788396284974 -2066.9245078751128 -54776.918056650597 -0 37695.230677659682 1:0.012431205 2:0.13936183 3:0.052272375 4:0.013274544 5:0.13884579 6:0.057999707 7:0.0086442364 8:0.14039807 9:0.055686258 
-2.3674108926874093 -33369.788396284974 -0 -54776.918056650597 -197.15522645486598 37695.230677659682 1:0.051536406 2:0.12022458 3:-0.021359071 4:0.044654421 5:0.12235261 6:-0.021346072 7:0.059645821 8:0.12902918 9:-0.025639491 
-0 -33369.788396284974 -0 -54776.918056650597 -197.15522645486598 37695.230677659682 1:0.041173745 2:0.14183606 3:0.011990774 4:0.040974662 5:0.14566388 6:0.012687562 7:0.036683004 8:0.15464364 9:0.012704321 
-2.3674108926874093 -20516.84799626013 -0 -54776.918056650597 -0 37695.230677659682 1:0.018937824 2:0.084932572 3:0.085613384 4:0.020271092 5:0.08219393 6:0.084725219 7:0.02169121 8:0.078579696 9:0.085866762 
-2.3674108926874093 -0 -0 -27388.459028325298 -0 37695.230677659682 1:0.030002551 2:0.093504154 3:0.084623117 4:0.029882536 5:0.092679333 6:0.086597677 7:0.032959765 8:0.089391601 9:0.087897311 
-2.3674108926874093 -0 -0 -0 -197.15522645486598 0 1:0.046527074 2:0.068027229 3:0.060402239 4:0.054838344 5:0.067951117 6:0.05248178 7:0.063652446 8:0.093439924 9:0.056252532 
-0 -33369.788396284974 -2066.9245078751128 -0 -0 37695.230677659682 1:-0.0010141698 2:0.14933672 3:0.0011556296 4:0.0002806677 5:0.14746615 6:0.0034520155 7:0.0042240812 8:0.14797995 9:0.0092247104 
-2.3674108926874093 -33369.788396284974 -2066.9245078751128 -54776.918056650597 -0 37695.230677659682 1:-0.0076939247 2:0.13680673 3:0.014810875 4:-0.0045259711 5:0.13478638 6:0.021744666 7:0.00048268933 8:0.13015139 9:0.030400795 
-0.59185272317185234 -33369.788396284974 -2066.9245078751128 -0 -0 37695.230677659682 1:-0.0096119673 2:0.15456299 3:0.03366964 4:-0.00665875 5:0.14608513 6:0.040746337 7:-0.0024261843 8:0.13982614 9:0.042475233 
-2.3674108926874093 -0 -0 -0 -0 37695.230677659682 1:0.040331636 2:0.11562575 3:0.07527083 4:0.032310524 5:0.11143978 6:0.073986995 7:0.02799433 8:0.10862812 9:0.077379982 
-2.3674108926874093 -0 -142.88143880064797 -0 -37.595135579085316 37695.230677659682 1:-0.046708755 2:0.01923064 3:0.077289971 4:-0.043107168 5:0.021167172 6:0.074910027 7:0.011321687 8:0.054120513 9:0.10040611 
-0 -0 -0 -54776.918056650597 -197.15522645486598 37695.230677659682 1:0.054475767 2:0.143392 3:-0.0235622 4:0.059296837 5:0.14293128 6:-0.032949741 7:0.057467133 8:0.13746714 9:-0.03640109 
-2.3674108926874093 -0 -0 -0 -0 37695.230677659682 1:0.013142471 2:0.1874682 3:0.17594654 4:0.041688472 5:0.1847853 6:0.13609283 7:0.0086530669 8:0.13418802 9:0.10799301 
-2.3674108926874093 -0 -0 -0 -126.21730202676333 8024.1483098896206 1:0.067568689 2:0.13031687 3:0.071443774 4:0.04934749 5:0.12826061 6:0.061409372 7:0.015206156 8:0.11135331 9:0.052633722 
-2.3674108926874093 -0 -2066.9245078751128 -54776.918056650597 -197.15522645486598 9423.8076694149204 1:0.016525958 2:0.098900643 3:0.013941681 4:0.021951563 5:0.091620492 6:0.020211168 7:0.029475201 8:0.088431994 9:0.021090515 
-2.3674108926874093 -0 -0 -0 -197.15522645486598 0 1:0.04905021 2:0.055905766 3:0.089369494 4:0.057134591 5:0.057032849 6:0.088820404 7:0.062433624 8:0.057616983 9:0.089283555 
-0 -33369.788396284974 -2066.9245078751128 -0 -0 37695.230677659682 1:-0.034428581 2:0.16722089 3:-0.018150042 4:-0.038412373 5:0.16911722 6:-0.025258259 7:-0.040726856 8:0.17267402 9:-0.03520758 
-2.3674108926874093 -16684.894198142487 -2066.9245078751128 -0 -0 0 1:0.015355667 2:0.14086756 3:0.024467105 4:0.018317748 5:0.1440235 6:0.022160329 7:0.019271133 8:0.1433654 9:0.024869334 
-2.3674108926874093 -0 -0 -54181.790423285653 -197.15522645486598 0 1:0.050034591 2:0.12366063 3:-0.0054282649 4:0.054705466 5:0.12309107 6:-0.0031175415 7:0.056823785 8:0.12533546 9:-0.0029626704 
-2.3674108926874093 -0 -0 -54776.918056650597 -197.15522645486598 2402.4608291794493 1:0.064283959 2:0.11346606 3:0.014143545 4:0.068309167 5:0.11460457 6:0.020865633 7:0.064641718 8:0.11527978 9:0.0128791 
-0 -0 -2066.9245078751128 -0 -197.15522645486598 26059.583957507755 1:0.023744623 2:0.058618458 3:-0.1204832 4:0.010878659 5:0.061274908 6:-0.11787645 7:-0.00054549493 8:0.07321609 9:-0.10911974 
-0 -0 -2066.9245078751128 -0 -197.15522645486598 0 1:0.038416627 2:0.15002168 3:-0.017080376 4:0.034933994 5:0.14672341 6:-0.018266011 7:0.033162038 8:0.14328087 9:-0.020174737 
-2.3674108926874093 -0 -2066.9245078751128 -0 -0 0 1:0.0044926434 2:0.085804326 3:0.083268932 4:0.0076278097 5:0.079004936 6:0.08301003 7:0.005350487 8:0.073178251 9:0.081343208 
-2.3674108926874093 -0 -0 -54776.918056650597 -197.15522645486598 0 1:0.093147504 2:0.090530577 3:0.045672663 4:0.094507257 5:0.091813567 6:0.044878941 7:0.09590018 8:0.091536989 9:0.041766055 
-0 -33369.788396284974 -2066.9245078751128 -0 -0 3352.409361480763 1:-0.0076634892 2:0.16183986 3:-0.012745543 4:-0.016833541 5:0.15564165 6:-0.0082916122 7:-0.023754642 8:0.15422918 9:-0.0058908898 
-2.3674108926874093 -0 -0 -0 -0 0 1:0.032638631 2:0.10547911 3:0.086450316 4:0.028532754 5:0.11582654 6:0.079951004 7:0.0292157 8:0.11874356 9:0.080233719 
-2.3674108926874093 -0 -0 -0 -0 1799.1450839761665 1:0.07281575 2:0.16742538 3:0.075347229 4:0.054498025 5:0.17258667 6:0.066136302 7:0.036996181 8:0.1677758 9:0.067005333 
-2.3674108926874093 -33369.788396284974 -2066.9245078751128 -0 -0 0 1:-0.0036090842 2:0.13082022 3:0.014036921 4:0.0025238867 5:0.13123295 6:0.012637981 7:0.0064498121 8:0.12721964 9:0.010348694 
-2.3674108926874093 -0 -0 -0 -197.15522645486598 0 1:0.042036901 2:0.1198689 3:0.012961051 4:0.044092484 5:0.11801945 6:0.010997299 7:0.044862465 8:0.11882325 9:0.011615022 
-2.3674108926874093 -0 -0 -0 -70.937924428102647 8627.8730717008439 1:0.025745536 2:0.1216611 3:0.037302864 4:0.022760303 5:0.12252412 6:0.050002063 7:0.013801839 8:0.12700512 9:0.047134966 
-2.3674108926874093 -33369.788396284974 -2066.9245078751128 -0 -0 13624.591214450495 1:-0.029169385 2:0.13439621 3:0.059545101 4:-0.035557924 5:0.13441508 6:0.045456082 7:-0.037687053 8:0.13258292 9:0.035855734 
-2.3674108926874093 -33369.788396284974 -2066.9245078751128 -0 -0 0 1:0.0037926023 2:0.11121588 3:0.083276345 4:0.0071232069 5:0.10562988 6:0.083170359 7:0.0018433539 8:0.099258362 9:0.086580716 
-2.3674108926874093 -0 -2066.9245078751128 -18742.079286338645 -0 0 1:0.022065581 2:0.13376601 3:0.014845716 4:0.020955183 5:0.13419922 6:0.014322437 7:0.021154923 8:0.13846427 9:0.024293075 
-0 -0 -0 -0 -197.15522645486598 4695.3821161422356 1:0.082294396 2:0.17332748 3:-0.0275363 4:0.063950263 5:0.17818771 6:-0.010531599 7:0.057151601 8:0.18881695 9:-0.001946713 
-0 -0 -0 -0 -197.15522645486598 0 1:0.051338814 2:0.14796879 3:-0.021278365 4:0.050253332 5:0.15831834 6:-0.02166311 7:0.049973113 8:0.1647483 9:-0.022029756 
-2.3674108926874093 -0 -0 -54776.918056650597 -197.15522645486598 0 1:0.087622131 2:0.13279837 3:0.02310172 4:0.088208994 5:0.13614932 6:0.019030773 7:0.086130631 8:0.13979327 9:0.018755229 
-0 -33369.788396284974 -2066.9245078751128 -0 -0 0 1:-0.016078529 2:0.14073795 3:0.00022198595 4:-0.0079965689 5:0.13298481 6:0.0028095213 7:0.00024785545 8:0.12283762 9:0.0048871978 
-0 -33369.788396284974 -2066.9245078751128 -0 -0 11724.858194854911 1:0.0083055355 2:0.17841532 3:-0.023152847 4:-0.0028370123 5:0.17502244 6:-0.016585701 7:-0.011968378 8:0.16414007 9:-0.010613194 
-2.3674108926874093 -0 -0 -54776.918056650597 -197.15522645486598 0 1:0.061150676 2:0.13709783 3:0.047892465 4:0.050172475 5:0.11666863 6:0.043666337 7:0.038126157 8:0.104433 9:0.042571805 
-0 -33369.788396284974 -2066.9245078751128 -0 -197.15522645486598 0 1:0.030276657 2:0.13748255 3:-0.02642288 4:0.02980537 5:0.13768122 6:-0.027881756 7:0.032205976 8:0.13791565 9:-0.028780731 
-0 -33369.788396284974 -2066.9245078751128 -0 -0 37695.230677659682 1:-0.0041114002 2:0.16140535 3:-0.014760298 4:-0.0072212516 5:0.16226041 6:-0.017226432 7:-0.014595305 8:0.16267226 9:-0.015423687 
-2.3674108926874093 -0 -0 -0 -197.15522645486598 0 1:0.034557593 2:0.059104015 3:0.099151509 4:0.043836894 5:0.0652659 6:0.09756303 7:0.056339434 8:0.071356845 9:0.096518539 
-2.3674108926874093 -33369.788396284974 -2066.9245078751128 -0 -0 1812.3533262861431 1:0.00055832446 2:0.12056991 3:0.082530679 4:0.0018809702 5:0.12185041 6:0.081034035 7:0.0026302915 8:0.11881065 9:0.076878723 
-0 -0 -437.23047762756289 -0 -197.15522645486598 0 1:0.022138825 2:0.18118894 3:-0.016890389 4:0.025878597 5:0.19649362 6:-0.0070604713 7:0.029378834 8:0.21379961 9:0.008621399 
-0 -33034.955662524 -2066.9245078751128 -0 -0 0 1:0.014117646 2:0.16377415 3:-0.012390506 4:0.010656403 5:0.16670294 6:-0.011597512 7:0.010324074 8:0.16628097 9:-0.0054415291 
-2.3674108926874093 -0 -0 -0 -197.15522645486598 0 1:0.028914152 2:0.077293526 3:0.071566276 4:0.03036245 5:0.07207904 6:0.074433373 7:0.031020669 8:0.064322379 9:0.077804613 
-1.8935425634999286 -19080.96537658646 -6658.2679319259223 -7229.8212681422774 -70.536661764117412 -37695.230677659682 1:0.03239771 2:0.11258463 3:0.010283717 4:0.033879086 5:0.11322162 6:0.0118362 7:0.032931005 8:0.11526592 9:0.011688063 
-0 -19080.96537658646 -6658.2679319259223 -0 -0 -0 1:-0.075194684 2:0.21371822 3:0.021450335 4:-0.050337182 5:0.20567435 6:0.030218604 7:-0.013436087 8:0.18534986 9:0.043033995 
-1.8935425634999286 -19080.96537658646 -0 -0 -0 -37695.230677659682 1:-0.0092289771 2:0.12965009 3:0.053148835 4:-0.0053922114 5:0.13157588 6:0.054689467 7:0.00049477983 8:0.13151663 9:0.054070251 
-1.8935425634999286 -19080.96537658646 -6658.2679319259223 -7229.8212681422774 -0 -37695.230677659682 1:0.010493184 2:0.1197545 3:0.010488147 4:0.0051996324 5:0.11576959 6:0.0096200606 7:0.0086230941 8:0.11765094 9:0.0066795278 
-1.8935425634999286 -19080.96537658646 -6658.2679319259223 -7229.8212681422774 -0 -37695.230677659682 1:-0.00035553042 2:0.12176917 3:0.066706395 4:-0.0029494211 5:0.1124365 6:0.055936786 7:-0.0089327018 8:0.10271866 9:0.049048384 
-1.8935425634999286 -19080.96537658646 -6658.2679319259223 -7229.8212681422774 -70.536661764117412 -37695.230677659682 1:0.037612156 2:0.12390235 3:0.016846216 4:0.034293872 5:0.12382828 6:0.015966279 7:0.030531175 8:0.12333943 9:0.012555557 
-0 -19080.96537658646 -6658.2679319259223 -0 -0 -0 1:-0.022220651 2:0.1808761 3:-0.037034419 4:-0.072587461 5:0.17804667 6:-0.00050366809 7:-0.10443706 8:0.19771935 9:0.022368789 
-1.8935425634999286 -19080.96537658646 -6658.2679319259223 -7229.8212681422774 -70.536661764117412 -37695.230677659682 1:0.02457604 2:0.12913161 3:0.0081283142 4:0.024250137 5:0.12994637 6:0.0090023265 7:0.024146441 8:0.13163514 9:0.010375563 
-0 -19080.96537658646 -6658.2679319259223 -0 -0 -37695.230677659682 1:-0.0041330411 2:0.18217971 3:0.020179314 4:-0.0017480246 5:0.19083095 6:0.010295568 7:0.0073624424 8:0.19337892 9:-0.017705415 
-0 -19080.96537658646 -2342.5466110131438 -0 -0 -16543.199858310225 1:-0.031894041 2:0.24122591 3:-0.020220793 4:-0.059980945 5:0.20810381 6:-0.033908714 7:-0.061728969 8:0.19249009 9:-0.0072068979 
-1.8935425634999286 -19080.96537658646 -6658.2679319259223 -0 -0 -37695.230677659682 1:-0.023153919 2:0.0918898 3:0.014576747 4:-0.022383603 5:0.089860314 6:0.0089919569 7:-0.023598332 8:0.085179163 9:0.0099696655 
-1.8935425634999286 -3966.0647081808752 -0 -7229.8212681422774 -0 -37695.230677659682 1:0.054425782 2:0.16961352 3:0.080021009 4:0.058336616 5:0.17314168 6:0.092052751 7:0.057225584 8:0.16401507 9:0.11144397 
-1.8935425634999286 -8685.1922863091131 -0 -7229.8212681422774 -70.536661764117412 -37695.230677659682 1:0.058247734 2:0.1303019 3:0.11931008 4:0.07620202 5:0.10836271 6:0.1238431 7:0.078231506 8:0.093667452 9:0.11531037 
-0 -0 -0 -0 -0 -16618.757058807696 1:-0.086082803 2:0.24264951 3:0.036264103 4:-0.014443423 5:0.19909704 6:0.10442225 7:0.083505207 8:0.14561933 9:0.062114127 
-1.8935425634999286 -15114.900668405584 -0 -7229.8212681422774 -0 -37695.230677659682 1:0.0071713448 2:0.076601992 3:0.05367028 4:0.014964868 5:0.072305999 6:0.060551275 7:0.022902085 8:0.066958229 9:0.06869144 
-1.8935425634999286 -19080.96537658646 -6658.2679319259223 -0 -0 -37695.230677659682 1:-0.0086216127 2:0.13182772 3:0.044337606 4:-0.0093326735 5:0.12593184 6:0.044411675 7:-0.0086216127 8:0.11928046 9:0.043848752 
-0 -19080.96537658646 -6658.2679319259223 -0 -0 -37695.230677659682 1:-0.0047404056 2:0.16352177 3:-0.019505288 4:-0.0081771997 5:0.15661115 6:-0.018126126 7:-0.0091993496 8:0.16059605 9:-0.017806149 
-1.8935425634999286 -19080.96537658646 -6658.2679319259223 -0 -0 -37695.230677659682 1:-0.027005498 2:0.10591844 3:0.032382896 4:-0.024531599 5:0.10600732 6:0.040337889 7:-0.019391222 8:0.11116251 9:0.054173948 
-0 -19080.96537658646 -6658.2679319259223 -0 -0 -0 1:-0.077001963 2:0.1909939 3:0.0025924093 4:-0.068765509 5:0.2204733 6:-0.012147289 7:-0.032738426 8:0.22981338 9:-0.012636144 
-0 -19080.96537658646 -6658.2679319259223 -0 -0 -37695.230677659682 1:0.0043996889 2:0.1776467 3:-0.0074246603 4:-0.021331825 5:0.1771134 6:-0.0040100869 7:-0.046337465 8:0.18195751 9:0.00028738709 
-0 -19080.96537658646 -6658.2679319259223 -7229.8212681422774 -70.536661764117412 -37695.230677659682 1:0.025968534 2:0.13387202 3:-0.01034001 4:0.021835493 5:0.13977797 6:-0.0096141351 7:0.01568778 8:0.14230105 9:-0.00955488 
-1.8935425634999286 -19080.96537658646 -6658.2679319259223 -7229.8212681422774 -70.536661764117412 -37695.230677659682 1:0.020857785 2:0.1216951 3:0.0030220086 4:0.021020736 5:0.12151733 6:0.00074068837 7:0.021346639 8:0.12193212 9:0.0012443565 
-1.8935425634999286 -19080.96537658646 -6658.2679319259223 -7229.8212681422774 -70.536661764117412 -37695.230677659682 1:0.032205131 2:0.12960565 3:0.0031997738 4:0.034042038 5:0.13862724 6:0.002355389 7:0.035627111 8:0.13876056 9:-0.0051700049 
-0 -19080.96537658646 -0 -6074.8037571566092 -0 -37695.230677659682 1:0.016384027 2:0.19807489 3:-0.0010962188 4:0.015628525 5:0.21118507 6:-2.9627535e-05 7:0.014769326 8:0.21954003 9:0.0020739274 
-1.8935425634999286 -19080.96537658646 -0 -7229.8212681422774 -70.536661764117412 -37695.230677659682 1:0.039878662 2:0.13281135 3:0.0030516361 4:0.038975022 5:0.13649405 6:-0.0023702028 7:0.034693843 8:0.13810875 9:-0.003377539 
-0 -19080.96537658646 -6658.2679319259223 -7229.8212681422774 -70.536661764117412 -37695.230677659682 1:0.010636285 2:0.13940925 3:-0.010517775 4:0.015169298 5:0.13731918 6:-0.0059699483 7:0.018931995 8:0.13631629 9:0.00096289489 
-1.8935425634999286 -19080.96537658646 -6658.2679319259223 -7229.8212681422774 -70.536661764117412 -37695.230677659682 1:0.013178328 2:0.12548742 3:0.0069980238 4:0.020205979 5:0.12723545 6:0.0045181991 7:0.026338879 8:0.12568 9:0.0054722057 
-0 -19080.96537658646 -6658.2679319259223 -7229.8212681422774 -24.17664828595634 -37695.230677659682 1:0.011436229 2:0.13421273 3:0.004458944 4:0.016938062 5:0.13360537 6:0.0049477983 7:0.021319974 8:0.13433124 9:0.008858633 
-0 -7497.4560867760383 -6658.2679319259223 -0 -0 -0 1:-0.14249363 2:0.23121328 3:0.071914916 4:-0.0975931 5:0.22084365 6:0.053018474 7:-0.026309251 8:0.19757122 9:0.044293165 
-1.8935425634999286 -19080.96537658646 -6658.2679319259223 -7229.8212681422774 -70.536661764117412 -37695.230677659682 1:0.020220793 2:0.12726508 3:-0.0013628666 4:0.020842971 5:0.12376903 6:-0.0011406601 7:0.023933123 8:0.12049518 9:-0.0024146441 
-0 -19080.96537658646 -6658.2679319259223 -7229.8212681422774 -0 -37695.230677659682 1:0.014310099 2:0.15221146 3:0.00057773693 4:0.015702594 5:0.14889318 6:-0.00011999152 7:0.015613711 8:0.14191886 9:-6.36992e-05 
-0 -19080.96537658646 -6658.2679319259223 -7229.8212681422774 -70.536661764117412 -37695.230677659682 1:0.03287175 2:0.13646443 3:0.00102215 4:0.03467903 5:0.14323432 6:-0.0026368506 7:0.034101293 8:0.14513048 9:-0.0046663368 
-0 -19080.96537658646 -0 -7229.8212681422774 -70.536661764117412 -37695.230677659682 1:0.034619775 2:0.13793099 3:-0.017495059 4:0.038604678 5:0.13570892 6:-0.017213598 7:0.034442009 8:0.1310574 9:-0.0038367658 
-0 -19080.96537658646 -6658.2679319259223 -7229.8212681422774 -70.536661764117412 -37695.230677659682 1:0.019420849 2:0.13364981 3:0.0014813767 4:0.026220368 5:0.13658294 6:-0.0015554456 7:0.02866464 8:0.13501268 9:0.0022235465 
-1.8935425634999286 -19080.96537658646 -6658.2679319259223 -7229.8212681422774 -70.536661764117412 -37695.230677659682 1:0.01499894 2:0.12822797 3:-0.0037330694 4:0.017779484 5:0.12215729 6:0.001718397 7:0.017437286 8:0.11847903 9:0.010043734 
-1.8935425634999286 -19080.96537658646 -6658.2679319259223 -0 -0 -37695.230677659682 1:-0.0039108346 2:0.10891082 3:0.045789355 4:-0.011895455 5:0.09916336 6:0.046100444 7:-0.015510015 8:0.09008252 9:0.047433684 
-0 -19080.96537658646 -6658.2679319259223 -0 -0 -0 1:0.0075550214 2:0.17034351 3:-0.009303046 4:-0.015909986 5:0.18151309 6:-0.0072439323 7:-0.02944977 8:0.19687497 9:-0.011495484 
-1.8935425634999286 -19080.96537658646 -5807.1831924358075 -7229.8212681422774 -70.536661764117412 -37695.230677659682 1:0.0030516361 2:0.07120978 3:0.037360322 4:0.0078957381 5:0.072587461 6:0.042367375 7:0.013702735 8:0.070913505 9:0.051892628 
-0 -19080.96537658646 -6658.2679319259223 -0 -0 -0 1:-0.081875693 2:0.19038654 3:-0.027135859 4:-0.076661247 5:0.172373 6:-0.0092141634 7:-0.059995758 8:0.15887766 9:0.0032442151 
-1.8935425634999286 -19080.96537658646 -5733.7281335276921 -7229.8212681422774 -70.536661764117412 -37695.230677659682 1:0.034738285 2:0.11877679 3:0.015717407 4:0.036219662 5:0.11316237 6:0.0096941294 7:0.03786399 8:0.10963669 9:0.006947657 
-0 -0 -0 -0 -0 -16282.13991459868 1:0.047611449 2:0.20323896 3:0.12224321 4:0.049433542 5:0.24438124 6:0.098526368 7:0.036456682 8:0.25761142 9:0.064158427 
-0 -19080.96537658646 -0 -7229.8212681422774 -70.536661764117412 -37695.230677659682 1:0.036204848 2:0.1628033 3:0.0015258181 4:0.032219944 5:0.16293663 6:0.0036590006 7:0.0294394 8:0.16049236 9:0.010414079 
-1.8935425634999286 -16686.340835785217 -3098.8583220104606 -0 -70.536661764117412 -37695.230677659682 1:0.015939614 2:0.015554456 3:-0.065032439 4:0.028012834 5:0.061328997 6:-0.075253939 7:0.029790486 8:0.11282165 9:-0.089475156 
-1.8935425634999286 -4770.2413441466151 -0 -0 -70.536661764117412 -9423.8076694149204 1:0.022813202 2:0.13010932 3:0.005481094 4:0.023302056 5:0.13000562 6:0.0055107215 7:0.024738992 8:0.12982786 9:0.0064588026 
-1.8935425634999286 -0 -6658.2679319259223 -0 -0 -0 1:-0.0039849035 2:0.089875127 3:0.040411958 4:-0.0094808112 5:0.086379078 6:0.03833803 7:-0.012117662 8:0.084349592 9:0.038041755 
-0 -0 -5335.0341478038072 -0 -0 -0 1:-0.057803321 2:0.23702028 3:-0.0081154262 4:-0.10723686 5:0.25746328 6:-0.047359615 7:-0.12283576 8:0.24205696 9:-0.035982641 
-0 -0 -0 -7229.8212681422774 -70.536661764117412 -0 1:0.020872598 2:0.15785551 3:0.00079994344 4:0.027761 5:0.16295144 6:0.007006912 7:0.031775531 8:0.16937173 9:0.016035903 
-0 -0 -5915.6908322603476 -7229.8212681422774 -70.536661764117412 -16951.623728509236 1:0.055548665 2:0.15800364 3:0.0035849317 4:0.053922114 5:0.1428065 6:-0.051359332 7:0.035004933 8:0.10839234 9:-0.07903145 
-1.8935425634999286 -0 -0 -0 -0 -0 1:-0.040634164 2:0.12073221 3:0.029775673 4:-0.033256908 5:0.12339868 6:0.03821952 7:-0.026531458 8:0.12562075 9:0.047507752 
-1.8935425634999286 -0 -0 -1807.4553170355694 -70.536661764117412 -0 1:0.0032145875 2:0.073076315 3:0.04423391 4:0.013317577 5:0.075002105 6:0.043601362 7:0.021879935 8:0.076216834 9:0.042945112 
-1.8935425634999286 -0 -0 -0 -0 -0 1:0.023257615 2:0.070009865 3:0.067580407 4:0.027020312 5:0.077090846 6:0.075565028 7:0.030190458 8:0.086053175 9:0.084764378 
-0 -2542.4389259742197 -4315.7213209127794 -0 -0 -0 1:-0.056277503 2:0.21109619 3:-0.017508392 4:-0.067641144 5:0.24309392 6:-0.01285835 7:-0.072803594 8:0.26130004 9:-0.0028738709 
-1.8935425634999286 -0 -0 -0 -0 -0 1:-0.012162103 2:0.12117662 3:0.039463877 4:-0.011095512 5:0.11688063 6:0.042841416 7:-0.0084882888 8:0.11184394 9:0.046855947 
-0 -3226.1817968693872 -0 -0 -0 -0 1:-0.014532306 2:0.15523347 3:0.037464018 4:-0.020457813 5:0.15813697 6:0.031108912 7:-0.028235041 8:0.15465573 9:0.029434956 
-1.8935425634999286 -0 -0 -0 -70.536661764117412 -0 1:0.034852351 2:0.12725026 3:-0.0069772845 4:0.031439259 5:0.12698361 6:-0.00066661954 7:0.021405894 8:0.1371903 9:0.012088034 
-1.8935425634999286 -8209.513107768058 -0 -0 -0 -0 1:-0.025893873 2:0.13044263 3:0.06015871 4:-0.032708799 5:0.14023009 6:0.046533006 7:-0.035967827 8:0.14523418 9:0.037123301 
-1.8935425634999286 -0 -0 -0 -0 -0 1:0.0050218672 2:0.082305292 3:0.040441585 4:0.010916265 5:0.084705123 6:0.04549308 7:0.016472909 8:0.085593949 9:0.051108979 
-1.8935425634999286 -0 -0 -0 -70.536661764117412 -0 1:0.026605526 2:0.13070187 3:-0.001910976 4:0.026886988 5:0.13330317 6:-0.00021183688 7:0.028501689 8:0.13290023 9:0.0037330694 
-1.8935425634999286 -0 -0 -0 -0 -0 1:-0.021494777 2:0.13110184 3:0.041789638 4:-0.015124857 5:0.12970935 6:0.049863141 7:-0.011237724 8:0.1323462 9:0.051014171 
-1.8935425634999286 -0 -0 -0 -0 -0 1:-0.038204706 2:0.11962117 3:0.027494352 4:-0.03731588 5:0.12025816 6:0.032590288 7:-0.035404904 8:0.11215503 9:0.036875911 
-1.8935425634999286 -0 -0 -0 -70.536661764117412 -0 1:0.014209366 2:0.13228694 3:0.0050589016 4:0.015375209 5:0.12704287 6:0.0051551911 7:0.020309675 8:0.12302834 9:0.0031997738 
-1.8935425634999286 -0 -0 -0 -0 -0 1:-0.039063905 2:0.12576889 3:0.04765589 4:-0.027983207 5:0.12073221 6:0.061106791 7:-0.021346639 8:0.11969524 9:0.070306141 
-1.8935425634999286 -0 -0 -0 -0 -37695.230677659682 1:0.034353127 2:0.11301868 3:0.072424509 4:0.034723471 5:0.1158807 6:0.073550356 7:0.035138256 8:0.12104329 9:0.076350158 
-1.8935425634999286 -0 -0 -0 -0 -37695.230677659682 1:0.042752533 2:0.14498234 3:0.11751762 4:0.046056003 5:0.15470017 6:0.11329569 7:0.050737154 8:0.16973615 9:0.10610509 
-0 -19080.96537658646 -0 -0 -0 -0 1:-0.031938483 2:0.15681854 3:0.038308403 4:-0.036590006 5:0.15464092 6:0.031553325 7:-0.042397003 8:0.1490265 9:0.024427903 
-1.8935425634999286 -0 -0 -0 -0 -0 1:-0.010794792 2:0.14320469 3:0.052114834 4:-0.0053181425 5:0.14107151 6:0.050944546 7:-0.0018813485 8:0.13985678 9:0.047567007 
-1.8935425634999286 -19080.96537658646 -6658.2679319259223 -7229.8212681422774 -70.536661764117412 -0 1:0.034738285 2:0.10655543 3:0.0091252808 4:0.019568987 5:0.10671838 6:0.010843678 7:0.010399265 8:0.11138472 9:0.011351642 
-0 -0 -0 -7229.8212681422774 -70.536661764117412 -0 1:0.006177341 2:0.13776804 3:-0.007734268 4:0.012339868 5:0.15804809 6:-0.013228694 7:0.015435946 8:0.17385438 9:-0.010888119 
-1.8935425634999286 -0 -0 -0 -70.536661764117412 -0 1:0.024901943 2:0.12690955 3:0.0086808678 4:0.024990826 5:0.12982786 6:0.0066365678 7:0.024116813 8:0.13064262 9:0.0048589157 
-1.8935425634999286 -0 -0 -0 -0 -7459.428081720167 1:0.019554173 2:0.10360749 3:0.061131974 4:0.025405611 5:0.10094101 6:0.06081496 7:0.032442151 8:0.098888564 9:0.065675209 
-0 -0 -6658.2679319259223 -0 -0 -0 1:-0.013154626 2:0.16644749 3:-0.0037182556 4:0.0056884867 5:0.16603271 6:0.010443706 7:0.023213174 8:0.14982941 9:-0.0016295144 
-1.8935425634999286 -0 -6658.2679319259223 -0 -70.536661764117412 -0 1:-0.0042959926 2:0.05949209 3:0.054766498 4:0.0059995758 5:0.059714297 6:0.056721916 7:0.015747035 8:0.061936362 9:0.055581256 
-1.8935425634999286 -0 -0 -7229.8212681422774 -70.536661764117412 -0 1:0.029316446 2:0.11600661 3:-0.0028442434 4:0.030123796 5:0.11489558 6:-0.0021776238 7:0.031507402 8:0.11874716 9:-0.0005481094 
-1.8935425634999286 -0 -0 -7229.8212681422774 -0 -25707.539557623295 1:0.037478832 2:0.10197798 3:0.061758597 4:0.037938059 5:0.11858421 6:0.067387828 7:0.04038233 8:0.12443565 9:0.068869205 
-1.8935425634999286 -0 -0 -7229.8212681422774 -70.536661764117412 -0 1:0.032205131 2:0.1273984 3:-0.0060292034 4:0.029834928 5:0.12733915 6:-0.0082957098 7:0.025301915 8:0.12689473 9:-0.0049774259 
-0 -0 -4993.7009489444417 -0 -70.536661764117412 -0 1:0.018724602 2:0.13599039 3:-0.0022220651 4:0.019737864 5:0.13881982 6:-0.0022946526 7:0.022048812 8:0.13705698 9:-0.0047848469 
-1.8935425634999286 -19080.96537658646 -0 -0 -0 -37695.230677659682 1:0.0071106084 2:0.14028638 3:0.076720502 4:0.013480528 5:0.13480528 6:0.064795419 7:0.0037626969 8:0.12932419 9:0.052618502 
-0 -0 -0 -7229.8212681422774 -70.536661764117412 -0 1:0.024990826 2:0.14003899 3:0.011569552 4:0.030975588 5:0.14433054 6:0.006814333 7:0.030308968 8:0.1449379 9:0.002740547 
-0 -0 -6658.2679319259223 -7229.8212681422774 -70.536661764117412 -0 1:0.012250986 2:0.13999603 3:-0.014650816 4:0.0069920983 5:0.13418311 6:-0.013584225 7:0.0065180577 8:0.12778356 9:-0.009110467 
-1.8935425634999286 -0 -0 -5899.4556835293542 -70.536661764117412 -13523.003833409753 1:0.10633322 2:0.14721922 3:-0.061151232 4:0.020413372 5:0.10962188 6:0.014324913 7:-0.022235465 8:0.12348757 9:0.05198151 
-0 -0 -0 -7229.8212681422774 -70.536661764117412 -0 1:0.025672259 2:0.13841984 3:-0.0023702028 4:0.031775531 5:0.14618226 6:-0.0087253091 7:0.02878315 8:0.1593517 9:-0.0031997738 
-1.8935425634999286 -0 -0 -7229.8212681422774 -28.725848037131719 -37695.230677659682 1:0.077401935 2:0.15069305 3:0.076070177 4:0.067150808 5:0.15908505 6:0.074508806 7:0.051329704 8:0.16887695 9:0.074528064 
-0 -0 -6658.2679319259223 -0 -70.536661764117412 -0 1:0.016939543 2:0.1295301 3:-0.0055107215 4:0.021743648 5:0.12727989 6:-0.0050070534 7:0.024244212 8:0.12305797 9:-0.010799237 
-1.8935425634999286 -0 -0 -0 -0 -37695.230677659682 1:0.0069624707 2:0.15022642 3:0.059906876 4:-0.0077920417 5:0.14338394 6:0.060262406 7:-0.011125139 8:0.13710142 9:0.055803462 
-1.8935425634999286 -0 -6658.2679319259223 -0 -0 -0 1:-0.035108629 2:0.12443565 3:0.037212184 4:-0.020442999 5:0.12488006 6:0.039552759 7:-0.0060588309 8:0.12680585 9:0.038975022 
-0 -0 -742.57709966557491 -7229.8212681422774 -70.536661764117412 -0 1:0.019406035 2:0.161396 3:-0.038367658 4:0.045581963 5:0.16909916 6:-0.00034071665 7:0.046130072 8:0.16643268 9:0.0041967403 
