svm_type nu_svc
kernel_type rbf
gamma 0.1111111111111111
nr_class 7
total_sv 1290
rho -197.24028572808163 -150.08174647257903 144.40002309212147 -1621.7681728296645 0.035531674222968046 34.685940045474233 3.3570498270724749 99.280737203498006 -9.9769092656583034 0.086884899359522413 68.480368838279929 -4.8768524682073551 -390.29563384207916 0.057266265866094193 31.468589246097245 -13.979106337958864 0.082856212653236186 60.979981011426318 0.02915747650461065 30.690734540973835 1.0853895822741264
label 1 6 0 5 3 4 2
nr_sv 245 178 176 187 188 150 166
SV
0 9834.5391301716172 -0 14447.27571126988 0.56398243807522963 0 1:-0.017163399 2:0.12518586 3:0.046074645 4:-0.020592684 5:0.1160694 6:0.045123952 7:-0.019913618 8:0.11224965 9:0.041049555 
11002.36901993535 0 -16547.317093757472 12453.637461622113 0.56398243807522963 0 1:0.043477216 2:0.20417824 3:0.08087679 4:0.038401196 5:0.21388889 6:0.092743472 7:0.043935586 8:0.20005292 9:0.11904031 
11002.36901993535 9834.5391301716172 -16547.317093757472 14447.27571126988 0.56398243807522963 0 1:0.018674322 2:0.10104506 3:0.068999921 4:0.019794781 5:0.10079041 6:0.068246158 7:0.020643614 8:0.10015888 9:0.067550115 
10148.9156414398 0 -16547.317093757472 0 0.56398243807522963 27.365808029692815 1:0.071964045 2:0.11296267 3:0.130907 4:0.081114463 5:0.1381051 6:0.13348745 7:0.066599422 8:0.21748794 9:0.10440644 
11002.36901993535 0 -16547.317093757472 0 0.56398243807522963 27.365808029692815 1:0.078092618 2:0.15000573 3:0.039784794 4:0.065546869 5:0.091521153 6:-0.039131192 7:0.039997002 8:0.055004366 9:-0.061234799 
11002.36901993535 9834.5391301716172 -16547.317093757472 14447.27571126988 0.56398243807522963 27.365808029692815 1:0.034123079 2:0.13194257 3:0.0084577701 4:0.036516787 5:0.12959979 6:0.0038757706 7:0.037993756 8:0.12824166 9:0.0014430158 
11002.36901993535 9834.5391301716172 -16547.317093757472 14447.27571126988 0.56398243807522963 27.365808029692815 1:0.040777928 2:0.12817375 3:0.0056600172 4:0.038791659 5:0.13308001 6:0.0082913989 7:0.033868429 8:0.13291024 9:0.010238621 
0 9834.5391301716172 -0 14447.27571126988 0.56398243807522963 0 1:-0.043782796 2:0.1370865 3:0.031508674 4:-0.042764197 5:0.13781649 6:0.037348643 7:-0.040574208 8:0.12853026 9:0.04225999 
11002.36901993535 9834.5391301716172 -16547.317093757472 14447.27571126988 0.56398243807522963 27.365808029692815 1:0.039097239 2:0.1586095 3:-0.010016227 4:0.030405191 5:0.14114392 6:0.00088278612 7:0.023003369 8:0.1362886 9:0.0050997875 
0 9834.5391301716172 -0 14447.27571126988 0 0 1:-0.058620394 2:0.16467356 3:0.025906377 4:-0.063390834 5:0.1655224 6:0.030473098 7:-0.061285729 8:0.16738983 9:0.033868429 
0 9834.5391301716172 -7028.1968751137601 0 0 0 1:0.040726998 2:0.24072898 3:0.029420545 4:-0.011883659 5:0.24718011 6:-0.018424765 7:-0.098176002 8:0.28130319 9:-0.017231306 
0 0 -0 14447.27571126988 0.56398243807522963 0 1:0.034135642 2:0.17893396 3:0.11092547 4:0.026236064 5:0.16961377 6:0.11522057 7:0.020434801 8:0.16642216 9:0.11749544 
11002.36901993535 9834.5391301716172 -16547.317093757472 14447.27571126988 0.56398243807522963 27.365808029692815 1:0.035427056 2:0.14105904 3:0.0099109718 4:0.033156768 5:0.13891998 6:0.0087769312 7:0.031101234 8:0.13662813 9:0.0080656093 
11002.36901993535 7384.4184952500682 -16547.317093757472 0 0.56398243807522963 0 1:0.02665335 2:0.080231677 3:0.077447505 4:0.030965421 5:0.088346518 6:0.086597923 7:0.034598425 8:0.098617395 9:0.097140426 
8921.9092650923867 0 -16547.317093757472 14447.27571126988 0.56398243807522963 0 1:0.00014260391 2:0.15805267 3:0.07529147 4:-0.00068585691 5:0.16163474 6:0.074289847 7:0.00043120707 8:0.15864685 9:0.071777302 
0 9834.5391301716172 -16547.317093757472 14447.27571126988 0 0 1:-0.012325052 2:0.1891539 3:0.010185994 4:-0.02071152 5:0.20322008 6:0.0019811758 7:-0.025974284 8:0.21171588 9:0.00017995255 
11002.36901993535 9834.5391301716172 -16547.317093757472 0 0.56398243807522963 27.365808029692815 1:-0.0050590435 2:0.023767319 3:-0.074048779 4:-0.031321931 5:0.057720631 6:-0.057992257 7:-0.044903255 8:0.11247035 9:-0.034462612 
11002.36901993535 9834.5391301716172 -16547.317093757472 14447.27571126988 0.56398243807522963 0 1:-0.013445512 2:0.13163699 3:0.056158778 4:-0.011595056 5:0.13510023 6:0.057364121 7:-0.0089636744 8:0.13920858 9:0.060216199 
0 9834.5391301716172 -16547.317093757472 14447.27571126988 0.56398243807522963 0 1:-0.013496442 2:0.12783422 3:0.066378725 4:-0.013581325 5:0.11579777 6:0.062066655 7:-0.012036449 8:0.10921083 9:0.057907374 
11002.36901993535 9834.5391301716172 -16547.317093757472 14447.27571126988 0.56398243807522963 27.365808029692815 1:0.03244239 2:0.14992085 3:-0.00016976656 4:0.030439144 5:0.15268805 6:-0.00010185994 7:0.027739856 8:0.15365571 9:0.0009676694 
0 9834.5391301716172 -16547.317093757472 14447.27571126988 0.56398243807522963 27.365808029692815 1:0.024242665 2:0.15362176 3:0.0075121703 4:0.023105229 5:0.15723779 6:0.0076802392 7:0.022986392 8:0.15857894 9:0.0061031079 
5504.5137769415733 9834.5391301716172 -0 0 0 0 1:-0.098651349 2:0.23621319 3:0.006909499 4:-0.1024711 5:0.218897 6:-0.0058399697 7:-0.09676694 8:0.20037547 9:-0.025049056 
0 9834.5391301716172 -16547.317093757472 14447.27571126988 0.56398243807522963 0 1:-0.020694544 2:0.13341954 3:0.045276742 4:-0.01223966 5:0.13554162 6:0.049537883 7:-0.0043969539 8:0.13934439 9:0.05335763 
11002.36901993535 9834.5391301716172 -16547.317093757472 14447.27571126988 0.56398243807522963 0 1:-0.0056226685 2:0.11612033 3:0.059163647 4:-0.0021602795 5:0.11532243 6:0.051405315 7:-0.0013564348 8:0.11640893 9:0.045972785 
0 9834.5391301716172 -0 14447.27571126988 0.56398243807522963 0 1:-0.032153787 2:0.12778329 3:0.065631753 4:-0.033919359 5:0.11822543 6:0.065394079 7:-0.028741479 8:0.10637573 9:0.06417176 
11002.36901993535 9834.5391301716172 -16547.317093757472 14447.27571126988 0.56398243807522963 27.365808029692815 1:0.024633128 2:0.14913992 3:0.0074867054 4:0.024038945 5:0.14964922 6:0.0057211331 7:0.023291972 8:0.14912295 9:0.0066888025 
0 9834.5391301716172 -0 0 0 0 1:-0.072626135 2:0.22443139 3:-0.020355011 4:-0.10608712 5:0.23419297 6:-0.0014430158 7:-0.11866683 8:0.24855522 9:0.012562726 
11002.36901993535 9834.5391301716172 -16547.317093757472 14447.27571126988 0.56398243807522963 0 1:-0.0048298587 2:0.090078137 3:0.057331865 4:0.004889277 5:0.0866149 6:0.056778426 7:0.010961148 8:0.084526771 9:0.054016324 
11002.36901993535 9834.5391301716172 -16547.317093757472 14447.27571126988 0 27.365808029692815 1:0.041490948 2:0.21288727 3:-0.02122082 4:0.043781098 5:0.19426388 6:-0.026262887 7:0.038927473 8:0.1676988 9:-0.017944326 
7689.5248914433068 9834.5391301716172 -16547.317093757472 14447.27571126988 0 27.365808029692815 1:0.018555485 2:0.19689526 3:0.057630655 4:0.0062813628 5:0.24741779 6:0.00037348643 7:-0.018844088 8:0.25775657 9:-0.035277491 
11002.36901993535 9834.5391301716172 -16547.317093757472 14447.27571126988 0.56398243807522963 27.365808029692815 1:0.04361303 2:0.15584231 3:0.00037348643 4:0.043273496 5:0.15423292 6:0.0029709148 7:0.037382597 8:0.15229419 9:0.0056758054 
0 9834.5391301716172 -16547.317093757472 14447.27571126988 0.56398243807522963 0 1:0.012426912 2:0.14489576 3:0.0087090246 4:0.0033613779 5:0.14255298 6:0.0090146044 7:0.0024785918 8:0.1496662 9:0.0057992257 
11002.36901993535 0 -16547.317093757472 14447.27571126988 0 0 1:-0.0029369615 2:0.21594307 3:-0.0042611407 4:-0.013920858 5:0.20645312 6:-0.018674322 7:-0.017825489 8:0.20847334 9:-0.026008237 
11002.36901993535 9834.5391301716172 -16547.317093757472 14447.27571126988 0.56398243807522963 27.365808029692815 1:0.040608161 2:0.14815528 3:0.0039216076 4:0.040132815 5:0.15195805 6:0.002614405 7:0.039912119 8:0.1537406 9:0.0040234675 
11002.36901993535 0 -16547.317093757472 14447.27571126988 0.56398243807522963 27.365808029692815 1:0.023342902 2:0.13552465 3:0.0055004366 4:0.025787541 5:0.13104281 6:-0.00045836972 7:0.027773809 8:0.13172187 9:0.0002716265 
4468.0950200135385 9834.5391301716172 -0 14447.27571126988 0 0 1:-0.061251775 2:0.23003369 3:0.025770564 4:-0.051133688 5:0.21855747 6:0.031508674 7:-0.043765819 8:0.19390737 9:0.039878165 
0 9834.5391301716172 -0 14447.27571126988 0 0 1:-0.036601671 2:0.17971488 3:0.043901633 4:-0.041932341 5:0.17721931 6:0.036160278 7:-0.04858719 8:0.17078516 9:0.027994506 
11002.36901993535 9834.5391301716172 -16547.317093757472 14447.27571126988 0 27.365808029692815 1:0.0017316189 2:0.15518531 3:-0.01101785 4:0.0023427785 5:0.15740756 6:-0.012579702 7:0.0051693918 8:0.157085 9:-0.013428535 
0 9834.5391301716172 -0 14447.27571126988 0.56398243807522963 0 1:-0.055989012 2:0.10544201 3:0.041762574 4:-0.04361303 5:0.10131668 6:0.027604043 7:-0.029267755 8:0.094865554 9:0.022324303 
5694.8998796653541 0 -16547.317093757472 0 0.56398243807522963 0 1:0.039260215 2:0.23918411 3:0.10713968 4:0.049614278 5:0.2391162 6:0.078720754 7:0.059922503 8:0.18940855 9:0.1224696 
0 0 -16547.317093757472 14447.27571126988 0.56398243807522963 0 1:-0.022341279 2:0.15195805 3:0.047653474 4:-0.025295218 5:0.13554162 6:0.049452999 7:-0.025950517 8:0.13474372 9:0.050777178 
11002.36901993535 9834.5391301716172 -16547.317093757472 14447.27571126988 0.56398243807522963 27.365808029692815 1:0.030812631 2:0.13684883 3:0.0067736858 4:0.026534514 5:0.130907 6:0.0045836972 7:0.023699412 8:0.12827561 9:0.0033953312 
0 9834.5391301716172 -0 14447.27571126988 0 0 1:-0.063900134 2:0.170174 3:0.01045762 4:-0.05858644 5:0.15654854 6:0.022069653 7:-0.054562973 8:0.15027736 9:0.034937958 
0 0 -0 6283.9939475302608 0.56398243807522963 0 1:0.037401271 2:0.18085232 3:0.12059707 4:0.041748483 5:0.1765742 6:0.11994008 7:0.038027031 8:0.17183771 9:0.10897316 
11002.36901993535 0 -16547.317093757472 0 0.56398243807522963 27.365808029692815 1:0.079569587 2:0.14964922 3:0.083660961 4:0.068721504 5:0.13788949 6:0.08077493 7:0.059333413 8:0.11994008 9:0.095782294 
11002.36901993535 9834.5391301716172 -16547.317093757472 14447.27571126988 0 0 1:-0.027790786 2:0.21806515 3:-0.01117064 4:-0.050081136 5:0.21533191 6:-0.0040404442 7:-0.064596177 8:0.20604568 9:-0.00037348643 
11002.36901993535 9834.5391301716172 -16547.317093757472 14447.27571126988 0 27.365808029692815 1:0.015228061 2:0.16708934 3:-0.016874796 4:0.012664585 5:0.16107451 6:-0.0080452373 7:0.012291099 8:0.14871551 9:-0.0061998748 
11002.36901993535 0 -16547.317093757472 14447.27571126988 0 27.365808029692815 1:0.02644963 2:0.18810475 3:0.027281486 4:0.031695417 5:0.17716159 6:-0.0079790284 7:0.02757009 8:0.1742484 9:-0.017180376 
11002.36901993535 9834.5391301716172 -16547.317093757472 14447.27571126988 0 27.365808029692815 1:0.036834251 2:0.17923954 3:-0.0050250902 4:0.039606539 5:0.18667531 6:-0.0089127445 7:0.034343775 8:0.18725252 9:-0.013055049 
0 9834.5391301716172 -0 14447.27571126988 0 0 1:-0.0079790284 2:0.14767993 3:0.0041762574 4:-0.0087429779 5:0.14436779 6:0.013954811 7:0.00035650978 8:0.1592081 9:0.0075580073 
11002.36901993535 9834.5391301716172 -16547.317093757472 14447.27571126988 0.56398243807522963 27.365808029692815 1:0.024466757 2:0.13649232 3:0.0018165022 4:0.027622717 5:0.13973486 6:0.003802771 7:0.031493395 8:0.14492971 9:0.006519036 
11002.36901993535 9834.5391301716172 -16547.317093757472 14447.27571126988 0 27.365808029692815 1:0.038486079 2:0.16202521 3:-0.013971788 4:0.022578953 5:0.1606467 6:-0.012155286 7:0.015228061 8:0.15929196 9:-0.015907127 
11002.36901993535 0 -16547.317093757472 14447.27571126988 0.56398243807522963 0 1:0.051133688 2:0.18047883 3:0.10452697 4:0.054495066 5:0.1896632 6:0.10663038 7:0.05442716 8:0.18838995 9:0.11297286 
0 9834.5391301716172 -16547.317093757472 14447.27571126988 0 0 1:0.0061115962 2:0.16976656 3:0.020066408 4:0.0075715886 5:0.17171888 6:0.011764823 7:0.0093541375 8:0.17713443 9:0.0080299583 
11002.36901993535 9834.5391301716172 -16547.317093757472 14447.27571126988 0.56398243807522963 27.365808029692815 1:0.036194231 2:0.15214479 3:0.0071132189 4:0.035362375 5:0.15163549 6:0.013173885 7:0.038265383 8:0.15087154 9:0.015905429 
0 9834.5391301716172 -0 14447.27571126988 0.56398243807522963 0 1:-0.054936459 2:0.14990387 3:0.0381805 4:-0.0425435 5:0.14515041 6:0.057313191 7:-0.02700986 8:0.14090625 9:0.068988038 
11002.36901993535 9834.5391301716172 -16547.317093757472 14447.27571126988 0 27.365808029692815 1:0.035379351 2:0.20141105 3:-0.02665335 4:0.041270251 5:0.19024041 6:-0.02629684 7:0.036973459 8:0.1687191 9:-0.02091524 
11002.36901993535 9834.5391301716172 -16547.317093757472 14447.27571126988 0 0 1:-0.00112725 2:0.16431705 3:0.0097785539 4:0.0024955685 5:0.17399375 6:0.0053985766 7:0.013734115 8:0.19251528 9:0.007452752 
11002.36901993535 6248.4512624293193 -16547.317093757472 14447.27571126988 0.56398243807522963 0 1:0.022409186 2:0.11873473 3:0.070057567 4:0.029114965 5:0.11567893 6:0.069694266 7:0.037178877 8:0.11332682 9:0.075264138 
0 9834.5391301716172 -10076.104403837291 14447.27571126988 0.56398243807522963 0 1:0.0077209832 2:0.15953473 3:0.035820744 4:-0.011289476 5:0.16367024 6:0.032255647 7:-0.034123079 8:0.16514891 9:0.038757706 
0 9834.5391301716172 -0 0 0 0 1:-0.090587437 2:0.22477093 3:-0.0032255647 4:-0.096240664 5:0.21152914 6:-0.021848956 7:-0.092488823 8:0.19567294 9:-0.020660591 
11002.36901993535 9834.5391301716172 -16547.317093757472 14447.27571126988 0 27.365808029692815 1:0.030478191 2:0.15547052 3:-0.01081413 4:0.035634001 5:0.16212707 6:-0.0087939079 7:0.042407687 8:0.16368892 9:-0.0093541375 
0 9834.5391301716172 -16547.317093757472 14447.27571126988 0 27.365808029692815 1:0.031610534 2:0.15871476 3:-0.0042102107 4:0.024293595 5:0.16068405 6:-0.0056192732 7:0.014684808 8:0.16007289 9:-0.004889277 
11002.36901993535 9834.5391301716172 -16547.317093757472 14447.27571126988 0 27.365808029692815 1:0.033625663 2:0.17663192 3:-0.00025464984 4:0.044198724 5:0.17198643 6:-0.019098738 7:0.041117461 8:0.15131294 9:-0.017740606 
0 9834.5391301716172 -0 0 0 0 1:-0.078550988 2:0.24245551 3:0.024667081 4:-0.0753424 5:0.24882855 6:0.027654973 7:-0.067787788 8:0.24568617 9:0.033240293 
0 9834.5391301716172 -16547.317093757472 14447.27571126988 0 0 1:-0.051490198 2:0.17114167 3:0.01786131 4:-0.035562699 5:0.15733286 6:0.020305778 7:-0.020767543 8:0.15015852 9:0.022750417 
11002.36901993535 0 -16547.317093757472 14447.27571126988 0 27.365808029692815 1:0.024480338 2:0.20804892 3:0.032017973 4:0.032561226 5:0.21232704 6:0.021509423 7:0.034241915 8:0.21798026 9:0.024021968 
11002.36901993535 9834.5391301716172 -16547.317093757472 14447.27571126988 0 27.365808029692815 1:0.040353512 2:0.19397527 3:0.0060606662 4:0.03756934 5:0.20808287 6:0.011578079 7:0.029505428 8:0.21558656 9:0.0097361123 
11002.36901993535 9834.5391301716172 -16547.317093757472 0 0.041608382194531071 27.365808029692815 1:0.0071132189 2:0.034462612 3:-0.10169017 4:-0.012138309 5:0.072320555 6:-0.07569891 7:-0.026466607 8:0.12515191 9:-0.065988262 
11002.36901993535 9834.5391301716172 -16547.317093757472 14447.27571126988 0.56398243807522963 27.365808029692815 1:0.02213756 2:0.13703557 3:0.0051778801 4:0.034377729 5:0.1358472 6:0.0092183243 7:0.037807013 8:0.13470977 9:0.0083694915 
3281.8382425201507 9834.5391301716172 -16547.317093757472 14447.27571126988 0.56398243807522963 27.365808029692815 1:-0.017452002 2:0.07503682 3:-0.057109471 4:-0.018402695 5:0.10084134 6:-0.04284908 7:-0.014243414 8:0.1148301 9:-0.046261388 
0 9834.5391301716172 -16547.317093757472 14447.27571126988 0 0 1:-0.048111843 2:0.17605641 3:0.012611958 4:-0.038214453 5:0.16956284 6:0.016738983 7:-0.029233802 8:0.15996254 9:0.019981524 
11002.36901993535 0 -16547.317093757472 0 0.56398243807522963 0 1:0.064443387 2:0.14529081 3:0.095646481 4:0.060419919 5:0.12255448 6:0.12881887 7:0.05935039 8:0.13459093 9:0.14628785 
11002.36901993535 0 -16547.317093757472 4946.0407928735131 0.56398243807522963 0 1:0.071301956 2:0.21545074 3:0.096699033 4:0.041796527 5:0.21470377 6:0.087531639 7:0.0075376353 8:0.19665758 9:0.089314188 
0 6258.8096169753344 -0 0 0 0 1:-0.15360478 2:0.28191435 3:0.040455372 4:-0.13197652 5:0.26364917 6:0.041906876 7:-0.10289551 8:0.26068165 9:0.017401073 
11002.36901993535 9834.5391301716172 -16547.317093757472 14447.27571126988 0.56398243807522963 27.365808029692815 1:0.022273373 2:0.15053201 3:0.0028860315 4:0.023444762 5:0.15134689 6:0.0056871798 7:0.025753587 8:0.14681412 9:0.0022748719 
11002.36901993535 9834.5391301716172 -16547.317093757472 14447.27571126988 0.56398243807522963 27.365808029692815 1:0.03092977 2:0.15321432 3:0.0060674569 4:0.029637846 5:0.15582873 6:0.0091555106 7:0.025617774 8:0.16010684 9:0.013124653 
11002.36901993535 0 -16547.317093757472 14447.27571126988 0.56398243807522963 23.85491873837703 1:0.073084505 2:0.17146423 3:0.092828356 4:0.066684305 5:0.19114017 6:0.10031506 7:0.049232303 8:0.20327848 9:0.11255523 
11002.36901993535 9834.5391301716172 -16547.317093757472 14447.27571126988 0.56398243807522963 0 1:-0.014684808 2:0.16587891 3:0.031101234 4:-0.0089976277 5:0.16333241 6:0.038944449 7:0.01568643 8:0.16865357 9:0.040455372 
0 9834.5391301716172 -0 14447.27571126988 0 0 1:-0.039691422 2:0.21614679 3:-0.00058229931 4:-0.056158778 5:0.22707975 6:-0.0026313817 7:-0.083762821 8:0.23755435 9:0.016365497 
11002.36901993535 0 -16547.317093757472 0 0.56398243807522963 0 1:0.025923354 2:0.16869703 3:0.043799773 4:0.0050929968 5:0.13885207 6:0.054749716 7:-0.0063153161 8:0.12140007 9:0.048824863 
0 9834.5391301716172 -0 14447.27571126988 0 0 1:-0.062134561 2:0.19307551 3:0.0082486177 4:-0.061625262 5:0.18592834 6:0.015278991 7:-0.058603417 8:0.18025813 9:0.019047808 
11002.36901993535 9834.5391301716172 -16547.317093757472 14447.27571126988 0.56398243807522963 27.365808029692815 1:0.030354261 2:0.14155136 3:0.015516664 4:0.034309822 5:0.14588041 6:0.017808512 7:0.039606539 8:0.14533715 9:0.013564348 
11002.36901993535 9834.5391301716172 -16547.317093757472 14447.27571126988 0.56398243807522963 27.365808029692815 1:0.031695417 2:0.14722156 3:0.014117787 4:0.030048681 5:0.14820621 6:0.015104131 7:0.030761701 8:0.14932667 9:0.012359006 
0 9834.5391301716172 -0 14447.27571126988 0 0 1:-0.031067281 2:0.16715216 3:0.014396204 4:-0.028996129 5:0.1671182 6:0.017587816 7:-0.019353388 8:0.1714812 9:0.018181999 
11002.36901993535 9834.5391301716172 -16547.317093757472 14447.27571126988 0.56398243807522963 0 1:-0.0033274246 2:0.1281398 3:0.060674569 4:0.003807864 5:0.12635725 6:0.059163647 7:0.0080197724 8:0.12396354 9:0.057628957 
11002.36901993535 9834.5391301716172 -16547.317093757472 14447.27571126988 0 27.365808029692815 1:0.010365946 2:0.16041921 3:0.0073474968 4:0.013666208 5:0.16052447 6:0.004346024 7:0.022577255 8:0.15968243 9:-0.00017316189 
4731.7861180424525 9834.5391301716172 -16547.317093757472 14447.27571126988 0.56398243807522963 0 1:-0.010135064 2:0.12834352 3:0.065344847 4:-0.0070622889 5:0.11574684 6:0.058229931 7:-0.011866683 8:0.10539108 9:0.051863684 
11002.36901993535 7107.8081832156822 -16547.317093757472 14447.27571126988 0.56398243807522963 27.365808029692815 1:0.056022965 2:0.12892073 3:0.01548271 4:0.051184618 5:0.1319935 6:0.012053426 7:0.046974408 8:0.13586418 9:0.010899013 
11002.36901993535 8005.5535307360569 -16547.317093757472 12545.726168239869 0.56398243807522963 0 1:0.030456121 2:0.094712765 3:0.063339904 4:0.031372861 5:0.092989634 6:0.074103104 7:0.03269704 8:0.099279485 9:0.089229305 
11002.36901993535 9834.5391301716172 -16547.317093757472 14447.27571126988 0 0 1:0.011051803 2:0.22655348 3:0.0060720406 4:0.0019353388 5:0.23745249 6:0.011612033 7:-0.0061115962 8:0.24412432 9:0.0089976277 
11002.36901993535 9834.5391301716172 -16547.317093757472 6035.5136968182396 0 0 1:-0.1171559 2:0.25388589 3:0.017706652 4:-0.031542627 5:0.19835355 6:0.052491821 7:0.042764197 8:0.12455773 9:0.050641365 
0 9834.5391301716172 -16547.317093757472 14447.27571126988 0.56398243807522963 27.365808029692815 1:0.018725252 2:0.15613431 3:0.015357083 4:0.019726874 5:0.15603245 6:0.016229683 7:0.023682435 8:0.15447059 9:0.014175508 
11002.36901993535 9834.5391301716172 -16547.317093757472 14447.27571126988 0.56398243807522963 0 1:0.019302458 2:0.10702084 3:0.074391707 4:0.024395455 5:0.10754712 6:0.076344023 7:0.030863561 8:0.10853176 9:0.076394953 
11002.36901993535 9834.5391301716172 -16547.317093757472 0 0.56398243807522963 27.365808029692815 1:0.02076245 2:0.067618021 3:-0.056114639 4:-0.0011883659 5:0.067397325 6:-0.073165993 7:-0.019981524 8:0.089636744 9:-0.056515288 
11002.36901993535 9834.5391301716172 -16547.317093757472 14447.27571126988 0.56398243807522963 27.365808029692815 1:-0.0084543748 2:0.10396504 3:-0.025091498 4:-0.014311321 5:0.10953339 6:-0.01568643 7:-0.010219947 8:0.12681562 9:-0.0046516038 
0 0 -11366.191837235425 14447.27571126988 0 0 1:-0.05412158 2:0.18934065 3:0.047704404 4:-0.03203495 5:0.15455548 6:0.050505552 7:-0.011612033 8:0.15584061 9:0.051609035 
11002.36901993535 9834.5391301716172 -16547.317093757472 14447.27571126988 0 0 1:-0.0032255647 2:0.19580875 3:-0.022171513 4:-0.018844088 5:0.19193807 6:-0.030931467 7:-0.040404442 8:0.19682735 9:-0.023020346 
0 9834.5391301716172 -4476.3775119845632 14447.27571126988 0 0 1:-0.014871551 2:0.16522361 3:0.015652477 4:-0.033550966 5:0.15345199 6:0.025821494 7:-0.035342003 8:0.15401222 9:0.014667831 
11002.36901993535 9834.5391301716172 -16547.317093757472 14447.27571126988 0.56398243807522963 27.365808029692815 1:0.02711172 2:0.1419588 3:0.0070453123 4:0.026924977 5:0.14237473 6:0.006519036 7:0.026262887 8:0.1435546 9:-0.0015975033 
11002.36901993535 9834.5391301716172 -16547.317093757472 14447.27571126988 0 27.365808029692815 1:0.02695893 2:0.15524303 3:-0.0059927596 4:0.027396928 5:0.15417944 6:-0.0032425413 7:0.028199923 8:0.1504641 9:-0.00037178877 
11002.36901993535 9834.5391301716172 -16547.317093757472 14447.27571126988 0 27.365808029692815 1:0.024904755 2:0.16075196 3:-0.0045157905 4:0.020405941 5:0.15696446 6:-0.0034632379 7:0.014582948 8:0.15462338 9:-0.00033953312 
11002.36901993535 9834.5391301716172 -16547.317093757472 14447.27571126988 0.56398243807522963 27.365808029692815 1:0.035481211 2:0.13324977 3:0.0075376353 4:0.034377729 5:0.13109374 6:0.0045836972 7:0.032883783 8:0.13122955 9:0.0099822738 
11002.36901993535 0 -16547.317093757472 14447.27571126988 0 27.365808029692815 1:0.035827535 2:0.1773042 3:-0.012240169 4:0.03500247 5:0.17818698 6:-0.010169017 7:0.048675468 8:0.19674247 9:-0.010185994 
0 9834.5391301716172 -16547.317093757472 14447.27571126988 0 27.365808029692815 1:0.024327548 2:0.14924178 3:-0.0062983394 4:0.017893396 5:0.14873248 6:-0.0054155533 7:0.013513418 8:0.15000573 9:-0.0050250902 
0 9834.5391301716172 -16547.317093757472 14447.27571126988 0.56398243807522963 0 1:0.012443889 2:0.14565971 3:0.016722006 4:0.005975783 5:0.14357158 6:0.014498064 7:0.0048213703 8:0.1360679 9:0.011866683 
4465.4820105053832 0 -0 8812.0808704534229 0.56398243807522963 0 1:0.016993633 2:0.16496556 3:0.11361967 4:0.010169017 5:0.16105754 6:0.12935703 7:0.029709148 8:0.16625239 9:0.12999026 
0 7375.9043476287134 -0 14447.27571126988 0 0 1:-0.029556358 2:0.17403619 3:0.044716512 4:-0.025685681 5:0.17098888 6:0.046142551 7:-0.026059167 8:0.17618374 9:0.044215701 
0 0 -15385.587299780202 0 0.56398243807522963 0 1:0.012223192 2:0.23368707 3:0.10049708 4:0.021747096 5:0.22343266 6:0.10607015 7:0.031271001 8:0.21310796 9:0.14255298 
0 7412.825713006916 -0 14447.27571126988 0 0 1:-0.086173507 2:0.24492222 3:0.024582198 4:-0.057686678 5:0.23570389 6:0.034630681 7:-0.015397827 8:0.21241192 9:0.049317186 
0 0 -0 14447.27571126988 0 0 1:0.0096749963 2:0.16367194 3:0.029267755 4:-0.021356633 5:0.18320019 6:0.04807789 7:-0.051744848 8:0.18277068 9:0.047229057 
11002.36901993535 0 -0 0 0 27.365808029692815 1:0.026211957 2:0.1519241 3:-0.0030557981 4:0.03188216 5:0.15338409 6:-0.0067906625 7:0.035226561 8:0.15353688 9:-0.0091504177 
0 0 -0 0 0.56398243807522963 0 1:-0.031797277 2:0.13501535 3:0.047551614 4:-0.031271001 5:0.13532093 6:0.046533014 7:-0.020473847 8:0.1391916 9:0.041949317 
0 0 -0 0 0.56398243807522963 0 1:-0.047246034 2:0.14282461 3:0.014582948 4:-0.041932341 5:0.1268326 6:0.017231306 7:-0.035481211 8:0.12286006 9:0.017893396 
11002.36901993535 0 -0 0 0.56398243807522963 27.365808029692815 1:0.032866806 2:0.15239944 3:-0.013224815 4:0.029203244 5:0.13618674 6:-0.0019183621 7:0.021054449 8:0.12983747 9:0.0051524151 
0 0 -6005.4839434065852 0 0.56398243807522963 0 1:0.019397527 2:0.099720878 3:0.12306378 4:0.021545074 5:0.099805761 6:0.13150118 7:0.026568467 8:0.10051878 9:0.14411483 
11002.36901993535 0 -0 0 0 27.365808029692815 1:0.028673572 2:0.16365497 3:-0.0064850826 4:0.02762102 5:0.16878192 6:-0.0052288101 7:0.024955685 8:0.16250055 9:-0.0084034448 
0 0 -0 4368.1515061401233 0 0 1:0.0087090246 2:0.16312869 3:0.0029539382 4:0.0071981022 5:0.16290799 6:-0.0015278991 7:0.0084696537 8:0.16078591 9:-0.0036499811 
0 0 -16547.317093757472 0 0.56398243807522963 27.365808029692815 1:0.029588614 2:0.087209083 3:0.093211349 4:0.039910421 5:0.10820072 6:0.10314846 7:0.051228758 8:0.11797757 9:0.10162226 
0 4791.5287171078835 -0 11318.487108640353 0 0 1:-0.012392959 2:0.22261489 3:0.034476193 4:-0.035141678 5:0.26125376 6:0.022663836 7:-0.052101358 8:0.30727748 9:-0.0023088252 
0 9834.5391301716172 -0 4266.3021081651377 0 0 1:-0.035600048 2:0.21702957 3:-0.01660317 4:-0.045769065 5:0.20852427 6:-0.0060946195 7:-0.055819245 8:0.2027522 9:-0.0040743975 
0 0 -0 0 0.56398243807522963 27.365808029692815 1:0.028334039 2:0.099262508 3:0.024921731 4:0.029556358 5:0.10595131 6:0.028759983 7:0.031321931 8:0.11535638 9:0.024938708 
11002.36901993535 9834.5391301716172 -7303.8491068196172 0 0 0 1:-0.057177378 2:0.24538059 3:-0.021764073 4:-0.07544426 5:0.30661539 6:-0.0084034448 7:-0.061489448 8:0.29164198 9:0.012019473 
11002.36901993535 0 -0 1082.1540437388735 0.56398243807522963 27.365808029692815 1:0.038022617 2:0.14031206 3:0.011238546 4:0.039789887 5:0.14333391 6:0.011985519 7:0.040742956 8:0.14644064 9:0.012613656 
5235.6147087978297 0 -0 0 0.56398243807522963 0 1:0.036109348 2:0.21234401 3:0.092811379 4:0.027383346 5:0.18905204 6:0.10271216 7:0.029726125 8:0.17805117 9:0.10578154 
11002.36901993535 0 -0 0 0.56398243807522963 27.365808029692815 1:0.036737484 2:0.14696691 3:0.0088278612 4:0.036686554 5:0.15044713 6:0.011034826 7:0.035362375 8:0.15075271 9:0.010440644 
0 9834.5391301716172 -0 14447.27571126988 0.56398243807522963 27.365808029692815 1:-0.016416426 2:0.12523679 3:0.00035650978 4:0.017519909 5:0.12593284 6:-0.0064494317 7:0.027094743 8:0.13319884 9:-0.018911995 
0 0 -0 10005.992964260186 0 0 1:-0.024157782 2:0.1804279 3:0.047313941 4:-0.030574958 5:0.17640443 6:0.034632379 7:-0.035735861 8:0.17333166 9:0.023937085 
0 0 -16547.317093757472 0 0.56398243807522963 0 1:0.052610657 2:0.17681187 3:0.13937835 4:0.049062536 5:0.16129521 6:0.1399216 7:0.049503929 8:0.13835975 9:0.13296117 
11002.36901993535 0 -16547.317093757472 0 0.56398243807522963 27.365808029692815 1:0.063686228 2:0.12437098 3:0.11578079 4:0.072096463 5:0.09067232 6:0.12562726 7:0.069061037 8:0.086682806 9:0.13216327 
3807.1852734936892 0 -0 0 0.56398243807522963 27.365808029692815 1:0.0095239041 2:0.06381525 3:0.039742352 4:0.012460866 5:0.066107099 6:0.031220071 7:0.017757582 8:0.068093368 9:0.026823117 
0 0 -6471.2126899201821 0 0.56398243807522963 0 1:0.048349517 2:0.18039395 3:0.11732567 4:0.041728621 5:0.16740681 6:0.11808962 7:0.036618647 8:0.15567594 9:0.11895543 
11002.36901993535 0 -16547.317093757472 0 0.56398243807522963 27.365808029692815 1:0.044309072 2:0.15998801 3:-0.0044648606 4:0.046821618 5:0.1568643 6:-0.0036160278 7:0.045242789 8:0.15479315 9:0.0015346897 
11002.36901993535 0 -2113.0377043311237 0 0.56398243807522963 27.365808029692815 1:0.042984893 2:0.15604942 3:0.0049402069 4:0.041949317 5:0.15847352 6:0.003802771 7:0.041083508 8:0.1629759 9:0.0024616151 
0 0 -0 0 0.56398243807522963 27.365808029692815 1:0.02614405 2:0.14910597 3:0.0062813628 4:0.02670428 5:0.14898713 6:0.0063153161 7:0.028351016 8:0.14878341 9:0.0074018221 
11002.36901993535 0 -0 0 0.56398243807522963 27.365808029692815 1:0.031812556 2:0.14138159 3:0.0089127445 4:0.033252176 5:0.14379228 6:0.011561103 7:0.037475968 8:0.1450146 9:0.011815753 
11002.36901993535 0 -0 1626.1340024410727 0 27.365808029692815 1:0.023852202 2:0.17487653 3:0.0066548492 4:0.029454498 5:0.18236324 6:0.020030757 7:0.035956558 8:0.19038641 9:0.025200148 
11002.36901993535 0 -16547.317093757472 0 0 27.365808029692815 1:0.035854698 2:0.1573057 3:-0.087395826 4:0.031237047 5:0.17506328 6:-0.071641489 7:0.015126201 8:0.18453625 9:-0.033953312 
0 0 -0 3839.9891698327579 0 0 1:0.012788515 2:0.17226213 3:0.010118087 4:0.011832729 5:0.17389698 6:0.01680689 7:0.0092013476 8:0.17689676 9:0.017978279 
0 9834.5391301716172 -0 0 0 0 1:-0.084985141 2:0.22952439 3:0.019200598 4:-0.084815374 5:0.23684982 6:0.042509547 7:-0.07508775 8:0.24346223 9:0.060844336 
11002.36901993535 0 -0 0 0 27.365808029692815 1:0.030150541 2:0.17844163 3:0.0030727748 4:0.031695417 5:0.18317812 6:0.015754337 7:0.030812631 8:0.17525002 9:0.017044563 
0 0 -0 0 0.56398243807522963 0 1:-0.015160154 2:0.10372737 3:0.056243662 4:-0.012240169 5:0.10141854 6:0.054545996 7:-0.0039148169 8:0.10260691 9:0.055751339 
0 0 -0 0 0.56398243807522963 27.365808029692815 1:0.028351016 2:0.15336711 3:0.0048043937 4:0.029692172 5:0.15428385 6:0.0024106852 7:0.030727748 8:0.15433478 9:0.0017485956 
0 0 -0 4169.8653699424958 0 27.365808029692815 1:0.010525527 2:0.21862538 3:-0.019641991 4:0.0098464606 5:0.23486525 6:-0.038401196 7:0.0066378725 8:0.24502408 9:-0.034055172 
11002.36901993535 0 -0 0 0 27.365808029692815 1:0.019523155 2:0.17479505 3:-0.011917613 4:0.033376106 5:0.17637727 6:-0.0028860315 7:0.042051177 8:0.17416352 9:0.00077243785 
11002.36901993535 0 -16547.317093757472 1964.3278965401714 0.56398243807522963 27.365808029692815 1:0.05300112 2:0.17105679 3:0.012370889 4:0.04218699 5:0.17574234 6:0.020453475 7:0.036584694 8:0.1734505 9:0.023784295 
11002.36901993535 0 -0 0 0 27.365808029692815 1:0.034241915 2:0.15547222 3:0.00064511293 4:0.035379351 5:0.15385943 6:-0.0030727748 7:0.032764946 8:0.15550702 9:-0.0029369615 
0 0 -16547.317093757472 0 0.56398243807522963 27.365808029692815 1:0.057941327 2:0.11836125 3:0.14199275 4:0.077243785 5:0.14296042 6:0.13389489 7:0.083660961 8:0.16000498 9:0.11612033 
0 9834.5391301716172 -0 0 0 0 1:-0.11501685 2:0.25072823 3:0.0070792656 4:-0.10725851 5:0.24911545 6:0.0088448378 7:-0.094186488 8:0.24935313 9:0.013309698 
0 0 -0 0 0.56398243807522963 27.365808029692815 1:0.019149668 2:0.13834277 3:0.0029369615 4:0.018776182 5:0.14605017 6:0.005975783 7:0.017944326 8:0.14582948 9:0.0053476467 
7642.8280663959222 0 -16547.317093757472 0 0.56398243807522963 0 1:0.067770811 2:0.19707861 3:0.10676619 4:0.046193481 5:0.18086929 6:0.10617201 7:0.030269378 8:0.15710198 9:0.12859817 
0 0 -16547.317093757472 0 0.56398243807522963 0 1:0.050522529 2:0.13496442 3:0.11491499 4:0.058620394 5:0.14637273 6:0.12727399 7:0.063492694 8:0.16087079 9:0.12815678 
11002.36901993535 0 -0 0 0.56398243807522963 27.365808029692815 1:0.037654223 2:0.14197578 3:0.0052118334 4:0.037552363 5:0.14170415 6:0.004787417 7:0.037705153 8:0.14207764 9:0.0056532265 
11002.36901993535 9834.5391301716172 -16547.317093757472 9501.234918396367 0 27.365808029692815 1:0.02223942 2:0.18496067 3:-0.043969539 4:0.052237171 5:0.19378853 6:-0.00039046309 7:0.052865307 8:0.19073273 9:0.0048094867 
0 9834.5391301716172 -0 7105.8734429009 0 0 1:-0.085783043 2:0.2322067 3:0.031491697 4:-0.057449004 5:0.21667306 6:0.029653125 7:-0.057907374 8:0.20292197 9:0.02660242 
11002.36901993535 2038.3833998400976 -12070.939581772909 14447.27571126988 0 27.365808029692815 1:0.0064511293 2:0.13674697 3:-0.059910619 4:0.028367992 5:0.15754337 6:-0.069230804 7:0.03711097 8:0.16569216 9:-0.048723003 
0 0 -0 0 0.56398243807522963 27.365808029692815 1:0.029335662 2:0.14968318 3:0.013055049 4:0.030931467 5:0.14774784 6:0.012902259 7:0.032815876 8:0.14328298 9:0.011357383 
0 0 -0 0 0.56398243807522963 0 1:-0.0093201842 2:0.097734609 3:0.054681809 4:0.0021051054 5:0.1002132 6:0.051524151 7:0.016229683 8:0.10270877 9:0.049996252 
0 9834.5391301716172 -0 0 0 0 1:-0.090468601 2:0.22302233 3:0.013886905 4:-0.089059538 5:0.22220745 6:0.014175508 7:-0.068280111 8:0.20124128 9:0.025600797 
0 6455.5995408161752 -0 0 0 0 1:0.0057211331 2:0.23252926 3:-0.030133565 4:-0.005873923 5:0.2252972 6:-0.014871551 7:-0.024989638 8:0.2218849 9:-0.0087429779 
0 0 -0 0 0.56398243807522963 0 1:0.028213505 2:0.2087178 3:0.1073434 4:0.025481961 5:0.2155526 6:0.095493691 7:0.030676818 8:0.22823416 9:0.082757803 
0 0 -0 0 0.56398243807522963 0 1:-0.0099143672 2:0.14503157 3:0.039793282 4:-0.0068076391 5:0.13530395 6:0.034734238 7:-0.0070622889 8:0.13172187 9:0.033511919 
8048.6371249372087 0 -16547.317093757472 0 0.56398243807522963 27.365808029692815 1:0.045259765 2:0.16100661 3:0.038110895 4:0.047997421 5:0.11676544 6:-0.0035141678 7:0.021307231 8:0.067906625 9:-0.026772187 
4154.379908752976 0 -0 0 0 0 1:-0.13024491 2:0.30693794 3:0.0066242912 4:-0.030014728 5:0.18215952 6:0.031746347 7:0.039046309 8:0.14667831 9:0.086071647 
0 0 -0 8710.1685975893688 0 27.365808029692815 1:0.014922481 2:0.14270577 3:-0.0024955685 4:0.0039385842 5:0.14362251 6:-0.00013581325 7:0.00078092618 8:0.15015852 9:-6.2813628e-05 
0 9834.5391301716172 -0 0 0 0 1:0.018232929 2:0.24701035 3:0.020371987 4:-0.041406064 5:0.26772187 6:-0.015822244 7:-0.1009432 8:0.27926599 9:-0.029199849 
0 0 -0 0 0 27.365808029692815 1:0.019370365 2:0.15387641 3:-0.011934589 4:0.019438271 5:0.15139952 6:-0.0067736858 7:0.01639945 8:0.14930969 9:-0.0048213703 
11002.36901993535 0 -16547.317093757472 0 0.56398243807522963 27.365808029692815 1:0.045040766 2:0.10388016 3:-0.023614529 4:0.034892121 5:0.073101481 6:-0.04812882 7:0.014672924 8:0.063832227 9:-0.051710895 
0 0 -0 2190.8734941214966 0 27.365808029692815 1:0.024650105 2:0.15409711 3:-0.0046006738 4:0.01624666 5:0.15703407 6:-0.0025464984 7:0.0068076391 8:0.15815453 9:-0.0012053426 
0 0 -0 5819.1458361758114 0.56398243807522963 0 1:0.051761825 2:0.083949565 3:0.089246281 4:0.020983147 5:0.1098899 6:0.10394807 7:-0.017197353 8:0.23597552 9:0.12362401 
0 0 -16547.317093757472 0 0.56398243807522963 27.365808029692815 1:0.028418922 2:0.093235795 3:0.052678564 4:0.041406064 5:0.092692542 6:0.054919483 7:0.052220194 8:0.1063248 9:0.061404565 
0 0 -0 0 0.56398243807522963 27.365808029692815 1:0.021764073 2:0.14370739 3:0.014956434 4:0.045344649 5:0.14416576 6:0.01142529 7:0.04371489 8:0.13987067 9:0.005975783 
0 9834.5391301716172 -0 0 0 0 1:-0.082438642 2:0.25760378 3:0.009676694 4:-0.094678811 5:0.24953987 6:0.0051269502 7:-0.085528394 8:0.24303781 9:0.016823866 
0 0 -0 7632.6250998121113 0.56398243807522963 0 1:-0.012206216 2:0.14053276 3:0.055513666 4:-0.0088278612 5:0.13837672 6:0.056820868 7:-0.0056871798 8:0.13742603 9:0.060827359 
11002.36901993535 0 -0 0 0.56398243807522963 27.365808029692815 1:0.035347096 2:0.13723929 3:0.0070622889 4:0.035735861 5:0.13785045 6:0.0090146044 7:0.0371619 8:0.14194182 9:0.011153663 
0 9834.5391301716172 -0 1790.9596493956906 0 0 1:-0.031304954 2:0.22699487 3:-0.0017333166 4:-0.041983271 5:0.23057694 6:-0.001137436 7:-0.048366493 8:0.21064635 9:0.0022578953 
0 0 -0 8880.9151259736482 0 0 1:-0.025566844 2:0.15567594 3:0.01629759 4:-0.03802771 5:0.1538085 6:0.018334789 7:-0.048858816 8:0.15805267 9:0.024616151 
0 0 -0 0 0.56398243807522963 0 1:0.0057550864 2:0.094322301 3:0.046346271 4:0.012510098 5:0.09707252 6:0.052135311 7:0.018878042 8:0.098091119 9:0.058571161 
0 0 -0 10163.845286295258 0 0 1:-0.0036669577 2:0.14462413 3:0.0066039192 4:-0.00076394953 5:0.14927574 6:0.0016645611 7:0.011340406 8:0.14718761 9:-0.0062304328 
11002.36901993535 0 -16547.317093757472 0 0.56398243807522963 27.365808029692815 1:0.072228881 2:0.12617051 3:0.11450755 4:0.067580673 5:0.097938329 6:0.1142529 7:0.052440891 8:0.079111218 9:0.1035576 
0 3671.9031699466896 -0 0 0 27.365808029692815 1:0.054562973 2:0.23291293 3:0.14009137 4:0.056651101 5:0.2800622 6:0.11291174 7:0.041779551 8:0.29522405 9:0.073525898 
0 0 -0 0 0.56398243807522963 0 1:0.023943367 2:0.16803494 3:0.14433553 4:0.020287104 5:0.17608188 6:0.15742453 7:0.015058294 8:0.17920558 9:0.16435101 
0 9834.5391301716172 -0 10236.405473997087 0 0 1:-0.069230804 2:0.18052127 3:0.010016227 4:-0.059537133 5:0.1778814 6:0.012732492 7:-0.047296964 8:0.17353538 9:0.015470827 
0 0 -0 0 0.56398243807522963 27.365808029692815 1:0.021916863 2:0.14725552 3:0.0083185615 4:0.022307326 5:0.14438646 6:0.007996005 7:0.02218849 8:0.1419588 9:0.0077074019 
0 0 -0 4425.6044426444023 0 0 1:0.0038367243 2:0.19071575 3:0.019149668 4:-0.002665335 5:0.193449 6:0.015007364 7:-0.014922481 8:0.19517213 9:0.013309698 
11002.36901993535 0 -16547.317093757472 0 0.56398243807522963 27.365808029692815 1:0.043287078 2:0.15132991 3:-0.0043120707 4:0.044246259 5:0.14885132 6:0.00087939079 7:0.040828858 8:0.14674622 9:0.0046431155 
0 0 -0 0 0 27.365808029692815 1:0.014328298 2:0.15377455 3:-0.0012732492 4:0.011798776 5:0.15503082 6:-0.0054155533 7:0.011510173 8:0.15350292 9:-0.0044648606 
11002.36901993535 0 -0 0 0 27.365808029692815 1:0.025617774 2:0.14935043 3:-0.011442266 4:0.027739856 5:0.14838956 6:-0.0079280984 7:0.028334039 8:0.15462338 9:-0.0032425413 
0 0 -0 14447.27571126988 0 0 1:-0.0085732113 2:0.16452077 3:0.053298212 4:-0.013275745 5:0.16891773 6:0.038876543 7:-0.019777804 8:0.16722006 9:0.028724502 
0 0 -0 0 0.56398243807522963 0 1:-0.025481961 2:0.12999026 3:0.042220944 4:-0.025566844 5:0.11837822 6:0.034241915 7:-0.024446385 8:0.11143477 9:0.031016351 
0 0 -0 0 0 27.365808029692815 1:0.011696916 2:0.15231456 3:-0.0019353388 4:0.014718761 5:0.1491569 6:-0.0094559975 7:0.018674322 8:0.15005666 9:-0.014769691 
0 0 -0 3144.386936737757 0.56398243807522963 0 1:0.036924227 2:0.12771538 3:0.054257393 4:0.013411558 5:0.12883584 6:0.058416674 7:-0.012562726 8:0.13667906 9:0.081173881 
0 0 -0 6356.2940227192357 0.56398243807522963 0 1:-0.016722006 2:0.18623392 3:0.062440141 4:0.0046346271 5:0.16840843 6:0.06417176 7:0.022918486 8:0.15952964 9:0.046023715 
2091.9622013380581 0 -0 1942.6502078425128 0 0 1:0.0044309072 2:0.19925501 3:0.082897012 4:0.013072025 5:0.24690849 6:0.088991631 7:0.038961426 8:0.27101534 9:0.080690047 
0 0 -0 6145.7113510904055 0.52237405588069852 0 1:-0.035073772 2:0.15416501 3:0.025821494 4:-0.025380101 5:0.15312944 6:0.030863561 7:-0.015007364 8:0.1538085 9:0.034123079 
0 0 -0 0 0.56398243807522963 27.365808029692815 1:0.024242665 2:0.12087379 3:0.014192485 4:0.014990387 5:0.12206216 6:0.021331168 7:0.0075664956 8:0.12630632 9:0.020480638 
0 0 -0 0 0.56398243807522963 0 1:-0.035600048 2:0.10834502 3:0.051626011 4:-0.021916863 5:0.09600299 6:0.061761075 7:-0.0034802145 8:0.086903503 9:0.063620019 
0 9834.5391301716172 -0 0 0 0 1:-0.058908997 2:0.14340181 3:0.024650105 4:-0.05904481 5:0.13995555 6:0.02706079 7:-0.0533067 8:0.1378844 9:0.02716265 
0 0 -16547.317093757472 0 0.56398243807522963 0 1:0.044210608 2:0.19584271 3:0.12470373 4:0.043677541 5:0.17895093 6:0.12506703 7:0.039165146 8:0.15503082 9:0.12516889 
5693.40968102641 0 -16547.317093757472 0 0.56398243807522963 27.365808029692815 1:0.035566095 2:0.060750964 3:0.085867927 4:0.03979498 5:0.071743349 6:0.10335388 7:0.043935586 8:0.09732717 9:0.11674846 
11002.36901993535 0 -0 0 0 27.365808029692815 1:0.037178877 2:0.17012307 3:-0.015618524 4:0.034207962 5:0.17856047 6:-0.012325052 7:0.030184495 8:0.18569066 9:-0.0072320555 
0 0 -0 4542.4014463965423 0.56398243807522963 27.365808029692815 1:0.030337285 2:0.13559255 3:0.011493196 4:0.025125451 5:0.13800324 6:0.0088618145 7:0.023699412 8:0.13881812 9:0.0031746347 
0 0 -0 0 0.56398243807522963 27.365808029692815 1:0.017180376 2:0.1386144 3:0.0081657716 4:0.019438271 5:0.13966695 6:0.0026823117 7:0.02609312 8:0.14129671 9:-0.0014430158 
0 0 -0 2717.5884587494643 0.56398243807522963 0 1:0.0025804517 2:0.14358856 3:0.069638243 4:0.0041932341 5:0.14391111 6:0.073322178 7:0.0010525527 8:0.14207764 9:0.08026563 
11002.36901993535 0 -16547.317093757472 0 0.56398243807522963 27.365808029692815 1:0.037618572 2:0.11898938 3:0.018793158 4:0.043833726 5:0.11815753 6:0.019183621 7:0.047008361 8:0.11652777 9:0.020439894 
0 0 -0 3735.855705652496 0.56398243807522963 27.365808029692815 1:-0.0057890397 2:0.13610185 3:0.00013581325 4:0.011306453 5:0.14177206 6:-0.0030388214 7:0.02685707 8:0.14927574 9:-0.0021390587 
0 0 -0 0 0.56398243807522963 27.365808029692815 1:0.016925726 2:0.14052427 3:0.012888677 4:0.023241042 5:0.14092322 6:0.011603544 7:0.027960553 8:0.14440344 9:0.0035481211 
468.59553538805858 0 -16547.317093757472 0 0.56398243807522963 27.365808029692815 1:0.07031731 2:0.15409711 3:0.13462488 4:0.073916361 5:0.14499762 6:0.12515191 7:0.070707773 8:0.14413181 9:0.10919385 
0 0 -0 0 0.56398243807522963 0 1:-0.034802145 2:0.15416501 3:0.034836098 4:-0.028690549 5:0.14990387 6:0.035820744 7:-0.017927349 8:0.15058294 9:0.044495816 
11002.36901993535 4258.5670930860961 -0 0 0.56398243807522963 27.365808029692815 1:0.04802696 2:0.071997999 3:-0.043910121 4:0.0098464606 5:0.016127823 6:-0.073783943 7:-0.02726451 8:0.01578829 9:-0.087652173 
0 0 -0 0 0.56398243807522963 27.365808029692815 1:0.024401736 2:0.13998951 3:0.0099143672 4:0.024453175 5:0.13622069 6:0.0070283356 7:0.028931617 8:0.13336861 9:0.008539258 
11002.36901993535 0 -16547.317093757472 0 0.56398243807522963 27.365808029692815 1:0.061098985 2:0.1137436 3:0.09641043 4:0.069587313 5:0.13560953 6:0.10812432 7:0.070945446 8:0.16643404 9:0.10951641 
11002.36901993535 0 -0 3797.4727196593976 0.56398243807522963 27.365808029692815 1:0.031695417 2:0.1390456 3:-0.0052797401 4:0.029692172 5:0.14588041 6:-0.007011359 7:0.028130319 8:0.15319734 9:-0.0063153161 
437.46983370223518 0 -0 0 0.56398243807522963 0 1:0.045972785 2:0.16679565 3:0.11173186 4:0.042628384 5:0.16314906 6:0.10209931 7:0.04812882 8:0.15866383 9:0.09630857 
0 0 -0 0 0.56398243807522963 0 1:0.031084257 2:0.12600074 3:0.0914872 4:0.041643737 5:0.13336861 6:0.10199575 7:0.051388338 8:0.14153438 9:0.1075573 
0 0 -0 0 0.56398243807522963 0 1:0.041575831 2:0.11082361 3:0.071709395 4:0.039233052 5:0.11946473 6:0.081929342 7:0.040676068 8:0.13350442 9:0.099143672 
0 0 -0 3222.6318788995859 0 0 1:-0.013224815 2:0.21439819 3:0.0051269502 4:-0.026178004 5:0.20838845 6:0.019387341 7:-0.038379127 8:0.20232779 9:0.027824739 
6534.2739999218111 0 -0 3981.4975573252173 0 0 1:0.030591934 2:0.20273523 3:0.0045327672 4:0.024853825 5:0.21556958 6:0.015731758 7:0.010084134 8:0.21316059 9:0.013241792 
0 9834.5391301716172 -0 0 0 0 1:-0.1178859 2:0.2132268 3:0.030269378 4:-0.12853026 5:0.23135787 6:0.027454648 7:-0.12657795 8:0.23996503 9:0.009727624 
0 1828.9855994355605 -0 0 0.56398243807522963 0 1:-0.025363124 2:0.077583319 3:0.030924677 4:-0.017540281 5:0.077956805 6:0.029333964 7:-0.0098634372 8:0.079654471 9:0.033834476 
11002.36901993535 9834.5391301716172 -0 0 0.56398243807522963 27.365808029692815 1:0.049113466 2:0.076394953 3:-0.069010107 4:0.022324303 5:0.082676315 6:-0.075206587 7:0.00044309072 8:0.11880264 9:-0.07980726 
0 0 -0 14447.27571126988 0.56398243807522963 0 1:0.0082676315 2:0.14229833 3:0.0039912119 4:0.0057907374 5:0.14555785 6:0.0081097486 7:0.0075478213 8:0.15299363 9:0.0041049555 
0 0 -0 1237.624554255867 0.56398243807522963 0 1:0.079825935 2:0.18847484 3:0.12411633 4:0.03772213 5:0.17976581 6:0.087684429 7:-0.014650854 8:0.18962925 9:0.068704527 
0 9834.5391301716172 -0 0 0 0 1:-0.062185491 2:0.24273223 3:-0.0025295218 4:-0.061744098 5:0.23152764 6:-0.021769166 7:-0.061625262 8:0.22006839 9:-0.024191735 
0 0 -0 0 0.56398243807522963 0 1:-0.0045497438 2:0.13852951 3:0.070211715 4:-0.0094559975 5:0.12411633 6:0.064494317 7:-0.018046185 8:0.11379453 9:0.06498664 
0 0 -0 3501.3729161847873 0 0 1:0.012766445 2:0.23816551 3:0.084509794 4:-0.010270877 5:0.25436124 6:0.065567241 7:-0.045463485 8:0.24453175 9:0.044020469 
0 0 -0 4189.4041156197345 0.56398243807522963 0 1:-0.029674516 2:0.14948795 3:0.068942201 4:-0.037484457 5:0.16070442 6:0.053327072 7:-0.041219321 8:0.16643914 9:0.0425435 
11002.36901993535 9834.5391301716172 -7513.8301792407328 0 0 0 1:-0.068331041 2:0.34949842 3:-0.024276618 4:-0.041083508 5:0.32320158 6:-0.010949943 7:0.0032255647 8:0.23840318 9:0.036788414 
0 0 -0 10463.002638001992 0.56398243807522963 0 1:-0.0094729741 2:0.12613656 3:0.01191252 4:-0.011985519 5:0.12421819 6:-0.0010440644 7:-0.014498064 8:0.12528772 9:-0.002614405 
0 0 -0 8243.2914361171588 0.56398243807522963 0 1:-0.0038553986 2:0.17299213 3:0.049911369 4:-0.0028520782 5:0.16738983 6:0.059384343 7:-0.0027841716 8:0.16416426 9:0.072354508 
11002.36901993535 0 -0 0 0 27.365808029692815 1:0.026975907 2:0.16168567 3:0.010067157 4:0.034411682 5:0.15666058 6:-0.0024106852 7:0.03777306 8:0.15172038 9:-0.0095069274 
0 9834.5391301716172 -0 7401.8582201006056 0 0 1:-0.065105476 2:0.18360254 3:0.039216076 4:-0.0640699 5:0.17197353 6:0.028741479 7:-0.064460363 8:0.16959679 9:0.022595929 
0 0 -0 0 0 27.365808029692815 1:0.014039695 2:0.16043619 3:-0.016789913 4:0.0080129817 5:0.15377455 6:-0.015567594 7:0.0074697287 8:0.14644064 9:-0.010440644 
0 0 -0 0 0 3.5108892913157836 1:0.025804517 2:0.22375233 3:-0.023495692 4:0.0061115962 5:0.21152914 6:-0.046227435 7:-0.037688177 8:0.22375233 9:-0.022324303 
0 0 -0 14447.27571126988 0.56398243807522963 0 1:0.010848083 2:0.16786518 3:0.063339904 4:-0.016518286 5:0.17630257 6:0.055445759 7:-0.031542627 8:0.17596304 9:0.036703531 
0 3378.9395893554424 -0 1616.7231799412411 0 0 1:0.012834352 2:0.19791386 3:-0.024531268 4:-0.0088618145 5:0.20222593 6:-0.025125451 7:-0.042305827 8:0.22174908 9:-0.016212707 
0 0 -16547.317093757472 0 0.56398243807522963 0 1:0.044682559 2:0.18022418 3:0.13706952 4:0.051524151 5:0.18872949 6:0.14189089 7:0.051524151 8:0.17645536 9:0.15952964 
0 0 -0 1602.8542164936143 0 0 1:-0.015041317 2:0.20380476 3:-0.0079620517 4:-0.014277368 5:0.20699807 6:-0.011034826 7:-0.017757582 8:0.20750737 9:-0.010797153 
11002.36901993535 0 -0 0 0.56398243807522963 27.365808029692815 1:0.031508674 2:0.13618674 3:0.0028011483 4:0.032968666 5:0.13404768 6:0.0016127823 7:0.033477966 8:0.13318187 9:0.0059588063 
11002.36901993535 0 -0 0 0 27.365808029692815 1:0.0371619 2:0.15834127 3:0.0018504555 4:0.034140055 5:0.15560803 6:-0.00022069653 7:0.031135187 8:0.1602087 9:0.00013581325 
0 0 -0 1993.6382496477686 0 27.365808029692815 1:0.016433403 2:0.1682098 3:-0.016025963 4:0.021035775 5:0.17596304 6:-0.014464111 7:0.020949873 8:0.17966022 9:-0.014175508 
11002.36901993535 0 -13609.920702541809 4082.9898098333474 0.56398243807522963 27.365808029692815 1:0.00013581325 2:0.16286385 3:0.078483081 4:0.050216949 5:0.12782743 6:0.046261388 7:0.067482208 8:0.09641043 9:-0.017468979 
0 9834.5391301716172 -0 0 0 0 1:-0.065580823 2:0.19260016 3:0.018232929 4:-0.055836222 5:0.1767949 6:0.025414054 7:-0.046193481 8:0.16378908 9:0.029064035 
0 0 -0 0 0.56398243807522963 27.365808029692815 1:0.019574085 2:0.15036224 3:0.011036524 4:0.020660591 5:0.14992085 6:0.010593433 7:0.023274996 8:0.14930969 9:0.0088108845 
0 0 -0 2343.8457792309123 0 0 1:0.0053816 2:0.1560664 3:0.010932967 4:0.0062134561 5:0.15920708 6:0.014599924 7:0.009666508 8:0.1594108 9:0.0081997249 
-11002.36901993535 72.656374923507286 0 72.716703453641372 0 102.84494369194985 1:0.038135753 2:0.15509974 3:-0.021003787 4:0.037718564 5:0.15412888 6:-0.023165933 7:0.039568899 8:0.15391659 9:-0.025025314 
-11002.36901993535 72.656374923507286 0 72.716703453641372 0.64124165596566784 102.84494369194985 1:0.048078458 2:0.13345726 3:0.0041723848 4:0.037941194 5:0.1360173 6:0.0056967064 7:0.026658439 8:0.13241679 9:0.0025732321 
-11002.36901993535 72.656374923507286 0 54.537527590231029 0.64124165596566784 102.84494369194985 1:0.03338695 2:0.12943409 3:-0.024777983 4:0.041980955 5:0.13972767 6:-0.01901282 7:0.050397478 8:0.15317296 9:-0.015476066 
-0 0 10656.882732603332 0 0.64124165596566784 102.84494369194985 1:0.088326279 2:0.1248179 3:0.05870954 4:0.092528275 5:0.12243402 6:0.067896897 7:0.091605088 8:0.12029345 9:0.076441291 
-11002.36901993535 72.656374923507286 0 72.716703453641372 0 102.84494369194985 1:0.033749699 2:0.24025201 3:-0.027196239 4:0.048178605 5:0.27934518 6:-0.027590749 7:0.058277674 8:0.2783432 9:-0.015104537 
-11002.36901993535 0 10656.882732603332 0 0.64124165596566784 0 1:0.053681005 2:0.12654348 3:0.025626985 4:0.050986278 5:0.12065395 6:0.036144131 7:0.046396046 8:0.11479589 9:0.047522727 
-11002.36901993535 72.656374923507286 9606.5147939521667 72.716703453641372 0 0 1:0.016408422 2:0.15633709 3:-0.023684455 4:0.018407141 5:0.14582544 6:-0.016892402 7:0.018317501 8:0.1358396 9:-0.017271583 
-11002.36901993535 72.656374923507286 10656.882732603332 72.716703453641372 0 55.448678438974113 1:-0.0090420613 2:0.25351155 3:0.10166397 4:-0.0086128347 5:0.25994861 6:0.06591066 7:-0.0045454374 8:0.257813 9:0.040343485 
-0 0 0 0 0.64124165596566784 102.84494369194985 1:0.074912732 2:0.12560302 3:-0.014166148 4:0.072830213 5:0.12308054 6:-0.01213311 7:0.073383535 8:0.11968543 9:-0.017129107 
-11002.36901993535 72.656374923507286 10656.882732603332 72.716703453641372 0.64124165596566784 0 1:0.046376954 2:0.092259956 3:0.019140361 4:0.029671691 5:0.10610491 6:0.043762775 7:0.020159373 8:0.12931683 9:0.054718685 
-0 0 10656.882732603332 0 0.64124165596566784 102.84494369194985 1:0.089607334 2:0.11793968 3:0.034930285 4:0.085648248 5:0.13100804 6:0.03545918 7:0.085340555 8:0.13793817 9:0.02181021 
-11002.36901993535 72.656374923507286 8822.4852643064769 72.716703453641372 0.64124165596566784 102.84494369194985 1:-0.0087703897 2:0.081895902 3:-0.042228531 4:0.0046591503 5:0.092540539 6:-0.043593955 7:0.014643818 8:0.11771383 9:-0.048973176 
-11002.36901993535 72.656374923507286 10656.882732603332 72.716703453641372 0 0 1:0.04413618 2:0.1650833 3:-0.021012003 4:0.04357332 5:0.15519801 6:-0.015609537 7:0.039532588 8:0.14574123 9:-0.01361103 
-11002.36901993535 0 10656.882732603332 0 0 102.84494369194985 1:0.04679982 2:0.15283142 3:-0.00045854899 4:0.050634196 5:0.15823064 6:-0.0076821218 7:0.052581414 8:0.15963664 9:-0.011926302 
-11002.36901993535 72.656374923507286 10656.882732603332 72.716703453641372 0.64124165596566784 0 1:0.029945686 2:0.12442567 3:0.042439557 4:0.025500991 5:0.13297469 6:0.042201524 7:0.024147258 8:0.14859591 9:0.029295753 
-0 0 10656.882732603332 0 0 102.84494369194985 1:0.048893144 2:0.15960549 3:-0.019547265 4:0.061923627 5:0.14043142 6:-0.034977177 7:0.058951677 8:0.13487766 9:-0.047225433 
-0 0 10656.882732603332 0 0.64124165596566784 102.84494369194985 1:0.078077281 2:0.13363184 3:0.0053493165 4:0.079401227 5:0.12974799 6:0.012255094 7:0.074069949 8:0.12404825 9:0.024405977 
-0 0 0 0 0.64124165596566784 102.84494369194985 1:0.053961603 2:0.13305445 3:-0.0054859282 4:0.04417653 5:0.14030292 6:-0.0086380065 7:0.051468249 8:0.13765236 9:-0.018494514 
-11002.36901993535 72.656374923507286 10656.882732603332 72.716703453641372 0.64124165596566784 0 1:-0.065069648 2:0.15764102 3:0.051774362 4:-0.052695706 5:0.16576177 6:0.042376954 7:-0.048982518 8:0.17276707 9:0.039857288 
-11002.36901993535 72.656374923507286 10656.882732603332 72.716703453641372 0.64124165596566784 94.583953937094236 1:0.021193237 2:0.11715839 3:-0.0021502246 4:0.020110671 5:0.1312929 6:-0.0040607574 7:0.017722395 8:0.13667849 9:-0.0028538791 
-8929.3939291433726 0 10656.882732603332 72.716703453641372 0.64124165596566784 0 1:0.037768239 2:0.12364994 3:0.050687704 4:0.034211226 5:0.12561419 6:0.048428264 7:0.043636406 8:0.13476237 9:0.036954884 
-11002.36901993535 72.656374923507286 10656.882732603332 72.716703453641372 0.64124165596566784 0 1:0.016360044 2:0.12914892 3:0.046160615 4:0.017456187 5:0.12827425 6:0.048953903 7:0.020340787 8:0.12567702 9:0.048549455 
-11002.36901993535 72.656374923507286 10656.882732603332 72.716703453641372 0.64124165596566784 102.84494369194985 1:0.024519328 2:0.11127125 3:-0.014074065 4:0.02915236 5:0.10645301 6:-0.020981862 7:0.035375494 8:0.11782777 9:-0.017649877 
-11002.36901993535 72.656374923507286 10656.882732603332 72.716703453641372 0 102.84494369194985 1:0.031737512 2:0.28726014 3:0.078289127 4:0.022898226 5:0.27241414 6:0.066248357 7:0.015822965 8:0.24930925 9:0.059172213 
-11002.36901993535 72.656374923507286 10656.882732603332 72.716703453641372 0.64124165596566784 0 1:0.0045459998 2:0.13881844 3:0.062915517 4:0.0078680997 5:0.13532143 6:0.063191476 7:0.0057977535 8:0.1314323 9:0.059731628 
-0 0 0 0 0.64124165596566784 102.84494369194985 1:0.078696043 2:0.12598528 3:-0.005698885 4:0.074092099 5:0.14139876 6:-0.0097481817 7:0.077563292 8:0.15574959 9:0.0086684987 
-11002.36901993535 72.656374923507286 3903.7075904943026 72.716703453641372 0.64124165596566784 0 1:0.0027825147 2:0.12834381 3:0.044234481 4:0.0053391417 5:0.12984952 6:0.040563264 7:0.013875986 8:0.1452425 9:0.024013692 
-0 0 10656.882732603332 0 0 102.84494369194985 1:0.090830268 2:0.19835911 3:0.028581173 4:0.092916558 5:0.17239799 6:-0.043446728 7:0.077022107 8:0.13058566 9:-0.068225047 
-11002.36901993535 72.656374923507286 10656.882732603332 72.716703453641372 0 102.84494369194985 1:-0.060239197 2:0.13538247 3:0.00072030912 4:-0.061316134 5:0.12680867 6:-0.014998088 7:-0.06050126 8:0.12018906 9:-0.027193444 
-0 0 0 0 0 102.84494369194985 1:0.044992723 2:0.14813554 3:-0.034293103 4:0.054179382 5:0.15447581 6:-0.026057887 7:0.047929445 8:0.16056337 9:-0.018759702 
-11002.36901993535 0 10656.882732603332 0 0.64124165596566784 0 1:0.048838057 2:0.13947027 3:0.04685802 4:0.044648534 5:0.1361126 6:0.043988096 7:0.043548646 8:0.13264971 9:0.043799542 
-11002.36901993535 72.656374923507286 10656.882732603332 72.716703453641372 0.64124165596566784 0 1:-0.015221692 2:0.13960298 3:-0.0069061981 4:-0.0095298214 5:0.1380834 6:0.0085536391 7:-0.003926144 8:0.13719501 9:0.026863278 
-0 0 10656.882732603332 0 0.64124165596566784 102.84494369194985 1:0.097320448 2:0.1318902 3:-0.019949412 4:0.096950232 5:0.13374101 6:-0.025617067 7:0.095468847 8:0.13310592 9:-0.030880272 
-11002.36901993535 72.656374923507286 10656.882732603332 72.716703453641372 0.64124165596566784 0 1:0.022928257 2:0.15608005 3:0.0046149425 4:0.024556634 5:0.15021703 6:-0.0015223711 7:0.022577818 8:0.14953655 9:-0.0073686116 
-11002.36901993535 0 10656.882732603332 72.716703453641372 0.64124165596566784 0 1:0.033669618 2:0.13227985 3:0.050902223 4:0.043040573 5:0.12411779 6:0.050290232 7:0.048708495 8:0.11808259 9:0.047983953 
-11002.36901993535 72.656374923507286 0 72.716703453641372 0 0 1:0.032446471 2:0.16297688 3:-0.0060282375 4:0.032319038 5:0.16388446 6:-0.01111862 7:0.03134672 8:0.16364893 9:-0.015448754 
-11002.36901993535 72.656374923507286 0 72.716703453641372 0 102.84494369194985 1:0.02084816 2:0.24011963 3:0.0084157531 4:0.019042167 5:0.21767346 6:-0.016367848 7:0.02468784 8:0.24144945 9:-0.018816241 
-0 0 10656.882732603332 0 0.64124165596566784 102.84494369194985 1:0.073467978 2:0.12459016 3:0.024911085 4:0.072908324 5:0.12507437 6:0.024645978 7:0.073810068 8:0.12861349 9:0.033292536 
-11002.36901993535 72.656374923507286 0 72.716703453641372 0 102.84494369194985 1:0.01364883 2:0.13737748 3:-0.044855663 4:0.014465457 5:0.13441668 6:-0.041557914 7:0.01766618 8:0.13326041 9:-0.037584063 
-11002.36901993535 72.656374923507286 10656.882732603332 72.716703453641372 0 0 1:-0.036538977 2:0.24697617 3:0.047446598 4:-0.028946029 5:0.24974659 6:0.040742869 7:-0.014894766 8:0.25334326 9:0.050694652 
-11002.36901993535 72.656374923507286 10656.882732603332 72.716703453641372 0.64124165596566784 0 1:0.012891968 2:0.1315712 3:0.026274543 4:0.032450722 5:0.13971036 6:-0.0035447339 7:0.031816507 8:0.13644926 9:0.0082425649 
-11002.36901993535 72.656374923507286 0 72.716703453641372 0 102.84494369194985 1:0.017737535 2:0.15069459 3:-0.029315502 4:0.020050227 5:0.15038967 6:-0.028217205 7:0.021685634 8:0.14963061 9:-0.027028913 
-0 0 10656.882732603332 0 0 102.84494369194985 1:0.058351587 2:0.18252255 3:-0.033242644 4:0.060539622 5:0.17082427 6:-0.02813152 7:0.062551487 8:0.16592119 9:-0.036327273 
-11002.36901993535 0 10656.882732603332 0 0.64124165596566784 102.84494369194985 1:0.050372607 2:0.10256896 3:0.034183401 4:0.047148904 5:0.10173208 6:0.024067225 7:0.048075215 8:0.10712794 9:0.03123644 
-11002.36901993535 0 10656.882732603332 0 0.64124165596566784 102.84494369194985 1:0.0568044 2:0.097012099 3:0.044857142 4:0.044236357 5:0.1189003 6:0.047673943 7:0.035288249 8:0.16094714 9:0.055151819 
-11002.36901993535 72.656374923507286 10656.882732603332 72.716703453641372 0.64124165596566784 0 1:-0.0028619208 2:0.11737414 3:0.0050018821 4:-0.023110969 5:0.11014634 6:0.028368638 7:-0.033455159 8:0.11486571 9:0.054785839 
-7544.1260584042557 0 10656.882732603332 72.716703453641372 0 102.84494369194985 1:0.11772735 2:0.4284928 3:0.0093732784 4:0.078205106 5:0.42983524 6:-0.036469581 7:0.036532055 8:0.39032698 9:-0.050676369 
-11002.36901993535 72.656374923507286 10656.882732603332 72.716703453641372 0.64124165596566784 0 1:0.041893243 2:0.14759236 3:0.021722643 4:0.042997118 5:0.14550558 6:0.0066089356 7:0.041301726 8:0.13715058 9:-0.00072383561 
-11002.36901993535 72.656374923507286 10656.882732603332 72.716703453641372 0.64124165596566784 0 1:0.010813121 2:0.28240348 3:0.035533615 4:0.0077600058 5:0.19933015 6:0.076730139 7:0.023908521 8:0.1478119 9:0.09974403 
-11002.36901993535 72.656374923507286 0 0 0.64124165596566784 102.84494369194985 1:0.03900779 2:0.126841 3:-0.027138596 4:0.035575925 5:0.12665341 6:-0.024902188 7:0.03661033 8:0.12657608 9:-0.021202362 
-11002.36901993535 0 10656.882732603332 0 0.64124165596566784 102.84494369194985 1:0.062755844 2:0.10350674 3:0.039282723 4:0.054372726 5:0.094351193 6:0.05165055 7:0.045361579 8:0.10997507 9:0.076047801 
-11002.36901993535 72.656374923507286 10656.882732603332 0 0.64124165596566784 102.84494369194985 1:0.043374991 2:0.14400321 3:0.0026170543 4:0.041188763 5:0.13640569 6:-0.0058126936 7:0.038951519 8:0.12746869 9:-0.010641795 
-11002.36901993535 72.656374923507286 10656.882732603332 72.716703453641372 0.64124165596566784 0 1:0.009198831 2:0.15790675 3:0.042030972 4:0.028720275 5:0.17523718 6:0.056469282 7:0.036977249 8:0.176886 9:0.063407219 
-11002.36901993535 72.656374923507286 3623.7843908179325 72.716703453641372 0 48.974338016123326 1:0.051671724 2:0.29533561 3:0.041760687 4:0.029345438 5:0.23754803 6:0.032075761 7:0.016378766 8:0.18854545 9:-0.0026500293 
-0 68.304301384442638 0 0 0 102.84494369194985 1:0.038317602 2:0.14962941 3:-0.062203757 4:0.048108196 5:0.14612139 6:-0.065826898 7:0.05942799 8:0.13911247 9:-0.064340231 
-0 0 10656.882732603332 0 0.64124165596566784 102.84494369194985 1:0.083747705 2:0.088523108 3:-0.023189731 4:0.07420288 5:0.088552712 6:-0.016630922 7:0.068548801 8:0.097342867 9:-0.008530037 
-11002.36901993535 72.656374923507286 0 72.716703453641372 0 0 1:0.026642387 2:0.15267811 3:-0.022304485 4:0.029945631 5:0.15623526 6:-0.020014204 7:0.029574934 8:0.15416813 9:-0.021838783 
-11002.36901993535 72.656374923507286 10656.882732603332 72.716703453641372 0 102.84494369194985 1:0.0035676489 2:0.20919181 3:-0.096719604 4:-0.009011573 5:0.21435274 6:-0.10617304 7:-0.021135819 8:0.20229619 9:-0.10547377 
-0 0 10656.882732603332 0 0.64124165596566784 102.84494369194985 1:0.087354503 2:0.12727094 3:0.022828877 4:0.082247694 5:0.13090118 6:0.02266532 7:0.071320523 8:0.13148895 9:0.023138053 
-0 0 0 0 0 102.84494369194985 1:0.088785169 2:0.17497582 3:-0.024518776 4:0.084397126 5:0.15864399 6:-0.0302733 7:0.07065051 8:0.1475372 9:-0.026879308 
-11002.36901993535 0 2664.2206831508329 0 0 0 1:0.056860483 2:0.16953794 3:-0.018469792 4:0.054348111 5:0.17398664 6:-0.002902989 7:0.03862166 8:0.1914291 9:0.030034667 
-11002.36901993535 72.656374923507286 10656.882732603332 72.716703453641372 0.64124165596566784 0 1:-0.025021258 2:0.13495902 3:0.004229054 4:-0.02968004 5:0.13191238 6:0.0070698034 7:-0.032689707 8:0.13077283 9:0.014207905 
-11002.36901993535 72.656374923507286 10656.882732603332 72.716703453641372 0 0 1:0.015106351 2:0.15448377 3:-0.031181644 4:0.011981908 5:0.14085012 6:-0.02720187 7:0.02033928 8:0.13005939 9:-0.019324879 
-11002.36901993535 72.656374923507286 10656.882732603332 72.716703453641372 0 102.84494369194985 1:0.038086839 2:0.15769367 3:-0.01274247 4:0.036298381 5:0.1552532 6:-0.017725811 7:0.033095151 8:0.1550309 9:-0.021815754 
-11002.36901993535 0 10656.882732603332 0 0.64124165596566784 0 1:0.03971815 2:0.12895209 3:0.028727184 4:0.041443684 5:0.12819302 6:0.024048847 7:0.043151818 8:0.12743397 9:0.020296683 
-11002.36901993535 72.656374923507286 10656.882732603332 72.716703453641372 0.64124165596566784 102.84494369194985 1:0.03417128 2:0.11650004 3:0.025039479 4:0.037910998 5:0.1135951 6:0.017178219 7:0.039533878 8:0.11418341 9:0.0071476494 
-11002.36901993535 72.656374923507286 7741.649688799298 72.716703453641372 0 102.84494369194985 1:0.07247625 2:0.29236905 3:-0.080168664 4:0.042366009 5:0.21815153 6:-0.049930798 7:0.026905231 8:0.18083094 9:-0.0074912522 
-0 0 10656.882732603332 0 0.64124165596566784 102.84494369194985 1:0.07665098 2:0.14617704 3:0.0072748804 4:0.078671628 5:0.14478887 6:0.011459828 7:0.082606852 8:0.14431195 9:0.0091163751 
-11002.36901993535 0 10656.882732603332 0 0.64124165596566784 0 1:0.040075055 2:0.11160507 3:0.046121098 4:0.043313706 5:0.11290578 6:0.04412426 7:0.044553985 8:0.11510773 9:0.041885214 
-11002.36901993535 0 10656.882732603332 0 0.64124165596566784 0 1:0.045016939 2:0.1212027 3:0.026559409 4:0.044253699 5:0.11872651 6:0.023652612 7:0.049353135 8:0.11950922 9:0.020318256 
-11002.36901993535 72.656374923507286 10656.882732603332 72.716703453641372 0.64124165596566784 0 1:0.031364082 2:0.15194685 3:0.039878339 4:0.036736136 5:0.14679152 6:0.04618395 7:0.04537844 8:0.14198927 9:0.05414369 
-11002.36901993535 0 10656.882732603332 0 0.64124165596566784 0 1:0.049917877 2:0.13744328 3:0.029218338 4:0.060998156 5:0.15413648 6:0.0220707 7:0.057334803 8:0.18769989 9:0.020921251 
-0 0 10656.882732603332 0 0.64124165596566784 102.84494369194985 1:0.066483546 2:0.16159654 3:-0.001215449 4:0.069962037 5:0.16033675 6:-0.0070112917 7:0.08010625 8:0.15825283 9:-0.013127649 
-0 0 0 0 0.64124165596566784 102.84494369194985 1:0.063164762 2:0.13645016 3:-0.023584646 4:0.071738022 5:0.13794741 6:-0.023665454 7:0.07568841 8:0.13975327 9:-0.022483356 
-0 0 10656.882732603332 0 0.64124165596566784 102.84494369194985 1:0.065689948 2:0.1169299 3:0.038058339 4:0.068580314 5:0.11564098 6:0.032109011 7:0.072046631 8:0.11886015 9:0.031707202 
-11002.36901993535 72.656374923507286 0 72.716703453641372 0 0 1:0.026189024 2:0.16754498 3:-0.020859032 4:0.028987104 5:0.17129076 6:-0.01942923 7:0.033549914 8:0.17515096 9:-0.015371933 
-11002.36901993535 72.656374923507286 10656.882732603332 72.716703453641372 0.64124165596566784 0 1:0.027569128 2:0.12975458 3:0.016355911 4:0.030291842 5:0.13229152 6:0.016605987 7:0.033831804 8:0.13497482 9:0.017073842 
-11002.36901993535 72.656374923507286 10656.882732603332 72.716703453641372 0.64124165596566784 102.84494369194985 1:0.040016333 2:0.079112704 3:0.0055280009 4:0.034798865 5:0.10673021 6:0.0061657436 7:0.033303152 8:0.13530618 9:0.010169168 
-0 0 10656.882732603332 0 0.64124165596566784 102.84494369194985 1:0.081337694 2:0.12759188 3:0.067565125 4:0.082736951 5:0.12986183 6:0.067524346 7:0.090453862 8:0.13120998 9:0.07503433 
-0 0 10656.882732603332 0 0.64124165596566784 102.84494369194985 1:0.070467198 2:0.11759293 3:0.027931932 4:0.072204692 5:0.11888296 6:0.01308729 7:0.077354178 8:0.1121683 9:-0.022257171 
-0 0 10656.882732603332 0 0.64124165596566784 102.84494369194985 1:0.081700741 2:0.12577837 3:0.068572597 4:0.080211846 5:0.12460713 6:0.066879492 7:0.07485148 8:0.12234998 9:0.060509986 
-11002.36901993535 0 10656.882732603332 0 0.64124165596566784 102.84494369194985 1:0.091403311 2:0.13490265 3:0.079526241 4:0.065827281 5:0.12459901 6:0.082787573 7:0.046219476 8:0.12709537 9:0.089109804 
-0 0 10656.882732603332 0 0.64124165596566784 102.84494369194985 1:0.072797264 2:0.1042529 3:0.062176318 4:0.074354855 5:0.10650693 6:0.059491477 7:0.073365272 8:0.10605167 9:0.056960168 
-11002.36901993535 72.656374923507286 10656.882732603332 72.716703453641372 0.64124165596566784 0 1:0.0021528505 2:0.15397521 3:0.060414188 4:0.02517159 5:0.13956112 6:0.064177639 7:0.041810319 8:0.13138101 9:0.065023007 
-0 0 9078.4049014495049 0 0.64124165596566784 102.84494369194985 1:0.077002656 2:0.14156169 3:0.0012090558 4:0.087696802 5:0.13858502 6:0.016673202 7:0.083109912 8:0.13517633 9:0.010803366 
-11002.36901993535 0 10656.882732603332 72.716703453641372 0 102.84494369194985 1:0.061494105 2:0.25387683 3:0.083242999 4:0.066619213 5:0.26425447 6:0.084682822 7:0.062985837 8:0.27430743 9:0.071327918 
-11002.36901993535 72.656374923507286 10656.882732603332 72.716703453641372 0.64124165596566784 0 1:0.028378777 2:0.13058847 3:0.016418402 4:0.034264829 5:0.12545312 6:0.0091887708 7:0.038159188 8:0.11941507 9:0.0060748336 
-0 0 10656.882732603332 0 0.64124165596566784 102.84494369194985 1:0.077425016 2:0.12592507 3:0.058773032 4:0.072440224 5:0.12841592 6:0.053438634 7:0.071722859 8:0.12321471 9:0.048790704 
-0 0 10656.882732603332 0 0.64124165596566784 102.84494369194985 1:0.062828203 2:0.11376264 3:0.024923896 4:0.067712359 5:0.097114324 6:0.028665286 7:0.074631229 8:0.088423161 9:0.024456958 
-11002.36901993535 72.656374923507286 10656.882732603332 72.716703453641372 0.64124165596566784 0 1:-0.055759114 2:0.14444286 3:0.032426205 4:-0.028205207 5:0.13227099 6:0.028852895 7:-0.0028679322 8:0.12277944 9:0.032432802 
-11002.36901993535 72.656374923507286 10656.882732603332 72.716703453641372 0 0 1:0.011987941 2:0.16611244 3:-0.081434478 4:0.0030499576 5:0.14984327 6:-0.045231777 7:0.0072645371 8:0.12699114 9:-0.015788127 
-11002.36901993535 72.656374923507286 0 72.716703453641372 0 102.84494369194985 1:0.006109002 2:0.18591219 3:-0.014478108 4:0.014052177 5:0.21262163 6:-0.02522995 7:0.025168571 8:0.22992696 9:-0.029961542 
-11002.36901993535 72.656374923507286 0 72.716703453641372 0 102.84494369194985 1:0.026958806 2:0.17345843 3:-0.0097199571 4:0.0012314146 5:0.19840955 6:-0.012899242 7:0.00030822973 8:0.21964796 9:-0.017039016 
-11002.36901993535 0 10656.882732603332 72.716703453641372 0.64124165596566784 0 1:0.042740011 2:0.14616843 3:0.051770147 4:0.044409869 5:0.14622195 6:0.05342581 7:0.040650942 8:0.14090927 9:0.052490801 
-0 0 4479.7105473391584 0 0.64124165596566784 102.84494369194985 1:0.12448228 2:0.14641526 3:0.029656968 4:0.10853304 5:0.16003851 6:0.040102598 7:0.093778289 8:0.18006788 9:0.07070068 
-11002.36901993535 72.656374923507286 0 0 0 102.84494369194985 1:0.046340396 2:0.16248002 3:-0.039482717 4:0.047160146 5:0.16195065 6:-0.040543222 7:0.037803522 8:0.15682994 9:-0.035614459 
-11002.36901993535 0 10656.882732603332 0 0.64124165596566784 0 1:0.056858073 2:0.1139984 3:0.073055132 4:0.055338895 5:0.11241986 6:0.07348436 7:0.052370145 8:0.11184329 9:0.072737688 
-11002.36901993535 72.656374923507286 0 72.716703453641372 0.64124165596566784 102.84494369194985 1:0.021125952 2:0.062732803 3:0.0027830632 4:0.021436231 5:0.079366064 6:-0.00068917916 7:0.026027431 8:0.097437422 9:-0.0026343799 
-11002.36901993535 72.656374923507286 0 72.716703453641372 0.64124165596566784 0 1:0.023561355 2:0.13069259 3:0.03285994 4:0.0097855177 5:0.12373377 6:0.030349376 7:0.0063655614 8:0.12158068 9:0.033028023 
-9836.6287715519538 72.656374923507286 10656.882732603332 72.716703453641372 0 102.84494369194985 1:0.04235693 2:0.27947816 3:0.006679606 4:0.028402368 5:0.25624347 6:-0.020581939 7:0.035763935 8:0.12569877 9:-0.073574786 
-0 0 1153.4923903477995 0 0 102.84494369194985 1:0.11217994 2:0.28762588 3:-0.062101345 4:0.14255495 5:0.33530988 6:-0.0083892782 7:0.098877795 8:0.30224243 9:0.033314777 
-0 0 10656.882732603332 0 0.64124165596566784 102.84494369194985 1:0.11080586 2:0.13983045 3:0.064392137 4:0.10141118 5:0.14447789 6:0.069004426 7:0.094122348 8:0.15764293 9:0.084775165 
-11002.36901993535 72.656374923507286 0 72.716703453641372 0.64124165596566784 0 1:0.0033534277 2:0.10773649 3:0.029141866 4:-0.00018917237 5:0.1185779 6:0.041841764 7:0.0032348285 8:0.12308891 9:0.037200032 
-0 0 0 0 0 102.84494369194985 1:0.071501928 2:0.1508492 3:-0.018582586 4:0.069572811 5:0.15463782 6:-0.018449089 7:0.06878646 8:0.15502857 9:-0.021334177 
-0 0 0 0 0.64124165596566784 102.84494369194985 1:0.07414158 2:0.1079609 3:0.0046269836 4:0.082189159 5:0.12385301 6:0.0097784034 7:0.075691602 8:0.14049783 9:0.016227396 
-11002.36901993535 72.656374923507286 0 72.716703453641372 0.64124165596566784 0 1:0.019086262 2:0.15056683 3:0.013853317 4:0.023664452 5:0.14764422 6:0.011332382 7:0.028353863 8:0.13844984 9:0.0034505971 
-11002.36901993535 72.656374923507286 10656.882732603332 72.716703453641372 0.64124165596566784 0 1:0.038657348 2:0.1591318 3:0.075302626 4:0.034163307 5:0.15719182 6:0.077007427 7:0.028397659 8:0.14958455 9:0.080648231 
-0 0 0 0 0.64124165596566784 102.84494369194985 1:0.10213827 2:0.13442601 3:-0.010175734 4:0.09911564 5:0.12987866 6:-0.001671371 7:0.098169689 8:0.12967564 9:0.0094169837 
-0 72.656374923507286 10656.882732603332 72.716703453641372 0.64124165596566784 0 1:0.030258605 2:0.19993874 3:0.093822368 4:0.032052291 5:0.22769946 6:0.084322146 7:0.034491098 8:0.25465873 9:0.079074803 
-0 72.656374923507286 0 72.716703453641372 0.64124165596566784 0 1:0.021775469 2:0.13425358 3:-0.004014215 4:0.022450733 5:0.12418556 6:-0.003306304 7:0.021995267 8:0.11447225 9:0.00049076262 
-11002.36901993535 72.656374923507286 0 72.716703453641372 0 0 1:0.027946671 2:0.18782037 3:0.049450466 4:0.021131371 5:0.19685856 6:0.039950946 7:0.019271856 8:0.2168603 9:0.040291286 
-11002.36901993535 72.656374923507286 6753.1751421090294 72.716703453641372 0.64124165596566784 0 1:-0.024150842 2:0.11510663 3:0.038393063 4:-0.019198347 5:0.10979604 6:0.037457005 7:-0.007242565 8:0.10360911 9:0.04005422 
-11002.36901993535 0 0 0 0 6.6829169917079883 1:0.047083837 2:0.162984 3:-0.0039676961 4:0.047304823 5:0.156843 6:-0.0077734629 7:0.04720446 8:0.15404087 9:-0.01135609 
-11002.36901993535 72.656374923507286 0 72.716703453641372 0.64124165596566784 0 1:0.0091158413 2:0.14014151 3:0.031977069 4:0.0061959504 5:0.14027891 6:0.034364374 7:0.0036174521 8:0.13860997 9:0.041075968 
-0 0 0 0 0.64124165596566784 0 1:0.03651904 2:0.15419445 3:0.042648235 4:0.057559229 5:0.18047929 6:0.047362907 7:0.084049292 8:0.19497009 9:0.030219855 
-11002.36901993535 72.656374923507286 0 72.716703453641372 0 0 1:0.0098245843 2:0.11984854 3:-0.027512902 4:0.009662914 5:0.13704313 6:-0.019909449 7:0.013513234 8:0.14687242 9:-0.0093082889 
-871.48805144068547 0 0 72.716703453641372 0 102.84494369194985 1:0.057039148 2:0.15328112 3:-0.013744796 4:0.053597745 5:0.18342136 6:-0.01601781 7:0.043318071 8:0.22834947 9:-0.014253432 
-0 0 1558.1290913624086 0 0 102.84494369194985 1:0.038891344 2:0.11937463 3:-0.010188836 4:0.078386709 5:0.25231367 6:-0.006552417 7:0.14450166 8:0.33084243 9:-0.014950167 
-11002.36901993535 72.656374923507286 0 72.716703453641372 0 0 1:0.019169574 2:0.15409736 3:-0.018666315 4:0.024052548 5:0.14820727 6:-0.020417116 7:0.027590354 8:0.14309092 9:-0.020407231 
-11002.36901993535 72.656374923507286 0 72.716703453641372 0.64124165596566784 0 1:0.032945653 2:0.14431335 3:0.029616186 4:0.036275971 5:0.14053138 6:0.027684697 7:0.041357787 8:0.13758596 9:0.027643 
-0 0 0 0 0.64124165596566784 0 1:0.052863194 2:0.15626947 3:0.016385539 4:0.046111602 5:0.15423517 6:0.010394867 7:0.044163492 8:0.15556884 9:0.0037359602 
-0 0 0 0 0.64124165596566784 102.84494369194985 1:0.07370644 2:0.10613542 3:0.034070969 4:0.07963446 5:0.10899309 6:0.035450587 7:0.085416108 8:0.11299422 9:0.034757223 
-11002.36901993535 72.656374923507286 0 72.716703453641372 0 0 1:0.015112978 2:0.14626668 3:-0.021880212 4:0.020121366 5:0.15232424 6:-0.022863736 7:0.022756862 8:0.15783682 9:-0.027309264 
-11002.36901993535 72.656374923507286 0 72.716703453641372 0.64124165596566784 0 1:0.029278635 2:0.12112429 3:0.046189916 4:0.033891761 5:0.11884131 6:0.038715786 7:0.036092533 8:0.11384321 9:0.029547366 
-11002.36901993535 0 10656.882732603332 0 0.64124165596566784 0 1:0.043291723 2:0.11642226 3:0.050801952 4:0.055144282 5:0.11640152 6:0.055817723 7:0.06356143 8:0.11482847 9:0.05534938 
-0 0 0 0 0.64124165596566784 102.84494369194985 1:0.090556163 2:0.12691083 3:0.0198593 4:0.094934673 5:0.13161309 6:0.013941167 7:0.085952787 8:0.13048483 9:0.0070058961 
-0 72.656374923507286 0 72.716703453641372 0 102.84494369194985 1:0.02948327 2:0.13393693 3:-0.035181648 4:0.030642605 5:0.1303457 6:-0.03086773 7:0.033427812 8:0.12891757 9:-0.028114954 
-11002.36901993535 0 10656.882732603332 0 0.64124165596566784 0 1:0.059486645 2:0.13875216 3:0.053421636 4:0.056047048 5:0.13519146 6:0.057231228 7:0.05060741 8:0.13226418 9:0.054415393 
-0 72.656374923507286 0 0 0.64124165596566784 0 1:0.031093868 2:0.13631307 3:-0.010208579 4:0.039362914 5:0.13217418 6:-0.00021641998 7:0.047400473 8:0.13234655 9:0.019236552 
-0 72.656374923507286 0 72.716703453641372 0.64124165596566784 102.84494369194985 1:0.061769419 2:0.11568352 3:-0.018852713 4:0.01884009 5:0.08638355 6:-0.030891757 7:0.01377279 8:0.14216316 9:-0.027174261 
-11002.36901993535 72.656374923507286 0 72.716703453641372 0 102.84494369194985 1:0.001667619 2:0.1605731 3:-0.062346679 4:0.017167537 5:0.16042102 6:-0.049450309 7:0.040484161 8:0.1603087 9:-0.035679753 
-0 0 0 0 0.64124165596566784 102.84494369194985 1:0.046774597 2:0.10027129 3:0.023886537 4:0.041709401 5:0.096024071 6:0.026175416 7:0.034848713 8:0.091115017 9:0.031589574 
-0 0 10656.882732603332 0 0.64124165596566784 102.84494369194985 1:0.079200118 2:0.10184408 3:0.053298481 4:0.072458676 5:0.098633948 6:0.040979167 7:0.069928771 8:0.096773866 9:0.029856496 
-0 58.844354731695113 0 72.716703453641372 0 0 1:0.050501966 2:0.17870052 3:0.013064301 4:0.044693304 5:0.18990862 6:0.0045458796 7:0.035509986 8:0.19643368 9:0.0033067033 
-11002.36901993535 72.656374923507286 0 72.716703453641372 0 0 1:0.01222253 2:0.15242862 3:-0.012580234 4:0.016618093 5:0.15570207 6:-0.01589886 7:0.025144733 8:0.16206634 9:-0.01832945 
-11002.36901993535 72.656374923507286 0 72.716703453641372 0.64124165596566784 0 1:-0.013782947 2:0.11479759 3:0.001155172 4:-0.014292203 5:0.11610125 6:0.022346823 7:-0.0040513711 8:0.12741255 9:0.042120014 
-11002.36901993535 0 10656.882732603332 0 0.64124165596566784 0 1:0.048116511 2:0.12900156 3:0.065891444 4:0.043120783 5:0.12297916 6:0.069600183 7:0.04220274 8:0.11862626 9:0.069999136 
-0 0 0 0 0.64124165596566784 102.84494369194985 1:0.092121082 2:0.13275553 3:0.0040937911 4:0.089977519 5:0.13013019 6:-0.0018568535 7:0.088526276 8:0.12618543 9:-0.0058696797 
-0 72.656374923507286 0 72.716703453641372 0.64124165596566784 102.84494369194985 1:0.0081069156 2:0.10348493 3:-0.00038294227 4:0.014496408 5:0.12054386 6:-0.003738172 7:0.023032097 8:0.13600979 9:-0.0051440275 
-0 0 0 0 0.64124165596566784 102.84494369194985 1:0.096186515 2:0.13373049 3:-0.0070608268 4:0.093980513 5:0.13235421 6:-0.011223365 7:0.090433176 8:0.13089865 9:-0.0084655787 
-0 0 7220.2425946419116 0 0.64124165596566784 0 1:0.062018801 2:0.085525736 3:0.039173782 4:0.055723154 5:0.13974811 6:0.084369093 7:0.051619012 8:0.19450318 9:0.088414704 
-11002.36901993535 72.656374923507286 0 72.716703453641372 0.64124165596566784 0 1:0.02807647 2:0.13287115 3:-0.0083969536 4:0.029251348 5:0.14477571 6:0.010354706 7:0.027259468 8:0.15088417 9:0.024841043 
-11002.36901993535 72.656374923507286 0 72.716703453641372 0 102.84494369194985 1:0.025168491 2:0.16245031 3:-0.025459419 4:0.030593368 5:0.16213077 6:-0.032059927 7:0.032091237 8:0.1634447 9:-0.030361812 
-11002.36901993535 72.656374923507286 0 72.716703453641372 0.64124165596566784 0 1:0.037664263 2:0.12434866 3:0.026640838 4:0.037786957 5:0.11631948 6:0.033278789 7:0.036794167 8:0.10930077 9:0.040100901 
-0 0 0 0 0.64124165596566784 102.84494369194985 1:0.076333248 2:0.11961815 3:0.022071215 4:0.073026799 5:0.11146861 6:0.020013474 7:0.06642831 8:0.10678909 9:0.018656752 
-0 0 0 0 0.64124165596566784 102.84494369194985 1:0.051446349 2:0.11577265 3:0.0070727682 4:0.039165794 5:0.11700396 6:0.0090783071 7:0.054575017 8:0.15347005 9:0.01280771 
-3752.4951584738042 0 0 0 0 102.84494369194985 1:0.071149811 2:0.26012084 3:0.017183065 4:0.093829385 5:0.26807248 6:0.035669186 7:0.081591724 8:0.26503103 9:0.064155335 
-0 0 10656.882732603332 0 0.64124165596566784 102.84494369194985 1:0.097022286 2:0.12937243 3:0.055144341 4:0.092853364 5:0.13209193 6:0.063450132 7:0.089988 8:0.1386978 9:0.076190108 
-11002.36901993535 0 10656.882732603332 72.716703453641372 0.64124165596566784 0 1:0.055513963 2:0.18905001 3:0.074249427 4:0.048207861 5:0.18420441 6:0.096762508 7:0.061380489 8:0.17947052 9:0.11071381 
-0 0 0 0 0.64124165596566784 102.84494369194985 1:0.1174148 2:0.13331607 3:0.017091172 4:0.11959415 5:0.13745151 6:0.029098187 7:0.11650766 8:0.14180395 9:0.027049767 
-0 0 0 0 0 102.84494369194985 1:0.054678993 2:0.14883989 3:-0.035127561 4:0.05813397 5:0.14607412 6:-0.029296351 7:0.056489514 8:0.13975013 9:-0.023327118 
-0 0 0 0 0.64124165596566784 102.84494369194985 1:0.096181797 2:0.13397617 3:-0.029459304 4:0.11168643 5:0.14940921 6:-0.029510322 7:0.12079497 8:0.15372 9:-0.023802855 
-11002.36901993535 72.656374923507286 0 72.716703453641372 0.64124165596566784 0 1:0.033251784 2:0.13425451 3:-0.0075088685 4:0.030301973 5:0.12869601 6:-0.0052679358 7:0.027387309 8:0.12913609 9:-0.0023219464 
-0 0 0 0 0.64124165596566784 0 1:0.068775533 2:0.13311624 3:-0.0024615033 4:0.072576372 5:0.1326655 6:0.027448384 7:0.074417945 8:0.1384875 9:0.069400794 
-11002.36901993535 72.656374923507286 0 72.716703453641372 0.64124165596566784 0 1:0.026401091 2:0.1481131 3:0.01814733 4:0.014507666 5:0.14421065 6:0.020775392 7:0.0028199768 8:0.14097144 9:0.024106973 
-11002.36901993535 72.656374923507286 0 72.716703453641372 0.64124165596566784 0 1:0.0038288773 2:0.14461713 3:0.023220582 4:0.0065244405 5:0.14247968 6:0.025634958 7:0.010056185 8:0.14000907 9:0.028510509 
-11002.36901993535 72.656374923507286 0 72.716703453641372 0 0 1:0.0037888763 2:0.16800772 3:-0.015303866 4:-0.0014869092 5:0.15430003 6:-0.008723262 7:-0.0037432767 8:0.1457091 9:0.0044931372 
-11002.36901993535 0 10656.882732603332 0 0.64124165596566784 0 1:0.057271255 2:0.15912337 3:0.076001006 4:0.052042099 5:0.14581816 6:0.056948521 7:0.043219458 8:0.13809598 9:0.052840826 
-2072.9750907919779 72.656374923507286 0 72.716703453641372 0.64124165596566784 0 1:0.022804782 2:0.12388129 3:0.012352456 4:0.0066308385 5:0.11430565 6:0.019152374 7:-0.0053034494 8:0.11018564 9:0.026969783 
-0 0 0 0 0.64124165596566784 102.84494369194985 1:0.077603902 2:0.14393647 3:0.02284241 4:0.086493373 5:0.14973601 6:0.029981212 7:0.094637216 8:0.15289098 9:0.026862129 
-11002.36901993535 0 0 0 0.64124165596566784 102.84494369194985 1:0.057529644 2:0.11527494 3:0.034514636 4:0.052074977 5:0.11503712 6:0.035392783 7:0.047745542 8:0.11850651 9:0.036192625 
-0 0 0 0 0.64124165596566784 0 1:0.062496177 2:0.13636587 3:0.028907994 4:0.068864631 5:0.15169933 6:0.04015072 7:0.072449059 8:0.15890224 9:0.049724774 
-11002.36901993535 72.656374923507286 0 72.716703453641372 0 0 1:0.011935311 2:0.22089109 3:0.021688313 4:0.0074563829 5:0.23627758 6:0.036802154 7:0.0097665687 8:0.25756775 9:0.062402514 
-0 0 10656.882732603332 0 0.64124165596566784 102.84494369194985 1:0.073655587 2:0.14478837 3:0.059532175 4:0.069231313 5:0.13583388 6:0.034071021 7:0.077846082 8:0.11878799 9:0.021312324 
-0 0 0 0 0.64124165596566784 102.84494369194985 1:0.083403057 2:0.12123473 3:-0.024140421 4:0.0770394 5:0.11667941 6:-0.019922692 7:0.075237719 8:0.11293874 9:-0.014729438 
-11002.36901993535 72.656374923507286 10656.882732603332 72.716703453641372 0.64124165596566784 0 1:0.02470682 2:0.14725611 3:0.044237135 4:0.033396181 5:0.13793458 6:0.053338673 7:0.044535203 8:0.13420295 9:0.054987653 
-0 0 0 0 0.64124165596566784 0 1:0.057531533 2:0.12897821 3:0.046859754 4:0.059959539 5:0.13114326 6:0.051051245 7:0.061410215 8:0.13370441 9:0.047850871 
-0 0 0 0 0.64124165596566784 102.84494369194985 1:0.10274651 2:0.13703241 3:-0.0097041877 4:0.097411273 5:0.13019074 6:-0.014237422 7:0.085255596 8:0.12752984 9:-0.013476689 
-11002.36901993535 72.656374923507286 10656.882732603332 72.716703453641372 0.64124165596566784 102.84494369194985 1:0.036164295 2:0.11331577 3:0.13743725 4:0.037533193 5:0.11798247 6:0.13214832 7:-0.032943232 8:0.10399048 9:0.095709409 
-0 0 0 0 0.64124165596566784 0 1:0.055233047 2:0.15979383 3:0.033734282 4:0.051281553 5:0.15239359 6:0.020304466 7:0.052269629 8:0.14573396 9:0.026302625 
-11002.36901993535 72.656374923507286 0 72.716703453641372 0 0 1:0.024551649 2:0.17615202 3:-0.044464229 4:0.020970342 5:0.16220393 6:-0.032514288 7:0.00919662 8:0.14756484 9:-0.020719208 
-0 0 10656.882732603332 0 0.64124165596566784 102.84494369194985 1:0.078997431 2:0.13326176 3:0.1105753 4:0.078167369 5:0.1431091 6:0.12934401 7:0.067346755 8:0.15705715 9:0.12243037 
-11002.36901993535 72.656374923507286 10656.882732603332 72.716703453641372 0.64124165596566784 0 1:0.027028628 2:0.15959119 3:0.059305142 4:0.027313288 5:0.1599353 6:0.062318714 7:0.031951333 8:0.15915006 9:0.058349392 
-11002.36901993535 72.656374923507286 0 72.716703453641372 0 0 1:-0.078926319 2:0.14754801 3:-0.0040224858 4:-0.085972461 5:0.13151621 6:-0.0020868228 7:-0.087924609 8:0.12530178 9:-0.0047841892 
-11002.36901993535 0 0 0 0.64124165596566784 0 1:0.048226444 2:0.14104624 3:0.0097276298 4:0.05047099 5:0.15025372 6:0.011863323 7:0.052711839 8:0.15319764 9:0.013219698 
-0 0 0 0 0.64124165596566784 102.84494369194985 1:0.049851826 2:0.14103576 3:-0.020026128 4:0.10118811 5:0.14631281 6:0.014436416 7:0.12802188 8:0.16407322 9:-0.0075243195 
-0 0 10656.882732603332 0 0.64124165596566784 102.84494369194985 1:0.099334545 2:0.10071229 3:0.085535127 4:0.091016801 5:0.10380867 6:0.086377774 7:0.071460987 8:0.10604949 9:0.058503049 
-0 0 0 72.716703453641372 0 102.84494369194985 1:0.060806102 2:0.21139812 3:0.019276952 4:0.063207117 5:0.22636413 6:0.023240215 7:0.055352969 8:0.26419891 9:0.033972421 
-8674.7710103266145 -72.656374923507286 74.860107026476257 1748.8781238770562 0 0 1:0.002967849 2:0.31539201 3:0.045441992 4:0.036708851 5:0.28629351 6:-0.0067388576 7:0.0020977826 8:0.15789654 9:0.05813534 
-9834.5391301716172 -0 0 0 0.48569324743888731 0 1:-0.04999531 2:0.13427042 3:0.014137802 4:-0.071115607 5:0.13169898 6:0.046263924 7:-0.064119967 8:0.13428187 9:-0.016385991 
-9834.5391301716172 -0 0 3702.6056813795258 0 0 1:-0.017631152 2:0.25078449 3:0.054877051 4:0.008336724 5:0.15570273 6:0.012242703 7:-0.035168744 8:0.19517005 9:-0.010910796 
-9834.5391301716172 -0 0 3228.5886199175302 0 0 1:-0.058631764 2:0.17506505 3:-0.010266374 4:-0.073242599 5:0.23769727 6:0.054275566 7:-0.024991776 8:0.2137 9:0.020391749 
-9834.5391301716172 -72.656374923507286 74.860107026476257 3702.6056813795258 0.48569324743888731 29.618294117413424 1:-0.00099011022 2:0.14179654 3:-0.020507152 4:0.0060268053 5:0.13673665 6:-0.019282384 7:0.013232626 8:0.13516487 9:-0.012002574 
-9834.5391301716172 -72.656374923507286 74.860107026476257 3702.6056813795258 0.48569324743888731 29.618294117413424 1:0.05513908 2:0.15970892 3:-0.016553151 4:0.053245058 5:0.17072058 6:0.014243101 7:0.028251409 8:0.098496139 9:0.044770984 
-9834.5391301716172 -72.656374923507286 74.860107026476257 3702.6056813795258 0.48569324743888731 29.618294117413424 1:0.0015317668 2:0.20473702 3:0.0134303 4:0.010071659 5:0.16607772 6:0.016243279 7:-0.0016631928 8:0.1526041 9:0.0084367258 
-9834.5391301716172 -72.656374923507286 74.860107026476257 2979.2744420286167 0.48569324743888731 29.618294117413424 1:0.010010356 2:0.074894287 3:0.025326576 4:0.0025883456 5:0.046785922 6:-0.01984988 7:-0.010759394 8:0.030086292 9:0.029043534 
-9834.5391301716172 -0 0 3702.6056813795258 0 0 1:-0.019200246 2:0.18699473 3:0.035979541 4:-0.019453608 5:0.24532897 6:0.026520611 7:-0.015732692 8:0.23818107 9:0.0049863833 
-9834.5391301716172 -72.656374923507286 74.860107026476257 3702.6056813795258 0.48569324743888731 29.618294117413424 1:0.013402944 2:0.094832458 3:-0.00061605688 4:-0.0011011425 5:0.15569696 6:0.014602673 7:-0.0039931522 8:0.20631434 9:0.015489872 
-9834.5391301716172 -72.656374923507286 74.860107026476257 3702.6056813795258 0.48569324743888731 0 1:-0.0070661931 2:0.16421118 3:0.01936257 4:-0.0063117934 5:0.1845279 6:0.010319079 7:-0.0058298772 8:0.14616423 9:0.0066720743 
-9834.5391301716172 -72.656374923507286 74.860107026476257 3702.6056813795258 0.48569324743888731 29.618294117413424 1:0.0012204688 2:0.16952597 3:0.0062342256 4:0.00080481552 5:0.1769294 6:0.012352819 7:0.0020295798 8:0.20347689 9:0.010444925 
-9834.5391301716172 -0 0 0 0 0 1:-0.049179382 2:0.14218119 3:0.0095923657 4:-0.05791642 5:0.24001174 6:0.053512464 7:-0.037843756 8:0.28382754 9:0.028381763 
-9834.5391301716172 -72.656374923507286 74.860107026476257 3702.6056813795258 0.48569324743888731 29.618294117413424 1:0.01272089 2:0.18427856 3:-0.0038869512 4:0.01694328 5:0.18278468 6:-0.0044921285 7:0.016516556 8:0.16870129 9:-0.0037932671 
-9834.5391301716172 -0 0 3702.6056813795258 0.48569324743888731 29.618294117413424 1:-0.019440649 2:0.19020772 3:0.0053559967 4:-0.0046795916 5:0.12158359 6:-0.02895538 7:-0.0059742808 8:0.099394462 9:-0.0044164969 
-9834.5391301716172 -72.656374923507286 0 0 0.48569324743888731 29.618294117413424 1:-0.0068873958 2:0.18118467 3:-0.015279255 4:-0.0023215961 5:0.1529548 6:-0.016835874 7:-0.0080937892 8:0.12197158 9:-0.02095192 
-9834.5391301716172 -72.656374923507286 74.860107026476257 3702.6056813795258 0.48569324743888731 29.618294117413424 1:0.0012771158 2:0.14970141 3:0.0097779301 4:0.0056786583 5:0.16780391 6:0.010622812 7:0.0058134742 8:0.16861281 9:0.010405033 
-9834.5391301716172 -72.656374923507286 74.860107026476257 3702.6056813795258 0.48569324743888731 29.618294117413424 1:-0.0039005398 2:0.11637576 3:0.024463727 4:-0.0057476116 5:0.14521222 6:0.024648726 7:-0.018421623 8:0.17464 9:0.014072347 
-9254.6099887832006 -35.412733046932843 74.860107026476257 2458.0147983684483 0.48569324743888731 0 1:-0.05459529 2:0.01851373 3:0.01844127 4:-0.041575177 5:0.098287065 6:0.078286694 7:0.008878736 8:0.22732554 9:0.10115636 
-9834.5391301716172 -0 0 0 0.48569324743888731 0 1:-0.048678103 2:0.17415239 3:0.0086858599 4:-0.030417409 5:0.15690117 6:0.015806778 7:-0.017750725 8:0.12008854 9:0.017447195 
-9834.5391301716172 -72.656374923507286 74.860107026476257 3702.6056813795258 0.48569324743888731 29.618294117413424 1:0.0038178225 2:0.12104975 3:-0.0094751491 4:-0.0046879939 5:0.14364456 6:0.020939848 7:-0.0068968471 8:0.19962831 9:0.034333729 
-9834.5391301716172 -0 0 0 0.48569324743888731 0 1:-0.046312561 2:0.14525726 3:-0.014960761 4:-0.034932085 5:0.13988229 6:-0.01207915 7:-0.023140477 8:0.12903804 9:-0.013641262 
-4843.0425964820643 -0 0 0 0.48569324743888731 29.618294117413424 1:0.010251486 2:0.040005023 3:-0.057402981 4:-0.032698394 5:-0.017110913 6:-0.039810872 7:-0.042148484 8:0.054449228 9:0.014715987 
-9834.5391301716172 -72.656374923507286 74.860107026476257 3702.6056813795258 0 29.618294117413424 1:0.041073708 2:0.17443404 3:-0.0038818142 4:0.027384251 5:0.20559132 6:-0.019232722 7:-0.0023743071 8:0.18638962 9:-0.010088436 
-9834.5391301716172 -0 0 3702.6056813795258 0.48569324743888731 0 1:-0.029084494 2:0.16115454 3:-0.0034338632 4:-0.025607106 5:0.16244634 6:-0.0045478913 7:-0.032037997 8:0.17946254 9:0.022581397 
-9834.5391301716172 -0 74.860107026476257 3702.6056813795258 0 0 1:-0.0084924715 2:0.19374709 3:0.02251425 4:-0.016433975 5:0.22715916 6:0.023843688 7:-0.011298287 8:0.20474644 9:0.042830394 
-8266.7016414756126 -72.656374923507286 74.860107026476257 3128.1297778927765 0 29.618294117413424 1:0.063690554 2:0.23788534 3:0.059552214 4:0.032928673 5:0.33107872 6:0.051122385 7:0.047160356 8:0.33164876 9:0.026036993 
-9834.5391301716172 -0 0 2536.9682294063891 0 0 1:-0.029969702 2:0.27094852 3:0.073099631 4:-0.038852407 5:0.30248186 6:0.04079234 7:-0.020820887 8:0.19661313 9:-0.0078864219 
-9834.5391301716172 -0 0 3702.6056813795258 0.48569324743888731 0 1:-0.015666613 2:0.15209359 3:0.005091644 4:-0.032592157 5:0.16463103 6:0.014752353 7:-0.025763499 8:0.15669481 9:0.026191012 
-9834.5391301716172 -0 0 3702.6056813795258 0.48569324743888731 0 1:-0.023907859 2:0.11263121 3:-0.0039623514 4:-0.036640887 5:0.15142352 6:0.0069227693 7:-0.026682374 8:0.20659664 9:0.03677574 
-9834.5391301716172 -72.656374923507286 74.860107026476257 3702.6056813795258 0.48569324743888731 29.618294117413424 1:0.032276516 2:0.21011739 3:-0.043103094 4:-0.011796337 5:0.15015083 6:0.0089206895 7:-0.0086367428 8:0.11469335 9:0.028416384 
-9834.5391301716172 -0 74.860107026476257 3702.6056813795258 0.48569324743888731 0 1:-0.0039581846 2:0.11643909 3:-0.0088440589 4:-0.021700975 5:0.10202309 6:-0.0069402068 7:-0.032844523 8:0.16651218 9:0.038597546 
-9834.5391301716172 -0 0 3702.6056813795258 0 0 1:-0.031675117 2:0.21262553 3:0.020981981 4:-0.031003893 5:0.22671445 6:0.021662256 7:-0.023545626 8:0.20407656 9:0.020491014 
-9834.5391301716172 -72.656374923507286 74.860107026476257 3702.6056813795258 0.48569324743888731 19.453748435915418 1:-0.0040130295 2:0.13452502 3:-0.001719662 4:-0.010923495 5:0.18733367 6:0.026325863 7:0.0048917109 8:0.16699011 9:0.027570746 
-9834.5391301716172 -72.656374923507286 74.860107026476257 3702.6056813795258 0.48569324743888731 29.618294117413424 1:-0.0068274054 2:0.15637886 3:0.041339818 4:0.0097756054 5:0.10101535 6:-0.0054515751 7:-0.018045188 8:0.13233342 9:0.012796944 
-5839.1067361534315 -0 0 0 0.48569324743888731 29.618294117413424 1:-0.011759485 2:0.17116997 3:0.019647501 4:0.0041099199 5:0.089873578 6:-0.01316948 7:-0.035389644 8:0.072583776 9:-0.023035579 
-9834.5391301716172 -0 0 3702.6056813795258 0.48569324743888731 0 1:-0.016987918 2:0.13390269 3:0.0015809428 4:-0.021895809 5:0.1399505 6:0.0035440285 7:-0.023667702 8:0.15129894 9:0.017247354 
-9834.5391301716172 -72.656374923507286 74.860107026476257 3702.6056813795258 0 29.618294117413424 1:0.015663648 2:0.1601636 3:-0.0070982627 4:0.010270502 5:0.18421753 6:-0.0073608641 7:0.014886349 8:0.22063286 9:-0.0094094193 
-9834.5391301716172 -72.656374923507286 74.860107026476257 3702.6056813795258 0.48569324743888731 29.618294117413424 1:0.026560783 2:0.13942357 3:-0.00053567999 4:0.02034002 5:0.12817685 6:0.01723483 7:0.020165042 8:0.1812352 9:-0.010810965 
-117.24366644364078 -72.656374923507286 74.860107026476257 1563.3821428220015 0.48569324743888731 0 1:-0.036643424 2:0.14122991 3:-0.0032265019 4:-0.0080804287 5:0.19768402 6:0.033029727 7:0.017010675 8:0.20175153 9:0.012022721 
-9834.5391301716172 -72.656374923507286 74.860107026476257 3702.6056813795258 0.48569324743888731 29.618294117413424 1:0.0038303668 2:0.106675 3:0.095227238 4:0.01161144 5:0.087636421 6:0.070759197 7:0.012890427 8:0.10059954 9:0.067813694 
-9834.5391301716172 -72.656374923507286 74.860107026476257 3702.6056813795258 0.48569324743888731 29.618294117413424 1:0.011122386 2:0.16961912 3:0.026778175 4:0.010029801 5:0.1650066 6:0.028626835 7:0.0099244236 8:0.15723451 9:0.03019097 
-9834.5391301716172 -0 0 3702.6056813795258 0 0 1:-0.022440082 2:0.19208631 3:0.0086625333 4:-0.023616818 5:0.18694895 6:0.011448925 7:-0.022793997 8:0.17626253 9:0.0089728115 
-9834.5391301716172 -72.656374923507286 74.860107026476257 3702.6056813795258 0 29.618294117413424 1:0.022636631 2:0.17381419 3:-0.016328125 4:0.033303137 5:0.18229417 6:-0.025783041 7:0.010136978 8:0.19619045 9:-0.025079306 
-9834.5391301716172 -0 0 3702.6056813795258 0 0 1:-0.021481713 2:0.21723354 3:0.049579829 4:-0.035207828 5:0.20634012 6:0.05101033 7:-0.034049355 8:0.21021353 9:-0.0026026912 
-9834.5391301716172 -0 74.860107026476257 3702.6056813795258 0.48569324743888731 0 1:-0.006421825 2:0.10024161 3:0.020379709 4:-0.0087955532 5:0.10183721 6:0.0088393636 7:-0.037835673 8:0.18041412 9:0.030105981 
-0 -0 1.7408507552890733 2347.1188707340548 0.48569324743888731 0 1:-0.058221688 2:0.18289614 3:0.028460956 4:-0.028651252 5:0.26600157 6:0.093125542 7:0.023370403 8:0.13876492 9:0.031499123 
-9834.5391301716172 -0 0 0 0 0 1:-0.034857066 2:0.28213614 3:-0.0070652176 4:-0.039050633 5:0.16389113 6:-0.011059322 7:-0.058624549 8:0.1246547 9:0.018140581 
-9834.5391301716172 -0 0 3702.6056813795258 0.48569324743888731 0 1:-0.023033083 2:0.162964 3:0.00018586111 4:-0.02099727 5:0.17991586 6:0.009449151 7:-0.017594012 8:0.16385802 9:0.009079505 
-9834.5391301716172 -0 0 3702.6056813795258 0 0 1:-0.046230053 2:0.18072465 3:0.012804162 4:-0.035492571 5:0.18732026 6:0.016542561 7:-0.017600824 8:0.17118272 9:0.0035589191 
-8479.9510400948529 -72.656374923507286 0 0 0.48569324743888731 29.618294117413424 1:-0.0086310539 2:0.060233723 3:0.0074826925 4:-0.008316278 5:0.023824884 6:-0.020207085 7:-0.0060173253 8:0.0036070064 9:-0.0067385893 
-9834.5391301716172 -72.656374923507286 74.860107026476257 3702.6056813795258 0.48569324743888731 29.618294117413424 1:0.0061128446 2:0.16154012 3:0.024207402 4:0.016243213 5:0.16589488 6:-0.0072541752 7:0.00048395154 8:0.15608836 9:0.016449093 
-9834.5391301716172 -0 0 3702.6056813795258 0.48569324743888731 0 1:-0.036466025 2:0.2134494 3:0.039356617 4:-0.024329202 5:0.18663408 6:0.015306112 7:-0.018927005 8:0.12591623 9:0.0015173191 
-9834.5391301716172 -0 0 0 0 0 1:-0.022532254 2:0.24864446 3:0.011917961 4:-0.02788058 5:0.3038757 6:0.016523788 7:-0.0244833 8:0.33039584 9:0.027983187 
-9834.5391301716172 -72.656374923507286 74.860107026476257 3702.6056813795258 0.48569324743888731 29.618294117413424 1:0.0087286171 2:0.17489756 3:-0.00059289199 4:0.0023575778 5:0.11469273 6:-0.0021132544 7:-0.005632356 8:0.090921505 9:-0.00017961042 
-9834.5391301716172 -72.656374923507286 74.860107026476257 3702.6056813795258 0.48569324743888731 29.618294117413424 1:-0.0038540207 2:0.12057742 3:0.016420999 4:-0.0082171523 5:0.19118309 6:0.024604714 7:-0.0085646026 8:0.17945454 9:-0.00064668874 
-9834.5391301716172 -0 0 3702.6056813795258 0.48569324743888731 0 1:-0.023455552 2:0.15612429 3:0.017427908 4:-0.018234528 5:0.15228993 6:0.01474891 7:-0.017860007 8:0.15790051 9:0.011412534 
-9834.5391301716172 -0 0 1926.7057588658406 0.48569324743888731 0 1:-0.021380864 2:0.10683412 3:-0.0040925083 4:-0.022870465 5:0.099476834 6:-0.0008727121 7:-0.03176648 8:0.14698788 9:0.016179514 
-9834.5391301716172 -0 0 1082.5796642125738 0.48569324743888731 0 1:-0.022206622 2:0.14039839 3:0.00083049343 4:-0.016129646 5:0.12642355 6:-0.010709852 7:-0.035435195 8:0.18260247 9:0.0043545071 
-9834.5391301716172 -0 0 3702.6056813795258 0 0 1:-0.033912141 2:0.17581679 3:-0.04670854 4:-0.042580381 5:0.22324175 6:0.023146006 7:-0.0084419624 8:0.12775501 9:0.049240624 
-9834.5391301716172 -0 0 845.63317130580651 0.48569324743888731 0 1:-0.031266598 2:0.15449534 3:-0.015495451 4:-0.030234535 5:0.11571736 6:-0.0017179974 7:-0.033544109 8:0.12344429 9:0.01193695 
-9834.5391301716172 -0 0 0 0.48569324743888731 29.618294117413424 1:-0.015663572 2:0.097428518 3:0.019812762 4:-0.016241516 5:0.083924466 6:0.0052369166 7:-0.029373199 8:0.1667638 9:0.01023076 
-9834.5391301716172 -0 0 3702.6056813795258 0.48569324743888731 0 1:-0.026452558 2:0.16415036 3:0.0087739682 4:-0.028716736 5:0.17002388 6:0.0085744249 7:-0.032969752 8:0.18140915 9:0.0088651475 
-9834.5391301716172 -72.656374923507286 74.860107026476257 3702.6056813795258 0.48569324743888731 29.618294117413424 1:0.0017946155 2:0.14799414 3:0.047966964 4:0.025753941 5:0.13141311 6:0.026041652 7:0.033528114 8:0.098314973 9:0.00647684 
-9834.5391301716172 -72.656374923507286 74.860107026476257 1898.8211936049418 0.48569324743888731 29.618294117413424 1:0.0044982029 2:0.10916154 3:0.042856354 4:0.010818007 5:0.065165293 6:0.0014335942 7:-0.016584277 8:0.051396322 9:-0.018322138 
-9834.5391301716172 -0 0 0 0 29.618294117413424 1:-0.060214056 2:0.36631022 3:0.084583787 4:-0.053486731 5:0.34750905 6:0.02200725 7:-0.027235079 8:0.30422374 9:-0.069215325 
-9834.5391301716172 -0 74.860107026476257 3702.6056813795258 0.48569324743888731 0 1:-0.021770632 2:0.16487912 3:0.054229911 4:-0.016136542 5:0.18887822 6:0.062297611 7:-0.0070616699 8:0.18549452 9:0.022415604 
-9834.5391301716172 -72.656374923507286 74.860107026476257 3702.6056813795258 0.48569324743888731 29.618294117413424 1:0.013705628 2:0.12465122 3:0.014413097 4:0.0070511091 5:0.13232169 6:0.02348805 7:0.006657032 8:0.13452022 9:0.022803601 
-9834.5391301716172 -0 0 0 0 0 1:-0.051196314 2:0.29527627 3:-0.0138389 4:-0.047910334 5:0.18685497 6:-0.013135434 7:-0.048926535 8:0.14401852 9:-0.020048105 
-1884.5438957917352 -72.656374923507286 74.860107026476257 3702.6056813795258 0.48569324743888731 0 1:-0.0038104928 2:0.075385386 3:0.057559957 4:0.00026776088 5:0.17453641 6:0.075040794 7:0.0029433368 8:0.17027415 9:0.076689695 
-9834.5391301716172 -0 0 0 0.48569324743888731 0 1:-0.030675863 2:0.15754608 3:0.0077378928 4:-0.034874037 5:0.177348 6:0.014610055 7:-0.03379112 8:0.17582048 9:0.015027243 
-9834.5391301716172 -0 0 0 0 0 1:-0.071613897 2:0.1909844 3:0.0018146885 4:-0.088074278 5:0.20374528 6:0.032303949 7:-0.092967673 8:0.22606704 9:0.032456651 
-9834.5391301716172 -72.656374923507286 74.860107026476257 997.49933072978752 0.48569324743888731 29.618294117413424 1:-0.012699181 2:0.11732619 3:0.011508125 4:-0.0082533019 5:0.12147313 6:0.0028789664 7:-0.0068475805 8:0.13998328 9:0.019633655 
-9834.5391301716172 -0 0 3702.6056813795258 0.48569324743888731 0 1:-0.023073565 2:0.14959268 3:0.030206962 4:-0.022275336 5:0.16813319 6:0.023727909 7:-0.018615538 8:0.17501388 9:0.029585921 
-3378.9833136675311 -0 0 0 0 29.618294117413424 1:-0.03931256 2:0.30742499 3:0.085971925 4:-0.10593082 5:0.51508302 6:0.089408832 7:-0.080138978 8:0.5021811 9:-0.018129949 
-9834.5391301716172 -72.656374923507286 74.860107026476257 3702.6056813795258 0.48569324743888731 29.618294117413424 1:0.019161431 2:0.21302005 3:0.0041085529 4:0.02407301 5:0.12381421 6:-0.0069682468 7:0.014476196 8:0.098858623 9:0.00074510568 
-9834.5391301716172 -0 0 0 0 2.7599721521446492 1:-0.022242909 2:0.16330852 3:-0.025157823 4:-0.0035888923 5:0.20050827 6:-0.013147953 7:-0.0042631875 8:0.14985139 9:-0.0019087536 
-9834.5391301716172 -72.656374923507286 74.860107026476257 3702.6056813795258 0.48569324743888731 29.618294117413424 1:0.002165015 2:0.14603983 3:0.0011839246 4:-0.010805834 5:0.14455485 6:0.01435111 7:-0.013978302 8:0.1297773 9:-0.0060468934 
-8538.4125380866681 -0 0 0 0 0 1:-0.0477136 2:0.10916234 3:-0.046374662 4:-0.055467946 5:0.13116812 6:-0.030815295 7:-0.051727957 8:0.13884422 9:-0.013392856 
-9834.5391301716172 -72.656374923507286 74.860107026476257 3702.6056813795258 0.48569324743888731 29.618294117413424 1:0.017527344 2:0.10672573 3:0.01368794 4:0.02191065 5:0.12848991 6:0.049765097 7:0.034158341 8:0.27781763 9:0.072745424 
-9834.5391301716172 -0 0 3702.6056813795258 0.48569324743888731 0 1:-0.026073861 2:0.14446652 3:0.0051521485 4:-0.026661987 5:0.15998677 6:-0.0030683871 7:-0.02911173 8:0.17165741 9:-0.0032783007 
-0 -72.656374923507286 0 0 0 29.618294117413424 1:-0.0058394144 2:0.1655734 3:-0.015901617 4:0.006720091 5:0.20201546 6:-0.024664002 7:-0.010492218 8:0.12674522 9:-0.014844667 
-9834.5391301716172 -72.656374923507286 74.860107026476257 3702.6056813795258 0.48569324743888731 29.618294117413424 1:-0.0054231921 2:0.13089769 3:0.015895337 4:0.0082235394 5:0.1549898 6:0.0099318162 7:0.0063754981 8:0.1453222 9:0.01286291 
-9834.5391301716172 -0 0 0 0.48569324743888731 29.618294117413424 1:-0.021057876 2:0.1337356 3:0.01383122 4:-0.019865408 5:0.13195026 6:0.0045471889 7:-0.021548009 8:0.10914707 9:-0.006887434 
-9834.5391301716172 -0 0 822.13833747292995 0 0 1:-0.02844228 2:0.16122035 3:0.00038957443 4:-0.043784485 5:0.21131498 6:0.024432697 7:-0.027563728 8:0.22911004 9:0.0072295737 
