svm_type nu_svc
kernel_type rbf
gamma 0.1111111111111111
nr_class 7
total_sv 707
rho 18.095643088487058 -176.33761653676768 0.11194636410565707 55.442778201358557 -38.935053218851252 45.941892587214369 -453.56223016329824 0.041021360926153896 21.831409412553871 -516.58106361651983 -2.0313539657215136 0.075888325153578226 19.515271206251889 -830.49307751088452 43.792478606938836 0.50697297155025034 -0.029920016113215823 -0.0030025547578452915 -17.607073569870991 -75.960807640128266 6.9881704899724193
label 5 0 1 4 2 3 6
nr_sv 103 94 138 83 87 117 85
SV
0 0 1.2150366251660631 122.82380416382 0 11579.151067398334 1:0.058416919 2:0.063751079 3:0.11856125 4:0.071938098 5:0.067139532 6:0.11230493 7:0.081310758 8:0.06539225 9:0.11030301 
0 0 1.2150366251660631 122.82380416382 0 11579.151067398334 1:0.089524604 2:0.10986795 3:0.077885758 4:0.088869825 5:0.10002033 6:0.077338433 7:0.08524381 8:0.093975138 9:0.072829104 
0 5576.3600117495516 1.2150366251660631 0 529.7265130655029 0 1:0.0090267739 2:0.07921877 3:0.11656192 4:0.015599396 5:0.069523877 6:0.11597646 7:0.020607844 8:0.062899646 9:0.11283974 
0 5576.3600117495516 1.2150366251660631 0 0 0 1:0.02219077 2:0.10540961 3:0.10596342 4:0.028773021 5:0.10143377 6:0.11139333 7:0.03473886 8:0.097004994 9:0.11052406 
342.8907359281904 5576.3600117495516 0 0 706.3020174206705 11579.151067398334 1:0.0060916938 2:0.17876423 3:-0.0085283356 4:0.0087218038 5:0.17600121 6:-0.010118643 7:0.010464129 8:0.17455255 9:-0.01078718 
0 0 1.2150366251660631 122.82380416382 0 11579.151067398334 1:0.067306926 2:0.14985569 3:0.024000306 4:0.066019824 5:0.14680509 6:0.019990252 7:0.06529472 8:0.15063381 9:0.015575549 
0 2556.8918617984014 1.2150366251660631 122.82380416382 0 11579.151067398334 1:0.079538595 2:0.14515697 3:-0.03383022 4:0.075214069 5:0.14173379 6:-0.035735138 7:0.068318898 8:0.13887073 9:-0.028154693 
342.8907359281904 5576.3600117495516 1.2150366251660631 0 706.3020174206705 0 1:0.025172228 2:0.17912264 3:0.042475832 4:0.023100189 5:0.1810286 6:0.036956763 7:0.020709985 8:0.17789758 9:0.033078211 
342.8907359281904 5576.3600117495516 0 122.82380416382 706.3020174206705 11579.151067398334 1:0.053918367 2:0.16400151 3:-0.031095783 4:0.051194209 5:0.14685969 6:-0.038354743 7:0.046147046 8:0.14262672 9:-0.031895339 
0 0 1.2150366251660631 122.82380416382 0 11579.151067398334 1:0.056497752 2:0.15508044 3:0.015049814 4:0.053694388 5:0.16123377 6:0.017103112 7:0.048943012 8:0.16922087 9:0.019020467 
342.8907359281904 5576.3600117495516 0 122.82380416382 706.3020174206705 11579.151067398334 1:0.029541683 2:0.17062553 3:-0.016501707 4:0.025596933 5:0.17775608 6:-0.019823307 7:0.023210141 8:0.18692165 9:-0.021450495 
342.8907359281904 5576.3600117495516 0 0 706.3020174206705 114.56722060641474 1:0.035330644 2:0.19019446 3:0.050050154 4:0.01580199 5:0.20155263 6:0.023079007 7:-0.007126668 8:0.21946023 9:0.031916922 
0 5576.3600117495516 1.2150366251660631 122.82380416382 0 11579.151067398334 1:0.083797212 2:0.12354829 3:-0.011814286 4:0.089253349 5:0.12337184 6:-0.019415679 7:0.089725169 8:0.12207058 9:-0.024919041 
342.8907359281904 5576.3600117495516 1.2150366251660631 0 706.3020174206705 0 1:-0.0002346021 2:0.17210929 3:0.095520001 4:-0.0049985034 5:0.16153074 6:0.092474443 7:-0.0046833762 8:0.14735412 9:0.092973427 
0 1825.0352493525875 1.2150366251660631 122.82380416382 0 0 1:0.051253686 2:0.05822739 3:0.097787778 4:0.053726508 5:0.054084658 6:0.098565459 7:0.052813677 8:0.054251492 9:0.11952946 
0 5576.3600117495516 1.2150366251660631 0 501.15769887846835 6871.2682979805477 1:0.059347053 2:0.24566657 3:0.16770988 4:0.038558751 5:0.1875438 6:0.10896883 7:0.010500116 8:0.13294126 9:0.13478111 
342.8907359281904 5576.3600117495516 0 122.82380416382 706.3020174206705 11579.151067398334 1:0.019425579 2:0.20943872 3:-0.0017852696 4:0.013093235 5:0.20089393 6:-2.9102159e-05 7:0.009260904 8:0.19175426 9:0.0028349802 
342.8907359281904 5576.3600117495516 0 122.82380416382 706.3020174206705 11579.151067398334 1:0.012531205 2:0.18224958 3:-0.0012517557 4:0.024731099 5:0.18584809 6:-0.014447664 7:0.026818928 8:0.18506152 9:-0.02287457 
0 0 1.2150366251660631 75.102798056083117 0 11579.151067398334 1:0.049007862 2:0.14062346 3:0.040517417 4:0.048474237 5:0.14244634 6:0.038511427 7:0.049247767 8:0.14475184 9:0.030611787 
342.8907359281904 5576.3600117495516 1.2150366251660631 0 706.3020174206705 0 1:0.0076326168 2:0.15982119 3:0.013930922 4:0.011950035 5:0.15750416 6:0.018967882 7:0.013909973 8:0.15723529 9:0.021308398 
342.8907359281904 5576.3600117495516 1.2150366251660631 0 706.3020174206705 0 1:-0.00051661462 2:0.13076336 3:0.04136108 4:0.0042486065 5:0.12580495 6:0.048681274 7:0.016397979 8:0.13331925 9:0.057985905 
342.8907359281904 5576.3600117495516 0 0 706.3020174206705 11579.151067398334 1:-0.004559676 2:0.1791901 3:-0.010445547 4:0.0011316111 5:0.17998294 6:-0.0068473895 7:0.0095232718 8:0.17626142 9:-0.0045906073 
0 5576.3600117495516 1.2150366251660631 122.82380416382 706.3020174206705 11579.151067398334 1:0.048883085 2:0.1895105 3:0.031471325 4:0.048120587 5:0.18682434 6:0.026966959 7:0.048634009 8:0.18263332 9:0.024607046 
0 5576.3600117495516 1.2150366251660631 0 0 11579.151067398334 1:0.070310006 2:0.14473767 3:0.088673849 4:0.069435552 5:0.14234341 6:0.082998177 7:0.071197564 8:0.13665567 9:0.08067202 
0 5576.3600117495516 1.2150366251660631 49.129013981670361 0 11579.151067398334 1:0.065275895 2:0.13525654 3:0.10181378 4:0.084793197 5:0.13972434 6:0.091960935 7:0.099377276 8:0.14333013 9:0.077895528 
0 1394.0900029373879 1.2150366251660631 122.82380416382 0 11579.151067398334 1:0.061405482 2:0.12777868 3:0.0085998599 4:0.059801989 5:0.12834882 6:0.015957131 7:0.059366162 8:0.13193838 9:0.022015899 
0 4892.1410106036892 1.2150366251660631 0 0 10130.529148600399 1:0.042642366 2:0.14697998 3:0.17191415 4:0.052224559 5:0.210127 6:0.24591043 7:0.07548685 8:0.25266493 9:0.28454745 
0 5576.3600117495516 1.2150366251660631 122.82380416382 616.57641828064584 0 1:0.049896246 2:0.17920773 3:0.016960943 4:0.045575134 5:0.17251249 6:0.019603489 7:0.043919149 8:0.16183295 9:0.021569272 
0 3312.2885021386096 1.2150366251660631 122.82380416382 0 7773.9689192915166 1:0.013637173 2:0.018293223 3:0.070269 4:0.061902082 5:0.031085372 6:0.038697839 7:0.076087127 8:0.051154562 9:0.04871107 
342.8907359281904 5576.3600117495516 0 122.82380416382 706.3020174206705 11579.151067398334 1:0.025032186 2:0.16987167 3:-0.0062123777 4:0.028182827 5:0.17201093 6:-0.013798669 7:0.027524663 8:0.17194118 9:-0.024372548 
342.8907359281904 5576.3600117495516 1.2150366251660631 0 706.3020174206705 0 1:0.0062061743 2:0.17500829 3:0.021186486 4:0.01156414 5:0.16603629 6:0.028029446 7:0.0095197538 8:0.15704882 9:0.037299404 
0 0 1.2150366251660631 122.82380416382 0 11579.151067398334 1:0.10638623 2:0.11580708 3:0.024443309 4:0.12684517 5:0.11865672 6:0.028076625 7:0.14507671 8:0.12376935 9:0.029554689 
0 5576.3600117495516 1.2150366251660631 0 0 11579.151067398334 1:0.068640754 2:0.1746299 3:0.092994475 4:0.050605123 5:0.15199454 6:0.10150216 7:0.044620314 8:0.13659145 9:0.11271429 
342.8907359281904 5576.3600117495516 0 0 706.3020174206705 11579.151067398334 1:-0.032373526 2:0.21257939 3:-0.012575701 4:-0.028169645 5:0.21047898 6:-0.0013567509 7:-0.020397754 8:0.20483942 9:0.0036825889 
0 5576.3600117495516 1.2150366251660631 122.82380416382 0 11579.151067398334 1:0.060218766 2:0.14832304 3:-0.0053290368 4:0.058551081 5:0.13918656 6:0.005677774 7:0.053769787 8:0.13096213 9:0.015634868 
342.8907359281904 5576.3600117495516 1.2150366251660631 122.82380416382 706.3020174206705 2708.9223794969944 1:0.025475832 2:0.16056454 3:0.0037597011 4:0.020957396 5:0.15582957 6:-0.0035704638 7:0.017862376 8:0.15090921 9:-0.014656422 
0 5576.3600117495516 1.2150366251660631 0 0 0 1:0.024727977 2:0.071607505 3:0.11078993 4:0.0317282 5:0.063557191 6:0.11559417 7:0.038772551 8:0.055200636 9:0.12015838 
342.8907359281904 5576.3600117495516 1.2150366251660631 0 706.3020174206705 9776.1490777820745 1:-0.022641381 2:0.14803083 3:0.012239248 4:-0.019081079 5:0.1512998 6:0.015516863 7:-0.013050308 8:0.15445265 9:0.021079685 
0 0 1.2150366251660631 122.82380416382 0 11579.151067398334 1:0.058292003 2:0.12695042 3:-0.012305705 4:0.055495605 5:0.13020175 6:-0.0073017546 7:0.052937108 8:0.13434687 9:-0.0042176802 
0 0 1.2150366251660631 0 0 11579.151067398334 1:0.066165656 2:0.092786618 3:0.11433327 4:0.063829499 5:0.094385665 6:0.11455074 7:0.063264464 8:0.097152604 9:0.11575528 
342.8907359281904 5576.3600117495516 0 0 706.3020174206705 11579.151067398334 1:0.013330965 2:0.17218501 3:0.0072034906 4:0.013618323 5:0.16918904 6:0.0071305621 7:0.015760254 8:0.1662792 9:0.006417521 
342.8907359281904 5576.3600117495516 0 122.82380416382 706.3020174206705 11579.151067398334 1:0.024594038 2:0.16052241 3:0.0051044296 4:0.020961381 5:0.16525977 6:-0.0074328546 7:0.025902315 8:0.16975924 9:-0.018295127 
342.8907359281904 5576.3600117495516 1.2150366251660631 0 706.3020174206705 0 1:-0.014813895 2:0.16057841 3:0.033908944 4:-0.020409069 5:0.15828188 6:0.041120789 7:-0.020485782 8:0.15935071 9:0.046587128 
0 0 1.2150366251660631 122.82380416382 0 11579.151067398334 1:0.07214674 2:0.15693262 3:-0.0048797728 4:0.072027531 5:0.1605512 6:-0.0033314465 7:0.066349943 8:0.15941833 9:-0.0018898912 
0 5576.3600117495516 1.2150366251660631 0 0 7896.6822672582593 1:0.07421811 2:0.10719353 3:0.1227822 4:0.069626514 5:0.12761991 6:0.13977877 7:0.057613744 8:0.14254122 9:0.14171057 
342.8907359281904 1380.5436461247132 1.2150366251660631 122.82380416382 706.3020174206705 0 1:0.020147813 2:0.12057586 3:0.016997161 4:0.026762502 5:0.11170018 6:0.02464068 7:0.035935032 8:0.10781289 9:0.025712746 
342.8907359281904 5576.3600117495516 0 0 706.3020174206705 11579.151067398334 1:-0.0012583023 2:0.17688148 3:0.0058784475 4:0.0035503893 5:0.17711184 6:0.014301429 7:0.0061305796 8:0.17213471 9:0.019148031 
0 2789.8083808423971 1.2150366251660631 122.82380416382 0 0 1:0.06335593 2:0.14034892 3:0.12578055 4:0.10590356 5:0.16523722 6:0.06884421 7:0.12418028 8:0.18269152 9:0.057806966 
342.8907359281904 5576.3600117495516 1.2150366251660631 0 706.3020174206705 1318.0647664039855 1:0.0046830083 2:0.13569448 3:0.034486471 4:0.0042086132 5:0.13407271 6:0.037156325 7:0.0058070592 8:0.14105496 9:0.02341418 
342.8907359281904 5576.3600117495516 1.2150366251660631 122.82380416382 706.3020174206705 0 1:0.025520335 2:0.15585559 3:-0.0047133983 4:0.024658686 5:0.1517698 6:-0.004600036 7:0.021004707 8:0.15098702 9:-0.0092807781 
342.8907359281904 5576.3600117495516 0 122.82380416382 706.3020174206705 11579.151067398334 1:0.025647567 2:0.17557492 3:-0.021106513 4:0.027488441 5:0.17528467 6:-0.026309191 7:0.028757402 8:0.17465633 9:-0.029184306 
9.8678503614568331 5576.3600117495516 0 0 706.3020174206705 11579.151067398334 1:0.040651812 2:0.21427038 3:0.020465319 4:0.044616333 5:0.24440043 6:0.049825266 7:0.052290452 8:0.28427725 9:0.090609199 
0 5576.3600117495516 1.2150366251660631 0 0 0 1:0.05517472 2:0.087221447 3:0.091382115 4:0.042525908 5:0.079809239 6:0.094730971 7:0.03344903 8:0.076864749 9:0.10055169 
0 0 1.2150366251660631 122.82380416382 0 0 1:0.066776526 2:0.12667176 3:0.069002574 4:0.063205994 5:0.12188144 6:0.061704904 7:0.064381366 8:0.12131775 9:0.053447928 
0 5576.3600117495516 1.2150366251660631 0 0 883.82618359825778 1:0.035341591 2:0.068978012 3:0.1024249 4:0.0131538 5:0.05294602 6:0.10433108 7:0.026919099 8:0.054806523 9:0.10161346 
342.8907359281904 5576.3600117495516 0 122.82380416382 706.3020174206705 0 1:0.021232263 2:0.16342226 3:-0.016362471 4:0.020982069 5:0.16238002 6:-0.015904064 7:0.020796295 8:0.16302649 9:-0.014049122 
342.8907359281904 5576.3600117495516 0 0 706.3020174206705 0 1:-0.032295444 2:0.18814959 3:0.031574159 4:-0.030989686 5:0.17417529 6:0.036289403 7:-0.02749624 8:0.16257267 9:0.041466977 
0 5576.3600117495516 1.2150366251660631 0 0 0 1:0.025581446 2:0.059568015 3:0.10752941 4:0.023972367 5:0.0528422 6:0.10446192 7:0.028877283 8:0.060749491 9:0.10380605 
342.8907359281904 5576.3600117495516 0 0 706.3020174206705 0 1:0.006295719 2:0.17836571 3:7.9704364e-05 4:0.0046652078 5:0.17702989 6:0.00022060432 7:0.0070372721 8:0.17548912 9:-0.00066703552 
0 5514.9341358472757 1.2150366251660631 122.82380416382 0 11579.151067398334 1:0.068699617 2:0.15889284 3:-0.018427647 4:0.063830719 5:0.16038398 6:-0.019779538 7:0.057428828 8:0.16458515 9:-0.014553908 
0 5576.3600117495516 1.2150366251660631 0 0 0 1:0.045840347 2:0.089896685 3:0.11750617 4:0.044768336 5:0.086323718 6:0.11939777 7:0.042865479 8:0.082399483 9:0.12243481 
342.8907359281904 5576.3600117495516 0 0 706.3020174206705 0 1:-0.0031878379 2:0.16523942 3:-0.021760808 4:-0.010960276 5:0.17526316 6:-0.01318833 7:-0.013562245 8:0.18274917 9:-0.011504949 
342.8907359281904 639.67987576543669 1.2150366251660631 0 706.3020174206705 0 1:0.0093665305 2:0.13124728 3:0.089465968 4:0.0049595929 5:0.12764416 6:0.094082 7:0.0066811723 8:0.12876414 9:0.090579667 
342.8907359281904 5576.3600117495516 1.2150366251660631 0 706.3020174206705 0 1:-0.0014452593 2:0.16096092 3:0.11532067 4:0.0044003388 5:0.1565579 6:0.12471296 7:0.01159923 8:0.1571358 9:0.12427648 
342.8907359281904 5576.3600117495516 0 0 706.3020174206705 0 1:-0.0048837962 2:0.18019231 3:0.016747512 4:0.0036044903 5:0.18916487 6:0.0090601521 7:0.0065634234 8:0.19660268 9:0.0017514504 
0 0 0 122.82380416382 0 11579.151067398334 1:0.079292952 2:0.17269475 3:-0.031551489 4:0.074013706 5:0.17588746 6:-0.028338292 7:0.071809938 8:0.18104151 9:-0.017418852 
342.8907359281904 0 1.2150366251660631 122.82380416382 706.3020174206705 0 1:0.038704002 2:0.17797807 3:0.022465516 4:0.041446583 5:0.17576505 6:0.015317115 7:0.043149449 8:0.1734508 9:0.011055749 
342.8907359281904 5576.3600117495516 0 122.82380416382 706.3020174206705 0 1:0.014674656 2:0.17365411 3:-0.010808729 4:0.012142951 5:0.17546594 6:-0.0053620766 7:0.012763805 8:0.17463866 9:-0.0057425118 
0 0 1.2150366251660631 0 0 0 1:0.036722493 2:0.14959597 3:0.060271502 4:0.039180066 5:0.14750654 6:0.051784618 7:0.0408721 8:0.14716032 9:0.043403619 
342.8907359281904 0 0 122.82380416382 706.3020174206705 11579.151067398334 1:0.040969381 2:0.18069348 3:-0.0075149715 4:0.036135442 5:0.18146384 6:-0.0097692317 7:0.03166114 8:0.17946925 9:-0.010960967 
342.8907359281904 658.18762417987364 1.2150366251660631 122.82380416382 706.3020174206705 0 1:0.033463131 2:0.14948611 3:-0.014713075 4:0.032585033 5:0.14605501 6:-0.0073262562 7:0.029551308 8:0.14896257 9:-0.0014260123 
342.8907359281904 0 0 122.82380416382 706.3020174206705 11579.151067398334 1:0.055854091 2:0.20506748 3:-0.0082696021 4:0.052753372 5:0.22158141 6:-0.016360434 7:0.051006832 8:0.23326275 9:-0.02407579 
342.8907359281904 0 0 122.82380416382 706.3020174206705 0 1:0.015299234 2:0.14214853 3:-0.030188542 4:0.011975055 5:0.15511734 6:-0.021177433 7:0.019561574 8:0.17177449 9:-0.0077838282 
342.8907359281904 5576.3600117495516 0 122.82380416382 706.3020174206705 0 1:-0.022961697 2:0.18037854 3:-0.047024482 4:-0.030204028 5:0.17599323 6:-0.035887573 7:-0.032881279 8:0.17599969 9:-0.014630232 
0 0 1.2150366251660631 122.82380416382 0 0 1:0.05823583 2:0.15478248 3:-0.013196772 4:0.053546205 5:0.1557229 6:-0.010944289 7:0.054323664 8:0.15655693 9:-0.0059415993 
0 0 1.2150366251660631 122.82380416382 0 0 1:0.098294567 2:0.18132583 3:0.071055529 4:0.1014124 5:0.16428611 6:0.069797598 7:0.097845418 8:0.14520046 9:0.069454845 
0 0 1.2150366251660631 0 345.28826100395986 0 1:0.027026507 2:0.14266628 3:0.088034051 4:0.024022693 5:0.13337241 6:0.086752133 7:0.022883602 8:0.12696704 9:0.091406226 
0 0 1.2150366251660631 0 583.82001862579818 7068.830240819846 1:0.014060898 2:0.10111975 3:0.15250925 4:-0.017154137 5:0.089425373 6:0.1804255 7:0.0055777109 8:0.089224494 9:0.16321827 
342.8907359281904 0 0 122.82380416382 706.3020174206705 11579.151067398334 1:0.049005572 2:0.1612444 3:-0.0056772909 4:0.045693972 5:0.16465609 6:-0.011235299 7:0.045782462 8:0.16799182 9:-0.017198329 
0 5576.3600117495516 1.2150366251660631 122.82380416382 0 11579.151067398334 1:0.049429379 2:0.1709015 3:0.02695395 4:0.050404389 5:0.17293452 6:0.021524405 7:0.053570049 8:0.16979003 9:0.0045917314 
342.8907359281904 5576.3600117495516 0 122.82380416382 706.3020174206705 11579.151067398334 1:0.019601579 2:0.20831873 3:-0.0053165441 4:0.023060613 5:0.19975776 6:-0.031740283 7:0.019861946 8:0.19366457 9:-0.049139357 
0 0 1.2150366251660631 122.82380416382 0 7823.564665485962 1:0.1283208 2:0.15906764 3:0.036980897 4:0.12457109 5:0.16276584 6:0.037680469 7:0.11383083 8:0.1708152 9:0.043803742 
0 0 1.2150366251660631 122.82380416382 0 0 1:0.10458035 2:0.1184808 3:0.068086623 4:0.094627321 5:0.10119294 6:0.063221798 7:0.088138945 8:0.088759158 9:0.060584352 
0 0 1.2150366251660631 0 0 0 1:0.026407114 2:0.091414318 3:0.12916095 4:0.042086528 5:0.087660336 6:0.12772458 7:0.054636021 8:0.08446241 9:0.10657935 
0 0 1.2150366251660631 0 0 0 1:0.08139423 2:0.094093374 3:0.10036311 4:0.074462323 5:0.10027522 6:0.11492151 7:0.084057266 8:0.12659138 9:0.10190708 
0 0 1.2150366251660631 122.82380416382 0 2531.6198408575506 1:0.10363368 2:0.11836076 3:0.018013392 4:0.10065356 5:0.11998062 6:0.014738071 7:0.10532772 8:0.11879621 9:0.011864874 
342.8907359281904 5576.3600117495516 0 0 706.3020174206705 4576.9133962081933 1:-0.017776442 2:0.20097388 3:-0.0014062091 4:-0.018385519 5:0.20210682 6:0.00045391975 7:-0.015501291 8:0.1976017 9:0.0017630848 
0 0 1.2150366251660631 0 0 0 1:0.016646442 2:0.04963471 3:0.17377536 4:0.004896877 5:0.053120963 6:0.16889902 7:0.039029298 8:0.19026579 9:0.29813721 
0 0 1.2150366251660631 122.82380416382 0 0 1:0.069327544 2:0.082413637 3:0.056213377 4:0.080004646 5:0.086261476 6:0.043923389 7:0.095213731 8:0.091576857 9:0.033438516 
0 0 1.2150366251660631 47.570119280853213 0 0 1:0.036015554 2:0.072593921 3:0.096604654 4:0.048651159 5:0.072611463 6:0.077144431 7:0.059945757 8:0.08036737 9:0.078185493 
0 0 1.2150366251660631 0 0 0 1:0.0065753032 2:0.045236739 3:0.10992746 4:0.015257503 5:0.046965452 6:0.12131264 7:0.029116389 8:0.049824813 9:0.12576156 
225.26000146103979 0 0 122.82380416382 0 11579.151067398334 1:0.061335005 2:0.15136418 3:-0.027797586 4:0.059094301 5:0.15561227 6:-0.027128301 7:0.058412063 8:0.16196536 9:-0.02053138 
0 0 1.2150366251660631 0 706.3020174206705 0 1:0.033822271 2:0.17726709 3:0.09685417 4:0.026974121 5:0.18369606 6:0.094139955 7:0.029450523 8:0.18275163 9:0.10146628 
342.8907359281904 5576.3600117495516 0 0 706.3020174206705 0 1:-0.022058926 2:0.17959913 3:-0.010124259 4:-0.016435899 5:0.17740649 6:-0.0015615533 7:-0.011675407 8:0.17603772 9:0.0050469169 
342.8907359281904 5576.3600117495516 0 122.82380416382 706.3020174206705 11579.151067398334 1:0.040955634 2:0.21105248 3:-0.024083673 4:0.028214523 5:0.20232264 6:-0.022834483 7:0.019080739 8:0.1923009 9:-0.017653354 
193.4855680877414 0 1.2150366251660631 122.82380416382 72.063655473139079 0 1:0.028501496 2:0.048861834 3:0.10635375 4:0.003563126 5:0.027524545 6:0.11440985 7:-0.0048067857 8:0.023660143 9:0.12256057 
342.8907359281904 5576.3600117495516 0 73.845677009033295 706.3020174206705 11579.151067398334 1:0.022113113 2:0.21510243 3:0.0097086539 4:0.017837017 5:0.20981668 6:0.0078169214 7:0.013063947 8:0.20826037 9:0.0035191347 
342.8907359281904 5576.3600117495516 1.2150366251660631 0 706.3020174206705 0 1:-0.017633057 2:0.16365152 3:0.04655026 4:-0.01429687 5:0.15923733 6:0.055721014 7:-0.0048750352 8:0.15251336 9:0.053678004 
0 0 0 122.82380416382 0 0 1:0.058830018 2:0.1819595 3:0.02922362 4:0.057918104 5:0.19432012 6:0.028111117 7:0.057063507 8:0.20830882 9:0.034498052 
342.8907359281904 0 0 122.82380416382 706.3020174206705 11579.151067398334 1:0.026460704 2:0.18476799 3:0.017720229 4:0.045418822 5:0.21146238 6:0.010820386 7:0.059532199 8:0.2303525 9:0.0021533446 
342.8907359281904 5576.3600117495516 1.2150366251660631 0 706.3020174206705 0 1:-0.018575734 2:0.15269442 3:0.023848831 4:-0.010971849 5:0.16051074 6:0.037075315 7:-0.0016039457 8:0.16948742 9:0.056561528 
342.8907359281904 2241.388916785796 1.2150366251660631 0 706.3020174206705 0 1:0.0053666722 2:0.16199658 3:0.018146167 4:0.013268835 5:0.17069952 6:0.018899556 7:0.026415514 8:0.17976387 9:0.028558914 
342.8907359281904 2070.9008553089775 1.2150366251660631 0 706.3020174206705 0 1:-0.012399632 2:0.10121812 3:0.11523112 4:-0.0083972869 5:0.1003912 6:0.11473836 7:-0.0016557676 8:0.1027298 9:0.11331583 
-342.8907359281904 12498.146346333326 0.79564690899637103 36.416123639262466 2916.6115216747335 96.781135217093677 1:-0.014377855 2:0.14893258 3:0.031869356 4:-0.00027920587 5:0.14246206 6:0.018443541 7:0.0074058614 8:0.14579085 9:0.034569957 
-342.8907359281904 12498.146346333326 0.79564690899637103 36.416123639262466 6120.5902712497109 96.781135217093677 1:0.028292647 2:0.13956044 3:-0.024834204 4:0.031273074 5:0.13748097 6:-0.019009124 7:0.016954751 8:0.11813987 9:-0.0016034593 
-256.68010689479212 12498.146346333326 0.79564690899637103 0 6120.5902712497109 0 1:-0.024952858 2:0.16609063 3:0.018540433 4:-0.019398545 5:0.16201149 6:0.015690419 7:-0.019000116 8:0.16798023 9:0.012141064 
-0 12498.146346333326 0.79564690899637103 0 6120.5902712497109 0 1:-0.025454788 2:0.1758989 3:0.016004137 4:-0.024334951 5:0.17552276 6:0.019957253 7:-0.023952883 8:0.17224935 9:0.021323731 
-342.8907359281904 12498.146346333326 0 36.416123639262466 6120.5902712497109 96.781135217093677 1:-0.010442052 2:0.077207618 3:-0.050501432 4:0.010355045 5:0.17625103 6:-0.059842197 7:0.022083066 8:0.18858016 9:-0.058123715 
-342.8907359281904 12498.146346333326 0.79564690899637103 36.416123639262466 6120.5902712497109 96.781135217093677 1:0.079053732 2:0.14122852 3:-0.0054276525 4:0.076055856 5:0.13524365 6:0.01692339 7:0.055901388 8:0.12473293 9:0.0089740607 
-0 12498.146346333326 0 0 343.50492535939702 0 1:-0.01926928 2:0.20133862 3:-0.029269883 4:-0.012528562 5:0.23970022 6:-0.010714465 7:-0.012548478 8:0.2357457 9:0.0077723236 
-0 12498.146346333326 0 0 6120.5902712497109 0 1:-0.017316414 2:0.18043217 3:-0.011714957 4:-0.018651571 5:0.18188855 6:0.0012190671 7:-0.015159154 8:0.19861716 9:-0.0050103745 
-342.8907359281904 12498.146346333326 0.79564690899637103 0 6120.5902712497109 96.781135217093677 1:-0.01603843 2:0.15744863 3:0.079351972 4:-0.010914011 5:0.15271643 6:0.077818977 7:-0.002054833 8:0.14693946 9:0.072832362 
-0 0 0 0 6120.5902712497109 0 1:-0.031679133 2:0.18635824 3:-0.0065790403 4:-0.030448827 5:0.18900966 6:-0.018691475 7:-0.029010825 8:0.15564662 9:-0.013059047 
-0 12498.146346333326 0.79564690899637103 0 6120.5902712497109 0 1:-0.040442197 2:0.18883116 3:0.031738864 4:-0.039730906 5:0.19434728 6:0.023627885 7:-0.018962633 8:0.14419645 9:-0.0024397771 
-0 12498.146346333326 0 0 6120.5902712497109 0 1:-0.037641496 2:0.33172943 3:0.053377146 4:-0.023245686 5:0.28533145 6:-0.01933804 7:-0.023891846 8:0.14419224 9:-0.026999267 
-0 12498.146346333326 0.79564690899637103 0 6120.5902712497109 0 1:-0.025024239 2:0.16698157 3:0.011777049 4:-0.02405301 5:0.18447764 6:0.007775878 7:-0.02155552 8:0.20269854 9:0.0091724152 
-0 12498.146346333326 0 18.915048507891186 6120.5902712497109 0 1:-0.042223322 2:0.2011956 3:-0.020864697 4:-0.010597625 5:0.207985 6:-0.028778406 7:-0.0067623424 8:0.13663904 9:0.0084888056 
-0 12498.146346333326 0.79564690899637103 36.416123639262466 6120.5902712497109 0 1:-0.0054954946 2:0.13547187 3:-0.0081887833 4:-0.038648774 5:0.098164455 6:-0.0040350768 7:-0.04131132 8:0.118676 9:0.018368836 
-342.8907359281904 12498.146346333326 0.79564690899637103 36.416123639262466 6120.5902712497109 96.781135217093677 1:0.01056148 2:0.1395197 3:-0.026289518 4:0.018717017 5:0.19077657 6:-0.0053924653 7:0.02383092 8:0.23011153 9:0.034734619 
-342.8907359281904 12498.146346333326 0.79564690899637103 36.416123639262466 6120.5902712497109 96.781135217093677 1:-0.010473775 2:0.13447227 3:0.028804343 4:-0.0083016995 5:0.11840316 6:0.019011849 7:-0.012865896 8:0.11663952 9:0.00401401 
-0 12498.146346333326 0.79564690899637103 36.416123639262466 6120.5902712497109 0 1:-0.020314382 2:0.1174961 3:-0.026919914 4:-0.020963377 5:0.13141372 6:-0.014983708 7:-0.023382094 8:0.15631536 9:0.0012156365 
-342.8907359281904 12498.146346333326 0.79564690899637103 0 6120.5902712497109 0 1:-0.028098597 2:0.20296554 3:0.010984346 4:-0.028596548 5:0.1984545 6:0.014349561 7:-0.019261343 8:0.14876114 9:0.015478138 
-342.8907359281904 12498.146346333326 0.79564690899637103 36.416123639262466 5570.4588220978858 96.781135217093677 1:0.020965839 2:0.11452828 3:-0.0076275883 4:0.010809274 5:0.068437509 6:0.014889829 7:0.0099228948 8:0.1468359 9:0.028168899 
-0 0 0.79564690899637103 0 2440.6504585899825 0 1:-0.031402059 2:0.10140902 3:-0.014189917 4:-0.045132194 5:0.099740596 6:-0.0053998287 7:-0.029652999 8:0.18629378 9:-0.02423811 
-152.5326145214207 0 0.79564690899637103 36.416123639262466 0 96.781135217093677 1:0.10256234 2:0.057056434 3:-0.13036562 4:0.083022062 5:-0.066690703 6:-0.14756302 7:-0.037026553 8:-0.044620243 9:-0.041563822 
-342.8907359281904 12498.146346333326 0 36.416123639262466 6120.5902712497109 96.781135217093677 1:0.016619019 2:0.29542391 3:-0.017316314 4:0.03110945 5:0.26598195 6:0.018087444 7:0.019592854 8:0.20301461 9:0.049645147 
-52.000051186309939 1184.6646255702613 0.79564690899637103 36.416123639262466 6120.5902712497109 0 1:0.014962834 2:0.13058847 3:-0.029258535 4:-0.0051948137 5:0.13322634 6:-0.042497997 7:-0.02835389 8:0.16620525 9:-0.041940759 
-0 12498.146346333326 0.79564690899637103 0 6120.5902712497109 0 1:-0.010126352 2:0.10760296 3:0.01183628 4:-0.033331077 5:0.13382591 6:0.0065958344 7:-0.041152917 8:0.18439141 9:-0.019470712 
-342.8907359281904 12498.146346333326 0 36.416123639262466 6120.5902712497109 96.781135217093677 1:0.03394376 2:0.16412874 3:-0.015990414 4:0.017992145 5:0.18304342 6:-0.051899145 7:0.0044482972 8:0.19671923 9:-0.073059571 
-0 2019.0794591332781 0 36.416123639262466 2074.7430075752891 0 1:0.011630571 2:0.20378029 3:-0.1459086 4:-0.0047771577 5:0.31337948 6:-0.090195869 7:-0.026705957 8:0.27200489 9:0.076039774 
-342.8907359281904 12498.146346333326 0.79564690899637103 36.416123639262466 6120.5902712497109 96.781135217093677 1:0.013641431 2:0.15765424 3:-0.021029785 4:0.01514792 5:0.17184568 6:-0.022841485 7:0.016217552 8:0.19237445 9:-0.017903585 
-342.8907359281904 12498.146346333326 0.79564690899637103 36.416123639262466 6120.5902712497109 96.781135217093677 1:0.012452708 2:0.21547268 3:0.0026002224 4:0.017256439 5:0.16649067 6:0.0020748768 7:0.00045592631 8:0.12182426 9:-0.012467078 
-0 12498.146346333326 0.79564690899637103 0 0 0 1:-0.023167004 2:0.15722684 3:-0.001934862 4:-0.026724584 5:0.17020195 6:0.010669219 7:-0.042771249 8:0.21251991 9:0.03078844 
-342.8907359281904 12498.146346333326 0.79564690899637103 36.416123639262466 6120.5902712497109 96.781135217093677 1:0.034623532 2:0.18181515 3:0.050154847 4:0.0094474072 5:0.090531022 6:0.05988309 7:0.0081455473 8:0.075493064 9:0.02927788 
-342.8907359281904 12498.146346333326 0.79564690899637103 36.416123639262466 5637.7265458144957 96.781135217093677 1:-0.013907708 2:0.12325214 3:-0.074862815 4:-0.017462967 5:0.10177926 6:0.0025580704 7:0.038879109 8:0.13427061 9:0.060340874 
-0 12498.146346333326 0.79564690899637103 0 6120.5902712497109 0 1:-0.0059922759 2:0.049094307 3:-0.0049480141 4:-0.015094452 5:0.12551958 6:0.022042164 7:-0.031959701 8:0.26328661 9:0.020434693 
-342.8907359281904 12498.146346333326 0.79564690899637103 36.416123639262466 6120.5902712497109 96.781135217093677 1:0.039302639 2:0.14555416 3:-0.0047377645 4:0.049540647 5:0.15414632 6:-0.024769097 7:0.059942823 8:0.12866656 9:-0.023093053 
-0 12498.146346333326 0.79564690899637103 0 0 0 1:-0.025584282 2:0.081286485 3:-0.013090317 4:-0.037718783 5:0.11124537 6:0.00030646671 7:-0.046064623 8:0.18131148 9:0.050434916 
-342.8907359281904 12498.146346333326 0 36.416123639262466 6120.5902712497109 0 1:0.0010507604 2:0.15600724 3:-0.018606769 4:0.00073400012 5:0.15082434 6:-0.018134293 7:-0.0030380119 8:0.21087893 9:-0.027195093 
-0 12498.146346333326 0 36.416123639262466 6120.5902712497109 0 1:-0.0073611874 2:0.16011637 3:-0.04266237 4:-0.0088773053 5:0.15570686 6:-0.032104106 7:-0.012865151 8:0.18501637 9:-0.0072512747 
-342.8907359281904 12498.146346333326 0.79564690899637103 36.416123639262466 6120.5902712497109 96.781135217093677 1:0.016706767 2:0.25579774 3:0.025594837 4:0.026366586 5:0.20110929 6:-0.01496443 7:0.0095005678 8:0.13473137 9:-0.0079997406 
-0 12498.146346333326 0 0 5286.6342643205862 0 1:-0.029004549 2:0.31527757 3:0.02320808 4:-0.0050550623 5:0.27872859 6:0.018120398 7:-0.039774118 8:0.18933384 9:0.01937039 
-0 12498.146346333326 0 0 0 0 1:-0.08021051 2:0.21434758 3:0.041155016 4:-0.070391536 5:0.20162245 6:0.041621505 7:-0.055475165 8:0.17115619 9:-0.025014083 
-0 0 0 36.416123639262466 0 0 1:-0.0048777671 2:0.07371208 3:-0.019713196 4:-0.025451695 5:0.15516286 6:-0.040035155 7:0.0059845037 8:0.28264569 9:-0.048573961 
-342.8907359281904 12498.146346333326 0.79564690899637103 36.416123639262466 6120.5902712497109 96.781135217093677 1:-0.029864558 2:0.19653294 3:0.085321405 4:0.011368003 5:0.13755004 6:0.018834492 7:0.0067287271 8:0.12940577 9:-0.029358463 
-342.8907359281904 12498.146346333326 0.79564690899637103 0 6120.5902712497109 96.781135217093677 1:-0.0076180876 2:0.14414326 3:0.060376573 4:4.0100563e-05 5:0.15405703 6:0.065754137 7:0.0033397782 8:0.16720413 9:0.069973294 
-342.8907359281904 12498.146346333326 0.79564690899637103 36.416123639262466 6120.5902712497109 96.781135217093677 1:0.059050425 2:0.12561633 3:0.047678329 4:0.051768461 5:0.14282864 6:0.033174658 7:0.024361567 8:0.19291607 9:0.043620962 
-13.956839046004886 10105.827717420061 0 0 0 3.9130107044389355 1:-0.042022502 2:0.36935745 3:0.05920532 4:-0.072312128 5:0.49091923 6:0.054466438 7:-0.014276699 8:0.29549938 9:0.072695415 
-0 0 0.79564690899637103 0 0 0 1:-0.02553981 2:0.20317082 3:0.040902901 4:-0.0097674928 5:0.14531388 6:0.013074862 7:-0.037360301 8:0.16884915 9:-0.012606666 
-342.8907359281904 12498.146346333326 0.79564690899637103 0 6120.5902712497109 0 1:-0.022353409 2:0.19395771 3:0.020514356 4:-0.025433328 5:0.20033878 6:0.028072361 7:-0.023382093 8:0.2006691 9:0.036428634 
-342.8907359281904 12498.146346333326 0 36.416123639262466 6120.5902712497109 96.781135217093677 1:0.025109545 2:0.26406296 3:0.037186742 4:0.035031393 5:0.25375732 6:-0.0040957118 7:0.014837468 8:0.21976383 9:0.012405808 
-342.8907359281904 12498.146346333326 0.79564690899637103 36.416123639262466 6120.5902712497109 96.781135217093677 1:0.007968603 2:0.15283983 3:0.010904133 4:0.0020374099 5:0.1544559 6:0.006067675 7:0.0063241645 8:0.17909169 9:0.019318459 
-0 3592.090877407617 0.79564690899637103 36.416123639262466 5219.6568246986662 0 1:-0.0051508235 2:0.28247639 3:0.03038857 4:0.0040912238 5:0.12804771 6:-0.062323649 7:-0.02771859 8:0.078428617 9:0.010467047 
-0 12498.146346333326 0 0 6120.5902712497109 0 1:-0.035741111 2:0.2815853 3:0.022136957 4:-0.038918689 5:0.3037617 6:0.047132838 7:-0.038081624 8:0.2107365 9:0.044838003 
-0 643.03960291925046 0.79564690899637103 36.416123639262466 0 0 1:-0.018790925 2:0.070916577 3:-0.012070517 4:-0.026972825 5:0.050171973 6:0.0034832421 7:-0.035244618 8:0.091691355 9:0.02372849 
-0 12498.146346333326 0.79564690899637103 0 3691.3573797956983 0 1:-0.053186805 2:0.14284169 3:0.015040301 4:-0.075655334 5:0.1401061 6:0.049217222 7:-0.068213122 8:0.14285388 9:-0.017432006 
-342.8907359281904 12498.146346333326 0.79564690899637103 36.416123639262466 3060.2951356248554 96.781135217093677 1:-0.0050074011 2:0.15324229 3:0.020384911 4:0.001120228 5:0.13627481 6:0.013018897 7:-0.006226905 8:0.12639382 9:0.010902355 
-342.8907359281904 12498.146346333326 0.79564690899637103 36.416123639262466 0 96.781135217093677 1:-0.019473619 2:0.075883989 3:-0.0034053949 4:-0.01095149 5:0.09127797 6:0.0090599349 7:-0.0043409571 8:0.10838894 9:0.012851347 
-342.8907359281904 12498.146346333326 0 0 4883.3824668388679 0 1:-0.011909025 2:0.22383137 3:0.011273168 4:-0.020630626 5:0.22689543 6:0.018115842 7:-0.017079493 8:0.21747369 9:0.028375196 
-0 12498.146346333326 0.79564690899637103 36.416123639262466 0 0 1:-0.018805367 2:0.11409397 3:-0.0023243013 4:-0.021385843 5:0.11163439 6:-0.0021292704 7:-0.01581199 8:0.12159 9:-0.00041049903 
-342.8907359281904 12498.146346333326 0.79564690899637103 0 0 96.781135217093677 1:-0.0088938928 2:0.23904022 3:0.011644196 4:-0.0022745329 5:0.17119085 6:-0.0099439752 7:-0.0053343063 8:0.14881678 9:0.023006568 
-342.8907359281904 12498.146346333326 0.79564690899637103 36.416123639262466 6120.5902712497109 96.781135217093677 1:0.060214709 2:0.15480536 3:0.033700915 4:0.06153861 5:0.15811509 6:0.034241506 7:0.047050696 8:0.16118212 9:0.021244841 
-0 0 0.79564690899637103 0 0 0 1:-0.023624202 2:0.14936084 3:0.00088350871 4:-0.017159296 5:0.13449391 6:-0.011393525 7:-0.037697232 8:0.19425906 9:0.004632481 
-342.8907359281904 0 0.79564690899637103 36.416123639262466 0 96.781135217093677 1:-0.011210565 2:0.18339995 3:0.018082221 4:-0.0065567028 5:0.18261821 6:0.026888903 7:0.00028167296 8:0.14897187 9:0.013470855 
-342.8907359281904 12498.146346333326 0.79564690899637103 36.416123639262466 4715.2820867812652 96.781135217093677 1:0.0040819089 2:0.10647404 3:0.06737702 4:-0.005233091 5:0.10089282 6:0.09690429 7:0.035543016 8:0.23744205 9:0.096812567 
-0 1717.3722923058767 0 0 0 0 1:-0.026810179 2:0.19091034 3:0.021366891 4:-0.029026528 5:0.2040356 6:0.022926997 7:-0.02980628 8:0.20523163 9:0.025419014 
-0 0 0.79564690899637103 0 0 0 1:-0.061011682 2:0.1871379 3:0.020066747 4:-0.046493571 5:0.16762862 6:0.011095696 7:-0.035747154 8:0.13722419 9:0.01490347 
-0 0 0.79564690899637103 0 0 0 1:-0.020128034 2:0.18219094 3:-0.0056194465 4:-0.014899509 5:0.16460034 6:0.013778366 7:-0.03114238 8:0.19344479 9:0.0092531097 
-0 12498.146346333326 0.79564690899637103 0 0 0 1:-0.055570249 2:0.15649331 3:0.090772596 4:-0.045810277 5:0.10236472 6:0.096629513 7:-0.031305488 8:0.17626775 9:0.11329844 
-0 1617.224596484828 0 0 0 0 1:-0.095665747 2:0.2002618 3:-0.12397319 4:-0.142708 5:0.20690545 6:0.043985982 7:-0.076143916 8:0.21577603 9:0.092273846 
-342.8907359281904 0 0.79564690899637103 6.6592746876119087 0 96.781135217093677 1:-0.028168575 2:0.17473867 3:0.016855333 4:-0.0085998903 5:0.16368803 6:0.030764969 7:-0.0041164707 8:0.12493616 9:0.027548966 
-342.8907359281904 12498.146346333326 0 36.416123639262466 6120.5902712497109 96.781135217093677 1:-0.035067387 2:0.12899186 3:-0.043292193 4:-0.00026705911 5:0.28741211 6:-0.027675594 7:0.059179864 8:0.29275275 9:0.0074523545 
-0 0 0.79564690899637103 36.416123639262466 0 0 1:-0.019472534 2:0.13264727 3:-0.010559266 4:-0.026374955 5:0.11891484 6:-0.0044727288 7:-0.032258093 8:0.13838381 9:0.0042413935 
-16.876563425859572 9488.3213284707163 0.79564690899637103 0 6120.5902712497109 0 1:-0.054447741 2:0.16405898 3:0.018935789 4:-0.0372198 5:0.22532782 6:0.048170085 7:-0.013122248 8:0.15660676 9:-0.013546487 
-342.8907359281904 0 0.79564690899637103 36.416123639262466 4475.6702268860272 96.781135217093677 1:-0.00012274885 2:0.10964875 3:-0.0076802794 4:0.022736531 5:0.15020157 6:-0.0015325937 7:0.013654183 8:0.1577298 9:-0.0012613666 
-325.14243221168522 0 0.79564690899637103 0 0 0 1:-0.036047926 2:0.21975621 3:0.035030454 4:-0.016087314 5:0.1903346 6:0.015783918 7:-0.010763707 8:0.13412156 9:-0.0025570704 
-0 0 0.79564690899637103 0 0 0 1:-0.03357849 2:0.15891232 3:0.0079556642 4:-0.033865049 5:0.18837109 6:0.0070404861 7:-0.021986531 8:0.17256261 9:0.0074953382 
-0 0 0.79564690899637103 0 0 0 1:-0.017863825 2:0.27005117 3:-0.012910903 4:-0.044197671 5:0.085234303 6:0.074979533 7:-0.033442229 8:0.071019541 9:0.0089961766 
-0 0 0.79564690899637103 36.416123639262466 1892.5375046788715 0 1:-0.027993143 2:0.12087905 3:-0.025260574 4:-0.010929573 5:0.10886433 6:0.0055929125 7:-0.0021568189 8:0.098550846 9:-4.4243489e-05 
-342.8907359281904 0 0.79564690899637103 0 1063.2323317484907 96.781135217093677 1:-0.010730095 2:0.1542 3:0.00459073 4:-0.0057648006 5:0.18573846 6:0.041226426 7:0.0063984962 8:0.21892994 9:0.013029786 
-342.8907359281904 0 0.79564690899637103 36.416123639262466 0 96.781135217093677 1:-0.021091555 2:0.12395289 3:0.018912929 4:-0.010473742 5:0.12905066 6:0.040118143 7:0.0085548096 8:0.13780817 9:0.032706969 
-18.26642968949967 0 0 1.7377695339437653 0 96.781135217093677 1:0.026880526 2:0.2279381 3:0.0036943223 4:0.012222031 5:0.3368925 6:0.010622132 7:-0.013603005 8:0.42453304 9:-0.024350788 
-342.8907359281904 4204.4086399212665 0.79564690899637103 36.416123639262466 6120.5902712497109 96.781135217093677 1:0.0345923 2:0.23901605 3:0.027974899 4:0.013773966 5:0.21227445 6:0.014675026 7:0.00095161516 8:0.14951195 9:-0.0053433539 
-342.8907359281904 2079.2137841746512 0.79564690899637103 36.416123639262466 3722.8670457563844 96.781135217093677 1:0.020868553 2:0.19140358 3:0.018224096 4:0.011735514 5:0.13943799 6:-0.00097513108 7:-0.0015632391 8:0.12337772 9:0.015748957 
-0 0 0.79564690899637103 36.416123639262466 0 0 1:-0.014557126 2:0.21996244 3:0.01306999 4:-0.0093710402 5:0.13898446 6:-0.025226134 7:-0.016693869 8:0.099604809 9:-0.0166681 
-342.8907359281904 471.32716930180459 0 36.416123639262466 6120.5902712497109 96.781135217093677 1:0.043679001 2:0.13001856 3:0.016541523 4:0.029515187 5:0.23535543 6:0.011993915 7:0.024380998 8:0.34458732 9:-0.0073701411 
-342.8907359281904 12498.146346333326 0.79564690899637103 36.416123639262466 6120.5902712497109 96.781135217093677 1:0.045847615 2:0.13801728 3:0.02817394 4:0.033872756 5:0.11421158 6:0.039668987 7:0.037706291 8:0.18022676 9:0.059777692 
-342.8907359281904 0 0.79564690899637103 0 5171.687580907158 68.672840708381315 1:-0.0030162894 2:0.13208444 3:0.0062984468 4:-0.012495665 5:0.1714388 6:0.013362802 7:-0.018715192 8:0.20503707 9:0.024023536 
-342.8907359281904 1551.6375527758703 0.79564690899637103 36.416123639262466 6120.5902712497109 96.781135217093677 1:0.021759892 2:0.14653198 3:0.0080311656 4:0.0043898455 5:0.16618156 6:0.021867328 7:0.014618682 8:0.17764077 9:0.0070348345 
-342.8907359281904 0 0 36.416123639262466 609.32817347322202 96.781135217093677 1:-0.014575924 2:0.25798257 3:-0.032820731 4:0.026994774 5:0.29758833 6:-0.078992936 7:0.084302033 8:0.28457498 9:-0.083458137 
-342.8907359281904 12480.494887212073 0.79564690899637103 36.416123639262466 0 96.781135217093677 1:0.025250732 2:0.075884307 3:-0.0078494985 4:0.0015563373 5:0.031935116 6:0.011068588 7:0.0019486351 8:0.0042341956 9:0.0057039764 
-342.8907359281904 12498.146346333326 0.79564690899637103 36.416123639262466 0 96.781135217093677 1:0.009691958 2:0.22971863 3:0.042642651 4:0.014081186 5:0.22571189 6:0.021294902 7:0.0085325756 8:0.17433028 9:0.016019066 
-0 1249.2524432154235 0 0 0 0 1:-0.038622386 2:0.3331056 3:0.055478814 4:-0.027601587 5:0.13101551 6:-0.076826717 7:-0.019382032 8:0.11431027 9:0.0097586771 
-0 928.16446395625735 0.79564690899637103 0 965.03168933222344 0 1:-0.0042108588 2:0.12387209 3:-0.0094086272 4:-0.023086276 5:0.10853583 6:-0.007383241 7:-0.034941182 8:0.17714163 9:0.041061454 
-342.8907359281904 11237.826075572046 0 36.416123639262466 0 96.781135217093677 1:0.037505929 2:0.23570255 3:0.02406236 4:0.031970874 5:0.29273572 6:0.031347736 7:0.01571889 8:0.45495333 9:0.026103219 
-342.8907359281904 0 0.59673518174727824 36.416123639262466 525.53985616786065 96.781135217093677 1:0.042815834 2:0.32026092 3:-0.01016009 4:0.012696651 5:0.16677338 6:0.013933968 7:0.00090556234 8:0.14391255 9:0.030613269 
-278.93985479104668 10418.932562158674 0.79564690899637103 0 6120.5902712497109 96.781135217093677 1:-0.033075751 2:0.25633439 3:0.080585274 4:-0.022265518 5:0.14999179 6:0.10732698 7:0.0076622438 8:0.11363996 9:-0.02185278 
-4303.3576601689065 -12498.146346333326 0 0 9403.4470678086473 0 1:-0.044885452 2:0.23003501 3:0.035078668 4:-0.010601441 5:0.20746315 6:0.050316207 7:0.0034495318 8:0.19575641 9:0.063247437 
-4366.4991599726618 -0 0.93875804502754834 0 9403.4470678086473 0 1:-0.03387675 2:0.15026233 3:0.070796674 4:-0.030126513 5:0.14953991 6:0.075654915 7:-0.02220162 8:0.1441218 9:0.077713798 
-5576.3600117495516 -12498.146346333326 0 25.006622020981315 9403.4470678086473 4432.3532019580443 1:0.0078743239 2:0.15441621 3:0.0077099745 4:0.010836226 5:0.1731069 6:0.007254853 7:0.019736198 8:0.17827758 9:0.0092324642 
-5576.3600117495516 -0 0 25.006622020981315 9403.4470678086473 4432.3532019580443 1:0.05237509 2:0.20081332 3:0.026292837 4:0.050243966 5:0.21616464 6:0.019384202 7:0.044789732 8:0.22079351 9:0.020805553 
-0 -12498.146346333326 0 0 9403.4470678086473 0 1:-0.037836488 2:0.24170201 3:0.0090663087 4:-0.049666034 5:0.23859563 6:0.00480406 7:-0.053205868 8:0.22244965 9:-0.0070435466 
-5576.3600117495516 -0 0.93875804502754834 0 0 4432.3532019580443 1:0.028501079 2:0.16285041 3:0.10491272 4:0.039443861 5:0.17673342 6:0.10754954 7:0.050280087 8:0.19539521 9:0.095683872 
-0 -12498.146346333326 0 0 6854.5433425862757 235.75359763042297 1:-0.17372276 2:0.28188635 3:0.087675901 4:-0.11898176 5:0.26924408 6:0.064638086 7:-0.032075228 8:0.24087123 9:0.054000524 
-5576.3600117495516 -12498.146346333326 0.93875804502754834 25.006622020981315 9403.4470678086473 4432.3532019580443 1:0.028210307 2:0.15239345 3:0.00057793203 4:0.029275869 5:0.1555179 6:0.0026006941 7:0.028120005 8:0.15708915 9:0.0012642263 
-0 -12498.146346333326 0 0 9403.4470678086473 0 1:-0.0018782791 2:0.20238457 3:-0.012042659 4:-0.012551961 5:0.2057438 6:-0.0014628905 7:-0.019360723 8:0.21462951 9:0.0048221204 
-5576.3600117495516 -12498.146346333326 0.93875804502754834 0 9403.4470678086473 0 1:-0.049539611 2:0.14719206 3:0.036301356 4:-0.040545544 5:0.15044293 6:0.04659577 7:-0.032346133 8:0.15315199 9:0.057919626 
-5576.3600117495516 -12498.146346333326 0.93875804502754834 0 9403.4470678086473 0 1:-0.010511139 2:0.16071929 3:0.054054705 4:-0.011378037 5:0.15353126 6:0.054145007 7:-0.010511139 8:0.14542215 9:0.053458713 
-5576.3600117495516 -12498.146346333326 0 25.006622020981315 9403.4470678086473 2310.752133110509 1:0.042514125 2:0.16185709 3:-0.040039853 4:0.036861227 5:0.15907399 6:-0.022033659 7:0.016218218 8:0.16285041 9:0.014267697 
-5576.3600117495516 -12498.146346333326 0.93875804502754834 25.006622020981315 9403.4470678086473 4432.3532019580443 1:0.015008172 2:0.14583754 3:0.010390134 4:0.02259353 5:0.14361611 6:0.0017337961 7:0.028535394 8:0.13781873 9:-0.00034314714 
-5576.3600117495516 -12498.146346333326 0.93875804502754834 25.006622020981315 9403.4470678086473 4432.3532019580443 1:0.030178888 2:0.15130983 3:0.0098790256 4:0.027921341 5:0.14827569 6:0.0057612599 7:0.027343409 8:0.14672249 9:0.0060863467 
-5280.7256883442087 -0 0.93875804502754834 0 9403.4470678086473 4432.3532019580443 1:0.021726632 2:0.12004732 3:0.073664661 4:0.030503975 5:0.12681996 6:0.071302364 7:0.034675922 8:0.12840927 9:0.068665549 
-5576.3600117495516 -12498.146346333326 0 0 9403.4470678086473 0 1:-0.0091024295 2:0.17504116 3:0.041900072 4:-0.0036481959 5:0.17189866 6:0.031605658 7:-0.0037746186 8:0.16888258 9:0.034621741 
-5576.3600117495516 -12498.146346333326 0 25.006622020981315 9403.4470678086473 4432.3532019580443 1:0.030558156 2:0.16180291 3:-0.0048943619 4:0.033538118 5:0.15815471 6:-0.011269675 7:0.032869884 8:0.15938282 9:-0.010366656 
-5576.3600117495516 -6172.5434127253975 0.93875804502754834 25.006622020981315 9403.4470678086473 4432.3532019580443 1:0.039498042 2:0.13725886 3:0.012537513 4:0.04130408 5:0.13803545 6:0.01443024 7:0.040148216 8:0.14052779 9:0.014249637 
-0 -12498.146346333326 0 0 9403.4470678086473 0 1:-0.051183105 2:0.18729513 3:0.013417053 4:-0.040653906 5:0.18038703 6:0.017807531 7:-0.031099967 8:0.17017389 9:0.021257062 
-5576.3600117495516 -12498.146346333326 0 0 9403.4470678086473 0 1:0.014665025 2:0.18195829 3:0.029492594 4:0.0061585882 5:0.18222919 6:0.030377552 7:0.0046415166 8:0.18057486 9:0.028553454 
-5576.3600117495516 -0 0.93875804502754834 25.006622020981315 3474.3919006708688 4432.3532019580443 1:0.072295685 2:0.12100452 3:0.14450107 4:0.064710327 5:0.11146864 6:0.11401515 7:0.058551739 8:0.14087093 9:0.1126245 
-5576.3600117495516 -3131.5256584835897 0.93875804502754834 25.006622020981315 9403.4470678086473 4432.3532019580443 1:0.036933469 2:0.14318266 3:0.0091566106 4:0.038721446 5:0.15625837 6:0.012262995 7:0.042869914 8:0.16355476 9:0.011937909 
-5576.3600117495516 -12498.146346333326 0.93875804502754834 25.006622020981315 9403.4470678086473 4432.3532019580443 1:0.041827831 2:0.14522348 3:-0.0067365202 4:0.039678646 5:0.15750454 6:-0.0022756074 7:0.037096012 8:0.16735828 9:-0.00057793203 
-5576.3600117495516 -0 0.93875804502754834 0 9403.4470678086473 0 1:-0.007928505 2:0.16055674 3:0.064240757 4:0.00720609 5:0.13400799 6:0.05860592 7:0.0021491847 8:0.11883727 9:0.051761037 
-5576.3600117495516 -9797.4605258558677 0.93875804502754834 25.006622020981315 7406.5092632075521 0 1:-0.01919818 2:0.078363971 3:0.031768201 4:-0.014321878 5:0.074390689 6:0.029203628 7:-0.0060285535 8:0.071880296 9:0.031533416 
-5576.3600117495516 -12498.146346333326 0 25.006622020981315 9403.4470678086473 4432.3532019580443 1:0.025790217 2:0.16342834 3:0.0079917164 4:0.024580172 5:0.1672752 6:0.0081705141 7:0.024453749 8:0.16870197 9:0.0064927052 
-5576.3600117495516 -12498.146346333326 0.93875804502754834 25.006622020981315 9403.4470678086473 0 1:0.02495944 2:0.14044958 3:0.0054361732 4:0.023099221 5:0.14144345 6:0.0047859996 7:0.020805553 8:0.14298941 9:0.0017879772 
-3614.2146712959375 -12498.146346333326 0.93875804502754834 0 9403.4470678086473 0 1:-0.023586851 2:0.11672421 3:0.050009181 4:-0.017392142 5:0.1105295 6:0.052580979 7:-0.013780067 8:0.10903049 9:0.050549186 
-3474.6089048050867 -0 0.93875804502754834 25.006622020981315 858.08979415302531 4432.3532019580443 1:0.064908991 2:0.17859906 3:0.079718499 4:0.054917991 5:0.12360521 6:0.01439412 7:0.017446323 8:0.067365202 9:-0.022701893 
-5576.3600117495516 -0 0.93875804502754834 0 9403.4470678086473 0 1:0.055553716 2:0.16963389 3:0.086978771 4:0.041448563 5:0.1726879 6:0.099566853 7:0.026839525 8:0.17607422 9:0.11571102 
-0 -11093.416729701461 0 0 9403.4470678086473 0 1:0.019739991 2:0.20946424 3:0.061309558 4:0.0066823391 5:0.26321192 6:0.00039732827 7:-0.020047017 8:0.27421069 9:-0.037529461 
-5576.3600117495516 -12498.146346333326 0 0 9403.4470678086473 0 1:-0.0079357292 2:0.1904286 3:0.04130408 4:-0.013745752 5:0.18318639 6:0.046288744 7:-0.012317176 8:0.18054958 9:0.045927536 
-5576.3600117495516 -12498.146346333326 0 25.006622020981315 9403.4470678086473 4432.3532019580443 1:0.032761522 2:0.1592582 3:-0.0024562111 4:0.028589575 5:0.15853579 6:0.00032508677 7:0.024092542 8:0.16333623 9:0.0013545282 
-1764.9582102366769 -7145.4324122519038 0 0 7975.0317781414751 4432.3532019580443 1:0.064999293 2:0.20316117 3:0.15833532 4:0.060213293 5:0.29926043 6:0.15176134 7:0.045187061 8:0.40599725 9:0.054217249 
-5576.3600117495516 -12498.146346333326 0.93875804502754834 25.006622020981315 9403.4470678086473 4432.3532019580443 1:0.029907983 2:0.14991918 4:0.029366171 5:0.14963021 6:0.0024200904 7:0.032255831 8:0.14735461 9:0.0037565582 
-5576.3600117495516 -12498.146346333326 0 25.006622020981315 9403.4470678086473 4432.3532019580443 1:0.03456756 2:0.18589545 3:0.0010645508 4:0.023388187 5:0.18125393 6:0.0035723424 7:0.014737267 8:0.17747931 9:0.0051706856 
-5576.3600117495516 -12498.146346333326 0.70406853377066125 25.006622020981315 9403.4470678086473 0 1:0.017498698 2:0.16102631 3:0.007928505 4:0.018638308 5:0.15956342 6:0.0085606182 7:0.021257062 8:0.15692661 9:0.007639539 
-5576.3600117495516 -12498.146346333326 0 25.006622020981315 9403.4470678086473 0 1:0.016434942 2:0.15887713 3:0.0053097505 4:0.01439412 5:0.15716139 6:0.0035940148 7:0.017626927 8:0.15418143 9:0.0010113811 
-5576.3600117495516 -12498.146346333326 0.93875804502754834 25.006622020981315 9403.4470678086473 4432.3532019580443 1:0.041593046 2:0.16873448 3:-0.010655622 4:0.032346133 5:0.15015397 6:0.00093913955 7:0.024471809 8:0.1449887 9:0.0054253369 
-5576.3600117495516 -12498.146346333326 0 25.006622020981315 9403.4470678086473 4432.3532019580443 1:0.042387702 2:0.19562999 3:-0.031551477 4:0.038071272 5:0.18197165 6:-0.026350089 7:0.031099967 8:0.16624757 9:-0.0081813503 
-5576.3600117495516 -12498.146346333326 0 25.006622020981315 9403.4470678086473 4432.3532019580443 1:0.02495944 2:0.16614643 3:0.0033050488 4:0.021437666 5:0.17189324 6:0.005237509 7:0.018529946 8:0.17668466 9:0.0022214262 
-0 -12498.146346333326 0 0 9403.4470678086473 0 1:-0.086147993 2:0.22338879 3:-0.0015279078 4:-0.093047057 5:0.20868764 6:-0.0021491847 7:-0.092685849 8:0.20146349 9:-0.0065378561 
-5576.3600117495516 -0 0.93875804502754834 0 9403.4470678086473 4432.3532019580443 1:0.033068548 2:0.13404411 3:0.097327366 4:0.044302102 5:0.14188231 6:0.10850674 7:0.054668758 8:0.15056935 9:0.11442332 
-0 -12498.146346333326 0 0 9403.4470678086473 0 1:-0.054433973 2:0.22913199 3:0.04274891 4:-0.024562111 5:0.20243875 6:0.054813241 7:-0.0015441621 8:0.18425196 9:0.077117805 
-5576.3600117495516 -0 0.93875804502754834 0 0 0 1:0.025471812 2:0.1787616 3:0.15354932 4:0.021582149 5:0.18732222 6:0.16747387 7:0.016019553 8:0.19064533 9:0.1748425 
-5576.3600117495516 -12498.146346333326 0.93875804502754834 0 9403.4470678086473 0 1:-0.038179635 2:0.16561365 3:0.047859996 4:-0.025410949 5:0.16434942 6:0.05670958 7:-0.015694467 8:0.16398821 9:0.059057429 
-5128.1622105538181 -12498.146346333326 0 0 0 0 1:-0.11316632 2:0.28932722 3:-0.0020227621 4:-0.12914975 5:0.31081907 6:-0.047748022 7:-0.077460952 8:0.25454294 9:-0.031659839 
-5576.3600117495516 -11478.553146849548 0 25.006622020981315 9403.4470678086473 4432.3532019580443 1:0.053241988 2:0.1796043 3:-0.024796896 4:0.041105416 5:0.15205031 6:-0.011775365 7:0.027235047 8:0.13364678 9:0.0030919364 
-2124.5567115867029 -12498.146346333326 0.93875804502754834 0 9403.4470678086473 0 1:-0.047968359 2:0.18011613 3:0.05997309 4:-0.028065824 5:0.15457153 6:0.060960993 7:0.00018060376 8:0.12842733 9:0.046436839 
-5576.3600117495516 -12498.146346333326 0 25.006622020981315 9403.4470678086473 4432.3532019580443 1:0.031952417 2:0.17247659 3:-0.046216502 4:0.02432552 5:0.15941894 6:-0.029203628 7:0.0090464423 8:0.15607777 9:-0.0098880558 
-5576.3600117495516 -12498.146346333326 0.93875804502754834 25.006622020981315 9403.4470678086473 4432.3532019580443 1:0.032960186 2:0.15559014 3:0.00095719993 4:0.034513378 5:0.15297138 6:0.0049124223 7:0.034007688 8:0.15060548 9:0.0062850108 
-0 -12498.146346333326 0 0 9403.4470678086473 0 1:-0.018602187 2:0.24399568 3:-0.036174933 4:-0.040870631 5:0.24634353 6:-0.043435204 7:-0.072241504 8:0.26332028 9:-0.035615061 
-0 -12498.146346333326 0 0 9403.4470678086473 0 1:-0.056926305 2:0.18060376 3:0.013689765 4:-0.060592561 5:0.18096497 6:0.023297885 7:-0.059129671 8:0.1728378 9:0.039696706 
-5576.3600117495516 -12498.146346333326 0 25.006622020981315 9403.4470678086473 4432.3532019580443 1:0.053025264 2:0.16301295 3:-0.0023117281 4:0.045295423 5:0.15833532 6:-0.010782044 7:0.032906005 8:0.15794521 9:-0.020281802 
-5576.3600117495516 -1482.8342674524131 0 0 9403.4470678086473 0 1:-0.0026006941 2:0.18869481 3:0.059021309 4:-0.0084522559 5:0.18529946 6:0.052086124 7:-0.013346618 8:0.17881578 9:0.052953022 
-5576.3600117495516 -0 0.93875804502754834 0 9403.4470678086473 0 1:0.004274891 2:0.14117796 3:0.063066833 4:0.0054181128 5:0.13296049 6:0.065089595 7:0.0073776636 8:0.12423733 9:0.064816883 
-5576.3600117495516 -0 0.93875804502754834 0 0 2596.1295024769388 1:0.051435951 2:0.19190955 3:0.12481526 4:0.044392404 5:0.17809337 6:0.12562798 7:0.038956231 8:0.16561365 9:0.12654905 
-5576.3600117495516 -12498.146346333326 0.93875804502754834 25.006622020981315 9403.4470678086473 0 1:0.0091367442 2:0.13906489 3:-0.00043344902 4:0.0058389195 5:0.14368835 6:0.0089366352 7:0.0089796189 8:0.14963021 9:0.0015658346 
-5576.3600117495516 -12498.146346333326 0.93875804502754834 25.006622020981315 9403.4470678086473 4432.3532019580443 1:0.018349342 2:0.12337043 3:0.0089037653 4:0.02304504 5:0.12255771 6:0.0057973807 7:0.028174186 8:0.13173238 9:0.0031605658 
-0 -12498.146346333326 0 0 0 0 1:-0.041430502 2:0.22609785 3:0.022891527 4:-0.072927798 5:0.25143655 6:0.067690289 7:-0.055824622 8:0.30543708 9:0.070670251 
-5576.3600117495516 -12498.146346333326 0 25.006622020981315 9403.4470678086473 4432.3532019580443 1:0.017482444 2:0.17894762 3:-0.017048995 4:0.022378612 5:0.1871958 6:-0.01538744 7:0.022287226 8:0.19112899 9:-0.015080414 
-5576.3600117495516 -0 0 25.006622020981315 9403.4470678086473 4432.3532019580443 1:0.029871862 2:0.17290823 3:0.010343177 4:0.031094549 5:0.16758223 6:0.011527938 7:0.026032226 8:0.16165843 9:0.012813837 
-1147.3639191191228 -0 0 25.006622020981315 9403.4470678086473 4432.3532019580443 1:0.019974776 2:0.24148529 3:-0.0013364678 4:0.019053697 5:0.25746872 6:-3.6120752e-05 7:0.018006195 8:0.26765477 9:0.0025284526 
-0 -0 0.93875804502754834 0 9403.4470678086473 0 1:-0.0032508677 2:0.11338304 3:0.054795181 4:-0.0019053697 5:0.10742312 6:0.053966209 7:-0.00093913955 8:0.098429049 9:0.053904804 
-0 -0 0 0 9403.4470678086473 0 1:-0.037312737 2:0.16400627 3:0.027469832 4:-0.027000262 5:0.16290459 6:0.032833763 7:-0.015965372 8:0.16362701 9:0.036301356 
-0 -0 0.93875804502754834 0 0 0 1:0.054993845 2:0.20471436 3:0.11015023 4:0.041571373 5:0.20104449 6:0.11286471 7:0.034766224 8:0.19966649 9:0.11452807 
-1809.8932723562286 -0 0 0 1892.0250697797946 0 1:-0.015622225 2:0.17646793 3:0.033086609 4:-0.0095719993 5:0.17375888 6:0.041430502 7:0.016687787 8:0.17941972 9:0.043037876 
-5576.3600117495516 -0 0.93875804502754834 25.006622020981315 0 4432.3532019580443 1:0.038179635 2:0.18078436 3:0.016850331 4:0.044518827 5:0.15795605 6:0.021883758 7:0.045132879 8:0.14520542 9:0.011612822 
-5576.3600117495516 -0 0.93875804502754834 25.006622020981315 0 4432.3532019580443 1:0.047300125 2:0.11670615 3:0.064999293 4:0.051183105 5:0.13057652 6:0.071808055 7:0.047896117 8:0.14796866 9:0.078978024 
-461.40713268431409 -0 0.93875804502754834 0 0 0 1:0.036355537 2:0.12564604 3:0.15302557 4:0.033375575 5:0.13218389 6:0.14540409 7:0.02882436 8:0.14079869 9:0.14209904 
-5576.3600117495516 -0 0.93875804502754834 0 0 4432.3532019580443 1:0.054650698 2:0.14052779 3:0.11961387 4:0.062145754 5:0.15428979 6:0.12037241 7:0.064493603 8:0.16597485 9:0.11851219 
-0 -0 0.93875804502754834 0 0 0 1:-0.016453002 2:0.1489981 3:0.066408002 4:-0.018782791 5:0.14357999 6:0.059490878 7:-0.02208784 8:0.1394261 9:0.052266728 
-0 -0 0.93875804502754834 0 0 0 1:-0.019342663 2:0.12595306 3:0.058298894 4:-0.01564751 5:0.11098101 6:0.060411958 7:-0.012286474 8:0.095719993 9:0.065270199 
-0 -0 0 25.006622020981315 0 3139.0436594955277 1:0.024688534 2:0.17329111 3:-0.00050569053 4:0.020950036 5:0.16938827 6:0.0066263519 7:0.021527968 8:0.16862973 9:0.0062868169 
-0 -0 0 25.006622020981315 0 4432.3532019580443 1:0.032057167 2:0.16989396 3:-0.0018602187 4:0.030431733 5:0.16861167 6:0.0024417628 7:0.029366171 8:0.1653608 9:0.0050027241 
-0 -0 0.93875804502754834 25.006622020981315 0 4432.3532019580443 1:0.07446293 2:0.16196545 3:0.091902029 4:0.066353821 5:0.17193478 6:0.097016728 7:0.049629913 8:0.1758304 9:0.11179373 
-5576.3600117495516 -0 0.93875804502754834 25.006622020981315 0 0 1:0.032400314 2:0.10075884 3:0.067383263 4:0.033375575 5:0.098925709 6:0.078833541 7:0.034784284 8:0.10561708 9:0.094925336 
-0 -12498.146346333326 0.93875804502754834 25.006622020981315 0 0 1:0.020372104 2:0.13147954 3:0.015477742 4:0.022250383 5:0.13256316 6:0.016037614 7:0.0030702639 8:0.14287563 9:0.013794515 
-0 -12498.146346333326 0 0 0 0 1:-0.04196509 2:0.16290459 3:0.018602187 4:-0.04179171 5:0.1539647 6:0.020047017 7:-0.043760291 8:0.14883556 9:0.033050488 
-0 -11015.312078880914 0 0 0 0 1:-0.057576479 2:0.20142737 3:0.050749656 4:-0.034079929 5:0.16442166 6:0.053729618 7:-0.012353297 8:0.16578883 9:0.054903543 
-3910.0406111593284 -0 0.93875804502754834 25.006622020981315 1049.6498379187103 4432.3532019580443 1:0.064800629 2:0.18192217 3:0.083908507 4:0.057847384 5:0.18008001 6:0.079212809 7:0.064042093 8:0.17034547 9:0.082393241 
-0 -0 0.93875804502754834 0 0 0 1:-0.019541327 2:0.16503572 3:0.050478751 4:-0.022160081 5:0.1679615 6:0.053549015 7:-0.018457704 8:0.18352954 9:0.060339716 
-5576.3600117495516 -0 0.93875804502754834 25.006622020981315 0 4432.3532019580443 1:0.058750403 2:0.15309781 3:0.065035414 4:0.059870146 5:0.16548488 6:0.056510916 7:0.057305573 8:0.17106788 9:0.058732343 
-0 -0 0.93875804502754834 0 0 0 1:-0.013039591 2:0.16760029 3:0.053603196 4:-0.010276354 5:0.17603448 6:0.059292214 7:-0.0072241504 8:0.17827397 9:0.062525022 
-0 -0 0.93875804502754834 25.006622020981315 0 2609.7643151966322 1:0.015658346 2:0.14112378 3:-0.00050569053 4:0.019938655 5:0.15040681 6:0.007495056 7:0.023929998 8:0.15564432 9:0.0050569053 
-0 -12498.146346333326 0.93875804502754834 0 0 0 1:-0.029745439 2:0.15568044 3:0.02736147 4:-0.016525244 5:0.14625292 6:0.031509938 7:-0.013310497 8:0.15754066 9:0.036099079 
-0 -0 0.93875804502754834 0 4268.7271753030209 0 1:0.006772641 2:0.14818538 3:0.084378076 4:-0.0034314714 5:0.18074824 6:0.055210569 7:-0.0182771 8:0.21603822 9:0.027235047 
-0 -0 0 12.779557854354197 0 0 1:0.014618068 2:0.18811688 3:0.00480406 4:0.0062127693 5:0.1824098 6:0.0020950036 7:0.0032869884 8:0.18233756 9:0.0048401808 
-0 -2837.0509723862529 0 0 0 0 1:-0.15802829 2:0.31228196 3:0.028083885 4:-0.12933035 5:0.3009581 6:0.013978731 7:-0.093263781 8:0.27915923 9:0.017374082 
-0 -0 0 0 1034.4580937346429 0 1:-0.034377926 2:0.18331282 3:0.044934215 4:-0.037240495 5:0.18674429 6:0.037023771 7:-0.031406994 8:0.18329295 9:0.027668496 
-5576.3600117495516 -0 0.93875804502754834 25.006622020981315 0 4432.3532019580443 1:0.044276818 2:0.15988851 3:0.012046271 4:0.044596486 5:0.16052062 6:0.013057652 7:0.043977015 8:0.16003299 9:0.011847607 
-0 -12001.744976659702 0 0 9403.4470678086473 0 1:-0.025808277 2:0.20695385 3:-0.027794919 4:-0.050751462 5:0.20744148 6:-0.019017576 7:-0.079465654 8:0.22358745 9:0.0010655622 
-0 -12498.146346333326 0.93875804502754834 25.006622020981315 9403.4470678086473 0 1:0.0004515094 2:0.14404956 3:-0.0066462183 4:0.0030702639 5:0.14460943 6:-0.0012281056 7:0.0089760068 8:0.14311042 9:0.0054000524 
-0 -12498.146346333326 0.93875804502754834 0 0 0 1:-0.056254459 2:0.16615546 3:0.040978993 4:-0.042351582 5:0.14471779 6:0.050858019 7:-0.03556088 8:0.13529028 9:0.045277363 
-0 -12498.146346333326 0.93875804502754834 0 894.21410089589938 0 1:-0.0078959964 2:0.13617523 3:0.017337961 4:-0.0078201428 5:0.14314654 6:0.010655622 7:0.0050262026 8:0.1497747 9:-0.00074228145 
-0 -12498.146346333326 0.93875804502754834 25.006622020981315 0 0 1:0.008501019 2:0.15112923 3:0.0034459197 4:0.0040635846 5:0.15006366 6:0.0082770703 7:0.0043525506 8:0.15000948 9:0.0089615585 
-0 -0 0.93875804502754834 0 775.75322235601823 0 1:0.0086689805 2:0.17103176 3:0.093534687 4:0.016434942 5:0.16434942 6:0.078996084 7:0.0045873355 8:0.15766708 9:0.064150455 
-0 -0 0.93875804502754834 0 0 0 1:0.0082174711 2:0.10579768 3:0.064627249 4:0.013689765 5:0.09840557 6:0.066489274 7:0.01938962 8:0.096397257 9:0.065573613 
-0 -12498.146346333326 0 25.006622020981315 9403.4470678086473 4432.3532019580443 1:0.0040148216 2:0.1152252 3:-0.074011421 4:0.0033520058 5:0.14733655 6:-0.065992614 7:0.024670474 8:0.16586649 9:-0.047769694 
-0 -0 0 0 5222.3653776801812 0 1:-0.071230123 2:0.22759686 3:0.017319901 4:-0.061622003 5:0.22961962 6:0.0082915186 7:-0.056330313 8:0.23292467 9:0.0053097505 
-0 -9366.620687849736 0.93875804502754834 25.006622020981315 0 4432.3532019580443 1:0.026028614 2:0.14520542 3:0.0019324602 4:0.029386038 5:0.14865495 6:0.0040455242 7:0.033503803 8:0.15418143 9:0.0069351844 
-1162.8979693334502 -0 0.93875804502754834 0 873.96174982419222 4432.3532019580443 1:-0.064421361 2:0.1697874 3:0.0070977277 4:-0.019938655 5:0.12371358 6:0.049792456 7:0.052519573 8:0.13292437 9:0.046288744 
-0 -12498.146346333326 0 0 4701.7235339043236 0 1:0.013653644 2:0.21054786 3:-0.026097243 4:-0.0094275162 5:0.2151352 6:-0.026729356 7:-0.045006457 8:0.23590463 9:-0.017247659 
-0 -0 0.93875804502754834 25.006622020981315 0 0 1:0.023315945 2:0.1566557 3:0.0088495842 4:0.023731334 5:0.1536035 6:0.0085064371 7:0.023604911 8:0.15102086 9:0.0081994107 
-0 -0 0.93875804502754834 0 0 0 1:-0.0092649729 2:0.11356364 3:0.047749828 4:0.00030702639 5:0.11132416 6:0.05667346 7:0.009174671 8:0.10906661 9:0.062785091 
-5576.3600117495516 -0 0.93875804502754834 25.006622020981315 0 4432.3532019580443 1:0.019631629 2:0.071771934 3:0.045927536 4:0.027162805 5:0.061260795 6:0.045223181 7:0.038233816 8:0.061206614 9:0.045421846 
-0 -0 0.93875804502754834 0 0 0 1:-0.018302385 2:0.1074773 3:0.04563857 4:-0.0093552747 5:0.11354558 6:0.045187061 7:-0.01105295 8:0.11163118 9:0.048676325 
-0 -0 0 25.006622020981315 0 0 1:0.027560134 2:0.16075541 3:0.0052447332 4:0.022485168 5:0.16387985 6:0.0065920372 7:0.021166761 8:0.16124304 9:0.0074878319 
-0 -0 0 25.006622020981315 0 4432.3532019580443 1:0.044392404 2:0.17677496 3:0.01347304 4:0.041448563 5:0.17930341 6:0.011107131 7:0.039028472 8:0.18349342 9:0.0047498789 
-0 -0 0.93875804502754834 0 2272.7829037882284 0 1:-0.014982888 2:0.16998426 3:0.06579395 4:-0.019810426 5:0.16350058 6:0.046397106 7:-0.027433711 8:0.16129722 9:0.022232323 
-0 -0 0.93875804502754834 0 0 0 1:-0.00043344902 2:0.14845629 3:0.081325873 4:-0.0035958209 5:0.13707825 6:0.06819598 7:-0.010890407 8:0.12523065 9:0.059797905 
-0 -0 0 0 723.36693284426065 0 1:-0.070471587 2:0.25795635 3:0.011502653 4:-0.08022419 5:0.24200904 6:0.016272399 7:-0.081759322 8:0.23566985 9:0.012913169 
-1394.0900029373879 -0 0 25.006622020981315 0 4432.3532019580443 1:0.038396359 2:0.18091079 3:0.0051472071 4:0.029004964 5:0.17603448 6:0.0069532447 7:0.023276213 8:0.17554685 9:0.0081271692 
-0 -1964.5295552364919 0 0 0 0 1:-0.14917871 2:0.28575127 3:0.047245943 4:-0.13910102 5:0.28654592 6:0.028968843 7:-0.11876503 8:0.28907438 9:0.012407478 
-0 -12498.146346333326 0 0 0 0 1:-0.028589575 2:0.16841301 3:0.018782791 4:-0.040112095 5:0.15802829 6:0.032869884 7:-0.048167023 8:0.1441218 9:0.042803091 
-0 -0 0 16.816828027199609 0 4432.3532019580443 1:0.011179373 2:0.22021016 3:0.0030883243 4:0.0090121276 5:0.22859018 6:-0.00099332068 7:0.0074047541 8:0.23003591 9:-0.012840927 
-0 -0 0.93875804502754834 0 0 0 1:-0.0031605658 2:0.099657154 3:0.059539641 4:-0.00095719993 5:0.099855819 6:0.057530244 7:0.0054000524 8:0.10630337 9:0.056362821 
-0 -0 0.93875804502754834 25.006622020981315 0 4432.3532019580443 1:0.028661817 2:0.14330908 3:-0.00032508677 4:0.028986903 5:0.14625292 6:-0.0014448301 7:0.0268919 8:0.14825763 9:0.0026548753 
-0 -0 0.93875804502754834 0 0 4432.3532019580443 1:0.068557187 2:0.15456557 3:0.10175216 4:0.064276878 5:0.13037785 6:0.13704213 7:0.063139074 8:0.14318266 9:0.15562626 
-0 -0 0 25.006622020981315 0 4432.3532019580443 1:0.0240203 2:0.18714162 3:-0.00084883767 4:0.019107878 5:0.1855523 6:-0.00063211316 7:0.021546029 8:0.18401717 9:0.00041538865 
-0 -0 0.93875804502754834 25.006622020981315 0 4432.3532019580443 1:0.0182771 2:0.14746297 3:0.0086870408 4:0.02067913 5:0.14858271 6:0.0028535394 7:0.027758798 8:0.15031651 9:-0.001535132 
-0 -0 0.93875804502754834 0 0 0 1:-0.012678384 2:0.12606142 3:0.0760992 4:-0.009463637 5:0.11594761 6:0.069135119 7:-0.0070977277 8:0.107387 9:0.051472071 
-0 -0 0.93875804502754834 0 0 0 1:-0.0061585882 2:0.10572544 3:0.051616554 4:-0.010872346 5:0.096135381 6:0.043679019 7:-0.010841644 8:0.087502521 9:0.040476915 
-5576.3600117495516 -0 0.93875804502754834 25.006622020981315 0 4432.3532019580443 1:0.060664803 2:0.13453174 3:0.11524326 4:0.071681632 5:0.14818538 6:0.11789813 7:0.074372628 8:0.1625795 9:0.116363 
-0 -0 0.93875804502754834 0 0 0 1:-0.0022033659 2:0.1345498 3:0.061567822 4:-0.00084883767 5:0.12132961 6:0.063789248 7:-0.0039967612 8:0.11105325 9:0.064710327 
-0 -0 0.93875804502754834 14.165202655163498 0 4432.3532019580443 1:0.066064855 2:0.14767969 3:0.14451913 4:0.066913693 5:0.14246025 6:0.13222001 7:0.066624727 8:0.16548722 9:0.12456241 
-5576.3600117495516 -0 0.93875804502754834 25.006622020981315 0 0 1:0.023460428 2:0.088168949 3:0.066442317 4:0.029420352 5:0.086541709 6:0.070829182 7:0.036409718 8:0.083890446 9:0.077762561 
-0 -0 0.93875804502754834 0 0 0 1:0.026657115 2:0.13137117 3:0.078002764 4:0.030016345 5:0.13097385 6:0.082662341 7:0.030415479 8:0.13194911 9:0.090413854 
-0 -0 0.93875804502754834 0 0 0 1:0.014730043 2:0.11885533 3:0.060303595 4:0.014141274 5:0.11206463 6:0.063753127 7:0.011806068 8:0.10428061 9:0.068629429 
-0 -0 0 0 2299.454590312117 0 1:-0.041105416 2:0.19487146 3:-0.026006941 4:-0.083547299 5:0.2208784 6:0.02304504 7:-0.10012672 8:0.25914833 9:0.053041518 
-0 -0 0 25.006622020981315 0 0 1:0.023767455 2:0.20290832 3:0.017482444 4:0.020823613 5:0.20169828 6:0.013418859 7:0.013617523 8:0.20422673 9:0.0088261057 
-0 -0 0.93875804502754834 0 0 0 1:-0.032237771 2:0.15764902 3:0.045205121 4:-0.034784284 5:0.14990112 6:0.055391173 7:-0.030534678 8:0.15362156 9:0.058515618 
-485.83396063041715 -0 0 0 0 1297.5280974745917 1:-0.10559902 2:0.36816076 3:0.0044536887 4:-0.083438937 5:0.27847294 6:0.019752633 7:-0.015658346 8:0.18094329 9:0.050207845 
-0 -0 0 25.006622020981315 9403.4470678086473 4432.3532019580443 1:0.067722798 2:0.19263197 3:0.004370611 4:0.065739768 5:0.17410419 6:-0.062615323 7:0.042676668 8:0.13214777 9:-0.096352106 
-0 -0 0 25.006622020981315 0 4432.3532019580443 1:0.0097164823 2:0.16169455 3:-0.012244935 4:0.018114557 5:0.16885729 6:-0.011685063 7:0.024833017 8:0.16836966 9:-0.0077244228 
-0 -0 0.93875804502754834 0 0 0 1:-0.0085606182 2:0.10536423 3:0.050211457 4:-0.0021491847 5:0.094004257 6:0.062953052 7:0.0065378561 8:0.086509201 9:0.079610137 
-5576.3600117495516 -0 0.93875804502754834 25.006622020981315 8545.3572736556216 4432.3532019580443 1:0.044464646 2:0.15811859 3:-0.015748648 4:0.046162321 5:0.1563559 6:-0.0051291468 7:0.041827831 8:0.15142 9:0.001968581 
-0 -12498.146346333326 0.93875804502754834 0 0 0 1:-0.020119259 2:0.10400971 3:0.037096012 4:-0.016554141 5:0.10624919 6:0.036861227 7:-0.010818165 8:0.1134011 9:0.036337476 
-0 -0 -0.93875804502754834 0 0 0 1:0.067081948 2:-0.0020898792 3:0.16342836 4:0.066736014 5:-0.0018304301 6:0.16356912 7:0.067232848 8:-0.001852495 9:0.16369885 
-1.2150366251660631 -0.79564690899637103 -0.93875804502754834 0.87387882691600327 0.77566539168049364 1.0386818092146799 1:0.066950219 2:-0.0013391901 3:0.16335488 4:0.067090976 5:-0.0011441592 6:0.16346255 7:0.066918011 8:-0.0013383017 9:0.16327854 
-1.2150366251660631 -0.79564690899637103 -0.93875804502754834 0.87387882691600327 0.77566539168049364 1.0386818092146799 1:0.045675398 2:0.025751169 3:0.16791819 4:0.04590264 5:0.025956343 6:0.1681344 7:0.0458594 8:0.026183583 9:0.16797157 
-1.2150366251660631 -0.79564690899637103 -0.93875804502754834 0.87387882691600327 0.77566539168049364 1.0386818092146799 1:0.11419808 2:0.0011409018 3:0.13018996 4:0.1143609 5:0.0012348639 6:0.13043483 7:0.11571419 8:0.0011695575 9:0.13038892 
-1.2150366251660631 -0.79564690899637103 -0.93875804502754834 0.87387882691600327 0.77566539168049364 1.0386818092146799 1:0.11797047 2:0.0032940219 3:0.132226 4:0.11745157 5:0.0034127139 6:0.13205392 7:0.11707342 8:0.0033474075 9:0.13148075 
-1.2150366251660631 -0.79564690899637103 -0.93875804502754834 0.87387882691600327 0.77566539168049364 1.0386818092146799 1:0.06519893 2:0.0095664672 3:0.16359268 4:0.065134515 5:0.0097072244 6:0.16370035 7:0.065480444 8:0.0098038507 9:0.16336544 
-1.2150366251660631 -0.79564690899637103 -0.93875804502754834 0.87387882691600327 0.77566539168049364 1.0386818092146799 1:0.06379679 2:0.0077649541 3:0.16417168 4:0.063472921 5:0.0074291661 6:0.16488738 7:0.063560291 8:0.0076996474 9:0.1658524 
-1.2150366251660631 -0.79564690899637103 -0.93875804502754834 0.87387882691600327 0.77566539168049364 1.0386818092146799 1:0.045486785 2:0.025683562 3:0.16788079 4:0.04550885 5:0.025521627 6:0.16831321 7:0.045638575 8:0.025921834 9:0.16818348 
-1.2150366251660631 -0.79564690899637103 -0.93875804502754834 0.87387882691600327 0.77566539168049364 1.0386818092146799 1:0.056664092 2:0.0090481921 3:0.16682026 4:0.056598787 5:0.0093398503 6:0.16632255 7:0.056868379 8:0.0091006897 9:0.1659122 
-0 -0.79564690899637103 -0.93875804502754834 0 0.77566539168049364 0 1:0.066857332 2:-0.0017020847 3:0.16363898 4:0.066402853 5:-0.0021777412 6:0.16326085 7:0.066489337 8:-0.0021022907 9:0.16305567 
-1.2150366251660631 -0.79564690899637103 -0.93875804502754834 0.87387882691600327 0.77566539168049364 1.0386818092146799 1:0.066198911 2:0.0046029942 3:0.16392756 4:0.065907254 5:0.0045266556 6:0.16380888 7:0.065928434 8:0.0047207979 9:0.16376563 
-1.2150366251660631 -0.79564690899637103 -0.93875804502754834 0.87387882691600327 0.77566539168049364 1.0386818092146799 1:0.05403638 2:0.02175683 3:0.16614686 4:0.054437472 5:0.02178904 6:0.16668693 7:0.05397285 8:0.021464285 9:0.1661901 
-1.2150366251660631 -0.79564690899637103 -0.93875804502754834 0.87387882691600327 0.77566539168049364 0 1:0.066627469 2:-0.0016142227 3:0.16352411 4:0.066637611 5:-0.0015921578 6:0.16351307 7:0.066745271 8:-0.0015700929 9:0.16339438 
-1.2150366251660631 -0.79564690899637103 -0.93875804502754834 0.87387882691600327 0.77566539168049364 1.0386818092146799 1:0.065541035 2:0.0044198842 3:0.16465342 4:0.065822549 5:0.0046572684 6:0.1642541 7:0.065508827 8:0.0047318303 9:0.16403878 
-1.2150366251660631 -0.79564690899637103 -0.93875804502754834 0.87387882691600327 0.77566539168049364 1.0386818092146799 1:0.056707332 2:0.0085937124 3:0.16609619 4:0.056523335 5:0.0089175793 6:0.1661606 7:0.0566963 8:0.0087013722 9:0.16663627 
-1.2150366251660631 -0.79564690899637103 -0.93875804502754834 0.87387882691600327 0.77566539168049364 1.0386818092146799 1:0.067307186 2:0.0036869683 3:0.16294453 4:0.067263941 5:0.0039353851 6:0.16323619 7:0.067307186 8:0.004194834 9:0.16322515 
-1.2150366251660631 -0.79564690899637103 -0.93875804502754834 0.87387882691600327 0.77566539168049364 1.0386818092146799 1:0.11532598 2:0.005382185 3:0.13313963 4:0.11572619 5:0.0053177669 6:0.13326936 7:0.11576943 8:0.0050684624 9:0.13318199 
-1.2150366251660631 -0.79564690899637103 -0.93875804502754834 0.87387882691600327 0.77566539168049364 1.0386818092146799 1:0.052706036 2:0.022848901 3:0.16710921 4:0.05303079 5:0.022426629 6:0.16688197 7:0.053063002 8:0.02288111 9:0.1671626 
-0 -0 -0 0.87387882691600327 0 0 1:0.087957282 2:-0.0089143896 3:0.15475595 4:0.088927996 5:-0.0080892483 6:0.15597952 7:0.089303473 8:-0.0073311892 9:0.15646798 
-1.2150366251660631 -0.79564690899637103 -0.93875804502754834 0.87387882691600327 0.77566539168049364 1.0386818092146799 1:0.065961531 2:0.0024087101 3:0.16408951 4:0.065907254 5:0.0022357441 6:0.16399199 7:0.065646919 8:0.0024519518 9:0.16336543 
-1.2150366251660631 -0.79564690899637103 -0.93875804502754834 0.87387882691600327 0.77566539168049364 1.0386818092146799 1:0.11685095 2:0.0034098123 3:0.13255154 4:0.11693744 5:0.0036260198 6:0.13242181 7:0.11676447 8:0.0030528477 9:0.1326923 
-1.2150366251660631 -0.79564690899637103 -0.93875804502754834 0.87387882691600327 0.77566539168049364 1.0386818092146799 1:0.045355295 2:0.02604142 3:0.16774135 4:0.04544178 5:0.025987145 6:0.16787108 7:0.045268811 8:0.025652245 9:0.1679364 
-0 -0 -0.93875804502754834 0 0 0 1:0.06737405 2:-0.0020688014 3:0.1633557 4:0.067406262 5:-0.001939077 6:0.16317169 7:0.067406262 8:-0.0018415616 9:0.16311653 
-1.2150366251660631 -0.79564690899637103 -0.93875804502754834 0.87387882691600327 0.77566539168049364 1.0386818092146799 1:0.11601329 2:0.0037995376 3:0.13247292 4:0.1164135 5:0.0040479541 6:0.13248395 7:0.11640246 8:0.0040911955 9:0.13253822 
-0 -0 -0.93875804502754834 0 0 0 1:0.067156281 2:-0.0022803589 3:0.16332357 4:0.067178346 5:-0.0018801531 6:0.16345328 7:0.066659452 8:-0.0019123621 9:0.16362626 
-1.2150366251660631 -0.79564690899637103 -0.93875804502754834 0.87387882691600327 0.77566539168049364 1.0386818092146799 1:0.11638072 2:0.004070455 3:0.13268619 4:0.11643499 5:0.004134873 6:0.13232922 7:0.11664017 8:0.004340048 9:0.13260984 
-1.2150366251660631 -0.79564690899637103 -0.93875804502754834 0.87387882691600327 0.77566539168049364 1.0386818092146799 1:0.066165814 2:0.0046554918 3:0.16322557 4:0.066047122 5:0.0045156232 6:0.16343073 7:0.066079334 8:0.004256174 9:0.1633875 
-1.2150366251660631 -0.79564690899637103 -0.93875804502754834 0.87387882691600327 0.77566539168049364 1.0386818092146799 1:0.11544431 2:-0.0004777302 3:0.13117048 4:0.1156486 5:-0.00043360038 6:0.1310509 7:0.11554005 8:4.2944444e-05 9:0.13092029 
-1.2150366251660631 -0.79564690899637103 -0.93875804502754834 0.87387882691600327 0.77566539168049364 1.0386818092146799 1:0.06697637 2:0.007606574 3:0.16346116 4:0.066250523 5:0.0066093542 6:0.16350529 7:0.065925765 8:0.006803497 9:0.16365709 
-1.2150366251660631 -0.79564690899637103 -0.93875804502754834 0.87387882691600327 0.77566539168049364 1.0386818092146799 1:0.066594142 2:-0.00099325805 3:0.16350668 4:0.066951109 5:-0.00092883999 6:0.16336592 7:0.066940076 8:-0.00093987245 9:0.16349565 
-1.2150366251660631 -0.79564690899637103 -0.93875804502754834 0.87387882691600327 0.77566539168049364 1.0386818092146799 1:0.069429262 2:0.013680255 3:0.16600145 4:0.069213053 5:0.013486113 6:0.16614399 7:0.069537811 8:0.012923973 9:0.16601692 
-0 -0 -0.93875804502754834 0.43693941345800164 0.77566539168049364 0 1:0.067491437 2:-0.0018726787 3:0.16325541 4:0.067350679 5:-0.0018506138 6:0.16324437 7:0.067253162 8:-0.0018073723 9:0.16324437 
-1.2150366251660631 -0.79564690899637103 -0.93875804502754834 0.87387882691600327 0.77566539168049364 1.0386818092146799 1:0.066499079 2:0.00020004497 3:0.1635591 4:0.066974733 5:0.00031962536 6:0.1635591 7:0.066628803 8:0.00051376795 9:0.16340731 
-1.2150366251660631 -0.79564690899637103 -0.93875804502754834 0.87387882691600327 0.77566539168049364 1.0386818092146799 1:0.11479091 2:0.0031393804 3:0.1339028 4:0.11421862 5:0.0030851064 6:0.13366452 7:0.11387268 8:0.0034531032 9:0.13362128 
-0 -0 -0.93875804502754834 0 0.19391634792012341 0 1:0.067308961 2:-0.0018047024 3:0.16354066 4:0.066962141 5:-0.0019997334 6:0.16320575 7:0.066712835 8:-0.0022702148 9:0.16327018 
-0 -0 -0.93875804502754834 0 0 0 1:0.067784844 2:-0.0018083652 3:0.16344866 4:0.067601732 5:-0.0014844981 6:0.16378355 7:0.067633944 8:-0.0017329147 9:0.16351395 
-1.2150366251660631 -0.79564690899637103 -0.93875804502754834 0.87387882691600327 0.77566539168049364 1.0386818092146799 1:0.054178023 2:0.022715624 3:0.16747542 4:0.053766784 5:0.022825058 6:0.1670964 7:0.052683971 8:0.022686078 9:0.16651219 
-1.2150366251660631 -0.79564690899637103 -0.93875804502754834 0.87387882691600327 0.77566539168049364 1.0386818092146799 1:0.067191828 2:0.00024417479 3:0.1636253 4:0.067656454 5:0.00059010678 6:0.16369059 7:0.067991352 8:0.00065452493 9:0.16342012 
-1.2150366251660631 -0.79564690899637103 -0.93875804502754834 0.87387882691600327 0.77566539168049364 1.0386818092146799 1:0.045998129 2:0.029611827 3:0.16530525 4:0.044700886 5:0.030704787 6:0.16702212 7:0.042982257 8:0.031676388 9:0.16780046 
-1.2150366251660631 -0.79564690899637103 -0.93875804502754834 0.87387882691600327 0.77566539168049364 1.0386818092146799 1:0.064592661 2:0.010652318 3:0.16300315 4:0.064689288 5:0.011041493 6:0.16284122 7:0.064602804 8:0.010966042 9:0.16303625 
-1.2150366251660631 -0.79564690899637103 -0.93875804502754834 0.87387882691600327 0.77566539168049364 0 1:0.067509693 2:-0.0015774626 3:0.16282495 4:0.067391001 5:-0.0017927817 6:0.16304026 7:0.066936522 8:-0.0016078949 9:0.16288849 
-0 -0 -0 0.87387882691600327 0 0 1:0.087685403 2:-0.0095370215 3:0.15328054 4:0.087320959 5:-0.010032078 6:0.15239454 7:0.08684885 8:-0.009889545 9:0.15251234 
-0 -0 -0 0.87387882691600327 0 1.0386818092146799 1:0.086019502 2:-0.002263423 3:0.16026464 4:0.08976744 5:0.00040104502 6:0.15625102 7:0.091330872 8:-0.0045284866 9:0.14713491 
-1.2150366251660631 -0.79564690899637103 -0.93875804502754834 0.87387882691600327 0.77566539168049364 1.0386818092146799 1:0.055668525 2:0.023476347 3:0.16536763 4:0.055971215 5:0.023249107 6:0.16573563 7:0.055809278 8:0.0231838 9:0.16524893 
-1.2150366251660631 -0 -0 0.87387882691600327 0 1.0386818092146799 1:0.11957054 2:-0.0065389782 3:0.13018114 4:0.11821902 5:-0.0090121114 6:0.12856751 7:0.11768162 8:-0.0099347687 9:0.12790697 
-1.2150366251660631 -0.79564690899637103 -0.93875804502754834 0.87387882691600327 0.77566539168049364 1.0386818092146799 1:0.05983227 2:0.0086023894 3:0.16633894 4:0.059454128 5:0.0090568697 6:0.16619818 7:0.059508401 8:0.0094892841 9:0.16597096 
-0 -0 -0.93875804502754834 0 0.77566539168049364 0 1:0.066648644 2:-0.0019702988 3:0.16326643 4:0.066735128 5:-0.0020678143 6:0.16326643 7:0.066659676 8:-0.0020567818 9:0.16378533 
-1.2150366251660631 -0.79564690899637103 -0.93875804502754834 0.87387882691600327 0.77566539168049364 1.0386818092146799 1:0.11641164 2:0.0043179332 3:0.13258489 4:0.11653033 5:0.0040695168 6:0.13256372 7:0.11657358 8:0.0040704051 9:0.13261888 
-1.2150366251660631 -0.79564690899637103 -0.93875804502754834 0.87387882691600327 0.77566539168049364 1.0386818092146799 1:0.11713767 2:0.0032059277 3:0.13175934 4:0.11719194 5:0.0032915223 6:0.13160755 7:0.11755904 8:0.0033568287 9:0.13161858 
-1.2150366251660631 -0.79564690899637103 -0.93875804502754834 0.87387882691600327 0.77566539168049364 1.0386818092146799 1:0.11695861 2:0.0035929224 3:0.13259389 4:0.11721806 5:0.0037226469 6:0.13238872 7:0.11724013 8:0.0034852628 9:0.13272362 
-1.2150366251660631 -0.79564690899637103 -0.93875804502754834 0.87387882691600327 0.77566539168049364 1.0386818092146799 1:0.044737533 2:0.026009457 3:0.16819156 4:0.044921535 5:0.026118007 6:0.16827892 7:0.044878291 8:0.026247729 9:0.1684519 
-1.2150366251660631 -0.79564690899637103 -0.93875804502754834 0.87387882691600327 0.77566539168049364 1.0386818092146799 1:0.067020952 2:0.00057055729 3:0.1634011 4:0.067399094 5:0.00036538225 6:0.16363849 7:0.066696198 8:0.0003764147 9:0.1633027 
-0 -0 -0.70406853377066125 0 0 0 1:0.066688542 2:-0.0030908566 3:0.16478731 4:0.066313065 5:-0.0029620208 6:0.16245709 7:0.06751546 8:-0.0025552239 9:0.16044147 
-1.2150366251660631 -0.79564690899637103 -0.93875804502754834 0.87387882691600327 0.77566539168049364 1.0386818092146799 1:0.11660076 2:0.0035148069 3:0.13244566 4:0.11681697 5:0.0031587309 6:0.13278982 7:0.1171298 8:0.0024567227 9:0.13252948 
-1.2150366251660631 -0.79564690899637103 -0.93875804502754834 0.87387882691600327 0.77566539168049364 1.0386818092146799 1:0.059078115 2:0.0093073326 3:0.16928888 4:0.058016477 5:0.0061366324 6:0.16805821 7:0.057975386 8:0.0028362083 9:0.16738041 
-1.2150366251660631 -0.79564690899637103 -0.93875804502754834 0.87387882691600327 0.77566539168049364 1.0386818092146799 1:0.06647954 2:0.0046021062 3:0.16335528 4:0.066415121 5:0.0046343149 6:0.1632357 7:0.066609265 8:0.0048615551 9:0.16310597 
-1.2150366251660631 -0.79564690899637103 -0.93875804502754834 0.87387882691600327 0.77566539168049364 1.0386818092146799 1:0.11534942 2:0.003443798 3:0.13271525 4:0.11609556 5:0.0040280025 6:0.13296367 7:0.11666874 8:0.004395111 9:0.13298573 
-1.2150366251660631 -0.79564690899637103 -0.93875804502754834 0.87387882691600327 0.77566539168049364 0.51934090460733995 1:0.066108594 2:-0.0014071663 3:0.1634597 4:0.066421431 5:-0.0015911649 6:0.1633732 7:0.066691913 8:-0.0012452328 9:0.16332997 
-1.2150366251660631 -0.79564690899637103 -0.93875804502754834 0 0.77566539168049364 0 1:0.066489172 2:-0.0018428469 3:0.16363784 4:0.066780829 5:-0.0014647059 6:0.16341059 7:0.066434895 8:-0.0018759443 9:0.16334618 
-1.2150366251660631 -0.79564690899637103 -0.93875804502754834 0.87387882691600327 0.77566539168049364 1.0386818092146799 1:0.11633805 2:0.003712166 3:0.13219318 4:0.1164135 5:0.0039394062 6:0.1321389 7:0.11674839 8:0.0035722974 9:0.13222539 
-1.2150366251660631 -0.79564690899637103 -0.93875804502754834 0.87387882691600327 0.77566539168049364 1.0386818092146799 1:0.11509923 2:0.0059160429 3:0.13263624 4:0.11490331 5:0.0055268693 6:0.13269141 7:0.11512966 8:0.00582956 9:0.13285334 
-1.2150366251660631 -0.79564690899637103 -0.93875804502754834 0.87387882691600327 0.77566539168049364 1.0386818092146799 1:0.1165193 2:0.0038008118 3:0.13224999 4:0.11668124 5:0.0042866125 6:0.13223985 7:0.11634634 8:0.0041780647 9:0.13239075 
-1.2150366251660631 -0.79564690899637103 -0.93875804502754834 0.87387882691600327 0.77566539168049364 1.0386818092146799 1:0.064766427 2:0.010019904 3:0.16380459 4:0.065339599 5:0.010041969 6:0.16430232 7:0.065664353 8:0.010344659 9:0.1643557 
-1.2150366251660631 -0.79564690899637103 -0.93875804502754834 0.87387882691600327 0.77566539168049364 1.0386818092146799 1:0.066307461 2:0.0066177219 3:0.16374713 4:0.066393945 5:0.0063362076 6:0.16357327 7:0.066404088 8:0.0065625597 9:0.16305437 
-1.2150366251660631 -0.79564690899637103 -0.93875804502754834 0.87387882691600327 0.77566539168049364 1.0386818092146799 1:0.066554988 2:0.0047005097 3:0.16371047 4:0.066317604 5:0.0046140267 6:0.16388343 7:0.066306571 8:0.0044520932 9:0.16349426 
-1.2150366251660631 -0.59673518174727824 -0.93875804502754834 0.87387882691600327 0.77566539168049364 0 1:0.067180674 2:-0.0013689173 3:0.16341804 4:0.067321431 5:-0.0014655443 6:0.16354777 7:0.067461303 8:-0.0014756885 9:0.1634935 
-1.2150366251660631 -0.79564690899637103 -0.93875804502754834 0.87387882691600327 0.77566539168049364 1.0386818092146799 1:0.11729867 2:0.0039520498 3:0.13278544 4:0.11706128 5:0.0040275003 6:0.13252599 7:0.11653136 8:0.0036705357 9:0.13252599 
-1.2150366251660631 -0.79564690899637103 -0.93875804502754834 0.87387882691600327 0.77566539168049364 1.0386818092146799 1:0.061729853 2:0.0026939837 3:0.1661161 4:0.061470403 5:0.0090791406 6:0.16347571 7:0.05935816 8:-0.0023957047 9:0.16619992 
-1.2150366251660631 -0.79564690899637103 -0.93875804502754834 0.87387882691600327 0.77566539168049364 1.0386818092146799 1:0.11736411 2:0.0042868716 3:0.13205623 4:0.11812128 5:0.0044064519 6:0.13198078 7:0.11786183 8:0.0048498998 9:0.13167809 
-1.2150366251660631 -0.79564690899637103 -0.93875804502754834 0.87387882691600327 0.77566539168049364 1.0386818092146799 1:0.068216818 2:0.00063778991 3:0.16402284 4:0.067837787 5:0.00043261494 6:0.16383883 7:0.06745876 8:0.0002706813 9:0.16326655 
-1.2150366251660631 -0.79564690899637103 -0.93875804502754834 0.87387882691600327 0.77566539168049364 1.0386818092146799 1:0.066251063 2:-0.0018216651 3:0.16095801 4:0.065374312 5:-0.0020820025 6:0.16026703 7:0.064823205 8:-0.001619155 9:0.16113275 
-1.2150366251660631 -0.79564690899637103 -0.93875804502754834 0.87387882691600327 0.77566539168049364 1.0386818092146799 1:0.11842383 2:0.0011840778 3:0.12954411 4:0.11847723 5:0.001137283 6:0.13017244 7:0.11851958 8:0.0013093607 9:0.13078974 
-1.2150366251660631 -0.79564690899637103 -0.93875804502754834 0.87387882691600327 0.77566539168049364 1.0386818092146799 1:0.1168986 2:0.0032702522 3:0.13186208 4:0.1172657 5:0.003065077 6:0.13149498 7:0.11756839 8:0.0033355586 9:0.13179767 
-1.2150366251660631 -0.79564690899637103 -0.93875804502754834 0.87387882691600327 0.77566539168049364 1.0386818092146799 1:0.116261 2:0.0043852753 3:0.13286678 4:0.11599052 5:0.0044505817 6:0.13257513 7:0.11583874 8:0.0043530663 9:0.13306182 
-1.2150366251660631 -0.79564690899637103 -0.93875804502754834 0.87387882691600327 0.77566539168049364 1.0386818092146799 1:0.067140247 2:-0.00027610806 3:0.16342772 4:0.066880798 5:-1.6659008e-05 6:0.1631471 7:0.066534868 8:0.00030809644 9:0.16306062 
-1.2150366251660631 -0.79564690899637103 -0.93875804502754834 0.87387882691600327 0.77566539168049364 1.0386818092146799 1:0.11697564 2:0.0031228098 3:0.13224778 4:0.11708329 5:0.0031228098 6:0.13195612 7:0.11731053 8:0.0034475654 9:0.1320095 
-0 -0 -0.93875804502754834 0 0.77566539168049364 0 1:0.066801647 2:-0.0017580908 3:0.16330949 4:0.066985644 5:-0.0022116823 6:0.16354689 7:0.067288334 8:-0.0019954749 9:0.16303902 
-0 -0 -0.93875804502754834 0 0.77566539168049364 0 1:0.067062343 2:-0.0014002878 3:0.163325 4:0.067115726 5:-0.0019412508 6:0.1635412 7:0.067170003 8:-0.0018759443 9:0.16355224 
-1.2150366251660631 -0.79564690899637103 -0.93875804502754834 0.87387882691600327 0.77566539168049364 1.0386818092146799 1:0.11711392 2:0.004114794 3:0.13220713 4:0.11731998 5:0.004233486 6:0.13243348 7:0.11740647 8:0.0040927291 9:0.13225037 
-1.2150366251660631 -0 -0.93875804502754834 0 0.77566539168049364 0 1:0.067980535 2:-0.0004659925 3:0.164169 4:0.0678517 5:-0.0010391645 6:0.16435299 7:0.067646527 8:-0.0012333071 9:0.16419194 
-1.2150366251660631 -0.79564690899637103 -0.93875804502754834 0.87387882691600327 0.77566539168049364 1.0386818092146799 1:0.066286286 2:0.0049268617 3:0.16311701 4:0.066566021 5:0.0049811354 6:0.16365709 7:0.066058154 8:0.0047428628 9:0.16314922 
-1.2150366251660631 -0.79564690899637103 -0.93875804502754834 0.87387882691600327 0.77566539168049364 1.0386818092146799 1:0.054860118 2:0.021967192 3:0.16880184 4:0.0553009 5:0.022090326 6:0.16976153 7:0.055539169 8:0.021832654 9:0.16969444 
-1.2150366251660631 -0.79564690899637103 -0.93875804502754834 0.87387882691600327 0.77566539168049364 1.0386818092146799 1:0.11586832 2:0.0062536071 3:0.13344947 4:0.11578183 5:0.006275672 6:0.1334605 7:0.11594377 8:0.0060806412 9:0.13337402 
-122.82380416382 -0 -25.006622020981315 -0.87387882691600327 0 0 1:0.11686048 2:-0.0046825837 3:0.056939979 4:0.11509529 5:0.0055776003 6:0.062654774 7:0.081427065 8:-0.019972073 9:0.052653012 
-34.062075225512039 -0 -25.006622020981315 -0.87387882691600327 0 294.86658619369973 1:0.23316449 2:0.23202683 3:0.058302912 4:0.21792764 5:0.25280031 6:0.068782486 7:0.14311395 8:0.27703191 9:0.079325339 
-122.82380416382 -0 -0 -0.87387882691600327 0 294.86658619369973 1:0.091959499 2:0.05208386 3:-0.043765905 4:0.110309 5:0.078810946 6:-0.068108977 7:0.12739037 8:0.097731524 9:-0.091379182 
-122.82380416382 -0 -25.006622020981315 -0.87387882691600327 0 294.86658619369973 1:-0.01223356 2:0.019507758 3:-0.024462567 4:0.074280596 5:0.041167835 6:-0.071166116 7:0.13159485 8:0.058451654 9:-0.12505566 
-0 -0 -0 -0.87387882691600327 0 0 1:0.18629398 2:0.52399477 3:0.10882973 4:0.17564909 5:0.3242418 6:0.14249876 7:0.23517009 8:0.29159418 9:0.18676723 
-0 -0 -0 -0.87387882691600327 0 0 1:0.18382334 2:-0.095426095 3:0.04277642 4:0.18834284 5:-0.026700712 6:0.046619382 7:0.16113046 8:0.024482857 9:0.029080093 
-122.82380416382 -36.416123639262466 -25.006622020981315 -0.87387882691600327 20.5786408925525 294.86658619369973 1:-0.024896723 2:0.17501259 3:-0.0039232957 4:0.059829233 5:0.27882061 6:-0.0080332793 7:0.034698372 8:0.37809441 9:0.097150684 
-122.82380416382 -36.416123639262466 -25.006622020981315 -0 20.5786408925525 294.86658619369973 1:-0.0017072358 2:0.3874097 3:-0.069225175 4:0.040749243 5:0.41389343 6:0.0075427736 7:0.076686943 8:0.38205046 9:-0.013944213 
-0 -0 -0 -0.87387882691600327 0 0 1:0.20846095 2:-0.011773696 3:0.042240736 4:0.18794039 5:0.016828938 6:0.055605878 7:0.15630108 8:0.024228277 9:0.054326214 
-122.82380416382 -36.416123639262466 -25.006622020981315 -0.87387882691600327 20.5786408925525 294.86658619369973 1:0.18954834 2:0.30847853 3:0.089675044 4:0.15089399 5:0.26521678 6:0.057535921 7:0.084519246 8:0.2023867 9:0.019383045 
-122.82380416382 -36.416123639262466 -25.006622020981315 -0.87387882691600327 20.5786408925525 294.86658619369973 1:0.0043904847 2:0.22436908 3:-0.030693684 4:-0.026710759 5:0.32057929 6:0.042376369 7:0.00065039445 8:0.28228557 9:0.093647582 
-0 -0 -0 -0.87387882691600327 0 0 1:0.25609894 2:0.28317407 3:0.11800837 4:0.2317378 5:0.27882352 6:0.09768263 7:0.20043518 8:0.26000429 9:0.074364168 
-122.82380416382 -36.416123639262466 -25.006622020981315 -0 20.5786408925525 294.86658619369973 1:0.020483205 2:0.25356562 3:0.022567401 4:0.022494007 5:0.30038854 6:0.013915058 7:0.048789301 8:0.52329482 9:0.048267582 
-122.82380416382 -36.416123639262466 -25.006622020981315 -0 20.5786408925525 294.86658619369973 1:-0.12074447 2:0.03848922 3:-0.066263811 4:-0.081243056 5:0.090701265 6:-0.11933205 7:0.032304115 8:0.23499637 9:-0.18384081 
-122.82380416382 -36.416123639262466 -25.006622020981315 -0.87387882691600327 20.5786408925525 0 1:-0.01299037 2:-0.045087863 3:0.0016823976 4:-0.020289555 5:-0.018287586 6:-0.0085623681 7:-0.016605138 8:0.056375356 9:-0.017653121 
-122.82380416382 -36.416123639262466 -25.006622020981315 -0.87387882691600327 20.5786408925525 294.86658619369973 1:0.019183134 2:0.077028728 3:0.010648533 4:0.064659497 5:0.098029429 6:-0.032807604 7:0.11875419 8:0.11978822 9:-0.10567567 
-122.82380416382 -36.416123639262466 -25.006622020981315 -0.87387882691600327 20.5786408925525 294.86658619369973 1:0.15158121 2:0.14590723 3:0.047344479 4:0.12670831 5:0.17787857 6:0.038331165 7:0.067037273 8:0.18537255 9:0.029423672 
-122.82380416382 -36.416123639262466 -25.006622020981315 -0.87387882691600327 20.5786408925525 294.86658619369973 1:0.13561491 2:0.23754944 3:0.041421683 4:0.078201976 5:0.1910055 6:0.020137722 7:0.0045923587 8:0.12784986 9:-0.0097268513 
-116.27841242593584 -36.416123639262466 -25.006622020981315 -0.87387882691600327 20.5786408925525 103.81742207310309 1:0.088942489 2:0.14989276 3:-0.19732026 4:0.12626947 5:0.1757175 6:-0.026865756 7:-0.044902234 8:0.1350263 9:0.54137705 
-41.093648854665396 -36.416123639262466 -25.006622020981315 -0.87387882691600327 20.5786408925525 0 1:0.066703291 2:0.51906833 3:0.12477823 4:0.12292862 5:0.31555602 6:0.063726357 7:0.17152991 8:0.20989293 9:0.067192324 
-122.82380416382 -36.416123639262466 -25.006622020981315 -0.87387882691600327 20.5786408925525 294.86658619369973 1:0.10109844 2:0.24901295 3:-0.10526996 4:0.085948564 5:0.11810627 6:0.012204118 7:0.044422162 8:-0.013139916 9:0.055878021 
-122.82380416382 -36.416123639262466 -25.006622020981315 -0.87387882691600327 20.5786408925525 294.86658619369973 1:0.047465637 2:0.033679769 3:0.031148691 4:0.040686809 5:0.051129568 6:0.023233176 7:0.02216552 8:0.056318078 9:0.032661053 
-122.82380416382 -22.828044240152703 -25.006622020981315 -0.87387882691600327 20.5786408925525 9.8840734906687544 1:0.14746984 2:0.17388773 3:0.31957764 4:0.094035551 5:0.26486891 6:0.10625041 7:0.19220849 8:0.27420074 9:-0.02485401 
-122.82380416382 -0 -25.006622020981315 -0.87387882691600327 0 294.86658619369973 1:0.18598123 2:0.19693868 3:0.083067688 4:0.21000182 5:0.20392256 6:0.056148468 7:0.14795259 8:0.20993507 9:0.020789011 
-0 -0 -0 -0.87387882691600327 0 0 1:0.18179833 2:0.020449452 3:-0.21153427 4:0.15350558 5:0.014418826 6:-0.14746642 7:0.032315403 8:0.1487182 9:-0.010249619 
-122.82380416382 -36.416123639262466 -25.006622020981315 -0.87387882691600327 20.5786408925525 294.86658619369973 1:-0.10776443 2:-0.059742016 3:0.0075235864 4:-0.022419574 5:-0.0056923178 6:0.010311394 7:0.045060694 8:0.026496759 9:-0.012141465 
-122.82380416382 -0 -20.923196608919422 -0.87387882691600327 0 294.86658619369973 1:0.20142473 2:0.15513526 3:-0.009507595 4:0.1602552 5:0.08555364 6:0.027079528 7:0.12197189 8:0.020469102 9:0.032248423 
-0 -0 -0 -0.87387882691600327 0 0 1:0.20885491 2:0.16404551 3:-0.061105889 4:0.15132324 5:0.049203243 6:0.029671874 7:0.13315573 8:-0.040667471 9:0.065256357 
-0 -0 -0 -0.87387882691600327 0 16.977054582182941 1:0.23192509 2:0.23073491 3:0.15988577 4:0.27054267 5:0.26828379 6:0.13068082 7:0.22798527 8:0.26170574 9:0.12733478 
-0 -36.416123639262466 -16.902842546472705 -0.21798557291380827 17.300516319083489 0 1:-0.051600044 2:0.031916604 3:-0.22822984 4:-0.045289479 5:-0.016670332 6:-0.23588636 7:-0.073898308 8:-0.026431757 9:-0.093336778 
-0 -36.416123639262466 -25.006622020981315 -0.87387882691600327 20.5786408925525 0 1:0.080141132 2:0.1579815 3:0.1346573 4:0.017591589 5:0.074239515 6:-0.14493598 7:-0.0066470047 8:0.037811696 9:-0.22859324 
-0 -0 -0 -0.87387882691600327 0 0 1:0.069420566 2:-0.025170857 3:0.048226105 4:0.14755154 5:-0.021315574 6:-0.0067449883 7:0.17750829 8:-0.018840229 9:-0.044162329 
-0 -0 -0 -0.87387882691600327 0 0 1:0.21620675 2:0.0088192324 3:0.020622705 4:0.24605783 5:-0.054567516 6:-0.00081241256 7:0.27475377 8:-0.089655537 9:0.01230385 
-122.82380416382 -0 -25.006622020981315 -0 0 294.86658619369973 1:0.131641 2:0.31687105 3:0.013372713 4:0.16838024 5:0.2662653 6:-0.061837384 7:0.15011806 8:0.15203114 9:-0.032328451 
-0 -0 -0 -0.87387882691600327 0 0 1:0.19449531 2:0.25733989 3:0.14773524 4:0.18958784 5:0.26249914 6:0.004336273 7:0.17552711 8:0.22121625 9:-0.046511661 
-0 -0 -0 -0.87387882691600327 0 0 1:-0.0077707309 2:-0.14931076 3:-0.11736438 4:0.0040985336 5:-0.11057648 6:-0.10686503 7:0.0047881609 8:0.051404983 9:-0.11672827 
-122.82380416382 -0 -25.006622020981315 -0.87387882691600327 5.1737353904213927 0 1:0.080093625 2:-0.036848292 3:0.037971798 4:0.072268036 5:-0.031348872 6:0.050492451 7:0.054643675 8:-0.038231487 9:0.054487002 
-122.82380416382 -14.211347974900413 -25.006622020981315 -0.87387882691600327 20.5786408925525 294.86658619369973 1:0.098869382 2:0.031527544 3:0.017234902 4:0.084715077 5:0.019497527 6:0.02208829 7:0.064489776 8:-0.0024106949 9:0.040181431 
-122.82380416382 -36.416123639262466 -25.006622020981315 -0.87387882691600327 20.5786408925525 294.86658619369973 1:-0.034456418 2:0.034130668 3:-0.0096627408 4:0.036022243 5:0.073881075 6:-0.053289173 7:0.1022055 8:0.098500623 9:-0.085108619 
-0 -36.416123639262466 -5.935549381325167 -0 20.5786408925525 0 1:0.039393566 2:0.22451723 3:-0.27279976 4:0.054153159 5:0.35416578 6:-0.26439064 7:-0.012011441 8:0.35792025 9:-0.15261952 
-122.82380416382 -36.416123639262466 -25.006622020981315 -0.87387882691600327 20.5786408925525 294.86658619369973 1:0.011113437 2:0.35280946 3:0.041527242 4:0.024990611 5:0.29612194 6:0.033593813 7:0.057191477 8:0.29374401 9:0.078554894 
-27.093321307226542 -0 -0 -0.87387882691600327 0 245.21989146099835 1:0.04156882 2:0.041505052 3:-0.067055249 4:0.086790692 5:0.059673788 6:-0.097025829 7:0.13991788 8:0.065152945 9:-0.13088518 
-122.82380416382 -36.416123639262466 -25.006622020981315 -0.87387882691600327 20.5786408925525 294.86658619369973 1:-0.0091955658 2:0.26958069 3:0.0098188695 4:0.061010319 5:0.34148599 6:0.050951683 7:0.14696518 8:0.38555573 9:0.11360404 
-122.82380416382 -36.416123639262466 -25.006622020981315 -0.87387882691600327 20.5786408925525 294.86658619369973 1:-0.032490677 2:0.35193023 3:0.060474676 4:0.021282205 5:0.30032507 6:0.079965439 7:0.13764573 8:0.36811257 9:0.099315022 
-122.82380416382 -36.416123639262466 -25.006622020981315 -0.87387882691600327 20.5786408925525 294.86658619369973 1:0.16509319 2:0.2051965 3:0.14657249 4:0.099335523 5:0.25679985 6:0.068013176 7:0.094348506 8:0.24169199 9:0.014433083 
-122.82380416382 -0 -25.006622020981315 -0.87387882691600327 20.5786408925525 163.10444003279343 1:0.099431576 2:0.020684474 3:0.041156358 4:0.079033307 5:0.012741563 6:0.046938771 7:0.058282828 8:-0.0099024508 9:3.7557383e-05 
-122.82380416382 -36.416123639262466 -25.006622020981315 -0 20.5786408925525 294.86658619369973 1:0.10416735 2:0.32429052 3:-0.059430245 4:0.098456792 5:0.2343316 6:-0.02279692 7:0.043342123 8:0.16423851 9:0.0098007125 
-122.82380416382 -36.416123639262466 -25.006622020981315 -0.87387882691600327 20.5786408925525 0 1:0.030501461 2:0.15576992 3:-0.028788788 4:-0.089110566 5:0.075480846 6:-0.085245399 7:-0.17358297 8:-0.0070412534 9:-0.080860269 
-122.82380416382 -36.416123639262466 -25.006622020981315 -0.87387882691600327 20.5786408925525 294.86658619369973 1:0.18942232 2:0.28255925 3:0.1084914 4:0.16738664 5:0.26923992 6:0.074270234 7:0.11159075 8:0.20850788 9:0.043535215 
-0 -0 -0 -0.87387882691600327 0 294.86658619369973 1:0.25614713 2:0.20711295 3:0.06405097 4:0.27409764 5:0.2481269 6:0.11010744 7:0.22013469 8:0.2699071 9:0.14111134 
-0 -0 -0 -0.87387882691600327 0 294.86658619369973 1:0.065310758 2:0.09217936 3:-0.051776699 4:0.12322025 5:0.10259848 6:-0.096835349 7:0.16381926 8:0.092944962 9:-0.15503291 
-0 -0 -0 -0 20.5786408925525 0 1:0.074442917 2:0.68645598 3:0.18201758 4:0.089722868 5:0.70983378 6:0.15976511 7:0.12403043 8:0.36734554 9:0.12294753 
-122.82380416382 -36.416123639262466 -25.006622020981315 -0.87387882691600327 20.5786408925525 294.86658619369973 1:-0.041550989 2:0.06861173 3:0.021845796 4:-0.060310032 5:0.11261751 6:0.010231288 7:-0.013373264 8:0.20721756 9:-0.012908879 
-0 -36.416123639262466 -25.006622020981315 -0.87387882691600327 20.5786408925525 0 1:-0.22014526 2:-0.064973177 3:-0.041142164 4:-0.20656547 5:-0.098759904 6:-0.058315253 7:-0.17974659 8:-0.14530675 9:-0.074156425 
-122.82380416382 -36.416123639262466 -25.006622020981315 -0.87387882691600327 20.5786408925525 294.86658619369973 1:0.016476668 2:0.042540922 3:-0.036853894 4:0.013841842 5:0.11178821 6:-0.050324148 7:-0.013245714 8:0.18891262 9:-0.040381357 
-122.82380416382 -36.416123639262466 -25.006622020981315 -0 20.5786408925525 294.86658619369973 1:0.083459813 2:0.35948435 3:-0.059713015 4:0.080214717 5:0.35542695 6:-0.0029851543 7:0.10873803 8:0.32657334 9:-0.078946395 
-122.82380416382 -36.416123639262466 -25.006622020981315 -0.87387882691600327 20.5786408925525 294.86658619369973 1:-0.021589925 2:-0.048637068 3:0.054802273 4:-0.029317233 5:0.0068857082 6:0.028806765 7:-0.021749134 8:0.070994283 9:0.0090913925 
-122.82380416382 -36.416123639262466 -25.006622020981315 -0 20.5786408925525 294.86658619369973 1:0.026551535 2:0.23300563 3:-0.033098093 4:-0.055729193 5:0.16551427 6:-0.090344862 7:-0.11810625 8:0.09684039 9:-0.15477374 
-122.82380416382 -36.416123639262466 -25.006622020981315 -0.87387882691600327 20.5786408925525 294.86658619369973 1:0.081598621 2:0.18428535 3:-0.11193861 4:0.03238916 5:0.0072994757 6:0.064745622 7:0.052072729 8:-0.0798632 9:0.10717989 
-0 -36.416123639262466 -25.006622020981315 -0 20.5786408925525 255.90742829434052 1:0.021129204 2:0.43627316 3:-0.15528863 4:0.043062616 5:0.43116906 6:0.094126407 7:0.10201247 8:0.40353928 9:0.11341682 
-122.82380416382 -36.416123639262466 -25.006622020981315 -0.87387882691600327 20.5786408925525 294.86658619369973 1:-0.039283981 2:-0.040846526 3:0.029052864 4:-0.058664425 5:0.0055709789 6:0.015944214 7:-0.049602765 8:0.044888825 9:0.024617497 
-122.82380416382 -36.416123639262466 -25.006622020981315 -0.87387882691600327 20.5786408925525 294.86658619369973 1:0.082523345 2:0.062067962 3:0.021314784 4:0.074562125 5:0.022385169 6:0.055656221 7:0.045207907 8:-0.025440273 9:0.07276873 
-0 -36.416123639262466 -25.006622020981315 -0.87387882691600327 20.5786408925525 0 1:-0.030468597 2:-0.048567393 3:-0.13823921 4:-0.039602181 5:-0.074080316 6:-0.087802947 7:-0.05563856 8:0.044706361 9:-0.049045898 
-0 -0 -0 -0 1.6810399054939034 0 1:0.013305195 2:0.98235683 3:0.16493053 4:-0.028060737 5:0.78486358 6:0.19111253 7:0.030215509 8:0.4733676 9:0.13909271 
-54.257660518099044 -36.416123639262466 -25.006622020981315 -0 20.5786408925525 0 1:-0.015194461 2:0.2705934 3:-0.017601331 4:0.026359276 5:0.41138444 6:-0.049243932 7:0.10991556 8:0.49375053 9:-0.049322735 
-122.82380416382 -24.610868702106785 -25.006622020981315 -0.87387882691600327 20.5786408925525 294.86658619369973 1:0.12317609 2:0.054578328 3:0.0074764747 4:0.11824458 5:0.064970901 6:0.01603766 7:0.088366283 8:0.052252257 9:0.056646737 
-0 -0 -0 -0.87387882691600327 0 0 1:0.1217976 2:-0.029228174 3:-0.022280695 4:0.17794278 5:-0.06574357 6:-0.0035298974 7:0.18911873 8:-0.076888179 9:0.017890976 
-122.82380416382 -0 -25.006622020981315 -0.87387882691600327 20.5786408925525 294.86658619369973 1:0.18756507 2:0.32906044 3:0.076633242 4:0.19099843 5:0.28114613 6:0.08648322 7:0.17196697 8:0.27376851 9:0.12433496 
-0 -36.416123639262466 -25.006622020981315 -0 20.5786408925525 0 1:0.12561964 2:0.43046605 3:0.093195679 4:0.1418966 5:0.44678188 6:0.12740077 7:0.085352182 8:0.54351354 9:0.14366824 
