svm_type nu_svc
kernel_type rbf
gamma 0.1111111111111111
nr_class 7
total_sv 2113
rho 0.62151847689260553 -0.032834023732079901 -0.081822952859822856 -0.0938667363313192 -0.041545828127372994 -0.044675862907914421 -31.30000524344992 -94.342795485156898 -116.3115229654518 -34.724382474578285 -44.969048764169194 29.252039832859314 5.6635361873929622 755.05411759956121 -11217.408943619708 -2923.7249794815884 43.599593364436004 -114.27454770342241 6.3201570331096733 -226.25881535506818 -690.43265953449566
label 4 2 3 5 6 0 1
nr_sv 246 265 346 303 281 287 385
SV
0.42791341119897058 0.37974768324244984 0.54605895235396729 0.48639673309811415 0.37478594088517614 0.4502333812932921 1:0.050954144 2:0.0022237156 3:0.13711848 4:0.050739984 5:0.0074942643 6:0.13493901 7:0.048996459 8:-0.0019775048 9:0.13718767 
0.42791341119897058 0.37974768324244984 0.54605895235396729 0.48639673309811415 0.37478594088517614 0.4502333812932921 1:0.096636077 2:0.002709903 3:0.10903797 4:0.097002118 5:0.0026294101 6:0.10898406 7:0.096618598 8:0.002727383 9:0.10905545 
0.42791341119897058 0.37974768324244984 0.54605895235396729 0.48639673309811415 0.37478594088517614 0.4502333812932921 1:0.096600891 2:0.002444752 3:0.10874455 4:0.096529507 5:0.0023817391 6:0.10887821 7:0.09664569 8:0.0027834705 9:0.10900204 
0.42791341119897058 0.37974768324244984 0.54605895235396729 0.48639673309811415 0.37478594088517614 0.4502333812932921 1:0.038007844 2:0.022186087 3:0.14039749 4:0.038659429 5:0.0223365 6:0.14024268 7:0.039025466 8:0.021703863 9:0.13909683 
0 0 0 0 0 0.4502333812932921 1:0.055371964 2:-0.0017250649 3:0.13489992 4:0.055086417 5:-0.0015109059 6:0.13501611 7:0.055496523 8:-0.0015291191 9:0.13512319 
0.42791341119897058 0.37974768324244984 0.54605895235396729 0.48639673309811415 0.37478594088517614 0.4502333812932921 1:0.095939727 2:0.0032072943 3:0.1094353 4:0.096118194 5:0.0035201593 6:0.10932823 7:0.096037703 8:0.0032164009 9:0.10945352 
0.42791341119897058 0.37974768324244984 0.54605895235396729 0.48639673309811415 0.37478594088517614 0.4502333812932921 1:0.096288028 2:0.0031013212 3:0.10945668 4:0.09602907 5:0.0029312288 6:0.10942099 7:0.096216644 8:0.002966922 9:0.10926 
0.42791341119897058 0.37974768324244984 0.54605895235396729 0.48639673309811415 0.37478594088517614 0.4502333812932921 1:0.0487653 2:0.0076826227 3:0.13973741 4:0.047888984 5:0.0050654073 6:0.13872157 7:0.047855065 8:0.0023411131 9:0.13816209 
0.42791341119897058 0 0 0 0 0 1:0.070664823 2:-0.007203153 3:0.12732364 4:0.070512948 5:-0.0066943423 6:0.12770715 7:0.070896461 8:-0.0067300352 9:0.12712622 
0.42791341119897058 0.37974768324244984 0.54605895235396729 0.48639673309811415 0.37478594088517614 0.4502333812932921 1:0.046667692 2:0.019314514 3:0.13638375 4:0.046229532 5:0.019314514 6:0.13593794 7:0.046122452 8:0.019359314 9:0.135742 
0.42791341119897058 0.37974768324244984 0.54605895235396729 0.48639673309811415 0.37478594088517614 0.4502333812932921 1:0.054396382 2:0.0079617344 3:0.13562266 4:0.054147262 5:0.008112881 6:0.13627425 7:0.053880662 8:0.008639171 9:0.13598943 
0.42791341119897058 0.37974768324244984 0.54605895235396729 0.48639673309811415 0.37478594088517614 0.4502333812932921 1:0.097465324 2:0.003344066 3:0.10840724 4:0.097438739 5:0.0032551997 6:0.10838976 7:0.097394667 8:0.0035316383 9:0.10833659 
0.42791341119897058 0.37974768324244984 0.54605895235396729 0.48639673309811415 0.37478594088517614 0.4502333812932921 1:0.055456513 2:0.000414567 3:0.13526396 4:0.055331221 5:0.00014723489 6:0.13474605 7:0.05514365 8:-0.00011172387 9:0.13468377 
0.42791341119897058 0.37974768324244984 0.54605895235396729 0.48639673309811415 0.37478594088517614 0.4502333812932921 1:0.051671008 2:0.010469707 3:0.13314326 4:0.051822156 5:0.010576786 6:0.13312432 7:0.052142661 8:0.010541093 9:0.13317822 
0 0.37974768324244984 0 0 0 0.4502333812932921 1:0.05557875 2:-0.0015673803 3:0.13498938 4:0.055462563 5:-0.0016296601 6:0.13460586 7:0.055292472 8:-0.0017185264 9:0.13457017 
0.42791341119897058 0.37974768324244984 0.54605895235396729 0.48639673309811415 0.37478594088517614 0.4502333812932921 1:0.096654873 2:0.0031474642 3:0.10899369 4:0.096717157 5:0.0032727569 6:0.10885091 7:0.096636659 8:0.0032636503 9:0.10881522 
0.42791341119897058 0.37974768324244984 0.54605895235396729 0.48639673309811415 0.37478594088517614 0.4502333812932921 1:0.054391756 2:0.0018538407 3:0.13476455 4:0.054454034 5:0.0020596265 6:0.13483593 7:0.054373543 8:0.0018629473 9:0.13508578 
0.42791341119897058 0.37974768324244984 0.54605895235396729 0.48639673309811415 0.37478594088517614 0.4502333812932921 1:0.055725042 2:-0.001302097 3:0.13440184 4:0.055627069 5:-0.0014798294 6:0.13457957 7:0.055251924 8:-0.001327217 9:0.13445429 
0.42791341119897058 0.37974768324244984 0.54605895235396729 0.48639673309811415 0.37478594088517614 0.4502333812932921 1:0.095281475 2:0.0028367744 3:0.10888967 4:0.095887526 5:0.003274199 6:0.1092018 7:0.096645453 8:0.003203546 9:0.10973721 
0.42791341119897058 0.37974768324244984 0.54605895235396729 0.48639673309811415 0.37478594088517614 0.4502333812932921 1:0.055258368 2:-0.00034336283 3:0.13495183 4:0.055222676 5:-0.00029929629 6:0.13487207 7:0.055115596 8:-0.00021880335 9:0.13479158 
0.42791341119897058 0.37974768324244984 0.54605895235396729 0.48639673309811415 0.18739297044258807 0.4502333812932921 1:0.094779531 2:-0.00094324012 3:0.1104488 4:0.094886607 5:-0.00069485443 6:0.11099183 7:0.09499369 8:-0.00091885326 9:0.11125843 
0.42791341119897058 0.37974768324244984 0.54605895235396729 0.48639673309811415 0.37478594088517614 0.4502333812932921 1:0.096420685 2:0.003494424 3:0.10981899 4:0.095920982 5:0.0034678375 6:0.10957824 7:0.095733408 8:0.0035658103 9:0.10960483 
0.42791341119897058 0 0 0 0 0 1:0.070522055 2:-0.0069693144 3:0.12781496 4:0.071021757 5:-0.0062463448 6:0.12809141 7:0.070834918 8:-0.0064157037 9:0.12806409 
0.42791341119897058 0.37974768324244984 0.54605895235396729 0.48639673309811415 0.37478594088517614 0.4502333812932921 1:0.05706562 2:0.0045374275 3:0.1389251 4:0.056111744 5:0.0037802308 6:0.1382014 7:0.055880106 8:0.0035471254 9:0.1386381 
0.42791341119897058 0.37974768324244984 0.54605895235396729 0 0.37478594088517614 0.4502333812932921 1:0.055453457 2:-0.0011299558 3:0.1348914 4:0.055569643 5:-0.0012097155 6:0.13499848 7:0.055685099 8:-0.0012180888 9:0.13495369 
0.42791341119897058 0.37974768324244984 0.54605895235396729 0.48639673309811415 0.37478594088517614 0.4502333812932921 1:0.096986214 2:0.0028515417 3:0.10864037 4:0.096762949 5:0.0028690216 6:0.10850743 7:0.096762949 8:0.0030209008 9:0.10848085 
0.42791341119897058 0.37974768324244984 0.54605895235396729 0.48639673309811415 0.37478594088517614 0.4502333812932921 1:0.095761733 2:0.0031362813 3:0.10934813 4:0.096092082 5:0.0033413336 6:0.10935724 7:0.096082975 8:0.0033770268 9:0.10940204 
0.42791341119897058 0.37974768324244984 0.54605895235396729 0.48639673309811415 0.37478594088517614 0.4502333812932921 1:0.096870358 2:0.0033664176 3:0.10890962 4:0.096325857 5:0.003223645 6:0.10883824 7:0.096557495 8:0.0028667133 9:0.10866888 
0.42791341119897058 0.37974768324244984 0.54605895235396729 0.48639673309811415 0.37478594088517614 0.4502333812932921 1:0.056254267 2:0.0033638677 3:0.13536702 4:0.056362078 5:0.0034891604 6:0.13527742 7:0.056201827 8:0.0037830792 9:0.13507163 
0.42791341119897058 0.37974768324244984 0.54605895235396729 0.48639673309811415 0.37478594088517614 0.4502333812932921 1:0.055148635 2:0.0095434223 3:0.12846627 4:0.05480081 5:0.0097484741 6:0.12820114 7:0.055006594 8:0.0098821402 9:0.12866735 
0.42791341119897058 0.37974768324244984 0.54605895235396729 0.48639673309811415 0.37478594088517614 0.4502333812932921 1:0.09650359 2:0.0028849265 3:0.10911614 4:0.096673678 5:0.0027064607 6:0.10874099 7:0.0966114 8:0.0024923016 9:0.10892857 
0 0.37974768324244984 0 0 0 0.4502333812932921 1:0.055005927 2:-0.0015465991 3:0.13510498 4:0.055308949 5:-0.0013590267 6:0.13516725 7:0.055139592 8:-0.0014213064 9:0.13509513 
0.42791341119897058 0.37974768324244984 0.54605895235396729 0.48639673309811415 0.37478594088517614 0.4502333812932921 1:0.095516777 2:0.0031722524 3:0.10979801 4:0.09593599 5:0.0028328006 6:0.10985046 7:0.095980788 8:0.0030378529 9:0.10966215 
0.42791341119897058 0.37974768324244984 0.54605895235396729 0.48639673309811415 0.37478594088517614 0.4502333812932921 1:0.055176386 2:0.00011121827 3:0.13458025 4:0.054783763 5:0.00012105813 6:0.13533891 7:0.055230291 8:0.0002638308 9:0.13508906 
0.42791341119897058 0.37974768324244984 0.54605895235396729 0.48639673309811415 0.37478594088517614 0.4502333812932921 1:0.049056727 2:0.0073786411 3:0.13653393 4:0.048923062 5:0.0075571071 6:0.13681947 7:0.049021035 8:0.0075396274 9:0.13693566 
0.42791341119897058 0.37974768324244984 0.54605895235396729 0.48639673309811415 0.37478594088517614 0.4502333812932921 1:0.055557884 2:0.0030433624 3:0.13450055 4:0.055522189 5:0.003248415 6:0.13474129 7:0.055557884 8:0.0034625739 9:0.13473219 
0 0.37974768324244984 0 0 0 0.4502333812932921 1:0.055559906 2:-0.0014942408 3:0.13467822 4:0.055221184 5:-0.001466921 6:0.13490075 7:0.05555153 8:-0.0014403345 9:0.13492735 
0.42791341119897058 0.37974768324244984 0.54605895235396729 0.48639673309811415 0.37478594088517614 0.4502333812932921 1:0.0552143 2:-0.00013831042 3:0.13533607 4:0.055268209 5:4.0155401e-05 6:0.1352829 7:0.055339593 8:0.00037050048 9:0.13552365 
0.42791341119897058 0.37974768324244984 0.54605895235396729 0.48639673309811415 0.37478594088517614 0.4502333812932921 1:0.054932885 2:-0.0012572971 3:0.1345712 4:0.055066554 5:-0.0014987759 6:0.13460689 7:0.055379417 8:-0.0014721894 9:0.13490082 
0.42791341119897058 0.37974768324244984 0.54605895235396729 0.48639673309811415 0.37478594088517614 0.4502333812932921 1:0.095642074 2:0.0051619627 3:0.11015421 4:0.095570683 5:0.0051801759 6:0.11016332 7:0.095704351 8:0.0050191901 9:0.11009194 
0.42791341119897058 0.37974768324244984 0.54605895235396729 0.48639673309811415 0.37478594088517614 0.4502333812932921 1:0.044449581 2:0.018435999 3:0.13705647 4:0.043966622 5:0.018123866 6:0.1362439 7:0.043662131 8:0.01800768 9:0.13625375 
0.42791341119897058 0.37974768324244984 0.54605895235396729 0.48639673309811415 0.37478594088517614 0.4502333812932921 1:0.05345154 2:0.0081735667 3:0.13512307 4:0.053406741 5:0.0085836713 6:0.13502436 7:0.053594312 8:0.0084940713 9:0.13539041 
0.42791341119897058 0.37974768324244984 0.54605895235396729 0.48639673309811415 0.37478594088517614 0.4502333812932921 1:0.055736348 2:0.0033751741 3:0.13472455 4:0.05578115 5:0.0034192406 6:0.13476097 7:0.055923922 8:0.0037488523 9:0.13463642 
0.42791341119897058 0.37974768324244984 0.54605895235396729 0.48639673309811415 0.37478594088517614 0.4502333812932921 1:0.095213755 2:0.0028426405 3:0.10954816 4:0.095829641 5:0.0033248649 6:0.10975322 7:0.096302765 8:0.00362789 9:0.10977143 
0.42791341119897058 0.37974768324244984 0.54605895235396729 0.48639673309811415 0.37478594088517614 0.4502333812932921 1:0.085983741 2:0.0080656696 3:0.10288822 4:0.08841339 5:0.0087955469 6:0.10433417 7:0.09036594 8:0.0085016274 9:0.10727555 
0.42791341119897058 0.37974768324244984 0.54605895235396729 0.48639673309811415 0.37478594088517614 0.4502333812932921 1:0.095966209 2:0.0036197713 3:0.10967324 4:0.095742943 5:0.0036736777 6:0.1094325 7:0.095617653 8:0.0035931848 9:0.10983423 
0.42791341119897058 0.37974768324244984 0.54605895235396729 0.48639673309811415 0.37478594088517614 0.4502333812932921 1:0.052677442 2:0.010512615 3:0.13593961 4:0.052809642 5:0.010533028 6:0.13708869 7:0.052468725 8:0.010374975 9:0.13743505 
0.42791341119897058 0.37974768324244984 0.54605895235396729 0.48639673309811415 0.37478594088517614 0.4502333812932921 1:0.054936375 2:0.0001826046 3:0.13479588 4:0.055105733 5:8.4631699e-05 6:0.1348232 7:0.054881736 8:0.00024561759 9:0.13459082 
0.42791341119897058 0.37974768324244984 0.54605895235396729 0.48639673309811415 0.37478594088517614 0.4502333812932921 1:0.096556093 2:0.0025776847 3:0.10916229 4:0.096644956 5:0.0025776847 6:0.10892155 7:0.09683253 8:0.0028457502 9:0.10896561 
0.42791341119897058 0.37974768324244984 0.54605895235396729 0.48639673309811415 0.37478594088517614 0.4502333812932921 1:0.054544369 2:0.0032815674 3:0.13522238 4:0.054660555 5:0.0033088872 6:0.13540012 7:0.054705354 8:0.0035587392 9:0.13518595 
0.42791341119897058 0.37974768324244984 0.54605895235396729 0.48639673309811415 0.37478594088517614 0.4502333812932921 1:0.095957679 2:0.003216041 3:0.10925163 4:0.096118667 5:0.003332227 6:0.10932301 7:0.096448282 8:0.0030823748 9:0.10969816 
0.42791341119897058 0.37974768324244984 0.54605895235396729 0.48639673309811415 0.37478594088517614 0.4502333812932921 1:0.055357669 2:0.0034592998 3:0.13507123 4:0.05504554 5:0.0035397927 6:0.1354198 7:0.054983259 8:0.0036825654 9:0.13525044 
0 0 0 0 0 0.4502333812932921 1:0.055318056 2:-0.001644572 3:0.1348817 4:0.055487416 5:-0.0016263588 6:0.13489919 7:0.055255778 8:-0.0017425449 9:0.13461364 
0.42791341119897058 0.37974768324244984 0.54605895235396729 0.48639673309811415 0.37478594088517614 0.4502333812932921 1:0.096429485 2:0.0031368139 3:0.10897686 4:0.096411272 5:0.0032173068 6:0.10912948 7:0.09678642 8:0.0032712132 9:0.10884393 
0.42791341119897058 0.37974768324244984 0.54605895235396729 0.48639673309811415 0.37478594088517614 0.4502333812932921 1:0.054686121 2:-0.0015036709 3:0.1328608 4:0.053962418 5:-0.0017185632 6:0.13229044 7:0.053507514 8:-0.0013365114 9:0.13300504 
0.42791341119897058 0.37974768324244984 0.54605895235396729 0.48639673309811415 0.37478594088517614 0.4502333812932921 1:0.10069623 2:0.00032604228 3:0.10774875 4:0.10110413 5:0.00032573469 6:0.10558204 7:0.10140569 8:-0.00031527575 9:0.10446247 
0 0 0 0 0 0.4502333812932921 1:0.055847061 2:-0.0014240479 3:0.13471023 4:0.055695183 5:-0.0016108871 6:0.13507627 7:0.055847061 8:-0.001200049 9:0.13498667 
0.42791341119897058 0.37974768324244984 0.54605895235396729 0.48639673309811415 0.37478594088517614 0.4502333812932921 1:0.097197994 2:0.0033167462 3:0.10917354 4:0.09711823 5:0.0037268508 6:0.10916444 7:0.096457539 8:0.00323552 9:0.10887889 
0.42791341119897058 0.37974768324244984 0.54605895235396729 0.48639673309811415 0.37478594088517614 0.4502333812932921 1:0.053460647 2:0.0082708063 3:0.13521047 4:0.053933764 5:0.0082890195 6:0.13562132 7:0.054201829 8:0.0085388709 9:0.13566538 
0.42791341119897058 0.37974768324244984 0.54605895235396729 0.48639673309811415 0.37478594088517614 0.4502333812932921 1:0.055292572 2:0.00011959163 3:0.13507011 4:0.055399652 5:0.00011959163 6:0.13457952 7:0.055578119 8:4.8205299e-05 9:0.13441852 
0.42791341119897058 0.37974768324244984 0.54605895235396729 0.48639673309811415 0.37478594088517614 0.4502333812932921 1:0.096262177 2:0.0034484131 3:0.10937619 4:0.096529507 5:0.003332227 6:0.10927821 7:0.096118667 8:0.0036716786 9:0.10920683 
0.42791341119897058 0.37974768324244984 0.54605895235396729 0.48639673309811415 0.37478594088517614 0.4502333812932921 1:0.054970602 2:0.0005508426 3:0.13482099 4:0.05463115 5:0.00025619069 6:0.13505337 7:0.054773922 8:7.7724873e-05 9:0.13482173 
0.42791341119897058 0.37974768324244984 0.54605895235396729 0.48639673309811415 0.37478594088517614 0.4502333812932921 1:0.09590867 2:0.0048483646 3:0.10987411 4:0.095730202 5:0.0049736571 6:0.11023941 7:0.095247979 8:0.0046881119 9:0.10991891 
0.42791341119897058 0.37974768324244984 0.54605895235396729 0.48639673309811415 0.37478594088517614 0.4502333812932921 1:0.053920104 2:0.0084654493 3:0.13488293 4:0.054169956 5:0.0085011422 6:0.13498091 7:0.054187438 8:0.0085109823 9:0.13499838 
0 0.37974768324244984 0 0 0.37478594088517614 0.4502333812932921 1:0.055186558 2:-0.0014049648 3:0.13507378 4:0.054811414 5:-0.0017975896 6:0.13476165 7:0.054882801 8:-0.0017353099 9:0.13459229 
0.42791341119897058 0.37974768324244984 0.54605895235396729 0.48639673309811415 0.37478594088517614 0.4502333812932921 1:0.046459705 2:0.019314514 3:0.13673304 4:0.046290344 5:0.019126942 6:0.13660011 7:0.045826334 8:0.019341101 9:0.13686743 
0.42791341119897058 0.37974768324244984 0.54605895235396729 0.48639673309811415 0.37478594088517614 0.4502333812932921 1:0.053939052 2:0.0014065763 3:0.13474927 4:0.053947424 5:0.0013534032 6:0.13513351 7:0.054375743 8:0.0013442966 9:0.1353393 
0.42791341119897058 0.37974768324244984 0.54605895235396729 0.48639673309811415 0.37478594088517614 0.4502333812932921 1:0.09590867 2:0.0052592027 3:0.11005771 4:0.095712724 5:0.0053131088 6:0.11029919 7:0.095409701 8:0.0050989499 9:0.11018373 
0.42791341119897058 0.37974768324244984 0.54605895235396729 0.48639673309811415 0.37478594088517614 0.4502333812932921 1:0.056386467 2:0.0027949769 3:0.13423321 4:0.056457121 5:0.0026886305 6:0.13442916 7:0.056385733 8:0.0026886305 9:0.13470561 
0.42791341119897058 0.37974768324244984 0.54605895235396729 0.48639673309811415 0.37478594088517614 0.4502333812932921 1:0.054936992 2:0.0038799776 3:0.13513278 4:0.054741046 5:0.0038085913 6:0.13527555 7:0.054731939 8:0.0036749253 9:0.13495432 
0.42791341119897058 0.37974768324244984 0.54605895235396729 0.48639673309811415 0.37478594088517614 0.4502333812932921 1:0.046772674 2:0.0074687183 3:0.13769972 4:0.046718769 5:0.007709464 6:0.13728889 7:0.046941301 8:0.0075120518 9:0.13695017 
0.42791341119897058 0.37974768324244984 0.54605895235396729 0.48639673309811415 0.37478594088517614 0.4502333812932921 1:0.096279656 2:0.0029403354 3:0.10936708 4:0.09605639 5:0.0031370144 6:0.10919772 7:0.096029804 8:0.0031370144 9:0.10947416 
0.42791341119897058 0.37974768324244984 0.54605895235396729 0.48639673309811415 0.37478594088517614 0.4502333812932921 1:0.046343519 2:0.019548354 3:0.13695557 4:0.046334412 5:0.019173207 6:0.13725022 7:0.04629872 8:0.019262807 9:0.13695557 
0.42791341119897058 0.37974768324244984 0.54605895235396729 0.48639673309811415 0.37478594088517614 0.4502333812932921 1:0.054919513 2:0.0038876176 3:0.13491936 4:0.055124566 5:0.003494993 6:0.13500823 7:0.055133673 8:0.0035040996 9:0.13491863 
0.42791341119897058 0.37974768324244984 0.54605895235396729 0.48639673309811415 0.37478594088517614 0.4502333812932921 1:0.055357312 2:0.0001679342 3:0.13483952 4:0.05548187 5:0.0001679342 6:0.13475977 7:0.055393004 8:0.00023932053 9:0.13497392 
0.42791341119897058 0.37974768324244984 0.54605895235396729 0.48639673309811415 0.37478594088517614 0.4502333812932921 1:0.095735193 2:0.0033943701 3:0.10979294 4:0.095797477 5:0.0036267422 6:0.10964943 7:0.096056435 8:0.0036981285 9:0.10949828 
0 0.37974768324244984 0.54605895235396729 0 0.37478594088517614 0.4502333812932921 1:0.054826749 2:-0.0012252743 3:0.13487335 4:0.055272547 5:-0.0011090882 6:0.13505181 7:0.055165467 8:-0.0015548861 9:0.13506018 
0.42791341119897058 0.37974768324244984 0.54605895235396729 0.48639673309811415 0.37478594088517614 0.4502333812932921 1:0.055152147 2:-0.0013155019 3:0.13446876 4:0.054928881 5:-0.0012084223 6:0.13498667 7:0.054776999 8:-0.0011552492 9:0.13475504 
0.42791341119897058 0.37974768324244984 0.54605895235396729 0.48639673309811415 0.37478594088517614 0.4502333812932921 1:0.097118438 2:0.0018319662 3:0.10962929 4:0.097243734 5:0.0022519109 6:0.10969231 7:0.097333332 8:0.0022526442 9:0.10976442 
0.42791341119897058 0.37974768324244984 0.54605895235396729 0.48639673309811415 0.37478594088517614 0.4502333812932921 1:0.055420087 2:-0.00022790999 3:0.13489939 4:0.055205928 5:-1.3750972e-05 6:0.13466775 7:0.054920384 8:0.0002543144 9:0.13459637 
0.42791341119897058 0.37974768324244984 0.54605895235396729 0.48639673309811415 0.37478594088517614 0.4502333812932921 1:0.052047422 2:0.0059535749 3:0.13808634 4:0.051976035 5:0.0056944264 6:0.13636176 7:0.053498067 8:0.0086457706 9:0.13725042 
0.42791341119897058 0.37974768324244984 0.54605895235396729 0.48639673309811415 0.37478594088517614 0.4502333812932921 1:0.049652004 2:-9.6050199e-05 3:0.13596273 4:0.049956499 5:-0.00045402255 6:0.13635462 7:0.051719702 8:-0.0017170971 9:0.13590736 
0.42791341119897058 0.37974768324244984 0.54605895235396729 0.48639673309811415 0.37478594088517614 0.4502333812932921 1:0.096091608 2:0.0031898143 3:0.10926594 4:0.096439429 5:0.0031898143 6:0.10932823 7:0.096377152 8:0.0032346141 9:0.10933734 
0.42791341119897058 0.37974768324244984 0.54605895235396729 0.48639673309811415 0.37478594088517614 0.4502333812932921 1:0.096278967 2:0.0033146105 3:0.10913225 4:0.096350351 5:0.0032880239 6:0.1094269 7:0.096073914 8:0.0032166376 9:0.10959626 
0.42791341119897058 0.37974768324244984 0.54605895235396729 0.48639673309811415 0.37478594088517614 0.4502333812932921 1:0.054916141 2:-0.00026626189 3:0.13532223 4:0.054531886 5:-0.0002844751 6:0.13537613 7:0.055084767 8:-0.00043635436 9:0.13491138 
0.42791341119897058 0.37974768324244984 0.54605895235396729 0.48639673309811415 0.37478594088517614 0.4502333812932921 1:0.055089011 2:0.00025358113 3:0.13480905 4:0.054981931 5:9.3328534e-05 6:0.13463058 7:0.054910543 8:7.5115326e-05 9:0.13479158 
0 0 0.54605895235396729 0 0 0.4502333812932921 1:0.056113692 2:-0.00038464775 3:0.13551127 4:0.056007346 5:-0.00085776553 6:0.13566314 7:0.055837989 8:-0.0010180181 9:0.13553021 
0.42791341119897058 0.37974768324244984 0.54605895235396729 0.48639673309811415 0.37478594088517614 0.4502333812932921 1:0.056753236 2:0.0039007315 3:0.13453404 4:0.05651176 5:0.0040449707 6:0.13422118 7:0.056511026 8:0.0040988772 9:0.13485601 
0.42791341119897058 0.37974768324244984 0.54605895235396729 0.48639673309811415 0.37478594088517614 0.4502333812932921 1:0.097502176 2:0.00383613 3:0.10887711 4:0.097243218 5:0.0034700919 6:0.1089933 7:0.09676026 8:0.003719944 9:0.10914518 
0 0 0 0 0 0.4502333812932921 1:0.055355919 2:-0.0016540837 3:0.13467278 4:0.055311116 5:-0.0019130423 6:0.13486035 7:0.055364291 8:-0.0015735908 9:0.13490514 
0 0.37974768324244984 0 0 0 0.4502333812932921 1:0.054862966 2:-0.0014008031 3:0.13506327 4:0.055122658 5:-0.0016058555 6:0.13527742 7:0.055301122 8:-0.0009899651 9:0.13525921 
0.42791341119897058 0.37974768324244984 0.54605895235396729 0.48639673309811415 0.37478594088517614 0.4502333812932921 1:0.09573053 2:0.0044965647 3:0.11014758 4:0.095891519 5:0.0042467124 6:0.11009441 7:0.09555207 8:0.0044168048 9:0.11009368 
0.42791341119897058 0 0 0 0 0 1:0.069623549 2:-0.0058977864 3:0.12774577 4:0.069586388 5:-0.0052902691 6:0.12811035 7:0.069521908 8:-0.0045938858 9:0.12840428 
0.42791341119897058 0 0 0 0 0 1:0.070095932 2:-0.0062663319 3:0.12790719 4:0.06973827 5:-0.0065966771 6:0.12799459 7:0.069577282 8:-0.0065609837 9:0.12768937 
0 0 0 0 0 0.4502333812932921 1:0.055559349 2:-0.0014896693 3:0.13499261 4:0.055273072 5:-0.0016506552 6:0.13471617 7:0.055067284 8:-0.0018739207 9:0.13476935 
0.42791341119897058 0.37974768324244984 0.54605895235396729 0.48639673309811415 0.37478594088517614 0.4502333812932921 1:0.073213349 2:0.0012877748 3:0.12156433 4:0.068414993 5:-0.0015725034 6:0.12304952 7:0.058181751 8:-0.0036497318 9:0.13001658 
0.42791341119897058 0.37974768324244984 0.54605895235396729 0.48639673309811415 0.37478594088517614 0.4502333812932921 1:0.037743181 2:0.021504669 3:0.13877033 4:0.037662691 5:0.021602642 6:0.138503 7:0.037805463 8:0.021495563 9:0.13870878 
0.42791341119897058 0.37974768324244984 0.54605895235396729 0.48639673309811415 0.37478594088517614 0.4502333812932921 1:0.047879159 2:0.0081948768 3:0.13632007 4:0.048093319 5:0.008434889 6:0.13683726 7:0.048147227 8:0.0078630651 9:0.13680156 
0.42791341119897058 0.37974768324244984 0.54605895235396729 0.48639673309811415 0.37478594088517614 0.4502333812932921 1:0.054138817 2:0.008020954 3:0.13486191 4:0.053960349 5:0.0080391672 6:0.13488013 7:0.054165402 8:0.0077088216 9:0.13501453 
0.42791341119897058 0.37974768324244984 0.54605895235396729 0.48639673309811415 0.37478594088517614 0.4502333812932921 1:0.054732674 2:0.0054625167 3:0.13516304 4:0.054804061 5:0.0052301442 6:0.13501953 7:0.054812434 8:0.0054169837 9:0.13459121 
0.42791341119897058 0.37974768324244984 0.54605895235396729 0.48639673309811415 0.37478594088517614 0.4502333812932921 1:0.095292078 2:-0.00039433649 3:0.10827305 4:0.095460704 5:-0.00035791007 6:0.10817434 7:0.095371107 8:3.5447961e-05 9:0.10806653 
0.42791341119897058 0.37974768324244984 0.54605895235396729 0.48639673309811415 0.37478594088517614 0.4502333812932921 1:0.052542191 2:0.0041990166 3:0.13330308 4:0.053041163 5:0.0040737237 6:0.13288242 7:0.053576561 8:0.0038238714 9:0.13327431 
0.42791341119897058 0.37974768324244984 0.54605895235396729 0.48639673309811415 0.37478594088517614 0.4502333812932921 1:0.054849899 2:0.005757476 3:0.13381557 4:0.054930393 5:0.0059199283 6:0.13364621 7:0.055091378 8:0.0055538902 9:0.13392338 
0.42791341119897058 0.37974768324244984 0.54605895235396729 0.48639673309811415 0.37478594088517614 0.4502333812932921 1:0.056308729 2:0.00052645579 3:0.13539062 4:0.055995862 5:0.00035709665 6:0.13523873 7:0.055682999 8:0.00022343054 9:0.13476635 
0.42791341119897058 0 0 0 0 0 1:0.072378832 2:-0.0078722165 3:0.12652353 4:0.072078006 5:-0.008280855 6:0.12579219 7:0.07168831 8:-0.0081632026 9:0.12588942 
0 0.37974768324244984 0.54605895235396729 0 0 0.4502333812932921 1:0.055700656 2:-0.001267137 3:0.13525921 4:0.05567407 5:-0.0010613514 6:0.13510733 7:0.05558447 8:-0.0010795646 9:0.1351157 
0.42791341119897058 0.37974768324244984 0.54605895235396729 0.48639673309811415 0.37478594088517614 0.4502333812932921 1:0.096179415 2:0.0031373331 3:0.10916412 4:0.096313084 5:0.0035383313 6:0.10915575 7:0.096036647 8:0.0034487318 9:0.10928031 
0.42791341119897058 0.37974768324244984 0.54605895235396729 0.48639673309811415 0.37478594088517614 0.4502333812932921 1:0.055952107 2:0.0046696269 3:0.13637379 4:0.056095613 5:0.0049642787 6:0.13587262 7:0.05597032 8:0.004946799 9:0.13561293 
0.42791341119897058 0.37974768324244984 0.54605895235396729 0.48639673309811415 0.37478594088517614 0.4502333812932921 1:0.054446396 2:0.0037524851 3:0.13490042 4:0.054339316 5:0.0032261945 6:0.13478423 7:0.054651449 8:0.0034403534 9:0.13479334 
0.42791341119897058 0.37974768324244984 0.54605895235396729 0.48639673309811415 0.37478594088517614 0.4502333812932921 1:0.09628317 2:0.0041489955 3:0.11043276 4:0.096353085 5:0.0040776087 6:0.11078969 7:0.09600453 8:0.0038019034 9:0.11057406 
0.42791341119897058 0.37974768324244984 0.54605895235396729 0.48639673309811415 0.37478594088517614 0.4502333812932921 1:0.052639778 2:0.0080735215 3:0.13450487 4:0.052978496 5:0.007939122 6:0.13420257 7:0.052942804 8:0.0078670027 9:0.13442585 
0.42791341119897058 0.37974768324244984 0.54605895235396729 0.48639673309811415 0.37478594088517614 0.4502333812932921 1:0.097377266 2:0.0027190096 3:0.10914432 4:0.096948947 5:0.0028169825 6:0.10900227 7:0.096636811 8:0.0027630761 9:0.10852916 
0.42791341119897058 0.37974768324244984 0.54605895235396729 0.48639673309811415 0.37478594088517614 0.4502333812932921 1:0.053473572 2:0.008135838 3:0.13521402 4:0.053456093 5:0.0079573716 6:0.13521402 7:0.053813024 8:0.008269504 9:0.13559753 
0.42791341119897058 0.37974768324244984 0.54605895235396729 0.48639673309811415 0.37478594088517614 0.4502333812932921 1:0.055532586 2:-3.9927721e-05 3:0.13481188 4:0.055479412 5:0.00037091028 6:0.13507995 7:0.055149066 8:0.00040660346 9:0.13470554 
0.42791341119897058 0.37974768324244984 0.54605895235396729 0.48639673309811415 0.37478594088517614 0.4502333812932921 1:0.04594252 2:0.019215808 3:0.13637537 4:0.046281238 5:0.01917174 6:0.13648245 7:0.04643312 8:0.019163368 9:0.13644675 
0.42791341119897058 0.37974768324244984 0.54605895235396729 0.48639673309811415 0.37478594088517614 0.4502333812932921 1:0.052660272 2:0.0064094854 3:0.13551348 4:0.052392938 5:0.0061323133 6:0.13610425 7:0.052465057 8:0.0063555788 9:0.13690081 
0.42791341119897058 0.37974768324244984 0.54605895235396729 0.48639673309811415 0.37478594088517614 0.4502333812932921 1:0.044720579 2:0.018750331 3:0.13824052 4:0.044381127 5:0.018840662 6:0.13792766 7:0.043487332 8:0.018725943 9:0.13744543 
0 0.37974768324244984 0.40954421426547549 0 0.37478594088517614 0.4502333812932921 1:0.054999534 2:-0.0014134747 3:0.13510432 4:0.05491904 5:-0.0013777816 6:0.1351218 7:0.054821067 8:-0.001351195 9:0.13520229 
0.42791341119897058 0 0 0 0 0 1:0.069674524 2:-0.0054308421 3:0.12709492 4:0.070023079 5:-0.0058052538 6:0.12734624 7:0.07077264 8:-0.0059746127 9:0.12747154 
0.42791341119897058 0.37974768324244984 0.54605895235396729 0.48639673309811415 0.37478594088517614 0.4502333812932921 1:0.053612088 2:0.0082920925 3:0.13536286 4:0.05365689 5:0.0084166519 6:0.13546994 7:0.053388822 8:0.0083627457 9:0.13544335 
0.42791341119897058 0.37974768324244984 0.54605895235396729 0.48639673309811415 0.37478594088517614 0.4502333812932921 1:0.096689837 2:0.0026462934 3:0.10875912 4:0.096734636 5:0.0027169464 6:0.10863382 7:0.097037658 8:0.0027708528 9:0.10864293 
0.42791341119897058 0.37974768324244984 0.54605895235396729 0.48639673309811415 0.37478594088517614 0.4502333812932921 1:0.094881944 2:0.0050814698 3:0.11006315 4:0.094774861 5:0.0048938976 6:0.11002672 7:0.094801447 8:0.005196923 9:0.10983004 
0.42791341119897058 0.37974768324244984 0.54605895235396729 0.48639673309811415 0.37478594088517614 0.4502333812932921 1:0.09150753 2:0.0012844884 3:0.10713809 4:0.090525603 5:0.00033458663 6:0.10584622 7:0.090620643 8:0.00059207896 9:0.10527659 
0.42791341119897058 0.37974768324244984 0.54605895235396729 0.48639673309811415 0.37478594088517614 0.4502333812932921 1:0.046041227 2:0.018511051 3:0.13657896 4:0.04580812 5:0.018867249 6:0.13636406 7:0.04528947 8:0.019063196 9:0.13581119 
0.42791341119897058 0.37974768324244984 0.54605895235396729 0.48639673309811415 0.37478594088517614 0.4502333812932921 1:0.09701042 2:0.0040655695 3:0.10856676 4:0.097108389 5:0.003976703 6:0.10859334 7:0.097170674 8:0.003745064 9:0.10879839 
0.42791341119897058 0.37974768324244984 0.54605895235396729 0.48639673309811415 0.37478594088517614 0.4502333812932921 1:0.038303712 2:0.021469713 3:0.1390934 4:0.037839698 5:0.021844125 6:0.13867419 7:0.037982473 8:0.0214963 9:0.13847751 
0.42791341119897058 0.37974768324244984 0.54605895235396729 0.48639673309811415 0.37478594088517614 0.4502333812932921 1:0.054712275 2:-0.001404928 3:0.13475701 4:0.055050993 5:-0.0014322478 6:0.13477522 7:0.054970502 8:-0.0013699681 9:0.1347927 
0.42791341119897058 0.37974768324244984 0.54605895235396729 0.48639673309811415 0.37478594088517614 0.4502333812932921 1:0.042408898 2:0.01742895 3:0.13786391 4:0.042891122 5:0.017571723 6:0.13796115 7:0.043185775 8:0.017455537 9:0.13769308 
0.42791341119897058 0.37974768324244984 0.54605895235396729 0.48639673309811415 0.37478594088517614 0.4502333812932921 1:0.05510746 2:0.00031070686 3:0.13491092 4:0.055036073 5:0.00022110732 6:0.13510758 7:0.055428696 8:0.00018541416 9:0.13502709 
0.42791341119897058 0.37974768324244984 0.54605895235396729 0.48639673309811415 0.37478594088517614 0.4502333812932921 1:0.096492504 2:0.0026993893 3:0.10884393 4:0.096795526 5:0.0025300299 6:0.1085409 7:0.097045378 8:0.0027532956 9:0.10879076 
0.42791341119897058 0.37974768324244984 0.54605895235396729 0.48639673309811415 0.37478594088517614 0.4502333812932921 1:0.096090552 2:0.0035641846 3:0.10944056 4:0.096188522 5:0.0033591323 6:0.10942308 7:0.096224221 8:0.0033598656 9:0.10946861 
0.42791341119897058 0.37974768324244984 0.54605895235396729 0.48639673309811415 0.37478594088517614 0.4502333812932921 1:0.096876751 2:0.0035385451 3:0.10900418 4:0.09750175 5:0.0036372513 6:0.1089419 7:0.097287591 8:0.0040032898 9:0.10869205 
0.42791341119897058 0.37974768324244984 0.54605895235396729 0.48639673309811415 0.37478594088517614 0.4502333812932921 1:0.053508533 2:0.0086173285 3:0.13518815 4:0.053803183 5:0.0086439157 6:0.13520636 7:0.05332096 8:0.008269504 9:0.13535825 
0.42791341119897058 0 0 0 0 0 1:0.06367649 2:-0.016823134 3:0.12284524 4:0.065812326 5:-0.012295543 6:0.12258042 7:0.067667334 8:-0.0084271754 9:0.12351388 
0.42791341119897058 0.37974768324244984 0.54605895235396729 0.48639673309811415 0.37478594088517614 0.4502333812932921 1:0.057309526 2:0.011292198 3:0.13702384 4:0.057131059 5:0.011131945 6:0.1371415 7:0.057399127 8:0.010667934 9:0.13703662 
0.42791341119897058 0.37974768324244984 0.54605895235396729 0.48639673309811415 0.37478594088517614 0.4502333812932921 1:0.095949352 2:0.002975892 3:0.10907143 4:0.095966831 5:0.0028779191 6:0.1091246 7:0.096341979 8:0.0032971305 9:0.10917778 
0.42791341119897058 0.37974768324244984 0.54605895235396729 0.48639673309811415 0.37478594088517614 0.4502333812932921 1:0.09654772 2:0.0029585486 3:0.1091369 4:0.096743667 5:0.0030572547 6:0.10919845 7:0.096565199 8:0.0030215616 9:0.10935871 
0.42791341119897058 0 0 0 0 0 1:0.055047233 2:-0.0025513094 3:0.13602165 4:0.0547373 5:-0.0024449635 6:0.13409819 7:0.055729802 8:-0.002109178 9:0.13243442 
0.42791341119897058 0.37974768324244984 0.54605895235396729 0.48639673309811415 0.37478594088517614 0.4502333812932921 1:0.098096801 2:0.0032271467 3:0.10670662 4:0.098133227 5:0.0032362533 6:0.10679622 7:0.098196239 8:0.0030585206 9:0.10693973 
0.42791341119897058 0.37974768324244984 0.54605895235396729 0.48639673309811415 0.37478594088517614 0.4502333812932921 1:0.096198685 2:0.0034054398 3:0.10942693 4:0.096029331 5:0.0034411329 6:0.1091596 7:0.096181206 8:0.0033788532 9:0.10953474 
0.42791341119897058 0.37974768324244984 0.54605895235396729 0.48639673309811415 0.37478594088517614 0.4502333812932921 1:0.05505054 2:-0.0011145245 3:0.13486585 4:0.054594901 5:-0.0015610557 6:0.1346251 7:0.054478715 8:-0.001418283 9:0.13451876 
0.42791341119897058 0.37974768324244984 0.54605895235396729 0.48639673309811415 0.37478594088517614 0.4502333812932921 1:0.046808366 2:0.0070935736 3:0.13710205 4:0.046656488 5:0.0073609056 6:0.13715522 7:0.04679926 8:0.0071824401 9:0.13754785 
0 0.28481076243183739 0 0 0 0.4502333812932921 1:0.055140594 2:-0.0014511943 3:0.1348018 4:0.055292472 5:-0.0018256058 6:0.13499776 7:0.055542323 8:-0.0016471401 9:0.13457854 
0.42791341119897058 0.37974768324244984 0.54605895235396729 0.48639673309811415 0.37478594088517614 0.4502333812932921 1:0.096207583 2:0.0036988618 3:0.10986432 4:0.096234903 5:0.0037436616 6:0.11002531 7:0.096458162 8:0.0036183689 9:0.10989091 
0.42791341119897058 0.37974768324244984 0.54605895235396729 0.48639673309811415 0.37478594088517614 0.4502333812932921 1:0.096444033 2:0.0033568387 3:0.10872512 4:0.096756169 5:0.0036962905 6:0.10959997 7:0.096516152 8:0.0043456742 9:0.11054547 
0.42791341119897058 0.37974768324244984 0.54605895235396729 0.48639673309811415 0.37478594088517614 0.4502333812932921 1:0.095635866 2:0.0037800239 3:0.10980691 4:0.095581961 5:0.0035385451 6:0.10944924 7:0.095929782 8:0.0035651317 9:0.10971731 
0.42791341119897058 0.37974768324244984 0.54605895235396729 0.48639673309811415 0.37478594088517614 0.4502333812932921 1:0.037597107 2:0.021405439 3:0.13907386 4:0.037445963 5:0.021147213 6:0.13903816 7:0.037410271 8:0.02128088 9:0.13869033 
0.42791341119897058 0.37974768324244984 0.54605895235396729 0.48639673309811415 0.37478594088517614 0.4502333812932921 1:0.096190097 2:0.0032789173 3:0.10940942 4:0.09612782 5:0.0033055039 6:0.10947243 7:0.096244009 8:0.0031004514 9:0.10927575 
0 0 0 0 0 0.4502333812932921 1:0.055327162 2:-0.0013324402 3:0.135007 4:0.055514736 5:-0.0012078807 6:0.13516798 7:0.05570231 8:-0.0014311463 9:0.13524774 
0.42791341119897058 0.37974768324244984 0.54605895235396729 0.48639673309811415 0.37478594088517614 0.4502333812932921 1:0.095007234 2:0.0048833245 3:0.10948295 4:0.094845518 5:0.0045620859 6:0.10952848 7:0.095032358 8:0.0048119382 9:0.10966215 
0.42791341119897058 0 0 0 0 0 1:0.072268628 2:-0.0054134802 3:0.12829144 4:0.071667284 5:-0.0033465175 6:0.12845317 7:0.071564181 8:-0.0012879279 9:0.12819568 
0 0.37974768324244984 0 0 0 0.4502333812932921 1:0.055014299 2:-0.0016263588 3:0.13476625 4:0.055085687 5:-0.0017068517 6:0.13476625 7:0.055023406 8:-0.0016977451 9:0.13519457 
0.42791341119897058 0.37974768324244984 0.54605895235396729 0.48639673309811415 0.37478594088517614 0.4502333812932921 1:0.096233327 2:0.0032702661 3:0.10958407 4:0.096171043 5:0.0031631866 6:0.10944967 7:0.095983469 8:0.0032436795 9:0.10933348 
0.42791341119897058 0.37974768324244984 0.54605895235396729 0.48639673309811415 0.37478594088517614 0.4502333812932921 1:0.046602583 2:0.0070746274 3:0.13751362 4:0.046379317 5:0.0072432532 6:0.13754094 7:0.046370945 8:0.0070116142 9:0.13736174 
0.42791341119897058 0.37974768324244984 0.54605895235396729 0.48639673309811415 0.37478594088517614 0.4502333812932921 1:0.037544735 2:0.020882701 3:0.13878212 4:0.037473347 5:0.021222152 6:0.13866593 7:0.037339682 8:0.021597298 9:0.13814875 
0.42791341119897058 0.37974768324244984 0.54605895235396729 0.48639673309811415 0.37478594088517614 0.4502333812932921 1:0.054973418 2:0.0038169648 3:0.13484798 4:0.0550357 5:0.0040311237 6:0.13502644 7:0.055017486 8:0.0037546851 9:0.13489277 
0.42791341119897058 0 0 0 0 0 1:0.07090484 2:-0.0072738063 3:0.12789619 4:0.070628396 5:-0.0076930175 6:0.12756585 7:0.070343587 8:-0.0076573245 9:0.12753015 
0.42791341119897058 0.37974768324244984 0.54605895235396729 0.48639673309811415 0.37478594088517614 0.4502333812932921 1:0.094941529 2:0.0040999966 3:0.11035048 4:0.094950636 5:0.0040551971 6:0.11000191 7:0.09519138 8:0.0038046113 9:0.11018038 
0.42791341119897058 0.37974768324244984 0.54605895235396729 0.48639673309811415 0.37478594088517614 0.4502333812932921 1:0.056354262 2:-0.00070752471 3:0.13470554 4:0.055792278 5:-0.00079712429 6:0.13484831 7:0.055757317 8:-0.00055637871 9:0.13475871 
0.42791341119897058 0.37974768324244984 0.54605895235396729 0.48639673309811415 0.37478594088517614 0.4502333812932921 1:0.037347256 2:0.022103289 3:0.13862805 4:0.037329043 5:0.021862544 6:0.13857414 7:0.037436122 8:0.022050116 9:0.13867212 
0.42791341119897058 0.37974768324244984 0.54605895235396729 0.48639673309811415 0.37478594088517614 0.4502333812932921 1:0.055212078 2:0.00038001688 3:0.13513312 4:0.055140694 5:0.00024635083 6:0.13520452 7:0.055176386 8:0.00029952395 9:0.13517793 
0 0 0.54605895235396729 0 0 0.4502333812932921 1:0.056165401 2:-0.0011691641 3:0.13493944 4:0.056460051 5:-0.0010711913 6:0.13486806 7:0.056236785 8:-0.0011782707 9:0.13491285 
0.42791341119897058 0.37974768324244984 0.54605895235396729 0.48639673309811415 0.37478594088517614 0.4502333812932921 1:0.097033372 2:0.0033408783 3:0.10925351 4:0.096774414 5:0.0033773047 6:0.10884341 7:0.096934668 8:0.0031449326 9:0.10925425 
0.42791341119897058 0.37974768324244984 0.54605895235396729 0.48639673309811415 0.37478594088517614 0.4502333812932921 1:0.054819355 2:-0.00091506354 3:0.13498027 4:0.055167179 5:-0.0010130365 6:0.13505165 7:0.05473886 8:-0.0012006089 9:0.13481091 
0.42791341119897058 0.37974768324244984 0 0 0.37478594088517614 0.4502333812932921 1:0.05539855 2:-0.0015109059 3:0.13444355 4:0.055327162 5:-0.0017341715 6:0.13478374 7:0.055469937 8:-0.0015557057 9:0.13484602 
0.42791341119897058 0.37974768324244984 0.54605895235396729 0.48639673309811415 0.37478594088517614 0.4502333812932921 1:0.09638696 2:0.0029156886 3:0.1090813 4:0.09638696 5:0.0029870749 6:0.1090456 7:0.09647583 8:0.003040248 9:0.10903723 
0.42791341119897058 0.37974768324244984 0.54605895235396729 0.48639673309811415 0.37478594088517614 0.4502333812932921 1:0.095994105 2:0.0020914866 3:0.10878788 4:0.095637178 5:0.0022426328 6:0.10920636 7:0.095548308 8:0.0022418995 9:0.10899983 
0.42791341119897058 0.37974768324244984 0.54605895235396729 0.48639673309811415 0.37478594088517614 0.4502333812932921 1:0.096964152 2:0.0025711635 3:0.10856383 4:0.097017323 5:0.002660763 6:0.10852813 7:0.097240589 8:0.0029470415 9:0.10879546 
0.42791341119897058 0.37974768324244984 0.54605895235396729 0.48639673309811415 0.37478594088517614 0.4502333812932921 1:0.049387807 2:0.007100736 3:0.13730242 4:0.049075675 5:0.0074758811 6:0.13718623 7:0.049120474 8:0.0078328122 9:0.13699868 
0.42791341119897058 0.37974768324244984 0.54605895235396729 0.48639673309811415 0.37478594088517614 0.4502333812932921 1:0.053800099 2:0.0080657535 3:0.13497047 4:0.053398366 5:0.0083247124 6:0.13512234 7:0.05385327 8:0.0081196597 9:0.13513981 
0.42791341119897058 0.37974768324244984 0.54605895235396729 0.12159918327452854 0.37478594088517614 0.4502333812932921 1:0.054775287 2:-0.0010920629 3:0.13532119 4:0.054775287 5:-0.0012887419 6:0.13496353 7:0.054721382 8:-0.0014497278 9:0.13484734 
0.42791341119897058 0.37974768324244984 0.54605895235396729 0.48639673309811415 0.37478594088517614 0.4502333812932921 1:0.096059817 2:0.002592055 3:0.10901056 4:0.096291455 5:0.0026277483 6:0.10911765 7:0.096202593 8:0.002690028 9:0.10911765 
0.42791341119897058 0.37974768324244984 0.54605895235396729 0.48639673309811415 0.37478594088517614 0.4502333812932921 1:0.037393169 2:0.021219129 3:0.13869241 4:0.037447074 5:0.02111205 6:0.13883517 7:0.037009649 8:0.021236608 9:0.13892477 
0.42791341119897058 0.37974768324244984 0.54605895235396729 0.48639673309811415 0.37478594088517614 0.4502333812932921 1:0.05462486 2:0.0038009512 3:0.13525881 4:0.054839019 5:0.003827538 6:0.13488366 7:0.054598274 8:0.0037645248 9:0.13488366 
0.42791341119897058 0.37974768324244984 0.54605895235396729 0.48639673309811415 0.37478594088517614 0.4502333812932921 1:0.097155811 2:0.0025019426 3:0.11183991 4:0.097306958 5:0.0025369025 6:0.11200927 7:0.096869533 8:0.0023493301 9:0.11158932 
0.42791341119897058 0.37974768324244984 0.54605895235396729 0.48639673309811415 0.37478594088517614 0.4502333812932921 1:0.046888126 2:0.0079046766 3:0.1377263 4:0.04658437 5:0.0076988913 6:0.13823585 7:0.046905609 8:0.0072880528 9:0.13787055 
0 0 0 0 0 0.4502333812932921 1:0.055006928 2:-0.001316795 3:0.13524908 4:0.055533217 5:-0.0014413544 6:0.1351511 7:0.055202871 8:-0.0012719952 9:0.13530225 
0.42791341119897058 0.37974768324244984 0.54605895235396729 0.48639673309811415 0.37478594088517614 0.4502333812932921 1:0.051584856 2:0.013854691 3:0.14153279 4:0.051825293 5:0.013731598 6:0.14130188 7:0.051361708 8:0.015601149 9:0.13961592 
0.32093505839922792 0.37974768324244984 0.54605895235396729 0.48639673309811415 0.37478594088517614 0.4502333812932921 1:0.054683953 2:-0.00063532356 3:0.13549834 4:0.054880634 5:-0.00065353677 6:0.13533808 7:0.054916326 8:-0.00062695017 9:0.13563272 
0.42791341119897058 0.37974768324244984 0.54605895235396729 0.48639673309811415 0.37478594088517614 0.4502333812932921 1:0.037990468 2:0.021352266 3:0.13861748 4:0.037937294 5:0.021861077 6:0.13879594 7:0.037687443 8:0.021896771 9:0.13869797 
0.42791341119897058 0.37974768324244984 0.54605895235396729 0.48639673309811415 0.37478594088517614 0.4502333812932921 1:0.095714192 2:0.0045468058 3:0.10957548 4:0.095829641 5:0.0045020058 6:0.10994152 7:0.095999001 8:0.0044572063 9:0.11009266 
0.42791341119897058 0.37974768324244984 0.54605895235396729 0.48639673309811415 0.37478594088517614 0.4502333812932921 1:0.054785848 2:0.003737205 3:0.1353393 4:0.054625594 5:0.003540526 6:0.13509783 7:0.054616487 8:0.0035314194 9:0.13512515 
0.42791341119897058 0.37974768324244984 0.54605895235396729 0.48639673309811415 0.37478594088517614 0.4502333812932921 1:0.056471914 2:-0.00051964474 3:0.13441852 4:0.056677701 5:8.7139018e-05 6:0.1342499 7:0.056900963 8:0.00040000418 9:0.1338398 
0.42791341119897058 0.37974768324244984 0.54605895235396729 0.48639673309811415 0.37478594088517614 0.4502333812932921 1:0.054969311 2:-0.00081987258 3:0.13496457 4:0.055263965 5:-0.00076669949 6:0.13484838 7:0.055254858 8:-0.00077580609 9:0.13495546 
0 0 0 0 0 0.4502333812932921 1:0.05531098 2:-0.0015659551 3:0.13470679 4:0.055213007 5:-0.0016555546 6:0.13474321 7:0.054775585 8:-0.0020481795 9:0.13492168 
0 0.37974768324244984 0 0 0 0.4502333812932921 1:0.055355782 2:-0.0011558503 3:0.1348146 4:0.055399846 5:-0.0016023815 6:0.13499307 7:0.055444648 8:-0.001548475 9:0.13500217 
0.42791341119897058 0.37974768324244984 0.54605895235396729 0.48639673309811415 0.37478594088517614 0.4502333812932921 1:0.096216644 2:0.0035015862 3:0.10947416 4:0.096288028 5:0.0032426275 6:0.10942099 7:0.096082975 8:0.0032426275 9:0.10935033 
0.42791341119897058 0.37974768324244984 0.54605895235396729 0.48639673309811415 0.37478594088517614 0.4502333812932921 1:0.037546505 2:0.021200178 3:0.13857512 4:0.037564718 5:0.021066512 6:0.13893206 7:0.037671797 8:0.021396857 9:0.13882497 
0 0.37974768324244984 0 0 0 0.4502333812932921 1:0.055709972 2:-0.0015457795 3:0.13475716 4:0.055593786 5:-0.0015275663 6:0.13474805 7:0.055513291 8:-0.0014918731 9:0.13474805 
0.42791341119897058 0.37974768324244984 0.54605895235396729 0.48639673309811415 0.37478594088517614 0.4502333812932921 1:0.05526263 2:0.0089538476 3:0.13468008 4:0.055271006 5:0.0095795777 6:0.13471724 7:0.054913341 8:0.010054162 9:0.13463675 
0.42791341119897058 0.37974768324244984 0.54605895235396729 0.48639673309811415 0.37478594088517614 0.4502333812932921 1:0.095921298 2:0.0030723985 3:0.10992514 4:0.095966104 5:0.0035007163 6:0.10985375 7:0.096305552 8:0.0033761569 9:0.10999652 
0 0 0 0 0 0.4502333812932921 1:0.055442618 2:-0.0013499201 3:0.13537231 4:0.055442618 5:-0.001430413 6:0.13526523 7:0.055335538 8:-0.0013681333 9:0.13506855 
0.42791341119897058 0.37974768324244984 0.54605895235396729 0.48639673309811415 0.37478594088517614 0.4502333812932921 1:0.09775149 2:0.00097738239 3:0.10693058 4:0.097795561 5:0.00093875615 6:0.10744923 7:0.097830519 8:0.0010807956 9:0.10795878 
0.42791341119897058 0.37974768324244984 0.54605895235396729 0.48639673309811415 0.37478594088517614 0.4502333812932921 1:0.047049846 2:0.0072174 3:0.13769135 4:0.046995206 5:0.0075470121 6:0.13773615 7:0.046923087 8:0.0075470121 9:0.13767387 
0.42791341119897058 0.37974768324244984 0 0 0.37478594088517614 0.4502333812932921 1:0.055585389 2:-0.0018048246 3:0.13477536 4:0.055273257 5:-0.0013674001 6:0.13474804 7:0.055362123 8:-0.0014121998 9:0.13471236 
0.42791341119897058 0.37974768324244984 0.54605895235396729 0.48639673309811415 0.37478594088517614 0.4502333812932921 1:0.037318676 2:0.021470876 3:0.13886423 4:0.037658128 5:0.021318996 6:0.1389265 7:0.037577634 8:0.021407862 9:0.13916725 
0.42791341119897058 0.37974768324244984 0.54605895235396729 0.48639673309811415 0.37478594088517614 0.4502333812932921 1:0.055008516 2:0.00043278021 3:0.13497915 4:0.054901437 5:0.000414567 6:0.13536267 7:0.054910543 8:0.00028090094 9:0.13495183 
0.42791341119897058 0.37974768324244984 0.54605895235396729 0.48639673309811415 0.37478594088517614 0.4502333812932921 1:0.097624947 2:0.0040690629 3:0.10946336 4:0.097419894 5:0.0038913303 6:0.10962435 7:0.097268747 8:0.0038031973 9:0.10993721 
0.42791341119897058 0.37974768324244984 0.54605895235396729 0.48639673309811415 0.37478594088517614 0.4502333812932921 1:0.055684464 2:-0.00044092589 3:0.13457114 4:0.055693571 5:-0.00058369852 6:0.13490148 7:0.055818864 8:3.2191845e-05 9:0.13492735 
0.42791341119897058 0.37974768324244984 0.54605895235396729 0.48639673309811415 0.37478594088517614 0.4502333812932921 1:0.095786586 2:0.0033432781 3:0.10970206 4:0.095920248 5:0.0032893717 6:0.10974686 7:0.095724301 8:0.0032984783 9:0.10969369 
0.42791341119897058 0.37974768324244984 0.54605895235396729 0.48639673309811415 0.37478594088517614 0.4502333812932921 1:0.054100037 2:0.0036483387 3:0.13591113 4:0.054332409 5:0.0038442846 6:0.13558151 7:0.054073451 8:0.0039058309 9:0.13540379 
0.42791341119897058 0.37974768324244984 0.54605895235396729 0.48639673309811415 0.37478594088517614 0.4502333812932921 1:0.055175833 2:-0.00028520837 3:0.13483927 4:0.055149244 5:-0.00049936738 6:0.1351962 7:0.054890286 8:-0.00024951522 9:0.13503595 
0.42791341119897058 0.37974768324244984 0.54605895235396729 0.48639673309811415 0.37478594088517614 0.4502333812932921 1:0.096568627 2:0.0045704595 3:0.10900837 4:0.096514721 5:0.0045354996 6:0.10916098 7:0.096809371 8:0.0048582043 9:0.10922472 
0.42791341119897058 0.37974768324244984 0.54605895235396729 0.48639673309811415 0.37478594088517614 0.4502333812932921 1:0.054580795 2:0.003968844 3:0.13516083 4:0.054785848 5:0.0037987516 6:0.13494668 7:0.054571689 8:0.0038792445 9:0.13506213 
0.42791341119897058 0.37974768324244984 0.54605895235396729 0.48639673309811415 0.37478594088517614 0.4502333812932921 1:0.054130517 2:0.0086187582 3:0.13492702 4:0.054157103 5:0.0086992516 6:0.13510547 7:0.054112304 8:0.0084585059 9:0.13506068 
0.42791341119897058 0.37974768324244984 0.54605895235396729 0.48639673309811415 0.37478594088517614 0.4502333812932921 1:0.096215221 2:0.0025719609 3:0.10908054 4:0.096553935 5:0.0020372967 6:0.10899021 7:0.09720552 8:0.0017874444 9:0.10940869 
0.42791341119897058 0.37974768324244984 0.54605895235396729 0.48639673309811415 0.37478594088517614 0.4502333812932921 1:0.053317213 2:0.0087928246 3:0.13454893 4:0.053396973 5:0.0091140636 6:0.13441527 7:0.053325586 8:0.0090517834 9:0.13457625 
0.42791341119897058 0.37974768324244984 0.54605895235396729 0.48639673309811415 0.37478594088517614 0.4502333812932921 1:0.096696822 2:0.0033928395 3:0.10906719 4:0.097205632 5:0.0032584402 6:0.10877181 7:0.097036271 8:0.0030260681 9:0.10885157 
0.42791341119897058 0.37974768324244984 0.54605895235396729 0.48639673309811415 0.37478594088517614 0.4502333812932921 1:0.095266192 2:0.0050366702 3:0.10980492 4:0.095435552 5:0.0054201885 6:0.1100016 7:0.095551742 8:0.0052956291 9:0.11027804 
0.42791341119897058 0.37974768324244984 0.54605895235396729 0.48639673309811415 0.37478594088517614 0.4502333812932921 1:0.095391082 2:0.0042740322 3:0.11024482 4:0.095811028 5:0.0042110194 6:0.11003977 7:0.095650774 8:0.0041935393 9:0.11018255 
0.42791341119897058 0.37974768324244984 0.54605895235396729 0.48639673309811415 0.37478594088517614 0.4502333812932921 1:0.053817651 2:0.0078965221 3:0.13503556 4:0.05376448 5:0.0080127084 6:0.13512443 7:0.054050023 8:0.0080924673 9:0.13484798 
0.42791341119897058 0.37974768324244984 0.54605895235396729 0.48639673309811415 0.37478594088517614 0.4502333812932921 1:0.037794586 2:0.021666484 3:0.13872895 4:0.037553107 5:0.021390045 6:0.1384882 7:0.037874346 8:0.021264753 9:0.1385778 
0.42791341119897058 0.37974768324244984 0.54605895235396729 0.48639673309811415 0.37478594088517614 0.4502333812932921 1:0.037856863 2:0.021248006 3:0.13892489 4:0.037562213 5:0.0212389 6:0.13842518 7:0.037856863 8:0.021283698 9:0.1390145 
0.42791341119897058 0.37974768324244984 0.54605895235396729 0.48639673309811415 0.37478594088517614 0.4502333812932921 1:0.096542041 2:0.0029657334 3:0.10944799 4:0.096756201 5:0.0030728128 6:0.10927863 7:0.096774414 8:0.0028768671 9:0.10955507 
0.42791341119897058 0 0 0.48639673309811415 0 0 1:0.077744655 2:0.00095224985 3:0.13012592 4:0.078993493 5:0.0011191017 6:0.13076955 7:0.078629229 8:-0.00040146467 9:0.12947225 
0.42791341119897058 0.37974768324244984 0.54605895235396729 0.48639673309811415 0.37478594088517614 0.4502333812932921 1:0.054715195 2:0.0040668171 3:0.13464292 4:0.054946099 5:0.0041116166 6:0.13508872 7:0.054526887 8:0.0039149375 9:0.13466951 
0.42791341119897058 0.37974768324244984 0.54605895235396729 0.48639673309811415 0.37478594088517614 0.4502333812932921 1:0.053486534 2:0.0026088376 3:0.1321792 4:0.053942173 5:0.002849583 6:0.13177746 7:0.054004454 8:0.0029468228 9:0.13144639 
0.42791341119897058 0.37974768324244984 0.54605895235396729 0.48639673309811415 0.37478594088517614 0.4502333812932921 1:0.096484709 2:0.0027429232 3:0.10932155 4:0.096957826 5:0.0030914814 6:0.1096701 7:0.096931241 8:0.0033511735 9:0.10930407 
0.42791341119897058 0.37974768324244984 0.54605895235396729 0.48639673309811415 0.37478594088517614 0.4502333812932921 1:0.054296173 2:0.0034450606 3:0.13169887 4:0.054179253 5:0.0030706489 6:0.13132298 7:0.053813215 8:0.0029012898 9:0.13084913 
0.42791341119897058 0.37974768324244984 0.54605895235396729 0.48639673309811415 0.37478594088517614 0.4502333812932921 1:0.055282178 2:-0.0012223372 3:0.13490227 4:0.05531787 5:-0.0013203102 6:0.13481268 7:0.0551303 8:-0.0010613514 9:0.13504506 
0.42791341119897058 0.37974768324244984 0.54605895235396729 0.48639673309811415 0.37478594088517614 0.4502333812932921 1:0.055321616 2:0.00047095946 3:0.13487742 4:0.055633749 5:0.00030160026 6:0.13507337 7:0.055053552 8:0.00031070686 9:0.1347962 
0 0 0 0 0 0.4502333812932921 1:0.055905709 2:-0.0012033907 3:0.1351514 4:0.055727976 5:-0.0013734833 6:0.13516961 7:0.055585204 8:-0.0012398172 9:0.13504506 
0 0 0 0 0 0.4502333812932921 1:0.055548987 2:-0.0015275663 3:0.13465918 4:0.055513291 5:-0.0017326187 6:0.13471309 7:0.055727451 8:-0.0018662847 9:0.13467739 
0 0 0 0 0 0.4502333812932921 1:0.055141759 2:-0.0017520565 3:0.13503808 4:0.055150866 5:-0.0016009106 6:0.13487782 7:0.055096961 8:-0.0015652174 9:0.13490442 
0.42791341119897058 0.37974768324244984 0.54605895235396729 0.48639673309811415 0.37478594088517614 0.4502333812932921 1:0.046879648 2:0.019404847 3:0.13656221 4:0.046772568 5:0.019538513 6:0.13644602 7:0.046442226 8:0.019637218 9:0.13651815 
0.42791341119897058 0.37974768324244984 0.54605895235396729 0.48639673309811415 0.37478594088517614 0.4502333812932921 1:0.04639753 2:0.0068968949 3:0.13718254 4:0.04682658 5:0.0068968949 6:0.13760175 7:0.046799994 8:0.0072363462 9:0.13806577 
0.42791341119897058 0.37974768324244984 0.54605895235396729 0.48639673309811415 0.37478594088517614 0.4502333812932921 1:0.056119868 2:0.002936283 3:0.13432135 4:0.056102386 5:0.0031322289 6:0.13445501 7:0.055977093 8:0.0028557901 9:0.13442006 
0.42791341119897058 0.37974768324244984 0.54605895235396729 0.48639673309811415 0.37478594088517614 0.4502333812932921 1:0.093956604 2:0.0029515349 3:0.11002003 4:0.094286946 5:0.0027989224 6:0.11000108 7:0.094929424 8:0.0027716026 9:0.11000945 
0.42791341119897058 0.37974768324244984 0.54605895235396729 0.48639673309811415 0.37478594088517614 0.4502333812932921 1:0.096708785 2:0.0030214381 3:0.10873473 4:0.096922944 5:0.0028786655 6:0.1088684 7:0.096941158 8:0.0029948516 9:0.10890482 
0.42791341119897058 0.37974768324244984 0.54605895235396729 0.48639673309811415 0.37478594088517614 0.4502333812932921 1:0.096029804 2:0.0030641615 3:0.10911723 4:0.096092082 5:0.0032517341 6:0.10907242 7:0.096368519 8:0.0029487088 9:0.10914381 
0.42791341119897058 0.37974768324244984 0.54605895235396729 0.48639673309811415 0.37478594088517614 0.4502333812932921 1:0.096431024 2:0.0031473276 3:0.1093949 4:0.096511522 5:0.0030136614 6:0.10924229 7:0.096582906 8:0.0030850477 9:0.10913521 
0.42791341119897058 0.37974768324244984 0.54605895235396729 0.48639673309811415 0.37478594088517614 0.4502333812932921 1:0.096670237 2:0.0033965058 3:0.10912874 4:0.096840325 5:0.0034944787 6:0.10931558 7:0.096911716 8:0.0033782926 9:0.10916444 
0.42791341119897058 0.37974768324244984 0 0 0.37478594088517614 0.4502333812932921 1:0.054847703 2:-0.001762634 3:0.13435132 4:0.054767209 5:-0.0017451541 6:0.13465509 7:0.054758103 8:-0.0018970333 9:0.13478038 
0.42791341119897058 0.37974768324244984 0.54605895235396729 0.48639673309811415 0.37478594088517614 0.4502333812932921 1:0.037702193 2:0.021255984 3:0.13860599 4:0.037889767 5:0.021425343 6:0.13878446 7:0.037854075 8:0.021612915 9:0.13865006 
0.42791341119897058 0.37974768324244984 0.54605895235396729 0.48639673309811415 0.37478594088517614 0.4502333812932921 1:0.055034965 2:0.0036293923 3:0.1345617 4:0.05500838 5:0.003737205 6:0.13474927 7:0.055178471 8:0.0038085913 9:0.13525808 
0.42791341119897058 0.37974768324244984 0.54605895235396729 0.48639673309811415 0.37478594088517614 0.4502333812932921 1:0.094752733 2:0.0025913627 3:0.11052841 4:0.09428035 5:0.002546563 6:0.11033173 7:0.0939948 8:0.0028503214 9:0.11029604 
0.42791341119897058 0.37974768324244984 0.54605895235396729 0.48639673309811415 0.37478594088517614 0.4502333812932921 1:0.055522189 2:-0.001302097 3:0.13474203 4:0.05558447 5:-0.0012580304 6:0.1342955 7:0.055039965 8:-0.001418283 9:0.1343851 
0.42791341119897058 0.37974768324244984 0.54605895235396729 0.48639673309811415 0.37478594088517614 0.4502333812932921 1:0.054938461 2:0.0042627628 3:0.13492083 4:0.055000738 5:0.0040842968 6:0.13472487 7:0.054884552 8:0.0043075623 9:0.13488513 
0 0 0 0 0.37478594088517614 0 1:0.0523738 2:-0.0031809263 3:0.13446865 4:0.052284199 5:-0.0035750175 6:0.13475492 7:0.052311519 8:-0.0036569769 9:0.13480956 
0.42791341119897058 0.37974768324244984 0.54605895235396729 0.48639673309811415 0.37478594088517614 0.4502333812932921 1:0.096453171 2:0.0028145874 3:0.10941303 4:0.096524562 5:0.0029930532 6:0.10930595 7:0.096381787 8:0.0025199354 9:0.10952922 
0.42791341119897058 0.37974768324244984 0.54605895235396729 0.48639673309811415 0.37478594088517614 0.4502333812932921 1:0.095843455 2:0.0044946736 3:0.10984312 4:0.095888261 5:0.0047346858 6:0.11041422 7:0.095933059 8:0.0053611493 9:0.11047576 
0.42791341119897058 0.37974768324244984 0.54605895235396729 0.48639673309811415 0.37478594088517614 0.4502333812932921 1:0.055888226 2:0.0035332269 3:0.13493725 4:0.055683177 5:0.0035157469 6:0.13436614 7:0.056245161 8:0.0034618406 9:0.13446412 
0.42791341119897058 0.37974768324244984 0.54605895235396729 0.48639673309811415 0.37478594088517614 0.4502333812932921 1:0.046988811 2:0.019138556 3:0.13651378 4:0.04708605 5:0.019559235 6:0.13655711 7:0.047486315 8:0.019542489 9:0.13685941 
0 0.37974768324244984 0 0 0 0.4502333812932921 1:0.05542495 2:-0.001766108 3:0.13481268 4:0.055737082 5:-0.0017478948 6:0.1346251 7:0.055317136 8:-0.0011942841 9:0.13489317 
0 0 0 0 0 0.11255834532332303 1:0.055433322 2:-0.0018822941 3:0.13481342 4:0.055451535 5:-0.0015519491 6:0.13492049 7:0.05502322 8:-0.0015785357 9:0.13506327 
0.42791341119897058 0.37974768324244984 0.54605895235396729 0.48639673309811415 0.37478594088517614 0.4502333812932921 1:0.045950896 2:0.01937826 3:0.13650066 4:0.046200747 5:0.019190688 6:0.13680443 7:0.046067078 8:0.019136781 9:0.13640269 
-0.42791341119897058 0 0 0 0 0 1:0.19654743 2:0.20702145 3:0.0032542667 4:0.24505477 5:0.15863274 6:0.021624867 7:0.26199854 8:0.14916078 9:0.078705383 
-0 16.932510628820403 0 0 27.33279014701089 30.545967122771913 1:0.10369118 2:0.35532288 3:0.076927221 4:0.1171268 5:0.36879058 6:0.10516139 7:0.070452903 8:0.44863653 9:0.11858917 
-0.42791341119897058 0 0 0 0 0 1:0.025107728 2:0.044486218 3:-0.0016697975 4:0.036725981 5:-0.046232316 6:0.10731323 7:0.14689639 8:-0.07424649 9:0.044663766 
-0.42791341119897058 16.932510628820403 114.93479969251457 182.18101259735079 27.33279014701089 30.545967122771913 1:0.083450457 2:0.20554466 3:-0.086893788 4:0.070945179 5:0.097489357 6:0.010073739 7:0.036667725 8:-0.010846182 9:0.046123822 
-0 16.932510628820403 0 0 27.33279014701089 30.545967122771913 1:0.21237423 2:0.30765169 3:-0.082658623 4:0.12562302 5:0.2485105 6:-0.11121841 7:0.060531115 8:0.12474745 9:0.14020147 
-0 16.932510628820403 0 0 27.33279014701089 30.545967122771913 1:-0.017042232 2:0.033752503 3:-0.14405767 4:-0.013171926 5:0.011377576 6:-0.14620682 7:-0.022776909 8:0.057405563 9:-0.084725519 
-0.42791341119897058 6.138770513783725 0 0 0 0 1:0.066515587 2:0.40059801 3:0.024359673 4:0.079009848 5:0.2406041 6:0.038156173 7:0.16929343 8:0.54736993 9:0.33184662 
-0.42791341119897058 16.932510628820403 114.93479969251457 182.18101259735079 27.33279014701089 30.545967122771913 1:0.013992308 2:0.16893834 3:-0.00061954228 4:-0.0062952439 5:0.25002392 6:0.043231743 7:-0.016934364 8:0.24121962 9:0.037407155 
-0.42791341119897058 0 0 0 0 0 1:0.20756393 2:-0.057993634 3:-0.0049335412 4:0.18832868 5:-0.021248247 6:-0.00025488956 7:0.1380885 8:0.0012002977 9:0.038184349 
-0 16.932510628820403 114.93479969251457 182.18101259735079 27.33279014701089 30.545967122771913 1:0.035213593 2:0.22934744 3:-0.011911214 4:-0.0090240109 5:0.27409841 6:0.045305489 7:0.033955977 8:0.25293661 9:0.039240558 
-0.42791341119897058 16.932510628820403 114.93479969251457 182.18101259735079 27.33279014701089 30.545967122771913 1:0.068117875 2:0.051233232 3:0.017594025 4:0.061546384 5:0.018477561 6:0.045940739 7:0.037316308 8:-0.020999359 9:0.060066049 
-0.42791341119897058 0 0 0 0 30.545967122771913 1:0.025507075 2:-0.069343822 3:0.042664488 4:0.0058192544 5:-0.065714896 6:0.031224276 7:-0.0020559478 8:-0.048394803 9:0.0082145751 
-0.42791341119897058 16.932510628820403 114.93479969251457 182.18101259735079 27.33279014701089 30.545967122771913 1:0.081513571 2:0.06222316 3:0.056263748 4:0.078551964 5:0.042466795 6:0.028745833 7:0.058773229 8:-0.00020903585 9:0.054078679 
-0.42791341119897058 16.932510628820403 114.93479969251457 182.18101259735079 27.33279014701089 30.545967122771913 1:0.091767902 2:0.22127298 3:0.040059976 4:0.031427079 5:0.19214802 6:-0.0072873276 7:-0.025642008 8:0.14394919 9:-0.029727111 
-0.42791341119897058 0 114.93479969251457 182.18101259735079 0 0 1:0.053909957 2:0.076088313 3:-0.042738436 4:0.10171063 5:0.084688644 6:-0.079931542 7:0.13522258 8:0.07672027 9:-0.12797 
-0.42791341119897058 0 0 182.18101259735079 0 0 1:0.21361405 2:0.14845948 3:0.039898706 4:0.22798685 5:0.15478614 6:0.056753401 7:0.16141956 8:0.16821631 9:0.059227794 
-0.42791341119897058 16.932510628820403 114.93479969251457 182.18101259735079 27.33279014701089 30.545967122771913 1:-0.017821136 2:-0.040146866 3:0.045235859 4:-0.024199548 5:0.0056837227 6:0.023778188 7:-0.017952554 8:0.058601353 9:0.0075043775 
-0.42791341119897058 0 114.93479969251457 182.18101259735079 0 30.545967122771913 1:0.19246274 2:0.19152367 3:0.048125418 4:0.17988568 5:0.20867089 6:0.056775653 7:0.11813164 8:0.22867256 9:0.06547812 
-0.42791341119897058 16.932510628820403 114.93479969251457 182.18101259735079 27.33279014701089 30.545967122771913 1:0.081127204 2:0.095042741 3:0.22577023 4:0.016469749 5:0.21567769 6:0.069937887 7:0.0578724 8:0.23585644 9:-0.066688648 
-0.42791341119897058 16.932510628820403 0 0 27.33279014701089 30.545967122771913 1:0.016667729 2:0.52490228 3:0.20201486 4:0.058496543 5:0.34194546 6:0.11700549 7:0.1230523 8:0.25735472 9:0.069585861 
-0.42791341119897058 16.932510628820403 114.93479969251457 182.18101259735079 27.33279014701089 30.545967122771913 1:0.14434055 2:0.23592737 3:0.053617153 4:0.096266135 5:0.20905644 6:0.03300666 7:0.037026242 8:0.14790009 9:0.0039594981 
-0.42791341119897058 16.932510628820403 0 0 27.33279014701089 30.545967122771913 1:0.019250051 2:0.026454403 3:-0.080354862 4:-0.068894623 5:-0.050806884 6:-0.045774771 7:-0.082475983 8:-0.05034953 9:-0.090323456 
-0 16.932510628820403 114.93479969251457 182.18101259735079 27.33279014701089 30.545967122771913 1:-0.017450107 2:0.14106119 3:-0.07561082 4:-0.065324552 5:0.081236703 6:-0.093812237 7:-0.12543457 8:-0.00025865895 9:-0.087586165 
-0.42791341119897058 16.932510628820403 114.93479969251457 182.18101259735079 27.33279014701089 30.545967122771913 1:0.039206922 2:0.27734672 3:0.084775415 4:0.1003605 5:0.31419405 6:0.11570109 7:0.11606028 8:0.28908715 9:0.1234235 
-0 16.932510628820403 0 0 27.33279014701089 30.545967122771913 1:0.01744084 2:0.36011629 3:-0.12818108 4:0.035545504 5:0.35590317 6:0.077695479 7:0.084204932 8:0.33309651 9:0.093618512 
-0.42791341119897058 16.932510628820403 114.93479969251457 182.18101259735079 27.33279014701089 30.545967122771913 1:-0.0016984694 2:-0.040368578 3:0.026349355 4:-0.00099642883 5:-0.0083692395 6:0.0015582408 7:0.0011496057 8:0.043272759 9:-0.021781567 
-0.42791341119897058 16.932510628820403 114.93479969251457 182.18101259735079 27.33279014701089 30.545967122771913 1:-0.051671477 2:0.043918809 3:0.0038951097 4:-0.034319442 5:0.097675126 6:0.009655237 7:0.010180663 8:0.18087643 9:-0.00069471524 
-0.42791341119897058 16.932510628820403 0 0 27.33279014701089 30.545967122771913 1:-0.014950647 2:0.29032445 3:0.15661306 4:0.079052696 5:0.31212621 6:0.2006841 7:0.085576271 8:0.31192462 9:-0.12341939 
-0 16.932510628820403 114.93479969251457 182.18101259735079 27.33279014701089 30.545967122771913 1:0.024880476 2:0.23693245 3:0.043009274 4:0.023637949 5:0.26331866 6:0.040667383 7:0.048204689 8:0.39257461 9:-0.0119482 
-0 0 0 0 13.765220377219045 0 1:-0.056439603 2:0.0040689637 3:-0.11935634 4:-0.058856643 5:-0.014714672 6:-0.11760998 7:-0.0038573091 8:0.062965604 9:-0.17757049 
-0 16.932510628820403 114.93479969251457 182.18101259735079 27.33279014701089 30.545967122771913 1:-0.0014092167 2:0.31978255 3:-0.057141064 4:0.033635959 5:0.34164322 6:0.0062260892 7:0.063300289 8:0.31535883 9:-0.011510079 
-0.42791341119897058 0 114.93479969251457 182.18101259735079 0 0 1:0.14193493 2:0.17766784 3:0.10409668 4:0.17849692 5:0.16759132 6:0.090933852 7:0.19512571 8:0.16357465 9:0.039457264 
-0.42791341119897058 16.932510628820403 114.93479969251457 182.18101259735079 27.33279014701089 30.545967122771913 1:0.147531 2:0.21662627 3:0.048188531 4:0.10796348 5:0.17865165 6:0.025454281 7:0.059898796 8:0.14268125 9:-0.0028358742 
-0.42791341119897058 16.932510628820403 114.93479969251457 182.18101259735079 27.33279014701089 30.545967122771913 1:0.030251784 2:0.1237299 3:-0.041539893 4:-0.037596569 5:0.067223408 6:-0.062791636 7:-0.094169574 8:0.029928724 9:-0.078192983 
-0.42791341119897058 0 87.33724671577454 182.18101259735079 0 0 1:0.20140444 2:0.20491867 3:0.078404653 4:0.19141392 5:0.21868871 6:0.07179583 7:0.12710143 8:0.20458156 9:0.022114356 
-0 16.932510628820403 0 0 0 0 1:0.010982609 2:0.8108743 3:0.13613987 4:-0.023162388 5:0.64785593 6:0.15775148 7:0.024941018 8:0.39073544 9:0.11481236 
-0 5.0122849765760309 0 0 0 0 1:0.048179018 2:0.27743949 3:-0.10886818 4:0.054359044 5:0.29774788 6:-0.14701919 7:0.094105732 8:0.34780394 9:-0.10407137 
-0 16.932510628820403 114.93479969251457 182.18101259735079 27.33279014701089 30.545967122771913 1:-0.0063946988 2:0.28838661 3:-0.069150714 4:0.10487296 5:0.28344889 6:0.065619342 7:0.1892432 8:0.27540874 9:0.066500415 
-0.42791341119897058 16.932510628820403 114.93479969251457 182.18101259735079 27.33279014701089 30.545967122771913 1:0.065883281 2:0.066898473 3:0.011307446 4:0.021914902 5:0.013893795 6:0.030004398 7:0.05015605 8:-0.0093501415 9:0.005070818 
-0 16.932510628820403 114.93479969251457 182.18101259735079 27.33279014701089 30.545967122771913 1:0.046240546 2:0.27199867 3:-0.0081371275 4:-0.015696969 5:0.28315548 6:0.053911118 7:0.039843864 8:0.28937315 9:0.06376044 
-0.42791341119897058 16.932510628820403 0 0 0 30.545967122771913 1:0.090670962 2:0.313027 3:0.11860688 4:0.12790728 5:0.27419039 6:0.070152171 7:0.19147599 8:0.21719007 9:0.056233446 
-0.42791341119897058 16.932510628820403 114.93479969251457 182.18101259735079 27.33279014701089 30.545967122771913 1:0.016728246 2:0.20623716 3:-0.0011822126 4:0.030607536 5:0.27919486 6:0.047206596 7:0.043217824 8:0.22890087 9:0.049128633 
-0.42791341119897058 0 114.93479969251457 182.18101259735079 0 30.545967122771913 1:0.13818561 2:0.12410588 3:-0.023850482 4:0.10268847 5:0.084971868 6:-0.012724244 7:0.078124305 8:0.041330344 9:-0.00067781465 
-0.42791341119897058 0 114.93479969251457 182.18101259735079 0 0 1:0.13940984 2:0.21761809 3:0.045764257 4:0.1690374 5:0.18438927 6:0.022670519 7:0.19817093 8:0.16207115 9:0.02738516 
-0.42791341119897058 16.932510628820403 114.93479969251457 182.18101259735079 27.33279014701089 30.545967122771913 1:-0.010899146 2:0.20597629 3:0.030389796 4:0.0026468151 5:0.2354123 6:0.073729436 7:0.051972159 8:0.20268402 9:0.044999348 
-0.42791341119897058 0 114.93479969251457 182.18101259735079 0 0 1:0.18844214 2:0.13141565 3:0.090532044 4:0.18586331 5:0.14986663 6:0.058433931 7:0.15163572 8:0.15894047 9:0.06892427 
-0.42791341119897058 16.932510628820403 114.93479969251457 182.18101259735079 27.33279014701089 30.545967122771913 1:0.0036240713 2:0.18520268 3:-0.025335722 4:-0.022048066 5:0.26461822 6:0.03497905 7:0.00053686006 8:0.23300913 9:0.077300239 
-0.42791341119897058 16.932510628820403 114.93479969251457 0 27.33279014701089 30.545967122771913 1:0.051801557 2:-0.015355235 3:0.044802888 4:0.044780224 5:-0.033177136 6:0.065109412 7:0.032398905 8:-0.046733693 9:0.047572266 
-0 16.932510628820403 114.93479969251457 169.45446642446674 27.33279014701089 30.545967122771913 1:0.021967427 2:0.31387155 3:0.016898276 4:0.034682891 5:0.29511041 6:0.035746246 7:0.084536097 8:0.34246842 9:0.014533484 
-0 16.932510628820403 114.93479969251457 182.18101259735079 27.33279014701089 30.545967122771913 1:0.011142623 2:0.21949397 3:-0.0019446617 4:-0.027574706 5:0.30015687 6:0.038262611 7:0.022522566 8:0.23514308 9:0.033105479 
-0.42791341119897058 16.932510628820403 0 0 27.33279014701089 30.545967122771913 1:-0.08716445 2:-0.066367499 3:0.0045571119 4:-0.031970725 5:-0.022930037 6:-0.019161483 7:0.026878311 8:0.0058042891 9:-0.064975539 
-0.42791341119897058 16.932510628820403 114.93479969251457 182.18101259735079 0 30.545967122771913 1:0.15482326 2:0.27161888 3:0.063255962 4:0.15765729 5:0.23206859 6:0.071386505 7:0.14194801 8:0.22597883 9:0.10263075 
-0.42791341119897058 16.932510628820403 114.93479969251457 182.18101259735079 27.33279014701089 30.545967122771913 1:0.064893663 2:0.25472009 3:0.008265707 4:0.071050292 5:0.15293933 6:0.019019588 7:0.080144644 8:0.034849747 9:0.0014656377 
-0.42791341119897058 16.932510628820403 114.93479969251457 182.18101259735079 27.33279014701089 30.545967122771913 1:-0.057172243 2:-0.025604667 3:0.039576286 4:-0.058699386 5:-0.00031480673 6:0.045708692 7:-0.046715449 8:0.044654687 9:0.044513976 
-0.42791341119897058 16.932510628820403 114.93479969251457 182.18101259735079 27.33279014701089 30.545967122771913 1:-0.040428066 2:0.070561365 3:0.042657118 4:0.033392515 5:0.087314609 6:0.034379616 7:0.094636592 8:0.10853532 9:-0.0039164532 
-0.42791341119897058 16.932510628820403 114.93479969251457 182.18101259735079 27.33279014701089 30.545967122771913 1:0.073416478 2:0.12372713 3:-0.16287557 4:0.10422758 5:0.14504384 6:-0.022176006 7:-0.037063994 8:0.11145579 9:0.446873 
-0 16.932510628820403 0 0 0 0 1:0.061447985 2:0.5666266 3:0.15024416 4:0.074060632 5:0.58592352 6:0.13187613 7:0.10237939 8:0.30322083 9:0.10148552 
-0.42791341119897058 0 0 0 0 0 1:0.10484669 2:0.00889057 3:-0.020888619 4:0.10109816 5:-0.0083587775 6:0.00014894637 7:0.093675318 8:0.0035958273 9:-0.04104837 
-0.42791341119897058 16.932510628820403 114.93479969251457 182.18101259735079 27.33279014701089 30.545967122771913 1:0.027976732 2:0.06976741 3:-0.012811459 4:0.0073320595 5:0.077926927 6:-0.015907703 7:-0.039951726 8:0.021167228 9:-0.039187904 
-0.42791341119897058 0 114.93479969251457 182.18101259735079 0 0 1:0.13871549 2:0.0020701676 3:0.018487143 4:0.11617007 5:0.029858684 6:0.019028617 7:0.099449179 8:0.039728046 9:0.016319079 
-0.42791341119897058 16.932510628820403 114.93479969251457 182.18101259735079 27.33279014701089 30.545967122771913 1:0.021870367 2:0.094592033 3:-0.090595548 4:-0.033441994 5:0.03972041 6:-0.060953141 7:-0.056457415 8:0.0053271347 9:-0.049745724 
-0.42791341119897058 16.932510628820403 114.93479969251457 182.18101259735079 27.33279014701089 30.545967122771913 1:0.13627413 2:0.16937691 3:0.12098645 4:0.08199528 5:0.21197226 6:0.056140635 7:0.077878808 8:0.19950166 9:0.01191361 
-0.42791341119897058 16.932510628820403 114.93479969251457 182.18101259735079 27.33279014701089 30.545967122771913 1:0.10691513 2:0.17196466 3:0.060654008 4:0.040220392 5:0.17888493 6:0.033692283 7:0.00027699716 8:0.16282196 9:-0.00012695429 
-0.42791341119897058 16.932510628820403 114.93479969251457 182.18101259735079 27.33279014701089 30.545967122771913 1:0.12247237 2:0.15877927 3:0.033708178 4:0.080225668 5:0.17512489 6:0.062911808 7:0.03027669 8:0.172792 9:0.025377739 
-0.42791341119897058 16.932510628820403 114.93479969251457 182.18101259735079 27.33279014701089 30.545967122771913 1:-0.028441624 2:0.028172738 3:-0.0079759899 4:0.029734115 5:0.06098422 6:-0.043986889 7:0.084364263 8:0.081306121 9:-0.070251857 
-0.42791341119897058 16.932510628820403 114.93479969251457 182.18101259735079 27.33279014701089 30.545967122771913 1:0.10851846 2:0.18732391 3:-0.020843344 4:0.053830029 5:0.14351994 6:-0.018475459 7:0.00049191178 8:0.074242232 9:0.0027719105 
-0.42791341119897058 0 114.93479969251457 182.18101259735079 0 0 1:0.15687618 2:0.034893811 3:0.030507455 4:0.1267163 5:0.047603465 6:0.03316718 7:0.1116695 8:0.045732635 9:0.025279815 
-0.42791341119897058 0 114.93479969251457 182.18101259735079 0 0 1:0.11416187 2:0.099947884 3:0.010158689 4:0.12902963 5:0.065101447 6:0.001830262 7:0.15268896 8:0.03191099 9:-0.012992807 
-0.42791341119897058 0 114.93479969251457 182.18101259735079 0 30.545967122771913 1:0.096461042 2:-0.0038651808 3:0.047000402 4:0.095003982 5:0.0046039612 6:0.051717609 7:0.067212964 8:-0.016485701 9:0.043461778 
-0.37019686330419416 16.932510628820403 114.93479969251457 182.18101259735079 27.33279014701089 30.545967122771913 1:0.047145408 2:0.048932684 3:-0.16502749 4:0.032456313 5:0.058079429 6:-0.1264192 7:0.046243498 8:0.18078174 9:0.033740259 
-0.42791341119897058 16.932510628820403 114.93479969251457 182.18101259735079 27.33279014701089 30.545967122771913 1:0.072013063 2:0.15321419 3:-0.068343305 4:0.085544891 5:0.094120733 6:-0.060838633 7:0.10338074 8:0.014856257 9:-0.016726517 
-0.42791341119897058 0 0 0 0 0 1:0.20842425 2:0.48744838 3:0.29836214 4:0.055499049 5:0.092643271 6:-0.078693384 7:-0.047237675 8:-0.040533955 9:-0.094361346 
-0 16.932510628820403 19.997154583691696 0 27.33279014701089 30.545967122771913 1:0.057216114 2:0.21845106 3:0.017334734 4:0.090221325 5:0.32336169 6:0.0022096756 7:0.11350981 8:0.41925611 9:0.038119838 
-0.42791341119897058 0 0 0 0 0 1:0.096892284 2:0.0046037284 3:-0.0065995441 4:0.11334456 5:-0.046617597 6:-0.0018383053 7:0.14819703 8:-0.080417584 9:-0.00041762743 
-0.42791341119897058 16.932510628820403 114.93479969251457 182.18101259735079 27.33279014701089 30.545967122771913 1:-0.032426477 2:-0.03371626 3:0.023981327 4:-0.048423824 5:0.0045984956 6:0.013160954 7:-0.040943989 8:0.037052926 9:0.020320208 
-0.42791341119897058 0 0 0 0 0 1:0.35088272 2:0.52673998 3:0.26178098 4:0.1004319 5:0.036245899 6:-0.0073151603 7:-0.052168535 8:-0.061924992 9:0.00096132504 
-0.42791341119897058 16.932510628820403 114.93479969251457 182.18101259735079 27.33279014701089 30.545967122771913 1:-0.04117059 2:0.049310173 3:0.012855987 4:-0.0064235906 5:0.15001783 6:0.0068197742 7:0.0579252 8:0.23848592 9:-0.0053449025 
-0.42791341119897058 16.932510628820403 114.93479969251457 182.18101259735079 27.33279014701089 30.545967122771913 1:0.075998116 2:0.046422018 3:0.028124691 4:0.069485828 5:0.030473392 6:0.018783398 7:0.05451171 8:0.0057141651 9:0.023597926 
-0.42791341119897058 16.932510628820403 0 0 27.33279014701089 0 1:-0.25546998 2:-0.20020076 3:0.0029573025 4:-0.22759585 5:-0.16330242 6:-0.0020358626 7:-0.17017389 8:-0.09280376 9:0.010460458 
-0.42791341119897058 16.932510628820403 114.93479969251457 182.18101259735079 27.33279014701089 30.545967122771913 1:-0.037935621 2:0.00322641 3:0.0068866443 4:-0.039505264 5:0.04720376 6:-0.0063785819 7:-0.034324616 8:0.089373119 9:-0.0021893096 
-0.42791341119897058 16.932510628820403 114.93479969251457 182.18101259735079 27.33279014701089 30.545967122771913 1:0.035648401 2:0.29729102 3:0.047109387 4:0.082039293 5:0.22315025 6:0.031933951 7:0.11399643 8:0.18232729 9:0.021611437 
-0.42791341119897058 16.932510628820403 114.93479969251457 182.18101259735079 27.33279014701089 30.545967122771913 1:0.072260859 2:0.023618082 3:0.028099668 4:0.074827244 5:0.0040891457 6:0.05129336 7:0.06254532 8:-0.01372466 9:0.053281537 
-0 16.932510628820403 114.93479969251457 182.18101259735079 27.33279014701089 30.545967122771913 1:0.012190901 2:0.28481862 3:0.043420049 4:0.060354128 5:0.26087905 6:0.023532069 7:0.090596838 8:0.36054555 9:-0.022259279 
-0.42791341119897058 16.932510628820403 0 0 27.33279014701089 30.545967122771913 1:0.0066738605 2:-0.069744384 3:0.050895272 4:-0.006731701 5:-0.060461054 6:0.052099592 7:-0.003934436 8:0.011509322 9:0.010595565 
-0.42791341119897058 16.932510628820403 114.93479969251457 182.18101259735079 27.33279014701089 30.545967122771913 1:-0.028903427 2:-0.0016881674 3:-0.0024431596 4:-0.054957992 5:0.043297266 6:0.0052751498 7:-0.010196846 8:0.11648535 9:0.0035327371 
-0 16.932510628820403 0 0 0 0 1:0.070270508 2:0.36291573 3:-0.037373838 4:0.10439122 5:0.37936708 6:-0.025098847 7:0.13232732 8:0.34803364 9:-0.027679486 
-0.42791341119897058 0 114.93479969251457 182.18101259735079 0 30.545967122771913 1:0.14512028 2:0.011737154 3:0.016495201 4:0.1087552 5:0.044879312 6:0.024939299 7:0.084420593 8:0.053399048 9:0.029989914 
-0 16.932510628820403 114.93479969251457 182.18101259735079 27.33279014701089 30.545967122771913 1:0.016907608 2:0.2093026 3:0.018627982 4:0.0185674 5:0.24795201 6:0.011486013 7:0.040272526 8:0.43194724 9:0.039841879 
-0.42791341119897058 16.932510628820403 114.93479969251457 182.18101259735079 27.33279014701089 30.545967122771913 1:0.12512083 2:0.12043732 3:0.039079915 4:0.10458981 5:0.14682767 6:0.031639986 7:0.055335088 8:0.15301348 9:0.024287406 
-0.42791341119897058 0 0 121.5532386777074 0 0 1:0.083868065 2:0.061040582 3:-0.033488133 4:0.13167015 5:0.071716436 6:-0.07346429 7:0.1702758 8:0.080031434 9:-0.12967865 
-0.42791341119897058 0 0 0 0 0 1:0.19261126 2:-0.007638599 3:0.041942045 4:0.19029547 5:-0.031828919 6:0.04650708 7:0.15135528 8:-0.034325565 9:0.02977465 
-0.42791341119897058 0 61.194618161868426 0 0 30.545967122771913 1:0.075447132 2:0.00048864631 3:0.0081617853 4:0.071530201 5:-0.035926606 6:0.041443919 7:0.054191355 8:-0.049975661 9:0.083713356 
-0.42791341119897058 16.932510628820403 114.93479969251457 182.18101259735079 27.33279014701089 30.545967122771913 1:0.023134954 2:0.12629285 3:-0.0064900098 4:-0.021934131 5:0.078358514 6:-0.04866438 7:-0.050120311 8:0.020155851 9:-0.030909571 
-0.42791341119897058 16.932510628820403 114.93479969251457 0 27.33279014701089 30.545967122771913 1:-0.024302721 2:0.11986366 3:-0.056391068 4:-0.08699141 5:0.039261713 6:-0.054373774 7:-0.14063386 8:-0.028470014 9:-0.039955623 
-0.42791341119897058 16.932510628820403 0 0 27.33279014701089 30.545967122771913 1:0.078606556 2:-0.042114856 3:0.018939536 4:0.039030289 5:-0.029348895 6:0.041916676 7:-0.0057399149 8:-0.030948768 9:0.053603127 
-0.42791341119897058 0 0 182.18101259735079 0 0 1:0.15006318 2:0.016879747 3:-0.17460835 4:0.12670929 5:0.011901841 6:-0.12172434 7:0.02667435 8:0.1227576 9:-0.0084604209 
-0.42791341119897058 0 114.93479969251457 182.18101259735079 0 30.545967122771913 1:0.18160939 2:0.13740651 3:0.06982069 4:0.13148842 5:0.1820471 6:0.051437531 7:0.13422951 8:0.19054356 9:0.040919401 
-0 16.932510628820403 0 0 27.33279014701089 30.545967122771913 1:0.0036412562 2:0.23646751 3:-0.20297886 4:-0.016721657 5:0.29372733 6:-0.18799743 7:-0.018526468 8:0.32926238 9:-0.12626744 
-0.42791341119897058 16.932510628820403 0 0 27.33279014701089 30.545967122771913 1:-0.084737965 2:0.028339501 3:-0.066677599 4:-0.11343077 5:-0.04284679 6:-0.044817489 7:-0.12249878 8:-0.08199 9:-0.050007782 
-0.42791341119897058 0 0 0 0 0 1:0.22870636 2:0.24519339 3:0.10135353 4:0.19739914 5:0.23529011 6:0.075289622 7:0.11927365 8:0.19708352 9:0.02006544 
-0.42791341119897058 16.932510628820403 0 0 27.33279014701089 30.545967122771913 1:-0.15098581 2:0.10630291 3:-0.077633273 4:-0.20053765 5:0.031378428 6:-0.050854648 7:-0.26065914 8:-0.065562456 9:-0.053493245 
-0.42791341119897058 16.932510628820403 114.93479969251457 182.18101259735079 27.33279014701089 30.545967122771913 1:-0.079466816 2:-0.017218982 3:-0.0076538321 4:0.0078252113 5:-0.0015178696 6:-0.013280081 7:0.071241293 8:0.035212639 9:-0.094618252 
-0.42791341119897058 0 0 0 0 30.545967122771913 1:0.066112293 2:-0.030415967 3:0.031343351 4:0.059652757 5:-0.025876539 6:0.04167837 7:0.045104946 8:-0.031557709 9:0.044975622 
-0.42791341119897058 16.932510628820403 114.93479969251457 182.18101259735079 0 30.545967122771913 1:0.21925294 2:0.17940583 3:0.085072865 4:0.12061209 5:0.19703978 6:0.070723855 7:0.065491696 8:0.18816864 9:0.056230896 
-0 16.932510628820403 0 25.20731200115776 27.33279014701089 30.545967122771913 1:0.032516932 2:0.18532497 3:-0.22517919 4:0.044700055 5:0.29234177 6:-0.21823798 7:-0.0099146955 8:0.29544084 9:-0.1259779 
-0.42791341119897058 16.932510628820403 114.93479969251457 182.18101259735079 27.33279014701089 30.545967122771913 1:0.083897687 2:0.012967723 3:0.054537564 4:0.078998337 5:0.0053910281 6:0.057888795 7:0.028946226 8:-0.031682221 9:0.064422724 
-0.42791341119897058 0 0 14.667136506847326 0 0 1:0.11033214 2:-0.010367958 3:0.0085870073 4:0.11153422 5:-0.0032465934 6:0.012202328 7:0.089123787 8:0.017971372 9:-0.0028336754 
-0.42791341119897058 0 0 148.17678984308543 0 0 1:0.12034719 2:0.15987231 3:-0.07280095 4:0.12120298 5:0.040271961 6:-0.033406109 7:0.11941278 8:-0.049683038 9:0.018044185 
-0.42791341119897058 16.932510628820403 114.93479969251457 182.18101259735079 27.33279014701089 30.545967122771913 1:0.076243429 2:0.039943931 3:0.015293888 4:0.072896171 5:0.043407943 6:0.019162161 7:0.059858109 8:0.0011587029 9:0.0052158325 
-0.42791341119897058 0 0 0 0 0 1:0.15377406 2:0.43252501 3:0.089832152 4:0.14498737 5:0.26764138 6:0.11762384 7:0.19411824 8:0.24069281 9:0.1541647 
-0.42791341119897058 0 114.93479969251457 182.18101259735079 0 30.545967122771913 1:0.11153462 2:0.20278352 3:0.037374069 4:0.147842 5:0.14587304 6:0.046333503 7:0.1712934 8:0.13092143 9:0.051985703 
-0.42791341119897058 16.932510628820403 114.93479969251457 0 27.33279014701089 30.545967122771913 1:-0.036539596 2:0.1319461 3:0.27506273 4:-0.0065541667 5:0.2249548 6:0.22450252 7:0.065793178 8:0.24368329 9:-0.045711135 
-0 16.932510628820403 0 0 27.33279014701089 9.7384127702037606 1:0.01271908 2:0.069735951 3:-0.019506685 4:-0.10584711 5:0.25913565 6:0.25215821 7:-0.048020499 8:0.69857166 9:-0.050160943 
-0.42791341119897058 16.932510628820403 114.93479969251457 182.18101259735079 27.33279014701089 30.545967122771913 1:0.0091734495 2:0.29122221 3:0.034278149 4:0.020628191 5:0.24443019 6:0.027729598 7:0.047207998 8:0.24246736 9:0.064842166 
-0.2303035342449645 16.932510628820403 114.93479969251457 182.18101259735079 27.33279014701089 30.545967122771913 1:-0.047316232 2:0.0097555826 3:-0.058762753 4:-0.076922702 5:0.040156008 6:-0.078456768 7:-0.038183607 8:0.15118114 9:-0.13166674 
-0.42791341119897058 0 70.385851064069243 0 0 30.545967122771913 1:0.11369941 2:0.28357159 3:0.12684852 4:0.15817032 5:0.25008191 6:0.085106142 7:0.19236166 8:0.23046635 9:0.076016923 
-0.42791341119897058 3.6711043103170611 114.93479969251457 182.18101259735079 0 30.545967122771913 1:0.10263662 2:0.28306058 3:0.062570768 4:0.15416868 5:0.24319843 6:0.017349139 7:0.17824094 8:0.18066 9:0.034878601 
-0.42791341119897058 16.932510628820403 114.93479969251457 2.3827119863173536 27.33279014701089 30.545967122771913 1:0.13494099 2:0.03019344 3:-0.14667372 4:0.057739607 5:0.078356893 6:0.0026350247 7:-0.059492405 8:0.30337662 9:0.40672019 
-0.42791341119897058 16.932510628820403 0 0 27.33279014701089 30.545967122771913 1:0.020138007 2:0.066107848 3:-0.085838326 4:-0.030016328 5:0.0036753986 6:-0.12275352 7:-0.032105737 8:-0.035005254 9:-0.090492037 
-0.42791341119897058 0 0 0 0 0 1:0.18628571 2:0.59267987 3:0.23620131 4:0.20107777 5:0.31298639 6:0.18251178 7:0.10368557 8:0.1452807 9:-0.095534542 
-0 16.932510628820403 0 0 27.33279014701089 0 1:0.11177251 2:0.29797035 3:0.16304497 4:0.0049032197 5:0.093809816 6:-0.21338269 7:-0.028966985 8:0.0064862709 9:-0.12346933 
-0 0 114.93479969251457 0 0 0 1:0.064777592 2:0.04263375 3:-0.15548514 4:0.057029314 5:0.11512022 6:-0.18513581 7:0.1077559 8:0.40143773 9:0.043888112 
-0.42791341119897058 16.932510628820403 0 0 27.33279014701089 30.545967122771913 1:-0.065352556 2:0.088872887 3:-0.061330678 4:-0.1185085 5:0.02308535 6:-0.068969252 7:-0.15622424 8:-0.051391408 9:-0.04686742 
-0.42791341119897058 16.932510628820403 114.93479969251457 182.18101259735079 27.33279014701089 30.545967122771913 1:-0.026979616 2:0.14208164 3:-0.036584315 4:-0.060229015 5:0.09361255 6:-0.070153276 7:-0.11362429 8:0.019445352 9:-0.062210418 
-0.42791341119897058 16.932510628820403 114.93479969251457 182.18101259735079 27.33279014701089 30.545967122771913 1:-0.13992019 2:-0.011680721 3:0.05287406 4:-0.074017257 5:0.0096460954 6:0.043798725 7:-0.0056877622 8:0.021186269 9:0.016673535 
-0.42791341119897058 0 0 0 0 0 1:-0.1692442 2:-0.17870261 3:-0.10479333 4:-0.20859831 5:-0.21218726 6:-0.11836038 7:-0.29600481 8:-0.19249524 9:-0.06494978 
-0.42791341119897058 16.932510628820403 114.93479969251457 182.18101259735079 27.33279014701089 30.545967122771913 1:-0.023463948 2:0.10072183 3:-0.022872838 4:-0.051577999 5:0.065167451 6:-0.044364926 7:-0.0870957 8:0.008405287 9:-0.051796106 
-0.42791341119897058 0 114.93479969251457 182.18101259735079 0 30.545967122771913 1:0.078050835 2:0.026403827 3:0.054573334 4:0.072606081 5:0.022454658 6:0.017691335 7:0.067877124 8:-0.031298393 9:0.01288778 
-0.42791341119897058 16.932510628820403 114.93479969251457 0 0 30.545967122771913 1:0.073244266 2:0.12483268 3:0.30145031 4:0.066302107 5:0.17193965 6:0.27495966 7:0.13247299 8:0.25012474 9:-0.024391464 
-0.42791341119897058 16.932510628820403 0 0 27.33279014701089 0 1:-0.16131989 2:-0.096371834 3:-0.043557394 4:-0.15623948 5:-0.093922461 6:-0.066979059 7:-0.12392571 8:-0.14266515 9:-0.092668013 
-0.42791341119897058 0 114.93479969251457 182.18101259735079 0 30.545967122771913 1:-0.010098041 2:0.016102438 3:-0.020192323 4:0.061314 5:0.03398148 6:-0.058743191 7:0.10862334 8:0.048248195 9:-0.10322565 
-0.42791341119897058 16.932510628820403 114.93479969251457 182.18101259735079 27.33279014701089 30.545967122771913 1:0.11194165 2:0.19608225 3:0.034191016 4:0.064550854 5:0.15766313 6:0.016622434 7:0.0037907057 8:0.10553209 9:-0.0080289091 
-0.42791341119897058 16.932510628820403 114.93479969251457 182.18101259735079 27.33279014701089 30.545967122771913 1:0.027378967 2:0.11457776 3:0.019065156 4:-0.027982596 5:0.057271407 6:-0.010434781 7:-0.059094873 8:0.024493252 9:-0.035249217 
-0.42791341119897058 0 0 0 0 0 1:0.12326035 2:0.048966457 3:-0.061820184 4:0.15404989 5:0.03900069 6:-0.10233383 7:0.19456844 8:0.017567692 9:-0.083142339 
-0.42791341119897058 16.932510628820403 114.93479969251457 10.28183112807071 27.33279014701089 30.545967122771913 1:0.10289274 2:0.39576436 3:0.18355317 4:0.058807119 5:0.17497163 6:0.19912431 7:-0.0044558839 8:0.098548534 9:0.0011176474 
-0.42791341119897058 16.932510628820403 114.93479969251457 0 27.33279014701089 30.545967122771913 1:0.022091679 2:-0.054354719 3:0.10550794 4:-0.004812527 5:-0.051497749 6:0.10322968 7:-0.014753251 8:-0.0076094632 9:0.059536167 
-0.42791341119897058 0 0 0 0 0 1:0.19700008 2:0.1467311 3:-0.013834763 4:0.24725292 5:0.096769392 6:0.067135944 7:0.27238409 8:0.10876062 9:0.071273516 
-0.42791341119897058 16.932510628820403 114.93479969251457 182.18101259735079 27.33279014701089 30.545967122771913 1:0.08169173 2:0.18881444 3:-0.0033307076 4:0.020652281 5:0.12162888 6:-0.031553755 7:-0.04408973 8:0.094571707 9:-0.054901883 
-0.42791341119897058 7.1546187955918672 114.93479969251457 182.18101259735079 27.317434412494762 30.545967122771913 1:0.082074565 2:0.017073743 3:0.033972007 4:0.065237066 5:0.010517366 6:0.038745028 7:0.04810884 8:-0.0081738556 9:3.1001277e-05 
-0.42791341119897058 3.4219873469619224 0 0 0 26.858795974661511 1:0.066151507 2:0.13040387 3:0.1111512 4:0.01452076 5:0.06128009 6:-0.11963562 7:-0.0054866879 8:0.031211197 9:-0.18868947 
-0.42791341119897058 16.932510628820403 114.93479969251457 182.18101259735079 27.33279014701089 30.545967122771913 1:0.07910801 2:0.065430226 3:0.027043018 4:0.06851211 5:0.04459168 6:0.034212992 7:0.048425183 8:0.017411184 9:0.034447796 
-0.42791341119897058 16.932510628820403 114.93479969251457 182.18101259735079 27.33279014701089 30.545967122771913 1:-0.0091037057 2:0.14297389 3:-0.014331983 4:-0.043036976 5:0.11328443 6:-0.030359347 7:-0.084999629 8:0.053503732 9:-0.021884833 
-0 16.932510628820403 114.93479969251457 182.18101259735079 27.33279014701089 30.545967122771913 1:0.021948564 2:0.13131642 3:-0.042614494 4:-0.035574694 5:0.081486533 6:-0.085352553 7:-0.11517485 8:0.015489172 9:-0.11163729 
-0.42791341119897058 0 114.93479969251457 182.18101259735079 0 0 1:0.16626355 2:0.12805448 3:-0.0078479267 4:0.13228067 5:0.070619195 6:0.022352461 7:0.10068018 8:0.016895968 9:0.026619062 
-0.42791341119897058 16.932510628820403 114.93479969251457 182.18101259735079 27.33279014701089 30.545967122771913 1:0.13397276 2:0.0246852 3:0.0043568759 4:0.059841461 5:0.06293484 6:-0.035230773 7:-0.039948848 8:0.20860801 9:0.023055247 
-0.42791341119897058 16.932510628820403 114.93479969251457 182.18101259735079 27.33279014701089 30.545967122771913 1:-0.017295151 2:0.062018747 3:-0.020253576 4:-0.011934882 5:0.14608274 6:-0.010711792 7:-0.037292523 8:0.23898013 9:0.0055005655 
-0.42791341119897058 16.932510628820403 114.93479969251457 182.18101259735079 27.33279014701089 30.545967122771913 1:-0.0010361816 2:0.22795455 3:0.021753801 4:-0.027367555 5:0.24947486 6:0.070205698 7:0.013577803 8:0.21097365 9:0.066152117 
-0.42791341119897058 0 0 0 0 0 1:-0.19092313 2:-0.17569349 3:-0.070473164 4:-0.19380316 5:-0.15740658 6:-0.097285066 7:-0.18454736 8:-0.084113973 9:-0.059125335 
-0.42791341119897058 16.932510628820403 114.93479969251457 182.18101259735079 27.33279014701089 30.545967122771913 1:0.041078967 2:0.1081092 3:0.029520089 4:0.054803168 5:0.124063 6:0.02927232 7:0.077418505 8:0.13355079 9:0.021257372 
-0.42791341119897058 16.932510628820403 0 0 27.33279014701089 0 1:-0.20168933 2:-0.10697654 3:-0.08398408 4:-0.15688062 5:-0.10822735 6:-0.089969132 7:-0.1712858 8:-0.12293972 9:-0.073732473 
-0 16.932510628820403 114.93479969251457 182.18101259735079 27.33279014701089 30.545967122771913 1:0.085983647 2:0.2676816 3:-0.049055961 4:0.081269942 5:0.19342612 6:-0.018817435 7:0.03577622 8:0.13556864 9:0.0080898769 
-0.42791341119897058 0 0 0 0 0 1:0.21139371 2:0.23374253 3:0.097408552 4:0.1912851 5:0.23015143 6:0.080630919 7:0.16544674 8:0.21461733 9:0.061382983 
-0.42791341119897058 0 0 0 0 0 1:0.18335678 2:0.23508121 3:0.078941652 4:0.18214047 5:0.21339374 6:0.054723766 7:0.16910429 8:0.22085184 9:0.044476726 
-0.42791341119897058 16.932510628820403 114.93479969251457 182.18101259735079 27.33279014701089 30.545967122771913 1:0.096643031 2:0.11525782 3:0.0044512371 4:0.10339377 5:0.12295941 6:0.02233136 7:0.1137819 8:0.10134094 9:0.056631375 
-0.42791341119897058 16.932510628820403 114.93479969251457 182.18101259735079 27.33279014701089 30.545967122771913 1:0.038097163 2:0.007968669 3:0.070353225 4:0.00041090096 5:0.0092652334 6:0.049970465 7:-0.035499728 8:0.043209671 9:0.018446497 
-0.42791341119897058 0 114.93479969251457 182.18101259735079 0 0 1:0.14494317 2:0.21080868 3:-0.085615457 4:0.15956635 5:0.18206392 6:0.0327126 7:0.19442818 8:0.18657203 9:0.087355655 
-0.42791341119897058 16.932510628820403 114.93479969251457 182.18101259735079 27.33279014701089 30.545967122771913 1:0.013600462 2:0.035114878 3:-0.030420592 4:0.011425577 5:0.092274194 6:-0.041539446 7:-0.010933511 8:0.15593559 9:-0.033332292 
-0 16.932510628820403 114.93479969251457 182.18101259735079 27.33279014701089 30.545967122771913 1:-0.099667028 2:0.03177045 3:-0.054696644 4:-0.067061076 5:0.074868238 6:-0.098501168 7:0.026665032 8:0.19397485 9:-0.15174913 
-0.42791341119897058 16.932510628820403 114.93479969251457 182.18101259735079 27.33279014701089 30.545967122771913 1:0.075745919 2:0.11395973 3:-0.033722402 4:0.06889229 5:0.019623392 6:0.046429614 7:0.065939073 8:-0.029392275 9:0.06048406 
-0.42791341119897058 16.932510628820403 0 0 27.33279014701089 30.545967122771913 1:-0.064065483 2:0.049345556 3:-0.079112089 4:-0.17150773 5:-0.022821096 6:-0.12154414 7:-0.22262538 8:-0.093513499 9:-0.10113244 
-0.42791341119897058 0 0 0 0 0 1:-0.039692654 2:-0.089474407 3:-0.1035165 4:-0.0049059643 5:-0.056372797 6:-0.12322459 7:0.0077356125 8:0.04435504 9:-0.18901306 
-0.42791341119897058 0 0 0 0 0 1:0.35871329 2:0.24198219 3:-0.2706906 4:0.20969703 5:0.11679717 6:0.24311527 7:0.15482063 8:0.17133663 9:0.25984413 
-0.42791341119897058 0 27.360851739361149 0 0 30.545967122771913 1:0.13536332 2:0.28909857 3:0.064691825 4:0.17327232 5:0.22802597 6:0.019011554 7:0.19074807 8:0.18492495 9:0.087025245 
-0.14834807204903985 16.932510628820403 114.93479969251457 182.18101259735079 27.33279014701089 30.545967122771913 1:0.088874028 2:0.30297064 3:0.085805454 4:0.10378432 5:0.29248791 6:0.061402776 7:0.048732801 8:0.31895215 9:0.049225843 
-0.42791341119897058 16.932510628820403 114.93479969251457 182.18101259735079 27.33279014701089 30.545967122771913 1:0.12837077 2:0.14413069 3:0.0046522381 4:0.092154249 5:0.18404359 6:0.015986554 7:0.034240993 8:0.16900996 9:-0.027956433 
-0.42791341119897058 0 114.93479969251457 182.18101259735079 0 30.545967122771913 1:0.12210533 2:-0.028979785 3:0.040481909 4:0.10705585 5:0.0062339736 6:0.03654531 7:0.080440076 8:0.034071896 9:0.041879131 
-0 16.932510628820403 0 0 0 0 1:0.02458634 2:0.28748879 3:-0.00098223307 4:0.029905378 5:0.40040882 6:-0.040238396 7:0.088160146 8:0.6405509 9:0.12764321 
-0 16.932510628820403 0 0 27.33279014701089 30.545967122771913 1:0.073360122 2:0.28777875 3:0.076634932 4:0.044098748 5:0.32787984 6:-0.019413121 7:0.03834729 8:0.47837588 9:-0.029429773 
-0.42791341119897058 0 114.93479969251457 0 0 30.545967122771913 1:0.097457237 2:-0.020551366 3:0.039737415 4:0.085042414 5:-0.0056575226 6:0.063437465 7:0.077204638 8:0.017157617 9:-0.0040478774 
-0.42791341119897058 16.932510628820403 114.93479969251457 182.18101259735079 27.33279014701089 30.545967122771913 1:-0.01647955 2:0.16266303 3:0.0027687028 4:0.038621158 5:0.24684336 6:0.00085747264 7:0.029978377 8:0.28032493 9:0.047132982 
-0.42791341119897058 16.932510628820403 114.93479969251457 182.18101259735079 27.33279014701089 30.545967122771913 1:0.058112003 2:0.14650579 3:0.038454856 4:0.075874922 5:0.04970728 6:0.025674128 7:0.097442533 8:-0.013993089 9:0.014640159 
-0.42791341119897058 16.932510628820403 0 0 27.33279014701089 0 1:-0.16973364 2:-0.0051573113 3:-0.11789634 4:-0.22797567 5:-0.088586793 6:-0.11694129 7:-0.21272194 8:-0.13687287 9:-0.10630912 
-0.42791341119897058 16.932510628820403 114.93479969251457 182.18101259735079 27.33279014701089 30.545967122771913 1:-0.020550692 2:0.14446198 3:-0.0032384359 4:0.049385301 5:0.23014902 6:-0.006630971 7:0.028641342 8:0.31209335 9:0.080191831 
-0.42791341119897058 0 0 0 0 0 1:0.18079689 2:-0.085749978 3:0.0066500966 4:0.21984835 5:-0.069312352 6:0.0090128424 7:0.17938934 8:-0.042361827 9:0.027010418 
-0.42791341119897058 16.932510628820403 114.93479969251457 182.18101259735079 27.33279014701089 30.545967122771913 1:-0.035192589 2:0.064632597 3:0.0096750858 4:-0.0742986 5:0.11516881 6:0.020182523 7:-0.077902922 8:0.15989933 9:0.013983524 
-0.42791341119897058 16.932510628820403 114.93479969251457 182.18101259735079 27.33279014701089 30.545967122771913 1:0.10860556 2:0.14370009 3:-0.047102156 4:0.059619783 5:0.023716465 6:0.023415968 7:0.030170885 8:-0.050712767 9:0.04911145 
-0.42791341119897058 0 114.93479969251457 182.18101259735079 0 0 1:0.15771994 2:0.22438523 3:0.022963658 4:0.18317017 5:0.16131918 6:0.044025038 7:0.19530321 8:0.13073546 9:0.065060915 
-0.42791341119897058 16.932510628820403 114.93479969251457 182.18101259735079 27.33279014701089 30.545967122771913 1:-0.031256641 2:0.10398174 3:-0.0034446728 4:0.00039562292 5:0.152383 6:-0.020112909 7:0.091444591 8:0.24957193 9:-0.046766737 
-0.42791341119897058 16.932510628820403 114.93479969251457 182.18101259735079 27.33279014701089 30.545967122771913 1:0.15646033 2:0.25462979 3:0.074021156 4:0.12455357 5:0.21891991 6:0.047492315 7:0.069765367 8:0.1670576 9:0.015999495 
-0.42791341119897058 0 114.93479969251457 182.18101259735079 0 30.545967122771913 1:0.14322408 2:0.1950984 3:0.045980473 4:0.17450745 5:0.18364196 6:0.058877889 7:0.18482034 8:0.19629574 9:0.049083983 
-0.42791341119897058 0 0 0 0 0 1:0.1723967 2:0.13540934 3:-0.0504391 4:0.1249079 5:0.040614209 6:0.024492281 7:0.10991175 8:-0.033568461 9:0.053865053 
-0.42791341119897058 0 0 0 0 0 1:0.31927191 2:0.25883244 3:-0.25688584 4:0.21678556 5:0.11091419 6:0.13694013 7:0.12134894 8:0.17014686 9:0.29791569 
-0 0 0 182.18101259735079 0 0 1:0.075233747 2:0.07499013 3:-0.088096782 4:0.11918689 5:0.10871962 6:-0.1102476 7:0.12626227 8:0.1035165 9:-0.1599568 
-0.42791341119897058 16.932510628820403 0 0 27.33279014701089 30.545967122771913 1:-0.025149926 2:-0.040089354 3:-0.11410784 4:-0.03268913 5:-0.061148681 6:-0.072475857 7:-0.045926161 8:0.036902313 9:-0.04048433 
-0.42791341119897058 0 114.93479969251457 182.18101259735079 0 24.494725500678538 1:0.12550555 2:-0.013593401 3:0.017407565 4:0.10233605 5:0.0017149017 6:0.044102291 7:0.088395854 8:0.024076108 9:0.048524797 
-0.42791341119897058 0 114.93479969251457 182.18101259735079 0 30.545967122771913 1:0.13714872 2:0.14146644 3:-0.017605861 4:0.12566797 5:0.079862592 6:0.0089888404 7:0.11834787 8:0.026522333 9:0.016250607 
-0 16.932510628820403 0 0 27.33279014701089 30.545967122771913 1:0.014894366 2:0.2635133 3:0.025558301 4:0.050649608 5:0.30099351 6:0.015883889 7:0.11179891 8:0.51199959 9:0.0018197076 
-0.42791341119897058 0 0 0 0 0 1:0.23394551 2:0.11389281 3:0.05722235 4:0.23553099 5:0.12535869 6:0.0464891 7:0.21310549 8:0.15477057 9:0.028293201 
-0.42791341119897058 0 0 0 0 0 1:0.049291473 2:0.0097672962 3:0.018799092 4:0.021819443 5:-0.064860931 6:0.076089425 7:0.12616657 8:-0.039834805 9:0.023257018 
-0.42791341119897058 0 114.93479969251457 182.18101259735079 0 30.545967122771913 1:0.16387276 2:0.18076702 3:0.0040909028 4:0.14212605 5:0.1651859 6:-0.044973411 7:0.1104723 8:0.12660044 9:-0.010347446 
-0.42791341119897058 0 0 0 0 30.545967122771913 1:0.13343098 2:0.31504088 3:0.069990019 4:0.16674521 5:0.243459 6:0.03233132 7:0.1895559 8:0.18693976 9:0.098013746 
-0.42791341119897058 0 0 0 0 0 1:0.15398354 2:-0.076679992 3:0.030564933 4:0.11654515 5:-0.045391039 6:0.054086041 7:0.09117367 8:-0.0067077506 9:0.042367898 
-0 16.932510628820403 114.93479969251457 182.18101259735079 27.33279014701089 30.545967122771913 1:0.10866144 2:0.26155729 3:0.011038341 4:0.13898739 5:0.2197854 6:-0.051042904 7:0.1239131 8:0.12549222 9:-0.02668512 
-0.42791341119897058 16.932510628820403 114.93479969251457 182.18101259735079 27.33279014701089 30.545967122771913 1:0.012439271 2:0.22026433 3:0.011419249 4:-0.0064600814 5:0.28415221 6:0.057683714 7:0.037228055 8:0.25673215 9:0.056358942 
-0.42791341119897058 16.932510628820403 114.93479969251457 120.88956958979966 27.33279014701089 30.545967122771913 1:-0.093425371 2:-0.022609734 3:0.0093375131 4:-0.04147898 5:-0.004552562 6:0.0016743128 7:0.0098641182 8:0.0026207454 9:-0.014386263 
-0.42791341119897058 16.932510628820403 114.93479969251457 182.18101259735079 27.33279014701089 30.545967122771913 1:-0.021524404 2:-0.035660828 3:-0.002092468 4:-0.043517045 5:-0.014444141 6:0.0081815328 7:-0.064851455 8:0.033414703 9:0.024618389 
-0 16.932510628820403 0 182.18101259735079 27.33279014701089 30.545967122771913 1:0.082901296 2:0.30071122 3:-0.087837345 4:0.085047406 5:0.31616014 6:-0.016883069 7:0.063572843 8:0.30792563 9:-0.069463979 
-0 16.932510628820403 0 0 27.33279014701089 30.545967122771913 1:-0.0075139515 2:0.25092318 3:-0.063670033 4:0.025882264 5:0.3324167 6:-0.088435975 7:0.054698641 8:0.38542061 9:-0.12625348 
-0.42791341119897058 16.932510628820403 114.93479969251457 182.18101259735079 27.33279014701089 30.545967122771913 1:-0.010722741 2:-0.037217219 3:0.0013887143 4:-0.016747763 5:-0.015095262 6:-0.0070677009 7:-0.013706506 8:0.046534341 9:-0.014571551 
-0.42791341119897058 16.932510628820403 114.93479969251457 182.18101259735079 27.33279014701089 30.545967122771913 1:0.054488671 2:0.018146896 3:0.031950462 4:0.042338543 5:-0.019110699 6:0.043383624 7:0.015304531 8:-0.037200585 9:0.04431659 
-0.42791341119897058 0 114.93479969251457 182.18101259735079 0 30.545967122771913 1:0.077936973 2:0.083255239 3:-0.005447877 4:0.080429273 5:0.040989492 6:-0.038158595 7:0.10841326 8:-0.024351569 9:-0.026272911 
-0.42791341119897058 0 0 0 0 0 1:0.026214522 2:0.015090404 3:-0.036235677 4:0.11144634 5:0.02895154 6:-0.11323023 7:0.1261499 8:0.033343289 9:-0.11514699 
