svm_type nu_svc
kernel_type rbf
gamma 0.1111111111111111
nr_class 7
total_sv 6443
rho 1.0325639570442979 -0.043399040479438038 -0.080178482773233056 -0.029741230763671193 -0.034746548758729137 -0.064641618515894048 -41.595369083574774 -74.517656446941956 -33.813800054434154 -35.842976689456449 -89.361086522912927 -122.75118547801478 -1576.7484456753725 -6.0311333546729209 -1146.0805706231463 -37.842791683498731 27.068086420016243 -820.21025760728128 944.64634007390123 8.8867444223846022 -10.025076015383036
label 4 2 1 5 3 0 6
nr_sv 733 808 1197 941 1040 845 879
SV
0.15960227167634733 0.14973840307254035 0.18258482251289002 0.12843607556639061 0.12926599075929573 0.16724053911905912 1:0.095663864 2:0.0029508625 3:0.10816347 4:0.095983075 5:0.0031727212 6:0.10821631 7:0.095876674 8:0.0032346084 9:0.10804802 
0.15960227167634733 0.14973840307254035 0.18258482251289002 0.12843607556639061 0.12926599075929573 0.16724053911905912 1:0.055512346 2:-0.00051959016 3:0.1336612 4:0.055530445 5:-0.00058147742 6:0.1340604 7:0.055565912 8:-0.00035961881 9:0.13399851 
0 0.14973840307254035 0 0.12843607556639061 0 0 1:0.055229522 2:-0.0011840345 3:0.13412499 4:0.05530046 5:-0.0012368725 6:0.13413404 7:0.054794857 8:-0.0015379882 9:0.13408952 
0 0.14973840307254035 0 0 0 0 1:0.054986633 2:-0.001640253 3:0.13384766 4:0.055216815 5:-0.0018356925 6:0.13370578 7:0.05527038 8:-0.0016228832 9:0.13406951 
0.15960227167634733 0.14973840307254035 0.18258482251289002 0.12843607556639061 0.12926599075929573 0.16724053911905912 1:0.094940538 2:0.0039658448 3:0.10901413 4:0.09482581 5:0.0043205269 6:0.10885489 7:0.094648467 8:0.0043295761 9:0.1087047 
0.15960227167634733 0.14973840307254035 0.18258482251289002 0.12843607556639061 0.12926599075929573 0.16724053911905912 1:0.037758125 2:0.021645005 3:0.13836876 4:0.037244199 5:0.021599758 6:0.13816427 7:0.037279666 8:0.021572611 9:0.1380224 
0.15960227167634733 0.14973840307254035 0.18258482251289002 0.12843607556639061 0.12926599075929573 0.16724053911905912 1:0.095256389 2:0.0032408842 3:0.10871921 4:0.095105464 5:0.0036574536 6:0.10880824 7:0.095273757 8:0.003284673 9:0.10870257 
0.15960227167634733 0.14973840307254035 0.18258482251289002 0.12843607556639061 0.12926599075929573 0.16724053911905912 1:0.054504242 2:0.0057211931 3:0.13297228 4:0.054584229 5:0.0058826217 6:0.13280399 7:0.054744199 8:0.0055188903 9:0.13307941 
0 0.14973840307254035 0 0.12843607556639061 0 0 1:0.055084902 2:-0.0015715923 3:0.13407622 4:0.055049435 5:-0.0013678321 6:0.13393435 7:0.054907563 8:-0.0015542225 9:0.13387246 
0.15960227167634733 0.14973840307254035 0.18258482251289002 0.12843607556639061 0.12926599075929573 0.16724053911905912 1:0.037342806 2:0.021935392 3:0.13801935 4:0.037662021 5:0.021730903 6:0.13808197 7:0.037174517 8:0.02159808 9:0.13790463 
0.15960227167634733 0.14973840307254035 0.18258482251289002 0.12843607556639061 0.12926599075929573 0.16724053911905912 1:0.054298719 2:0.0019047739 3:0.13443211 4:0.054272301 5:0.002073066 6:0.13396271 7:0.053934988 8:0.002046647 9:0.13409554 
0.15960227167634733 0.14973840307254035 0.18258482251289002 0.12843607556639061 0.12926599075929573 0.16724053911905912 1:0.054715006 2:-0.0014308505 3:0.13415162 4:0.054342225 5:-0.0012535093 6:0.13414257 7:0.05445695 8:-0.0010135523 9:0.13404522 
0.15960227167634733 0.14973840307254035 0.18258482251289002 0.12843607556639061 0.12926599075929573 0.16724053911905912 1:0.095947608 2:0.0027297326 3:0.10816347 4:0.096231352 5:0.0027297326 6:0.10834081 7:0.096124951 8:0.0029432705 9:0.10813705 
0.15960227167634733 0.14973840307254035 0.18258482251289002 0.12843607556639061 0.12926599075929573 0.16724053911905912 1:0.055006014 2:0.00040476971 3:0.13387402 4:0.054580394 5:0.00040476971 6:0.13391853 7:0.054766056 8:0.00043118874 9:0.13410492 
0.15960227167634733 0.14973840307254035 0.18258482251289002 0.12843607556639061 0.12926599075929573 0.16724053911905912 1:0.054041393 2:0.0040321393 3:0.13409554 4:0.05433419 5:0.0037574424 6:0.13428119 7:0.054396804 8:0.0039438329 9:0.13449401 
0.15960227167634733 0.14973840307254035 0.18258482251289002 0.12843607556639061 0.12926599075929573 0.16724053911905912 1:0.095924318 2:0.00265113 3:0.10681449 4:0.096340888 5:0.0024737889 6:0.10656475 7:0.09664346 8:0.0023854827 9:0.10647572 
0.15960227167634733 0.14973840307254035 0.18258482251289002 0.12843607556639061 0.12926599075929573 0.16724053911905912 1:0.094789613 2:0.0044102902 3:0.10936195 4:0.094798662 5:0.0045257443 6:0.10925482 7:0.094576804 8:0.0044193394 9:0.10925482 
0.15960227167634733 0.14973840307254035 0.18258482251289002 0.12843607556639061 0.12926599075929573 0.16724053911905912 1:0.095556985 2:0.0032406489 3:0.108923 4:0.095547936 5:0.00341799 6:0.10910939 7:0.0954951 8:0.0035062963 9:0.10904677 
0.15960227167634733 0.14973840307254035 0.18258482251289002 0.12843607556639061 0.12926599075929573 0.16724053911905912 1:0.053954006 2:0.0034233503 3:0.13086892 4:0.053837822 5:0.0030512981 6:0.1304954 7:0.053474091 8:0.0028830062 9:0.13002453 
0.15960227167634733 0.14973840307254035 0.18258482251289002 0.12843607556639061 0.12926599075929573 0.16724053911905912 1:0.095122833 2:0.0032937222 3:0.10902105 4:0.095477518 5:0.0032937222 6:0.10881729 7:0.095442051 8:0.0034091761 9:0.1093229 
0.15960227167634733 0.14973840307254035 0.18258482251289002 0.12843607556639061 0.12926599075929573 0.16724053911905912 1:0.095982346 2:0.0034126781 3:0.10798613 4:0.096115172 5:0.0033243719 6:0.10823514 7:0.096257048 8:0.0031824991 9:0.10835059 
0.15960227167634733 0.14973840307254035 0.18258482251289002 0.12843607556639061 0.12926599075929573 0.16724053911905912 1:0.095895436 2:0.002866746 3:0.1084285 4:0.096064452 5:0.0026894049 6:0.10805572 7:0.096002567 8:0.0024765954 9:0.10824211 
0.15960227167634733 0.14973840307254035 0.18258482251289002 0.12843607556639061 0.12926599075929573 0.16724053911905912 1:0.046308899 2:0.0070300439 3:0.13664703 4:0.04608704 5:0.0071976072 6:0.13667417 7:0.046078721 8:0.0069674279 9:0.13649611 
0.15960227167634733 0.14973840307254035 0.18258482251289002 0.12843607556639061 0.12926599075929573 0.16724053911905912 1:0.094311158 2:0.0051905914 3:0.10963592 4:0.093921006 5:0.0052086899 6:0.10942311 7:0.094018358 8:0.0049158949 9:0.10878468 
0.15960227167634733 0.14973840307254035 0.18258482251289002 0.12843607556639061 0.12926599075929573 0.16724053911905912 1:0.055766208 2:0.0029177789 3:0.13347488 4:0.055748835 5:0.00311249 6:0.1336077 7:0.055624332 8:0.0028377932 9:0.13357296 
0.15960227167634733 0.14973840307254035 0.18258482251289002 0.12843607556639061 0.12926599075929573 0.16724053911905912 1:0.09440851 2:0.0048525504 3:0.108793 4:0.094247813 5:0.0045333362 6:0.10883825 7:0.094433476 8:0.004781614 9:0.10897107 
0.15960227167634733 0.14973840307254035 0.18258482251289002 0.12843607556639061 0.12926599075929573 0.16724053911905912 1:0.045563963 2:0.019185205 3:0.13586376 4:0.045741302 5:0.019459901 6:0.13581021 7:0.045377571 8:0.019007864 9:0.13587137 
0.15960227167634733 0.14973840307254035 0.18258482251289002 0.12843607556639061 0.12926599075929573 0.16724053911905912 1:0.054800244 2:-0.0010191947 3:0.13420307 4:0.054951166 5:-0.00069998057 6:0.13418497 7:0.054862129 8:-0.00094825814 9:0.13394574 
0 0.14973840307254035 0 0 0 0 1:0.05549512 2:-0.0014150737 3:0.1338613 4:0.055344199 5:-0.0016007355 6:0.13422504 7:0.05549512 8:-0.0011924864 9:0.134136 
0 0.14973840307254035 0 0 0 0 1:0.054882237 2:-0.0017957178 3:0.13393591 4:0.054624911 5:-0.001857605 6:0.13358953 7:0.054615861 8:-0.0020266258 9:0.1340061 
0.15960227167634733 0.14973840307254035 0.18258482251289002 0.12843607556639061 0.12926599075929573 0.16724053911905912 1:0.095335126 2:0.0031870823 3:0.10874566 4:0.095512469 5:0.0034979757 6:0.10863926 7:0.095432486 8:0.0031961315 9:0.10876376 
0.15960227167634733 0.14973840307254035 0.18258482251289002 0.12843607556639061 0.12926599075929573 0.16724053911905912 1:0.045172049 2:0.019212774 3:0.13319916 4:0.044655207 5:0.019603655 6:0.13332293 7:0.043910377 8:0.02003146 9:0.13445178 
0.15960227167634733 0.14973840307254035 0.18258482251289002 0.12843607556639061 0.12926599075929573 0.16724053911905912 1:0.055070837 2:-0.00022647373 3:0.13404927 4:0.054858027 5:-1.3664315e-05 6:0.13381909 7:0.054574283 8:0.00025271174 9:0.13374816 
0.15960227167634733 0.14973840307254035 0.18258482251289002 0.12843607556639061 0.12926599075929573 0.16724053911905912 1:0.095424637 2:0.0030448516 3:0.10842959 4:0.095486522 5:0.0032312421 6:0.10838506 7:0.095761217 8:0.0029301264 9:0.108456 
0 0.14973840307254035 0 0 0 0 1:0.05574216 2:-0.0013957084 3:0.13450943 4:0.055547448 5:-0.001209318 6:0.1342702 7:0.055422945 8:-0.0013776099 9:0.13412 
0 0.14973840307254035 0 0 0 0 1:0.055042404 2:-0.0014677803 3:0.13405405 4:0.05529973 5:-0.0016270231 6:0.13416045 7:0.055237115 8:-0.0018572021 9:0.13425781 
0.15960227167634733 0.14973840307254035 0.18258482251289002 0.12843607556639061 0.12926599075929573 0.16724053911905912 1:0.095059174 2:0.0036852119 3:0.10926879 4:0.095076543 5:0.0037742468 6:0.10912619 7:0.095271254 8:0.0033486282 9:0.1088515 
0.15960227167634733 0.14973840307254035 0.18258482251289002 0.12843607556639061 0.12926599075929573 0.16724053911905912 1:0.095697811 2:0.0030277985 3:0.10878562 4:0.095475952 5:0.003072316 6:0.10828001 7:0.09529861 8:0.0029659113 9:0.10871468 
0 0.14973840307254035 0 0 0 0 1:0.055209406 2:-0.0016787256 3:0.13408527 4:0.055271294 5:-0.0016432574 6:0.13398791 7:0.055235827 8:-0.0015104336 9:0.13404074 
0.15960227167634733 0.14973840307254035 0.18258482251289002 0.12843607556639061 0.12926599075929573 0.16724053911905912 1:0.053256567 2:0.0082194127 3:0.13456288 4:0.053123744 5:0.0083077191 6:0.13482853 7:0.053362972 8:0.008449592 9:0.13451837 
0.15960227167634733 0.14973840307254035 0.18258482251289002 0.12843607556639061 0.12926599075929573 0.16724053911905912 1:0.095361442 2:0.00359696 3:0.1089821 4:0.095139583 5:0.0036505266 6:0.10874287 7:0.095015083 8:0.003570541 9:0.10914207 
0.15960227167634733 0.14973840307254035 0.18258482251289002 0.12843607556639061 0.12926599075929573 0.16724053911905912 1:0.055846921 2:0.0033962357 3:0.13417592 4:0.056477027 5:0.0037509179 6:0.13452987 7:0.055901216 8:0.0034845419 9:0.13443251 
0.15960227167634733 0.14973840307254035 0.18258482251289002 0.12843607556639061 0.12926599075929573 0.16724053911905912 1:0.095194497 2:0.0033494748 3:0.10903302 4:0.095035259 5:0.0035177667 6:0.1096624 7:0.094928851 8:0.0035615555 9:0.10913037 
0.15960227167634733 0.14973840307254035 0.18258482251289002 0.12843607556639061 0.12926599075929573 0.16724053911905912 1:0.055597914 2:-0.0011187361 3:0.13374666 4:0.055819773 5:-0.0011451551 6:0.13374666 7:0.055722418 8:-0.00055956494 9:0.13340029 
0.15960227167634733 0.14973840307254035 0.18258482251289002 0.12843607556639061 0.12926599075929573 0.16724053911905912 1:0.095821798 2:0.0031170461 3:0.1082901 4:0.0958037 5:0.0031970317 6:0.10844176 7:0.096176484 8:0.0032505984 9:0.10815801 
0.15960227167634733 0.14973840307254035 0.18258482251289002 0.12843607556639061 0.12926599075929573 0.16724053911905912 1:0.095608885 2:0.0025557527 3:0.10839313 4:0.095945464 5:0.0020244579 6:0.10830337 7:0.096592943 8:0.0017761802 9:0.10871921 
0 0.14973840307254035 0 0.12843607556639061 0 0 1:0.054260835 2:-0.0012620702 3:0.13475158 4:0.054509115 5:-0.0013503765 6:0.13442332 7:0.054571 8:-0.0011647148 9:0.13432523 
0.15960227167634733 0.14973840307254035 0.18258482251289002 0.12843607556639061 0.12926599075929573 0.16724053911905912 1:0.054412001 2:-0.0012194618 3:0.13406703 4:0.05467765 5:-0.0010157017 6:0.1342632 7:0.054553147 8:-0.0010956873 9:0.13423605 
0.15960227167634733 0 0 0 0 0.16724053911905912 1:0.077407636 2:-0.007680663 3:0.12630646 4:0.078720268 5:-0.00086961102 6:0.12744041 7:0.079944166 8:0.0085303157 9:0.13005788 
0.15960227167634733 0.14973840307254035 0.18258482251289002 0.12843607556639061 0.12926599075929573 0.16724053911905912 1:0.094445437 2:0.0053045882 3:0.10918461 4:0.095021251 5:0.0055438163 6:0.109371 7:0.095109554 8:0.0054464611 9:0.10951287 
0.15960227167634733 0.14973840307254035 0.18258482251289002 0.12843607556639061 0.12926599075929573 0.16724053911905912 1:0.053171329 2:0.0085630232 3:0.13433621 4:0.053464123 5:0.0085894428 6:0.13435431 7:0.052984938 8:0.0082173906 9:0.13450524 
0.15960227167634733 0.14973840307254035 0.18258482251289002 0.12843607556639061 0.12926599075929573 0.16724053911905912 1:0.053292038 2:0.0082639308 3:0.13407465 4:0.053478426 5:0.0082548815 6:0.13426031 7:0.053717654 8:0.0080066038 9:0.13426936 
0.15960227167634733 0.14973840307254035 0.18258482251289002 0.12843607556639061 0.12926599075929573 0.16724053911905912 1:0.054001474 2:0.0086256027 3:0.13369416 4:0.054072411 5:0.0087327364 6:0.13380056 7:0.053637743 8:0.0088127216 9:0.13394243 
0 0.14973840307254035 0 0 0 0 1:0.055228499 2:-0.0015575029 3:0.13413869 4:0.055113045 5:-0.0016193902 6:0.1337576 7:0.054944026 8:-0.0017076965 9:0.13372212 
0.15960227167634733 0.14973840307254035 0.18258482251289002 0.12843607556639061 0.12926599075929573 0.16724053911905912 1:0.037612463 2:0.021340544 3:0.13783394 4:0.037328719 5:0.02122509 6:0.13794107 7:0.037976194 8:0.021074897 9:0.13785276 
0.15960227167634733 0.14973840307254035 0.18258482251289002 0.12843607556639061 0.12926599075929573 0.16724053911905912 1:0.095845335 2:0.0027968503 3:0.10872353 4:0.095916277 5:0.0029741913 6:0.10861712 7:0.095774401 8:0.0025040551 9:0.10883898 
0.15960227167634733 0 0 0 0 0 1:0.072624359 2:-0.007936721 3:0.12431992 4:0.072527007 5:-0.0072034287 6:0.1229117 7:0.0744166 8:-0.0080724593 9:0.12361347 
0.15960227167634733 0.14973840307254035 0.18258482251289002 0.12843607556639061 0 0 1:0.055385834 2:-0.0011882152 3:0.13382196 4:0.055545075 5:-0.0014538626 6:0.13377745 7:0.055509608 8:-0.0012938913 9:0.13390122 
0.15960227167634733 0 0 0 0 0 1:0.066440317 2:-0.0092865824 3:0.12444631 4:0.06715946 5:-0.0087371894 6:0.12440719 7:0.067629595 8:-0.008239905 9:0.12466233 
0.15960227167634733 0.14973840307254035 0.18258482251289002 0.12843607556639061 0.12926599075929573 0.16724053911905912 1:0.056546509 2:0.001925397 3:0.13372388 4:0.056626492 5:0.0018718304 6:0.13356463 7:0.056529137 8:0.0020046543 9:0.13358201 
0.15960227167634733 0.14973840307254035 0.18258482251289002 0.12843607556639061 0.12926599075929573 0.16724053911905912 1:0.037556409 2:0.021529945 3:0.1378547 4:0.037316452 5:0.021255248 6:0.13761547 7:0.037635666 8:0.021130745 9:0.1377045 
0.15960227167634733 0.14973840307254035 0.18258482251289002 0.12843607556639061 0.12926599075929573 0.16724053911905912 1:0.095371109 2:0.0030899619 3:0.10845429 4:0.095406584 5:0.0033027714 6:0.1086671 7:0.09502548 8:0.0036219854 9:0.10882634 
0.15960227167634733 0.14973840307254035 0.18258482251289002 0.12843607556639061 0.12926599075929573 0.16724053911905912 1:0.046572983 2:0.017176819 3:0.13653506 4:0.047123836 5:0.017898148 6:0.13625818 7:0.047292126 8:0.018602835 9:0.13536096 
0.15960227167634733 0.14973840307254035 0.18258482251289002 0.12843607556639061 0.12926599075929573 0.16724053911905912 1:0.046203119 2:0.019024505 3:0.13540122 4:0.046300474 5:0.018900729 6:0.13536575 7:0.046220487 8:0.018812423 9:0.13557857 
0.15960227167634733 0.14973840307254035 0.18258482251289002 0.12843607556639061 0.12926599075929573 0.16724053911905912 1:0.096045766 2:0.0031276293 3:0.10830682 4:0.096107658 5:0.0032521324 6:0.10816495 7:0.096027667 8:0.0032430832 9:0.10812948 
0.15960227167634733 0.14973840307254035 0.18258482251289002 0.12843607556639061 0.12926599075929573 0.16724053911905912 1:0.037945769 2:0.021608585 3:0.13780581 4:0.037945769 5:0.021599536 6:0.13780581 7:0.037546567 8:0.021573118 9:0.13754922 
0.15960227167634733 0.14973840307254035 0.18258482251289002 0.12843607556639061 0.12926599075929573 0.16724053911905912 1:0.05476018 2:0.00030874883 3:0.13406073 4:0.054689242 5:0.00021971393 6:0.13425615 7:0.055079391 8:0.0001842457 9:0.13417617 
0.15960227167634733 0.14973840307254035 0.18258482251289002 0.12843607556639061 0.12926599075929573 0.16724053911905912 1:0.055159143 2:-0.00017290704 3:0.13419042 4:0.054839928 5:0.00028817996 6:0.13418137 7:0.054946333 8:0.00027913074 9:0.13423493 
0.15960227167634733 0.14973840307254035 0.18258482251289002 0.12843607556639061 0.12926599075929573 0.16724053911905912 1:0.054724474 2:2.2532548e-05 3:0.1343066 4:0.054937284 5:0.0001825039 6:0.13388098 7:0.054990123 8:-0.0002876323 9:0.13381004 
0.15960227167634733 0.14973840307254035 0.18258482251289002 0.12843607556639061 0.12926599075929573 0.16724053911905912 1:0.095477473 2:0.0031874533 3:0.10870574 4:0.095690282 5:0.0035330863 6:0.10887403 7:0.095708381 8:0.0034802483 9:0.10874048 
0 0.14973840307254035 0 0 0 0 1:0.055021374 2:-0.0013384087 3:0.1342559 4:0.05511041 5:-0.001524799 6:0.13410571 7:0.055234913 8:-0.001471961 9:0.13407024 
0.15960227167634733 0.14973840307254035 0.18258482251289002 0.12843607556639061 0.12926599075929573 0.16724053911905912 1:0.054573417 2:0.0038631184 3:0.13406911 4:0.054777178 5:0.003472968 6:0.13415742 7:0.054786227 8:0.0034820172 9:0.13406839 
0.15960227167634733 0.14973840307254035 0.18258482251289002 0.12843607556639061 0.12926599075929573 0.16724053911905912 1:0.095151888 2:0.0026271011 3:0.10884584 4:0.095506566 5:0.0026708899 6:0.1086866 7:0.095347329 8:0.0024935488 9:0.10869492 
0 0.14973840307254035 0 0 0 0 1:0.054978497 2:-0.0013240433 3:0.1341562 4:0.055164889 5:-0.0012002688 6:0.13431617 7:0.055351281 8:-0.0014221274 9:0.13439543 
0.15960227167634733 0.14973840307254035 0.18258482251289002 0.12843607556639061 0.12926599075929573 0.16724053911905912 1:0.095830848 2:0.0028340288 3:0.10837914 4:0.096185533 5:0.0030204191 6:0.10843271 7:0.096088181 8:0.0030030493 9:0.10849459 
0.15960227167634733 0.14973840307254035 0.18258482251289002 0.12843607556639061 0.12926599075929573 0.16724053911905912 1:0.095982346 2:0.003418361 3:0.10851716 4:0.096168738 5:0.0036402196 6:0.10852621 7:0.096124221 8:0.0031965025 9:0.10877449 
0.15960227167634733 0.14973840307254035 0.18258482251289002 0.12843607556639061 0.12926599075929573 0.16724053911905912 1:0.054858621 2:0.0041725549 3:0.13420121 4:0.055337806 5:0.0041106677 6:0.1340948 7:0.055222352 8:0.0041816041 9:0.13432426 
0.15960227167634733 0.14973840307254035 0.18258482251289002 0.12843607556639061 0.12926599075929573 0.16724053911905912 1:0.038606664 2:0.026164244 3:0.13469573 4:0.037735145 5:0.027041901 6:0.13418545 7:0.036766995 8:0.025444372 9:0.13324445 
0.15960227167634733 0.14973840307254035 0.18258482251289002 0.12843607556639061 0.12926599075929573 0.16724053911905912 1:0.096107582 2:0.0030817771 3:0.10850052 4:0.096001174 5:0.0027451934 6:0.10856314 7:0.096107582 8:0.002878017 9:0.10848388 
0.15960227167634733 0.14973840307254035 0.18258482251289002 0.12843607556639061 0.12926599075929573 0.16724053911905912 1:0.095397213 2:0.0039780073 3:0.10887864 4:0.095264394 5:0.0033033821 6:0.10904693 7:0.095334598 8:0.0035342898 9:0.1088515 
0.15960227167634733 0.14973840307254035 0.18258482251289002 0.12843607556639061 0.12926599075929573 0.16724053911905912 1:0.047124668 2:0.0075454258 3:0.13726589 4:0.047213704 5:0.0076963479 6:0.13686816 7:0.046903538 8:0.0072254832 9:0.13615047 
0.15960227167634733 0.14973840307254035 0.18258482251289002 0.12843607556639061 0.12926599075929573 0.16724053911905912 1:0.054971273 2:0.00042141088 3:0.13414871 4:0.054474719 5:0.00043878066 6:0.13439699 7:0.05484677 8:0.00033237599 9:0.13421964 
0.15960227167634733 0.14973840307254035 0.18258482251289002 0.12843607556639061 0.12926599075929573 0.16724053911905912 1:0.053797206 2:0.0077599229 3:0.13409325 4:0.053681752 5:0.0080082006 6:0.13413777 7:0.053788157 8:0.0081855414 9:0.13430605 
0.15960227167634733 0.14973840307254035 0.18258482251289002 0.12843607556639061 0.12926599075929573 0.16724053911905912 1:0.045581437 2:0.0078411354 3:0.13566005 4:0.045873501 5:0.0076192773 6:0.13566005 7:0.045642596 8:0.0074328868 9:0.13534084 
0.15960227167634733 0.14973840307254035 0.18258482251289002 0.12843607556639061 0.12926599075929573 0.16724053911905912 1:0.046058755 2:0.018129477 3:0.13339199 4:0.045143445 5:0.019717227 6:0.13248938 7:0.045210738 8:0.020502934 9:0.1336099 
0.15960227167634733 0.14973840307254035 0.18258482251289002 0.12843607556639061 0.12926599075929573 0.16724053911905912 1:0.09425571 2:0.0042865158 3:0.10901268 4:0.092899597 5:0.0049423137 6:0.10953711 7:0.095196711 8:0.0043520465 9:0.10772282 
0.15960227167634733 0.14973840307254035 0.18258482251289002 0.12843607556639061 0.12926599075929573 0.16724053911905912 1:0.09614232 2:0.0031115624 3:0.10841175 4:0.09605401 5:0.0030398973 6:0.10830534 7:0.096178517 8:0.0030127497 9:0.10821704 
0.15960227167634733 0.14973840307254035 0.18258482251289002 0.12843607556639061 0.12926599075929573 0.16724053911905912 1:0.054510803 2:0.0038034173 3:0.13454757 4:0.054617934 5:0.0032887636 6:0.13483132 7:0.054140208 8:0.0032170985 9:0.1346547 
0.15960227167634733 0.14973840307254035 0.18258482251289002 0.12843607556639061 0.12926599075929573 0.16724053911905912 1:0.054703618 2:-0.0011075009 3:0.13401594 4:0.054250851 5:-0.0015512182 6:0.13377671 7:0.054135397 8:-0.0014093452 9:0.13367104 
0.15960227167634733 0.14973840307254035 0.18258482251289002 0.12843607556639061 0.12926599075929573 0.16724053911905912 1:0.054437793 2:0.0006161218 3:0.13386569 4:0.054570615 5:0.00047424894 6:0.13383022 7:0.054588714 8:0.0005897028 9:0.13374192 
0.15960227167634733 0.14973840307254035 0.18258482251289002 0.12843607556639061 0.12926599075929573 0.16724053911905912 1:0.096062588 2:0.0037824503 3:0.10903845 4:0.095947868 5:0.0036934152 6:0.10891395 7:0.095735058 8:0.0038345594 9:0.10878039 
0.15960227167634733 0.14973840307254035 0.18258482251289002 0.12843607556639061 0.12926599075929573 0.16724053911905912 1:0.056333699 2:0.0023948046 3:0.13363484 4:0.056483891 5:0.0022076857 6:0.13318281 7:0.056075643 8:0.0019586795 9:0.13279265 
0 0.14973840307254035 0 0 0 0 1:0.05515584 2:-0.001262156 3:0.13426187 4:0.055244876 5:-0.0011376529 6:0.13439471 7:0.055715012 8:-0.0010493467 9:0.13474939 
0.15960227167634733 0.14973840307254035 0.18258482251289002 0.12843607556639061 0.12926599075929573 0.16724053911905912 1:0.054341779 2:0.0045051897 3:0.13448568 4:0.054297263 5:0.0041505076 6:0.13436118 7:0.054208957 8:0.0039822155 9:0.13396198 
0.15960227167634733 0.14973840307254035 0.18258482251289002 0.12843607556639061 0.12926599075929573 0.16724053911905912 1:0.054635306 2:0.0037136536 3:0.13421098 4:0.054954517 5:0.0036955551 6:0.13438001 7:0.055008086 8:0.0036955551 9:0.13432644 
0.15960227167634733 0.14973840307254035 0.18258482251289002 0.12843607556639061 0.12926599075929573 0.16724053911905912 1:0.046692694 2:0.019017947 3:0.13565348 4:0.04678932 5:0.019435975 6:0.13569655 7:0.047187062 8:0.019419335 9:0.13599694 
0.15960227167634733 0.14973840307254035 0.18258482251289002 0.12843607556639061 0.12926599075929573 0.16724053911905912 1:0.095127249 2:0.0044682279 3:0.10945345 4:0.095287222 5:0.0042199501 6:0.10940061 7:0.094949913 8:0.0043889706 9:0.10939988 
0.15960227167634733 0.14973840307254035 0.18258482251289002 0.12843607556639061 0.12926599075929573 0.16724053911905912 1:0.054826372 2:0.0026640621 3:0.13385152 4:0.055119895 5:0.002956857 6:0.13376393 7:0.055102526 8:0.0026821605 9:0.13341829 
0.15960227167634733 0.14973840307254035 0.18258482251289002 0.12843607556639061 0.12926599075929573 0.16724053911905912 1:0.095006338 2:0.0037916168 3:0.10884317 4:0.094961822 5:0.0039153912 6:0.10885222 7:0.09497919 8:0.0036671135 9:0.10914429 
0.15960227167634733 0.14973840307254035 0.18258482251289002 0.12843607556639061 0.12926599075929573 0.16724053911905912 1:0.053444757 2:0.0037664916 3:0.12870129 4:0.053346672 5:0.003918871 6:0.12985364 7:0.053496867 8:0.0040267331 9:0.12966652 
0.15960227167634733 0.14973840307254035 0.18258482251289002 0.12843607556639061 0.12926599075929573 0.16724053911905912 1:0.095304265 2:0.0048178108 3:0.10918169 4:0.095126923 5:0.0049423137 6:0.1095447 7:0.094647738 8:0.004658568 9:0.10922622 
0 0.14973840307254035 0 0 0 0 1:0.054871387 2:-0.0016236158 3:0.13428831 4:0.055146085 5:-0.0014998413 6:0.13402265 7:0.055119667 8:-0.0013315494 9:0.13412001 
0.15960227167634733 0.14973840307254035 0.18258482251289002 0.12843607556639061 0.12926599075929573 0.16724053911905912 1:0.095096369 2:0.0032764882 3:0.1085284 4:0.095069951 5:0.0031874533 6:0.10867027 7:0.095362745 8:0.0029037074 9:0.10855482 
0.15960227167634733 0.14973840307254035 0.18258482251289002 0.12843607556639061 0.12926599075929573 0.16724053911905912 1:0.095442051 2:0.0031337509 3:0.10855923 4:0.095805778 5:0.0033118207 6:0.10866564 7:0.095646541 8:0.0034446443 9:0.10870111 
0 0.14973840307254035 0.18258482251289002 0.12843607556639061 0.12926599075929573 0.16724053911905912 1:0.056706 2:0.0045088332 3:0.13804962 4:0.055758135 5:0.0037564083 6:0.13733047 7:0.055527956 8:0.0035247719 9:0.13776442 
0.15960227167634733 0.14973840307254035 0.18258482251289002 0.12843607556639061 0 0.16724053911905912 1:0.09961774 2:0.0017731679 3:0.10977037 4:0.099777714 5:0.0016946394 6:0.10975227 7:0.10023048 8:0.0017579839 9:0.10962776 
0.15960227167634733 0.14973840307254035 0.18258482251289002 0.12843607556639061 0.12926599075929573 0.16724053911905912 1:0.05261196 2:0.0096505382 3:0.13216806 4:0.052700266 5:0.0098542987 6:0.13234395 7:0.052716908 8:0.0097833618 9:0.13173048 
0.15960227167634733 0.14973840307254035 0.18258482251289002 0.12843607556639061 0.12926599075929573 0.16724053911905912 1:0.095947608 2:0.0025614405 3:0.10847436 4:0.096035911 5:0.0025614405 6:0.10823514 7:0.096222303 8:0.0028278167 9:0.10827892 
0.15960227167634733 0.14973840307254035 0.18258482251289002 0.12843607556639061 0.12926599075929573 0.16724053911905912 1:0.054298719 2:0.0036419885 3:0.13405102 4:0.054546999 5:0.0035355839 6:0.13429929 7:0.054937148 8:0.0035627315 9:0.13436191 
0.15960227167634733 0.14973840307254035 0.18258482251289002 0.12843607556639061 0.12926599075929573 0.16724053911905912 1:0.045640305 2:0.019171784 3:0.13766652 4:0.046198747 5:0.019251769 6:0.13747867 7:0.046145908 8:0.019703807 9:0.13682141 
0 0.14973840307254035 0 0 0 0 1:0.054962417 2:-0.0015560866 3:0.13385788 4:0.054865061 5:-0.0016451215 6:0.13389408 7:0.054430396 8:-0.0020352721 9:0.13407142 
0.079801135838173665 0.14973840307254035 0.18258482251289002 0.12843607556639061 0.12926599075929573 0 1:0.055043812 2:-0.00094348016 3:0.13437596 4:0.054715549 5:-0.0012453244 6:0.13428692 7:0.054724598 8:-0.00094348016 9:0.13408317 
0.15960227167634733 0.14973840307254035 0.18258482251289002 0.12843607556639061 0.12926599075929573 0.16724053911905912 1:0.03729756 2:0.02150291 3:0.13765562 4:0.037403965 5:0.02167193 6:0.13754017 7:0.037333027 8:0.021539107 9:0.13784201 
0.15960227167634733 0.14973840307254035 0.18258482251289002 0.12843607556639061 0 0.16724053911905912 1:0.094811082 2:-0.0021887674 3:0.1067178 4:0.095297857 5:-0.0030602894 6:0.10685967 7:0.096707534 8:-0.0040049336 9:0.10858929 
0.15960227167634733 0.14973840307254035 0.18258482251289002 0.12843607556639061 0.12926599075929573 0.16724053911905912 1:0.054957432 2:0.0043679942 3:0.13394899 4:0.054939334 5:0.0042789593 6:0.13389615 7:0.054903867 8:0.0042170721 9:0.13376405 
0.15960227167634733 0.14973840307254035 0.18258482251289002 0.12843607556639061 0.12926599075929573 0.16724053911905912 1:0.054484381 2:0.0033325524 3:0.13440496 4:0.05390857 5:0.0032970842 6:0.13445854 7:0.053988557 8:0.0032706652 9:0.13429929 
0.15960227167634733 0.14973840307254035 0.18258482251289002 0.12843607556639061 0.12926599075929573 0.16724053911905912 1:0.095960793 2:0.0030096596 3:0.10856282 4:0.095925326 5:0.0029123041 6:0.10840358 7:0.095916277 8:0.0031605819 9:0.10867828 
0.15960227167634733 0.14973840307254035 0.18258482251289002 0.12843607556639061 0.12926599075929573 0.16724053911905912 1:0.054688401 2:-0.00091706115 3:0.13405747 4:0.05486574 5:-0.00096157859 6:0.13428765 7:0.054927629 8:-0.0013072118 9:0.13422576 
0.15960227167634733 0.14973840307254035 0.18258482251289002 0.12843607556639061 0.12926599075929573 0.16724053911905912 1:0.094681023 2:0.0028188974 3:0.10820347 4:0.095283255 5:0.0032535654 6:0.10851363 7:0.096036405 8:0.0031833576 9:0.10904566 
0.15960227167634733 0.14973840307254035 0.18258482251289002 0.12843607556639061 0.12926599075929573 0.16724053911905912 1:0.056031127 2:0.0027773633 3:0.13338729 4:0.056101335 5:0.0026716871 6:0.13358201 7:0.056030397 8:0.0026716871 9:0.13385671 
0.15960227167634733 0.14973840307254035 0.18258482251289002 0.12843607556639061 0.12926599075929573 0.16724053911905912 1:0.095197864 2:0.005563372 3:0.10985019 4:0.094852228 5:0.0054569676 6:0.10971736 7:0.094604681 8:0.0052441583 9:0.10962001 
0.15960227167634733 0.14973840307254035 0.18258482251289002 0.12843607556639061 0.12926599075929573 0.16724053911905912 1:0.045794868 2:0.019237314 3:0.13570307 4:0.045591111 5:0.019095441 6:0.13576496 7:0.045963161 8:0.019175426 9:0.13573853 
0.15960227167634733 0.14973840307254035 0.18258482251289002 0.12843607556639061 0.12926599075929573 0.16724053911905912 1:0.043931693 2:0.016681532 3:0.13804324 4:0.043728663 5:0.017172682 6:0.13830817 7:0.043604889 8:0.016873752 9:0.13817387 
0.15960227167634733 0.14973840307254035 0.18258482251289002 0.12843607556639061 0.12926599075929573 0.16724053911905912 1:0.095111014 2:0.0045181524 3:0.10888495 4:0.095225734 5:0.0044736347 6:0.10924869 7:0.095394028 8:0.0044291175 9:0.10939887 
0 0.14973840307254035 0.18258482251289002 0.12843607556639061 0.12926599075929573 0 1:0.054792839 2:-0.0015806415 3:0.13421882 4:0.05473927 5:-0.0013233147 6:0.13412146 7:0.054597398 8:-0.0013142654 9:0.1339796 
0.15960227167634733 0.14973840307254035 0.18258482251289002 0.12843607556639061 0.12926599075929573 0.16724053911905912 1:0.09524238 2:0.0040737065 3:0.10932576 4:0.094949587 5:0.0044464871 6:0.10948572 7:0.094976735 8:0.0042691462 9:0.10929933 
0.15960227167634733 0.14973840307254035 0.18258482251289002 0.12843607556639061 0.12926599075929573 0.16724053911905912 1:0.054764777 2:-0.0010282439 3:0.13453061 4:0.054507448 5:-0.00099277568 6:0.13419328 7:0.054649323 8:-0.000744498 9:0.13418423 
0.15960227167634733 0.14973840307254035 0.18258482251289002 0.12843607556639061 0.12926599075929573 0.16724053911905912 1:0.037405485 2:0.021087684 3:0.13781017 4:0.037360968 5:0.021114104 6:0.1378547 7:0.03750284 8:0.021495204 9:0.13787279 
0.15960227167634733 0.14973840307254035 0.18258482251289002 0.12843607556639061 0.12926599075929573 0.16724053911905912 1:0.053568342 2:0.00887756 3:0.13448028 4:0.053665697 5:0.0088601904 6:0.1345172 7:0.053480035 8:0.0089137569 9:0.13487334 
0.15960227167634733 0.14973840307254035 0.18258482251289002 0.12843607556639061 0.12926599075929573 0.16724053911905912 1:0.094107397 2:0.0056245308 3:0.109156 4:0.094665836 5:0.0055800132 6:0.10947522 7:0.094860547 8:0.0054909783 9:0.10969707 
0.15960227167634733 0.14973840307254035 0.18258482251289002 0.12843607556639061 0.12926599075929573 0.16724053911905912 1:0.044505424 2:0.0072946569 3:0.13727786 4:0.044577091 5:0.0070282808 6:0.13806867 7:0.044692546 8:0.007090168 9:0.1377585 
0.15960227167634733 0.14973840307254035 0.18258482251289002 0.12843607556639061 0.12926599075929573 0.16724053911905912 1:0.096518172 2:0.0031872539 3:0.1092905 4:0.096358198 5:0.0028159303 6:0.10884678 7:0.096376296 8:0.0027985606 9:0.10899771 
0.15960227167634733 0.14973840307254035 0.18258482251289002 0.12843607556639061 0.12926599075929573 0.16724053911905912 1:0.054104011 2:0.0019757103 3:0.13459209 4:0.054059491 5:0.0018338374 6:0.13451211 7:0.053845955 8:0.0020111787 9:0.13399818 
0.15960227167634733 0.14973840307254035 0.18258482251289002 0.12843607556639061 0.12926599075929573 0.16724053911905912 1:0.04535188 2:0.019344447 3:0.13558688 4:0.045298314 5:0.019122588 6:0.13617174 7:0.045360203 8:0.019432754 9:0.13634077 
0.15960227167634733 0.14973840307254035 0.18258482251289002 0.12843607556639061 0.12926599075929573 0.16724053911905912 1:0.095575051 2:0.0029139554 3:0.10830558 4:0.095707877 5:0.0031712824 6:0.10825274 7:0.09600067 8:0.0029675221 9:0.10836819 
0.15960227167634733 0.14973840307254035 0.18258482251289002 0.12843607556639061 0.12926599075929573 0.16724053911905912 1:0.096099338 2:0.0033578084 3:0.10803213 4:0.095762022 5:0.0032514038 6:0.10812116 7:0.095965782 8:0.0033049704 9:0.10848417 
0.15960227167634733 0.14973840307254035 0.18258482251289002 0.12843607556639061 0.12926599075929573 0.16724053911905912 1:0.095958051 2:0.0031678618 3:0.10807309 4:0.095851643 5:0.0031323935 6:0.10821497 7:0.095691676 8:0.0033361536 9:0.10823307 
0.15960227167634733 0.14973840307254035 0.18258482251289002 0.12843607556639061 0.12926599075929573 0.16724053911905912 1:0.096266246 2:0.0035162457 3:0.10831725 4:0.096887307 5:0.0036143298 6:0.10825537 7:0.096674497 8:0.0039780616 9:0.10800709 
0.15960227167634733 0.14973840307254035 0.18258482251289002 0.12843607556639061 0.12926599075929573 0.16724053911905912 1:0.053612274 2:0.007990831 3:0.13384351 4:0.053319477 5:0.0081236547 6:0.13376353 7:0.053310428 8:0.0082655275 9:0.13394087 
0 0.14973840307254035 0 0 0 0 1:0.05484667 2:-0.0017250662 3:0.13396135 4:0.054873088 5:-0.0019823932 6:0.13405038 7:0.054988542 8:-0.0014149014 9:0.13439602 
0.15960227167634733 0.14973840307254035 0.18258482251289002 0.12843607556639061 0.12926599075929573 0.16724053911905912 1:0.094612271 2:0.0050306201 3:0.11007818 4:0.094320207 5:0.0048442296 6:0.10955521 7:0.094551115 8:0.0049861025 9:0.10922694 
0.15960227167634733 0.14973840307254035 0.18258482251289002 0.12843607556639061 0.12926599075929573 0.16724053911905912 1:0.055113145 2:0.00020028091 3:0.13421133 4:0.055494248 5:0.00048402673 6:0.13426489 7:0.055768943 8:0.0005368648 9:0.13404304 
0.15960227167634733 0.14973840307254035 0.18258482251289002 0.12843607556639061 0.12926599075929573 0.16724053911905912 1:0.095273241 2:0.0033636947 3:0.10849738 4:0.095406068 5:0.0033908424 6:0.10856831 7:0.095228725 8:0.0034082122 9:0.10875471 
0.15960227167634733 0.14973840307254035 0.18258482251289002 0.12843607556639061 0.12926599075929573 0 1:0.055154926 2:-0.0010991803 3:0.13401594 4:0.055119459 5:-0.00098372647 6:0.13417592 7:0.055074939 8:-0.0012410532 9:0.13415782 
0.15960227167634733 0.14973840307254035 0.18258482251289002 0.12843607556639061 0.12926599075929573 0.16724053911905912 1:0.054103282 2:0.0037288374 3:0.13405029 4:0.053996877 5:0.0032058634 6:0.13393484 7:0.054307042 8:0.0034186727 9:0.13394388 
0.15960227167634733 0.14973840307254035 0.18258482251289002 0.12843607556639061 0.12926599075929573 0.16724053911905912 1:0.095663394 2:0.003657947 3:0.10875544 4:0.095477002 5:0.0036488978 6:0.10888826 7:0.0954951 8:0.0037288834 9:0.10907465 
0.15960227167634733 0.14973840307254035 0.18258482251289002 0.12843607556639061 0.12926599075929573 0.16724053911905912 1:0.095601295 2:0.003675552 3:0.10917197 4:0.095628443 5:0.0037200695 6:0.10933195 7:0.095850294 8:0.0035955664 9:0.10919839 
0.15960227167634733 0.14973840307254035 0.18258482251289002 0.12843607556639061 0.12926599075929573 0.16724053911905912 1:0.095886387 2:0.0029384111 3:0.10841873 4:0.095966371 5:0.002840327 6:0.1086851 7:0.096197279 8:0.0030886045 9:0.10878245 
0.15960227167634733 0.14973840307254035 0.18258482251289002 0.12843607556639061 0.12926599075929573 0.16724053911905912 1:0.055101361 2:0.0029713455 3:0.1337865 4:0.055261331 5:0.0029177789 6:0.13415855 7:0.0554394 8:0.0028913599 9:0.13430041 
0.15960227167634733 0.14973840307254035 0.18258482251289002 0.12843607556639061 0.12926599075929573 0.16724053911905912 1:0.053853122 2:0.0035446331 3:0.13281376 4:0.053586017 5:0.0034744253 6:0.13276779 7:0.053761903 8:0.0035363125 9:0.13279348 
0.15960227167634733 0.14973840307254035 0.18258482251289002 0.12843607556639061 0.12926599075929573 0.16724053911905912 1:0.098935414 2:0.00055282689 3:0.10786813 4:0.098662171 5:0.0015021486 6:0.10810122 7:0.097536967 8:0.0019646929 9:0.10836001 
0.15960227167634733 0.14973840307254035 0.18258482251289002 0.12843607556639061 0.12926599075929573 0.16724053911905912 1:0.037540078 2:0.021324637 3:0.13827041 4:0.037469143 5:0.021182763 6:0.13812855 7:0.03734464 8:0.021218232 9:0.13798668 
0.15960227167634733 0.14973840307254035 0.18258482251289002 0.12843607556639061 0.12926599075929573 0.16724053911905912 1:0.054556049 2:0.00055625255 3:0.13435287 4:0.054830743 5:0.0002898765 6:0.13457472 7:0.05512354 8:0.0006264604 9:0.13435287 
0.15960227167634733 0.14973840307254035 0.18258482251289002 0.12843607556639061 0.12926599075929573 0.16724053911905912 1:0.048819972 2:0.0074975194 3:0.13577918 4:0.048801873 5:0.0073201785 6:0.135912 7:0.048988265 8:0.00788767 9:0.13621385 
0.15960227167634733 0.14973840307254035 0.18258482251289002 0.12843607556639061 0.12926599075929573 0.16724053911905912 1:0.055660529 2:0.0034143341 3:0.13371483 4:0.055757885 5:0.0033343485 6:0.13378576 7:0.055412252 8:0.0030860708 9:0.13351939 
0.15960227167634733 0.14973840307254035 0.18258482251289002 0.12843607556639061 0.12926599075929573 0.16724053911905912 1:0.046309629 2:0.0074556625 3:0.13667125 4:0.046353416 5:0.0071273992 6:0.13625468 7:0.046157248 8:0.0068157774 9:0.13658368 
0.15960227167634733 0.14973840307254035 0.18258482251289002 0.12843607556639061 0.12926599075929573 0.16724053911905912 1:0.095619393 2:0.0032575254 3:0.1086309 4:0.095601295 5:0.0032220571 6:0.10843619 7:0.095707696 8:0.0032046874 9:0.1089418 
0.15960227167634733 0.14973840307254035 0.18258482251289002 0.12843607556639061 0 0 1:0.055519595 2:-0.0012432431 3:0.13382795 4:0.055333203 5:-0.001526989 6:0.13379248 7:0.055332477 8:-0.0016771825 9:0.13350874 
0.15960227167634733 0.14973840307254035 0.18258482251289002 0.12843607556639061 0.12926599075929573 0.16724053911905912 1:0.095969842 2:0.0032043706 3:0.10878468 4:0.095827967 5:0.0032753071 6:0.10864353 7:0.095641582 8:0.0032307896 9:0.10843977 
0.15960227167634733 0.14973840307254035 0.18258482251289002 0.12843607556639061 0.12926599075929573 0.16724053911905912 1:0.095939289 2:0.0029399042 3:0.10844914 4:0.096134 5:0.0030379883 6:0.1085103 7:0.095956658 8:0.0030025201 9:0.10866954 
0.15960227167634733 0.14973840307254035 0.18258482251289002 0.12843607556639061 0.12926599075929573 0.16724053911905912 1:0.09599217 2:0.0027074035 3:0.10790271 4:0.096143095 5:0.0029654588 6:0.10815099 7:0.095957433 8:0.0029488177 9:0.10817814 
0.15960227167634733 0.14973840307254035 0.18258482251289002 0.12843607556639061 0.12926599075929573 0 1:0.054650237 2:-0.0013240433 3:0.13412833 4:0.054658557 5:-0.0013059449 6:0.13411928 7:0.054746863 8:-0.0012878464 9:0.13402192 
0.15960227167634733 0.14973840307254035 0.18258482251289002 0.12843607556639061 0.12926599075929573 0.16724053911905912 1:0.095769581 2:0.003178997 3:0.10871994 4:0.095805048 5:0.0033563381 6:0.10876445 7:0.096089529 8:0.0035155807 9:0.10879014 
0.15960227167634733 0 0 0 0 0 1:0.068285393 2:-0.0075479102 3:0.1252028 4:0.068897405 5:-0.0075117134 6:0.12520208 7:0.069109485 8:-0.0074490977 9:0.12536963 
0 0.14973840307254035 0 0 0 0 1:0.055553398 2:-0.0011958071 3:0.13429969 4:0.055376785 5:-0.0013648277 6:0.13431779 7:0.055234913 8:-0.001232004 9:0.13419402 
0.15960227167634733 0.14973840307254035 0.18258482251289002 0.12843607556639061 0.12926599075929573 0.16724053911905912 1:0.096330835 2:0.0031678618 3:0.10813352 4:0.09576334 5:0.0030078902 6:0.10819614 7:0.095745241 8:0.0029014856 9:0.10849798 
0.15960227167634733 0.14973840307254035 0.18258482251289002 0.12843607556639061 0.12926599075929573 0 1:0.054933797 2:-0.0012146342 3:0.13405214 4:0.054969264 5:-0.0013119897 6:0.1339631 7:0.054782876 8:-0.0010546629 9:0.13419402 
0.15960227167634733 0.14973840307254035 0.18258482251289002 0.12843607556639061 0.12926599075929573 0.16724053911905912 1:0.056334425 2:0.0030958486 3:0.13374197 4:0.055997842 5:0.0028385219 6:0.1333435 7:0.055926908 8:0.0031222676 9:0.13356463 
0.15960227167634733 0.14973840307254035 0.18258482251289002 0.12843607556639061 0.12926599075929573 0.16724053911905912 1:0.044169465 2:0.018319817 3:0.13619276 4:0.04368955 5:0.018009652 6:0.13538531 7:0.043386978 8:0.017894198 9:0.13539509 
0.15960227167634733 0.14973840307254035 0.18258482251289002 0.12843607556639061 0.12926599075929573 0.16724053911905912 1:0.094594172 2:0.0051294326 3:0.1091922 4:0.0948334 5:0.0050403978 6:0.10913032 7:0.09504621 8:0.0047302333 9:0.10916505 
0.15960227167634733 0.14973840307254035 0.18258482251289002 0.12843607556639061 0.12926599075929573 0.16724053911905912 1:0.054370387 2:0.0040411885 3:0.13379441 4:0.054599835 5:0.0040857058 6:0.13423741 7:0.054183265 8:0.003890266 9:0.13382084 
0.15960227167634733 0.14973840307254035 0.18258482251289002 0.12843607556639061 0.12926599075929573 0.16724053911905912 1:0.05466186 2:0.00043005288 3:0.13412853 4:0.054555455 5:0.00041195445 6:0.13450963 7:0.054564504 8:0.00027913074 9:0.13410139 
0 0.14973840307254035 0.18258482251289002 0.12843607556639061 0 0 1:0.054935999 2:-0.0014851501 3:0.13393028 4:0.055175227 5:-0.0013968439 6:0.13410762 7:0.054838643 8:-0.0011840345 9:0.13411595 
0.15960227167634733 0.14973840307254035 0.18258482251289002 0.12843607556639061 0.12926599075929573 0.16724053911905912 1:0.095351237 2:0.003082252 3:0.10887791 4:0.095032026 5:0.0033214805 6:0.10894885 7:0.095395761 8:0.0033750472 9:0.1093209 
0.15960227167634733 0.14973840307254035 0.18258482251289002 0.12843607556639061 0.12926599075929573 0.16724053911905912 1:0.096259894 2:0.0033452028 3:0.10822329 4:0.095718824 5:0.00320333 6:0.10815235 7:0.095949002 8:0.0028486476 9:0.10798406 
0.15960227167634733 0.14973840307254035 0.18258482251289002 0.12843607556639061 0.12926599075929573 0.16724053911905912 1:0.097236922 2:0.0064718196 3:0.10897326 4:0.097599926 5:0.0064913753 6:0.10884948 7:0.097981752 8:0.0061917168 9:0.1087876 
0.15960227167634733 0.14973840307254035 0.18258482251289002 0.12843607556639061 0.12926599075929573 0.16724053911905912 1:0.095681233 2:0.0030817771 3:0.1087669 4:0.095423907 5:0.0029127566 6:0.10873143 7:0.095610299 8:0.0029482248 9:0.10857145 
0.15960227167634733 0.14973840307254035 0.18258482251289002 0.12843607556639061 0.12926599075929573 0.16724053911905912 1:0.043231379 2:0.018741487 3:0.13706897 4:0.043497754 5:0.018395125 6:0.13688257 7:0.043524176 8:0.018767907 9:0.13711275 
0.15960227167634733 0.14973840307254035 0.18258482251289002 0.12843607556639061 0.12926599075929573 0.16724053911905912 1:0.054972986 2:0.00046799153 3:0.13402743 4:0.055283152 5:0.00029969961 6:0.13422215 7:0.054706611 8:0.00030874883 9:0.13394673 
0.15960227167634733 0.14973840307254035 0.18258482251289002 0.12843607556639061 0.12926599075929573 0.16724053911905912 1:0.053686711 2:0.0031251491 3:0.13387295 4:0.053811215 5:0.0034896091 6:0.13411218 7:0.053899521 8:0.0035069789 9:0.13406765 
0.15960227167634733 0.14973840307254035 0.18258482251289002 0.12843607556639061 0.12926599075929573 0.16724053911905912 1:0.043295453 2:0.018061761 3:0.13692739 4:0.043481842 5:0.01828362 6:0.13662482 7:0.043552779 8:0.01810628 9:0.13658862 
0.15960227167634733 0.14973840307254035 0.18258482251289002 0.12843607556639061 0.12926599075929573 0.16724053911905912 1:0.053513966 2:0.0081124065 3:0.13389106 4:0.05362942 5:0.0080150508 6:0.13433405 7:0.053443031 8:0.0079795828 9:0.13395294 
0.15960227167634733 0.14973840307254035 0.18258482251289002 0.12843607556639061 0.12926599075929573 0.16724053911905912 1:0.055123911 2:0.00012162983 3:0.13446969 4:0.055026556 5:0.00044084389 6:0.13464704 7:0.055160108 8:0.00057366759 9:0.13451349 
0.15960227167634733 0.14973840307254035 0.18258482251289002 0.12843607556639061 0.12926599075929573 0.16724053911905912 1:0.052328413 2:0.0063690936 3:0.1346595 4:0.052062764 5:0.0060936682 6:0.13524654 7:0.052134428 8:0.0063155267 9:0.13603808 
0.15960227167634733 0.14973840307254035 0.18258482251289002 0.12843607556639061 0.12926599075929573 0.16724053911905912 1:0.045363727 2:0.019494641 3:0.13623188 4:0.045424886 5:0.019050923 6:0.13664917 7:0.045558439 8:0.018917372 9:0.13697743 
0 0.14973840307254035 0 0.12843607556639061 0 0 1:0.055209774 2:-0.0014848243 3:0.1338295 4:0.054873187 5:-0.0014576767 6:0.13405063 7:0.055201451 8:-0.0014312577 9:0.13407705 
0.15960227167634733 0.14973840307254035 0.18258482251289002 0.12843607556639061 0.12926599075929573 0.16724053911905912 1:0.054178813 2:0.0082090333 3:0.13413102 4:0.054019572 5:0.0082361809 6:0.13414838 7:0.0538777 8:0.0082716489 9:0.13401483 
0.15960227167634733 0.14973840307254035 0.18258482251289002 0.12843607556639061 0.12926599075929573 0.16724053911905912 1:0.094869922 2:0.0041935313 3:0.10912592 4:0.094869922 5:0.0044508579 6:0.10938324 7:0.094843505 8:0.0040871265 9:0.10938324 
0.15960227167634733 0.14973840307254035 0.18258482251289002 0.12843607556639061 0.12926599075929573 0.16724053911905912 1:0.054600565 2:0.0037302947 3:0.13376946 4:0.054369657 5:0.0040585581 6:0.1340351 7:0.054467012 8:0.0042720963 9:0.13426528 
0.15960227167634733 0.14973840307254035 0.18258482251289002 0.12843607556639061 0.12926599075929573 0.16724053911905912 1:0.095389163 2:0.0020783064 3:0.10810231 4:0.095034484 5:0.0022285 6:0.10851815 7:0.094946174 8:0.0022277713 9:0.10831293 
0.15960227167634733 0.14973840307254035 0.18258482251289002 0.12843607556639061 0.12926599075929573 0.16724053911905912 1:0.054218736 2:0.0038909949 3:0.13402459 4:0.054511529 5:0.0037219744 6:0.13430834 7:0.054458693 8:0.0040495089 9:0.13386536 
0.15960227167634733 0.14973840307254035 0.18258482251289002 0.12843607556639061 0.12926599075929573 0.16724053911905912 1:0.052839997 2:0.0080768118 3:0.13436744 4:0.053274666 5:0.0082541527 6:0.13421724 7:0.053442959 8:0.0078549529 9:0.13474022 
0.15960227167634733 0.14973840307254035 0.18258482251289002 0.12843607556639061 0.12926599075929573 0.16724053911905912 1:0.095708381 2:0.0029037074 3:0.10874953 4:0.095805733 5:0.003010112 6:0.10851935 7:0.095912141 8:0.0028682391 9:0.10870574 
0.15960227167634733 0.14973840307254035 0.18258482251289002 0.12843607556639061 0.12926599075929573 0.16724053911905912 1:0.095821798 2:0.0030113699 3:0.10845008 4:0.096034608 5:0.0032060809 6:0.10834367 7:0.095715397 8:0.0028868668 9:0.10827273 
0.15960227167634733 0 0 0 0 0 1:0.069235444 2:-0.0053966176 3:0.12629399 4:0.069581803 5:-0.0057686698 6:0.12654372 7:0.07032664 8:-0.0059369615 9:0.12666823 
0.15960227167634733 0.14973840307254035 0.18258482251289002 0.12843607556639061 0.12926599075929573 0.16724053911905912 1:0.053469672 2:0.0082745768 3:0.13403063 4:0.053247813 5:0.0082926752 6:0.13417251 7:0.053309702 8:0.0080624959 9:0.13393254 
0 0.14973840307254035 0 0 0 0 1:0.055432556 2:-0.0017779451 3:0.13419447 4:0.054865061 5:-0.0013696962 6:0.1339726 7:0.054820545 8:-0.0013787454 9:0.13399903 
0.15960227167634733 0.14973840307254035 0.18258482251289002 0.12843607556639061 0.12926599075929573 0.16724053911905912 1:0.056076373 2:-0.00063663606 3:0.13369891 4:0.055757158 5:-0.00070830114 6:0.13368986 7:0.055996386 8:-0.0008139772 9:0.13366271 
0.15960227167634733 0.14973840307254035 0.18258482251289002 0.12843607556639061 0.12926599075929573 0.16724053911905912 1:0.095637492 2:0.003231835 3:0.1083638 4:0.095938604 5:0.0030809127 6:0.10841736 7:0.095388485 8:0.0031073319 9:0.10857733 
0.15960227167634733 0.14973840307254035 0 0 0 0 1:0.054700332 2:-0.0025352314 3:0.13516446 4:0.054392352 5:-0.0024295556 6:0.13325312 7:0.0553786 8:-0.0020958862 9:0.13159984 
0.15960227167634733 0.14973840307254035 0.18258482251289002 0.12843607556639061 0.12926599075929573 0 1:0.054563355 2:-0.0012799284 3:0.13385956 4:0.05487352 5:-0.001386333 6:0.13385051 7:0.054696177 8:-0.0016172409 9:0.13403689 
0.15960227167634733 0.14973840307254035 0.18258482251289002 0.12843607556639061 0.12926599075929573 0.16724053911905912 1:0.093822128 2:0.0021186226 3:0.10656607 4:0.093787391 5:0.0021186226 6:0.10677888 7:0.094062085 8:0.0019231831 9:0.10639778 
0.15960227167634733 0.14973840307254035 0.18258482251289002 0.12843607556639061 0.12926599075929573 0.16724053911905912 1:0.037156418 2:0.021831174 3:0.13804504 4:0.037369224 5:0.021521009 6:0.13823143 7:0.037191885 8:0.02167193 9:0.13821407 
0.15960227167634733 0.14973840307254035 0.18258482251289002 0.12843607556639061 0.12926599075929573 0.16724053911905912 1:0.037309891 2:0.021066578 3:0.13770184 4:0.03732799 5:0.020933753 6:0.13805653 7:0.037434394 8:0.021262017 9:0.13795012 
0.15960227167634733 0.14973840307254035 0.18258482251289002 0.12843607556639061 0.12926599075929573 0.16724053911905912 1:0.095206913 2:0.0051815422 3:0.10926387 4:0.095055989 5:0.0047559236 6:0.10898012 7:0.095259749 8:0.0048268601 9:0.10915746 
0.15960227167634733 0.14973840307254035 0.18258482251289002 0.12843607556639061 0.12926599075929573 0.16724053911905912 1:0.054351558 2:0.0018233309 3:0.13405934 4:0.054387026 5:0.001938785 6:0.13427215 7:0.054307042 8:0.0018059611 9:0.13446686 
0.15960227167634733 0.14973840307254035 0.18258482251289002 0.12843607556639061 0.12926599075929573 0.16724053911905912 1:0.053478499 2:0.0078467592 3:0.13418458 4:0.053425663 5:0.0079622133 6:0.13427289 7:0.053709407 8:0.0080414696 9:0.13399819 
0.15960227167634733 0.14973840307254035 0.18258482251289002 0.12843607556639061 0.12926599075929573 0.16724053911905912 1:0.056664741 2:0.011068656 3:0.14058978 4:0.056700209 5:0.011132729 6:0.14122966 7:0.056931843 8:0.0099727844 9:0.14155938 
0.15960227167634733 0.14973840307254035 0.18258482251289002 0.12843607556639061 0.12926599075929573 0.16724053911905912 1:0.095734844 2:0.0030899619 3:0.10903083 4:0.09556655 5:0.0033201412 6:0.1087735 7:0.0954511 8:0.0029737794 9:0.10841882 
0.15960227167634733 0.14973840307254035 0.18258482251289002 0.12843607556639061 0.12926599075929573 0.16724053911905912 1:0.036970026 2:0.021386728 3:0.13806314 4:0.036988125 5:0.021431245 6:0.13800053 7:0.036961707 8:0.021386728 9:0.13766394 
0.15960227167634733 0.14973840307254035 0.18258482251289002 0.12843607556639061 0.12926599075929573 0.16724053911905912 1:0.05396766 2:0.0061675192 3:0.13596768 4:0.052901426 5:0.006052794 6:0.13589967 7:0.052625272 8:0.006387192 9:0.13648963 
0.15960227167634733 0.14973840307254035 0.18258482251289002 0.12843607556639061 0.12926599075929573 0.16724053911905912 1:0.055190393 2:-0.0013919754 3:0.1334756 4:0.055350367 5:-0.0014093452 6:0.13333373 7:0.055474141 8:-0.0013829262 9:0.13387481 
0.15960227167634733 0.14973840307254035 0.18258482251289002 0.12843607556639061 0.12926599075929573 0.16724053911905912 1:0.095485837 2:0.0034500503 3:0.10875249 4:0.095325863 5:0.0032100934 6:0.10881438 7:0.095343239 8:0.0030682205 9:0.10861062 
0 0.14973840307254035 0 0 0 0 1:0.055085898 2:-0.0017605345 3:0.13425415 4:0.055174204 5:-0.0015567744 6:0.1339885 7:0.055067799 8:-0.0016096124 9:0.13391756 
0.15960227167634733 0.14973840307254035 0.18258482251289002 0.12843607556639061 0.12926599075929573 0.16724053911905912 1:0.04618502 2:0.019095441 3:0.13561403 4:0.045936743 5:0.019210895 6:0.13556047 7:0.045945793 8:0.019263732 9:0.13577401 
0.15960227167634733 0.14973840307254035 0.18258482251289002 0.12843607556639061 0.12926599075929573 0.16724053911905912 1:0.03751293 2:0.020651468 3:0.13756937 4:0.037610286 5:0.020740504 6:0.13774671 7:0.037371058 8:0.020900475 9:0.13777314 
0.15960227167634733 0.14973840307254035 0.18258482251289002 0.12843607556639061 0.12926599075929573 0.16724053911905912 1:0.055457321 2:4.0309561e-05 3:0.13359027 4:0.055368289 5:-0.00031437273 6:0.13368835 7:0.055395436 8:-0.00028795371 9:0.13381286 
0.15960227167634733 0.14973840307254035 0.18258482251289002 0.12843607556639061 0.12926599075929573 0.16724053911905912 1:0.045661319 2:0.019256141 3:0.13564045 4:0.045909596 5:0.019069751 6:0.1359423 7:0.04577677 8:0.019016183 9:0.13554309 
0.15960227167634733 0.14973840307254035 0.18258482251289002 0.12843607556639061 0.12926599075929573 0.16724053911905912 1:0.054341496 2:-0.001494195 3:0.13202353 4:0.053622353 5:-0.001707733 6:0.13145676 7:0.053170316 8:-0.0013280889 9:0.13216685 
0.15960227167634733 0.14973840307254035 0.18258482251289002 0.12843607556639061 0.12926599075929573 0.16724053911905912 1:0.054236834 2:0.0039438329 3:0.13430906 4:0.054440595 5:0.0037748124 6:0.13409626 7:0.054227785 8:0.003854798 9:0.13421098 
0.15960227167634733 0.14973840307254035 0.18258482251289002 0.12843607556639061 0.12926599075929573 0.16724053911905912 1:0.095282806 2:0.0033291904 3:0.10869425 4:0.095530354 5:0.0027526495 6:0.10869425 7:0.095423952 8:0.0030099763 9:0.10848071 
0.15960227167634733 0.14973840307254035 0.18258482251289002 0.12843607556639061 0.12926599075929573 0.16724053911905912 1:0.097135472 2:0.00097122305 3:0.10625672 4:0.097179266 5:0.00093284023 6:0.1067721 7:0.097214003 8:0.0010739845 9:0.10727843 
0 0.14973840307254035 0 0.12843607556639061 0 0 1:0.055032332 2:-0.0014058522 3:0.13401418 4:0.054934976 5:-0.0014767886 6:0.13406776 7:0.054828572 8:-0.0017069678 9:0.13388137 
0.15960227167634733 0.14973840307254035 0.18258482251289002 0.12843607556639061 0.12926599075929573 0.16724053911905912 1:0.046513386 2:0.0070488708 3:0.13623805 4:0.046362465 5:0.0073145181 6:0.13629088 7:0.046504337 8:0.0071371772 9:0.13668104 
0.15960227167634733 0.14973840307254035 0.18258482251289002 0.12843607556639061 0.12926599075929573 0.16724053911905912 1:0.054573417 2:0.004245677 3:0.13401554 4:0.054413447 5:0.0042811455 6:0.13429024 7:0.05391689 8:0.0040154982 9:0.13428952 
0.15960227167634733 0.14973840307254035 0.18258482251289002 0.12843607556639061 0.12926599075929573 0.16724053911905912 1:0.055218824 2:0.00052781558 3:0.13377666 4:0.055129787 5:0.0010070011 6:0.13367025 7:0.055218094 8:0.00071493458 9:0.13352838 
0.15960227167634733 0.14973840307254035 0.18258482251289002 0.12843607556639061 0.12926599075929573 0.16724053911905912 1:0.04317927 2:0.019131638 3:0.1369792 4:0.043347563 5:0.019299929 6:0.13648336 7:0.04322306 8:0.018936198 9:0.13613774 
0.15960227167634733 0.14973840307254035 0.18258482251289002 0.12843607556639061 0.12926599075929573 0.16724053911905912 1:0.054387755 2:0.0054280927 3:0.13431126 4:0.054458693 5:0.0051971845 6:0.13416866 7:0.054467012 8:0.0053828466 9:0.13374304 
0.15960227167634733 0.14973840307254035 0.18258482251289002 0.12843607556639061 0.12926599075929573 0.16724053911905912 1:0.095193258 2:0.0032315997 3:0.10863021 4:0.095406068 5:0.0030723569 6:0.10872829 7:0.095397019 8:0.0034270392 9:0.10871924 
0 0.14973840307254035 0 0 0 0 1:0.055361754 2:-0.0016089203 3:0.13397282 4:0.055148945 5:-0.0016979552 6:0.13387546 7:0.055219882 8:-0.0016353393 9:0.13383168 
0.15960227167634733 0.14973840307254035 0.18258482251289002 0.12843607556639061 0.12926599075929573 0.16724053911905912 1:0.095583151 2:0.0032192783 3:0.10845454 4:0.0962299 5:0.0028200785 6:0.10861379 7:0.095680503 8:0.0027400928 9:0.10814365 
0.15960227167634733 0.14973840307254035 0.18258482251289002 0.12843607556639061 0.12926599075929573 0.16724053911905912 1:0.051680935 2:0.010242722 3:0.13437522 4:0.051805438 5:0.0099672977 6:0.13471253 7:0.050705922 8:0.0093636085 9:0.13485367 
0.15960227167634733 0.14973840307254035 0.18258482251289002 0.12843607556639061 0.12926599075929573 0.16724053911905912 1:0.095938559 2:0.0027130915 3:0.10835891 4:0.095353695 5:0.0030232562 6:0.10819967 7:0.095389163 8:0.0032005975 9:0.10819062 
0.15960227167634733 0.14973840307254035 0.18258482251289002 0.12843607556639061 0.12926599075929573 0.16724053911905912 1:0.053899521 2:0.0044849056 3:0.13457472 4:0.054059491 5:0.0040140409 6:0.13415815 7:0.053660293 8:0.0036503091 9:0.13397176 
0.15960227167634733 0.14973840307254035 0.18258482251289002 0.12843607556639061 0.12926599075929573 0.16724053911905912 1:0.054626983 2:0.0037929108 3:0.13399818 4:0.054688871 5:0.0040057201 6:0.13417552 7:0.054670773 8:0.0037310236 9:0.13404269 
0.15960227167634733 0.14973840307254035 0.18258482251289002 0.12843607556639061 0.12926599075929573 0.16724053911905912 1:0.053025429 2:0.0073589475 3:0.13400578 4:0.0539657 5:0.007901477 6:0.13322008 7:0.053272976 8:0.0067559876 9:0.13459428 
0.15960227167634733 0.14973840307254035 0.18258482251289002 0.12843607556639061 0.12926599075929573 0.16724053911905912 1:0.095352966 2:0.0031957739 3:0.10856314 4:0.09551294 5:0.0033112278 6:0.10863407 7:0.095840477 8:0.00306295 9:0.10900685 
0.15960227167634733 0.14973840307254035 0.18258482251289002 0.12843607556639061 0.12926599075929573 0.16724053911905912 1:0.054650602 2:0.00015722074 3:0.13416535 4:0.054269499 5:0.00013007309 6:0.13403253 7:0.054650602 8:2.3668394e-05 9:0.1347238 
0.15960227167634733 0.14973840307254035 0.18258482251289002 0.12843607556639061 0.12926599075929573 0.16724053911905912 1:0.054115246 2:0.0047769721 3:0.13489072 4:0.054008841 5:0.004661518 6:0.13505068 7:0.053414202 8:0.0045815324 9:0.1344832 
0.15960227167634733 0.14973840307254035 0.18258482251289002 0.12843607556639061 0.12926599075929573 0.16724053911905912 1:0.095482483 2:0.002983765 3:0.10788479 4:0.095712661 5:0.0027875969 6:0.1078229 7:0.096368459 8:0.0027528573 9:0.10799047 
0.15960227167634733 0.14973840307254035 0.18258482251289002 0.12843607556639061 0.12926599075929573 0.16724053911905912 1:0.054935076 2:0.00029763639 3:0.13390876 4:0.054970543 5:0.00067873772 6:0.1340061 7:0.055227873 8:0.00043046009 9:0.1338114 
0 0.14973840307254035 0 0.12843607556639061 0 0 1:0.054803176 2:-0.0019274102 3:0.13383906 4:0.054740562 5:-0.0017055514 6:0.13389262 7:0.054598686 8:-0.0012973025 9:0.13402618 
0 0.14973840307254035 0 0 0 0 1:0.054996865 2:-0.00125493 3:0.13459074 4:0.054996865 5:-0.001396803 6:0.13459074 7:0.054606713 8:-0.0012903983 9:0.13407608 
0.15960227167634733 0.14973840307254035 0.18258482251289002 0.12843607556639061 0.12926599075929573 0.16724053911905912 1:0.05446494 2:0.00037762207 3:0.134317 4:0.054571345 5:0.00013839367 6:0.13430795 7:0.054713217 8:0.00050139658 9:0.13436079 
0.15960227167634733 0.14973840307254035 0.18258482251289002 0.12843607556639061 0.12926599075929573 0.16724053911905912 1:0.054981309 2:0.00084982151 3:0.13429163 4:0.054662095 5:0.00052155823 6:0.13439804 7:0.054475703 8:0.00045894232 9:0.13407883 
0.15960227167634733 0.14973840307254035 0.18258482251289002 0.12843607556639061 0.12926599075929573 0.16724053911905912 1:0.055599503 2:0.0046401995 3:0.13551438 4:0.055742105 5:0.0049329945 6:0.13501636 7:0.055617602 8:0.0049156249 9:0.13475831 
0.15960227167634733 0.14973840307254035 0.18258482251289002 0.12843607556639061 0.12926599075929573 0.16724053911905912 1:0.05447389 2:-0.00090929693 3:0.13412964 4:0.054819522 5:-0.0010066525 6:0.13420058 7:0.054393903 8:-0.0011930428 9:0.13396135 
0.15960227167634733 0.14973840307254035 0.18258482251289002 0.12843607556639061 0.12926599075929573 0.16724053911905912 1:0.053678392 2:0.0082883266 3:0.1339363 4:0.053447484 5:0.0083147454 6:0.13419362 7:0.053571257 8:0.0083147454 9:0.13397176 
0.15960227167634733 0.14973840307254035 0.18258482251289002 0.12843607556639061 0.12926599075929573 0.16724053911905912 1:0.054405124 2:0.0036238901 3:0.13438833 4:0.054449644 5:0.003446549 6:0.13408649 7:0.054644355 8:0.0034903378 9:0.13375895 
0.15960227167634733 0.14973840307254035 0.18258482251289002 0.12843607556639061 0.12926599075929573 0.16724053911905912 1:0.098875281 2:0.0031046251 3:0.10756059 4:0.098627734 5:0.0029160489 6:0.10718927 7:0.098299466 8:0.0027025107 9:0.10685415 
0.15960227167634733 0.14973840307254035 0.18258482251289002 0.12843607556639061 0.12926599075929573 0.16724053911905912 1:0.055182074 2:-0.00076186784 3:0.13407856 4:0.054933797 5:-0.00099277568 6:0.13403478 7:0.054960215 8:-0.00081543449 9:0.13399099 
0.15960227167634733 0.14973840307254035 0.18258482251289002 0.12843607556639061 0.12926599075929573 0.16724053911905912 1:0.095459633 2:0.003319906 3:0.10869282 4:0.095566035 5:0.0033734726 6:0.10884374 7:0.095627927 8:0.0032315997 9:0.10842717 
0.15960227167634733 0.14973840307254035 0.18258482251289002 0.12843607556639061 0.12926599075929573 0.16724053911905912 1:0.054787328 2:0.00046799152 3:0.13397314 4:0.054565469 5:0.00017519649 6:0.13402598 7:0.054600936 8:0.0003170694 9:0.13415881 
0.15960227167634733 0.14973840307254035 0.18258482251289002 0.12843607556639061 0.12926599075929573 0.16724053911905912 1:0.055650754 2:0.0022424253 3:0.13364389 4:0.056085422 5:0.0021714888 6:0.13454797 7:0.056103521 8:0.0026416251 9:0.1340952 
0.15960227167634733 0.14973840307254035 0.18258482251289002 0.12843607556639061 0.12926599075929573 0.16724053911905912 1:0.096257853 2:0.0027993659 3:0.10829777 4:0.096249526 5:0.0027903167 6:0.10809328 7:0.096374033 8:0.0027020105 9:0.10837703 
0.15960227167634733 0.14973840307254035 0.18258482251289002 0.12843607556639061 0.12926599075929573 0.16724053911905912 1:0.095335597 2:0.0034093118 3:0.10892541 4:0.095539358 5:0.0034802483 6:0.10868618 7:0.095406538 8:0.0034885688 9:0.10867786 
0.15960227167634733 0.14973840307254035 0.18258482251289002 0.12843607556639061 0.12926599075929573 0.16724053911905912 1:0.095298174 2:0.0030413731 3:0.10811773 4:0.09513893 5:0.0022603435 6:0.10850934 7:0.095006833 8:0.0022769846 9:0.10829726 
0.15960227167634733 0.14973840307254035 0.18258482251289002 0.12843607556639061 0.12926599075929573 0.16724053911905912 1:0.04942439 2:0.0071880828 3:0.1353572 4:0.049929267 5:0.0074280402 6:0.13546361 7:0.049937586 8:0.0074378183 9:0.13565 
0.15960227167634733 0.14973840307254035 0.18258482251289002 0.12843607556639061 0.12926599075929573 0.16724053911905912 1:0.054652235 2:-0.00012125378 3:0.13471377 4:0.054652235 5:-0.00019219021 6:0.13478398 7:0.054270406 8:-0.00040572827 9:0.13461495 
0.15960227167634733 0.14973840307254035 0.18258482251289002 0.12843607556639061 0.12926599075929573 0.16724053911905912 1:0.096364179 2:0.003040626 3:0.10838605 4:0.096248721 5:0.0029342213 6:0.10857099 7:0.096071385 8:0.0029251721 9:0.10797708 
0.15960227167634733 0.14973840307254035 0.18258482251289002 0.12843607556639061 0.12926599075929573 0.16724053911905912 1:0.055013262 2:-0.00088856083 3:0.13393436 4:0.054800452 5:-0.00089761005 6:0.13390793 7:0.054728788 8:-0.0010304338 9:0.13384605 
0.15960227167634733 0.14973840307254035 0.18258482251289002 0.12843607556639061 0.12926599075929573 0.16724053911905912 1:0.043976213 2:0.017975641 3:0.13695964 4:0.04284955 5:0.018010382 6:0.13686156 7:0.042255637 8:0.018198957 9:0.13588581 
0.15960227167634733 0.14973840307254035 0.18258482251289002 0.12843607556639061 0.12926599075929573 0.16724053911905912 1:0.095878202 2:0.0032438118 3:0.10812116 4:0.096054815 5:0.0030491008 6:0.10802381 7:0.095708456 8:0.0033237975 9:0.10811211 
0.15960227167634733 0.14973840307254035 0.18258482251289002 0.12843607556639061 0.12926599075929573 0.16724053911905912 1:0.053979508 2:0.001762901 3:0.13454757 4:0.054041393 5:0.0018338374 6:0.13457399 7:0.053864054 8:0.0021175834 9:0.1344238 
0.15960227167634733 0.14973840307254035 0.18258482251289002 0.12843607556639061 0.12926599075929573 0.16724053911905912 1:0.053845226 2:0.0035377698 3:0.134017 4:0.053721452 5:0.003546819 6:0.13447809 7:0.054032344 8:0.0037777267 9:0.13477088 
0.15960227167634733 0.14973840307254035 0.18258482251289002 0.12843607556639061 0.12926599075929573 0.16724053911905912 1:0.055154329 2:0.002390094 3:0.136492 4:0.055751154 5:0.0024512528 6:0.13563463 7:0.05563716 8:0.0021146688 9:0.13507005 
0.15960227167634733 0.14973840307254035 0.18258482251289002 0.12843607556639061 0.12926599075929573 0.16724053911905912 1:0.096957511 2:0.0031532429 3:0.10758147 4:0.096682816 5:0.0033494111 6:0.10767955 7:0.097037502 8:0.0033410905 9:0.10771575 
0.15960227167634733 0.14973840307254035 0.18258482251289002 0.12843607556639061 0.12926599075929573 0.16724053911905912 1:0.054855089 2:0.00064326945 3:0.13419395 4:0.054810573 5:0.00075872337 6:0.13444223 7:0.054659652 8:0.00066136788 9:0.13406945 
0 0.14973840307254035 0 0.12843607556639061 0 0 1:0.055077578 2:-0.0015484537 3:0.13400659 4:0.055068529 5:-0.0015658236 6:0.13407753 7:0.054864768 8:-0.0013084967 9:0.13393566 
0.15960227167634733 0 0 0 0 0 1:0.069407685 2:-0.006429568 3:0.12692119 4:0.069593347 5:-0.0070491691 6:0.12690309 7:0.069381267 8:-0.0074219501 9:0.12636202 
0 0.14973840307254035 0 0.12843607556639061 0 0 1:0.054659286 2:-0.0015368526 3:0.13425356 4:0.054960399 5:-0.0013504623 6:0.13431545 7:0.054792109 8:-0.0014123495 9:0.13424377 
0.15960227167634733 0.14973840307254035 0.18258482251289002 0.12843607556639061 0.12926599075929573 0.16724053911905912 1:0.095570641 2:0.0028413677 3:0.10848357 4:0.095517805 5:0.0033024547 6:0.10853713 7:0.09557969 8:0.0031779516 9:0.10872353 
0.15960227167634733 0.14973840307254035 0.18258482251289002 0.12843607556639061 0.12926599075929573 0.16724053911905912 1:0.043295453 2:0.017977098 3:0.13658831 4:0.043410908 5:0.017791436 6:0.13696869 7:0.043189049 8:0.018287992 9:0.13685397 
0 0.14973840307254035 0 0 0 0 1:0.055376993 2:-0.0014643731 3:0.1344928 4:0.055359624 5:-0.0013225002 6:0.13442113 7:0.055696934 8:-0.00099423695 9:0.13450112 
0 0.14973840307254035 0 0 0 0 1:0.054793105 2:-0.001442049 3:0.1339523 4:0.054944026 5:-0.0018141011 6:0.13414702 7:0.055192303 8:-0.00163676 9:0.13373045 
0.15960227167634733 0.14973840307254035 0.18258482251289002 0.12843607556639061 0.12926599075929573 0.16724053911905912 1:0.095964977 2:0.0035949735 3:0.10875785 4:0.095885723 5:0.00344478 6:0.10867786 7:0.095974026 8:0.0033828928 9:0.10866881 
0.15960227167634733 0.14973840307254035 0.18258482251289002 0.12843607556639061 0.12926599075929573 0.16724053911905912 1:0.054914372 2:0.0088974216 3:0.13383135 4:0.054922695 5:0.0095192084 6:0.13386827 7:0.054567284 8:0.0099908019 9:0.13378828 
0.15960227167634733 0.14973840307254035 0.18258482251289002 0.12843607556639061 0.12926599075929573 0.16724053911905912 1:0.054653775 2:0.00046726294 3:0.13404407 4:0.054653775 5:0.00032538999 6:0.13402598 7:0.054618305 8:0.00025445353 9:0.13399956 
0.15960227167634733 0.14973840307254035 0.18258482251289002 0.12843607556639061 0.12926599075929573 0.16724053911905912 1:0.043503043 2:0.020273062 3:0.13573761 4:0.044123374 5:0.019995452 6:0.1357271 7:0.045045547 8:0.020393922 9:0.13547883 
0.15960227167634733 0.14973840307254035 0.18258482251289002 0.12843607556639061 0.12926599075929573 0.16724053911905912 1:0.037751057 2:0.021217707 3:0.13774393 4:0.037698218 5:0.021723312 6:0.13792127 7:0.037449941 8:0.02175878 9:0.13782391 
0.15960227167634733 0.14973840307254035 0.18258482251289002 0.12843607556639061 0.12926599075929573 0.16724053911905912 1:0.094949913 2:0.0045308435 3:0.10941871 4:0.09478162 5:0.004583682 6:0.10953416 7:0.094710678 8:0.0044508579 9:0.10944513 
0.15960227167634733 0.14973840307254035 0.18258482251289002 0.12843607556639061 0.12926599075929573 0.16724053911905912 1:0.053387938 2:0.0092870414 3:0.13562025 4:0.056672025 5:0.0066029968 6:0.13738535 7:0.05446 8:0.0068537658 9:0.13667672 
0.15960227167634733 0.14973840307254035 0.18258482251289002 0.12843607556639061 0.12926599075929573 0.16724053911905912 1:0.099215143 2:0.021487878 3:0.10283899 4:0.099576695 5:0.02155268 6:0.10323891 7:0.099736662 8:0.021455325 9:0.10306157 
0.15960227167634733 0.14973840307254035 0.18258482251289002 0.12843607556639061 0.12926599075929573 0.16724053911905912 1:0.095610299 2:0.0034795196 3:0.10878426 4:0.095681233 5:0.0032221929 6:0.10873143 7:0.095477473 8:0.0032221929 9:0.10866122 
0.15960227167634733 0.14973840307254035 0.18258482251289002 0.12843607556639061 0.12926599075929573 0.16724053911905912 1:0.054139478 2:0.0015138947 3:0.1346366 4:0.053953087 5:0.0015938805 6:0.13466303 7:0.053935718 8:0.0019840311 9:0.13469849 
0.15960227167634733 0.14973840307254035 0.18258482251289002 0.12843607556639061 0.12926599075929573 0.16724053911905912 1:0.045751081 2:0.018394397 3:0.13571825 4:0.045519443 5:0.01874835 6:0.13550471 7:0.045004062 8:0.018943062 9:0.13495532 
0.15960227167634733 0.14973840307254035 0.18258482251289002 0.12843607556639061 0.12926599075929573 0.16724053911905912 1:0.095486051 2:0.0031697125 3:0.10857736 4:0.09583168 5:0.0031697125 6:0.10863926 7:0.095769795 8:0.0032142299 9:0.10864831 
0.15960227167634733 0.14973840307254035 0.18258482251289002 0.12843607556639061 0.12926599075929573 0.16724053911905912 1:0.094656787 2:0.0045619412 3:0.10886467 4:0.094772245 5:0.004295565 6:0.10913032 7:0.094683205 8:0.0045083743 9:0.10924577 
0.15960227167634733 0.14973840307254035 0.18258482251289002 0.12843607556639061 0.12926599075929573 0.16724053911905912 1:0.09688595 2:0.0026868838 3:0.10824691 4:0.096850483 5:0.0026868838 6:0.10837069 7:0.096620304 8:0.002439335 9:0.10812241 
0.15960227167634733 0.14973840307254035 0.18258482251289002 0.12843607556639061 0.12926599075929573 0.16724053911905912 1:0.095548452 2:0.003258254 3:0.10885276 4:0.095415633 5:0.0033556094 6:0.10882634 7:0.0954511 8:0.0032763524 9:0.10886181 
0 0.14973840307254035 0 0 0 0 1:0.054792109 2:-0.0014206701 3:0.13433354 4:0.055075853 5:-0.0015006557 6:0.13459015 7:0.054853994 8:-0.0016515779 9:0.13412905 
0.15960227167634733 0.14973840307254035 0.18258482251289002 0.12843607556639061 0.12926599075929573 0.16724053911905912 1:0.073789434 2:0.0029082369 3:0.10882054 4:0.075303213 5:0.0078026645 6:0.10831263 7:0.072845585 8:0.015346164 9:0.11449918 
0.15960227167634733 0.14973840307254035 0.18258482251289002 0.12843607556639061 0.12926599075929573 0.16724053911905912 1:0.095992125 2:0.0024293455 3:0.10805925 4:0.09592119 5:0.0023667296 6:0.10819207 7:0.096036641 8:0.0027659295 9:0.10831512 
0.15960227167634733 0.14973840307254035 0.18258482251289002 0.12843607556639061 0.12926599075929573 0.16724053911905912 1:0.095379617 2:0.0023826606 3:0.10876053 4:0.095911638 5:0.0022226893 6:0.10888503 7:0.095929736 8:0.0023290939 9:0.10869864 
0.15960227167634733 0.14973840307254035 0.18258482251289002 0.12843607556639061 0.12926599075929573 0.16724053911905912 1:0.09685111 2:0.0033229921 3:0.10772407 4:0.096824692 5:0.0032346859 6:0.1077067 7:0.096780898 8:0.0035093824 9:0.10765386 
0.15960227167634733 0.14973840307254035 0.18258482251289002 0.12843607556639061 0.12926599075929573 0.16724053911905912 1:0.054091164 2:0.0078549529 3:0.13459835 4:0.05438396 5:0.0080594414 6:0.13469644 7:0.054402059 8:0.0083877052 9:0.13425272 
0.15960227167634733 0.14973840307254035 0.18258482251289002 0.12843607556639061 0.12926599075929573 0.16724053911905912 1:0.095990604 2:0.0034631952 3:0.10820221 4:0.095546886 5:0.0034450968 6:0.10845049 7:0.095537837 8:0.0035258111 9:0.10868972 
0.15960227167634733 0 0 0 0 0 1:0.069873873 2:-0.0062779175 3:0.12640331 4:0.069385639 5:-0.0058606193 6:0.12742139 7:0.069394688 8:-0.0056206623 9:0.1274735 
0.15960227167634733 0.14973840307254035 0.18258482251289002 0.12843607556639061 0.12926599075929573 0.16724053911905912 1:0.052802921 2:0.0091478851 3:0.13487365 4:0.052279946 5:0.0089169769 6:0.13426164 7:0.052350883 8:0.0085887139 9:0.13388885 
0.15960227167634733 0.14973840307254035 0.18258482251289002 0.12843607556639061 0.12926599075929573 0.16724053911905912 1:0.055420575 2:0.0032098454 3:0.13385671 4:0.055305121 5:0.0032279439 6:0.13351034 7:0.055367006 8:0.00311249 9:0.13348393 
0.15960227167634733 0.14973840307254035 0.18258482251289002 0.12843607556639061 0.12926599075929573 0.16724053911905912 1:0.095214009 2:0.0036956954 3:0.10814215 4:0.094796709 5:0.0040141808 6:0.10814288 7:0.094822404 8:0.0035530937 9:0.10815266 
0.15960227167634733 0.14973840307254035 0.18258482251289002 0.12843607556639061 0.12926599075929573 0.16724053911905912 1:0.054271571 2:0.0038186012 3:0.13388346 4:0.054174216 5:0.0037038759 6:0.13405174 7:0.054200637 8:0.0034910664 9:0.13401628 
0 0.14973840307254035 0 0.12843607556639061 0 0 1:0.054703803 2:-0.0014832859 3:0.1341562 4:0.054881142 5:-0.0015806415 6:0.13403169 7:0.05515584 8:-0.0013414131 9:0.13399623 
0.15960227167634733 0.14973840307254035 0.18258482251289002 0.12843607556639061 0.12926599075929573 0.16724053911905912 1:0.055875524 2:0.0028906312 3:0.13415533 4:0.055733652 5:0.0030679723 6:0.13435004 7:0.0560174 8:0.0032717326 9:0.13415533 
0.15960227167634733 0.14973840307254035 0.18258482251289002 0.12843607556639061 0.12926599075929573 0.16724053911905912 1:0.054099487 2:0.008414124 3:0.13399539 4:0.053948562 5:0.0086005141 6:0.13437649 7:0.053797641 8:0.0086005141 9:0.13387089 
0.15960227167634733 0.14973840307254035 0.18258482251289002 0.12843607556639061 0.12926599075929573 0.16724053911905912 1:0.096062336 2:0.002827088 3:0.10819967 4:0.096080435 5:0.0028451865 6:0.10819062 7:0.096638873 8:0.0030225275 9:0.10823441 
0.15960227167634733 0.14973840307254035 0.18258482251289002 0.12843607556639061 0.12926599075929573 0.16724053911905912 1:0.037371776 2:0.021625748 3:0.13797654 4:0.037345358 5:0.021226548 6:0.13792297 7:0.037460812 8:0.020907333 9:0.13827765 
0.15960227167634733 0.14973840307254035 0.18258482251289002 0.12843607556639061 0.12926599075929573 0.16724053911905912 1:0.037582097 2:0.021256704 3:0.13764262 4:0.037218366 5:0.021265753 6:0.13781922 7:0.037369288 8:0.021230286 9:0.13789922 
0.15960227167634733 0.14973840307254035 0.18258482251289002 0.12843607556639061 0.12926599075929573 0.16724053911905912 1:0.053468943 2:0.0080270279 3:0.1343513 4:0.053868144 5:0.0078142181 6:0.1346441 7:0.05353988 8:0.0082398367 9:0.13457316 
0.15960227167634733 0.14973840307254035 0.18258482251289002 0.12843607556639061 0.12926599075929573 0.16724053911905912 1:0.053149469 2:0.002592397 3:0.13134622 4:0.053602236 5:0.0028316253 6:0.13094701 7:0.053664124 8:0.0029282523 9:0.13061803 
0 0.14973840307254035 0 0.096327056674792966 0 0 1:0.054808772 2:-0.0016424429 3:0.13382795 4:0.054897078 5:-0.0015360382 6:0.1338008 7:0.054844239 8:-0.0020061745 9:0.13398719 
0.15960227167634733 0.14973840307254035 0.18258482251289002 0.12843607556639061 0.12926599075929573 0.16724053911905912 1:0.096399072 2:0.0040399488 3:0.10788258 4:0.096496425 5:0.0039516424 6:0.107909 7:0.096558317 8:0.0037214631 9:0.10811276 
0.15960227167634733 0.14973840307254035 0.18258482251289002 0.12843607556639061 0.12926599075929573 0.16724053911905912 1:0.054582602 2:0.00033124015 3:0.1341564 4:0.055008222 5:0.00036670837 6:0.13420019 7:0.054830879 8:0.00055309872 9:0.13427186 
0.15960227167634733 0.14973840307254035 0.18258482251289002 0.12843607556639061 0.12926599075929573 0.16724053911905912 1:0.038070998 2:0.021296236 3:0.13748806 4:0.038230242 5:0.021004169 6:0.13734619 7:0.038584194 8:0.021031317 9:0.13773561 
0.15960227167634733 0.14973840307254035 0.18258482251289002 0.12843607556639061 0.12926599075929573 0.16724053911905912 1:0.095946305 2:0.0030030493 3:0.10845986 4:0.095981772 5:0.0031185032 6:0.10820253 7:0.095759913 8:0.0029849509 9:0.10833535 
0.15960227167634733 0 0 0 0 0 1:0.069654196 2:-0.0062268423 3:0.12710113 4:0.069298788 5:-0.0065551056 6:0.12718798 7:0.069138814 8:-0.0065196372 9:0.12688469 
0.15960227167634733 0.14973840307254035 0.18258482251289002 0.12843607556639061 0.12926599075929573 0.16724053911905912 1:0.054338787 2:0.0081561948 3:0.13428881 4:0.054799873 5:0.0080943081 6:0.13442235 7:0.054480659 8:0.0082897474 9:0.13431668 
0.15960227167634733 0.14973840307254035 0.18258482251289002 0.12843607556639061 0.12926599075929573 0.16724053911905912 1:0.053480684 2:0.0081811568 3:0.13487409 4:0.053711592 5:0.0078793126 6:0.13484766 7:0.053844415 8:0.0079140526 9:0.13456392 
0.15960227167634733 0.14973840307254035 0.18258482251289002 0.12843607556639061 0.12926599075929573 0.16724053911905912 1:0.054449446 2:0.0023229524 3:0.13197639 4:0.053016259 5:-0.00020434118 6:0.13127315 7:0.052633397 8:-0.0015340354 9:0.12994055 
0.15960227167634733 0.14973840307254035 0.18258482251289002 0.12843607556639061 0.12926599075929573 0.16724053911905912 1:0.095672229 2:0.0031163811 3:0.10879919 4:0.095539403 5:0.0030190255 6:0.10879087 7:0.095477518 8:0.0030544937 9:0.10882634 
0.15960227167634733 0.14973840307254035 0.18258482251289002 0.12843607556639061 0.12926599075929573 0.16724053911905912 1:0.053407058 2:0.0079998802 3:0.1343408 4:0.053460623 5:0.0079644122 6:0.1344472 7:0.054001697 8:0.0079825107 9:0.13452719 
0.15960227167634733 0 0 0 0 0 1:0.069820308 2:-0.0067661518 3:0.1273725 4:0.069979545 5:-0.0061208604 6:0.12732652 7:0.069713899 8:-0.0061577861 9:0.12695375 
0.15960227167634733 0.14973840307254035 0.18258482251289002 0.12843607556639061 0.12926599075929573 0.16724053911905912 1:0.09428474 2:0.0055369532 3:0.10976115 4:0.093965522 5:0.0052705771 6:0.10955667 7:0.093939104 8:0.0054924356 9:0.10989398 
0.15960227167634733 0.14973840307254035 0.18258482251289002 0.12843607556639061 0.12926599075929573 0.16724053911905912 1:0.094763195 2:0.0050132501 3:0.10920125 4:0.095011472 5:0.0052177391 6:0.10947595 7:0.095055989 8:0.0055014848 9:0.10963592 
0 0.14973840307254035 0 0 0 0 1:0.05515659 2:-0.0016077034 3:0.13438639 4:0.055431288 5:-0.0011292465 6:0.13438639 7:0.055218479 8:-0.0014658304 9:0.13428903 
0.15960227167634733 0.14973840307254035 0.18258482251289002 0.12843607556639061 0.12926599075929573 0.16724053911905912 1:0.052909771 2:0.0082655275 3:0.13448339 4:0.05295429 5:0.0082474291 6:0.13430533 7:0.053193518 8:0.008061039 9:0.13430533 
0.15960227167634733 0.14973840307254035 0.18258482251289002 0.12843607556639061 0.12926599075929573 0.16724053911905912 1:0.055846191 2:0.0031924756 3:0.13372388 4:0.055793355 5:0.0032015248 6:0.13377671 7:0.055926178 8:0.0032105741 9:0.13392764 
0 0.14973840307254035 0 0.12843607556639061 0 0 1:0.055474141 2:-0.001258423 3:0.13404309 4:0.055163975 5:-0.001400296 6:0.13414045 7:0.055190393 8:-0.0011610675 9:0.13402573 
0.15960227167634733 0.14973840307254035 0.18258482251289002 0.12843607556639061 0.12926599075929573 0.16724053911905912 1:0.05530713 2:0.00043118875 3:0.1340499 4:0.055147156 5:0.00024479836 6:0.13379258 7:0.055120008 8:-4.7996698e-05 9:0.13401443 
0.15960227167634733 0.14973840307254035 0.18258482251289002 0.12843607556639061 0.12926599075929573 0.16724053911905912 1:0.05481351 2:0.00047457031 3:0.13396783 4:0.054830879 5:0.00065191145 6:0.13355126 7:0.054848248 8:0.00055455602 9:0.13360409 
0.15960227167634733 0.14973840307254035 0.18258482251289002 0.12843607556639061 0.12926599075929573 0.16724053911905912 1:0.096066472 2:0.0026723472 3:0.10863376 4:0.095809139 5:0.0026195092 6:0.10843832 7:0.095862711 8:0.0024150202 9:0.10845642 
0.15960227167634733 0.14973840307254035 0.18258482251289002 0.12843607556639061 0.12926599075929573 0.16724053911905912 1:0.096026907 2:0.0034091761 3:0.10869352 4:0.095885039 5:0.0035600982 6:0.10844524 7:0.095707696 8:0.0032144652 9:0.10879992 
0.15960227167634733 0.14973840307254035 0.18258482251289002 0.12843607556639061 0.12926599075929573 0.16724053911905912 1:0.054740365 2:0.0005632838 3:0.13421964 4:0.054811302 5:0.00048329815 6:0.13398946 7:0.05463396 8:0.0005897028 9:0.13423774 
0.15960227167634733 0.14973840307254035 0.18258482251289002 0.12843607556639061 0.12926599075929573 0.16724053911905912 1:0.095593006 2:0.0032695022 3:0.10812043 4:0.095814858 5:0.0028522039 6:0.10849248 7:0.095903168 8:0.0031359499 9:0.10860721 
0.15960227167634733 0.14973840307254035 0.18258482251289002 0.12843607556639061 0.12926599075929573 0.16724053911905912 1:0.095868574 2:0.0031358142 3:0.10823464 4:0.095894999 5:0.0028611174 6:0.10813728 7:0.09588595 8:0.0028875364 9:0.10810255 
0.15960227167634733 0.14973840307254035 0.18258482251289002 0.12843607556639061 0.12926599075929573 0.16724053911905912 1:0.046330538 2:0.020277127 3:0.13636572 4:0.046550937 5:0.02024998 6:0.1360722 7:0.046408335 8:0.02006359 9:0.13563681 
0 0.14973840307254035 0 0.12843607556639061 0 0 1:0.054873088 2:-0.0013975316 3:0.13432581 4:0.054766687 5:-0.0014149014 6:0.13429035 7:0.055024013 8:-0.0013258665 9:0.13411228 
0.15960227167634733 0.14973840307254035 0.18258482251289002 0.12843607556639061 0.12926599075929573 0.16724053911905912 1:0.046166922 2:0.019192796 3:0.13587137 4:0.045998628 5:0.019006406 6:0.13573927 7:0.045537542 8:0.019219216 9:0.13600491 
0.15960227167634733 0.14973840307254035 0.18258482251289002 0.12843607556639061 0.12926599075929573 0.16724053911905912 1:0.053809444 2:0.0048210298 3:0.12753279 4:0.053720408 5:0.0047855618 6:0.12769277 7:0.053729457 8:0.0048036602 9:0.12781727 
0.15960227167634733 0.14973840307254035 0.18258482251289002 0.12843607556639061 0.12926599075929573 0.16724053911905912 1:0.037512204 2:0.021682234 3:0.1377022 4:0.037529573 5:0.021424906 6:0.13785312 7:0.037706915 8:0.021486794 9:0.13832325 
0.15960227167634733 0.14973840307254035 0.18258482251289002 0.12843607556639061 0.12926599075929573 0.16724053911905912 1:0.054641863 2:0.0037958252 3:0.13532726 4:0.054828251 5:0.0036358539 6:0.134999 7:0.054385263 8:0.0036977411 9:0.1349809 
0.15960227167634733 0.14973840307254035 0.18258482251289002 0.12843607556639061 0.12926599075929573 0.16724053911905912 1:0.054377976 2:0.0037219744 3:0.1339001 4:0.054590786 5:0.0039438329 6:0.13396198 7:0.054467012 8:0.003749122 9:0.13401482 
0.15960227167634733 0.14973840307254035 0.18258482251289002 0.12843607556639061 0.12926599075929573 0.16724053911905912 1:0.095813054 2:0.0034724026 3:0.10912692 4:0.0953165 5:0.0034459836 6:0.10888769 7:0.095130108 8:0.003543339 9:0.10891411 
0 0.14973840307254035 0 0.12843607556639061 0 0 1:0.054721441 2:-0.0011394761 3:0.13413038 4:0.054801424 5:-0.0015032076 6:0.13413943 7:0.054801424 8:-0.0016714996 9:0.13403302 
0.15960227167634733 0.14973840307254035 0.18258482251289002 0.12843607556639061 0.12926599075929573 0.16724053911905912 1:0.094692902 2:0.00034642367 3:0.10494161 4:0.094515559 5:0.00016076198 6:0.10493256 7:0.094347266 8:-8.751559e-05 9:0.10439222 
0.15960227167634733 0.14973840307254035 0.18258482251289002 0.12843607556639061 0.12926599075929573 0.16724053911905912 1:0.053730501 2:0.0018776262 3:0.13404343 4:0.054040667 5:0.0019130944 6:0.13422908 7:0.054182539 8:0.002020228 9:0.13460041 
0.15960227167634733 0.14973840307254035 0.18258482251289002 0.12843607556639061 0.12926599075929573 0.16724053911905912 1:0.054828122 2:-0.00028341102 3:0.13398953 4:0.0548017 5:-0.00049622043 6:0.13434421 7:0.054544374 8:-0.00024794281 9:0.13418497 
0.15960227167634733 0.14973840307254035 0.18258482251289002 0.12843607556639061 0.12926599075929573 0.16724053911905912 1:0.095458584 2:0.0033130018 3:0.10866185 4:0.095201258 5:0.0033922588 6:0.10866258 7:0.095537837 8:0.0033213223 9:0.108609 
0.15960227167634733 0.14973840307254035 0.18258482251289002 0.12843607556639061 0.12926599075929573 0.16724053911905912 1:0.054446842 2:-4.9365298e-06 3:0.13399633 4:0.054633234 5:-0.0002003761 6:0.13411179 7:0.054987915 8:-0.00031583002 9:0.13384541 
0.15960227167634733 0.14973840307254035 0.18258482251289002 0.12843607556639061 0.12926599075929573 0.16724053911905912 1:0.094691559 2:-0.00039185143 3:0.10759072 4:0.094859123 5:-0.00035565457 6:0.10749264 7:0.09477009 8:3.5224572e-05 9:0.10738551 
0.15960227167634733 0.14973840307254035 0.18258482251289002 0.12843607556639061 0.12926599075929573 0.16724053911905912 1:0.071264278 2:0.023753835 3:0.13569464 4:0.067683447 5:0.024449899 6:0.13796781 7:0.064795332 8:0.023859322 9:0.13772349 
0.15960227167634733 0.14973840307254035 0.18258482251289002 0.12843607556639061 0.12926599075929573 0.16724053911905912 1:0.054866346 2:-0.00013743881 3:0.1344832 4:0.054919915 5:3.9902346e-05 6:0.13443037 7:0.05499085 8:0.00036816564 9:0.1346696 
0.15960227167634733 0.14973840307254035 0.18258482251289002 0.12843607556639061 0.12926599075929573 0.16724053911905912 1:0.096287601 2:0.0045460285 3:0.10977166 4:0.096048373 5:0.0045377081 6:0.10973546 7:0.095853662 8:0.0046448414 9:0.10984186 
0.15960227167634733 0.14973840307254035 0.18258482251289002 0.12843607556639061 0.12926599075929573 0.16724053911905912 1:0.054844031 2:-0.0010289725 3:0.13400689 4:0.055012324 5:-0.00094898679 6:0.13406951 7:0.054834982 8:-0.00080711392 9:0.13391859 
0.15960227167634733 0.14973840307254035 0.18258482251289002 0.12843607556639061 0.12926599075929573 0.16724053911905912 1:0.053402967 2:0.0084982218 3:0.13443285 4:0.053686711 5:0.0082680425 6:0.13452188 7:0.053615774 8:0.0083480277 9:0.13449546 
0 0.14973840307254035 0.18258482251289002 0.12843607556639061 0.12926599075929573 0.16724053911905912 1:0.054350816 2:0.0028421651 3:0.13736009 4:0.05467762 5:0.0027983761 6:0.1370235 7:0.054286742 8:0.0020716418 9:0.13740534 
0 0 0.18258482251289002 0 0 0.16724053911905912 1:0.061053212 2:-0.00035429984 3:0.13201435 4:0.061598959 5:0.00041591775 6:0.13400597 7:0.062309053 8:0.0011585647 9:0.13528969 
0.15960227167634733 0.14973840307254035 0.18258482251289002 0.12843607556639061 0.12926599075929573 0.16724053911905912 1:0.027345327 2:0.0095448974 3:0.11121695 4:0.024226191 5:0.017837906 6:0.10948847 7:0.01634672 8:0.024165166 9:0.11538889 
0.15960227167634733 0.14973840307254035 0.18258482251289002 0.12843607556639061 0.12926599075929573 0.16724053911905912 1:0.096099338 2:0.0030023974 3:0.1080495 4:0.096312148 5:0.0028605245 6:0.10818232 7:0.096330247 8:0.0029759784 9:0.10821852 
0.15960227167634733 0.14973840307254035 0.18258482251289002 0.12843607556639061 0.12926599075929573 0.16724053911905912 1:0.043990057 2:0.022437775 3:0.13682943 4:0.044238334 5:0.022101191 6:0.13610196 7:0.044442821 8:0.021620549 9:0.13604913 
0.15960227167634733 0.14973840307254035 0.18258482251289002 0.12843607556639061 0.12926599075929573 0.16724053911905912 1:0.094114987 2:0.0044085275 3:0.10963519 4:0.094053102 5:0.0052061982 6:0.10911222 7:0.093884079 8:0.0053126031 9:0.10937786 
0.15960227167634733 0.14973840307254035 0.18258482251289002 0.12843607556639061 0.12926599075929573 0.16724053911905912 1:0.095174624 2:0.0033569487 3:0.10856701 4:0.095245566 5:0.0032950615 6:0.10864701 7:0.095431228 8:0.0033833677 9:0.10870889 
0.15960227167634733 0.14973840307254035 0.18258482251289002 0.12843607556639061 0.12926599075929573 0.16724053911905912 1:0.044451777 2:-0.002687188 3:0.13504438 4:0.045435109 5:-0.0036159199 6:0.13292387 7:0.047200928 8:-0.0038736698 9:0.13414643 
0.15960227167634733 0.14973840307254035 0.18258482251289002 0.12843607556639061 0.12926599075929573 0.16724053911905912 1:0.054866346 2:-1.2935668e-05 3:0.13427945 4:0.054990123 5:0.00028817996 6:0.13405758 7:0.054618069 8:0.00019082448 9:0.13403044 
0.15960227167634733 0.14973840307254035 0.18258482251289002 0.12843607556639061 0.12926599075929573 0.16724053911905912 1:0.046503611 2:0.007438293 3:0.1367527 4:0.046388886 5:0.0073492577 6:0.13645991 7:0.046575275 8:0.0076073135 9:0.13661009 
0 0.14973840307254035 0 0.12843607556639061 0 0 1:0.055111324 2:-0.0011814417 3:0.13448374 4:0.054508362 5:-0.0012342797 6:0.13422641 7:0.054712122 8:-0.0013497337 9:0.13421809 
0.15960227167634733 0.14973840307254035 0.18258482251289002 0.12843607556639061 0.12926599075929573 0.16724053911905912 1:0.054799515 2:-0.00079733606 3:0.13451251 4:0.054710482 5:-0.0010101455 6:0.13377671 7:0.054684061 8:-0.0011172788 9:0.13395405 
0.15960227167634733 0.14973840307254035 0.18258482251289002 0.12843607556639061 0.12926599075929573 0.16724053911905912 1:0.054750896 2:0.00027081017 3:0.13408329 4:0.054830879 5:0.00035079582 6:0.1341097 7:0.054679958 8:0.00035079582 9:0.13403876 
0.15960227167634733 0.14973840307254035 0.18258482251289002 0.12843607556639061 0.12926599075929573 0.16724053911905912 1:0.054804585 2:-0.0013072118 3:0.13362135 4:0.054582726 5:-0.001200807 6:0.134136 7:0.054431801 8:-0.001147969 9:0.13390583 
0.15960227167634733 0.14973840307254035 0.18258482251289002 0.12843607556639061 0.12926599075929573 0.16724053911905912 1:0.095211143 2:0.0031963668 3:0.1092791 4:0.095060948 5:0.0031254304 6:0.10891538 7:0.09523829 8:0.0033646587 9:0.10896894 
0.15960227167634733 0.14973840307254035 0.18258482251289002 0.12843607556639061 0.12926599075929573 0.16724053911905912 1:0.052345476 2:0.010446366 3:0.13508293 4:0.052476843 5:0.01046665 6:0.13622478 7:0.052138074 8:0.010309593 9:0.13656895 
0.15960227167634733 0.14973840307254035 0.18258482251289002 0.12843607556639061 0.12926599075929573 0.16724053911905912 1:0.056512074 2:-0.00056466536 3:0.13326942 4:0.05735499 5:-0.00053241729 6:0.13296071 7:0.056292401 8:-0.00036121079 9:0.13187097 
0.15960227167634733 0.14973840307254035 0.18258482251289002 0.12843607556639061 0.12926599075929573 0.16724053911905912 1:0.095750173 2:0.0055684728 3:0.10845101 4:0.096077703 5:0.005560152 6:0.10857551 7:0.095412126 8:0.0054001807 9:0.10883285 
0.15960227167634733 0.14973840307254035 0.18258482251289002 0.12843607556639061 0.12926599075929573 0.16724053911905912 1:0.094462076 2:0.0051287042 3:0.1095136 4:0.094346625 5:0.0052622567 6:0.10990302 7:0.094594902 8:0.0051996406 9:0.10984186 
0 0.14973840307254035 0.18258482251289002 0.12843607556639061 0 0 1:0.055164913 2:-0.0014122637 3:0.13380985 4:0.055076607 5:-0.0012077749 6:0.13410265 7:0.055297736 8:-0.0010742226 9:0.1342 
0 0.14973840307254035 0 0 0 0 1:0.055634111 2:-0.001524799 3:0.13409666 4:0.055243962 5:-0.0015957356 6:0.13392837 7:0.055083988 8:-0.0014802816 9:0.13409666 
0.15960227167634733 0.14973840307254035 0.18258482251289002 0.12843607556639061 0.12926599075929573 0.16724053911905912 1:0.095362015 2:0.0033119564 3:0.10861597 4:0.095362015 5:0.0030191612 6:0.10862502 7:0.095317499 8:0.0031965025 9:0.10888162 
0.15960227167634733 0.14973840307254035 0.18258482251289002 0.12843607556639061 0.12926599075929573 0.16724053911905912 1:0.037083499 2:0.021335569 3:0.13798912 4:0.037420812 5:0.021184646 6:0.13805101 7:0.037340825 8:0.021272952 9:0.13829023 
0.15960227167634733 0.14973840307254035 0.18258482251289002 0.12843607556639061 0.12926599075929573 0.16724053911905912 1:0.095476743 2:0.0032833515 3:0.10881828 4:0.09509564 5:0.0028660532 6:0.1086945 7:0.095033755 8:0.0029369896 9:0.10883638 
0 0.14973840307254035 0.18258482251289002 0.12843607556639061 0.12926599075929573 0.16724053911905912 1:0.055666106 2:0.0046267419 3:0.13798556 4:0.055629909 5:0.0046900864 6:0.13786792 7:0.055132626 8:0.0049836102 9:0.13791785 
0.15960227167634733 0 0 0 0 0.16724053911905912 1:0.074478492 2:-0.0026966604 3:0.12476 4:0.073357958 5:-0.0017578452 6:0.12540062 7:0.074074189 8:-0.00088893222 9:0.12648714 
0 0.14973840307254035 0 0 0 0 1:0.05495208 2:-0.0013421417 3:0.13472443 4:0.054712852 5:-0.001262156 6:0.13455613 7:0.054925662 8:-0.0012531068 9:0.1341743 
0 0.14973840307254035 0 0 0 0 1:0.055581272 2:-0.0015866864 3:0.13387481 4:0.055581272 5:-0.0015067006 6:0.13377745 7:0.055465821 8:-0.0017368798 9:0.13387553 
0.15960227167634733 0.14973840307254035 0.18258482251289002 0.12843607556639061 0.12926599075929573 0.16724053911905912 1:0.054590786 2:0.0038555264 3:0.13428119 4:0.054396075 5:0.00378459 6:0.13442306 7:0.054387026 8:0.0036517664 9:0.13410385 
0.15960227167634733 0.14973840307254035 0.18258482251289002 0.12843607556639061 0.12926599075929573 0.16724053911905912 1:0.094343219 2:0.004074159 3:0.10965506 4:0.094352269 5:0.0040296417 6:0.1093087 7:0.094591496 8:0.0037806351 9:0.10948604 
0.15960227167634733 0.14973840307254035 0.18258482251289002 0.12843607556639061 0.12926599075929573 0.16724053911905912 1:0.096231509 2:0.0033508684 3:0.10779573 4:0.096248877 5:0.0035108397 6:0.10778741 7:0.096390753 8:0.0034315827 9:0.10798285 
0 0.14973840307254035 0 0 0 0 1:0.054483039 2:-0.0015633528 3:0.13401881 4:0.054501137 5:-0.0019270844 6:0.13427613 7:0.05421739 8:-0.0014395782 9:0.13448894 
0 0.14973840307254035 0.18258482251289002 0.12843607556639061 0.12926599075929573 0 1:0.054845675 2:-0.0012614273 3:0.13416453 4:0.054907563 5:-0.0013059449 6:0.13404074 7:0.055013968 8:-0.0013859305 9:0.1340136 
0.15960227167634733 0.14973840307254035 0.18258482251289002 0.12843607556639061 0.12926599075929573 0.16724053911905912 1:0.056748322 2:0.0041982087 3:0.13132769 4:0.056998784 5:0.003386388 6:0.13186657 7:0.056112808 8:0.0028959675 9:0.13486035 
0.15960227167634733 0.14973840307254035 0.18258482251289002 0.12843607556639061 0.12926599075929573 0.16724053911905912 1:0.095720836 2:0.0029032549 3:0.10852735 4:0.095836286 5:0.0026549774 6:0.10849189 7:0.095818918 8:0.0026904456 9:0.10884657 
0.15960227167634733 0.14973840307254035 0.18258482251289002 0.12843607556639061 0.12926599075929573 0.16724053911905912 1:0.054741847 2:0.0002519831 3:0.1339595 4:0.054635442 5:9.2740389e-05 6:0.13378216 7:0.054564504 8:7.4641959e-05 9:0.13394214 
0.15960227167634733 0.14973840307254035 0.18258482251289002 0.12843607556639061 0.12926599075929573 0.16724053911905912 1:0.095983075 2:0.0034990753 3:0.10876544 4:0.095814782 5:0.0034462373 6:0.10885448 7:0.095646496 8:0.0031089247 9:0.10879258 
0.15960227167634733 0.14973840307254035 0.18258482251289002 0.12843607556639061 0.12926599075929573 0.16724053911905912 1:0.09613248 2:0.0037024235 3:0.10852829 4:0.095751377 5:0.0034443681 6:0.10859923 7:0.09570686 8:0.003142524 9:0.10852829 
0.15960227167634733 0.14973840307254035 0.18258482251289002 0.12843607556639061 0.12926599075929573 0.16724053911905912 1:0.054617207 2:0.0033680206 3:0.13387367 4:0.054874534 5:0.0037755408 6:0.13403364 7:0.054777178 8:0.003837428 9:0.13414079 
0 0.14973840307254035 0 0 0 0 1:0.055023017 2:-0.0017141938 3:0.13404979 4:0.05473927 5:-0.0015013844 6:0.13416525 7:0.055146791 8:-0.0015194828 9:0.13427166 
0.15960227167634733 0.14973840307254035 0.18258482251289002 0.12843607556639061 0.12926599075929573 0.16724053911905912 1:0.056494754 2:0.012052294 3:0.1336848 4:0.056290997 5:0.011867361 6:0.13353607 7:0.056264576 8:0.011814523 9:0.13403408 
0 0.14973840307254035 0 0 0 0 1:0.055145877 2:-0.0014893308 3:0.13391859 4:0.055074939 5:-0.0016493022 6:0.13397143 7:0.055429624 8:-0.0018349639 9:0.13406879 
0.15960227167634733 0.14973840307254035 0.18258482251289002 0.12843607556639061 0.12926599075929573 0.16724053911905912 1:0.053295833 2:0.0092640671 3:0.13375531 4:0.052498163 5:0.0084573471 6:0.13443826 7:0.052658133 8:0.0085018644 9:0.1339598 
0.15960227167634733 0.14973840307254035 0.18258482251289002 0.12843607556639061 0.12926599075929573 0.16724053911905912 1:0.055731467 2:0.0030679723 3:0.13384766 4:0.055775983 5:0.0033698167 6:0.13394574 7:0.055766934 8:0.0031041692 9:0.13362652 
0.15960227167634733 0.14973840307254035 0.18258482251289002 0.12843607556639061 0.12926599075929573 0.16724053911905912 1:0.055652036 2:0.0066239289 3:0.13329319 4:0.055393254 5:0.0052073855 6:0.13579115 7:0.055792452 8:0.0051770179 9:0.1365186 
0.15960227167634733 0.14973840307254035 0.18258482251289002 0.12843607556639061 0.12926599075929573 0.16724053911905912 1:0.095236942 2:0.003623379 3:0.10899947 4:0.095440702 5:0.003570541 6:0.10912324 7:0.095316925 8:0.0034286681 9:0.10888402 
0.15960227167634733 0.14973840307254035 0.18258482251289002 0.12843607556639061 0.12926599075929573 0.16724053911905912 1:0.03754007 2:0.021191079 3:0.13778182 4:0.037424616 5:0.021368422 6:0.13795917 7:0.037415566 8:0.021075627 9:0.13808294 
0.15960227167634733 0.14973840307254035 0.18258482251289002 0.12843607556639061 0.12926599075929573 0.16724053911905912 1:0.095485542 2:0.0036380449 3:0.11158171 4:0.095405558 5:0.0035309116 6:0.11135153 7:0.095378411 8:0.0035309116 9:0.11136963 
0.15960227167634733 0.14973840307254035 0.18258482251289002 0.12843607556639061 0.12926599075929573 0.16724053911905912 1:0.05424661 2:0.0042275786 3:0.1349656 4:0.054326596 5:0.0043068358 6:0.13458377 7:0.054468468 8:0.0044041911 9:0.13458377 
0.15960227167634733 0.14973840307254035 0.18258482251289002 0.12843607556639061 0.12926599075929573 0.16724053911905912 1:0.096126345 2:0.0032568966 3:0.10812593 4:0.096099927 5:0.0032040586 6:0.10800216 7:0.096028985 8:0.0035768392 9:0.10814403 
0.15960227167634733 0.14973840307254035 0.18258482251289002 0.12843607556639061 0.12926599075929573 0.16724053911905912 1:0.047321766 2:0.021149683 3:0.13536752 4:0.046841851 5:0.020491699 6:0.1354656 7:0.047726371 8:0.019812397 9:0.13379787 
0.15960227167634733 0.14973840307254035 0.18258482251289002 0.12843607556639061 0.12926599075929573 0.16724053911905912 1:0.095588009 2:0.0027530615 3:0.10867068 4:0.096323798 5:0.0027621107 6:0.10848357 7:0.095782721 8:0.002682125 9:0.10860734 
0.15960227167634733 0.14973840307254035 0.18258482251289002 0.12843607556639061 0.12926599075929573 0.16724053911905912 1:0.054742082 2:-0.0001794858 3:0.1343452 4:0.055132231 5:-1.4160173e-06 6:0.13429163 7:0.055061293 8:2.5002983e-05 9:0.13426448 
0.15960227167634733 0.14973840307254035 0.18258482251289002 0.12843607556639061 0.12926599075929573 0.16724053911905912 1:0.045043174 2:0.019114267 3:0.13589091 4:0.045167677 5:0.019149736 6:0.13566073 7:0.045185046 8:0.018786005 9:0.13543814 
0.15960227167634733 0 0 0 0 0 1:0.070909125 2:-0.0081686627 3:0.12635005 4:0.07097174 5:-0.0073340666 6:0.12616293 7:0.070961961 8:-0.0062414147 9:0.12587013 
0.15960227167634733 0.14973840307254035 0.18258482251289002 0.12843607556639061 0.12926599075929573 0.16724053911905912 1:0.095945464 2:-0.00079156462 3:0.10630069 4:0.095955243 5:-0.00029865255 6:0.10678674 7:0.095522034 8:-0.00038987332 9:0.10694379 
0.15960227167634733 0.14973840307254035 0.18258482251289002 0.12843607556639061 0.12926599075929573 0.16724053911905912 1:0.037282744 2:0.021077083 3:0.13812674 4:0.037398198 5:0.021068034 6:0.13818862 7:0.037504602 8:0.02115707 9:0.13813505 
0.15960227167634733 0.14973840307254035 0.18258482251289002 0.12843607556639061 0.12926599075929573 0.16724053911905912 1:0.037308132 2:0.020751101 3:0.13790753 4:0.037237195 5:0.021088412 6:0.13779207 7:0.037104372 8:0.021461194 9:0.13727816 
0.15960227167634733 0.14973840307254035 0.18258482251289002 0.12843607556639061 0.12926599075929573 0.16724053911905912 1:0.093384765 2:0.0025607893 3:0.10590342 4:0.09418608 5:0.0015835915 6:0.10546729 7:0.094837929 8:0.00073089672 9:0.10497905 
0.15960227167634733 0.14973840307254035 0.18258482251289002 0.12843607556639061 0.12926599075929573 0.16724053911905912 1:0.095158254 2:0.0031165169 3:0.10865903 4:0.095486522 5:0.003320277 6:0.10866808 7:0.095477473 8:0.0033557452 9:0.1087126 
0.15960227167634733 0.14973840307254035 0.18258482251289002 0.12843607556639061 0.12926599075929573 0.16724053911905912 1:0.046797133 2:0.0070488708 3:0.13649611 4:0.046442452 5:0.0069945755 6:0.13643421 7:0.046690729 8:0.0071983356 9:0.13657609 
0.15960227167634733 0.14973840307254035 0.18258482251289002 0.12843607556639061 0.12926599075929573 0.16724053911905912 1:0.095592453 2:0.0031146886 3:0.10908224 4:0.095556985 5:0.0031146886 6:0.10844381 7:0.095477002 8:0.0032037234 9:0.10874493 
0 0.14973840307254035 0 0 0 0 1:0.054501137 2:-0.0017421512 3:0.13399705 4:0.054740365 5:-0.0018757035 6:0.13423702 7:0.054643009 8:-0.0016983624 9:0.13430795 
0 0.14973840307254035 0 0 0 0 1:0.054853288 2:-0.0017940937 3:0.13418264 4:0.055066098 5:-0.0018031429 6:0.13397887 7:0.054986841 8:-0.0015631858 9:0.13435093 
0.15960227167634733 0.14973840307254035 0 0.12843607556639061 0.12926599075929573 0 1:0.05450206 2:-0.0017515261 3:0.13350466 4:0.054422073 5:-0.0017341564 6:0.13380651 7:0.054413024 8:-0.0018850784 9:0.13393101 
0.15960227167634733 0.14973840307254035 0.18258482251289002 0.12843607556639061 0.12926599075929573 0.16724053911905912 1:0.051842127 2:0.0016061497 3:0.1286997 4:0.052268476 5:0.0013209467 6:0.12890493 7:0.053342301 8:0.0013375879 9:0.12871095 
0 0.14973840307254035 0 0.12843607556639061 0.12926599075929573 0 1:0.054401251 2:-0.0013753382 3:0.13416526 4:0.054392202 5:-0.0014289049 6:0.13443996 7:0.054543126 8:-0.0012779828 9:0.13428903 
0.15960227167634733 0.14973840307254035 0.18258482251289002 0.12843607556639061 0.12926599075929573 0.16724053911905912 1:0.044998234 2:0.018018278 3:0.13845732 4:0.045359779 5:0.018119277 6:0.13924449 7:0.045555217 8:0.017907925 9:0.13918946 
0 0.14973840307254035 0 0 0 0 1:0.054890191 2:-0.0016425287 3:0.13424377 4:0.055032066 5:-0.0015806415 6:0.13402192 7:0.054907563 8:-0.0015715923 9:0.13406717 
0.15960227167634733 0.14973840307254035 0.18258482251289002 0.12843607556639061 0.12926599075929573 0.16724053911905912 1:0.054139478 2:0.0038283788 3:0.13437096 4:0.053926669 5:0.0040321393 6:0.13466375 7:0.0542904 8:0.0041294945 9:0.13445095 
