svm_type nu_svc
kernel_type rbf
gamma 0.1111111111111111
nr_class 7
total_sv 10761
rho 97.224675399556929 -36.799291567546433 18.52725688288854 0.06639310311749369 1553.5133369316034 -304.76350634679164 -44.58849699552357 -48.394147232719369 -1.0012035264271251 -113.53924607698112 -56.130652102788318 1182.819968333715 0.029909191764049589 11.163425771050928 2111.0014453305116 0.02804300983269619 -6.7026453983355747 -812.90975405033021 -0.070629065731851209 -0.04232991409716217 -279.61550028811195
label 5 2 3 0 4 6 1
nr_sv 1558 1360 1687 1451 1226 1493 1986
SV
0 64.078295938392458 32.274309596996048 0.12760239250454927 -47779.519583726978 8513.0635595150052 1:-0.0045601221 2:0.12197995 3:0.05021925 4:-0.00056126746 5:0.11960777 6:0.045456743 7:0.0067842382 8:0.11790408 9:0.047564747 
0 64.078295938392458 32.274309596996048 0 -47779.519583726978 8513.0635595150052 1:0.021608816 2:0.13050843 3:0.013966065 4:0.0157006 5:0.13690988 6:0.015270677 7:0.013216475 8:0.13923722 9:0.010782341 
24.663472910384971 0 0 0 -47779.519583726978 0 1:0.083370127 2:0.19597996 3:-0.00021357344 4:0.084635244 5:0.19326755 6:-0.016990093 7:0.083323916 8:0.19346251 9:-0.023234652 
0 64.078295938392458 32.274309596996048 0.12760239250454927 -47779.519583726978 8513.0635595150052 1:-0.0073602965 2:0.12134907 3:0.017550078 4:-0.009904231 5:0.12464027 6:0.018983384 7:-0.014139142 8:0.12563132 9:0.018352385 
24.663472910384971 0 0 0.12760239250454927 -47779.519583726978 0 1:0.05501797 2:0.10220055 3:-0.021186553 4:0.051593486 5:0.098113026 6:-0.018330336 7:0.048996282 8:0.095098857 9:-0.020097581 
0 64.078295938392458 32.274309596996048 0 -47779.519583726978 8513.0635595150052 1:-0.028021654 2:0.15335247 3:-0.011534912 4:-0.014119262 5:0.15279893 6:-0.018094936 7:-0.009522047 8:0.14800904 9:-0.019353618 
0 64.078295938392458 0 0.12760239250454927 -47779.519583726978 8513.0635595150052 1:0.022015018 2:0.12492975 3:0.02831346 4:0.023706668 5:0.12843067 6:0.044269632 7:0.02388627 8:0.13450506 9:0.059336526 
24.663472910384971 0 0 0 -47779.519583726978 0 1:0.032531765 2:0.13329852 3:-0.0090267851 4:0.047907135 5:0.12782178 6:-0.012035474 7:0.055797843 8:0.12438425 9:-0.0089072074 
24.663472910384971 0 0 0.12760239250454927 -47779.519583726978 8513.0635595150052 1:0.051340219 2:0.10797515 3:-0.00021842181 4:0.048041746 5:0.10459146 6:-0.0046026204 7:0.042530916 8:0.096864883 9:-0.0039829258 
24.663472910384971 64.078295938392458 32.274309596996048 0 -47779.519583726978 8513.0635595150052 1:0.025884633 2:0.12963523 3:-0.011827511 4:0.026893874 5:0.1298723 6:-0.016867717 7:0.026977526 8:0.1326165 9:-0.022442062 
24.663472910384971 0 0 0.12760239250454927 -47779.519583726978 0 1:0.059807765 2:0.10126969 3:-0.0011260378 4:0.062838954 5:0.097593414 6:-0.0063327047 7:0.06541955 8:0.091605118 9:-0.011341014 
0 64.078295938392458 32.274309596996048 0 -47779.519583726978 8513.0635595150052 1:-0.023025449 2:0.14531621 3:0.0024927521 4:-0.017638723 5:0.15039759 6:0.00036147045 7:-0.01394583 8:0.15019103 9:-0.00096659381 
0 64.078295938392458 32.274309596996048 0 -47779.519583726978 8513.0635595150052 1:0.014894003 2:0.1260696 3:-0.0085047412 4:0.014305708 5:0.12634942 6:-0.0059546995 7:0.013754119 8:0.12658861 9:-0.0041082211 
24.663472910384971 0 0 0.12760239250454927 -47779.519583726978 0 1:0.065881875 2:0.10956163 3:-0.0081594251 4:0.068092214 5:0.11058479 6:-0.0092880714 7:0.072215845 8:0.1132074 9:-0.01019861 
24.663472910384971 0 0 0.12760239250454927 -47779.519583726978 8513.0635595150052 1:0.060871748 2:0.106905 3:-0.026833613 4:0.0610334 5:0.10534445 6:-0.035164909 7:0.06045948 8:0.10781448 9:-0.037467916 
24.663472910384971 64.078295938392458 32.274309596996048 0 -47779.519583726978 8513.0635595150052 1:0.018362229 2:0.13041935 3:-0.01698487 4:0.019635184 5:0.12394219 6:-0.016910897 7:0.021253984 8:0.12347878 9:-0.01504926 
24.663472910384971 0 0 0.12760239250454927 -47779.519583726978 0 1:0.047828059 2:0.11542633 3:-0.0017125338 4:0.051790314 5:0.1172973 6:-8.4335408e-05 7:0.054823237 8:0.12162672 9:-0.0025044477 
24.663472910384971 0 0 0.12760239250454927 -47779.519583726978 8513.0635595150052 1:0.04370583 2:0.092965695 3:0.038574572 4:0.045922496 5:0.089419688 6:0.033373277 7:0.049444231 8:0.088158773 9:0.040520923 
0 64.078295938392458 32.274309596996048 0.12760239250454927 -47779.519583726978 8513.0635595150052 1:0.013940368 2:0.085553213 3:0.028364135 4:0.011186602 5:0.086286054 6:0.024949441 7:0.012606481 8:0.088938225 9:0.023171003 
24.663472910384971 64.078295938392458 32.274309596996048 0.12760239250454927 -47779.519583726978 8513.0635595150052 1:0.023896964 2:0.095389345 3:0.00036255392 4:0.027662484 5:0.10015868 6:-0.0027667732 7:0.02976713 8:0.1071323 9:-0.0068788166 
24.663472910384971 0 0 0.12760239250454927 -47779.519583726978 0 1:0.059756201 2:0.091111294 3:0.018266427 4:0.058599469 5:0.090746022 6:0.015078242 7:0.059820212 8:0.094662671 9:0.011256265 
0 64.078295938392458 0 0.12760239250454927 -0 0 1:-0.021103662 2:0.046362537 3:0.15898947 4:0.023981157 5:0.087681769 6:0.13217319 7:0.060941998 8:0.12212131 9:0.097101736 
24.663472910384971 0 0 0.12760239250454927 -47779.519583726978 8513.0635595150052 1:0.05600659 2:0.067472298 3:0.020480926 4:0.061519218 5:0.078547659 6:0.027666339 7:0.07295674 8:0.093820729 9:0.030517967 
24.663472910384971 0 0 0.12760239250454927 -0 0 1:0.013088768 2:0.039078153 3:0.095561506 4:0.01646182 5:0.034172638 6:0.098303128 7:0.020617496 8:0.030857944 9:0.099378894 
24.663472910384971 64.078295938392458 32.274309596996048 0.12760239250454927 -47779.519583726978 8513.0635595150052 1:0.013022729 2:0.10973522 3:0.0014476286 4:0.012005432 5:0.11072974 6:-0.0036027575 7:0.0086246499 8:0.11171295 9:-0.01030137 
0 0 0 0.12760239250454927 -6467.9561181193894 8513.0635595150052 1:0.081852762 2:0.26705405 3:0.16985766 4:0.07406014 5:0.19754646 6:0.11617091 7:0.013647489 8:0.11513176 9:0.1211898 
0 0 0 0.12760239250454927 -47779.519583726978 0 1:0.061280028 2:0.11147817 3:0.077801922 4:0.063284349 5:0.11439773 6:0.076473967 7:0.067887217 8:0.11933291 9:0.075349068 
24.663472910384971 0 0 0.12760239250454927 -47779.519583726978 0 1:0.057735886 2:0.10553682 3:0.0051379455 4:0.055988845 5:0.11191959 6:0.0072803571 7:0.0538494 8:0.11417765 9:0.010524781 
24.663472910384971 0 0 0.12760239250454927 -47779.519583726978 0 1:0.060617735 2:0.10200059 3:-0.010825147 4:0.059602346 5:0.10608791 6:-0.014474622 7:0.053043557 8:0.10531698 9:-0.01171375 
0 64.078295938392458 32.274309596996048 0.12760239250454927 -47779.519583726978 8513.0635595150052 1:0.018457115 2:0.11765213 3:0.030116271 4:0.017962476 5:0.11792541 6:0.045354217 7:0.018761319 8:0.11783755 9:0.044175658 
0 0 0 0.12760239250454927 -47779.519583726978 8513.0635595150052 1:0.029581918 2:0.1128222 3:0.036579532 4:0.033469249 5:0.10967831 6:0.029209579 7:0.035213777 8:0.1054373 9:0.028500363 
24.663472910384971 64.078295938392458 32.274309596996048 0 -45321.557867033436 8513.0635595150052 1:0.00040299276 2:0.19779024 3:-0.014178524 4:0.0074362168 5:0.18430568 6:-0.031326961 7:0.0062958343 8:0.1678881 9:-0.044845674 
0 64.078295938392458 32.274309596996048 0 -47779.519583726978 8513.0635595150052 1:0.0069992499 2:0.13913274 3:-0.010373546 4:0.0019620722 5:0.13428053 6:-0.0090758634 7:-0.0039536363 8:0.13465772 9:-0.0070572731 
24.663472910384971 0 32.274309596996048 0.12760239250454927 -47779.519583726978 8513.0635595150052 1:0.034188987 2:0.069698777 3:0.015822959 4:0.026781049 5:0.065371942 6:0.019850852 7:0.023270013 8:0.080560671 9:0.020077751 
24.663472910384971 0 0 0.12760239250454927 -42812.094987437762 0 1:0.10749341 2:0.1402552 3:0.1339282 4:0.10705316 5:0.079451207 6:0.080984892 7:0.079511269 8:0.058851483 9:0.010490457 
0 64.078295938392458 32.274309596996048 0.12760239250454927 -47779.519583726978 8513.0635595150052 1:0.011178636 2:0.12831265 3:0.0335025 4:0.012316678 5:0.13120243 6:0.03480958 7:0.012495786 8:0.13295014 9:0.034961272 
0 64.078295938392458 32.274309596996048 0.12760239250454927 -47779.519583726978 8513.0635595150052 1:-0.0024352921 2:0.11481599 3:-0.0050438794 4:-0.0015974921 5:0.11221974 6:-0.0018897138 7:-0.0012645052 8:0.11068784 9:0.0048228899 
0 64.078295938392458 32.274309596996048 0.12760239250454927 -47779.519583726978 8513.0635595150052 1:-0.023120327 2:0.062635375 3:0.062187256 4:-0.010892475 5:0.057076604 6:0.064613976 7:0.0070135099 8:0.054406617 9:0.066423074 
0 64.078295938392458 32.274309596996048 0.12760239250454927 -0 8513.0635595150052 1:-0.0012017169 2:0.068382571 3:0.081025217 4:0.014376145 5:0.070776677 6:0.090293515 7:0.017639754 8:0.074494641 9:0.08775926 
24.663472910384971 0 0 0.12760239250454927 -47779.519583726978 8513.0635595150052 1:0.04663414 2:0.091360512 3:0.046329138 4:0.046015117 5:0.087896074 6:0.04618338 7:0.048297462 8:0.086613053 9:0.043681522 
0 64.078295938392458 32.274309596996048 0.12760239250454927 -47779.519583726978 8513.0635595150052 1:0.0057678645 2:0.1207747 3:0.010527408 4:0.0090304787 5:0.11902374 6:0.01433377 7:0.010511577 8:0.11882057 9:0.016102465 
0 0 0 0.12760239250454927 -47779.519583726978 0 1:0.035900275 2:0.11580236 3:0.018887627 4:0.035220878 5:0.11150468 6:0.018379564 7:0.035512675 8:0.11037084 9:0.01953008 
24.663472910384971 0 0 0.12760239250454927 -47779.519583726978 8513.0635595150052 1:0.042872823 2:0.099541919 3:0.0015228153 4:0.044150086 5:0.10788798 6:0.0013922794 7:0.043595421 8:0.11347396 9:0.0025641285 
24.663472910384971 64.078295938392458 32.274309596996048 0 -47779.519583726978 8513.0635595150052 1:0.018079459 2:0.14842217 3:-0.02024614 4:0.020360527 5:0.14598025 6:-0.023774587 7:0.02277997 8:0.14257738 9:-0.022474783 
0 0 0 0.12760239250454927 -47779.519583726978 8513.0635595150052 1:0.045512513 2:0.14882785 3:0.082768437 4:0.043033865 5:0.15258003 6:0.050438509 7:0.045408093 8:0.143694 9:0.038033717 
24.663472910384971 0 0 0.12760239250454927 -0 0 1:0.027406822 2:0.049529081 3:0.096262341 4:0.0053610766 5:0.03602884 6:0.095701182 7:0.021916175 8:0.044991913 9:0.090417791 
24.663472910384971 0 0 0 -47779.519583726978 0 1:0.050166219 2:0.11843464 3:-0.023816544 4:0.050119556 5:0.11870273 6:-0.020995298 7:0.044962064 8:0.11702803 9:-0.017319578 
24.663472910384971 0 32.274309596996048 0.12760239250454927 -47779.519583726978 8513.0635595150052 1:0.041742814 2:0.10899472 3:-0.006632602 4:0.034760286 5:0.10941047 6:-0.0012365859 7:0.030435897 8:0.11436489 9:0.0041970884 
0 0 0 0.12760239250454927 -0 0 1:0.05252259 2:0.1273465 3:0.097345395 4:0.046909639 5:0.11460693 6:0.094790546 7:0.047708479 8:0.10571413 9:0.0813232 
24.663472910384971 0 0 0.12760239250454927 -47779.519583726978 0 1:0.063776358 2:0.12096808 3:-0.004121898 4:0.062596351 5:0.11697663 6:-6.6873995e-05 7:0.061035518 8:0.11466093 9:0.0033112231 
24.663472910384971 0 0 0 -47779.519583726978 8513.0635595150052 1:0.048159391 2:0.12079888 3:-0.030202376 4:0.048583913 5:0.12038875 6:-0.033558042 7:0.046834403 8:0.12507919 9:-0.035404909 
0 64.078295938392458 32.274309596996048 0.12760239250454927 -0 8513.0635595150052 1:0.0059469592 2:0.11727439 3:0.076687415 4:0.0072808924 5:0.11843324 6:0.076303909 7:0.011740793 8:0.11682384 9:0.070088568 
0 64.078295938392458 32.274309596996048 0.12760239250454927 -0 8513.0635595150052 1:0.022289144 2:0.14833776 3:0.031525497 4:0.024004067 5:0.14489499 6:0.029184901 7:0.022395899 8:0.13816935 9:0.029047762 
24.663472910384971 0 0 0.12760239250454927 -47779.519583726978 0 1:0.069344403 2:0.10654809 3:-0.0094422311 4:0.068287436 5:0.10341904 6:-0.020398711 7:0.066215466 8:0.10161806 9:-0.022034186 
0 64.078295938392458 32.274309596996048 0.12760239250454927 -0 8513.0635595150052 1:-0.00033883682 2:0.13497602 3:0.050676195 4:8.5357142e-05 5:0.14006372 6:0.059243116 7:0.0040448229 8:0.14144023 9:0.064355568 
0 64.078295938392458 32.274309596996048 0.12760239250454927 -47779.519583726978 8513.0635595150052 1:0.00090666421 2:0.11173752 3:0.010422524 4:0.002402962 5:0.11644614 6:-0.0038459198 7:-0.001822572 8:0.11587811 9:-0.010172616 
24.663472910384971 0 32.274309596996048 0.12760239250454927 -47779.519583726978 8513.0635595150052 1:0.03661796 2:0.11655441 3:-0.0089121544 4:0.034597743 5:0.11505748 6:-0.0025887079 7:0.033008761 8:0.11415288 9:0.00055835438 
0 0 0 0.12760239250454927 -47779.519583726978 0 1:0.051870882 2:0.13196543 3:0.070274657 4:0.038241601 5:0.1148602 6:0.076703798 7:0.033718963 8:0.1032203 9:0.085176652 
0 64.078295938392458 32.274309596996048 0.12760239250454927 -47779.519583726978 8513.0635595150052 1:0.02171919 2:0.14224906 3:0.014188026 4:0.017113918 5:0.13567622 6:0.017463393 7:0.013243652 8:0.13136011 9:0.022338202 
0 64.078295938392458 32.274309596996048 0 -47779.519583726978 8513.0635595150052 1:0.015453601 2:0.15515828 3:-0.012547502 4:0.0077132439 5:0.15876405 6:-0.0058589571 7:-9.2362867e-05 8:0.15951982 9:-0.0031650642 
24.663472910384971 0 0 0.12760239250454927 -47779.519583726978 0 1:0.057034524 2:0.1158373 3:-0.0035710662 4:0.061447438 5:0.12045448 6:-0.0024381119 7:0.059971775 8:0.12082132 9:-0.0029883588 
24.663472910384971 64.078295938392458 32.274309596996048 0 -47779.519583726978 3508.3166368998809 1:0.03316805 2:0.14204492 3:-0.010002895 4:0.033253044 5:0.14174433 6:-0.0062743585 7:0.030849213 8:0.1410613 9:-0.0047852049 
0 64.078295938392458 32.274309596996048 0 -47779.519583726978 8513.0635595150052 1:-0.031358435 2:0.11694613 3:0.020767647 4:-0.036411612 5:0.12580934 6:0.014393614 7:-0.035721974 8:0.13132525 9:0.015926468 
24.663472910384971 64.078295938392458 32.274309596996048 0 -47779.519583726978 8513.0635595150052 1:0.032749165 2:0.12648439 3:0.001355619 4:0.032943991 5:0.13118674 6:-0.01076515 7:0.031696895 8:0.13252773 9:-0.01875625 
0 64.078295938392458 26.979495198657609 0.12760239250454927 -0 8513.0635595150052 1:0.0084195611 2:0.055564051 3:0.086798887 4:0.010700281 5:0.056076877 6:0.090768914 7:0.013167494 8:0.052360945 9:0.093748954 
0 64.078295938392458 32.274309596996048 0 -47779.519583726978 8513.0635595150052 1:0.020135515 2:0.14800646 3:0.015733827 4:0.026747791 5:0.151963 6:0.011894615 7:0.031473138 8:0.15193551 9:0.006532898 
24.663472910384971 0 0 0.12760239250454927 -47779.519583726978 8513.0635595150052 1:0.031029319 2:0.10992578 3:0.015183887 4:0.038754457 5:0.10813331 6:0.007978766 7:0.047230386 8:0.10696825 9:-0.00071214863 
0 64.078295938392458 32.274309596996048 0.12760239250454927 -47779.519583726978 8513.0635595150052 1:-0.04992963 2:0.10853605 3:-0.01845954 4:-0.034522407 5:0.10900952 6:0.0095110755 7:-0.019761731 8:0.11063343 9:0.040811563 
0 64.078295938392458 32.274309596996048 0.095701794378411947 -47779.519583726978 8513.0635595150052 1:-0.00080646588 2:0.13483062 3:0.010838122 4:0.0025618434 5:0.13061274 6:0.01434894 7:0.0017637808 8:0.12791219 9:0.024451509 
24.663472910384971 0 0 0.12760239250454927 -47779.519583726978 0 1:0.060736186 2:0.12500304 3:-0.0026361661 4:0.067029036 5:0.12606203 6:0.0061430383 7:0.071391147 8:0.12959792 9:0.0081508233 
0 64.078295938392458 32.274309596996048 0 -47779.519583726978 8513.0635595150052 1:0.019096102 2:0.13093768 3:0.0061117233 4:0.020677634 5:0.13092436 6:0.0095156113 7:0.020969432 8:0.13175807 9:0.010307634 
24.663472910384971 64.078295938392458 32.274309596996048 0 -47779.519583726978 8513.0635595150052 1:0.028581167 2:0.1108883 3:-0.023298547 4:0.03282331 5:0.11694852 6:-0.02031381 7:0.037819039 8:0.12429246 9:-0.01712898 
0 64.078295938392458 32.274309596996048 0 -47779.519583726978 8513.0635595150052 1:-0.02362336 2:0.18713131 3:-0.0021051347 4:-0.023280976 5:0.1825926 6:0.0014405484 7:-0.022422863 8:0.17765198 9:-0.00031550083 
24.663472910384971 0 0 0 -47779.519583726978 0 1:0.042187952 2:0.12520027 3:-0.015710899 4:0.046164544 5:0.12864846 6:-0.019194022 7:0.045155757 8:0.132817 9:-0.018368652 
0 64.078295938392458 32.274309596996048 0 -47779.519583726978 8513.0635595150052 1:0.018232451 2:0.13406657 3:-0.012711565 4:0.021475357 5:0.13436139 6:-0.0059440673 7:0.024209032 8:0.12836578 9:-0.0030078348 
24.663472910384971 0 0 0.12760239250454927 -47779.519583726978 0 1:0.074530561 2:0.11295902 3:0.013516436 4:0.081349039 5:0.11214602 6:0.018403998 7:0.082124944 8:0.11698893 9:0.024973984 
24.663472910384971 0 0 0.12760239250454927 -0 0 1:0.060874872 2:0.063701302 3:0.097051952 4:0.075067373 5:0.065483877 6:0.093740836 7:0.079722494 8:0.063502443 9:0.086536736 
24.663472910384971 0 0 0.12760239250454927 -47779.519583726978 2320.0063085424003 1:0.096246245 2:0.078682717 3:-0.0066743214 4:0.093489121 5:0.079656876 6:-0.0079603756 7:0.096367381 8:0.08568216 9:-0.010998451 
0 64.078295938392458 32.274309596996048 0.12760239250454927 -47779.519583726978 8513.0635595150052 1:-0.014345252 2:0.12716883 3:0.032662252 4:-0.018689887 5:0.12111471 6:0.043789112 7:-0.023055006 8:0.11862817 9:0.054690869 
0 0 0 0.12760239250454927 -0 0 1:0.045658164 2:0.12746877 3:0.056711431 4:0.0410454 5:0.14219967 6:0.067976169 7:0.038563745 8:0.1496263 9:0.075434084 
24.663472910384971 0 0 0.12760239250454927 -47779.519583726978 0 1:0.053092566 2:0.10160031 3:-0.02078309 4:0.056558583 5:0.10903612 6:-0.020953255 7:0.061540107 8:0.11507924 9:-0.013975207 
0 64.078295938392458 32.274309596996048 0.12760239250454927 -47779.519583726978 8513.0635595150052 1:-0.017200343 2:0.12034458 3:0.031517431 4:-0.016649639 5:0.12020627 6:0.049591957 7:-0.010724859 8:0.12010958 9:0.060043446 
0 64.078295938392458 32.274309596996048 0.12760239250454927 -47779.519583726978 8513.0635595150052 1:-0.0074216445 2:0.14034454 3:0.047666763 4:-0.010703052 5:0.1340056 6:0.042711549 7:-0.017160455 8:0.12470991 9:0.040347502 
0 64.078295938392458 32.274309596996048 0 -47779.519583726978 8513.0635595150052 1:-0.01266363 2:0.1327851 3:-0.011030359 4:-0.028005867 5:0.12780632 6:-0.011669347 7:-0.038440725 8:0.12946981 9:0.00045113813 
0 64.078295938392458 32.274309596996048 0.12760239250454927 -47779.519583726978 8513.0635595150052 1:0.018838353 2:0.12194545 3:0.023200254 4:0.021634803 5:0.12420062 6:0.027413402 7:0.022689303 8:0.12535427 9:0.031880971 
24.663472910384971 0 0 0.12760239250454927 -7952.2860672960978 0 1:0.044144869 2:0.048175821 3:0.089595117 4:0.054362639 5:0.050736429 6:0.084867304 7:0.061445431 8:0.049416032 9:0.083354481 
24.663472910384971 0 0 0 -47779.519583726978 0 1:0.047061999 2:0.13847243 3:-0.013347413 4:0.049752148 5:0.13781593 6:-0.014228458 7:0.0483777 8:0.12988738 9:-0.011356346 
24.663472910384971 0 0 0.12760239250454927 -47779.519583726978 8513.0635595150052 1:0.010305425 2:0.013823939 3:0.053101325 4:0.046778559 5:0.023490792 6:0.029243429 7:0.057498004 8:0.038656805 9:0.036810291 
24.663472910384971 0 0 0.12760239250454927 -47779.519583726978 0 1:0.08122797 2:0.13519023 3:0.056535943 4:0.082481391 5:0.15063464 6:0.044389448 7:0.075218758 8:0.14799403 9:0.023539565 
24.663472910384971 0 0 0.12760239250454927 -47779.519583726978 0 1:0.080726599 2:0.12234764 3:0.021283702 4:0.081267278 5:0.12543488 6:0.017533123 7:0.079352475 8:0.12879207 9:0.017279263 
24.663472910384971 0 0 0.12760239250454927 -47779.519583726978 0 1:0.078142532 2:0.12967378 3:-0.0093970602 4:0.076497553 5:0.13614264 6:0.0014300522 7:0.076739718 8:0.14456445 9:0.0045137763 
0 64.078295938392458 32.274309596996048 0.12760239250454927 -47779.519583726978 8513.0635595150052 1:0.010442411 2:0.11524459 3:0.042951972 4:0.0065127237 5:0.11539891 6:0.046003342 7:0.010265662 8:0.11711327 9:0.05217072 
24.663472910384971 0 0 0.12760239250454927 -0 2670.2204710821379 1:0.030159098 2:0.083058493 3:0.10191642 4:0.034153855 5:0.061447574 6:0.084901551 7:0.03353925 8:0.041684996 9:0.070053996 
0 64.078295938392458 32.274309596996048 0.12760239250454927 -0 8513.0635595150052 1:0.0083771388 2:0.067488063 3:0.088097431 4:0.009304568 5:0.065050606 6:0.089199054 7:0.011829534 8:0.06440703 9:0.089956558 
0 0 0 0.12760239250454927 -47779.519583726978 0 1:0.038784738 2:0.09999593 3:0.040235565 4:0.048498712 5:0.10408067 6:0.057163038 7:0.054043451 8:0.10947824 9:0.067912718 
0 64.078295938392458 32.274309596996048 0.12760239250454927 -47779.519583726978 8513.0635595150052 1:-0.0056804516 2:0.13004016 3:0.015275072 4:-0.001365916 5:0.12935016 6:0.015257336 7:-0.0044697347 8:0.12088783 9:0.014589699 
0 64.078295938392458 32.274309596996048 0.12760239250454927 -47779.519583726978 8513.0635595150052 1:0.0083791979 2:0.10611637 3:0.018325576 4:0.0095738256 5:0.10024083 6:0.017901381 7:0.0063491103 8:0.093753826 9:0.01809229 
0 0 0 0.12760239250454927 -47779.519583726978 0 1:0.029644026 2:0.074995244 3:0.071882877 4:0.031503476 5:0.072902853 6:0.070839902 7:0.032521662 8:0.071819988 9:0.074856207 
0 64.078295938392458 32.274309596996048 0 -47779.519583726978 8513.0635595150052 1:-0.018417428 2:0.13208186 3:-0.015234192 4:-0.016032958 5:0.13167112 6:-0.01430122 7:-0.016177265 8:0.13153203 9:-0.011667417 
0 64.078295938392458 0 0.12760239250454927 -47779.519583726978 8513.0635595150052 1:0.027750687 2:0.11304764 3:0.045546352 4:0.029607842 5:0.11146868 6:0.039132929 7:0.030886489 8:0.11120705 9:0.032799523 
0 0 0 0.12760239250454927 -47779.519583726978 0 1:0.099954525 2:0.21291593 3:0.084420565 4:0.067923603 5:0.16802402 6:0.1378615 7:0.050483235 8:0.1337299 9:0.1610337 
24.663472910384971 0 0 0 -31065.069170096067 0 1:0.058918009 2:0.12743483 3:-0.019867259 4:0.057181147 5:0.13537136 6:-0.034170784 7:0.045906627 8:0.13507861 9:-0.03248221 
0 64.078295938392458 0 0.12760239250454927 -0 8513.0635595150052 1:0.015851429 2:0.099867606 3:0.087334321 4:0.020794211 5:0.097073731 6:0.087479971 7:0.023991403 8:0.094979786 9:0.084280201 
24.663472910384971 0 0 0 -47779.519583726978 0 1:0.04005604 2:0.12775714 3:-0.0043668438 4:0.045519708 5:0.13116726 6:-0.0063855427 7:0.040170245 8:0.13167094 9:-0.012208201 
24.663472910384971 0 32.274309596996048 0 -0 0 1:0.040183233 2:0.14619401 3:-0.032830594 4:0.044625854 5:0.14330065 6:-0.032727191 7:0.047001207 8:0.13916137 9:-0.029468108 
0 64.078295938392458 32.274309596996048 0 -47779.519583726978 8513.0635595150052 1:-0.014027817 2:0.14603898 3:-0.031399892 4:0.0023865026 5:0.16219575 6:0.035931147 7:0.032803842 8:0.15470776 9:0.03646327 
24.663472910384971 0 32.274309596996048 0 -47779.519583726978 0 1:0.043541431 2:0.13839742 3:-0.021228846 4:0.040935608 5:0.1378399 6:-0.019086151 7:0.038130081 8:0.13706465 9:-0.01847094 
24.663472910384971 0 32.274309596996048 0.12760239250454927 -47779.519583726978 8513.0635595150052 1:0.032330268 2:0.084122718 3:0.0072148604 4:0.030049591 5:0.085357055 6:0.0019795428 7:0.030896053 8:0.094465718 9:0.0025124434 
0 64.078295938392458 32.274309596996048 0 -47779.519583726978 8513.0635595150052 1:-0.0037103756 2:0.13849315 3:0.00076159406 4:-0.003397528 5:0.13564919 6:0.0086838095 7:-0.0015714718 8:0.13431222 9:0.013299996 
24.663472910384971 64.078295938392458 32.274309596996048 0 -47779.519583726978 8513.0635595150052 1:-0.0022043518 2:0.25615868 3:-0.033744342 4:-0.019728992 5:0.30669519 6:0.045269995 7:-0.01373528 8:0.29717175 9:0.12957582 
0 64.078295938392458 32.274309596996048 0 -47779.519583726978 8513.0635595150052 1:0.0099607713 2:0.14449542 3:-0.013333382 4:0.014000464 5:0.14162169 6:-0.015592123 7:0.01575372 8:0.14259035 9:-0.017306659 
0 64.078295938392458 0 0.12760239250454927 -47779.519583726978 8513.0635595150052 1:-0.0011054412 2:0.059268195 3:0.072486903 4:0.016473276 5:0.068805857 6:0.080512022 7:0.030266895 8:0.078308044 9:0.087274431 
0 64.078295938392458 32.274309596996048 0 -47779.519583726978 8513.0635595150052 1:0.020597906 2:0.14053574 3:-0.011855922 4:0.019218369 5:0.13983818 6:-0.010007213 7:0.020339629 8:0.13338437 9:-0.0078497504 
24.663472910384971 0 0 0.12760239250454927 -47779.519583726978 8513.0635595150052 1:0.04078784 2:0.11367818 3:-0.018810841 4:0.040698492 5:0.10998893 6:-0.014823076 7:0.042381369 8:0.11051675 9:-0.0073708764 
0 64.078295938392458 32.274309596996048 0 -47779.519583726978 8513.0635595150052 1:-0.023532625 2:0.14234783 3:0.0089472311 4:-0.020524825 5:0.13766256 6:0.0072022048 7:-0.015514825 8:0.13177241 9:0.0057803112 
0 64.078295938392458 32.274309596996048 0.12760239250454927 -47779.519583726978 8513.0635595150052 1:0.003007349 2:0.1031399 3:0.072180586 4:0.005359919 5:0.10076617 6:0.071274251 7:0.010346012 8:0.096653455 9:0.070500632 
24.663472910384971 0 0 0.12760239250454927 -47779.519583726978 0 1:0.061559302 2:0.11332306 3:0.020654207 4:0.065269434 5:0.12384241 6:0.018404192 7:0.061239138 8:0.13378786 9:0.01641778 
0 0 0 0.12760239250454927 -0 0 1:0.025162807 2:0.089497924 3:0.075819095 4:0.029776133 5:0.093632918 6:0.073023532 7:0.037414325 8:0.095745296 9:0.080355828 
24.663472910384971 0 0 0.12760239250454927 -47779.519583726978 8513.0635595150052 1:0.047743775 2:0.06826487 3:0.057225929 4:0.063640915 5:0.092488283 6:0.061888498 7:0.075523938 8:0.12584932 9:0.064317511 
24.663472910384971 0 0 0.12760239250454927 -47779.519583726978 0 1:0.078187443 2:0.10857571 3:0.0090250666 4:0.074788365 5:0.11771984 6:0.014475523 7:0.069875899 8:0.12244082 9:0.014427124 
0 64.078295938392458 32.274309596996048 0.12760239250454927 -47779.519583726978 8513.0635595150052 1:0.025851673 2:0.12562329 3:0.011671052 4:0.026068437 5:0.12849729 6:0.013466665 7:0.026510022 8:0.12919697 9:0.010301023 
0 64.078295938392458 32.274309596996048 0.12760239250454927 -24528.767221472444 8513.0635595150052 1:0.0074053162 2:0.075813317 3:0.084537956 4:0.011608893 5:0.074313598 6:0.083472653 7:0.015143878 8:0.073118041 9:0.081666123 
0 64.078295938392458 32.274309596996048 0.12760239250454927 -0 8513.0635595150052 1:0.00172932 2:0.11914678 3:0.058936443 4:0.0067466391 5:0.11583806 6:0.057560654 7:0.0097635579 8:0.12115972 9:0.064055434 
0 64.078295938392458 32.274309596996048 0 -47779.519583726978 8513.0635595150052 1:-0.011430371 2:0.12866773 3:0.018269034 4:-0.02080274 5:0.12732264 6:0.01509668 7:-0.025291856 8:0.12666804 9:0.016347133 
24.663472910384971 0 0 0.12760239250454927 -47779.519583726978 8513.0635595150052 1:0.024181595 2:0.052347261 3:0.085938975 4:0.025740629 5:0.051855373 6:0.085663851 7:0.036648645 8:0.051593179 9:0.087413359 
0 64.078295938392458 32.274309596996048 0.12760239250454927 -47779.519583726978 8513.0635595150052 1:0.020368298 2:0.11658905 3:0.010154124 4:0.018434356 5:0.11653522 6:0.01995214 7:0.020454049 8:0.11626366 9:0.015316594 
0 64.078295938392458 32.274309596996048 0.12760239250454927 -47779.519583726978 8513.0635595150052 1:-0.0040683407 2:0.1240178 3:0.01987168 4:-0.0037909658 5:0.1215646 6:0.026577181 7:-0.0029757061 8:0.1222235 9:0.031028249 
24.663472910384971 0 0 0.12760239250454927 -47779.519583726978 8513.0635595150052 1:0.020839834 2:0.053950447 3:0.077546935 4:0.022749025 5:0.054308941 6:0.077496913 7:0.033721052 8:0.06164873 9:0.078583596 
24.663472910384971 0 0 0.12760239250454927 -0 0 1:0.040992414 2:0.063029852 3:0.091786214 4:0.04173855 5:0.06307853 6:0.089698134 7:0.041416696 8:0.06287173 9:0.088833088 
24.663472910384971 0 0 0.12760239250454927 -47779.519583726978 8513.0635595150052 1:0.01558033 2:0.050991476 3:0.08284356 4:0.020579458 5:0.044114146 6:0.080353108 7:0.0233025 8:0.036289462 9:0.079785239 
24.663472910384971 0 0 0.12760239250454927 -47779.519583726978 0 1:0.039374425 2:0.087105466 3:0.076393855 4:0.040552638 5:0.073196423 6:0.067893805 7:0.040462771 8:0.068134909 9:0.059035086 
0 64.078295938392458 32.274309596996048 0.12760239250454927 -47779.519583726978 8513.0635595150052 1:0.014467863 2:0.11584824 3:0.013267939 4:0.017198179 5:0.11345813 6:0.022358861 7:0.020207929 8:0.11330118 9:0.026537989 
24.663472910384971 64.078295938392458 32.274309596996048 0 -0 0 1:0.037609698 2:0.1459683 3:-0.038611005 4:0.039374535 5:0.14695819 6:-0.037508322 7:0.038472228 8:0.14646227 9:-0.035003213 
24.663472910384971 0 0 0.12760239250454927 -47779.519583726978 0 1:0.051976589 2:0.053367374 3:0.086455724 4:0.056946397 5:0.050660444 6:0.087373925 7:0.05881793 8:0.047774408 9:0.078367613 
24.663472910384971 0 0 0.12760239250454927 -47779.519583726978 0 1:0.083419207 2:0.11618223 3:0.0087335285 4:0.07046915 5:0.12177177 6:0.005675596 7:0.068101246 8:0.12607892 9:0.0050563568 
0 64.078295938392458 32.274309596996048 0.12760239250454927 -0 8513.0635595150052 1:-0.0043250377 2:0.064015422 3:0.089298341 4:-0.0028316399 5:0.057359836 6:0.086948174 7:-0.0020791812 8:0.052566448 9:0.087894075 
0 0 0 0.12760239250454927 -47779.519583726978 0 1:0.043399077 2:0.087268422 3:0.071079188 4:0.047923597 5:0.088897599 6:0.059875733 7:0.046768923 8:0.086003745 9:0.054682166 
0 0 0 0.12760239250454927 -47779.519583726978 8513.0635595150052 1:0.0536186 2:0.15670368 3:0.064316126 4:0.052546756 5:0.16557413 6:0.053836376 7:0.044850312 8:0.15017995 9:0.038640784 
0 0 0 0.12760239250454927 -0 0 1:0.067568828 2:0.078829502 3:0.10827636 4:0.068386494 5:0.09928778 6:0.12908128 7:0.07482354 8:0.12539039 9:0.15245731 
0 64.078295938392458 32.274309596996048 0.12760239250454927 -47779.519583726978 8513.0635595150052 1:0.0063051692 2:0.12955222 3:0.034875649 4:0.0053464054 5:0.13553824 6:0.035192458 7:0.018470765 8:0.14269561 9:0.018420033 
0 0 0 0.12760239250454927 -0 8513.0635595150052 1:0.022255882 2:0.06454187 3:0.079556393 4:0.032249611 5:0.063819017 6:0.08782244 7:0.044655508 8:0.06449198 9:0.097084802 
0 64.078295938392458 32.274309596996048 0.12760239250454927 -0 8513.0635595150052 1:0.0084436654 2:0.11849574 3:0.085603108 4:0.0056329857 5:0.11779323 6:0.090598554 7:0.0052011239 8:0.11360252 9:0.089371101 
24.663472910384971 0 32.274309596996048 0 -47779.519583726978 8513.0635595150052 1:0.032691023 2:0.12476799 3:-0.01356721 4:0.041752518 5:0.12239517 6:-0.025495663 7:0.047884103 8:0.11996477 9:-0.02959025 
0 64.078295938392458 32.274309596996048 0 -47779.519583726978 8513.0635595150052 1:0.0047569638 2:0.13425723 3:0.0029671207 4:0.0056395261 5:0.13432354 6:0.0042244598 7:0.010650131 8:0.13794022 9:0.0059809634 
0 64.078295938392458 32.274309596996048 0 -47779.519583726978 8513.0635595150052 1:0.015921391 2:0.12643168 3:-0.015701848 4:0.017508186 5:0.11796963 6:-0.0069894499 7:0.019968252 8:0.11432829 9:-0.0012700192 
24.663472910384971 0 0 0.12760239250454927 -47779.519583726978 0 1:0.042651081 2:0.11309229 3:0.0079090383 4:0.038635725 5:0.11835008 6:0.0097847725 7:0.035387947 8:0.12263323 9:0.0093107279 
24.663472910384971 0 0 0.12760239250454927 -47779.519583726978 0 1:0.065805006 2:0.097607157 3:0.078386256 4:0.054463158 5:0.10107898 6:0.068932376 7:0.047877623 8:0.11914074 9:0.064184533 
0 0 0 0.12760239250454927 -47779.519583726978 0 1:0.054146537 2:0.10156061 3:0.071908698 4:0.053830226 5:0.099888775 6:0.065157484 7:0.048812344 8:0.10168887 9:0.07157186 
0 0 0 0.12760239250454927 -47779.519583726978 0 1:0.038248127 2:0.12461946 3:0.069427774 4:0.044372546 5:0.12188675 6:0.066440957 7:0.05053568 8:0.11598406 9:0.058246798 
0 64.078295938392458 32.274309596996048 0.12760239250454927 -47779.519583726978 8513.0635595150052 1:0.00060499056 2:0.10723139 3:0.053423376 4:-0.0052714999 5:0.10150832 6:0.055317862 7:-0.0085821219 8:0.093548448 9:0.060717801 
0 64.078295938392458 32.274309596996048 0 -47779.519583726978 8513.0635595150052 1:-0.0095976004 2:0.14453005 3:-0.00081338659 4:-0.005465636 5:0.13883827 6:-0.00019213329 7:-0.0025948661 8:0.13293444 9:0.0049139267 
0 0 0 0.12760239250454927 -0 0 1:0.033926897 2:0.13537263 3:0.071274952 4:0.029832873 5:0.131305 6:0.067738061 7:0.026595056 8:0.12720487 9:0.070582194 
0 64.078295938392458 32.274309596996048 0.12760239250454927 -0 8513.0635595150052 1:0.012520627 2:0.13658845 3:0.05448777 4:0.010721527 5:0.14617676 6:0.053221811 7:0.013411826 8:0.15202573 9:0.036080195 
0 0 0 0.12760239250454927 -47779.519583726978 8513.0635595150052 1:0.056689371 2:0.16346386 3:0.08052074 4:0.054952056 5:0.157397 6:0.054657894 7:0.048888897 8:0.13602556 9:0.038738642 
24.663472910384971 0 0 0 -47779.519583726978 0 1:0.047325793 2:0.12227311 3:-0.029071438 4:0.043747993 5:0.12960361 6:-0.027410561 7:0.044386203 8:0.14246929 9:-0.027892661 
0 64.078295938392458 32.274309596996048 0.12760239250454927 -47779.519583726978 8513.0635595150052 1:0.012200026 2:0.09179567 3:0.079463597 4:0.010158827 5:0.089818936 6:0.079417777 7:0.012321942 8:0.087944654 9:0.07899824 
0 64.078295938392458 32.274309596996048 0 -47779.519583726978 8513.0635595150052 1:-0.030810221 2:0.17439213 3:-0.016525511 4:-0.02016871 5:0.15742506 6:-0.023140299 7:-0.018450711 8:0.14195027 9:-0.026977261 
0 64.078295938392458 32.274309596996048 0.12760239250454927 -47779.519583726978 8513.0635595150052 1:0.016629107 2:0.1303113 3:0.02498169 4:0.01853466 5:0.14264152 6:0.01704072 7:0.017934715 8:0.14502593 9:0.024513125 
24.663472910384971 64.078295938392458 32.274309596996048 0 -47779.519583726978 8513.0635595150052 1:0.033072427 2:0.13262561 3:-0.012351231 4:0.031782301 5:0.13210104 6:-0.005682543 7:0.036151341 8:0.12994245 9:-0.0041258482 
0 64.078295938392458 0 0.12760239250454927 -47779.519583726978 8513.0635595150052 1:0.021690395 2:0.088493688 3:0.068418637 4:0.019505279 5:0.082264809 6:0.066117604 7:0.014970384 8:0.080932606 9:0.064174674 
0 0 0 0.12760239250454927 -0 0 1:0.036583049 2:0.10738204 3:0.063775709 4:0.035072805 5:0.10710261 6:0.066697672 7:0.038990409 8:0.1140278 9:0.084152567 
24.663472910384971 0 0 0.12760239250454927 -47779.519583726978 8513.0635595150052 1:0.050155813 2:0.087497705 3:-0.00284393 4:0.047627037 5:0.085380867 6:-0.0031012526 7:0.04466954 8:0.086545542 9:-0.0042988248 
24.663472910384971 64.078295938392458 32.274309596996048 0 -47779.519583726978 8513.0635595150052 1:0.027495485 2:0.15068816 3:-0.011948192 4:0.030758596 5:0.14971597 6:-0.018608261 7:0.029828308 8:0.14781014 9:-0.022261376 
24.663472910384971 0 0 0.12760239250454927 -47779.519583726978 0 1:0.065107609 2:0.11465844 3:0.013789113 4:0.063188952 5:0.11237391 6:0.015395656 7:0.058946204 8:0.11062016 9:0.018888176 
24.663472910384971 64.078295938392458 32.274309596996048 0 -47779.519583726978 0 1:0.034607786 2:0.14691368 3:-0.0038388486 4:0.034962145 5:0.14516591 6:-0.0050325665 7:0.035755965 8:0.14353676 9:-0.0046244397 
0 64.078295938392458 32.274309596996048 0.12760239250454927 -47779.519583726978 8513.0635595150052 1:0.0084932928 2:0.11635634 3:-0.0071138573 4:0.0070187991 5:0.11509882 6:0.0019418769 7:0.0094352744 8:0.12449368 9:0.003729325 
0 64.078295938392458 32.274309596996048 0 -47779.519583726978 8513.0635595150052 1:0.0066547863 2:0.12497005 3:0.031384081 4:0.0084669628 5:0.13372443 6:0.011208374 7:0.0081240821 8:0.13784185 9:0.0008753321 
0 64.078295938392458 32.274309596996048 0 -27024.107627513255 8513.0635595150052 1:0.012675477 2:0.16129679 3:-0.0061888744 4:0.012373437 5:0.16665795 6:0.00424947 7:0.011902467 8:0.17050516 9:0.015540384 
0 64.078295938392458 0 0.12760239250454927 -47779.519583726978 8513.0635595150052 1:0.020101119 2:0.13047702 3:0.058786071 4:0.022310122 5:0.13002367 6:0.060818653 7:0.023532208 8:0.13113222 9:0.054988611 
0 64.078295938392458 32.274309596996048 0.12760239250454927 -47779.519583726978 8513.0635595150052 1:-0.016813135 2:0.12448895 3:0.041049699 4:-0.024596587 5:0.11673124 6:0.039416414 7:-0.023123435 8:0.11795905 9:0.037867835 
0 64.078295938392458 32.274309596996048 0.12760239250454927 -47779.519583726978 8513.0635595150052 1:0.00025578889 2:0.10245574 3:0.018557152 4:0.0071650583 5:0.10129353 6:0.019878719 7:0.011913056 8:0.10709873 9:0.01553547 
0 64.078295938392458 32.274309596996048 0.12760239250454927 -22010.118825923008 8513.0635595150052 1:0.002610196 2:0.051490578 3:0.082095516 4:0.010093232 5:0.054056666 6:0.088955395 7:0.021090443 8:0.067543591 9:0.092500796 
24.663472910384971 0 0 0.12760239250454927 -47779.519583726978 8513.0635595150052 1:0.041244386 2:0.086728753 3:0.021974798 4:0.037269876 5:0.091921606 6:0.028475058 7:0.028036655 8:0.099345333 9:0.037866894 
24.663472910384971 0 0 0.12760239250454927 -47779.519583726978 0 1:0.049671846 2:0.1122748 3:-0.017931087 4:0.05308184 5:0.11268511 6:-0.0072220349 7:0.053461597 8:0.106504 9:-0.01633327 
24.663472910384971 0 0 0.12760239250454927 -47779.519583726978 8513.0635595150052 1:0.044127037 2:0.10079817 3:-0.027074177 4:0.041661603 5:0.10731811 6:-0.019925858 7:0.042313411 8:0.12427898 9:-0.014247052 
0 0 0 0.12760239250454927 -47779.519583726978 0 1:0.025385723 2:0.1144281 3:0.04460806 4:0.037429276 5:0.11279636 6:0.055283374 7:0.045689952 8:0.11575906 9:0.057909511 
0 64.078295938392458 32.274309596996048 0 -47779.519583726978 8513.0635595150052 1:0.025108261 2:0.14010374 3:-0.0043867359 4:0.024418905 5:0.14512391 6:-0.00064438509 7:0.027500053 8:0.15561582 9:0.0021703637 
0 64.078295938392458 32.274309596996048 0.12760239250454927 -47779.519583726978 8513.0635595150052 1:0.012708392 2:0.12346983 3:0.024898248 4:0.013334628 5:0.12321284 6:0.030266784 7:0.01528366 8:0.1220223 9:0.03420078 
24.663472910384971 64.078295938392458 32.274309596996048 0 -3487.077504916419 8513.0635595150052 1:0.019410015 2:0.2095577 3:-0.029407572 4:0.0075798751 5:0.20680635 6:-0.02741802 7:-0.003280024 8:0.20108896 9:-0.021346136 
0 64.078295938392458 32.274309596996048 0.12760239250454927 -0 8513.0635595150052 1:0.013730796 2:0.12223522 3:0.085699849 4:0.0087001582 5:0.1214805 6:0.081490448 7:0.007828617 8:0.11595714 9:0.081429687 
24.663472910384971 0 0 0.12760239250454927 -47779.519583726978 0 1:0.053770827 2:0.096948471 3:0.042940213 4:0.05244181 5:0.096460677 6:0.040846091 7:0.052360453 8:0.096688918 9:0.042770288 
24.663472910384971 0 0 0.12760239250454927 -47779.519583726978 0 1:0.0455065 2:0.1120857 3:-0.0040270804 4:0.044246254 5:0.10518138 6:0.0042906164 7:0.040633095 8:0.098966293 9:0.011815057 
24.663472910384971 0 0 0.12760239250454927 -47779.519583726978 0 1:0.071493136 2:0.097279686 3:0.040026416 4:0.064889415 5:0.087970481 6:0.040894426 7:0.063011102 8:0.090227321 9:0.039021594 
24.663472910384971 0 32.274309596996048 0 -47779.519583726978 8513.0635595150052 1:0.040405657 2:0.11243531 3:-0.023022842 4:0.039459648 5:0.11459255 6:-0.023091551 7:0.037717414 8:0.12027394 9:-0.018812595 
24.663472910384971 64.078295938392458 32.274309596996048 0.12760239250454927 -47779.519583726978 8513.0635595150052 1:-0.024960206 2:0.033129098 3:0.053677416 4:-0.0089137313 5:0.039341543 6:0.071065788 7:0.014975503 8:0.054979233 9:0.089308744 
0 64.078295938392458 32.274309596996048 0 -47779.519583726978 8513.0635595150052 1:-0.030652013 2:0.16260949 3:0.011482762 4:-0.026149363 5:0.15775839 6:0.014407582 7:-0.02548805 8:0.14979794 9:0.011765792 
24.663472910384971 64.078295938392458 32.274309596996048 0.12760239250454927 -47779.519583726978 689.91782394890879 1:-0.010979486 2:0.012849273 3:0.078082403 4:-0.021586437 5:0.005571329 6:0.090516732 7:-0.016838155 8:0.0038813695 9:0.093734412 
0 64.078295938392458 32.274309596996048 0.12760239250454927 -47779.519583726978 8513.0635595150052 1:-0.0072360906 2:0.13047665 3:0.06679335 4:-0.010842646 5:0.12948465 6:0.061700154 7:-0.018374926 8:0.12249848 9:0.059165226 
0 64.078295938392458 32.274309596996048 0 -47779.519583726978 8513.0635595150052 1:-0.012013231 2:0.14559251 3:-0.00035459073 4:-0.01368764 5:0.14715189 6:0.007751149 7:-0.013734523 8:0.15041299 9:0.020457356 
0 64.078295938392458 32.274309596996048 0 -47779.519583726978 8513.0635595150052 1:0.019289809 2:0.14318496 3:-0.0014311092 4:0.024633334 5:0.14380981 6:-0.0040198697 7:0.026632781 8:0.14370189 9:-0.0094181817 
24.663472910384971 64.078295938392458 32.274309596996048 0 -47779.519583726978 8513.0635595150052 1:0.0086109872 2:0.16634294 3:-0.033254103 4:0.0061490812 5:0.16887115 6:-0.031819952 7:0.0034452259 8:0.1676738 9:-0.024105103 
0 64.078295938392458 32.274309596996048 0.12760239250454927 -47779.519583726978 8513.0635595150052 1:-0.025540017 2:0.12079014 3:0.062555094 4:-0.012595611 5:0.1179163 6:0.066904492 7:-0.00055206372 8:0.11413092 9:0.072399215 
24.663472910384971 0 32.274309596996048 0 -47779.519583726978 0 1:0.03430651 2:0.12891862 3:-0.0077311682 4:0.037239104 5:0.12702805 6:-0.0084126868 7:0.038757967 8:0.12770594 9:-0.011021759 
24.663472910384971 64.078295938392458 32.274309596996048 0 -47779.519583726978 8513.0635595150052 1:0.025557862 2:0.13165217 3:-0.0098372866 4:0.024409857 5:0.12430436 6:-0.0045737753 7:0.02520188 8:0.12531315 9:-0.0028896856 
24.663472910384971 0 0 0.12760239250454927 -47779.519583726978 0 1:0.054515189 2:0.11183886 3:0.027466054 4:0.051889051 5:0.1127998 6:0.025159023 7:0.052333885 8:0.11336926 9:0.016102618 
24.663472910384971 0 0 0.12760239250454927 -47779.519583726978 0 1:0.054642865 2:0.12856867 3:0.014294124 4:0.057237947 5:0.13056074 6:0.013274812 7:0.060342827 8:0.128748 9:0.013141138 
0 64.078295938392458 0 0 -47779.519583726978 0 1:0.03923309 2:0.14248626 3:0.0099690185 4:0.034553175 5:0.14749759 6:0.011759369 7:0.034531975 8:0.15180429 9:0.011592454 
24.663472910384971 64.078295938392458 32.274309596996048 0 -47779.519583726978 8513.0635595150052 1:0.0029285859 2:0.16929606 3:-0.018665279 4:0.0024877823 5:0.17493408 6:-0.026860605 7:0.0017210527 8:0.17981475 9:-0.026494833 
24.663472910384971 0 32.274309596996048 0 -47779.519583726978 0 1:0.036964647 2:0.13021933 3:-0.012303082 4:0.038108625 5:0.12307284 6:-0.012382427 7:0.039184279 8:0.11876362 9:-0.012103664 
24.663472910384971 64.078295938392458 32.274309596996048 0 -0 8513.0635595150052 1:0.0096096818 2:0.16212215 3:-0.050853565 4:0.001475423 5:0.16888735 6:-0.039240299 7:-0.0048673172 8:0.16943498 9:-0.021604391 
24.663472910384971 0 0 0.12760239250454927 -47779.519583726978 0 1:0.055832858 2:0.10173357 3:0.056498081 4:0.058902479 5:0.098779877 6:0.053328406 7:0.057313391 8:0.097045214 9:0.053443781 
24.663472910384971 0 0 0.12760239250454927 -47779.519583726978 0 1:0.066070102 2:0.13101513 3:0.040737161 4:0.07404637 5:0.15497269 6:0.037711517 7:0.082178243 8:0.1654038 9:0.026625498 
0 64.078295938392458 32.274309596996048 0.12760239250454927 -47779.519583726978 8513.0635595150052 1:0.0055041577 2:0.11730331 3:-0.0038036689 4:0.004624 5:0.1212973 6:0.0071861584 7:0.00668735 8:0.13067437 9:0.013340071 
24.663472910384971 0 0 0.12760239250454927 -47779.519583726978 0 1:0.07865354 2:0.10812464 3:-0.0049506899 4:0.079968074 5:0.10980622 6:-0.0027783934 7:0.082930827 8:0.10947317 9:-0.00043348719 
24.663472910384971 64.078295938392458 32.274309596996048 0 -47779.519583726978 8513.0635595150052 1:0.008435346 2:0.17491812 3:-0.012324769 4:0.011525608 5:0.18249257 6:-0.018530435 7:0.0076138719 8:0.18858131 9:-0.028401298 
0 0 0 0.12760239250454927 -47779.519583726978 0 1:0.035596439 2:0.10191679 3:0.064607622 4:0.036679977 5:0.098984899 6:0.073610928 7:0.038347391 8:0.097650967 9:0.071626704 
24.663472910384971 0 0 0 -33997.306430940385 0 1:0.061348283 2:0.12274609 3:-0.042172017 4:0.047431792 5:0.13607724 6:-0.03813815 7:0.04649815 8:0.14217844 9:-0.026651803 
24.663472910384971 64.078295938392458 32.274309596996048 0 -47779.519583726978 8513.0635595150052 1:0.0077384103 2:0.16886577 3:-0.025518984 4:0.0099983872 5:0.16739658 6:-0.023738422 7:0.0082314249 8:0.16632248 9:-0.024866396 
24.663472910384971 64.078295938392458 32.274309596996048 0.12760239250454927 -47779.519583726978 8513.0635595150052 1:0.028597885 2:0.12120598 3:-0.0067706724 4:0.028542602 5:0.12108848 6:-0.00078714098 7:0.031889754 8:0.12173195 9:-0.004026864 
24.663472910384971 64.078295938392458 32.274309596996048 0.12760239250454927 -47779.519583726978 8513.0635595150052 1:0.02831228 2:0.11204295 3:-0.026637931 4:0.022431652 5:0.1100654 6:-0.021252265 7:0.017726444 8:0.11196207 9:-0.0053402911 
0 64.078295938392458 0 0.12760239250454927 -0 8513.0635595150052 1:0.020863933 2:0.12144883 3:0.077469335 4:0.018380759 5:0.12647979 6:0.07761286 7:0.011862985 8:0.12571399 9:0.075761357 
24.663472910384971 0 0 0.12760239250454927 -47779.519583726978 0 1:0.055839852 2:0.12236874 3:-0.012164905 4:0.05851417 5:0.11640771 6:-0.013694011 7:0.060834522 8:0.11107359 9:-0.012397563 
0 0 0 0.12760239250454927 -47779.519583726978 0 1:0.046450712 2:0.12188037 3:0.036665068 4:0.047126015 5:0.12324765 6:0.03580635 7:0.043324004 8:0.1220231 9:0.041048552 
24.663472910384971 0 32.274309596996048 0 -47779.519583726978 8513.0635595150052 1:0.043651002 2:0.12082972 3:-0.037787603 4:0.036319376 5:0.11739662 6:-0.028515389 7:0.039828743 8:0.11878931 9:-0.028497478 
0 64.078295938392458 32.274309596996048 0.12760239250454927 -0 8513.0635595150052 1:-4.0859628e-05 2:0.11278434 3:0.0752495 4:0.0013170224 5:0.11325054 6:0.074813847 7:0.0020781009 8:0.11184017 9:0.073276187 
0 64.078295938392458 0 0.12760239250454927 -0 8513.0635595150052 1:0.028537097 2:0.12875834 3:0.078361726 4:0.018845449 5:0.12255077 6:0.074771177 7:0.014847268 8:0.1166825 9:0.080427935 
0 64.078295938392458 32.274309596996048 0 -47779.519583726978 8513.0635595150052 1:0.0092977738 2:0.15888505 3:0.031271825 4:-0.0064173379 5:0.15683662 6:0.032512098 7:-0.018187428 8:0.15370794 9:0.026389133 
24.663472910384971 0 0 0 -47779.519583726978 0 1:0.065214355 2:0.1469331 3:0.022436622 4:0.078733888 5:0.16367429 6:-0.0045034854 7:0.074769488 8:0.1622414 9:-0.017425154 
24.663472910384971 0 0 0.12760239250454927 -47779.519583726978 0 1:0.061059057 2:0.097769861 3:0.039570455 4:0.060479102 5:0.10449232 6:0.02960234 7:0.059255951 8:0.10645255 9:0.030579012 
24.663472910384971 0 0 0.12760239250454927 -47779.519583726978 0 1:0.067003349 2:0.10862686 3:0.051036059 4:0.062348834 5:0.10541187 6:0.052943017 7:0.061416706 8:0.10639144 9:0.052669736 
24.663472910384971 64.078295938392458 32.274309596996048 0.12760239250454927 -47779.519583726978 8513.0635595150052 1:0.025482761 2:0.10455561 3:-0.013168004 4:0.021491358 5:0.10516556 6:-0.017042686 7:0.017950613 8:0.11073877 9:-0.020355149 
24.663472910384971 0 0 0.12760239250454927 -47779.519583726978 0 1:0.054180123 2:0.10646535 3:-0.017392946 4:0.055124687 5:0.10596042 6:-0.015754785 7:0.055229041 8:0.10465833 9:-0.017049891 
0 64.078295938392458 32.274309596996048 0 -47779.519583726978 8513.0635595150052 1:-0.015566082 2:0.15202858 3:0.0028432743 4:-0.012319298 5:0.14855701 6:0.003719729 7:-0.0069791715 8:0.14534388 9:0.0078684776 
24.663472910384971 0 0 0.12760239250454927 -47779.519583726978 6951.2543997778603 1:0.10282632 2:0.28095972 3:0.23016327 4:0.067958998 5:0.22977829 6:0.14941962 7:0.0030176658 8:0.13003426 9:0.048088543 
24.663472910384971 64.078295938392458 32.274309596996048 0 -47779.519583726978 8513.0635595150052 1:0.00083000345 2:0.16923599 3:-0.034612375 4:0.0030978193 5:0.15965079 6:-0.02871882 7:0.0063472877 8:0.15454752 9:-0.024058652 
24.663472910384971 0 0 0.12760239250454927 -0 0 1:0.061031117 2:0.028305092 3:0.068618864 4:0.049209921 5:0.040199311 6:0.091328051 7:0.025559691 8:0.080916539 9:0.18406385 
0 0 0 0.12760239250454927 -47779.519583726978 0 1:0.033733109 2:0.13331725 3:0.052639071 4:0.029735837 5:0.13348399 6:0.057819881 7:0.032173363 8:0.13504947 9:0.059009118 
0 0 0 0.12760239250454927 -47779.519583726978 0 1:0.033765931 2:0.099349469 3:0.0764332 4:0.043472458 5:0.10589193 6:0.065706129 7:0.052705781 8:0.11021695 9:0.061830217 
24.663472910384971 0 0 0.12760239250454927 -0 8513.0635595150052 1:0.018972134 2:0.050711221 3:0.083737248 4:0.021480145 5:0.049804601 6:0.08811961 7:0.021449026 8:0.047872068 9:0.088306946 
24.663472910384971 0 0 0 -47779.519583726978 0 1:0.057888889 2:0.11947895 3:-0.018547988 4:0.056448979 5:0.12406944 6:-0.017752154 7:0.0542918 8:0.12786008 9:-0.016741569 
0 64.078295938392458 32.274309596996048 0 -47779.519583726978 8513.0635595150052 1:0.0080758985 2:0.13488232 3:0.0041827323 4:0.0084384203 5:0.13673561 6:0.001024084 7:0.0097582558 8:0.13927447 9:-0.0031142032 
24.663472910384971 64.078295938392458 32.274309596996048 0 -47779.519583726978 8513.0635595150052 1:0.017298052 2:0.18922858 3:-0.014526973 4:0.009186831 5:0.18460088 6:-0.013104123 7:0.00043041059 8:0.17821599 9:-0.017473445 
24.663472910384971 0 0 0 -47779.519583726978 0 1:0.05581772 2:0.17774031 3:-0.0022529411 4:0.04878686 5:0.16235207 6:-0.0024679719 7:0.042572357 8:0.15368864 9:-0.0058490366 
0 64.078295938392458 32.274309596996048 0 -47779.519583726978 8513.0635595150052 1:-0.0078121448 2:0.20237747 3:0.0415682 4:-0.011273719 5:0.20179157 6:0.02224909 7:-0.013317364 8:0.19764577 9:0.012166165 
0 0 0 0.12760239250454927 -21070.482914345514 0 1:0.074507311 2:0.17981348 3:0.1262995 4:0.061025134 5:0.14846916 6:0.12072427 7:0.061542594 8:0.13540744 9:0.11491363 
24.663472910384971 0 0 0.12760239250454927 -46259.594465943032 8513.0635595150052 1:0.068521933 2:0.16440856 3:0.27433829 4:0.1856861 5:0.26869475 6:0.17127484 7:0.15278153 8:0.26028215 9:0.08263772 
0 64.078295938392458 32.274309596996048 0.12760239250454927 -0 8513.0635595150052 1:-0.032762673 2:0.13914353 3:0.065361482 4:-0.031812251 5:0.14238666 6:0.064427731 7:-0.044162774 8:0.13979851 9:0.075334751 
0 64.078295938392458 32.274309596996048 0 -47779.519583726978 8513.0635595150052 1:0.023195438 2:0.14506638 3:-0.021231019 4:0.01950025 5:0.1438429 6:-0.012306166 7:0.019090607 8:0.13693144 9:-0.0056843181 
24.663472910384971 64.078295938392458 32.274309596996048 0.12760239250454927 -47779.519583726978 8513.0635595150052 1:-0.0047508212 2:0.045125588 3:0.062467596 4:0.0011123949 5:0.043376597 6:0.068362781 7:0.01244571 8:0.046994304 9:0.067346047 
0 64.078295938392458 32.274309596996048 0.12760239250454927 -47779.519583726978 8513.0635595150052 1:0.0058744486 2:0.11852089 3:0.045977119 4:0.01396189 5:0.1230382 6:0.044592492 7:0.01842723 8:0.12594942 9:0.047565321 
0 0 0 0.12760239250454927 -47779.519583726978 8513.0635595150052 1:0.040272238 2:0.10752445 3:0.06151606 4:0.040502926 5:0.094004284 6:0.053621537 7:0.041121993 8:0.084439945 9:0.056058887 
0 64.078295938392458 32.274309596996048 0 -47779.519583726978 8513.0635595150052 1:0.022327796 2:0.14596662 3:0.016254258 4:0.025462105 5:0.15293768 6:0.0086141617 7:0.02518984 8:0.14684248 9:-0.0091185456 
0 64.078295938392458 0 0.12760239250454927 -0 8513.0635595150052 1:0.021436829 2:0.11981957 3:0.051328482 4:0.025837593 5:0.11845021 6:0.051572943 7:0.03080909 8:0.12367881 9:0.055508671 
24.663472910384971 0 0 0.12760239250454927 -47779.519583726978 0 1:0.081527555 2:0.081136487 3:0.035713786 4:0.092272536 5:0.084735938 6:0.035086316 7:0.091708579 8:0.085035292 9:0.031649578 
24.663472910384971 64.078295938392458 32.274309596996048 0 -47779.519583726978 8513.0635595150052 1:0.013963239 2:0.13466808 3:-0.025228355 4:0.014102003 5:0.1352462 6:-0.025514394 7:0.015248101 8:0.13564493 9:-0.025192605 
24.663472910384971 64.078295938392458 32.274309596996048 0.12760239250454927 -47779.519583726978 8513.0635595150052 1:0.019251739 2:0.12133643 3:0.0028411548 4:0.015837218 5:0.11775828 6:-0.0026981508 7:0.013498354 8:0.11404003 9:-0.011075658 
24.663472910384971 64.078295938392458 32.274309596996048 0 -47779.519583726978 8513.0635595150052 1:0.028029516 2:0.17654196 3:-0.018306828 4:0.026586811 5:0.16190311 6:-0.018579266 7:0.024482231 8:0.15067363 9:-0.017020059 
24.663472910384971 64.078295938392458 32.274309596996048 0 -28508.859096997039 8513.0635595150052 1:0.0030517794 2:0.1346007 3:-0.044859703 4:0.0034536258 5:0.15179772 6:-0.038549016 7:0.0082132748 8:0.15504227 9:-0.030500401 
0 0 0 0.12760239250454927 -47779.519583726978 8513.0635595150052 1:0.029092117 2:0.097013792 3:0.066528461 4:0.024813546 5:0.092788388 6:0.063631012 7:0.024885335 8:0.086890802 9:0.063064654 
24.663472910384971 0 0 0.12760239250454927 -47779.519583726978 0 1:0.057102302 2:0.11117101 3:-0.015540252 4:0.057266078 5:0.10846571 6:-0.01660231 7:0.056132452 8:0.10904114 9:-0.018262904 
0 64.078295938392458 32.274309596996048 0.12760239250454927 -47779.519583726978 8513.0635595150052 1:0.0077028704 2:0.12026436 3:0.013773065 4:0.0077571346 5:0.1173466 6:0.025611607 7:0.011646413 8:0.11745773 9:0.032560963 
24.663472910384971 64.078295938392458 32.274309596996048 0 -47779.519583726978 8513.0635595150052 1:0.015116376 2:0.13898793 3:-0.012379988 4:0.01288074 5:0.1406882 6:-0.015010825 7:0.0094667179 8:0.14035576 9:-0.014851746 
0 0 0 0.12760239250454927 -0 8513.0635595150052 1:0.029728393 2:0.061925157 3:0.085685292 4:0.035574158 5:0.06757146 6:0.089124046 7:0.039562984 8:0.07328216 9:0.089691243 
0 0 0 0.12760239250454927 -0 0 1:0.043639156 2:0.098694237 3:0.094337431 4:0.046920671 5:0.098532651 6:0.0908453 7:0.049938759 8:0.10113557 9:0.0807227 
0 0 0 0.12760239250454927 -0 0 1:0.031633915 2:0.088007989 3:0.075495461 4:0.031300432 5:0.086640708 6:0.076679326 7:0.040675096 8:0.098426149 9:0.064422873 
24.663472910384971 0 0 0.12760239250454927 -47779.519583726978 0 1:0.055335664 2:0.098808143 3:0.026571908 4:0.052720051 5:0.10141016 6:0.028832774 7:0.052630641 8:0.10139101 9:0.027709888 
24.663472910384971 64.078295938392458 32.274309596996048 0 -47779.519583726978 8513.0635595150052 1:0.031046452 2:0.12726411 3:-0.027989792 4:0.030575548 5:0.1221485 6:-0.020151056 7:0.033917503 8:0.12011051 9:-0.00367294 
0 64.078295938392458 32.274309596996048 0.12760239250454927 -0 8513.0635595150052 1:-0.018362237 2:0.077321973 3:0.084331874 4:-0.017312718 5:0.070411466 6:0.086944135 7:-0.0085633996 8:0.070418135 9:0.087718139 
24.663472910384971 0 0 0.12760239250454927 -47779.519583726978 0 1:0.096970281 2:0.12020525 3:0.027945959 4:0.094136671 5:0.12299993 6:0.028474617 7:0.086020408 8:0.12908272 9:0.033101891 
24.663472910384971 0 0 0.12760239250454927 -47779.519583726978 0 1:0.047530147 2:0.11629948 3:-0.010685974 4:0.050936503 5:0.11733356 6:-0.019018438 7:0.051915363 8:0.11377933 9:-0.013394462 
24.663472910384971 64.078295938392458 32.274309596996048 0 -47779.519583726978 8513.0635595150052 1:0.022476045 2:0.12845963 3:-0.013367791 4:0.019659392 5:0.13143864 6:-0.0099029663 7:0.018451684 8:0.13439658 9:-0.0060976646 
0 64.078295938392458 32.274309596996048 0.12760239250454927 -47779.519583726978 8513.0635595150052 1:0.021638649 2:0.10300771 3:0.0085526465 4:0.014503974 5:0.099673096 6:0.0091192862 7:0.010204533 8:0.10127562 9:0.014116011 
0 64.078295938392458 32.274309596996048 0.12760239250454927 -47779.519583726978 8513.0635595150052 1:0.0094451216 2:0.078193796 3:0.081473624 4:0.0028685314 5:0.071974594 6:0.078484965 7:0.0047526027 8:0.069853621 9:0.080149475 
0 64.078295938392458 32.274309596996048 0.12760239250454927 -47779.519583726978 8513.0635595150052 1:0.013074183 2:0.074392916 3:0.070034453 4:0.013648208 5:0.074340037 6:0.070668911 7:0.017802542 8:0.073289 9:0.07333578 
24.663472910384971 64.078295938392458 32.274309596996048 0.12760239250454927 -47779.519583726978 8513.0635595150052 1:0.028711855 2:0.11337276 3:-0.0013309543 4:0.022999027 5:0.11214275 6:-0.010525734 7:0.020123342 8:0.11576914 9:-0.017971849 
24.663472910384971 64.078295938392458 32.274309596996048 0 -47779.519583726978 8513.0635595150052 1:0.01802424 2:0.13017011 3:-0.011670643 4:0.019907706 5:0.12873597 6:-0.012025109 7:0.022887919 8:0.12888497 9:-0.014287489 
0 64.078295938392458 32.274309596996048 0.12760239250454927 -47779.519583726978 8513.0635595150052 1:-0.04197266 2:0.11216644 3:0.028731897 4:-0.037752171 5:0.11337292 6:0.035950549 7:-0.031759176 8:0.1146965 9:0.049354835 
24.663472910384971 0 0 0.12760239250454927 -47779.519583726978 1758.4222823180869 1:0.047474067 2:0.1006726 3:0.032764742 4:0.05612676 5:0.11688174 6:0.020259197 7:0.057349302 8:0.12860932 9:0.015612132 
0 64.078295938392458 32.274309596996048 0 -47779.519583726978 8513.0635595150052 1:0.012610813 2:0.12822316 3:0.0056305042 4:0.0099849588 5:0.1300004 6:0.0033562575 7:0.010088251 8:0.13217935 9:0.0016582228 
24.663472910384971 64.078295938392458 32.274309596996048 0 -0 8513.0635595150052 1:0.030903251 2:0.1560268 3:-0.028628518 4:0.02315986 5:0.16397876 6:-0.037794932 7:0.010399149 8:0.1699205 9:-0.039428 
24.663472910384971 0 0 0.12760239250454927 -42511.605260080476 7117.265064257349 1:0.023191723 2:0.031597413 3:0.09254214 4:0.028215971 5:0.029438783 6:0.087063036 7:0.032302657 8:0.026054709 9:0.081269806 
24.663472910384971 0 0 0.12760239250454927 -47779.519583726978 0 1:0.064948921 2:0.10613743 3:0.02417146 4:0.061596398 5:0.10258504 6:0.020420316 7:0.059141487 8:0.099080925 9:0.020161585 
0 64.078295938392458 32.274309596996048 0.12760239250454927 -47779.519583726978 8513.0635595150052 1:0.013183888 2:0.14199958 3:0.055282953 4:4.5821864e-05 5:0.13523254 6:0.053255918 7:-0.0087069183 8:0.12691558 9:0.050276376 
24.663472910384971 64.078295938392458 32.274309596996048 0.12760239250454927 -47779.519583726978 8513.0635595150052 1:0.014246957 2:0.091945525 3:0.010046493 4:0.010637824 5:0.097935442 6:0.0056754391 7:0.011177331 8:0.10441715 9:0.0051460012 
24.663472910384971 0 0 0.12760239250454927 -47779.519583726978 8513.0635595150052 1:0.061506234 2:0.071463206 3:0.075012553 4:0.048468498 5:0.069308669 6:0.054608779 7:0.024945639 8:0.066456045 9:0.059680816 
24.663472910384971 64.078295938392458 32.274309596996048 0.12760239250454927 -0 8513.0635595150052 1:-0.0099776507 2:0.04051735 3:0.0812768 4:-0.009643172 5:0.032225009 6:0.087104832 7:-0.024707622 8:0.02593162 9:0.092635977 
0 64.078295938392458 32.274309596996048 0.12760239250454927 -47779.519583726978 8513.0635595150052 1:0.01765158 2:0.13372178 3:0.03655466 4:0.0040918536 5:0.11926843 6:0.040975238 7:0.022448842 8:0.12510627 9:0.05040703 
24.663472910384971 0 0 0.12760239250454927 -47779.519583726978 8513.0635595150052 1:0.058326236 2:0.050232285 3:0.078629699 4:0.054977286 5:0.048608178 6:0.074033154 7:0.050596789 8:0.066839052 9:0.07376704 
24.663472910384971 0 0 0.12760239250454927 -47779.519583726978 8513.0635595150052 1:0.042115833 2:0.11529441 3:0.031598061 4:0.037230567 5:0.12288365 6:0.018331236 7:0.032310394 8:0.12990451 9:0.0095871557 
0 64.078295938392458 32.274309596996048 0.12760239250454927 -47779.519583726978 8513.0635595150052 1:0.013109103 2:0.099386627 3:0.033144149 4:0.00050108101 5:0.087623808 6:0.038456404 7:0.0040173789 8:0.08772548 9:0.040097638 
0 0 0 0.12760239250454927 -0 0 1:0.041894809 2:0.074063702 3:0.091655653 4:0.040421874 5:0.074000144 6:0.093208151 7:0.041375377 8:0.073984989 9:0.093221853 
24.663472910384971 64.078295938392458 32.274309596996048 0.12760239250454927 -47779.519583726978 8513.0635595150052 1:0.027571492 2:0.12266454 3:-0.021424028 4:0.025188475 5:0.11475587 6:-0.009279765 7:0.023574762 8:0.11243346 9:-0.0011254528 
0 64.078295938392458 32.274309596996048 0 -47779.519583726978 8513.0635595150052 1:-0.010947296 2:0.1857933 3:-0.016655936 4:-0.01782138 5:0.18895965 6:-0.021757751 7:-0.02672592 8:0.18535349 9:-0.024487741 
0 64.078295938392458 32.274309596996048 0.12760239250454927 -47779.519583726978 8513.0635595150052 1:-0.033773673 2:0.12140951 3:0.056317206 4:-0.027890468 5:0.1174687 6:0.066180575 7:-0.023014882 8:0.11624975 9:0.070765598 
24.663472910384971 64.078295938392458 32.274309596996048 0 -47779.519583726978 8513.0635595150052 1:0.045716085 2:0.11829287 3:-0.024852896 4:0.040459786 5:0.12171806 6:-0.029507866 7:0.031629996 8:0.13777752 9:-0.032451938 
24.663472910384971 64.078295938392458 32.274309596996048 0.12760239250454927 -47779.519583726978 8513.0635595150052 1:0.025834479 2:0.11784373 3:0.024317012 4:0.034338061 5:0.1213274 6:0.011365114 7:0.036760144 8:0.12785098 9:-0.0092356108 
0 0 0 0.12760239250454927 -47779.519583726978 0 1:0.038526844 2:0.12696388 3:0.055821704 4:0.04916058 5:0.12035365 6:0.045667425 7:0.058217658 8:0.11828458 9:0.040832288 
0 0 0 0.12760239250454927 -47779.519583726978 0 1:0.038539623 2:0.071988226 3:0.078908609 4:0.035041277 5:0.073407042 6:0.079730235 7:0.035878341 8:0.075236283 9:0.081346457 
0 64.078295938392458 32.274309596996048 0 -47779.519583726978 8513.0635595150052 1:0.010074029 2:0.13011787 3:0.0054435796 4:0.010291181 5:0.12785385 6:0.0053884686 7:0.011909809 8:0.12565492 9:0.0048496331 
0 64.078295938392458 32.274309596996048 0.12760239250454927 -47779.519583726978 8513.0635595150052 1:0.00096924707 2:0.12326273 3:0.008825488 4:0.0076797268 5:0.12135219 6:0.0087960597 7:0.0096244539 8:0.11879042 9:0.007384235 
24.663472910384971 64.078295938392458 32.274309596996048 0 -0 8513.0635595150052 1:-0.0029329857 2:0.10179611 3:-0.067156713 4:-0.0017675708 5:0.11943689 6:-0.057500989 7:-0.004030167 8:0.13009246 9:-0.047287568 
0 64.078295938392458 32.274309596996048 0.12760239250454927 -47779.519583726978 8513.0635595150052 1:0.013921225 2:0.1052729 3:0.010419049 4:0.010806559 5:0.10533759 6:0.0084521044 7:0.015920676 8:0.10644479 9:0.0037102996 
0 64.078295938392458 32.274309596996048 0.12760239250454927 -47779.519583726978 8513.0635595150052 1:0.015232829 2:0.12380042 3:0.025427693 4:0.01787239 5:0.11783989 6:0.030968689 7:0.023105131 8:0.11453851 9:0.03455281 
24.663472910384971 64.078295938392458 32.274309596996048 0 -47779.519583726978 8513.0635595150052 1:0.014084874 2:0.13354969 3:-0.014315316 4:0.0133953 5:0.13584994 6:-0.014848608 7:0.013592033 8:0.13805484 9:-0.014630609 
0 0 0 0.12760239250454927 -0 0 1:0.034640925 2:0.067933699 3:0.088797812 4:0.033830821 5:0.065233656 6:0.090227264 7:0.032392858 8:0.062268166 9:0.092522319 
24.663472910384971 0 32.274309596996048 0 -0 0 1:0.040412046 2:0.15060534 3:-0.05022679 4:0.044331792 5:0.15334336 6:-0.041755674 7:0.042807622 8:0.15068297 9:-0.028921272 
24.663472910384971 64.078295938392458 32.274309596996048 0 -47779.519583726978 8513.0635595150052 1:0.029019417 2:0.12576465 3:-0.01315276 4:0.030138664 5:0.12811722 6:-0.0073340641 7:0.034693307 8:0.13039716 9:-0.0014369782 
24.663472910384971 0 0 0.12760239250454927 -0 0 1:0.087392905 2:0.059171866 3:0.1004632 4:0.08870181 5:0.086921258 6:0.12383477 7:0.10115155 8:0.14240772 9:0.16732063 
24.663472910384971 64.078295938392458 32.274309596996048 0 -47779.519583726978 8513.0635595150052 1:0.018585379 2:0.1213046 3:0.0038573478 4:0.015840229 5:0.12488456 6:-0.0056169068 7:0.019574026 8:0.12828474 9:-0.013825378 
0 64.078295938392458 32.274309596996048 0.12760239250454927 -47779.519583726978 8513.0635595150052 1:-0.0070769424 2:0.12730309 3:0.061487948 4:0.0016908488 5:0.12460528 6:0.061710928 7:0.0060102564 8:0.11752863 9:0.061710147 
0 0 0 0.12760239250454927 -47779.519583726978 0 1:0.049328103 2:0.10221152 3:0.076939284 4:0.064077062 5:0.10558778 6:0.069493624 7:0.075098052 8:0.10831262 9:0.058864588 
24.663472910384971 0 0 0.12760239250454927 -0 0 1:0.041703924 2:0.06727091 3:0.10497603 4:0.046041176 5:0.067349688 6:0.10481007 7:0.049367171 8:0.067108411 9:0.10548968 
0 64.078295938392458 32.274309596996048 0.12760239250454927 -0 8513.0635595150052 1:0.019332962 2:0.12540764 3:0.036794247 4:0.014603412 5:0.12172286 6:0.042420629 7:0.010142449 8:0.12399319 9:0.056021932 
0 0 0 0.12760239250454927 -0 0 1:0.018611951 2:0.070902713 3:0.09738756 4:0.020678378 5:0.069628592 6:0.098914367 7:0.022570114 8:0.066406777 9:0.10222174 
24.663472910384971 0 0 0.12760239250454927 -11893.901820082248 0 1:0.082285558 2:0.092850701 3:0.13195625 4:0.1376817 5:0.16796483 6:0.16513358 7:0.15289459 8:0.20412354 9:0.12775278 
24.663472910384971 0 0 0 -47779.519583726978 0 1:0.052369397 2:0.12434026 3:-0.027148084 4:0.054186946 5:0.12370032 6:-0.026308161 7:0.055296626 8:0.12092076 9:-0.024682647 
24.663472910384971 0 0 0 -47779.519583726978 0 1:0.046621242 2:0.13979658 3:-0.0307425 4:0.046856799 5:0.14163303 6:-0.030587343 7:0.04696109 8:0.14243317 9:-0.031575211 
24.663472910384971 0 0 0.12760239250454927 -47779.519583726978 0 1:0.055578565 2:0.10626664 3:0.036274687 4:0.060428362 5:0.10518332 6:0.039892436 7:0.063083538 8:0.10667164 9:0.037004107 
24.663472910384971 0 0 0.12760239250454927 -47779.519583726978 0 1:0.059807593 2:0.1013889 3:0.040902362 4:0.054594493 5:0.10482832 6:0.035873916 7:0.048069225 8:0.10955423 9:0.031090597 
0 0 0 0.12760239250454927 -0 0 1:0.066505408 2:0.11987047 3:0.064309197 4:0.064611135 5:0.12264705 6:0.033461489 7:0.044773116 8:0.11220278 9:0.057496568 
24.663472910384971 0 0 0.12760239250454927 -47779.519583726978 8513.0635595150052 1:0.083503298 2:0.22094158 3:0.071705699 4:0.052219663 5:0.16050701 6:0.022887412 7:0.029507145 8:0.11194626 9:0.03720553 
0 64.078295938392458 32.274309596996048 0.12760239250454927 -0 8513.0635595150052 1:-7.4448336e-05 2:0.13033173 3:0.03785582 4:-0.0034310654 5:0.13396684 6:0.040355384 7:-0.0052692071 8:0.1379365 9:0.034765707 
0 64.078295938392458 32.274309596996048 0.12760239250454927 -47779.519583726978 8513.0635595150052 1:0.028056366 2:0.12329716 3:0.0028147376 4:0.026304171 5:0.12240972 6:0.0062908665 7:0.022695148 8:0.12333899 9:0.0061637968 
24.663472910384971 0 0 0 -0 0 1:0.069099992 2:0.14639543 3:-0.026719176 4:0.071912794 5:0.15357759 6:-0.034432185 7:0.069548638 8:0.15642379 9:-0.036638395 
24.663472910384971 0 0 0 -44863.575293995898 0 1:0.072934562 2:0.1209006 3:-0.039260275 4:0.076875839 5:0.12011175 6:-0.035174978 7:0.078667033 8:0.11399225 9:-0.034352401 
24.663472910384971 0 0 0.12760239250454927 -47779.519583726978 8513.0635595150052 1:0.044015296 2:0.0903223 3:0.035054141 4:0.03985122 5:0.091248339 6:0.032626362 7:0.036834757 8:0.095499883 9:0.026067962 
0 0 0 0.12760239250454927 -0 0 1:0.037157689 2:0.10652644 3:0.069347299 4:0.029767807 5:0.10266988 6:0.068164497 7:0.025791281 8:0.1000795 9:0.071290469 
24.663472910384971 64.078295938392458 32.274309596996048 0 -47779.519583726978 8513.0635595150052 1:0.019738951 2:0.15795861 3:-0.014396002 4:0.02297627 5:0.16704807 6:-0.0180908 7:0.0220682 8:0.17458435 9:-0.021607552 
0 64.078295938392458 32.274309596996048 0 -47779.519583726978 8513.0635595150052 1:0.022907295 2:0.14492178 3:0.022052173 4:0.02083628 5:0.14214306 6:0.022811798 7:0.016995833 8:0.13600398 9:0.018603848 
0 64.078295938392458 32.274309596996048 0.12760239250454927 -0 8513.0635595150052 1:0.007934238 2:0.12810811 3:0.075437849 4:0.0081040542 5:0.12825694 6:0.075405738 7:0.0059501627 8:0.12957889 9:0.069266659 
24.663472910384971 64.078295938392458 32.274309596996048 0 -47779.519583726978 8513.0635595150052 1:0.031635132 2:0.15105855 3:-0.01854227 4:0.032625576 5:0.14595109 6:-0.017952351 7:0.030731435 8:0.1407705 9:-0.0132895 
0 0 0 0.12760239250454927 -47779.519583726978 8513.0635595150052 1:0.039615518 2:0.14848545 3:0.12588122 4:0.050170843 5:0.202082 6:0.17386522 7:0.065336727 8:0.22717221 9:0.18087616 
0 64.078295938392458 32.274309596996048 0.12760239250454927 -0 8513.0635595150052 1:0.014970916 2:0.1239204 3:0.044263534 4:0.020008763 5:0.12205713 6:0.042084526 7:0.026576105 8:0.12423737 9:0.043768117 
0 64.078295938392458 32.274309596996048 0 -47779.519583726978 8513.0635595150052 1:-0.01904548 2:0.12330138 3:0.0051084291 4:-0.018047153 5:0.12937359 6:0.0030817839 7:-0.011166964 8:0.13486075 9:0.0015797014 
24.663472910384971 0 0 0.12760239250454927 -47779.519583726978 0 1:0.054793408 2:0.11183527 3:-0.012015552 4:0.05816451 5:0.11230349 6:-0.011871136 7:0.059750071 8:0.11532886 9:-0.018516155 
0 64.078295938392458 32.274309596996048 0 -47779.519583726978 8513.0635595150052 1:0.0032265159 2:0.12371282 3:-0.0063513068 4:0.004226965 5:0.13030994 6:-0.0048145342 7:0.0091080305 8:0.13276464 9:0.00025040303 
24.663472910384971 64.078295938392458 32.274309596996048 0 -47779.519583726978 8513.0635595150052 1:0.03107612 2:0.14592769 3:-0.009355945 4:0.032354442 5:0.14629894 6:-0.0099987447 7:0.03221098 8:0.1429561 9:-0.01052253 
24.663472910384971 0 0 0.12760239250454927 -47779.519583726978 8513.0635595150052 1:0.039799338 2:0.10922622 3:0.013650088 4:0.034683428 5:0.10170224 6:0.0092073559 7:0.02973991 8:0.099881999 9:0.0088275969 
24.663472910384971 64.078295938392458 32.274309596996048 0 -47779.519583726978 8513.0635595150052 1:0.020875326 2:0.13018187 3:-0.013858834 4:0.021256428 5:0.12865697 6:-0.019155477 7:0.021180051 8:0.12946478 9:-0.027222001 
24.663472910384971 0 0 0.12760239250454927 -47779.519583726978 0 1:0.030387627 2:0.1284865 3:-0.0044995655 4:0.03132138 5:0.12460976 6:-0.0026487346 7:0.049051119 8:0.11935129 9:-0.0031063864 
24.663472910384971 0 0 0 -0 0 1:0.057863617 2:0.13545196 3:-0.037924504 4:0.056070414 5:0.1366106 6:-0.037153963 7:0.049990862 8:0.13513045 9:-0.034698598 
24.663472910384971 0 0 0.12760239250454927 -47779.519583726978 0 1:0.059777745 2:0.11372361 3:0.01133723 4:0.063295561 5:0.11259609 6:0.0068458189 7:0.058288311 8:0.10657592 9:0.0055066242 
24.663472910384971 0 0 0.12760239250454927 -47779.519583726978 0 1:0.030548731 2:0.11857698 3:-0.0049403179 4:0.033718012 5:0.12400415 6:-0.0026800599 7:0.04523929 8:0.12408092 9:0.0019246057 
0 64.078295938392458 0 0.12760239250454927 -0 8513.0635595150052 1:0.026281127 2:0.12906496 3:0.040477005 4:0.022905042 5:0.13170866 6:0.048726947 7:0.021063437 8:0.13770554 9:0.052370097 
24.663472910384971 64.078295938392458 32.274309596996048 0 -47779.519583726978 8513.0635595150052 1:0.030475041 2:0.12985481 3:-0.030962458 4:0.030725784 5:0.12724195 6:-0.023720809 7:0.027393855 8:0.12114226 9:-0.015122726 
0 64.078295938392458 32.274309596996048 0.12760239250454927 -47779.519583726978 8513.0635595150052 1:0.022848441 2:0.12005098 3:0.036342045 4:0.023953915 5:0.11823668 6:0.034457412 7:0.027932564 8:0.1211436 9:0.033082683 
0 64.078295938392458 32.274309596996048 0.12760239250454927 -47779.519583726978 8513.0635595150052 1:-0.0084637796 2:0.11249806 3:0.052356357 4:-0.0061510963 5:0.10914671 6:0.054870086 7:0.00037462681 8:0.10932084 9:0.059460869 
24.663472910384971 0 0 0.12760239250454927 -47779.519583726978 0 1:0.029464067 2:0.027124691 3:0.090046326 4:0.032150619 5:0.023650359 6:0.085508531 7:0.036806801 8:0.024132632 9:0.084026932 
0 0 0 0.12760239250454927 -47779.519583726978 0 1:0.050318961 2:0.15023155 3:0.061864765 4:0.050176172 5:0.13992642 6:0.067332676 7:0.05468274 8:0.1269244 9:0.064387827 
24.663472910384971 64.078295938392458 32.274309596996048 0 -47779.519583726978 8513.0635595150052 1:0.030537869 2:0.14801372 3:-0.0047422292 4:0.034507228 5:0.14536945 6:-0.013360623 7:0.031666621 8:0.14114596 9:-0.021572233 
0 64.078295938392458 32.274309596996048 0 -47779.519583726978 8513.0635595150052 1:0.0025180979 2:0.14073475 3:-0.017421365 4:0.0022143259 5:0.13877497 6:-0.018368999 7:0.0011382797 8:0.13663631 9:-0.018670757 
24.663472910384971 0 0 0.12760239250454927 -47779.519583726978 8513.0635595150052 1:0.058462458 2:0.069357431 3:0.030063046 4:0.062430862 5:0.067190895 6:0.025565699 7:0.066630976 8:0.067773145 9:0.01958821 
0 0 0 0.12760239250454927 -47779.519583726978 0 1:0.050474158 2:0.1166348 3:0.053363503 4:0.048092483 5:0.10246343 6:0.045165316 7:0.049051635 8:0.090305179 9:0.036267988 
24.663472910384971 0 32.274309596996048 0.12760239250454927 -47779.519583726978 8513.0635595150052 1:0.03418561 2:0.11535405 3:-0.0061348437 4:0.04033454 5:0.11690245 6:-0.012956567 7:0.043467397 8:0.1193244 9:-0.018159488 
0 64.078295938392458 32.274309596996048 0.12760239250454927 -0 8513.0635595150052 1:-0.053759749 2:0.11776889 3:0.051162465 4:-0.048426966 5:0.11192045 6:0.048924536 7:-0.038186413 8:0.1108759 9:0.054167624 
24.663472910384971 0 32.274309596996048 0 -47779.519583726978 8513.0635595150052 1:0.035715361 2:0.12600155 3:-0.02356301 4:0.037030777 5:0.12956581 6:-0.024467226 7:0.045910588 8:0.12695008 9:-0.012887589 
24.663472910384971 0 0 0.12760239250454927 -47779.519583726978 0 1:0.05227995 2:0.11582694 3:-0.001161334 4:0.048024378 5:0.11172155 6:-0.0086504117 7:0.041800978 8:0.11134653 9:-0.0098107811 
24.663472910384971 0 0 0.12760239250454927 -47779.519583726978 0 1:0.053887397 2:0.11585478 3:-0.010297161 4:0.048979802 5:0.1175306 6:-0.0028191049 7:0.049054728 8:0.11574332 9:0.0049016776 
24.663472910384971 64.078295938392458 32.274309596996048 0 -0 8513.0635595150052 1:0.019872044 2:0.20059812 3:-0.011645394 4:0.025132827 5:0.18387808 6:-0.041999547 7:0.022540776 8:0.1734894 9:-0.038607354 
0 64.078295938392458 32.274309596996048 0 -47779.519583726978 8513.0635595150052 1:0.00077740502 2:0.13977445 3:-0.01348048 4:0.00074999226 5:0.13320996 6:-0.010305444 7:-0.0003400424 8:0.12700493 9:-0.0066895974 
0 64.078295938392458 32.274309596996048 0 -47779.519583726978 8513.0635595150052 1:-0.01666963 2:0.13572062 3:-0.0076507642 4:-0.012420384 5:0.13406366 6:-0.0011800445 7:-0.0088229458 8:0.1330293 9:0.0038138862 
0 64.078295938392458 32.274309596996048 0.12760239250454927 -47779.519583726978 8513.0635595150052 1:0.0026477692 2:0.12838154 3:0.015796607 4:0.0087884708 5:0.12500998 6:0.018191427 7:0.014299301 8:0.12355065 9:0.016378967 
24.663472910384971 0 0 0.12760239250454927 -47779.519583726978 0 1:0.053498657 2:0.10974047 3:0.0088676942 4:0.05124613 5:0.11768496 6:0.0095707579 7:0.04955487 8:0.1237225 9:0.010156151 
24.663472910384971 0 0 0.12760239250454927 -47779.519583726978 0 1:0.053179359 2:0.11953512 3:-0.0078309749 4:0.044335645 5:0.12150854 6:-0.0064781808 7:0.037412885 8:0.12472761 9:-0.004106358 
24.663472910384971 0 0 0.12760239250454927 -47779.519583726978 0 1:0.07215077 2:0.091996731 3:0.045648745 4:0.061575783 5:0.077297119 6:0.037229487 7:0.052006678 8:0.070382021 9:0.029549156 
0 64.078295938392458 32.274309596996048 0 -47779.519583726978 8513.0635595150052 1:-0.0004562216 2:0.15265164 3:-0.02115852 4:-0.0042604626 5:0.14979095 6:-0.014032527 7:-0.0083951135 8:0.14464162 9:-0.0073137084 
24.663472910384971 0 0 0.12760239250454927 -47779.519583726978 1278.8958112426085 1:0.095508054 2:0.081056684 3:0.035585761 4:0.10030324 5:0.082168655 6:0.035679093 7:0.097741004 8:0.085722675 9:0.036925021 
24.663472910384971 0 0 0 -47779.519583726978 0 1:0.045118781 2:0.13975148 3:-0.026858691 4:0.040230052 5:0.13700393 6:-0.023308588 7:0.043300521 8:0.13045443 9:-0.01713062 
24.663472910384971 64.078295938392458 32.274309596996048 0 -47779.519583726978 8513.0635595150052 1:0.011235824 2:0.11771673 3:-0.01447933 4:0.012419646 5:0.12049891 6:-0.0089090141 7:0.013793705 8:0.12641954 9:-0.0048745178 
0 64.078295938392458 32.274309596996048 0 -0 8513.0635595150052 1:0.017994296 2:0.14626625 3:0.019352508 4:0.018269203 5:0.15123518 6:0.02623337 7:0.014242436 8:0.15402884 9:0.030451672 
24.663472910384971 64.078295938392458 32.274309596996048 0 -0 8513.0635595150052 1:-0.0032259089 2:0.16548807 3:-0.050665755 4:-0.016867663 5:0.17443105 6:-0.04109072 7:-0.029508407 8:0.18075673 9:-0.026528745 
0 0 0 0.12760239250454927 -47779.519583726978 8513.0635595150052 1:0.023410119 2:0.13458724 3:0.072205565 4:0.032053634 5:0.13024618 6:0.06349429 7:0.032814882 8:0.12418426 9:0.065859467 
24.663472910384971 0 0 0.12760239250454927 -47779.519583726978 8513.0635595150052 1:0.045215252 2:0.086778975 3:-0.0079868581 4:0.05561516 5:0.091257282 6:0.0015485064 7:0.07201103 8:0.10361455 9:-0.012729551 
0 64.078295938392458 32.274309596996048 0 -47779.519583726978 8513.0635595150052 1:0.013121411 2:0.13241584 3:-0.0064462627 4:0.0087763209 5:0.13668303 6:-0.011108162 7:0.0058386384 8:0.14064725 9:-0.014052839 
24.663472910384971 0 0 0.12760239250454927 -47779.519583726978 0 1:0.048316519 2:0.033222798 3:0.083956988 4:0.052164108 5:0.035078956 6:0.080581468 7:0.052492936 8:0.035579634 9:0.074320305 
24.663472910384971 64.078295938392458 0 0 -47779.519583726978 8513.0635595150052 1:0.043918555 2:0.17059276 3:-0.01251438 4:0.040125228 5:0.17360459 6:-0.011964913 7:0.039217831 8:0.1742841 9:-0.0061730262 
24.663472910384971 0 0 0.12760239250454927 -47779.519583726978 0 1:0.065645862 2:0.10424232 3:-0.0045864575 4:0.070157019 5:0.10578894 6:-0.003585943 7:0.065055483 8:0.10492994 9:-0.0035087221 
0 64.078295938392458 32.274309596996048 0.12760239250454927 -47779.519583726978 8513.0635595150052 1:0.0018822965 2:0.10372517 3:0.014515661 4:0.00076690428 5:0.10388097 6:0.015226326 7:-0.0024511223 8:0.10778192 9:0.021796421 
0 64.078295938392458 32.274309596996048 0.12760239250454927 -47779.519583726978 8513.0635595150052 1:-0.0095968638 2:0.12827498 3:0.061915673 4:-0.013790826 5:0.13052607 6:0.06075552 7:-0.020540589 8:0.1274976 9:0.047368122 
0 0 0 0.12760239250454927 -0 7590.7402970106741 1:0.031187489 2:0.13336466 3:0.13447866 4:0.02814881 5:0.14554384 6:0.13749032 7:0.027593691 8:0.13395971 9:0.13117385 
24.663472910384971 0 0 0.12760239250454927 -0 0 1:0.036579002 2:0.056732886 3:0.093554299 4:0.051934058 5:0.054985005 6:0.092508071 7:0.054310688 8:0.050040424 9:0.085172138 
24.663472910384971 0 0 0.12760239250454927 -0 1561.8091597371447 1:0.086093503 2:0.15483324 3:0.17053066 4:0.091962357 5:0.20200769 6:0.18800524 7:0.065201741 8:0.19442626 9:0.15803745 
24.663472910384971 0 0 0.12760239250454927 -47779.519583726978 8513.0635595150052 1:0.016831857 2:0.044892887 3:0.086774188 4:0.020947471 5:0.041845652 6:0.085991558 7:0.024829366 8:0.040167496 9:0.08594518 
0 64.078295938392458 0 0.12760239250454927 -0 8513.0635595150052 1:0.021633248 2:0.10023836 3:0.075917398 4:0.023549039 5:0.10266451 6:0.077597129 7:0.02607736 8:0.10436489 9:0.072504777 
24.663472910384971 0 0 0.12760239250454927 -47779.519583726978 0 1:0.050159034 2:0.11357543 3:-0.0067254909 4:0.044934629 5:0.11102488 6:-0.0072099941 7:0.042385714 8:0.11152394 9:-0.0068812111 
24.663472910384971 0 0 0 -47779.519583726978 0 1:0.12681545 2:0.18296654 3:0.0065798916 4:0.1090888 5:0.20019353 6:0.0068531741 7:0.094936645 8:0.216578 9:0.010813589 
0 64.078295938392458 32.274309596996048 0 -47779.519583726978 8513.0635595150052 1:0.0050261303 2:0.12796072 3:-0.0088520398 4:0.005580968 5:0.13994451 6:-0.0063095561 7:0.0083411682 8:0.15103756 9:-0.012231762 
0 64.078295938392458 0 0.12760239250454927 -0 8513.0635595150052 1:0.038912902 2:0.15119358 3:0.044442834 4:0.030199443 5:0.14716435 6:0.049036868 7:0.020000577 8:0.14274625 9:0.040884679 
24.663472910384971 64.078295938392458 32.274309596996048 0 -36508.103154762255 8513.0635595150052 1:0.033869278 2:0.15219324 3:-0.028807951 4:0.030198929 5:0.16198306 6:-0.032494694 7:0.029004258 8:0.17195111 9:-0.033996103 
0 64.078295938392458 32.274309596996048 0 -47779.519583726978 8513.0635595150052 1:-0.017570015 2:0.16703334 3:0.010484458 4:-0.019911607 5:0.15936492 6:0.0078890502 7:-0.020742953 8:0.15698166 9:0.005622144 
24.663472910384971 0 0 0.12760239250454927 -47779.519583726978 0 1:0.061766454 2:0.11563381 3:-0.012016504 4:0.054141017 5:0.11826896 6:-0.0092810335 7:0.048248867 8:0.11895193 9:-0.0055292184 
24.663472910384971 0 0 0.12760239250454927 -47779.519583726978 0 1:0.068484885 2:0.1019182 3:0.004530256 4:0.066400657 5:0.10183645 6:0.0092368074 7:0.06382896 8:0.10593506 9:0.01396406 
0 64.078295938392458 32.274309596996048 0.12760239250454927 -0 8513.0635595150052 1:0.0087722686 2:0.1206555 3:0.060525079 4:0.0049688045 5:0.12475949 6:0.066489968 7:0.0032425757 8:0.13084245 9:0.063295218 
24.663472910384971 64.078295938392458 32.274309596996048 0 -47779.519583726978 8513.0635595150052 1:0.025525814 2:0.13971459 3:-0.013618293 4:0.028101928 5:0.14182204 6:-0.015466894 7:0.029190621 8:0.14111148 9:-0.019096056 
0 64.078295938392458 32.274309596996048 0 -47779.519583726978 8513.0635595150052 1:-0.0020514418 2:0.14457863 3:-0.019689332 4:0.0030532325 5:0.14108151 6:-0.019319144 7:0.0083893307 8:0.14011587 9:-0.016967633 
24.663472910384971 0 0 0.12760239250454927 -47779.519583726978 0 1:0.053042166 2:0.09693235 3:0.029287393 4:0.058009353 5:0.097631884 6:0.033391943 7:0.062677467 8:0.098438774 9:0.031962662 
24.663472910384971 0 0 0.12760239250454927 -47779.519583726978 0 1:0.071286118 2:0.11253361 3:0.012276158 4:0.069102018 5:0.10974992 6:0.016867443 7:0.065633168 8:0.1078349 9:0.019939861 
0 64.078295938392458 32.274309596996048 0 -47779.519583726978 8513.0635595150052 1:-0.036208317 2:0.16579616 3:-0.0032923784 4:-0.029585951 5:0.15019775 6:-0.0035011953 7:-0.025847107 8:0.14218683 9:-0.0094265843 
24.663472910384971 64.078295938392458 32.274309596996048 0 -47779.519583726978 8513.0635595150052 1:0.011489748 2:0.12117816 3:-0.02507517 4:0.010508484 5:0.12931188 6:-0.024877484 7:0.006955027 8:0.13890917 9:-0.025829534 
24.663472910384971 64.078295938392458 32.274309596996048 0 -47779.519583726978 8513.0635595150052 1:-0.018569487 2:0.18483876 3:-0.021338385 4:-0.026526111 5:0.1716959 6:-0.030080385 7:-0.035061915 8:0.15941374 9:-0.035834506 
24.663472910384971 64.078295938392458 32.274309596996048 0.12760239250454927 -47779.519583726978 8513.0635595150052 1:0.029939569 2:0.11772713 3:-0.00030761798 4:0.028031548 5:0.12607576 6:-0.0023833343 7:0.029159804 8:0.13127812 9:-0.0036547702 
0 64.078295938392458 32.274309596996048 0 -47779.519583726978 8513.0635595150052 1:-0.00253753 2:0.15526886 3:0.01646371 4:0.0024030222 5:0.1557362 6:0.026801512 7:0.0052096101 8:0.14982646 9:0.028532226 
0 64.078295938392458 32.274309596996048 0.12760239250454927 -47779.519583726978 8513.0635595150052 1:-0.025991022 2:0.12998596 3:0.013504709 4:-0.0081117579 5:0.12827662 6:0.033786503 7:-0.00348364 8:0.12313436 9:0.043377822 
24.663472910384971 0 0 0.12760239250454927 -47779.519583726978 0 1:0.048142955 2:0.11844031 3:-0.018661675 4:0.048667128 5:0.12057266 6:-0.013662763 7:0.049997207 8:0.12173504 9:-0.011051958 
0 64.078295938392458 32.274309596996048 0.12760239250454927 -47779.519583726978 8513.0635595150052 1:0.013584125 2:0.11128549 3:0.033406666 4:0.010110227 5:0.10506162 6:0.049221777 7:0.0066941255 8:0.10461675 9:0.048825733 
0 64.078295938392458 0 0.12760239250454927 -47779.519583726978 8513.0635595150052 1:0.027524109 2:0.10486269 3:0.053823348 4:0.020291293 5:0.096698768 6:0.058150982 7:0.0095313719 8:0.088710313 9:0.063289221 
24.663472910384971 0 0 0.12760239250454927 -47779.519583726978 0 1:0.057480978 2:0.084911121 3:0.026911824 4:0.062895965 5:0.088725044 6:0.027225167 7:0.067102573 8:0.094866024 9:0.025568493 
0 64.078295938392458 32.274309596996048 0.12760239250454927 -47779.519583726978 8513.0635595150052 1:0.022075016 2:0.12193149 3:0.013802667 4:0.023853845 5:0.12090133 6:0.014507961 7:0.025688738 8:0.12098796 9:0.016281247 
24.663472910384971 64.078295938392458 32.274309596996048 0.12760239250454927 -47779.519583726978 8513.0635595150052 1:-0.014814193 2:0.049993876 3:0.059175729 4:-0.0045351624 5:0.043916927 6:0.060373369 7:-0.023370288 8:0.026362852 9:0.067698954 
0 64.078295938392458 32.274309596996048 0.12760239250454927 -47779.519583726978 8513.0635595150052 1:0.023872906 2:0.13525756 3:0.011747993 4:0.026332906 5:0.13179938 6:0.0081046675 7:0.028933576 8:0.12952993 9:0.0068317147 
0 64.078295938392458 0 0.12760239250454927 -47779.519583726978 8513.0635595150052 1:0.017090791 2:0.097176509 3:0.077210769 4:0.014821481 5:0.087221346 6:0.089340762 7:0.028009785 8:0.084554909 9:0.070532337 
24.663472910384971 0 0 0.12760239250454927 -47779.519583726978 0 1:0.065033592 2:0.10573695 3:0.022940127 4:0.064440316 5:0.10288207 6:0.017629776 7:0.06842949 8:0.10377654 9:0.018227361 
24.663472910384971 64.078295938392458 32.274309596996048 0 -47779.519583726978 8513.0635595150052 1:0.038574663 2:0.18957752 3:-0.012937468 4:0.032784465 5:0.19553083 6:-0.015812266 7:0.028416725 8:0.20444643 9:-0.016556346 
0 0 0 0.12760239250454927 -20102.317755291067 8513.0635595150052 1:0.046558638 2:0.24522062 3:0.16070171 4:0.051174238 5:0.23686345 6:0.14974731 7:0.03156268 8:0.15566068 9:0.15209006 
24.663472910384971 0 0 0.12760239250454927 -47779.519583726978 0 1:0.077462292 2:0.10303625 3:0.01781592 4:0.072119478 5:0.10319986 6:0.01547292 7:0.058240302 8:0.10075517 9:0.0060942924 
0 64.078295938392458 32.274309596996048 0 -47779.519583726978 8513.0635595150052 1:0.011089437 2:0.13122804 3:-0.0081680093 4:0.0091762622 5:0.13259722 6:-0.0040520481 7:0.0096454336 8:0.13197205 9:-0.0043395378 
24.663472910384971 0 0 0.12760239250454927 -47779.519583726978 0 1:0.043341152 2:0.10721993 3:0.02488766 4:0.045631788 5:0.10594229 6:0.024262205 7:0.048659731 8:0.10377122 9:0.023549351 
24.663472910384971 0 0 0.12760239250454927 -47779.519583726978 335.96032804480393 1:0.036801215 2:0.1168197 3:-0.00063814791 4:0.042858936 5:0.11789967 6:-0.0072407453 7:0.042922664 8:0.11711675 9:-0.0038615215 
0 0 0 0.12760239250454927 -47779.519583726978 8513.0635595150052 1:0.022255687 2:0.123595 3:0.004238841 4:0.033863237 5:0.121317 6:0.012452681 7:0.046325197 8:0.11779757 9:0.013846988 
24.663472910384971 64.078295938392458 32.274309596996048 0 -47779.519583726978 8513.0635595150052 1:0.010522493 2:0.1242614 3:-0.024322387 4:0.0041868999 5:0.12235228 6:-0.025363742 7:-0.0011207662 8:0.12210766 9:-0.018822016 
0 0 0 0.12760239250454927 -47779.519583726978 0 1:0.04788091 2:0.097018916 3:0.087529826 4:0.048997514 5:0.097232889 6:0.08803828 7:0.049038463 8:0.10178983 9:0.085200643 
0 0 0 0.12760239250454927 -47779.519583726978 0 1:0.048925468 2:0.10155066 3:0.075445721 4:0.0492214 5:0.10832666 6:0.082206509 7:0.053023347 8:0.12125719 9:0.080926735 
24.663472910384971 64.078295938392458 32.274309596996048 0.12760239250454927 -47779.519583726978 8513.0635595150052 1:0.033184015 2:0.10822279 3:-0.0096284714 4:0.029177951 5:0.10966701 6:-0.0067499278 7:0.024028408 8:0.11403387 9:-0.0032412301 
24.663472910384971 0 0 0.12760239250454927 -47779.519583726978 0 1:0.052427952 2:0.10479508 3:0.010149642 4:0.05645383 5:0.10733234 6:0.0014897346 7:0.062456722 8:0.10611601 9:0.0022113142 
24.663472910384971 0 0 0.12760239250454927 -47779.519583726978 0 1:0.054020403 2:0.10920585 3:0.034211502 4:0.052451128 5:0.11439836 6:0.032434186 7:0.050069235 8:0.11935608 9:0.030511505 
24.663472910384971 0 0 0.12760239250454927 -47779.519583726978 0 1:0.057842897 2:0.11108621 3:-0.010049885 4:0.056960226 5:0.11180673 6:-0.0090225184 7:0.055346299 8:0.11202837 9:-0.011145463 
24.663472910384971 0 0 0 -47779.519583726978 8513.0635595150052 1:0.069507028 2:0.23666155 3:0.12803014 4:0.085803747 5:0.17068518 6:0.022554239 7:0.063916078 8:0.12576128 9:-0.044861664 
24.663472910384971 0 0 0.12760239250454927 -47779.519583726978 0 1:0.065233808 2:0.10512854 3:-0.012428096 4:0.069901144 5:0.10067463 6:-0.029604902 7:0.068720359 8:0.09481317 9:-0.025931867 
24.663472910384971 0 0 0.12760239250454927 -47779.519583726978 0 1:0.055909929 2:0.10658137 3:-0.01765094 4:0.062185537 5:0.10015531 6:-0.017452864 7:0.066033372 8:0.097360412 9:-0.013589982 
24.663472910384971 0 0 0 -47779.519583726978 5289.3311629872642 1:0.046691977 2:0.12548194 3:-0.0305696 4:0.051299894 5:0.13349073 6:-0.033822922 7:0.049475133 8:0.12155652 9:-0.017732621 
0 64.078295938392458 32.274309596996048 0 -47779.519583726978 8513.0635595150052 1:0.014054535 2:0.12519994 3:-0.0070822191 4:0.019536607 5:0.12608278 6:-0.0090662268 7:0.018901647 8:0.12572305 9:-0.0091246943 
0 0 0 0.12760239250454927 -0 4866.3466763787537 1:0.019955496 2:0.069080553 3:0.097605171 4:0.031804216 5:0.066243721 6:0.096519723 7:0.041287696 8:0.063827091 9:0.080540558 
0 64.078295938392458 32.274309596996048 0 -47779.519583726978 8513.0635595150052 1:0.0065647858 2:0.14195205 3:0.0078290675 4:0.0076549943 5:0.14131971 6:0.0096182474 7:0.010484469 8:0.13969642 9:0.0083878247 
0 64.078295938392458 32.274309596996048 0 -47779.519583726978 8513.0635595150052 1:0.0056236941 2:0.16197474 3:-0.024646557 4:-0.0085828593 5:0.15777792 6:-0.020921378 7:-0.016289655 8:0.15156761 9:-0.016492246 
24.663472910384971 64.078295938392458 32.274309596996048 0 -47779.519583726978 8513.0635595150052 1:0.025715379 2:0.12426592 3:-0.015721597 4:0.022288602 5:0.13213296 6:-0.020645194 7:0.018919513 8:0.13376396 9:-0.02504193 
24.663472910384971 0 0 0.12760239250454927 -29182.715132081805 8513.0635595150052 1:0.017848752 2:0.059956693 3:0.080679275 4:0.021913846 5:0.054220094 6:0.085780247 7:0.024121049 8:0.047361061 9:0.091955921 
24.663472910384971 0 0 0.12760239250454927 -47779.519583726978 8513.0635595150052 1:0.079633122 2:0.171924 3:0.17095359 4:0.10588773 5:0.23557015 6:0.22526455 7:0.12263144 8:0.27087237 9:0.19785056 
0 64.078295938392458 32.274309596996048 0 -47779.519583726978 8513.0635595150052 1:-0.044458192 2:0.15585178 3:-0.03400613 4:-0.05188291 5:0.13405132 6:-0.025566452 7:-0.055781374 8:0.11883028 9:-0.016627892 
0 64.078295938392458 32.274309596996048 0 -47779.519583726978 8513.0635595150052 1:-0.0021056873 2:0.12705042 3:-0.0015403361 4:-0.00020851501 5:0.13014864 6:-0.0081854637 7:0.0027780209 8:0.13864822 9:-0.011704901 
0 0 0 0.12760239250454927 -0 0 1:0.035979947 2:0.074133886 3:0.093819897 4:0.038416562 5:0.074791345 6:0.095607453 7:0.038833523 8:0.075132775 9:0.094695182 
0 64.078295938392458 32.274309596996048 0 -47779.519583726978 8513.0635595150052 1:-0.0094524938 2:0.13020454 3:0.0091131489 4:-0.0091764163 5:0.13364586 6:0.00094188151 7:-0.0054052422 8:0.13759999 9:-0.0031116961 
24.663472910384971 64.078295938392458 32.274309596996048 0 -47779.519583726978 8513.0635595150052 1:0.032015505 2:0.19435171 3:-0.02011424 4:0.020236337 5:0.19470958 6:-0.017022007 7:0.01496382 8:0.18810518 9:-0.0139911 
24.663472910384971 0 0 0.12760239250454927 -47779.519583726978 0 1:0.11050694 2:0.14145859 3:0.018589579 4:0.10106932 5:0.14711648 6:0.029552099 7:0.085877367 8:0.14833292 9:0.030587803 
24.663472910384971 0 0 0.12760239250454927 -47779.519583726978 0 1:0.061238729 2:0.11223587 3:-0.015784886 4:0.060052679 5:0.11051003 6:-0.01780588 7:0.056735233 8:0.10651823 9:-0.015493478 
0 0 0 0.12760239250454927 -0 0 1:0.038833866 2:0.096991989 3:0.11019099 4:0.046532 5:0.10599547 6:0.11066977 7:0.069232456 8:0.11537384 9:0.082519195 
24.663472910384971 0 0 0.12760239250454927 -47779.519583726978 0 1:0.095258407 2:0.15149787 3:0.063476396 4:0.094076278 5:0.15732647 6:0.065186841 7:0.097994057 8:0.16494676 9:0.065602284 
0 64.078295938392458 32.274309596996048 0.12760239250454927 -47779.519583726978 8513.0635595150052 1:-0.0055218509 2:0.092444142 3:0.070682162 4:-0.006412252 5:0.086456474 6:0.066315312 7:-0.007495076 8:0.079039922 9:0.065586238 
0 0 0 0 -47779.519583726978 8513.0635595150052 1:0.042067833 2:0.1672532 3:0.010652499 4:0.041595975 5:0.16353742 6:0.010431922 7:0.039730093 8:0.16075901 9:0.015356686 
24.663472910384971 0 0 0.12760239250454927 -47779.519583726978 8513.0635595150052 1:0.064192045 2:0.081592207 3:0.011789576 4:0.064373273 5:0.081773564 6:0.014900432 7:0.064413443 8:0.087678317 9:0.015056368 
24.663472910384971 0 0 0.12760239250454927 -47779.519583726978 0 1:0.054482681 2:0.10035226 3:0.040464102 4:0.054781539 5:0.095793809 6:0.039385866 7:0.054595503 8:0.092233396 9:0.042090003 
0 0 0 0.12760239250454927 -14932.475086255994 0 1:0.048335558 2:0.082652082 3:0.086327529 4:0.036819263 5:0.074221525 6:0.084975013 7:0.038029936 8:0.075376069 9:0.096719382 
24.663472910384971 0 0 0.12760239250454927 -47779.519583726978 0 1:0.11790669 2:0.19583237 3:0.13605829 4:0.094931394 5:0.18940598 6:0.098387474 7:0.066826131 8:0.15185707 9:0.091957055 
24.663472910384971 0 0 0.12760239250454927 -18918.456988595517 931.58864222146258 1:0.057895431 2:0.10286509 3:-0.011705672 4:0.069244491 5:0.094138833 6:-0.0082475603 7:0.075013443 8:0.089526637 9:0.018968756 
0 64.078295938392458 0 0.12760239250454927 -47779.519583726978 8513.0635595150052 1:0.020963953 2:0.12608184 3:0.048940527 4:0.023288332 5:0.12885688 6:0.063106345 7:0.025890625 8:0.13048261 9:0.061189423 
24.663472910384971 0 0 0.12760239250454927 -47779.519583726978 8513.0635595150052 1:0.039209742 2:0.027284329 3:0.078242302 4:0.040140464 5:0.024840893 6:0.074460557 7:0.040396659 8:0.021688524 9:0.072100217 
24.663472910384971 64.078295938392458 32.274309596996048 0.12760239250454927 -47779.519583726978 8513.0635595150052 1:0.015092684 2:0.075372129 3:-0.010305787 4:0.013851736 5:0.071153785 6:-0.01159771 7:0.013431635 8:0.069248232 9:-0.012764575 
0 64.078295938392458 32.274309596996048 0 -0 8513.0635595150052 1:0.015972837 2:0.14945439 3:0.019530346 4:0.016823717 5:0.14900016 6:0.022807447 7:0.014173738 8:0.14754721 9:0.026629032 
0 64.078295938392458 32.274309596996048 0.12760239250454927 -47779.519583726978 8513.0635595150052 1:0.022993505 2:0.10569934 3:0.020787487 4:0.01298819 5:0.11249951 6:0.023421569 7:0.0046941629 8:0.12126412 9:0.024297135 
0 64.078295938392458 32.274309596996048 0.12760239250454927 -0 8513.0635595150052 1:-0.0010957063 2:0.11609141 3:0.075821313 4:0.00096103903 5:0.11175885 6:0.075494433 7:-0.00023391216 8:0.10931776 9:0.073522009 
24.663472910384971 0 0 0 -47779.519583726978 0 1:0.059209512 2:0.12573652 3:-0.025264736 4:0.062642745 5:0.12897592 6:-0.016603703 7:0.060885806 8:0.12927321 9:0.0010862544 
0 64.078295938392458 32.274309596996048 0 -47779.519583726978 8513.0635595150052 1:0.025796413 2:0.14458557 3:-0.014086901 4:0.032544376 5:0.15271756 6:-0.00068021007 7:0.042389382 8:0.15083275 9:0.0022874658 
0 64.078295938392458 32.274309596996048 0.12760239250454927 -0 8513.0635595150052 1:0.009165848 2:0.10991613 3:0.064060728 4:0.010034249 5:0.10987271 6:0.064489058 7:0.01065091 8:0.10448788 9:0.067184185 
0 64.078295938392458 32.274309596996048 0 -47779.519583726978 8513.0635595150052 1:-0.0062948404 2:0.14163956 3:-0.0095567287 4:-0.0073084332 5:0.13959875 6:-0.013259583 7:-0.0070963037 8:0.14034572 9:-0.015124186 
0 64.078295938392458 32.274309596996048 0.12760239250454927 -47779.519583726978 8513.0635595150052 1:-0.0015716158 2:0.072872711 3:0.072806973 4:-0.0042318357 5:0.067647813 6:0.077225649 7:-0.0028492258 8:0.065794125 9:0.079443378 
0 0 0 0.12760239250454927 -0 0 1:0.040763556 2:0.11663383 3:0.080859972 4:0.036100532 5:0.11568878 6:0.075239419 7:0.035283323 8:0.1130496 9:0.073447835 
0 64.078295938392458 32.274309596996048 0 -47779.519583726978 8513.0635595150052 1:0.018807753 2:0.14758356 3:0.0076105909 4:0.014633994 5:0.13932467 6:0.00084941535 7:0.015539834 8:0.13339331 9:-0.0028397304 
0 64.078295938392458 0 0.12760239250454927 -47779.519583726978 8513.0635595150052 1:0.015150999 2:0.14857182 3:0.068355862 4:0.0070727847 5:0.12014943 6:0.079527871 7:0.015660514 8:0.10288918 9:0.088119455 
0 64.078295938392458 0 0.12760239250454927 -47779.519583726978 8513.0635595150052 1:0.01003201 2:0.12135678 3:0.073552353 4:0.018435591 5:0.13047879 6:0.078521102 7:0.030756775 8:0.13783493 9:0.086898214 
24.663472910384971 0 0 0.12760239250454927 -47779.519583726978 0 1:0.063558278 2:0.11636579 3:0.012390127 4:0.049838521 5:0.10878052 6:0.012594138 7:0.044678518 8:0.10641368 9:0.007989082 
24.663472910384971 0 0 0.12760239250454927 -47779.519583726978 0 1:0.053488737 2:0.104119 3:0.051836065 4:0.054089787 5:0.1039075 6:0.034846375 7:0.051752092 8:0.10099522 9:0.025631911 
24.663472910384971 64.078295938392458 32.274309596996048 0 -47779.519583726978 8513.0635595150052 1:0.032111366 2:0.13585593 3:-0.0045462969 4:0.037478344 5:0.13739265 6:-0.016933397 7:0.038097758 8:0.1333238 9:-0.022114208 
0 64.078295938392458 32.274309596996048 0.12760239250454927 -47779.519583726978 8513.0635595150052 1:0.02554809 2:0.13541079 3:0.012797779 4:0.025445644 5:0.13330356 6:0.018340225 7:0.02560433 8:0.1307613 9:0.023254248 
0 64.078295938392458 32.274309596996048 0.12760239250454927 -47779.519583726978 8513.0635595150052 1:0.0024728451 2:0.11952183 3:0.063406495 4:-0.0011653274 5:0.12365747 6:0.06231321 7:0.0016329207 8:0.12539197 9:0.060391698 
24.663472910384971 0 0 0.12760239250454927 -47779.519583726978 0 1:0.058781283 2:0.10624493 3:0.0029847566 4:0.060149972 5:0.10122542 6:0.00048943674 7:0.061885491 8:0.10053853 9:0.0021610533 
24.663472910384971 0 0 0.12760239250454927 -47779.519583726978 0 1:0.04822234 2:0.11491984 3:0.020033064 4:0.044877697 5:0.11239308 6:0.014069455 7:0.043394307 8:0.11035961 9:0.011699083 
0 64.078295938392458 32.274309596996048 0.12760239250454927 -47779.519583726978 8513.0635595150052 1:-0.0061380802 2:0.12007254 3:0.054182806 4:-0.0060784854 5:0.12785628 6:0.061935316 7:-0.0090934974 8:0.13736677 9:0.057040758 
0 64.078295938392458 32.274309596996048 0 -47779.519583726978 8513.0635595150052 1:0.013267932 2:0.18575289 3:-0.0077452724 4:-0.0025072066 5:0.18122618 6:0.012745124 7:-0.013712151 8:0.1788055 9:0.0326231 
0 64.078295938392458 32.274309596996048 0.12760239250454927 -47779.519583726978 8513.0635595150052 1:0.0075806495 2:0.13066609 3:0.015521339 4:0.0088147097 5:0.12364592 6:0.016958846 7:0.0084729964 8:0.1152649 9:0.016489392 
24.663472910384971 0 0 0.12760239250454927 -0 8513.0635595150052 1:0.03574865 2:0.10915865 3:0.15754609 4:0.066352829 5:0.17752974 6:0.18742523 7:0.11746089 8:0.23733401 9:0.16040227 
24.663472910384971 64.078295938392458 32.274309596996048 0 -47779.519583726978 8513.0635595150052 1:0.023771367 2:0.1259325 3:-0.0093223376 4:0.026244578 5:0.12710494 6:-0.013275304 7:0.027961518 8:0.12802152 9:-0.017758767 
24.663472910384971 0 0 0.12760239250454927 -47779.519583726978 0 1:0.079990526 2:0.098549392 3:-0.012589186 4:0.084013043 5:0.10045171 6:-0.022545151 7:0.072608659 8:0.096826541 9:-0.027980775 
24.663472910384971 0 0 0.12760239250454927 -47779.519583726978 0 1:0.063749924 2:0.11105687 3:0.0015305758 4:0.064538651 5:0.10784725 6:0.0012028525 7:0.068347765 8:0.10150773 9:4.5437068e-06 
0 64.078295938392458 32.274309596996048 0.12760239250454927 -47779.519583726978 8513.0635595150052 1:-0.024405227 2:0.14218208 3:0.023860161 4:-0.023418483 5:0.13162189 6:0.027423407 7:-0.020778533 8:0.12285395 9:0.031336029 
24.663472910384971 64.078295938392458 32.274309596996048 0 -47779.519583726978 8513.0635595150052 1:0.025242958 2:0.13699117 3:-0.027759103 4:0.022184918 5:0.13795621 6:-0.028460652 7:0.017545064 8:0.14378755 9:-0.022629093 
24.663472910384971 0 0 0.12760239250454927 -47779.519583726978 0 1:0.05046211 2:0.095724121 3:0.052144304 4:0.047763907 5:0.092104138 6:0.046629555 7:0.04865212 8:0.091678166 9:0.04038987 
0 64.078295938392458 32.274309596996048 0 -47779.519583726978 8513.0635595150052 1:0.00024311915 2:0.13581523 3:0.00072410002 4:0.0013137929 5:0.13709708 6:0.0012821862 7:0.0028138621 8:0.13368934 9:0.0053000092 
0 0 0 0.12760239250454927 -47779.519583726978 8513.0635595150052 1:0.036199458 2:0.098949775 3:0.02605708 4:0.037943206 5:0.11470995 6:0.02361397 7:0.038152479 8:0.12309564 9:0.024043362 
0 64.078295938392458 32.274309596996048 0.12760239250454927 -0 8513.0635595150052 1:-0.031740463 2:0.10073607 3:0.075565785 4:-0.0217709 5:0.096838953 6:0.078194497 7:-0.012118708 8:0.097800356 9:0.083059241 
24.663472910384971 64.078295938392458 32.274309596996048 0.12760239250454927 -47779.519583726978 8513.0635595150052 1:0.039562327 2:0.058877131 3:-0.014919173 4:0.0018804463 5:0.050732611 6:-0.043557946 7:-0.0081791858 8:0.054490117 9:-0.053862509 
0 64.078295938392458 32.274309596996048 0.12760239250454927 -47779.519583726978 8513.0635595150052 1:-0.0068434061 2:0.08829874 3:0.075845226 4:-0.00988187 5:0.080059325 6:0.07874246 7:-0.001880095 8:0.079117518 9:0.079742411 
24.663472910384971 0 32.274309596996048 0.12760239250454927 -47779.519583726978 8513.0635595150052 1:0.035209512 2:0.094271057 3:-0.011660832 4:0.032393139 5:0.09923951 6:-0.01038749 7:0.031927605 8:0.10285099 9:-0.012097717 
0 64.078295938392458 32.274309596996048 0 -47779.519583726978 8513.0635595150052 1:-0.049441991 2:0.15117801 3:-0.030644727 4:-0.048599771 5:0.14701053 6:-0.029478599 7:-0.046762971 8:0.14223965 9:-0.025007785 
24.663472910384971 0 0 0.12760239250454927 -47779.519583726978 0 1:0.059766982 2:0.1124751 3:0.028776428 4:0.061110661 5:0.11930202 6:0.028349223 7:0.063066084 8:0.12873498 9:0.032127003 
24.663472910384971 0 0 0.12760239250454927 -47779.519583726978 0 1:0.064948877 2:0.10048732 3:0.022866132 4:0.066473393 5:0.10127301 6:0.026485831 7:0.068247072 8:0.10109815 9:0.023577685 
0 64.078295938392458 32.274309596996048 0 -47779.519583726978 8513.0635595150052 1:0.037142758 2:0.14245771 3:-0.0053668944 4:0.031784853 5:0.14076504 6:-0.0006130058 7:0.028868154 8:0.14434892 9:0.007307586 
24.663472910384971 0 0 0.12760239250454927 -47779.519583726978 0 1:0.053272451 2:0.099094121 3:0.0055679006 4:0.054017027 5:0.10373638 6:0.0080115091 7:0.056911009 8:0.10770093 9:0.011652192 
24.663472910384971 0 0 0.12760239250454927 -47779.519583726978 0 1:0.099694754 2:0.13368097 3:0.054222524 4:0.091059791 5:0.13289439 6:0.050337985 7:0.084820212 8:0.14064064 9:0.049481496 
24.663472910384971 0 0 0.12760239250454927 -47779.519583726978 0 1:0.048950057 2:0.11708376 3:-0.0084187082 4:0.044407778 5:0.11879925 6:-0.0058168028 7:0.0397438 8:0.11860079 9:-0.0045703776 
24.663472910384971 0 0 0.12760239250454927 -47779.519583726978 8513.0635595150052 1:0.038731711 2:0.044001644 3:0.07389689 4:0.040600389 5:0.040871039 6:0.074484573 7:0.039910575 8:0.040997113 9:0.090326781 
