svm_type nu_svc
kernel_type rbf
gamma 0.1111111111111111
nr_class 7
total_sv 10809
rho -266.15341767811447 -381.77421769806597 100.36813140565542 0.078111530044506675 -14.878872657451932 5.8905113617434068 -218.65453516668325 49.571627408566052 0.041077191732647962 -2030.9132053155292 -9.7032932689646838 84.795704255641994 0.070627318657051422 -37.049158221912123 15.894912004399913 -1.0033836632878339 -38.020457747577602 -43.257415153726619 -0.031125865131679677 -0.034393637778216191 1186.5853679734053
label 6 1 5 2 4 3 0
nr_sv 1487 2016 1596 1352 1217 1703 1438
SV
0 8326.9784434986123 26.399879030306415 0.10437446110596682 0 0 1:0.06080885 2:0.09961328 3:-0.029740918 4:0.045987949 5:0.099189905 6:-0.018045417 7:0.036933218 8:0.096467631 9:-0.004068847 
0 3412.3356573122201 26.399879030306415 0 17.304217698460153 18.878702912513337 1:0.032088125 2:0.17706597 3:-0.030646478 4:0.040186935 5:0.20952003 6:-0.021078086 7:0.056047195 8:0.27662746 9:-0.0025595412 
8858.7212932657967 14058.54050460773 0 0 17.304217698460153 18.878702912513337 1:0.033150838 2:0.13882346 3:-0.0012761015 4:0.036051445 5:0.13993712 6:-0.0025872543 7:0.035595128 8:0.14001804 9:-0.0039131551 
8858.7212932657967 14058.54050460773 0 0 17.304217698460153 18.878702912513337 1:0.031541733 2:0.1931149 3:0.046994831 4:0.030708151 5:0.2290097 6:0.066040276 7:0.030142252 8:0.25876744 9:0.11567741 
8858.7212932657967 14058.54050460773 0 0.10437446110596682 0 0 1:0.042917396 2:0.11267303 3:0.038282242 4:0.051471931 5:0.10954498 6:0.050204546 7:0.060397431 8:0.10881602 9:0.056387339 
8858.7212932657967 14058.54050460773 0 0.10437446110596682 17.304217698460153 18.878702912513337 1:0.031698718 2:0.089551475 3:0.018515244 4:0.029550308 5:0.099715854 6:0.024163624 7:0.027861457 8:0.10392471 9:0.028905848 
8858.7212932657967 14058.54050460773 0 0 17.304217698460153 18.878702912513337 1:-0.038093977 2:0.13090386 3:-0.00031721678 4:-0.032863406 5:0.13661036 6:0.0026271538 7:-0.023828376 8:0.13935278 9:0.012162742 
0 0 26.399879030306415 0.10437446110596682 0 0 1:0.065599692 2:0.08251272 3:0.028920652 4:0.058303874 5:0.077580905 6:0.02379726 7:0.066801888 8:0.081223027 9:0.026839724 
0 14058.54050460773 0 0.10437446110596682 0 0 1:0.043018605 2:0.10540489 3:0.022803663 4:0.042218626 5:0.10044524 6:0.023281397 7:0.042370572 8:0.096225471 9:0.027372348 
8858.7212932657967 14058.54050460773 0 0 17.304217698460153 18.878702912513337 1:0.0074081557 2:0.12599416 3:-0.012820778 4:0.0107465 5:0.12691164 6:-0.015667351 7:0.015314774 8:0.1292741 9:-0.017455823 
8858.7212932657967 0 26.399879030306415 0 17.304217698460153 18.878702912513337 1:-0.044389361 2:0.13113913 3:-0.021542007 4:-0.046818606 5:0.12971008 6:-0.030424498 7:-0.049079857 8:0.12538262 9:-0.03579953 
8858.7212932657967 14058.54050460773 0 0.10437446110596682 17.304217698460153 18.878702912513337 1:-0.010927121 2:0.1215108 3:0.005840673 4:-0.00051003417 5:0.12146462 6:0.002161797 7:0.014970521 8:0.11386934 9:-0.00081012753 
8858.7212932657967 14058.54050460773 0 0.10437446110596682 17.304217698460153 18.878702912513337 1:0.0086006713 2:0.12208266 3:0.028396957 4:0.0095049284 5:0.11994139 6:0.02905944 7:0.011188163 8:0.11618095 9:0.027943652 
8858.7212932657967 14058.54050460773 0 0 17.304217698460153 18.878702912513337 1:-0.029501706 2:0.14494051 3:-0.016657513 4:-0.016767989 5:0.1262045 6:-0.00013531778 7:0.0010447682 8:0.11562166 9:0.02422784 
8858.7212932657967 14058.54050460773 26.399879030306415 0 17.304217698460153 18.878702912513337 1:-0.0055141027 2:0.12447629 3:-0.0040457649 4:0.017344248 5:0.13213099 6:-0.027307815 7:0.030996266 8:0.12660525 9:-0.036781697 
8858.7212932657967 13232.981508881949 0 0 17.304217698460153 18.878702912513337 1:0.016118724 2:0.12973476 3:-0.012716132 4:0.019517701 5:0.13866834 6:-0.011622876 7:0.026980966 8:0.14956028 9:-0.019366635 
0 14058.54050460773 26.399879030306415 0.10437446110596682 0 0 1:0.096089854 2:0.14833787 3:-0.0024739247 4:0.098881409 5:0.16201473 6:0.01505713 7:0.094572035 8:0.16028135 9:0.034281506 
0 14058.54050460773 26.399879030306415 0.10437446110596682 0 0 1:0.063654819 2:0.11276464 3:0.03441615 4:0.06919301 5:0.11259512 6:0.03580629 7:0.070329797 8:0.10359118 9:0.03895511 
8858.7212932657967 14058.54050460773 0 0.10437446110596682 17.304217698460153 18.878702912513337 1:0.014014371 2:0.095898635 3:0.056497753 4:0.015440785 5:0.10675339 6:0.041849681 7:0.016958513 8:0.14049848 9:0.023962071 
8858.7212932657967 14058.54050460773 0 0.10437446110596682 0 0 1:0.064681857 2:0.14057795 3:0.068754514 4:0.066384936 5:0.13989442 6:0.071782233 7:0.065611271 8:0.13841798 9:0.075141393 
0 14058.54050460773 26.399879030306415 0.10437446110596682 0 0 1:0.084828299 2:0.12618811 3:0.061496112 4:0.073917207 5:0.12557259 6:0.067544423 7:0.060599401 8:0.12435469 9:0.072863365 
8858.7212932657967 9487.2693322393898 26.399879030306415 0.10437446110596682 17.304217698460153 18.878702912513337 1:0.013613572 2:0.10467858 3:-0.02603248 4:0.018531577 5:0.10368909 6:-0.023997207 7:0.022498367 8:0.10510723 9:-0.022966594 
0 14058.54050460773 26.399879030306415 0.10437446110596682 0 0 1:0.063830561 2:0.10301016 3:-0.0042814656 4:0.070266295 5:0.10245741 6:0.0030511507 7:0.079806317 8:0.10196347 9:0.014134075 
8858.7212932657967 14058.54050460773 3.5448866920893605 0.10437446110596682 17.304217698460153 18.878702912513337 1:0.019911352 2:0.10525776 3:0.024810769 4:-0.011628074 5:0.11720566 6:0.0091628357 7:-0.04439099 8:0.13893882 9:0.0020320223 
8858.7212932657967 14058.54050460773 0 0.10437446110596682 17.304217698460153 18.878702912513337 1:-0.01364152 2:0.099651614 3:0.013853467 4:-0.007858248 5:0.098393971 6:0.011548271 7:-0.0024764331 8:0.096571233 9:0.010189636 
8858.7212932657967 14058.54050460773 0 0.10437446110596682 0 0 1:0.04795697 2:0.097610312 3:0.050670078 4:0.044253552 5:0.10389451 6:0.050219605 7:0.040039372 8:0.1084543 9:0.048122694 
0 14058.54050460773 26.399879030306415 0.10437446110596682 0 0 1:0.05882033 2:0.10223162 3:-0.0075735625 4:0.056367779 5:0.099981757 6:-0.011116586 7:0.049730127 8:0.098831885 9:-0.007937563 
8858.7212932657967 9750.2231250670666 0 0 17.304217698460153 18.878702912513337 1:0.013695548 2:0.15448949 3:-0.02831939 4:0.0044054113 5:0.13949738 6:-0.022577004 7:0.01496214 8:0.1608103 9:-0.010990986 
0 14058.54050460773 26.399879030306415 0.10437446110596682 0 0 1:0.082635917 2:0.12387033 3:0.0021365579 4:0.080676618 5:0.12636403 6:0.0080345663 7:0.07939708 8:0.12981079 9:0.014090365 
0 14058.54050460773 26.399879030306415 0 0 0 1:0.033433546 2:0.127036 3:-0.014961082 4:0.040397323 5:0.12923521 6:-0.015037649 7:0.047142382 8:0.12848803 9:-0.012233605 
8858.7212932657967 14058.54050460773 26.399879030306415 0.10437446110596682 17.304217698460153 18.878702912513337 1:0.023195563 2:0.089031135 3:0.012138166 4:0.014037715 5:0.092524554 6:0.0069824508 7:0.0085330858 8:0.092825569 9:0.0050863855 
0 14058.54050460773 26.399879030306415 0.10437446110596682 0 0 1:0.086372693 2:0.098882384 3:0.033052572 4:0.079969646 5:0.097941667 6:0.036389548 7:0.071724762 8:0.10072896 9:0.041336499 
8858.7212932657967 14058.54050460773 0 0.10437446110596682 0 0 1:0.040433889 2:0.11305968 3:0.047698597 4:0.040044984 5:0.10813259 6:0.053874313 7:0.036261573 8:0.10496139 9:0.059712511 
8858.7212932657967 14058.54050460773 26.399879030306415 0.10437446110596682 0 0 1:0.035829209 2:0.086750125 3:0.0087330404 4:0.03641081 5:0.091305888 6:0.0049410267 7:0.036179991 8:0.095814991 9:0.00067965906 
8858.7212932657967 14058.54050460773 0 0.10437446110596682 0 0 1:0.058093212 2:0.13258712 3:0.07830059 4:0.052714762 5:0.13230934 6:0.075260363 7:0.046695829 8:0.12712194 9:0.067124227 
8858.7212932657967 14058.54050460773 0 0.10437446110596682 0 0 1:0.033661144 2:0.10928694 3:0.024346297 4:0.035123535 5:0.10864363 6:0.020381405 7:0.036571179 8:0.10800033 9:0.017201445 
8858.7212932657967 14058.54050460773 0 0.10437446110596682 0 0 1:0.044960597 2:0.11201848 3:0.031167488 4:0.045224564 5:0.10830021 6:0.024148259 7:0.043914414 8:0.10110113 9:0.022275434 
8858.7212932657967 6431.1458771968273 0 0 17.304217698460153 18.878702912513337 1:0.0072794488 2:0.12956163 3:-0.018325658 4:0.0049261764 5:0.12661733 6:-0.018332324 7:0.0037001961 8:0.12293606 9:-0.021378806 
0 14058.54050460773 21.442707672939324 0.10437446110596682 0 0 1:0.068419956 2:0.13842745 3:0.047704523 4:0.065933136 5:0.13245687 6:0.03329405 7:0.065845245 8:0.13649101 9:0.030543106 
8858.7212932657967 14058.54050460773 0 0.10437446110596682 17.304217698460153 18.878702912513337 1:0.02705235 2:0.094588349 3:0.019095454 4:0.024045861 5:0.10392882 6:0.026211246 7:0.02522742 8:0.11367489 9:0.032406552 
2703.7494600291898 14058.54050460773 26.399879030306415 0 17.304217698460153 18.878702912513337 1:0.06220762 2:0.24951734 3:0.05304054 4:0.017899892 5:0.17089783 6:-0.027104982 7:0.011482856 8:0.15605213 9:-0.068682676 
0 14058.54050460773 26.399879030306415 0.10437446110596682 0 0 1:0.070989247 2:0.076150024 3:0.014558705 4:0.032025987 5:0.068053342 6:0.028565296 7:0.017231657 8:0.13891663 9:0.028829784 
0 14058.54050460773 26.399879030306415 0.10437446110596682 0 0 1:0.068941713 2:0.10694295 3:0.026133957 4:0.072725053 5:0.10880869 6:0.02694656 7:0.074418374 8:0.11257628 9:0.03477992 
8858.7212932657967 14058.54050460773 0 0 17.304217698460153 18.878702912513337 1:0.017497679 2:0.12931146 3:-0.0073076119 4:0.025527043 5:0.13461259 6:-0.0064277113 7:0.026775074 8:0.13211652 9:-0.0060849411 
8858.7212932657967 14058.54050460773 0 0.10437446110596682 0 0 1:0.047977176 2:0.1326491 3:0.078128386 4:0.049586742 5:0.13502309 6:0.066716959 7:0.052761224 8:0.13963416 9:0.065717371 
8858.7212932657967 14058.54050460773 0 0.10437446110596682 17.304217698460153 18.878702912513337 1:0.027251276 2:0.12083284 3:0.042254137 4:0.028703875 5:0.11812336 6:0.042023912 7:0.031207905 8:0.1125184 9:0.039976015 
8858.7212932657967 0 26.399879030306415 0 17.304217698460153 18.878702912513337 1:0.04370177 2:0.23900406 3:0.070302055 4:0.03827825 5:0.25637614 6:0.07938137 7:0.031593484 8:0.26844711 9:0.092479912 
8858.7212932657967 14058.54050460773 0 0.10437446110596682 17.304217698460153 18.878702912513337 1:0.008927428 2:0.12093641 3:0.048054103 4:0.012731884 5:0.11953312 6:0.043795156 7:0.016650369 8:0.11368129 9:0.043433394 
8858.7212932657967 14058.54050460773 26.399879030306415 0.10437446110596682 17.304217698460153 18.878702912513337 1:0.029650278 2:0.11658725 3:0.018330607 4:0.024207469 5:0.11298291 6:0.00303752 7:0.023818036 8:0.10696626 9:-0.0072730946 
8858.7212932657967 4200.2267513834313 26.399879030306415 0 0 0 1:0.082554841 2:0.21131672 3:0.059116562 4:0.08760479 5:0.23363987 6:0.069232932 7:0.077535733 8:0.249983 9:0.085127093 
0 14058.54050460773 26.399879030306415 0.10437446110596682 0 0 1:0.05419142 2:0.10290573 3:0.010592817 4:0.054081409 5:0.093994567 6:0.011815668 7:0.05331677 8:0.096464265 9:0.010470958 
8858.7212932657967 14058.54050460773 0 0.10437446110596682 17.304217698460153 18.878702912513337 1:0.03221074 2:0.12099918 3:-0.0092129896 4:0.025804271 5:0.11825615 6:-0.0080426423 7:0.023650976 8:0.10445137 9:0.0015503361 
0 0 26.399879030306415 0.10437446110596682 0 0 1:0.070146666 2:0.11451956 3:0.0065903467 4:0.072268185 5:0.11415749 6:0.0053350543 7:0.072309372 8:0.1127926 9:0.0028656987 
0 14058.54050460773 0 0.10437446110596682 0 0 1:0.051278965 2:0.11609707 3:0.0070513216 4:0.0504531 5:0.11455286 6:0.0087048343 7:0.047072521 8:0.11398765 9:0.018057862 
8858.7212932657967 14058.54050460773 0 0.10437446110596682 0 0 1:0.039320209 2:0.12786853 3:-0.0072018929 4:0.046348338 5:0.11927049 6:-0.0080809709 7:0.042822484 8:0.10888869 9:-0.0016665369 
8858.7212932657967 14058.54050460773 26.399879030306415 0 17.304217698460153 18.878702912513337 1:-0.049753754 2:0.12216842 3:-0.0020630468 4:-0.054515976 5:0.12275649 6:-0.013373891 7:-0.057986749 8:0.11980879 9:-0.016038544 
0 14058.54050460773 26.399879030306415 0.10437446110596682 0 0 1:0.084564193 2:0.091160417 3:0.05529226 4:0.074270517 5:0.097946045 6:0.050592083 7:0.070094274 8:0.10299712 9:0.046651661 
8858.7212932657967 14058.54050460773 0 0 17.304217698460153 18.878702912513337 1:0.029562385 2:0.14353797 3:-0.020227543 4:0.028948688 5:0.14232026 6:-0.017356315 7:0.027446301 8:0.14067128 9:-0.014154645 
0 0 26.399879030306415 0.10437446110596682 0 0 1:0.0684617 2:0.094182198 3:0.017422592 4:0.06786953 5:0.092869106 6:0.010885523 7:0.068883683 8:0.092622604 9:0.0059622671 
8858.7212932657967 14058.54050460773 26.399879030306415 0 17.304217698460153 18.878702912513337 1:0.021221433 2:0.13931405 3:-0.020374101 4:0.035008481 5:0.14133343 6:-0.03166554 7:0.039022046 8:0.13962611 9:-0.038460317 
8858.7212932657967 14058.54050460773 26.399879030306415 0 17.304217698460153 18.878702912513337 1:0.026113072 2:0.13011645 3:-0.014702961 4:0.028607607 5:0.13091394 6:-0.02305033 7:0.030676322 8:0.1333243 9:-0.028952469 
0 14058.54050460773 26.399879030306415 0.10437446110596682 0 0 1:0.078450982 2:0.10290507 3:0.012934904 4:0.07422365 5:0.094797241 6:0.012921983 7:0.07409353 8:0.096749807 9:0.022502931 
0 14058.54050460773 26.399879030306415 0.10437446110596682 0 0 1:0.073847466 2:0.14426082 3:0.054998673 4:0.07235994 5:0.1329783 6:0.05221315 7:0.073681523 8:0.12367399 9:0.040264111 
8858.7212932657967 14058.54050460773 26.399879030306415 0.10437446110596682 0 0 1:0.078291575 2:0.1329853 3:0.028104228 4:0.076640139 5:0.12440843 6:0.0098311806 7:0.059941121 8:0.11924738 9:-0.0004281841 
8858.7212932657967 14058.54050460773 7.9433053762063812 0.10437446110596682 0 18.878702912513337 1:0.034455682 2:0.11004586 3:0.015716118 4:0.030198493 5:0.10217778 6:0.016850489 7:0.035237054 8:0.092540395 9:0.014372047 
0 4938.4973053041786 26.399879030306415 0.10437446110596682 0 0 1:0.062376314 2:0.10656054 3:-0.018852803 4:0.063996083 5:0.1063089 6:-0.020857463 7:0.066448982 8:0.10556709 9:-0.019797651 
8858.7212932657967 14058.54050460773 0 0.10437446110596682 17.304217698460153 18.878702912513337 1:0.020419652 2:0.10845915 3:0.019245391 4:0.021793561 5:0.10628374 6:0.022332096 7:0.023868051 8:0.10262422 9:0.02626939 
8858.7212932657967 14058.54050460773 26.399879030306415 0.10437446110596682 0 0 1:0.048708072 2:0.12761034 3:-0.019354011 4:0.041639421 5:0.11997974 6:-0.014333551 7:0.029927413 8:0.11795576 9:-0.002742283 
0 14058.54050460773 0 0.10437446110596682 0 0 1:0.064951233 2:0.12076283 3:0.018651804 4:0.069236069 5:0.14400781 6:0.023552577 7:0.068338112 8:0.15840143 9:0.046445851 
8858.7212932657967 14058.54050460773 0 0.10437446110596682 0 0 1:0.046807479 2:0.10972703 3:0.051288968 4:0.049182988 5:0.11024693 6:0.051794662 7:0.051381712 8:0.11040707 9:0.048139622 
8858.7212932657967 0 26.399879030306415 0 17.304217698460153 18.878702912513337 1:0.01318168 2:0.13798823 3:-0.033942566 4:0.01524615 5:0.13125121 6:-0.028539753 7:0.019637639 8:0.12586139 9:-0.020717784 
8858.7212932657967 14058.54050460773 0 0.10437446110596682 0 0 1:0.047151257 2:0.12157633 3:0.050014773 4:0.041747736 5:0.11488102 6:0.055841465 7:0.034982976 8:0.11250115 9:0.055299381 
8858.7212932657967 14058.54050460773 0 0.10437446110596682 17.304217698460153 18.878702912513337 1:0.016280943 2:0.13194809 3:0.037153205 4:0.018038735 5:0.13211508 6:0.035878806 7:0.0064991269 8:0.11299021 9:0.028904296 
0 0 26.399879030306415 0.10437446110596682 0 0 1:0.078551535 2:0.080899754 3:0.041823647 4:0.084771019 5:0.08080698 6:0.045946922 7:0.093405997 8:0.083672428 9:0.04822929 
0 0 26.399879030306415 0.10437446110596682 0 0 1:0.083371906 2:0.13825548 3:-0.011472612 4:0.085178 5:0.14538401 6:-0.0018021767 7:0.094197868 8:0.14681248 9:0.0073589112 
8858.7212932657967 14058.54050460773 26.399879030306415 0.10437446110596682 17.304217698460153 18.878702912513337 1:0.032302364 2:0.098335428 3:0.028975714 4:0.024829762 5:0.092236459 6:0.024926585 7:0.017008729 8:0.08504807 9:0.023091334 
8858.7212932657967 14058.54050460773 26.399879030306415 0.10437446110596682 0 0 1:0.063078114 2:0.12592834 3:0.020583027 4:0.056473863 5:0.12437811 6:0.016178913 7:0.04812962 8:0.11888096 9:0.013115445 
8858.7212932657967 14058.54050460773 0 0.10437446110596682 0 0 1:0.042076234 2:0.10493569 3:0.044644147 4:0.042704202 5:0.10408015 6:0.044352698 7:0.046109841 8:0.10322602 9:0.044396939 
8858.7212932657967 14058.54050460773 0 0.10437446110596682 17.304217698460153 18.878702912513337 1:0.0025645266 2:0.13078891 3:0.033658963 4:0.021391509 5:0.14327802 6:0.010468232 7:0.030882558 8:0.14877011 9:-0.0018474985 
8858.7212932657967 14058.54050460773 0 0.10437446110596682 17.304217698460153 18.878702912513337 1:-0.040524046 2:0.12236651 3:0.010276723 4:-0.039360364 5:0.12449577 6:0.016598428 7:-0.035187779 8:0.1252162 9:0.022741934 
8858.7212932657967 14058.54050460773 26.399879030306415 0.10437446110596682 0 0 1:0.048271243 2:0.076600077 3:0.057884728 4:0.050754155 5:0.07532721 6:0.056689544 7:0.054646321 8:0.074745127 9:0.056352026 
0 14058.54050460773 26.399879030306415 0 0 0 1:0.056792364 2:0.15651712 3:-0.039986606 4:0.060972278 5:0.18912252 6:-0.026835791 7:0.056311206 8:0.22037185 9:-0.015702255 
8858.7212932657967 14058.54050460773 0 0 17.304217698460153 18.878702912513337 1:0.013659936 2:0.13444882 3:0.00085461574 4:0.014420399 5:0.13842348 6:-0.0030640954 7:0.016787597 8:0.13876723 9:-0.013589595 
0 0 26.399879030306415 0 0 0 1:0.072118639 2:0.1339122 3:-0.013569656 4:0.070585228 5:0.13680078 6:-0.016610476 7:0.068401959 8:0.13456567 9:-0.015495398 
0 14058.54050460773 26.399879030306415 0.10437446110596682 0 0 1:0.083024049 2:0.10006653 3:0.059481578 4:0.087262587 5:0.096011555 6:0.054238083 7:0.088767802 8:0.095563729 9:0.050867118 
8858.7212932657967 14058.54050460773 26.399879030306415 0.10437446110596682 17.304217698460153 18.878702912513337 1:0.027571376 2:0.082898693 3:0.027293978 4:0.025546606 5:0.086988343 6:0.031278457 7:0.023588607 8:0.09465848 9:0.033097955 
0 14058.54050460773 26.399879030306415 0.10437446110596682 0 0 1:0.068842457 2:0.11799402 3:0.0014228947 4:0.071725964 5:0.12080007 6:-0.00079169482 7:0.073562516 8:0.12637401 9:-0.0086841579 
8858.7212932657967 14058.54050460773 0 0.10437446110596682 17.304217698460153 18.878702912513337 1:0.023058622 2:0.118868 3:0.04279631 4:0.020902428 5:0.11580889 6:0.038625254 7:0.019231338 8:0.12189083 9:0.030283847 
8858.7212932657967 14058.54050460773 0 0.10437446110596682 0 0 1:0.051144602 2:0.13275045 3:0.019133553 4:0.053152867 5:0.12501096 6:0.018567978 7:0.050591445 8:0.11882252 9:0.027651723 
8858.7212932657967 14058.54050460773 0 0.10437446110596682 17.304217698460153 0 1:0.039945482 2:0.12774125 3:0.030931009 4:0.036271603 5:0.11887741 6:0.019487963 7:0.033301026 8:0.10984647 9:0.014598972 
8858.7212932657967 14058.54050460773 0 0 17.304217698460153 18.878702912513337 1:0.016266331 2:0.12237895 3:-0.015606125 4:0.017446769 5:0.12014992 6:-0.013679858 7:0.01932425 8:0.12059308 9:-0.015374895 
8858.7212932657967 14058.54050460773 0 0.10437446110596682 17.304217698460153 18.878702912513337 1:-0.0078504354 2:0.10096096 3:0.039858151 4:-0.010591725 5:0.10995453 6:0.04755655 7:-0.0052640647 8:0.1223482 9:0.045972345 
0 14058.54050460773 26.399879030306415 0.10437446110596682 17.304217698460153 18.878702912513337 1:0.033310797 2:0.11379674 3:-0.023851151 4:0.029442102 5:0.11266067 6:-0.023823369 7:0.026608563 8:0.11533299 9:-0.022854163 
8858.7212932657967 14058.54050460773 0 0.10437446110596682 0 0 1:0.04175669 2:0.10934485 3:0.02997774 4:0.040777508 5:0.11279604 6:0.023175996 7:0.038655876 8:0.11572555 9:0.015603065 
8858.7212932657967 14058.54050460773 0 0.10437446110596682 0 0 1:0.03020886 2:0.11011948 3:0.074437333 4:0.036719606 5:0.11229732 6:0.10318479 7:0.051097864 8:0.11400483 9:0.08559682 
0 14058.54050460773 26.399879030306415 0.10437446110596682 0 0 1:0.046002329 2:0.091289202 3:0.0083799977 4:0.043810795 5:0.088369262 6:0.012385367 7:0.041287405 8:0.086813022 9:0.015988978 
8858.7212932657967 14058.54050460773 0 0 17.304217698460153 18.878702912513337 1:0.016366572 2:0.11985604 3:-0.018111229 4:0.015788921 5:0.12095011 6:-0.016016557 7:0.018020266 8:0.12775905 9:-0.013126747 
8858.7212932657967 14058.54050460773 0 0.10437446110596682 17.304217698460153 18.878702912513337 1:0.012233064 2:0.13311845 3:0.003887427 4:0.029687779 5:0.12501765 6:0.00061496532 7:0.049024406 8:0.11669176 9:-0.00034056706 
8858.7212932657967 59.954008455177373 26.399879030306415 0.10437446110596682 17.304217698460153 18.878702912513337 1:0.021448418 2:0.12190985 3:-0.0080677778 4:0.023891337 5:0.098614217 6:-0.016014207 7:0.029073125 8:0.083471959 9:-0.021734723 
0 14058.54050460773 26.399879030306415 0.10437446110596682 0 0 1:0.040052654 2:0.10926262 3:0.0093038753 4:0.037774076 5:0.10134828 6:0.013901643 7:0.039006313 8:0.095856162 9:0.017680439 
8858.7212932657967 14058.54050460773 0 0.10437446110596682 17.304217698460153 18.878702912513337 1:0.032055393 2:0.11211229 3:0.041958917 4:0.014412456 5:0.11591761 6:0.053546007 7:0.0084182942 8:0.11890836 9:0.034954802 
8858.7212932657967 14058.54050460773 0 0.10437446110596682 17.304217698460153 18.878702912513337 1:0.0060861346 2:0.094238204 3:0.027753904 4:0.015183693 5:0.091792158 6:0.031233759 7:0.026172472 8:0.091070047 9:0.027132191 
0 14058.54050460773 26.399879030306415 0.10437446110596682 0 0 1:0.064692451 2:0.10137642 3:0.018705361 4:0.061890234 5:0.094469685 6:0.016961426 7:0.056298014 8:0.090503789 9:0.015811603 
0 14058.54050460773 0 0.10437446110596682 0 0 1:0.057304337 2:0.13671206 3:0.018994459 4:0.053617451 5:0.13598818 6:0.027928381 7:0.052495887 8:0.13480239 9:0.04452212 
8858.7212932657967 14058.54050460773 0 0.10437446110596682 0 0 1:0.062269885 2:0.11832383 3:0.10469724 4:0.056788384 5:0.11751021 6:0.10200392 7:0.050185476 8:0.10910134 9:0.083095895 
0 14058.54050460773 26.399879030306415 0.10437446110596682 0 18.878702912513337 1:0.039995542 2:0.1099528 3:-0.009489099 4:0.032685455 5:0.10573497 6:-0.0089387512 7:0.029196695 8:0.10146547 9:-0.0044926329 
0 14058.54050460773 26.399879030306415 0 17.304217698460153 18.878702912513337 1:0.025148022 2:0.13907964 3:-0.018573734 4:0.02663961 5:0.13698433 6:-0.02111299 7:0.028640434 8:0.12873099 9:-0.024102195 
8858.7212932657967 14058.54050460773 0 0.10437446110596682 17.304217698460153 18.878702912513337 1:0.03171922 2:0.13267388 3:0.021638884 4:0.029618589 5:0.13375097 6:0.026956753 7:0.024869175 8:0.13534065 9:0.032769703 
8858.7212932657967 14058.54050460773 0 0 17.304217698460153 18.878702912513337 1:0.010945201 2:0.24612488 3:0.054778945 4:0.0046395906 5:0.23572849 6:0.050353944 7:0.0062230171 8:0.22838109 9:0.050045099 
0 14058.54050460773 26.399879030306415 0.10437446110596682 0 0 1:0.056313962 2:0.1261613 3:-0.0056868262 4:0.059287004 5:0.12985988 6:-0.0035267967 7:0.062416538 8:0.13255864 9:0.0015170843 
8858.7212932657967 14058.54050460773 0 0.10437446110596682 17.304217698460153 18.878702912513337 1:-0.01213913 2:0.097929119 3:0.075330965 4:0.0020983909 5:0.10027946 6:0.077808219 7:0.013939176 8:0.10443834 9:0.073251679 
8858.7212932657967 14058.54050460773 0 0.10437446110596682 17.304217698460153 18.878702912513337 1:0.03814434 2:0.1062082 3:0.030579039 4:0.033459618 5:0.1088996 6:0.024601815 7:0.024530993 8:0.11175088 9:0.020373664 
8858.7212932657967 14058.54050460773 0 0 17.304217698460153 18.878702912513337 1:0.0043902798 2:0.22750893 3:0.017276727 4:0.0010268706 5:0.20211301 6:0.015681226 7:0.0026314835 8:0.16868118 9:0.024071554 
0 14058.54050460773 26.399879030306415 0 17.304217698460153 18.878702912513337 1:0.032453289 2:0.11323406 3:-0.023242361 4:0.032305886 5:0.12125876 6:-0.023850102 7:0.031040276 8:0.12143454 9:-0.023999514 
8858.7212932657967 14058.54050460773 0 0.10437446110596682 0 0 1:0.045967925 2:0.10381575 3:0.042108261 4:0.047129598 5:0.11118371 6:0.033438123 7:0.044301948 8:0.12386807 9:0.021613093 
8858.7212932657967 14058.54050460773 26.399879030306415 0 17.304217698460153 18.878702912513337 1:0.0030235835 2:0.17729013 3:-0.081969894 4:-0.0076373109 5:0.18166402 6:-0.089981686 7:-0.017912613 8:0.17144609 9:-0.089389054 
0 14058.54050460773 26.399879030306415 0.10437446110596682 0 0 1:0.067057864 2:0.10665738 3:0.0049372457 4:0.068746647 5:0.10767496 6:0.0056405454 7:0.071396845 8:0.11019575 9:0.0083639586 
8858.7212932657967 3514.6351261519326 0 0 17.304217698460153 18.878702912513337 1:0.021555369 2:0.14278394 3:-0.012976445 4:0.022318067 5:0.14711562 6:-0.0126844 7:0.024516678 8:0.14783632 9:-0.014372063 
0 0 26.399879030306415 0.10437446110596682 0 0 1:0.035863795 2:0.097490005 3:0.033747769 4:0.04685157 5:0.10030816 6:0.028419397 7:0.054996609 8:0.10629312 9:0.022855849 
8858.7212932657967 14058.54050460773 0 0 17.304217698460153 0 1:0.04319605 2:0.1455921 3:-0.014502527 4:0.038899412 5:0.14737923 6:-0.0097036182 7:0.03460661 8:0.14502532 9:-0.0051795866 
6133.3092222798095 0 26.399879030306415 0.10437446110596682 17.304217698460153 18.878702912513337 1:0.0026719293 2:0.067412575 3:-0.052972916 4:0.0029512587 5:0.061543744 6:-0.036733452 7:0.019298973 8:0.088886927 9:-0.04427849 
8858.7212932657967 14058.54050460773 26.399879030306415 0 17.304217698460153 18.878702912513337 1:0.032885551 2:0.16224942 3:-0.0086535543 4:0.028860847 5:0.14638851 6:-0.024134178 7:0.022377811 8:0.14389126 9:-0.039991246 
0 0 26.399879030306415 0 0 0 1:0.079393592 2:0.23862577 3:0.066032434 4:0.085513877 5:0.26391419 6:0.07639754 7:0.075708029 8:0.27461353 9:0.077045438 
8858.7212932657967 14058.54050460773 26.399879030306415 0 17.304217698460153 18.878702912513337 1:0.0039711469 2:0.13773565 3:-0.065133379 4:0.000947677 5:0.12881521 6:-0.052247233 7:-0.012736027 8:0.11362456 9:-0.024169152 
8858.7212932657967 14058.54050460773 9.3053356795948812 0.10437446110596682 0 0 1:0.091254405 2:0.16217873 3:0.089968831 4:0.073940608 5:0.13482393 6:0.097878342 7:0.048406557 8:0.12166372 9:0.079818037 
0 14058.54050460773 26.399879030306415 0.10437446110596682 0 0 1:0.082351932 2:0.10673464 3:0.009233244 4:0.087848595 5:0.10781952 6:0.020732673 7:0.087577371 8:0.10705056 9:0.016224918 
8858.7212932657967 14058.54050460773 0 0.10437446110596682 0 0 1:0.028535012 2:0.11210721 3:0.043139649 4:0.036476899 5:0.10518987 6:0.042620987 7:0.041280464 8:0.10007504 9:0.040666415 
8858.7212932657967 14058.54050460773 0 0 17.304217698460153 18.878702912513337 1:0.027997426 2:0.13219652 3:-0.0075817812 4:0.027246118 5:0.12737166 6:-0.011372791 7:0.024678144 8:0.12345495 9:-0.013448767 
8858.7212932657967 14058.54050460773 0 0.10437446110596682 17.304217698460153 0 1:0.040358095 2:0.13099077 3:0.054779669 4:0.03654243 5:0.12477631 6:0.057195285 7:0.033319348 8:0.12165371 9:0.052951495 
8858.7212932657967 14058.54050460773 0 0.10437446110596682 17.304217698460153 18.878702912513337 1:0.015295291 2:0.09275464 3:0.02915154 4:0.018868631 5:0.09862681 6:0.032018111 7:0.021620878 8:0.097552247 9:0.029240135 
8858.7212932657967 14058.54050460773 0 0.10437446110596682 17.304217698460153 18.878702912513337 1:0.016696056 2:0.2310878 3:0.098601113 4:0.032051305 5:0.20213269 6:0.089973918 7:0.048274128 8:0.17801731 9:0.076098274 
8858.7212932657967 14058.54050460773 0 0 17.304217698460153 18.878702912513337 1:0.014123861 2:0.18841696 3:0.065010647 4:0.0087620481 5:0.21361559 6:0.063657715 7:0.011521026 8:0.25091209 9:0.058839263 
0 14058.54050460773 26.399879030306415 0.10437446110596682 0 0 1:0.042268869 2:0.12074133 3:-0.0077738824 4:0.04847721 5:0.12472651 6:-0.0088719776 7:0.047990394 8:0.12434368 9:-0.0090544226 
0 14058.54050460773 0 0.10437446110596682 0 0 1:0.041150823 2:0.12330583 3:0.038610507 4:0.053829937 5:0.12501135 6:0.02076442 7:0.06255984 8:0.11999406 9:0.015650227 
8858.7212932657967 14058.54050460773 0 0.10437446110596682 17.304217698460153 18.878702912513337 1:0.0083058404 2:0.10974122 3:0.022455209 4:0.0079167055 5:0.11040896 6:0.022301551 7:0.012281007 8:0.11116882 9:0.028278249 
8858.7212932657967 14058.54050460773 26.399879030306415 0.10437446110596682 0 0 1:0.080111821 2:0.099163554 3:0.06224807 4:0.081991786 5:0.10191203 6:0.064312128 7:0.083446349 8:0.10899148 9:0.066908364 
8858.7212932657967 14058.54050460773 26.399879030306415 0.10437446110596682 17.304217698460153 18.878702912513337 1:0.015396109 2:0.080695603 3:0.0015448348 4:0.010586814 5:0.075486331 6:0.0026660567 7:0.0036206163 8:0.069012974 9:0.0073544296 
8858.7212932657967 14058.54050460773 0 0.10437446110596682 17.304217698460153 18.878702912513337 1:0.019490694 2:0.12457964 3:0.025011312 4:0.01535155 5:0.12468027 6:0.022926731 7:0.012034619 8:0.12379452 9:0.021198252 
0 14058.54050460773 26.399879030306415 0.10437446110596682 0 0 1:0.056039859 2:0.10672667 3:0.02367111 4:0.061390102 5:0.10920209 6:0.022794748 7:0.065564858 8:0.10801558 9:0.022988105 
0 14058.54050460773 0 0.10437446110596682 0 0 1:0.064377693 2:0.12915056 3:0.038950993 4:0.066583676 5:0.1306116 6:0.039458332 7:0.066068139 8:0.13224466 9:0.042634048 
8858.7212932657967 14058.54050460773 0 0.10437446110596682 0 0 1:0.063758143 2:0.11761562 3:0.051555284 4:0.058514424 5:0.12079519 6:0.060927828 7:0.050748205 8:0.12520179 9:0.07425696 
8858.7212932657967 14058.54050460773 26.399879030306415 0.10437446110596682 17.304217698460153 18.878702912513337 1:-0.010324292 2:0.14950853 3:0.047226266 4:-0.039111149 5:0.11737287 6:0.012707956 7:-0.051381475 8:0.11773623 9:-0.021256171 
8858.7212932657967 14058.54050460773 26.399879030306415 0.10437446110596682 0 0 1:0.068668503 2:0.1152525 3:0.040603191 4:0.060995766 5:0.12788712 6:0.028016579 7:0.056934943 8:0.13358281 9:0.02032756 
8858.7212932657967 0 26.399879030306415 0 17.304217698460153 18.878702912513337 1:-0.00021902037 2:0.13978942 3:-0.036357774 4:-0.0058812092 5:0.13050669 6:-0.033950168 7:-0.011252545 8:0.11571272 9:-0.029883505 
8858.7212932657967 14058.54050460773 0 0.10437446110596682 17.304217698460153 18.878702912513337 1:0.0058267746 2:0.1191572 3:0.069232484 4:0.012328207 5:0.10226368 6:0.056684816 7:0.021547507 8:0.08987743 9:0.038909043 
8858.7212932657967 14058.54050460773 0 0.10437446110596682 17.304217698460153 18.878702912513337 1:0.014013391 2:0.10627317 3:0.05722735 4:0.02778964 5:0.1055743 6:0.06217898 7:0.029011306 8:0.10492392 9:0.060957315 
8858.7212932657967 14058.54050460773 26.399879030306415 0 17.304217698460153 18.878702912513337 1:0.017600497 2:0.12322689 3:-0.017951248 4:0.017903865 5:0.12167571 6:-0.01826128 7:0.018158743 8:0.12142083 9:-0.018138235 
8858.7212932657967 14058.54050460773 0 0.10437446110596682 0 0 1:0.046963811 2:0.10075534 3:0.059778784 4:0.045740364 5:0.10308478 6:0.058754835 7:0.044928881 8:0.10363978 9:0.057772712 
8858.7212932657967 14058.54050460773 0 0.10437446110596682 17.304217698460153 18.878702912513337 1:-0.010933261 2:0.11642567 3:0.044899975 4:-0.0082338633 5:0.11822995 6:0.033789682 7:-0.0056053033 8:0.11568355 9:0.020256394 
8858.7212932657967 14058.54050460773 0 0.10437446110596682 17.304217698460153 18.878702912513337 1:-0.03035063 2:0.10063202 3:0.03054578 4:-0.027286046 5:0.089912984 6:0.030441433 7:-0.01727727 8:0.079404064 9:0.033230727 
8858.7212932657967 14058.54050460773 26.399879030306415 0.10437446110596682 17.304217698460153 18.878702912513337 1:0.025575069 2:0.091249722 3:0.012019368 4:0.022260375 5:0.094838585 6:0.023372513 7:0.029540076 8:0.10158327 9:0.023369683 
8858.7212932657967 14058.54050460773 0 0.10437446110596682 17.304217698460153 18.878702912513337 1:0.010394636 2:0.09586687 3:0.037943855 4:0.013354461 5:0.095336293 6:0.040457751 7:0.018079932 8:0.09657024 9:0.041221866 
8858.7212932657967 14058.54050460773 0 0.10437446110596682 17.304217698460153 18.878702912513337 1:0.0011661228 2:0.11919721 3:0.058239015 4:-0.0036736262 5:0.11348 6:0.047309109 7:-0.0083096311 8:0.10958188 9:0.033920169 
8858.7212932657967 14058.54050460773 0 0 17.304217698460153 18.878702912513337 1:0.0080360997 2:0.13854018 3:0.0023794668 4:0.025660933 5:0.13695764 6:-0.0038643251 7:0.041675193 8:0.12505027 9:-0.0093043026 
0 0 26.399879030306415 0 17.304217698460153 18.878702912513337 1:0.039801024 2:0.37845913 3:0.098284325 4:0.010947074 5:0.45002925 6:0.18723359 7:-0.047707437 8:0.45132267 9:0.19016678 
0 14058.54050460773 26.399879030306415 0 0 0 1:0.068837369 2:0.16222906 3:-0.037012517 4:0.06084163 5:0.16457927 6:-0.035358662 7:0.039609309 8:0.17201398 9:-0.021211631 
8858.7212932657967 14058.54050460773 0 0 17.304217698460153 18.878702912513337 1:0.019034744 2:0.19251275 3:0.046875074 4:0.013196205 5:0.22338072 6:0.062861598 7:0.014040194 8:0.25768561 9:0.090804168 
0 14058.54050460773 26.399879030306415 0.10437446110596682 0 0 1:0.063586456 2:0.12778831 3:0.0071325612 4:0.076998411 5:0.12993448 6:0.0065755456 7:0.086184153 8:0.12685628 9:0.0031940793 
0 14058.54050460773 26.399879030306415 0.10437446110596682 0 0 1:0.06920933 2:0.10127834 3:0.02552558 4:0.064430008 5:0.096276982 6:0.015147301 7:0.06050452 8:0.090845562 9:0.008441234 
8858.7212932657967 14058.54050460773 0 0 17.304217698460153 18.878702912513337 1:-0.0045788434 2:0.22067365 3:0.081594387 4:-0.0082013329 5:0.21644903 6:0.068260937 7:-0.013356821 8:0.21149926 9:0.051374971 
8858.7212932657967 14058.54050460773 0 0.10437446110596682 0 0 1:0.040604803 2:0.12352376 3:0.042804447 4:0.051363656 5:0.12546843 6:0.041702106 7:0.057219251 8:0.12266032 9:0.041682817 
8858.7212932657967 14058.54050460773 0 0 17.304217698460153 18.878702912513337 1:0.015025832 2:0.22721914 3:0.029848691 4:-0.0036082718 5:0.24845984 6:0.047484026 7:-0.020328731 8:0.22226066 9:0.05249049 
0 0 26.399879030306415 0.10437446110596682 0 0 1:0.091137076 2:0.099643751 3:-0.0023061815 4:0.09372222 5:0.10761 6:-0.0050574912 7:0.095580411 8:0.11582092 9:-0.0070566029 
4498.2299406884467 8237.4092442148758 26.399879030306415 0.10437446110596682 0 0 1:0.052915156 2:0.13117818 3:0.012524551 4:0.053314381 5:0.15053526 6:0.0087330616 7:0.059690603 8:0.17220185 9:0.010462295 
8858.7212932657967 14058.54050460773 0 0.10437446110596682 0 0 1:0.0402984 2:0.10400033 3:0.064114937 4:0.045679801 5:0.10218791 6:0.063417483 7:0.051383447 8:0.09943973 9:0.06004044 
0 14058.54050460773 26.399879030306415 0.10437446110596682 0 0 1:0.082835666 2:0.11738311 3:0.0056201371 4:0.085280073 5:0.11938293 6:0.0086941037 7:0.087709319 8:0.11975802 9:0.01188687 
8858.7212932657967 14058.54050460773 26.399879030306415 0.10437446110596682 0 0 1:0.045816163 2:0.12933882 3:0.00076501459 4:0.041823717 5:0.13039845 6:-0.0087591366 7:0.037803189 8:0.13296854 9:-0.014173341 
8858.7212932657967 14058.54050460773 0 0.10437446110596682 17.304217698460153 18.878702912513337 1:0.010511504 2:0.098452247 3:0.025057883 4:0.011571725 5:0.10148228 6:0.026912721 7:0.012468908 8:0.10568796 9:0.024773694 
8858.7212932657967 0 0 0 17.304217698460153 18.878702912513337 1:0.022847596 2:0.14700607 3:-0.0082376667 4:0.0010436243 5:0.16815215 6:-0.010932112 7:0.00026122479 8:0.18615172 9:-0.014440571 
8858.7212932657967 14058.54050460773 0 0.10437446110596682 17.304217698460153 18.878702912513337 1:0.017212272 2:0.11161629 3:0.033719437 4:0.015973852 5:0.11039065 6:0.034125624 7:0.014665826 8:0.10845482 9:0.030793125 
8858.7212932657967 14058.54050460773 26.399879030306415 0 17.304217698460153 18.878702912513337 1:-0.039717655 2:0.19221427 3:0.0071226285 4:-0.035613205 5:0.23733398 6:0.027020515 7:0.0020372141 8:0.27780006 9:0.031410289 
0 14058.54050460773 26.399879030306415 0.10437446110596682 0 0 1:0.074408603 2:0.11816948 3:-0.0101865 4:0.071444648 5:0.12053538 6:8.0055272e-05 7:0.06799063 8:0.12362268 9:0.015022361 
1152.3064451400433 8300.2938269460665 26.399879030306415 0.10437446110596682 0 0 1:0.054687982 2:0.13087205 3:0.00091073652 4:0.046894823 5:0.12536139 6:-0.014873048 7:0.045533129 8:0.11534222 9:-0.021626941 
8858.7212932657967 14058.54050460773 26.399879030306415 0.10437446110596682 0 0 1:0.04517666 2:0.076777705 3:0.028868308 4:0.047266493 5:0.075032536 6:0.030037126 7:0.049094781 8:0.076212455 9:0.031278675 
8858.7212932657967 14058.54050460773 26.399879030306415 0 0 0 1:0.056337575 2:0.14535012 3:-0.00062416496 4:0.064313681 5:0.14972112 6:-0.0051385861 7:0.056723174 8:0.14073135 9:-0.0081345716 
8858.7212932657967 14058.54050460773 0 0.10437446110596682 17.304217698460153 18.878702912513337 1:0.015010013 2:0.11541093 3:0.051820222 4:0.0065186001 5:0.10870059 6:0.039931542 7:0.0072093896 8:0.10711111 9:0.027747283 
8858.7212932657967 14058.54050460773 0 0.10437446110596682 17.304217698460153 18.878702912513337 1:0.022294258 2:0.12692629 3:-0.0010864656 4:0.018919343 5:0.11518036 6:-0.00027021111 7:0.012333673 8:0.11169413 9:-0.0020548494 
0 14058.54050460773 26.399879030306415 0.10437446110596682 0 0 1:0.087483474 2:0.11192398 3:-0.001361106 4:0.083374645 5:0.1091679 6:0.0076850177 7:0.080790804 8:0.11107022 9:0.011827175 
8858.7212932657967 14058.54050460773 26.399879030306415 0.10437446110596682 0 0 1:0.042486873 2:0.11111499 3:0.01433616 4:0.041408965 5:0.10908802 6:0.010431189 7:0.0399691 8:0.10573981 9:0.0012098802 
8858.7212932657967 14058.54050460773 26.399879030306415 0.10437446110596682 0 0 1:0.059451766 2:0.11432984 3:-0.0072417502 4:0.055765997 5:0.11436265 6:0.0036356044 7:0.050056873 8:0.11991606 9:0.016689856 
0 14058.54050460773 26.399879030306415 0.10437446110596682 0 0 1:0.058478878 2:0.10546544 3:-0.024507254 4:0.06625713 5:0.10823038 6:-0.01013783 7:0.072199131 8:0.11957132 9:-0.0027670424 
8858.7212932657967 14058.54050460773 0 0 17.304217698460153 18.878702912513337 1:-0.017176073 2:0.14056849 3:-0.036742592 4:-0.0075215718 5:0.14108373 6:-0.033391395 7:0.0056103664 8:0.14136055 9:-0.022663453 
0 14058.54050460773 26.399879030306415 0 0 18.878702912513337 1:0.033638865 2:0.12694761 3:-0.025911693 4:0.037612911 5:0.12985123 6:-0.029943841 7:0.038177712 8:0.13500326 9:-0.030699167 
8858.7212932657967 14058.54050460773 0 0 17.304217698460153 18.878702912513337 1:0.005177381 2:0.15756063 3:-0.012270201 4:0.011909224 5:0.1801969 6:-0.02138239 7:0.021330372 8:0.19486317 9:-0.025392416 
8858.7212932657967 14058.54050460773 26.399879030306415 0.10437446110596682 17.304217698460153 18.878702912513337 1:-0.094974761 2:0.11625801 3:0.077127471 4:-0.1012543 5:0.075951557 6:0.10529922 7:-0.080877996 8:0.074325574 9:0.098965753 
8858.7212932657967 14058.54050460773 0 0.10437446110596682 17.304217698460153 18.878702912513337 1:0.016056928 2:0.1243204 3:-0.016579714 4:0.0098304176 5:0.10960882 6:-0.0047573297 7:0.00025907942 8:0.091134859 9:0.012111059 
0 0 26.399879030306415 0.10437446110596682 0 18.878702912513337 1:0.023096672 2:0.1024173 3:-0.067419657 4:0.011613111 5:0.072459767 6:-0.048253816 7:0.028030635 8:0.061657793 9:-0.036754044 
8858.7212932657967 14058.54050460773 0 0.10437446110596682 17.304217698460153 18.878702912513337 1:0.02228505 2:0.12397898 3:0.059381774 4:0.023214305 5:0.1246391 6:0.057250119 7:0.032082981 8:0.12366349 9:0.049530785 
8858.7212932657967 14058.54050460773 26.399879030306415 0 0 0 1:0.029088126 2:0.13993839 3:-0.0064383717 4:0.038050126 5:0.13814285 6:-0.01647865 7:0.049483904 8:0.12572508 9:-0.0220543 
8858.7212932657967 14058.54050460773 26.399879030306415 0.10437446110596682 0 0 1:0.065156771 2:0.074310773 3:0.046227735 4:0.067460369 5:0.080204988 6:0.049009773 7:0.064836054 8:0.088912159 9:0.042926192 
0 14058.54050460773 0 0.10437446110596682 0 0 1:0.075025254 2:0.14755264 3:0.034658923 4:0.072973479 5:0.15134948 6:0.052966946 7:0.075143188 8:0.15273173 9:0.066003208 
8858.7212932657967 14058.54050460773 26.399879030306415 0.10437446110596682 17.304217698460153 18.878702912513337 1:0.024764087 2:0.094442032 3:0.0075284594 4:0.015993913 5:0.087328612 6:0.0021021091 7:0.01151536 8:0.078416992 9:0.0021262395 
8858.7212932657967 14058.54050460773 26.399879030306415 0.10437446110596682 17.304217698460153 18.878702912513337 1:0.025262634 2:0.083572715 3:0.023481198 4:0.027467659 5:0.079925752 6:0.0213755 7:0.026504045 8:0.076399119 9:0.021560548 
8858.7212932657967 14058.54050460773 0 0 17.304217698460153 18.878702912513337 1:-0.02414444 2:0.15104078 3:-0.022673431 4:-0.021506562 5:0.15017691 6:-0.025799128 7:-0.010696577 8:0.15300836 9:-0.030540761 
0 5421.2957958426668 26.399879030306415 0 0 0 1:0.059204236 2:0.14218781 3:-0.021362641 4:0.058064253 5:0.14271845 6:-0.031043988 7:0.057659479 8:0.13844996 9:-0.037373549 
0 14058.54050460773 26.399879030306415 0.10437446110596682 0 0 1:0.078437857 2:0.12228497 3:0.0048840938 4:0.079304313 5:0.12777756 6:0.013647554 7:0.067863282 8:0.124978 9:0.018844868 
8858.7212932657967 14058.54050460773 0 0.10437446110596682 0 0 1:0.051455841 2:0.18229779 3:0.045510249 4:0.05554246 5:0.16575818 6:0.041997112 7:0.051411786 8:0.14473355 9:0.050462655 
8858.7212932657967 14058.54050460773 0 0.10437446110596682 17.304217698460153 18.878702912513337 1:-0.04878336 2:0.12893967 3:0.016600232 4:-0.043984749 5:0.13362756 6:0.021964237 7:-0.035806265 8:0.14026862 9:0.026439667 
0 14058.54050460773 26.399879030306415 0.10437446110596682 0 0 1:0.056520696 2:0.10414191 3:0.05447961 4:0.05891255 5:0.097897714 6:0.046813422 7:0.080183998 8:0.099079155 9:0.031750675 
8858.7212932657967 14058.54050460773 0 0 17.304217698460153 18.878702912513337 1:-0.0096608518 2:0.15329535 3:0.028280009 4:-0.012143128 5:0.18419811 6:0.028404881 7:-0.011493339 8:0.22483771 9:0.020105042 
8858.7212932657967 14058.54050460773 0 0.10437446110596682 17.304217698460153 18.878702912513337 1:0.011738783 2:0.11449035 3:0.030129523 4:0.017462725 5:0.11817157 6:0.026924317 7:0.023751876 8:0.12942137 9:0.033585731 
0 14058.54050460773 26.399879030306415 0.10437446110596682 0 0 1:0.043945962 2:0.092748675 3:0.015937911 4:0.042737904 5:0.095625974 6:0.0097355308 7:0.043308113 8:0.096689798 9:0.0080431412 
8858.7212932657967 14058.54050460773 0 0.10437446110596682 0 0 1:0.047856315 2:0.15581566 3:0.038063363 4:0.055798796 5:0.15816823 6:0.039859918 7:0.063131117 8:0.16289753 9:0.03731217 
8858.7212932657967 14058.54050460773 26.399879030306415 0.10437446110596682 0 0 1:0.045263637 2:0.094531132 3:0.06727385 4:0.049233258 5:0.092275013 6:0.061547554 7:0.051186596 8:0.091131038 9:0.054903904 
0 14058.54050460773 0 0 17.304217698460153 18.878702912513337 1:0.038124636 2:0.13353739 3:-0.017399849 4:0.036297058 5:0.13459366 6:-0.01326849 7:0.034536251 8:0.13623525 9:-0.0081718742 
8858.7212932657967 14058.54050460773 0 0.10437446110596682 0 0 1:0.037335846 2:0.11098643 3:0.085843431 4:0.044817349 5:0.12858968 6:0.07939082 7:0.051362091 8:0.14274071 9:0.073126627 
8858.7212932657967 14058.54050460773 0 0 17.304217698460153 18.878702912513337 1:0.019085281 2:0.14131873 3:-0.021897993 4:0.011557069 5:0.14290156 6:-0.016453952 7:0.0065351946 8:0.13772679 9:-0.010701999 
8858.7212932657967 14058.54050460773 0 0.10437446110596682 17.304217698460153 0 1:0.030304995 2:0.1022638 3:0.03554421 4:0.035055119 5:0.10517715 6:0.037728071 7:0.037019189 8:0.10626758 9:0.037657646 
8858.7212932657967 14058.54050460773 0 0.10437446110596682 17.304217698460153 18.878702912513337 1:0.027646117 2:0.10777672 3:0.019267853 4:0.022415543 5:0.11109973 6:0.019436669 7:0.019404812 8:0.11038003 9:0.020131705 
0 14058.54050460773 0 0 17.304217698460153 18.878702912513337 1:0.02600781 2:0.13198803 3:-0.018952026 4:0.026380371 5:0.13487865 6:-0.017821902 7:0.028263812 8:0.13695787 9:-0.015398203 
8858.7212932657967 14058.54050460773 26.399879030306415 0 17.304217698460153 18.878702912513337 1:0.057173235 2:0.24647876 3:0.03671396 4:0.032831126 5:0.18074452 6:0.0027740336 7:0.017494276 8:0.1348907 9:-0.025574153 
8858.7212932657967 14058.54050460773 0 0 17.304217698460153 18.878702912513337 1:0.003782468 2:0.14227297 3:0.018490248 4:0.0023356463 5:0.14809016 6:0.0040293947 7:0.0059141233 8:0.14864474 9:-0.0085322668 
8858.7212932657967 14058.54050460773 0 0.10437446110596682 17.304217698460153 18.878702912513337 1:0.0146727 2:0.1199172 3:0.045447906 4:0.0069896422 5:0.11531235 6:0.048697835 7:0.0042502486 8:0.11397182 9:0.05036993 
8858.7212932657967 0 26.399879030306415 0 17.304217698460153 18.878702912513337 1:0.020150644 2:0.25241173 3:0.11420809 4:0.015004355 5:0.2518878 6:0.10415206 7:0.012562303 8:0.25333919 9:0.089866984 
8858.7212932657967 14058.54050460773 0 0 17.304217698460153 18.878702912513337 1:-0.047652028 2:0.11578856 3:-0.0015683533 4:-0.032594415 5:0.12535796 6:-0.0011280139 7:-0.020960617 8:0.13172143 9:0.0096980903 
8858.7212932657967 14058.54050460773 0 0.10437446110596682 17.304217698460153 0 1:0.042898631 2:0.12799447 3:0.080514017 4:0.042676718 5:0.13217266 6:0.073818335 7:0.043785016 8:0.12825688 9:0.075080889 
8858.7212932657967 14058.54050460773 0 0.10437446110596682 0 0 1:0.044801574 2:0.13243842 3:0.013886749 4:0.039079597 5:0.13071435 6:0.008809653 7:0.037428573 8:0.13184464 9:0.0031662274 
8858.7212932657967 14058.54050460773 0 0 17.304217698460153 18.878702912513337 1:-0.034188555 2:0.19082764 3:0.0077053038 4:-0.061087612 5:0.1742902 6:0.0186069 7:-0.073666263 8:0.14426521 9:0.026470031 
0 0 26.399879030306415 0 0 18.878702912513337 1:0.027687783 2:0.10510743 3:-0.033773748 4:0.032486919 5:0.11204448 6:-0.036387863 7:0.040146371 8:0.12309049 9:-0.030748042 
8858.7212932657967 14058.54050460773 26.399879030306415 0 17.304217698460153 18.878702912513337 1:0.0037880161 2:0.10574504 3:-0.015649659 4:0.0045698923 5:0.1130023 6:-0.021316324 7:0.0057797095 8:0.11747233 9:-0.028275971 
0 14058.54050460773 26.399879030306415 0.10437446110596682 0 0 1:0.075631755 2:0.12407055 3:0.005429427 4:0.072556486 5:0.12217863 6:0.012701825 7:0.067042954 8:0.11948924 9:0.01687843 
0 14058.54050460773 26.399879030306415 0.10437446110596682 0 0 1:0.068589105 2:0.1593724 3:0.039192091 4:0.066250988 5:0.17026042 6:0.039681034 7:0.080426328 8:0.1972967 9:0.044025748 
8858.7212932657967 14058.54050460773 0 0.10437446110596682 0 0 1:0.037083192 2:0.10612865 3:0.0081211784 4:0.035659382 5:0.10767551 6:0.0078223534 7:0.034872099 8:0.10425646 9:0.016675828 
8858.7212932657967 14058.54050460773 26.399879030306415 0.10437446110596682 0 0 1:0.053167171 2:0.074412975 3:0.055187638 4:0.05628691 5:0.075881326 6:0.052946384 7:0.062136843 8:0.079648202 9:0.052554417 
8858.7212932657967 14058.54050460773 0 0.10437446110596682 17.304217698460153 18.878702912513337 1:0.014595541 2:0.16641373 3:0.072940274 4:0.021722701 5:0.15781242 6:0.073138287 7:0.02613412 8:0.14916201 9:0.064507781 
0 0 26.399879030306415 0 0 0 1:0.11178625 2:0.14219252 3:-0.02698629 4:0.11964509 5:0.14042864 6:-0.024072122 7:0.12163292 8:0.13630115 9:-0.015356624 
8858.7212932657967 6083.9885407102638 26.399879030306415 0 17.304217698460153 18.878702912513337 1:0.016888339 2:0.11845803 3:-0.029554388 4:0.016826816 5:0.11499805 6:-0.031095057 7:0.014938422 8:0.1160516 9:-0.03052106 
8858.7212932657967 0 26.399879030306415 0 17.304217698460153 0 1:0.024496611 2:0.1855758 3:-0.00026938951 4:0.035378666 5:0.23359385 6:0.0084482318 7:0.062595999 8:0.23562881 9:0.00050668663 
0 9998.372294383078 26.399879030306415 0.10437446110596682 0 0 1:0.061708878 2:0.11493292 3:-0.011645536 4:0.060754235 5:0.11543258 6:-0.01527686 7:0.063525662 8:0.11450643 9:-0.018295378 
0 14058.54050460773 26.399879030306415 0.10437446110596682 0 0 1:0.067115228 2:0.13160995 3:-0.01101636 4:0.071635607 5:0.13251621 6:-0.011698954 7:0.072800591 8:0.12561173 9:-0.013872613 
0 0 26.399879030306415 0.10437446110596682 0 0 1:0.074784224 2:0.10910894 3:-0.012602596 4:0.076526217 5:0.11333821 6:-0.0132462 7:0.075533064 8:0.11400092 9:-0.013635335 
0 14058.54050460773 26.399879030306415 0.10437446110596682 0 0 1:0.073905633 2:0.11077307 3:0.033869126 4:0.069673644 5:0.11042156 6:0.029022549 7:0.069295017 8:0.11467384 9:0.025208713 
8858.7212932657967 14058.54050460773 26.399879030306415 0.10437446110596682 0 0 1:0.052290491 2:0.10798096 3:0.062650532 4:0.043428707 5:0.096590305 6:0.054061849 7:0.038952276 8:0.084841724 9:0.050522594 
8858.7212932657967 14058.54050460773 0 0 17.304217698460153 18.878702912513337 1:0.030250231 2:0.1376953 3:-0.015590305 4:0.029021488 5:0.13506827 6:-0.017594255 7:0.029768617 8:0.13420647 9:-0.016129741 
8858.7212932657967 14058.54050460773 0 0 17.304217698460153 18.878702912513337 1:0.021903343 2:0.13451426 3:-0.0035938077 4:0.020701196 5:0.13183498 6:-0.00328035 7:0.023246822 8:0.12911399 9:-0.0063884684 
0 10533.852830578036 26.399879030306415 0.10437446110596682 0 0 1:0.086059228 2:0.11069652 3:-0.0069202255 4:0.085473019 5:0.11245874 6:-0.0028342266 7:0.085331687 8:0.11139539 9:0.0046224418 
0 14058.54050460773 26.399879030306415 0 0 0 1:0.060597906 2:0.12784474 3:-0.015748747 4:0.058962979 5:0.1310556 6:-0.015635609 7:0.058296546 8:0.13138676 9:-0.018080722 
0 7068.6530862149339 26.399879030306415 0 17.304217698460153 18.878702912513337 1:0.023997899 2:0.13371568 3:-0.041116233 4:0.019468731 5:0.1214767 6:-0.034911316 7:0.019304274 8:0.12478635 9:-0.025680625 
8858.7212932657967 14058.54050460773 0 0 17.304217698460153 18.878702912513337 1:0.025447467 2:0.21776181 3:0.061421258 4:0.019802398 5:0.2313736 6:0.069074522 7:0.015515484 8:0.24275931 9:0.068964628 
8858.7212932657967 14058.54050460773 0 0.10437446110596682 17.304217698460153 18.878702912513337 1:0.048690519 2:0.14258882 3:0.04052063 4:0.027482324 5:0.13037827 6:0.01991408 7:0.0085109561 8:0.12839098 9:-0.0076723429 
8858.7212932657967 14058.54050460773 0 0 17.304217698460153 18.878702912513337 1:0.033418888 2:0.14518717 3:-0.0086456794 4:0.036949289 5:0.14489785 6:-0.0040171845 7:0.035268522 8:0.14015976 9:-0.010665451 
8858.7212932657967 14058.54050460773 0 0.10437446110596682 17.304217698460153 18.878702912513337 1:0.032043041 2:0.097163447 3:0.005766343 4:0.030811059 5:0.10103381 6:0.022355426 7:0.023978885 8:0.10427365 9:0.0366802 
8858.7212932657967 14058.54050460773 0 0 17.304217698460153 18.878702912513337 1:-0.0090547521 2:0.15041948 3:-0.015149968 4:-0.0128845 5:0.13854815 6:-0.0082897613 7:-0.01954514 8:0.12759488 9:0.0027549486 
8858.7212932657967 14058.54050460773 26.399879030306415 0 17.304217698460153 18.878702912513337 1:0.024531128 2:0.11176467 3:-0.022514977 4:0.025742886 5:0.12193444 6:-0.024319203 7:0.026277597 8:0.12829662 9:-0.026547307 
8858.7212932657967 14058.54050460773 0 0.10437446110596682 17.304217698460153 18.878702912513337 1:-0.0026189732 2:0.1105283 3:0.018320562 4:-0.0014910863 5:0.11762679 6:0.007080669 7:0.005272258 8:0.11672016 9:0.0023419808 
0 14058.54050460773 26.399879030306415 0.10437446110596682 0 0 1:0.031952665 2:0.12269085 3:-0.007658806 4:0.041340964 5:0.11404268 6:-0.010819016 7:0.050057055 8:0.10275916 9:-0.008289625 
8858.7212932657967 14058.54050460773 0 0.10437446110596682 17.304217698460153 18.878702912513337 1:-0.0061139227 2:0.13044429 3:0.045764559 4:-0.005831556 5:0.11934457 6:0.052959386 7:-0.0022125611 8:0.10657729 9:0.058728092 
8858.7212932657967 0 26.399879030306415 0 17.304217698460153 18.878702912513337 1:0.023787401 2:0.13534529 3:-0.024296556 4:0.010942597 5:0.13091702 6:-0.042094156 7:0.0062142278 8:0.12658576 9:-0.046140342 
8858.7212932657967 14058.54050460773 0 0 17.304217698460153 18.878702912513337 1:0.02705098 2:0.14055881 3:-0.0072481436 4:0.017686629 5:0.13699296 6:-0.009727703 7:0.010446442 8:0.13687616 9:-0.014054839 
8858.7212932657967 14058.54050460773 0 0.10437446110596682 0 0 1:0.049467669 2:0.12716841 3:0.017992953 4:0.043652664 5:0.12761761 6:0.020639023 7:0.041910441 8:0.12665784 9:0.019702074 
0 14058.54050460773 0 0.10437446110596682 0 0 1:0.059394828 2:0.15275104 3:0.031961426 4:0.065627523 5:0.17126658 6:0.046917589 7:0.074513732 8:0.18584151 9:0.036342714 
8858.7212932657967 0 26.399879030306415 0 17.304217698460153 18.878702912513337 1:-0.025834291 2:0.25266184 3:0.013941582 4:-0.015927262 5:0.26419156 6:0.012831387 7:-0.010607795 8:0.26945785 9:0.0099746077 
0 14058.54050460773 26.399879030306415 0.10437446110596682 0 0 1:0.035790197 2:0.10269061 3:0.013490675 4:0.046746494 5:0.10678058 6:0.0074210207 7:0.052661781 8:0.11262676 9:-0.0020811236 
8858.7212932657967 14058.54050460773 0 0 17.304217698460153 18.878702912513337 1:0.025894824 2:0.22500852 3:0.044313751 4:0.027878963 5:0.21903721 6:0.055608683 7:0.039905434 8:0.19871279 9:0.059534425 
8858.7212932657967 14058.54050460773 0 0.10437446110596682 17.304217698460153 0 1:0.036754521 2:0.16271151 3:0.040953091 4:0.051578326 5:0.16926935 6:0.064164233 7:0.061578016 8:0.17625729 9:0.060574664 
8858.7212932657967 14058.54050460773 26.399879030306415 0 17.304217698460153 18.878702912513337 1:0.022586211 2:0.1503456 3:-0.036414889 4:0.0163597 5:0.14943818 6:-0.032687299 7:0.012767 8:0.14737342 9:-0.028163563 
8858.7212932657967 14058.54050460773 0 0.10437446110596682 17.304217698460153 18.878702912513337 1:-0.015669094 2:0.12476738 3:0.024822815 4:-0.014814443 5:0.13925705 6:0.024719062 7:-0.0099170284 8:0.15273095 9:0.023259911 
8858.7212932657967 14058.54050460773 0 0.10437446110596682 0 0 1:0.043063713 2:0.10610981 3:0.023191884 4:0.039995337 5:0.099856956 6:0.029420747 7:0.033136844 8:0.098233643 9:0.0299295 
8858.7212932657967 14058.54050460773 0 0.10437446110596682 17.304217698460153 18.878702912513337 1:0.0040169431 2:0.12087599 3:-0.0064130086 4:0.00017874608 5:0.12107619 6:-0.0081413745 7:0.0037207213 8:0.11613975 9:-0.0038029161 
8858.7212932657967 14058.54050460773 0 0.10437446110596682 17.304217698460153 18.878702912513337 1:0.041602848 2:0.11790322 3:0.058040615 4:0.027112045 5:0.12019071 6:0.063516567 7:0.0158501 8:0.12166766 9:0.063511024 
568.96398068844246 0 26.399879030306415 0 17.304217698460153 18.878702912513337 1:0.024989369 2:0.27120265 3:0.070341734 4:0.02838729 5:0.31078231 6:0.096922833 7:0.029872032 8:0.33563499 9:0.09932375 
8858.7212932657967 14058.54050460773 0 0.10437446110596682 0 0 1:0.031934902 2:0.095783283 3:0.02827761 4:0.033687035 5:0.098662594 6:0.026571252 7:0.036198437 8:0.099324892 9:0.022742141 
8858.7212932657967 14058.54050460773 26.399879030306415 0.10437446110596682 0 0 1:0.04458881 2:0.096169883 3:0.042473607 4:0.04200367 5:0.086890474 6:0.047393735 7:0.040376298 8:0.08039187 9:0.051342654 
0 10870.188350161558 26.399879030306415 0.10437446110596682 0 0 1:0.099673645 2:0.109088 3:-0.0058407586 4:0.098700358 5:0.11807872 6:-0.014982099 7:0.089218666 8:0.12384974 9:-0.020360919 
0 14058.54050460773 26.399879030306415 0.10437446110596682 0 0 1:0.055926459 2:0.097239649 3:-0.031704053 4:0.053283749 5:0.095656422 6:-0.016950104 7:0.044657252 8:0.094682519 9:0.0010081137 
8858.7212932657967 14058.54050460773 0 0.10437446110596682 17.304217698460153 18.878702912513337 1:0.026591556 2:0.10834568 3:0.028533221 4:0.024088871 5:0.11206106 6:0.035177582 7:0.023981394 8:0.11716244 9:0.036977677 
0 14058.54050460773 26.399879030306415 0.10437446110596682 0 0 1:0.071449876 2:0.10107863 3:-0.0063436923 4:0.069236178 5:0.10303846 6:-0.0097909281 7:0.068490945 8:0.10948462 9:-0.010332191 
8858.7212932657967 14058.54050460773 26.399879030306415 0.10437446110596682 17.304217698460153 18.878702912513337 1:0.026938301 2:0.097703086 3:0.0051384922 4:0.027345307 5:0.10147407 6:0.0032913264 7:0.021211413 8:0.10308269 9:0.0024360807 
8858.7212932657967 0 26.399879030306415 0.10437446110596682 17.304217698460153 18.878702912513337 1:-0.046071117 2:0.055851021 3:0.0072695068 4:-0.044924943 5:0.06024635 6:-0.0017310044 7:-0.045096704 8:0.063716457 9:-0.0093989493 
0 14058.54050460773 26.399879030306415 0.10437446110596682 0 0 1:0.069263598 2:0.098228987 3:0.03585171 4:0.071924486 5:0.085890362 6:0.013184409 7:0.062185293 8:0.080752104 9:0.0049528295 
8858.7212932657967 14058.54050460773 26.399879030306415 0 17.304217698460153 18.878702912513337 1:0.021894074 2:0.12697717 3:-0.023898314 4:0.024901269 5:0.127066 6:-0.025530413 7:0.021193605 8:0.12162573 9:-0.029449421 
8858.7212932657967 14058.54050460773 0 0 17.304217698460153 0 1:0.020983127 2:0.17647154 3:0.041832949 4:0.046102273 5:0.17603556 6:0.0071523744 7:0.06126702 8:0.15479378 9:-0.025014308 
8858.7212932657967 14058.54050460773 0 0 17.304217698460153 18.878702912513337 1:0.0288871 2:0.21913522 3:0.051748059 4:0.033073609 5:0.21725415 6:0.04351867 7:0.038620472 8:0.21047195 9:0.040239495 
8858.7212932657967 14058.54050460773 0 0.10437446110596682 17.304217698460153 18.878702912513337 1:0.02796567 2:0.12085041 3:0.019014959 4:0.026910584 5:0.12134329 6:0.014074125 7:0.022993881 8:0.12085907 9:0.018512985 
8858.7212932657967 14058.54050460773 0 0.10437446110596682 17.304217698460153 18.878702912513337 1:0.014687676 2:0.12157772 3:0.095362741 4:0.015098818 5:0.1387653 6:0.09175883 7:0.017421477 8:0.15120487 9:0.080125967 
8858.7212932657967 14058.54050460773 0 0.10437446110596682 17.304217698460153 18.878702912513337 1:0.040133132 2:0.10397076 3:0.036676729 4:0.030287328 5:0.11315045 6:0.033916514 7:0.023167058 8:0.11675173 9:0.025049186 
8858.7212932657967 14058.54050460773 26.399879030306415 0.10437446110596682 0 0 1:0.067390926 2:0.094208928 3:0.054749557 4:0.071431497 5:0.095978458 6:0.056006448 7:0.073159497 8:0.093573275 9:0.052628704 
0 0 26.399879030306415 0 0 0 1:0.11053843 2:0.34244585 3:0.038747533 4:0.14021626 5:0.38533756 6:0.051113394 7:0.14528071 8:0.29344469 9:0.094969577 
0 14058.54050460773 26.399879030306415 0 17.304217698460153 18.878702912513337 1:0.026901567 2:0.12189262 3:-0.029328408 4:0.02537706 5:0.11784472 6:-0.027183012 7:0.02333624 8:0.11272769 9:-0.025472407 
8858.7212932657967 14058.54050460773 26.399879030306415 0.10437446110596682 0 0 1:0.040314843 2:0.11358428 3:0.010317223 4:0.038500005 5:0.11168616 6:0.0079334059 7:0.038114704 8:0.10977513 9:0.0069423768 
8858.7212932657967 14058.54050460773 0 0 17.304217698460153 18.878702912513337 1:0.040533543 2:0.17000005 3:-0.035658904 4:-0.00083597924 5:0.21159212 6:0.0010771712 7:-0.019450152 8:0.2211702 9:0.022504335 
8858.7212932657967 14058.54050460773 0 0 17.304217698460153 0 1:0.044334689 2:0.20252331 3:0.016416371 4:0.046824296 5:0.22447467 6:0.041645503 7:0.039026114 8:0.23946704 9:0.065776837 
8858.7212932657967 14058.54050460773 0 0 17.304217698460153 18.878702912513337 1:0.012559811 2:0.14648066 3:-0.0087269492 4:0.01024594 5:0.14133301 6:-0.0031086576 7:0.0097841884 8:0.13395977 9:-0.0029578298 
8858.7212932657967 14058.54050460773 0 0.10437446110596682 0 0 1:0.046641454 2:0.14807005 3:0.017370703 4:0.056070388 5:0.14802682 6:0.017227064 7:0.062758743 8:0.14128914 9:0.018983624 
0 14058.54050460773 26.399879030306415 0.10437446110596682 0 0 1:0.067416295 2:0.082311123 3:0.017226152 4:0.073279259 5:0.095381648 6:0.026015274 7:0.079256005 8:0.10489859 9:0.031637582 
0 14058.54050460773 26.399879030306415 0.10437446110596682 0 0 1:0.082449249 2:0.11727124 3:0.0097036012 4:0.079159989 5:0.11753389 6:0.01033983 7:0.076973885 8:0.11737753 9:0.0077217709 
8858.7212932657967 14058.54050460773 26.399879030306415 0.10437446110596682 0 0 1:0.061353733 2:0.078067994 3:0.057606173 4:0.059765169 5:0.085384268 6:0.058011174 7:0.056183566 8:0.093170306 9:0.052121659 
8858.7212932657967 14058.54050460773 0 0 17.304217698460153 18.878702912513337 1:0.036164287 2:0.13231988 3:-0.011626711 4:0.034832541 5:0.13652438 6:-0.012917753 7:0.033840736 8:0.13915324 9:-0.0086179883 
0 0 26.399879030306415 0.10437446110596682 0 0 1:0.083595969 2:0.09315581 3:-1.0002541e-05 4:0.083503239 5:0.088683395 6:9.2877518e-06 7:0.083375424 8:0.088928776 9:-0.0038738574 
8858.7212932657967 14058.54050460773 0 0.10437446110596682 17.304217698460153 18.878702912513337 1:0.028743986 2:0.13423466 3:0.088824525 4:0.029610442 5:0.13590872 6:0.088721779 7:0.024417855 8:0.13639508 9:0.07625597 
8858.7212932657967 14058.54050460773 0 0.10437446110596682 17.304217698460153 18.878702912513337 1:0.026529829 2:0.11746181 3:-0.010419976 4:0.032571589 5:0.12161571 6:-0.010789524 7:0.034057812 8:0.12535026 9:-0.0096096111 
8858.7212932657967 14058.54050460773 26.399879030306415 0.10437446110596682 0 0 1:0.05546014 2:0.12134859 3:0.0079630368 4:0.053834821 5:0.1255345 6:0.004949176 7:0.05037042 8:0.12805719 9:0.0069981912 
8858.7212932657967 3131.362475632503 26.399879030306415 0.10437446110596682 0 0 1:0.065325931 2:0.10762449 3:0.035076372 4:0.053489441 5:0.10761839 6:0.046904073 7:0.045046628 8:0.11014813 9:0.040145341 
8858.7212932657967 14058.54050460773 26.399879030306415 0 7.0762612823462785 0 1:0.061324796 2:0.19829649 3:0.038030295 4:0.06528588 5:0.21134697 6:-0.0025449083 7:0.050139169 8:0.22010894 9:0.0087535636 
8858.7212932657967 14058.54050460773 0 0 17.304217698460153 18.878702912513337 1:-0.032765018 2:0.136393 3:-0.0026621776 4:-0.023366559 5:0.12229994 6:-0.010193928 7:-0.013311053 8:0.11150449 9:-0.011926769 
8858.7212932657967 14058.54050460773 0 0.10437446110596682 17.304217698460153 18.878702912513337 1:-0.0062430372 2:0.094712828 3:-0.0039316923 4:-0.0067093325 5:0.1219287 6:-0.0039152325 7:0.0046098902 8:0.15379356 9:-0.0032933392 
8858.7212932657967 14058.54050460773 26.399879030306415 0.10437446110596682 17.304217698460153 18.878702912513337 1:0.029628975 2:0.085513804 3:0.020977022 4:0.021347263 5:0.087342843 6:0.01971447 7:0.011765015 8:0.10166967 9:0.024226587 
8858.7212932657967 14058.54050460773 0 0.10437446110596682 17.304217698460153 18.878702912513337 1:0.040918365 2:0.19877025 3:0.072999265 4:0.030421399 5:0.18948888 6:0.062552273 7:0.014671446 8:0.17693422 9:0.044549694 
0 0 26.399879030306415 0 0 0 1:0.054294084 2:0.1211379 3:-0.013267348 4:0.062373352 5:0.14121369 6:-0.0086908788 7:0.0671945 8:0.1449761 9:-0.010125671 
0 0 26.399879030306415 0.10437446110596682 0 0 1:0.073102384 2:0.10700737 3:0.022242732 4:0.073206207 5:0.11092183 6:0.021333337 7:0.073032142 8:0.10777472 9:0.017081055 
5315.0438550432373 0 26.399879030306415 0.10437446110596682 17.304217698460153 18.878702912513337 1:-0.018290742 2:0.034211961 3:-0.039192292 4:-0.034007663 5:0.025451403 6:-0.013169299 7:-0.0472711 8:0.024092061 9:0.012569138 
8858.7212932657967 14058.54050460773 0 0.10437446110596682 17.304217698460153 18.878702912513337 1:-0.0015081876 2:0.1130927 3:0.034404705 4:0.0050665718 5:0.11320818 6:0.029030492 7:0.017808258 8:0.11639027 9:0.021695981 
8858.7212932657967 14058.54050460773 26.399879030306415 0.10437446110596682 0 0 1:0.064897512 2:0.13110214 3:0.0071641169 4:0.065468864 5:0.1276379 6:0.0030327583 7:0.062411838 8:0.12318743 9:-0.010409808 
0 14058.54050460773 26.399879030306415 0.10437446110596682 0 18.878702912513337 1:0.047911831 2:0.081169967 3:0.0018339216 4:0.031675723 5:0.07654207 6:0.004583222 7:0.020680392 8:0.08037684 9:0.0096166025 
8858.7212932657967 14058.54050460773 0 0.10437446110596682 0 0 1:0.053303285 2:0.1218764 3:0.01330709 4:0.046209793 5:0.11840511 6:0.014476727 7:0.041114297 8:0.11381862 9:0.018160786 
0 14058.54050460773 26.399879030306415 0.10437446110596682 0 0 1:0.052977271 2:0.12449042 3:-0.034013266 4:0.051459315 5:0.11708982 6:-0.024526165 7:0.049748413 8:0.11263896 9:-0.012594661 
8858.7212932657967 14058.54050460773 0 0.10437446110596682 17.304217698460153 0 1:0.046074719 2:0.13189424 3:0.047106324 4:0.037621473 5:0.13061895 6:0.042176631 7:0.026320948 8:0.1242365 9:0.041342617 
8858.7212932657967 14058.54050460773 0 0.10437446110596682 0 0 1:0.045978469 2:0.12915621 3:0.023417187 4:0.043010263 5:0.12597063 6:0.025745325 7:0.043750663 8:0.12684894 9:0.031406146 
8858.7212932657967 14058.54050460773 0 0 17.304217698460153 0 1:0.049083126 2:0.23024324 3:0.061220457 4:0.038212184 5:0.21812146 6:0.055835883 7:0.029473904 8:0.19731356 9:0.058093847 
8858.7212932657967 14058.54050460773 0 0.10437446110596682 17.304217698460153 18.878702912513337 1:0.0097799418 2:0.11408405 3:-0.013065523 4:0.0060967058 5:0.11083943 6:-0.0085151225 7:0.0048680773 8:0.10776494 9:-0.0059631285 
0 14058.54050460773 26.399879030306415 0.10437446110596682 0 0 1:0.079534237 2:0.097413455 3:0.035210579 4:0.084769648 5:0.1001928 6:0.043710485 7:0.076896587 8:0.10968663 9:0.040298407 
0 0 26.399879030306415 0.10437446110596682 17.304217698460153 18.878702912513337 1:0.022158268 2:0.12273446 3:-0.0085043236 4:0.028679174 5:0.12286869 6:-0.012974686 7:0.04286597 8:0.12808787 9:-0.014374094 
8858.7212932657967 14058.54050460773 26.399879030306415 0.10437446110596682 0 0 1:0.058711209 2:0.12070099 3:0.032363978 4:0.057026971 5:0.12695633 6:0.013536334 7:0.05242473 8:0.11998986 9:3.4526402e-05 
8858.7212932657967 14058.54050460773 0 0.10437446110596682 17.304217698460153 18.878702912513337 1:-0.013689159 2:0.15163343 3:0.02714705 4:-0.037202961 5:0.14365297 6:0.039815894 7:-0.043006986 8:0.13289204 9:0.048028597 
8858.7212932657967 14058.54050460773 0 0 17.304217698460153 18.878702912513337 1:0.034492694 2:0.14064486 3:-0.0087833112 4:0.029007949 5:0.14182671 6:-0.009681383 7:0.025386716 8:0.14584817 9:-0.01020831 
8858.7212932657967 14058.54050460773 26.399879030306415 0.10437446110596682 0 0 1:0.04146435 2:0.13074152 3:-0.0024999349 4:0.04393738 5:0.13030206 6:-0.0091463064 7:0.040026519 8:0.13081066 9:-0.010662733 
8858.7212932657967 14058.54050460773 0 0 17.304217698460153 18.878702912513337 1:-0.020369136 2:0.18362586 3:0.020020075 4:0.014799991 5:0.14886803 6:0.023845554 7:0.027686456 8:0.14692704 9:0.01183835 
8858.7212932657967 14058.54050460773 0 0.10437446110596682 17.304217698460153 18.878702912513337 1:-0.0036823234 2:0.10803952 3:-0.0021541757 4:-0.0074871882 5:0.11699225 6:-0.00095940219 7:-0.0062024036 8:0.12683504 9:-0.00091404204 
4429.3606466328984 14058.54050460773 26.399879030306415 0.10437446110596682 0 0 1:0.04456932 2:0.11610411 3:-8.6419336e-05 4:0.046896864 5:0.11341791 6:-0.013170464 7:0.044464081 8:0.10543803 9:-0.014572338 
8858.7212932657967 14058.54050460773 0 0 17.304217698460153 18.878702912513337 1:0.012176272 2:0.14859654 3:0.0012545456 4:-0.0016617994 5:0.13682914 6:0.00082448035 7:-0.015810906 8:0.12783778 9:0.0073568934 
8858.7212932657967 14058.54050460773 0 0.10437446110596682 17.304217698460153 18.878702912513337 1:0.010681757 2:0.13056126 3:-0.01176544 4:0.012090069 5:0.12312537 6:-0.0029340874 7:0.014617295 8:0.12029579 9:0.0030010863 
8858.7212932657967 9506.1062878745142 26.399879030306415 0 17.304217698460153 18.878702912513337 1:0.012237792 2:0.19375846 3:-0.015180717 4:0.029157682 5:0.19788055 6:-0.035504125 7:0.049146472 8:0.18634135 9:-0.035624159 
0 14058.54050460773 26.399879030306415 0.10437446110596682 0 0 1:0.083756133 2:0.10591416 3:0.057392179 4:0.074587855 5:0.10592176 6:0.060221883 7:0.065266805 8:0.10646825 9:0.060329179 
8858.7212932657967 3693.5392311902556 0 0 17.304217698460153 18.878702912513337 1:0.016758033 2:0.22314514 3:-0.017738144 4:0.0080248877 5:0.22251771 6:-0.013458787 7:0.021410065 8:0.13629949 9:-0.015978754 
0 0 26.399879030306415 0.10437446110596682 0 0 1:0.043249011 2:0.079222713 3:0.0050893441 4:0.033197111 5:0.076076588 6:0.0048552836 7:0.032356315 8:0.081355506 9:0.0051608877 
8858.7212932657967 14058.54050460773 0 0.10437446110596682 17.304217698460153 18.878702912513337 1:0.032511367 2:0.12716982 3:0.029252293 4:0.023963794 5:0.12643568 6:0.025558102 7:0.012242745 8:0.12504308 9:0.029228142 
8858.7212932657967 14058.54050460773 26.399879030306415 0.10437446110596682 0 0 1:0.067153238 2:0.1138279 3:0.055159009 4:0.06454705 5:0.12136921 6:0.048633261 7:0.054011351 8:0.12535545 9:0.022143931 
0 14058.54050460773 26.399879030306415 0.10437446110596682 0 0 1:0.05306668 2:0.089839927 3:0.0012035125 4:0.051295493 5:0.088331623 6:0.00042896583 7:0.043357255 8:0.086556828 9:0.0057444838 
0 14058.54050460773 26.399879030306415 0.10437446110596682 0 0 1:0.073951898 2:0.099902258 3:0.022740621 4:0.076208009 5:0.10291678 6:0.02222785 7:0.074233373 8:0.11149899 9:0.028865545 
0 0 26.399879030306415 0.10437446110596682 0 0 1:0.059075113 2:0.076134534 3:0.022580913 4:0.056384846 5:0.076454069 6:0.0015438171 7:0.058107482 8:0.073377933 9:0.0030291512 
8858.7212932657967 14058.54050460773 26.399879030306415 0.10437446110596682 17.304217698460153 18.878702912513337 1:0.011434478 2:0.10182886 3:0.013364163 4:0.023949892 5:0.099546327 6:0.005201135 7:0.034890777 8:0.10105522 9:-0.0011140182 
8858.7212932657967 14058.54050460773 0 0.10437446110596682 17.304217698460153 18.878702912513337 1:0.009988937 2:0.11733987 3:-0.012054198 4:0.014954721 5:0.11577088 6:-0.011022055 7:0.024457165 8:0.11510989 9:-0.0096054347 
0 7175.8218129274755 26.399879030306415 0.10437446110596682 0 0 1:0.049554635 2:0.10577383 3:0.03434972 4:0.046567279 5:0.1021179 6:0.022643668 7:0.055606988 8:0.097392062 9:0.020645151 
0 14058.54050460773 26.399879030306415 0 0 0 1:0.079175694 2:0.18131839 3:0.053241006 4:0.072876291 5:0.20545609 6:0.054588476 7:0.069394382 8:0.22138495 9:0.046185 
0 0 26.399879030306415 0.10437446110596682 0 0 1:0.11142597 2:0.11857186 3:0.041468573 4:0.11021556 5:0.12263348 6:0.020987074 7:0.12637913 8:0.17417132 9:0.0032758808 
8858.7212932657967 14058.54050460773 0 0.10437446110596682 17.304217698460153 18.878702912513337 1:-0.012060852 2:0.11627823 3:0.047327031 4:-0.014489574 5:0.11379378 6:0.047456332 7:-0.01358762 8:0.11127023 9:0.050010746 
8858.7212932657967 0 26.399879030306415 0 17.304217698460153 18.878702912513337 1:0.018879963 2:0.15131511 3:-0.044734771 4:0.0096482674 5:0.15473358 6:-0.038800265 7:0.0097425256 8:0.1567628 9:-0.032479147 
8858.7212932657967 0 0 0 17.304217698460153 18.878702912513337 1:0.012041603 2:0.13724588 3:-0.01881364 4:0.012719655 5:0.13834651 6:-0.017222769 7:0.016684024 8:0.13744914 9:-0.016637561 
0 14058.54050460773 26.399879030306415 0.10437446110596682 0 0 1:0.060808319 2:0.11307531 3:-0.0035349686 4:0.062162527 5:0.10597251 6:-0.0021774514 7:0.060184459 8:0.098205168 9:-0.00064415418 
0 14058.54050460773 26.399879030306415 0.10437446110596682 17.304217698460153 18.878702912513337 1:0.024462871 2:0.10972185 3:-0.024367828 4:0.027043652 5:0.10971082 6:-0.022866149 7:0.026855956 8:0.10861432 9:-0.021479433 
0 14058.54050460773 26.399879030306415 0 0 0 1:0.067479488 2:0.1187745 3:-0.030255722 4:0.095239338 5:0.15076618 6:-0.021109041 7:0.10168836 8:0.16137521 9:0.02357771 
0 0 26.399879030306415 0.10437446110596682 0 0 1:0.088242086 2:0.14801399 3:-0.018191761 4:0.083955725 5:0.12398529 6:0.00074717166 7:0.089151437 8:0.10946186 9:0.035794689 
8858.7212932657967 14058.54050460773 0 0.10437446110596682 17.304217698460153 18.878702912513337 1:0.018655057 2:0.1099583 3:0.021125633 4:0.018316122 5:0.11588952 6:0.025446994 7:0.017490783 8:0.11918813 9:0.030345185 
8858.7212932657967 14058.54050460773 0 0 17.304217698460153 18.878702912513337 1:0.0094265821 2:0.13910628 3:-0.0021948338 4:0.013244779 5:0.15013188 6:-0.0010861237 7:0.021512337 8:0.15015385 9:0.0012897946 
8858.7212932657967 14058.54050460773 26.399879030306415 0 17.304217698460153 18.878702912513337 1:0.020034147 2:0.12363048 3:-0.028417301 4:0.022796666 5:0.11479849 6:-0.028475172 7:0.024186508 8:0.11200483 9:-0.026070763 
8858.7212932657967 14058.54050460773 26.399879030306415 0.10437446110596682 17.304217698460153 18.878702912513337 1:0.021433669 2:0.11608833 3:-0.017943943 4:0.0197374 5:0.11620259 6:-0.017003525 7:0.0078100279 8:0.11231025 9:-0.018243361 
0 14058.54050460773 26.399879030306415 0.10437446110596682 0 0 1:0.076746376 2:0.10755697 3:0.016830763 4:0.080457165 5:0.11154213 6:0.011815143 7:0.072845014 8:0.11058594 9:0.0059374991 
8858.7212932657967 14058.54050460773 0 0 17.304217698460153 18.878702912513337 1:0.02027887 2:0.13980052 3:-0.011726587 4:0.025627125 5:0.14211503 6:-0.01394855 7:0.030423613 8:0.14435074 9:-0.015244956 
0 0 26.399879030306415 0.10437446110596682 0 0 1:0.073627713 2:0.12188959 3:7.2636389e-05 4:0.072650721 5:0.1260564 6:0.0055703024 7:0.070410061 8:0.12671316 9:0.00608561 
8858.7212932657967 14058.54050460773 26.399879030306415 0.10437446110596682 0 0 1:0.043258986 2:0.10680309 3:0.0079245253 4:0.050300861 5:0.11609211 6:0.0080666327 7:0.053432331 8:0.11729708 9:0.011667002 
8858.7212932657967 14058.54050460773 0 0 17.304217698460153 18.878702912513337 1:0.012791976 2:0.12311209 3:-0.017617518 4:0.013309292 5:0.12432544 6:-0.010627374 7:0.020081837 8:0.13564939 9:-0.0064296512 
0 14058.54050460773 26.399879030306415 0 0 0 1:0.044026821 2:0.12804513 3:-0.026426955 4:0.040984883 5:0.1323974 6:-0.022775337 7:0.036066877 8:0.13764816 9:-0.018716297 
8858.7212932657967 0 26.399879030306415 0 17.304217698460153 18.878702912513337 1:-0.031618666 2:0.30280466 3:0.14245993 4:-0.025490843 5:0.26805852 6:0.1152071 7:-0.023885819 8:0.21300617 9:0.08007904 
8858.7212932657967 14058.54050460773 26.399879030306415 0.10437446110596682 17.304217698460153 18.878702912513337 1:0.020524391 2:0.090576885 3:0.026538152 4:0.031422746 5:0.088466465 6:0.024067265 7:0.032433065 8:0.089096138 9:0.021750336 
8858.7212932657967 14058.54050460773 26.399879030306415 0.10437446110596682 0 0 1:0.055832031 2:0.084370387 3:0.044099279 4:0.057799935 5:0.082761823 6:0.045612875 7:0.061012929 8:0.08109044 9:0.044184337 
8858.7212932657967 14058.54050460773 0 0.10437446110596682 17.304217698460153 18.878702912513337 1:0.013686418 2:0.10556994 3:0.030051245 4:0.011424346 5:0.10843923 6:0.025834713 7:0.0078103019 8:0.12451307 9:0.018424 
0 14058.54050460773 26.399879030306415 0 0 0 1:0.092670842 2:0.21330521 3:-0.0026222275 4:0.094281204 5:0.10766007 6:-0.090280167 7:0.071594088 8:0.02041624 9:-0.069429261 
8858.7212932657967 14058.54050460773 0 0.10437446110596682 17.304217698460153 18.878702912513337 1:0.010464309 2:0.10628007 3:0.027167859 4:0.011717066 5:0.10612938 6:0.039127146 7:0.015615073 8:0.10255529 9:0.046450267 
0 14058.54050460773 26.399879030306415 0 0 0 1:0.054257283 2:0.11439246 3:-0.019976472 4:0.072527315 5:0.14415619 6:-0.0061229493 7:0.078629138 8:0.16455779 9:0.0072762685 
8858.7212932657967 14058.54050460773 0 0 17.304217698460153 18.878702912513337 1:0.00070606081 2:0.1362837 3:-0.011662644 4:-0.0032942852 5:0.13130287 6:-0.010810937 7:-0.0046716176 8:0.13225692 9:-0.007690194 
8858.7212932657967 14058.54050460773 0 0.10437446110596682 17.304217698460153 18.878702912513337 1:0.02913862 2:0.11104436 3:0.023149949 4:0.032334515 5:0.11488137 6:0.020129719 7:0.034794373 8:0.1161477 9:0.018282142 
8858.7212932657967 14058.54050460773 0 0.10437446110596682 17.304217698460153 18.878702912513337 1:0.028180601 2:0.10509262 3:0.020485044 4:0.03132618 5:0.11017229 6:0.018993272 7:0.03519912 8:0.11377048 9:0.01931351 
0 14058.54050460773 26.399879030306415 0.10437446110596682 0 0 1:0.054525589 2:0.13600768 3:-0.0078277115 4:0.05505806 5:0.13595089 6:-0.0080311583 7:0.055323739 8:0.13425763 9:-0.0047264415 
8858.7212932657967 14058.54050460773 0 0.10437446110596682 0 0 1:0.054201988 2:0.1170284 3:0.0036472543 4:0.054528894 5:0.12530911 6:0.0050817492 7:0.052641317 8:0.13028634 9:0.020229146 
8858.7212932657967 4835.9668303571752 26.399879030306415 0.10437446110596682 17.304217698460153 18.878702912513337 1:-0.02754894 2:0.10515412 3:-0.019393392 4:-0.033770428 5:0.085443539 6:-0.02040282 7:-0.040616298 8:0.071476624 9:-0.0099111075 
8858.7212932657967 11328.433358720215 0 0 17.304217698460153 18.878702912513337 1:-0.015164448 2:0.24447382 3:0.041129944 4:-0.010567984 5:0.25088742 6:0.053599649 7:0.0036537893 8:0.24734175 9:0.066023294 
8858.7212932657967 14058.54050460773 0 0.10437446110596682 17.304217698460153 18.878702912513337 1:-0.024690886 2:0.092847286 3:0.026192849 4:-0.016478481 5:0.10011261 6:0.031846887 7:-0.003843677 8:0.10609839 9:0.031586759 
8858.7212932657967 14058.54050460773 0 0.10437446110596682 17.304217698460153 0 1:0.043879602 2:0.13799527 3:0.052734369 4:0.038194834 5:0.13618597 6:0.052007006 7:0.032187409 8:0.1329229 9:0.050966072 
8858.7212932657967 14058.54050460773 26.399879030306415 0.10437446110596682 0 0 1:0.045203371 2:0.087274735 3:0.058671857 4:0.048271791 5:0.085710009 6:0.059904728 7:0.050363038 8:0.084523088 9:0.061828276 
8858.7212932657967 14058.54050460773 0 0.10437446110596682 17.304217698460153 18.878702912513337 1:0.01610706 2:0.11808708 3:0.0072910338 4:0.014000882 5:0.1164859 6:0.0044648699 7:0.017649967 8:0.11607907 9:0.00021512184 
8858.7212932657967 14058.54050460773 0 0.10437446110596682 17.304217698460153 18.878702912513337 1:0.028983607 2:0.12577027 3:0.066124001 4:0.025432843 5:0.13191571 6:0.061038186 7:0.018520498 8:0.13393647 9:0.052828085 
0 14058.54050460773 26.399879030306415 0.10437446110596682 0 0 1:0.050244122 2:0.097777954 3:0.047093004 4:0.051856293 5:0.090727745 6:0.042496536 7:0.048475304 8:0.08904184 9:0.039192232 
0 14058.54050460773 26.399879030306415 0.10437446110596682 0 0 1:0.059849042 2:0.10043957 3:0.049058077 4:0.059199893 5:0.09935045 6:0.047196165 7:0.058600643 8:0.099774028 9:0.050119007 
8858.7212932657967 14058.54050460773 0 0 17.304217698460153 18.878702912513337 1:0.020614562 2:0.13927334 3:-0.0047305967 4:0.025658741 5:0.13420723 6:-0.0015793552 7:0.027390647 8:0.12829182 9:0.0030959832 
8858.7212932657967 14058.54050460773 26.399879030306415 0 0 0 1:0.046928678 2:0.10230233 3:-0.0057812198 4:0.069934979 5:0.14423326 6:-0.013680919 7:0.077651666 8:0.17651599 9:-0.023200464 
8858.7212932657967 14058.54050460773 26.399879030306415 0.10437446110596682 17.304217698460153 18.878702912513337 1:0.028107369 2:0.096024148 3:0.014766215 4:0.019750688 5:0.098812708 6:0.01118573 7:0.013915208 8:0.10527077 9:0.006787575 
8858.7212932657967 14058.54050460773 0 0.10437446110596682 17.304217698460153 0 1:0.047606555 2:0.16283476 3:0.053084392 4:0.034460507 5:0.15255658 6:0.0442829 7:0.025759277 8:0.14074399 9:0.033543635 
8858.7212932657967 14058.54050460773 26.399879030306415 0.10437446110596682 17.304217698460153 18.878702912513337 1:0.035641857 2:0.13324603 3:-0.015684517 4:0.035331118 5:0.11334709 6:-0.019785674 7:0.026277802 8:0.092985057 9:-0.016063151 
8858.7212932657967 14058.54050460773 0 0.10437446110596682 0 0 1:0.051960352 2:0.13597458 3:0.022711344 4:0.049924851 5:0.13747268 6:0.017356654 7:0.047037232 8:0.13560985 9:0.019346497 
8858.7212932657967 14058.54050460773 0 0.10437446110596682 17.304217698460153 18.878702912513337 1:0.018981231 2:0.12498309 3:0.0010789287 4:0.016422457 5:0.11620022 6:0.00060119708 7:0.012677995 8:0.10929944 9:0.0074872909 
8858.7212932657967 14058.54050460773 0 0.10437446110596682 0 0 1:0.063139543 2:0.13782501 3:0.074391528 4:0.053216171 5:0.15013951 6:0.0580066 7:0.040508567 8:0.16709326 9:0.043057467 
0 14058.54050460773 26.399879030306415 0 0 0 1:0.062479555 2:0.13902417 3:-0.02125882 4:0.05014369 5:0.13124386 6:-0.016624891 7:0.03635381 8:0.12291592 9:-0.0126308 
0 14058.54050460773 0 0.10437446110596682 0 0 1:0.061295644 2:0.14494662 3:0.036124669 4:0.072906274 5:0.14129332 6:0.038002745 7:0.078108945 8:0.13213463 9:0.03802062 
8858.7212932657967 14058.54050460773 0 0.10437446110596682 17.304217698460153 18.878702912513337 1:0.019384496 2:0.12625287 3:-0.0090256593 4:0.012810034 5:0.11996072 6:-0.0065132501 7:0.0060146148 8:0.11491751 9:0.00011424229 
8858.7212932657967 14058.54050460773 26.399879030306415 0 17.304217698460153 18.878702912513337 1:0.027657716 2:0.14183364 3:-0.023938561 4:0.025587401 5:0.13743691 6:-0.024575087 7:0.023315945 8:0.13351111 9:-0.025685396 
8858.7212932657967 14058.54050460773 26.399879030306415 0.10437446110596682 0 0 1:0.055442621 2:0.1189685 3:0.015622841 4:0.058177248 5:0.12394078 6:0.018592048 7:0.062333623 8:0.12359864 9:0.011770195 
8858.7212932657967 14058.54050460773 26.399879030306415 0.10437446110596682 0 0 1:0.063085058 2:0.10529299 3:0.086310358 4:0.049857261 5:0.088995146 6:0.075209516 7:0.048459816 8:0.097731372 9:0.073627501 
8858.7212932657967 14058.54050460773 0 0.10437446110596682 0 0 1:0.030956202 2:0.12883642 3:0.072645695 4:0.046508781 5:0.12824518 6:0.065956201 7:0.058914959 8:0.13208938 9:0.062689994 
8858.7212932657967 14058.54050460773 0 0 17.304217698460153 18.878702912513337 1:0.0016982076 2:0.17442971 3:-0.041239164 4:-0.0020849023 5:0.17779224 6:-0.033782425 7:-0.0035446013 8:0.17331855 9:-0.03112478 
8858.7212932657967 14058.54050460773 26.399879030306415 0.10437446110596682 0 0 1:0.039512016 2:0.067768941 3:-0.0018363811 4:0.032549308 5:0.091285068 6:0.018226942 7:0.036682861 8:0.12703069 9:0.036438034 
8858.7212932657967 14058.54050460773 26.399879030306415 0.10437446110596682 17.304217698460153 18.878702912513337 1:0.010016306 2:0.094720968 3:0.017745331 4:0.0082900173 5:0.094844102 6:0.012962059 7:0.010374555 8:0.10263406 9:0.00076405528 
0 0 26.399879030306415 0 0 0 1:0.081143643 2:0.13282639 3:-0.022086135 4:0.077419224 5:0.14052408 6:-0.019518161 7:0.081147634 8:0.1472262 9:-0.010718495 
8858.7212932657967 14058.54050460773 0 0.10437446110596682 17.304217698460153 0 1:0.041239163 2:0.1509453 3:0.083256469 4:0.038931842 5:0.15445399 6:0.068848351 7:0.039123373 8:0.14380273 9:0.074318944 
8858.7212932657967 14058.54050460773 0 0.10437446110596682 17.304217698460153 18.878702912513337 1:0.0086689737 2:0.12187421 3:0.0026639546 4:0.0068721911 5:0.12270298 6:0.011442687 7:0.0030089289 8:0.12443145 9:0.015250681 
8858.7212932657967 14058.54050460773 0 0.10437446110596682 17.304217698460153 18.878702912513337 1:0.026741402 2:0.12045506 3:0.0439712 4:0.024351148 5:0.12328383 6:0.045496419 7:0.021784109 8:0.12705573 9:0.045281648 
0 14058.54050460773 26.399879030306415 0.10437446110596682 0 0 1:0.070746923 2:0.11537103 3:0.05937038 4:0.069003506 5:0.11785797 6:0.060266032 7:0.068650354 8:0.11887141 9:0.056317827 
8858.7212932657967 11953.495169081589 0 0 17.304217698460153 18.878702912513337 1:0.023460203 2:0.21047704 3:0.031104229 4:0.030057744 5:0.22385462 6:0.039141197 7:0.043490288 8:0.2381685 9:0.05590688 
0 0 0 0.10437446110596682 0 0 1:0.046426916 2:0.101083 3:0.034082341 4:0.049426551 5:0.1036121 6:0.034751606 7:0.052296479 8:0.10447424 9:0.033667846 
8858.7212932657967 14058.54050460773 0 0 17.304217698460153 18.878702912513337 1:0.025654241 2:0.16801096 3:0.0084381888 4:0.034002018 5:0.15056693 6:-0.018029868 7:0.039097994 8:0.13454711 9:-0.031589067 
0 14058.54050460773 26.399879030306415 0 17.304217698460153 18.878702912513337 1:0.034129495 2:0.1339084 3:-0.017027287 4:0.033942208 5:0.13411006 6:-0.019068221 7:0.033889588 8:0.13541112 9:-0.020163898 
8858.7212932657967 14058.54050460773 0 0.10437446110596682 0 0 1:0.059627359 2:0.11820031 3:0.052771811 4:0.063432935 5:0.11111485 6:0.059290825 7:0.065918154 8:0.11188268 9:0.074800395 
8858.7212932657967 14058.54050460773 26.399879030306415 0.10437446110596682 0 0 1:0.025525321 2:0.061854123 3:0.036558944 4:0.031252961 5:0.064527353 6:0.0370217 7:0.038447421 8:0.074035889 9:0.041238712 
0 14058.54050460773 26.399879030306415 0.10437446110596682 0 0 1:0.076481205 2:0.10193388 3:0.01153771 4:0.084197108 5:0.10728083 6:0.011676326 7:0.091067684 8:0.11127953 9:0.0171245 
0 14058.54050460773 26.399879030306415 0.10437446110596682 0 0 1:0.041857429 2:0.10584264 3:0.0023876025 4:0.042550523 5:0.10849023 6:0.0015763016 7:0.043101986 8:0.11031291 9:-0.0072839519 
0 14058.54050460773 26.399879030306415 0 0 0 1:0.082705687 2:0.21332268 3:-0.0081478582 4:0.077817703 5:0.18860077 6:-0.032058418 7:0.076618158 8:0.18072735 9:-0.039729447 
8858.7212932657967 14058.54050460773 0 0 17.304217698460153 18.878702912513337 1:0.0061055182 2:0.12343745 3:0.0024943856 4:0.012475826 5:0.13334825 6:-0.0045897222 7:0.023257916 8:0.1367482 9:-0.011202055 
8858.7212932657967 14058.54050460773 0 0.10437446110596682 0 0 1:0.036905733 2:0.10849022 3:0.020626785 4:0.036666947 5:0.10396548 6:0.018216124 7:0.033967183 8:0.10091665 9:0.016729305 
0 14058.54050460773 26.399879030306415 0 17.304217698460153 18.878702912513337 1:0.029851417 2:0.12379282 3:-0.022515641 4:0.02591241 5:0.11931231 6:-0.022170451 7:0.022224334 8:0.11475766 9:-0.021036082 
8858.7212932657967 14058.54050460773 0 0.10437446110596682 17.304217698460153 18.878702912513337 1:0.021540028 2:0.12435046 3:0.0073550903 4:0.018173195 5:0.12756688 6:0.0082644852 7:0.020271704 8:0.12820464 9:0.0078662655 
0 14058.54050460773 26.399879030306415 0.10437446110596682 0 0 1:0.064964582 2:0.078309041 3:0.049494833 4:0.065051694 5:0.077712809 6:0.043965846 7:0.06588393 8:0.07612312 9:0.041267268 
8858.7212932657967 14058.54050460773 26.399879030306415 0.10437446110596682 0 0 1:0.067262996 2:0.11113786 3:0.057591518 4:0.065003457 5:0.11311526 6:0.052669861 7:0.058872278 8:0.1086974 9:0.053720059 
0 0 26.399879030306415 0.10437446110596682 0 0 1:0.05418332 2:0.09310069 3:-0.020487169 4:0.055721388 5:0.080444589 6:-0.018887579 7:0.050761153 8:0.071302402 9:0.0026809167 
8858.7212932657967 14058.54050460773 26.399879030306415 0 17.304217698460153 18.878702912513337 1:0.010230896 2:0.11980934 3:-0.027172328 4:0.010354238 5:0.12129626 6:-0.026913612 7:0.011688928 8:0.12427325 9:-0.029005454 
0 14058.54050460773 26.399879030306415 0 0 0 1:0.049423129 2:0.13677504 3:-0.027821819 4:0.045857687 5:0.14179581 6:-0.015795167 7:0.045303982 8:0.13859663 9:-0.015557865 
8858.7212932657967 14058.54050460773 0 0.10437446110596682 17.304217698460153 18.878702912513337 1:-0.0012648112 2:0.11071036 3:0.037961354 4:0.0020708142 5:0.10525392 6:0.037832947 7:0.0078811617 8:0.099115481 9:0.029923088 
0 0 26.399879030306415 0 0 0 1:0.079655681 2:0.14860682 3:-0.0053296971 4:0.066183053 5:0.14552652 6:-0.00080034603 7:0.069150615 8:0.13937204 9:0.0014929343 
8858.7212932657967 14058.54050460773 26.399879030306415 0.10437446110596682 17.304217698460153 18.878702912513337 1:0.012042769 2:0.0851948 3:0.023587299 4:0.0097511309 5:0.085872329 6:0.017378319 7:0.0097189208 8:0.089219822 9:0.0109866 
8858.7212932657967 14058.54050460773 0 0.10437446110596682 17.304217698460153 18.878702912513337 1:-0.0026584914 2:0.11621337 3:0.022994281 4:0.0032123289 5:0.13184352 6:0.026839852 7:0.032637244 8:0.15849444 9:0.015587927 
8858.7212932657967 14058.54050460773 0 0 17.304217698460153 18.878702912513337 1:0.021264853 2:0.13342508 3:-0.0037912968 4:0.022271931 5:0.1317137 6:-0.0060308381 7:0.027153251 8:0.1327702 9:-0.010113709 
0 14058.54050460773 26.399879030306415 0 0 0 1:0.082395857 2:0.23097425 3:-0.036713736 4:0.10917296 5:0.21515011 6:-0.046674689 7:0.10426635 8:0.16029647 9:-0.046469852 
0 0 26.399879030306415 0.10437446110596682 0 0 1:0.069105582 2:0.12969509 3:0.020356428 4:0.074683053 5:0.13161923 6:0.019757709 7:0.080537122 8:0.13283307 9:0.02085998 
8858.7212932657967 14058.54050460773 0 0 17.304217698460153 18.878702912513337 1:0.011525478 2:0.20911714 3:0.064968571 4:0.0046819137 5:0.22172787 6:0.038491385 7:-0.012366911 8:0.22902033 9:0.025582114 
0 14058.54050460773 26.399879030306415 0.10437446110596682 0 0 1:0.06890288 2:0.094756538 3:0.027115628 4:0.070166554 5:0.092354071 6:0.02304691 7:0.072230428 8:0.088742447 9:0.023483939 
8858.7212932657967 14058.54050460773 0 0 17.304217698460153 18.878702912513337 1:-0.061042803 2:0.19676882 3:0.030374384 4:-0.04871826 5:0.19979688 6:0.059144847 7:0.011943601 8:0.15524147 9:0.043412134 
0 14058.54050460773 26.399879030306415 0.10437446110596682 0 0 1:0.056266387 2:0.10939251 3:0.0019985371 4:0.060168938 5:0.1026559 6:0.0060682595 7:0.064017933 8:0.099274615 9:0.0071167477 
8858.7212932657967 14058.54050460773 26.399879030306415 0.10437446110596682 0 0 1:0.048205916 2:0.086052782 3:0.0067212596 4:0.050994734 5:0.10117315 6:-0.0010716948 7:0.049507732 8:0.10703518 9:-0.0032464716 
8858.7212932657967 14058.54050460773 0 0 17.304217698460153 18.878702912513337 1:-0.00054374886 2:0.19982776 3:0.031388193 4:-0.00458108 5:0.22771956 6:0.057725397 7:-0.0026882558 8:0.25716043 9:0.091100638 
0 14058.54050460773 0 0.10437446110596682 0 0 1:0.076908401 2:0.14218409 3:0.051556877 4:0.072840689 5:0.14220116 6:0.054943523 7:0.074429548 8:0.14355523 9:0.04586489 
8858.7212932657967 14058.54050460773 0 0.10437446110596682 17.304217698460153 18.878702912513337 1:0.01066523 2:0.096818099 3:0.03342545 4:0.013271305 5:0.098881586 6:0.047724451 7:0.015918495 8:0.10143724 9:0.054317749 
8858.7212932657967 9340.3295345008355 0 0 17.304217698460153 18.878702912513337 1:0.021991575 2:0.14253333 3:-0.0014185057 4:0.030089496 5:0.14150082 6:-0.007457549 7:0.037345615 8:0.13960953 9:-0.0099864181 
8858.7212932657967 14058.54050460773 26.399879030306415 0.10437446110596682 0 0 1:0.042264029 2:0.1263388 3:0.00022322849 4:0.047229815 5:0.12470499 6:-0.0042654632 7:0.054528578 8:0.11920944 9:-0.0068201054 
0 0 26.399879030306415 0.10437446110596682 0 0 1:0.063978878 2:0.14236982 3:-0.030408879 4:0.06176744 5:0.11036545 6:-0.015962615 7:0.049746244 8:0.1041222 9:0.012280674 
2989.8155997529834 7200.0651487205523 26.399879030306415 0 0 0 1:0.07580918 2:0.11263383 3:-0.0058109909 4:0.05598149 5:0.13009902 6:-0.025289425 7:0.041605101 8:0.13556224 9:-0.032662225 
0 14058.54050460773 26.399879030306415 0 0 0 1:0.078420373 2:0.13462245 3:-0.044067198 4:0.077754924 5:0.1580866 6:-0.059629027 7:0.061436515 8:0.17339402 9:-0.072526008 
8858.7212932657967 14058.54050460773 0 0.10437446110596682 17.304217698460153 18.878702912513337 1:0.0038041616 2:0.12532966 3:0.015471227 4:0.0091332391 5:0.12331769 6:0.010852641 7:0.009639572 8:0.12433341 9:0.0082187145 
8858.7212932657967 14058.54050460773 0 0.10437446110596682 0 0 1:0.040864646 2:0.11386925 3:0.012857621 4:0.038138994 5:0.10098331 6:0.018243975 7:0.03719846 8:0.093987597 9:0.026569927 
8858.7212932657967 14058.54050460773 0 0.10437446110596682 17.304217698460153 18.878702912513337 1:0.033282993 2:0.11989971 3:-0.0048078711 4:0.034702034 5:0.12365102 6:-0.0013806332 7:0.035066102 8:0.1227099 9:0.01013142 
8858.7212932657967 14058.54050460773 26.399879030306415 0.10437446110596682 0 0 1:0.05773751 2:0.0728304 3:0.080487067 4:0.06192067 5:0.088841309 6:0.092674685 7:0.054833616 8:0.12034507 9:0.083804225 
8858.7212932657967 14058.54050460773 5.6314597908905384 0 17.304217698460153 18.878702912513337 1:0.034971707 2:0.13353235 3:-0.017765675 4:0.032948989 5:0.14033114 6:-0.018071348 7:0.02880028 8:0.14368047 9:-0.015208202 
8858.7212932657967 14058.54050460773 0 0.10437446110596682 17.304217698460153 18.878702912513337 1:0.023140798 2:0.097113832 3:0.028355327 4:0.027070241 5:0.096253741 6:0.02034354 7:0.027450403 8:0.09266689 9:0.019858617 
8858.7212932657967 14058.54050460773 0 0 17.304217698460153 18.878702912513337 1:0.03063165 2:0.13845303 3:-0.011599638 4:0.031959785 5:0.13242389 6:-0.012350123 7:0.033365196 8:0.12597076 9:-0.01338811 
8858.7212932657967 14058.54050460773 0 0.10437446110596682 17.304217698460153 18.878702912513337 1:0.0023854375 2:0.2530877 3:0.036694282 4:0.018319114 5:0.18561013 6:0.10355989 7:0.034854505 8:0.13986781 9:0.12204052 
8858.7212932657967 14058.54050460773 0 0 17.304217698460153 18.878702912513337 1:0.012261786 2:0.22619959 3:0.066998271 4:0.0018113708 5:0.22185578 6:0.044833247 7:0.0011157394 8:0.21997489 9:0.038839152 
8858.7212932657967 14058.54050460773 0 0.10437446110596682 17.304217698460153 18.878702912513337 1:0.018189674 2:0.11669647 3:0.0028044192 4:0.023599816 5:0.1198333 6:0.0036268153 7:0.03307596 8:0.12196471 9:0.0013407954 
8858.7212932657967 14058.54050460773 0 0.10437446110596682 0 0 1:0.054256233 2:0.12940201 3:0.047837455 4:0.054317941 5:0.13629918 6:0.046022615 7:0.051718347 8:0.13906901 9:0.044557917 
8858.7212932657967 14058.54050460773 26.399879030306415 0.10437446110596682 17.304217698460153 18.878702912513337 1:0.015267792 2:0.10916661 3:-0.021006359 4:0.012959764 5:0.10347465 6:-0.013966013 7:0.014377389 8:0.10306682 9:-0.0082885503 
0 14058.54050460773 26.399879030306415 0.10437446110596682 0 0 1:0.053532155 2:0.11564155 3:-0.019987994 4:0.060797996 5:0.11691047 6:-0.020056479 7:0.06414595 8:0.11844094 9:-0.019054651 
8858.7212932657967 14058.54050460773 26.399879030306415 0 0 0 1:0.063669666 2:0.11018882 3:0.019659451 4:0.048751425 5:0.18072635 6:-0.01268979 7:0.050672688 8:0.25431221 9:-0.013787176 
8858.7212932657967 14058.54050460773 26.399879030306415 0.10437446110596682 17.304217698460153 18.878702912513337 1:0.022734114 2:0.081861431 3:0.010041021 4:0.021373882 5:0.084976584 6:0.016755398 7:0.021762307 8:0.092171478 9:0.024851947 
8858.7212932657967 14058.54050460773 0 0.10437446110596682 17.304217698460153 18.878702912513337 1:0.016515939 2:0.14086971 3:0.026836766 4:0.012489752 5:0.14242895 6:0.013547151 7:0.0083329154 8:0.14224329 9:0.0032403704 
8858.7212932657967 14058.54050460773 0 0.10437446110596682 0 0 1:0.059241167 2:0.10096451 3:0.050203814 4:0.068576979 5:0.10507382 6:0.068729779 7:0.070443618 8:0.11618717 9:0.12251073 
8858.7212932657967 14058.54050460773 26.399879030306415 0.10437446110596682 17.304217698460153 18.878702912513337 1:0.017197564 2:0.084026838 3:0.020135206 4:0.018502874 5:0.087905397 6:0.028530353 7:0.019168825 8:0.090305149 9:0.028078281 
0 14058.54050460773 26.399879030306415 0 0 0 1:0.084971044 2:0.17254473 3:0.03059286 4:0.09318646 5:0.1804478 6:0.029428403 7:0.097480153 8:0.19691879 9:0.029639749 
0 14058.54050460773 26.399879030306415 0 0 0 1:0.047205114 2:0.121949 3:-0.028033096 4:0.087194583 5:0.15249776 6:-0.0174371 7:0.11353188 8:0.1629274 9:0.0088966324 
0 10004.436358485787 26.399879030306415 0.10437446110596682 0 0 1:0.06141077 2:0.11141037 3:-0.016773275 4:0.066093867 5:0.10230937 6:-0.018247583 7:0.06405839 8:0.089368121 9:-0.019949992 
8858.7212932657967 14058.54050460773 0 0.10437446110596682 0 0 1:0.044041361 2:0.15032777 3:0.042815303 4:0.052167657 5:0.1464121 6:0.045271555 7:0.054119652 8:0.13149077 9:0.04926211 
0 14058.54050460773 26.399879030306415 0.10437446110596682 0 0 1:0.07220577 2:0.11447668 3:0.018460739 4:0.069886307 5:0.11742832 6:0.022594519 7:0.06920602 8:0.11830538 9:0.027550099 
8858.7212932657967 14058.54050460773 0 0 17.304217698460153 18.878702912513337 1:0.029317595 2:0.137322 3:-0.0029631018 4:0.028869358 5:0.13708411 6:-0.010832326 7:0.028174322 8:0.13795906 9:-0.019086849 
0 14058.54050460773 26.399879030306415 0.10437446110596682 0 0 1:0.07275909 2:0.12804505 3:0.016628572 4:0.083040396 5:0.11968701 6:0.021997942 7:0.081550929 8:0.10849672 9:0.018399468 
8858.7212932657967 14058.54050460773 0 0.10437446110596682 0 0 1:0.054453535 2:0.10911359 3:0.052360672 4:0.057156652 5:0.10604341 6:0.0618125 7:0.056309191 8:0.1081789 9:0.06462593 
0 0 26.399879030306415 0.10437446110596682 0 0 1:0.092337837 2:0.14186765 3:-0.0037291257 4:0.096101771 5:0.14172405 6:-0.0053847604 7:0.095965691 8:0.13770853 9:-0.0092127522 
8858.7212932657967 14058.54050460773 0 0.10437446110596682 17.304217698460153 18.878702912513337 1:0.021602782 2:0.10725404 3:0.037666435 4:0.019332742 5:0.11224359 6:0.035044015 7:0.013600605 8:0.1137268 9:0.033728205 
0 14058.54050460773 26.399879030306415 0.10437446110596682 0 0 1:0.04408549 2:0.088686621 3:0.027060672 4:0.045532131 5:0.085861872 6:0.028191389 7:0.04794857 8:0.085703783 9:0.0283014 
0 9726.13090670772 26.399879030306415 0.10437446110596682 0 0 1:0.053881639 2:0.070381717 3:0.028268602 4:0.057495659 5:0.078092259 6:0.023429287 7:0.06090582 8:0.083729087 9:0.030119899 
0 14058.54050460773 26.399879030306415 0.10437446110596682 0 0 1:0.07622792 2:0.10481365 3:0.0071665374 4:0.083663589 5:0.10779429 6:0.0096570095 7:0.09042757 8:0.11274484 9:0.01426498 
0 0 26.399879030306415 0 0 0 1:0.073739286 2:0.25781643 3:0.038463853 4:0.10049471 5:0.27916173 6:0.021335015 7:0.092186634 8:0.27388679 9:0.018944987 
8858.7212932657967 14058.54050460773 0 0.10437446110596682 17.304217698460153 18.878702912513337 1:0.027032601 2:0.1051716 3:0.012755028 4:0.022919826 5:0.095634783 6:0.016914353 7:0.019465992 8:0.092134587 9:0.027147875 
8858.7212932657967 14058.54050460773 0 0 17.304217698460153 18.878702912513337 1:0.015060623 2:0.19194291 3:0.0072574545 4:-0.00054793041 5:0.1825452 6:0.010446614 7:-0.0078767168 8:0.17175836 9:0.017736634 
8858.7212932657967 14058.54050460773 0 0.10437446110596682 17.304217698460153 18.878702912513337 1:-0.00044074854 2:0.10155131 3:0.051491376 4:0.0049195331 5:0.10135954 6:0.047626585 7:0.0062855459 8:0.10267602 9:0.045322875 
0 14058.54050460773 26.399879030306415 0.10437446110596682 0 0 1:0.090991936 2:0.091288323 3:-0.047479998 4:0.080853583 5:0.10312411 6:-0.041885313 7:0.077142567 8:0.1400369 9:0.0025545693 
8858.7212932657967 14058.54050460773 0 0.10437446110596682 17.304217698460153 0 1:0.02583249 2:0.13493799 3:0.048078887 4:0.037397984 5:0.13549623 6:0.05568143 7:0.035548217 8:0.12590092 9:0.046294431 
8858.7212932657967 14058.54050460773 0 0 17.304217698460153 18.878702912513337 1:0.0063736159 2:0.15744939 3:0.023955745 4:0.013345659 5:0.16784678 6:0.002629915 7:0.01579981 8:0.16943096 9:-0.0076965643 
8858.7212932657967 14058.54050460773 0 0.10437446110596682 17.304217698460153 0 1:0.040125985 2:0.13934124 3:0.018213386 4:0.040979701 5:0.1470968 6:0.025003323 7:0.045367357 8:0.15056882 9:0.033398996 
8858.7212932657967 14058.54050460773 0 0.10437446110596682 0 0 1:0.04561783 2:0.14180656 3:0.090686671 4:0.051575878 5:0.15402418 6:0.066856215 7:0.04930707 8:0.15437519 9:0.037214703 
8858.7212932657967 14058.54050460773 0 0 17.304217698460153 18.878702912513337 1:0.019537493 2:0.1312809 3:-0.00051977129 4:0.017636658 5:0.1419865 6:0.0010817147 7:0.011182595 8:0.15795841 9:0.013080288 
8858.7212932657967 14058.54050460773 26.399879030306415 0.10437446110596682 17.304217698460153 18.878702912513337 1:-0.041860242 2:0.056611604 3:0.013830111 4:-0.037066633 5:0.080064905 6:0.027591912 7:-0.033740138 8:0.11078742 9:0.020420395 
8858.7212932657967 14058.54050460773 26.399879030306415 0.10437446110596682 17.304217698460153 18.878702912513337 1:0.020206574 2:0.10214384 3:-0.016288561 4:0.018037823 5:0.096592759 6:-0.0077132737 7:0.013636312 8:0.097810907 9:0.0063103682 
0 0 26.399879030306415 0 17.304217698460153 0 1:0.0013359213 2:0.22029422 3:-0.015263241 4:0.030436761 5:0.28357047 6:-0.0019000036 7:0.096772383 8:0.31386768 9:0.013650932 
0 14058.54050460773 26.399879030306415 0.10437446110596682 0 0 1:0.063035873 2:0.10043608 3:0.017578078 4:0.061819872 5:0.10347352 6:0.015263269 7:0.061329108 8:0.10709617 9:0.012111914 
8858.7212932657967 14058.54050460773 26.399879030306415 0 17.304217698460153 0 1:0.068982271 2:0.18141857 3:0.059772866 4:0.056824083 5:0.19738587 6:0.011294677 7:0.031554958 8:0.16999757 9:-0.021015343 
8858.7212932657967 14058.54050460773 0 0 17.304217698460153 18.878702912513337 1:0.0054273749 2:0.12158192 3:-0.0079139355 4:0.0057405353 5:0.12076329 6:-0.011998633 7:0.0099610856 8:0.11848227 9:-0.014475477 
8858.7212932657967 14058.54050460773 0 0 17.304217698460153 18.878702912513337 1:0.017691328 2:0.15737915 3:-0.04105594 4:0.012014868 5:0.15096545 6:-0.032621943 7:0.017985176 8:0.16650917 9:-0.0071983773 
8858.7212932657967 14058.54050460773 0 0.10437446110596682 17.304217698460153 18.878702912513337 1:0.013162324 2:0.12795954 3:0.0082918572 4:0.012755086 5:0.12537506 6:0.018960581 7:0.014364836 8:0.12325219 9:0.026497356 
8858.7212932657967 14058.54050460773 0 0.10437446110596682 17.304217698460153 18.878702912513337 1:0.002787973 2:0.094729887 3:0.051187531 4:0.001619635 5:0.11457064 6:0.048593418 7:0.010576749 8:0.13560891 9:0.030897977 
8858.7212932657967 14058.54050460773 26.399879030306415 0.10437446110596682 17.304217698460153 18.878702912513337 1:0.013000354 2:0.10521737 3:-0.004081698 4:0.008626214 5:0.11190444 6:-0.0042672706 7:0.0072460507 8:0.11657885 9:-0.0085891566 
0 14058.54050460773 26.399879030306415 0.10437446110596682 0 0 1:0.077095653 2:0.11675124 3:-0.0014320561 4:0.077219294 5:0.12241005 6:-0.0019262468 7:0.073578405 8:0.12383587 9:0.00085213713 
8858.7212932657967 14058.54050460773 26.399879030306415 0 17.304217698460153 18.878702912513337 1:0.0070176303 2:0.14570882 3:-0.026076357 4:0.01238805 5:0.14819324 6:-0.037920266 7:0.019471197 8:0.15396885 9:-0.050533956 
8858.7212932657967 14058.54050460773 0 0.10437446110596682 17.304217698460153 0 1:0.032623638 2:0.13027685 3:0.1065301 4:0.042709276 5:0.12667047 6:0.093942421 7:0.052525998 8:0.12810805 9:0.073153946 
8858.7212932657967 14058.54050460773 0 0.10437446110596682 17.304217698460153 18.878702912513337 1:-0.063835701 2:0.10717971 3:0.034303433 4:-0.062075717 5:0.11074755 6:0.029416681 7:-0.057889912 8:0.11854905 9:0.017631095 
8858.7212932657967 0 0 0.10437446110596682 17.304217698460153 18.878702912513337 1:0.036398369 2:0.10373373 3:0.015339759 4:0.030927481 5:0.10660578 6:0.022682695 7:0.029924467 8:0.10910817 9:0.026154813 
