svm_type nu_svc
kernel_type rbf
gamma 0.1111111111111111
nr_class 7
total_sv 10691
rho -558.46459357720198 0.073612052775791498 25.769836716238494 -51.011987646503343 92.689040576096787 -1269.0496334142249 0.037713876902605838 -25.418446888479263 -1645.5648652522805 53.9189588481496 -214.88009923942442 -0.027047770473747703 -0.031708846350245325 0.97793463505440725 -0.071605783102301396 -1121.3752938184211 45.232180282126507 -8.2682878409921479 39.536420817109949 10.652318879833032 -115.56684630301996
label 5 1 4 0 3 2 6
nr_sv 1567 2008 1212 1455 1651 1342 1456
SV
13837.62043747383 0 54.661101656278184 87.56568143284143 22.653665680034862 37112.874347331868 1:0.019198016 2:0.17639583 3:-0.02097885 4:0.0155166 5:0.17533222 6:-0.020757388 7:0.013938316 8:0.17340272 9:-0.021147107 
13837.62043747383 0.12794115743390649 0 87.56568143284143 0 37112.874347331868 1:0.038912902 2:0.15119358 3:0.044442834 4:0.030199443 5:0.14716435 6:0.049036868 7:0.020000577 8:0.14274625 9:0.040884679 
0 0.12794115743390649 0 0 0 37112.874347331868 1:0.074507311 2:0.17981348 3:0.1262995 4:0.061025134 5:0.14846916 6:0.12072427 7:0.061542594 8:0.13540744 9:0.11491363 
13837.62043747383 0 54.661101656278184 87.56568143284143 22.653665680034862 37112.874347331868 1:0.010434187 2:0.14370249 3:-0.026094416 4:0.0095001527 5:0.14553078 6:-0.02558921 7:0.0089942767 8:0.14546151 9:-0.022617226 
13837.62043747383 0.12794115743390649 54.661101656278184 87.56568143284143 0 0 1:0.0094451216 2:0.078193796 3:0.081473624 4:0.0028685314 5:0.071974594 6:0.078484965 7:0.0047526027 8:0.069853621 9:0.080149475 
13837.62043747383 0.12794115743390649 0 0 22.653665680034862 0 1:0.042796034 2:0.085266529 3:0.018790442 4:0.050682219 5:0.095278017 6:0.015445974 7:0.058356056 8:0.10383476 9:0.012518921 
13837.62043747383 0.12794115743390649 54.661101656278184 87.56568143284143 0 0 1:-0.0010921627 2:0.12163597 3:0.087146258 4:0.003325276 5:0.11830867 6:0.094243885 7:0.0087653801 8:0.11874538 9:0.093914039 
13837.62043747383 0 54.661101656278184 87.56568143284143 22.653665680034862 37112.874347331868 1:0.015432796 2:0.1373342 3:-0.010326251 4:0.019971545 5:0.14018007 6:-0.011731753 7:0.021414596 8:0.14077122 9:-0.012110668 
0 0.12794115743390649 0 0 22.653665680034862 37112.874347331868 1:0.049699087 2:0.12142501 3:0.0058901524 4:0.054433896 5:0.11927789 6:-0.0022145266 7:0.05856547 8:0.1164298 9:-0.0094955673 
13837.62043747383 0.12794115743390649 0 0 0 37112.874347331868 1:0.022431217 2:0.13246957 3:0.078715629 4:0.029682156 5:0.13103536 6:0.08328571 7:0.03602726 8:0.12422887 9:0.076482462 
13837.62043747383 0.12794115743390649 54.661101656278184 87.56568143284143 0 37112.874347331868 1:0.012446003 2:0.12862968 3:0.054211217 4:0.015022008 5:0.13118492 6:0.059967462 7:0.01615256 8:0.13375867 9:0.064329506 
13837.62043747383 0 54.661101656278184 87.56568143284143 22.653665680034862 37112.874347331868 1:0.029305844 2:0.14600604 3:-0.014199939 4:0.030092843 5:0.15583415 6:-0.010991833 7:0.03344907 8:0.16130538 9:-0.0064412832 
13837.62043747383 0.12794115743390649 54.661101656278184 87.56568143284143 22.653665680034862 37112.874347331868 1:0.030918665 2:0.11387732 3:0.017232469 4:0.028102792 5:0.10878709 6:0.0096906828 7:0.027443599 8:0.10388985 9:0.0046140535 
13837.62043747383 0.12794115743390649 54.661101656278184 87.56568143284143 0 37112.874347331868 1:0.0018822965 2:0.10372517 3:0.014515661 4:0.00076690428 5:0.10388097 6:0.015226326 7:-0.0024511223 8:0.10778192 9:0.021796421 
0 0.12794115743390649 0 0 22.653665680034862 37112.874347331868 1:0.066184607 2:0.11677905 3:0.02485627 4:0.065867797 5:0.11900505 6:0.025031349 7:0.064540016 8:0.11240316 9:0.020056212 
13837.62043747383 0.12794115743390649 54.661101656278184 87.56568143284143 0 37112.874347331868 1:0.022848441 2:0.12005098 3:0.036342045 4:0.023953915 5:0.11823668 6:0.034457412 7:0.027932564 8:0.1211436 9:0.033082683 
0 0.12794115743390649 0 0 22.653665680034862 37112.874347331868 1:0.056141176 2:0.11165812 3:0.046687308 4:0.054844058 5:0.11346004 6:0.036350349 7:0.054815411 8:0.10586785 9:0.035452066 
13837.62043747383 0.12794115743390649 0 0 22.653665680034862 37112.874347331868 1:0.053808897 2:0.094340056 3:-0.01462248 4:0.05999319 5:0.097269294 6:-0.017812354 7:0.060319396 8:0.10173148 9:-0.017224168 
0 0.12794115743390649 54.661101656278184 87.56568143284143 0 13574.596231152007 1:0.0045642497 2:0.07038771 3:0.089781773 4:0.0077310613 5:0.068197184 6:0.092408967 7:0.015181247 8:0.068954688 9:0.092380035 
5430.5707936766248 0.12794115743390649 0 0 22.653665680034862 37112.874347331868 1:0.066892072 2:0.081489422 3:-0.007715987 4:0.071420751 5:0.085776869 6:-0.012200795 7:0.071724697 8:0.089708117 9:-0.020637223 
13837.62043747383 0.12794115743390649 0 0 22.653665680034862 37112.874347331868 1:0.049205539 2:0.096755224 3:-0.01713132 4:0.046566927 5:0.095788507 6:-0.019226115 7:0.0437679 8:0.098445411 9:-0.022220424 
13837.62043747383 0 0 0 22.653665680034862 37112.874347331868 1:0.044318774 2:0.10821112 3:-0.042391737 4:0.049058309 5:0.11063847 6:-0.03798952 7:0.052389372 8:0.10872352 9:-0.028890649 
13837.62043747383 0 54.661101656278184 87.56568143284143 0 37112.874347331868 1:0.0034065073 2:0.197822 3:-0.019544441 4:-0.0063551934 5:0.18931077 6:-0.015935979 7:-0.012996402 8:0.17788871 9:-0.0092252172 
0 0.12794115743390649 0 0 22.653665680034862 37112.874347331868 1:0.056068287 2:0.078093923 3:0.060127068 4:0.055800828 5:0.077766095 6:0.05820891 7:0.057182944 8:0.079812946 9:0.051526517 
0 0.12794115743390649 0 0 22.653665680034862 37112.874347331868 1:0.049586523 2:0.089698126 3:0.014928672 4:0.051611544 5:0.089456108 6:0.014724662 7:0.057377467 8:0.090956042 9:0.010998529 
13837.62043747383 0.12794115743390649 54.661101656278184 87.56568143284143 0 37112.874347331868 1:-0.035530437 2:0.12450967 3:0.014160241 4:-0.03567468 5:0.11348661 6:0.0075745345 7:-0.036502454 8:0.1027282 9:0.0046132905 
13837.62043747383 0.12794115743390649 54.661101656278184 87.56568143284143 0 0 1:-0.032762673 2:0.13914353 3:0.065361482 4:-0.031812251 5:0.14238666 6:0.064427731 7:-0.044162774 8:0.13979851 9:0.075334751 
13837.62043747383 0.12794115743390649 54.661101656278184 87.56568143284143 0 37112.874347331868 1:-0.0043375075 2:0.11498323 3:0.055860073 4:0.0073915261 5:0.11647171 6:0.062030379 7:0.014254088 8:0.1151511 9:0.067835473 
13837.62043747383 0.12794115743390649 54.661101656278184 87.56568143284143 0 0 1:0.024999536 2:0.12195099 3:0.029718877 4:0.019495982 5:0.12363783 6:0.030622142 7:0.016238913 8:0.12225381 9:0.026676275 
13837.62043747383 0 54.661101656278184 87.56568143284143 0 37112.874347331868 1:0.0088422819 2:0.13195116 3:-0.0090009806 4:0.0086978648 5:0.13402199 6:-0.012255364 7:0.0081092891 8:0.13351029 9:-0.013427428 
13837.62043747383 0.12794115743390649 0 87.56568143284143 0 37112.874347331868 1:0.019560377 2:0.083480669 3:0.076044085 4:0.020398785 5:0.080919955 6:0.075432622 7:0.016604051 8:0.074926917 9:0.078683643 
13837.62043747383 0.12794115743390649 0 87.56568143284143 0 0 1:0.017614926 2:0.094943771 3:0.077503453 4:0.016862121 5:0.09230516 6:0.082030792 7:0.019675807 8:0.091683236 9:0.083755572 
13837.62043747383 0.12794115743390649 54.661101656278184 87.56568143284143 0 37112.874347331868 1:0.01654531 2:0.11743353 3:0.041124084 4:0.018059583 5:0.11795569 6:0.045766905 7:0.019591872 8:0.11942453 9:0.049011607 
13837.62043747383 0.12794115743390649 0 0 0 37112.874347331868 1:0.0536186 2:0.15670368 3:0.064316126 4:0.052546756 5:0.16557413 6:0.053836376 7:0.044850312 8:0.15017995 9:0.038640784 
13837.62043747383 0.12794115743390649 54.661101656278184 87.56568143284143 0 0 1:0.012732118 2:0.065450386 3:0.080275901 4:0.014225125 5:0.06536602 6:0.08271067 7:0.011604467 8:0.062542934 9:0.08392873 
13837.62043747383 0 54.661101656278184 87.56568143284143 0 37112.874347331868 1:-0.0034456849 2:0.13541151 3:-0.0078935577 4:0.00085514308 5:0.13601065 6:-0.0051744789 7:0.0071966066 8:0.13319835 9:-0.0034690594 
13837.62043747383 0.12794115743390649 54.661101656278184 87.56568143284143 0 37112.874347331868 1:0.022365366 2:0.11179996 3:0.020241656 4:0.023074687 5:0.1086523 6:0.01882916 7:0.024331292 8:0.10407747 9:0.015753103 
0 0.12794115743390649 0 0 22.653665680034862 37112.874347331868 1:0.053787328 2:0.09929096 3:0.055048746 4:0.053242167 5:0.098560936 6:0.05328133 7:0.055482221 8:0.098339357 9:0.050414197 
13837.62043747383 0.12794115743390649 0 0 22.653665680034862 37112.874347331868 1:0.058486905 2:0.074214112 3:0.030983438 4:0.061664631 5:0.077636579 6:0.021193651 7:0.062980718 8:0.083340395 9:0.018301399 
13837.62043747383 0.12794115743390649 54.661101656278184 87.56568143284143 0 0 1:-0.0084637796 2:0.11249806 3:0.052356357 4:-0.0061510963 5:0.10914671 6:0.054870086 7:0.00037462681 8:0.10932084 9:0.059460869 
13837.62043747383 0.12794115743390649 54.661101656278184 31.133797756463203 22.653665680034862 37112.874347331868 1:0.0080722521 2:0.036654642 3:0.080493835 4:0.012426957 5:0.034978778 6:0.082046327 7:0.017820612 8:0.035156891 9:0.083822863 
13837.62043747383 0 54.661101656278184 87.56568143284143 22.653665680034862 37112.874347331868 1:0.0068332618 2:0.13493873 3:-0.028107139 4:0.0078521826 5:0.13810055 6:-0.024310671 7:0.0099597964 8:0.13599747 9:-0.015709622 
13837.62043747383 0 54.661101656278184 87.56568143284143 0 37112.874347331868 1:0.016290322 2:0.15910243 3:-0.0084434149 4:0.017351491 5:0.16133506 6:-0.0076181527 7:0.019903547 8:0.15621918 9:-0.0029259802 
13837.62043747383 0.12794115743390649 54.661101656278184 87.56568143284143 0 0 1:0.010002914 2:0.1400683 3:0.039720054 4:0.014192026 5:0.1439151 6:0.051438065 7:0.01614628 8:0.14786327 9:0.052725288 
0 0.12794115743390649 0 0 22.653665680034862 37112.874347331868 1:0.075810411 2:0.12937601 3:0.045520085 4:0.073418275 5:0.1357722 6:0.048941774 7:0.071338815 8:0.13697609 9:0.061696162 
13837.62043747383 0 54.661101656278184 0 22.653665680034862 37112.874347331868 1:0.037479731 2:0.11783579 3:-0.023693292 4:0.038683193 5:0.12326547 6:-0.022728314 7:0.038939695 8:0.12483985 9:-0.019435884 
13837.62043747383 0.12794115743390649 54.661101656278184 87.56568143284143 0 37112.874347331868 1:-0.010787982 2:0.12413734 3:0.050711246 4:0.0011634678 5:0.11826226 6:0.05419677 7:0.010721829 8:0.11534421 9:0.057390502 
13837.62043747383 0 54.661101656278184 87.56568143284143 22.653665680034862 37112.874347331868 1:0.021556671 2:0.16800435 3:-0.036164224 4:0.0066560183 5:0.16422798 6:-0.031562627 7:-0.0080305548 8:0.16148681 9:-0.017820095 
13837.62043747383 0.12794115743390649 0 0 0 0 1:0.037410113 2:0.16294319 3:0.11295264 4:0.024907115 5:0.14172273 6:0.11010225 7:0.0014332602 8:0.11249174 9:0.11689953 
13837.62043747383 0.12794115743390649 54.661101656278184 87.56568143284143 0 37112.874347331868 1:0.011359906 2:0.13513193 3:0.02920568 4:0.010067702 5:0.12627585 6:0.032263049 7:0.010852558 8:0.1179312 9:0.034433439 
0 0.12794115743390649 0 0 22.653665680034862 0 1:0.044865189 2:0.10503417 3:0.034614323 4:0.0438315 5:0.10678071 6:0.029173263 7:0.041143928 8:0.1083007 9:0.025373722 
13837.62043747383 0.12794115743390649 54.661101656278184 87.56568143284143 0 37112.874347331868 1:-0.00024256111 2:0.124888 3:0.04002953 4:-0.0034792098 5:0.1223511 6:0.036268318 7:-0.0055612479 8:0.11943618 9:0.029231739 
13837.62043747383 0.12794115743390649 0 0 0 37112.874347331868 1:0.035992583 2:0.071312114 3:0.098900346 4:0.057519461 5:0.096732557 6:0.094450123 7:0.074513691 8:0.12033556 9:0.097565351 
13837.62043747383 0.12794115743390649 0 87.56568143284143 0 37112.874347331868 1:0.018679774 2:0.11825606 3:0.034599961 4:0.028093049 5:0.12056927 6:0.044039029 7:0.033339282 8:0.12742713 9:0.051317278 
0 0.12794115743390649 0 0 0 37112.874347331868 1:0.047399382 2:0.10511349 3:0.039834805 4:0.04874031 5:0.10451955 6:0.04081193 7:0.047877215 8:0.10564819 9:0.036659438 
13837.62043747383 0 54.661101656278184 87.56568143284143 0 37112.874347331868 1:0.0065647858 2:0.14195205 3:0.0078290675 4:0.0076549943 5:0.14131971 6:0.0096182474 7:0.010484469 8:0.13969642 9:0.0083878247 
13837.62043747383 0.12794115743390649 54.661101656278184 87.56568143284143 0 37112.874347331868 1:-0.014222103 2:0.11662728 3:0.0014904611 4:-0.015547589 5:0.11897992 6:0.0055278569 7:-0.013584283 8:0.12143327 9:0.014817246 
0 0 0 0 22.653665680034862 37112.874347331868 1:0.066978277 2:0.13373894 3:-0.023346246 4:0.067351039 5:0.1319332 6:-0.026349564 7:0.069026575 8:0.1282864 9:-0.029350481 
13837.62043747383 0.12794115743390649 54.661101656278184 87.56568143284143 0 37112.874347331868 1:0.011787242 2:0.066328693 3:0.062790114 4:0.014679427 5:0.061571619 6:0.064692661 7:0.01648762 8:0.057203035 9:0.066409493 
0 0.12794115743390649 0 0 22.653665680034862 37112.874347331868 1:0.052227307 2:0.11368464 3:0.0028060111 4:0.04978554 5:0.11526646 6:0.0056138298 7:0.047257151 8:0.11613876 9:0.0048985741 
2403.245324917616 0.12794115743390649 0 0 0 37112.874347331868 1:0.044457042 2:0.13750432 3:0.022083891 4:0.043767921 5:0.14684507 6:0.021243187 7:0.043122114 8:0.15741613 9:0.026069707 
0 0.12794115743390649 0 0 22.653665680034862 37112.874347331868 1:0.043972039 2:0.12620864 3:0.015240642 4:0.046037296 5:0.13033159 6:0.011733677 7:0.050142519 8:0.13420107 9:0.008209649 
9216.3518993279467 0.12794115743390649 0 0 0 32017.72774492365 1:0.021997952 2:0.066142464 3:0.093262765 4:0.023399923 5:0.063882378 6:0.091281721 7:0.026500145 8:0.060797701 9:0.090092202 
13837.62043747383 0 54.661101656278184 87.56568143284143 22.653665680034862 37112.874347331868 1:0.023462332 2:0.1273346 3:0.0039675279 4:0.029988055 5:0.12985324 6:-0.0042782109 7:0.030783888 8:0.13506863 9:-0.011445607 
13837.62043747383 0 54.661101656278184 0 22.653665680034862 37112.874347331868 1:0.038801948 2:0.12076966 3:-0.031183238 4:0.041828547 5:0.12247748 6:-0.032528648 7:0.044483331 8:0.12865142 9:-0.035172129 
13837.62043747383 0.12794115743390649 0 0 22.653665680034862 37112.874347331868 1:0.052176809 2:0.06825711 3:0.093553237 4:0.055969963 5:0.070077342 6:0.089092774 7:0.05218703 8:0.069119641 9:0.085960374 
0 0.12794115743390649 54.661101656278184 0 22.653665680034862 37112.874347331868 1:0.021538192 2:0.036924221 3:0.080370076 4:0.0026926057 5:0.020799923 6:0.086457962 7:-0.0036324224 8:0.017879647 9:0.092617352 
0 0 0 0 22.653665680034862 37112.874347331868 1:0.055306409 2:0.12660054 3:-0.024959894 4:0.055880326 5:0.12311506 6:-0.020592303 7:0.052282889 8:0.11285384 9:-0.021403968 
0 0.12794115743390649 0 0 22.653665680034862 37112.874347331868 1:0.065414567 2:0.11469162 3:0.034672539 4:0.059478368 5:0.11501553 6:0.031379154 7:0.052709917 8:0.11225052 9:0.028331573 
13837.62043747383 0 54.661101656278184 87.56568143284143 22.653665680034862 37112.874347331868 1:0.019457046 2:0.13850671 3:-0.0057621229 4:0.016607651 5:0.16270024 6:-0.02172282 7:0.012507128 8:0.18836066 9:-0.037410799 
13837.62043747383 0 0 0 22.653665680034862 37112.874347331868 1:0.04704363 2:0.14702538 3:-0.014984785 4:0.043749185 5:0.14501407 6:-0.017988775 7:0.039523112 8:0.14553796 9:-0.020522922 
13837.62043747383 0 54.661101656278184 87.56568143284143 22.653665680034862 37112.874347331868 1:0.018742679 2:0.15193439 3:-0.021662707 4:0.015938779 5:0.14538093 6:-0.020139707 7:0.018119803 8:0.13627251 9:-0.017753396 
0 0.12794115743390649 0 0 0 37112.874347331868 1:0.029644026 2:0.074995244 3:0.071882877 4:0.031503476 5:0.072902853 6:0.070839902 7:0.032521662 8:0.071819988 9:0.074856207 
13837.62043747383 0.12794115743390649 54.661101656278184 87.56568143284143 0 37112.874347331868 1:0.012708392 2:0.12346983 3:0.024898248 4:0.013334628 5:0.12321284 6:0.030266784 7:0.01528366 8:0.1220223 9:0.03420078 
13837.62043747383 0.12794115743390649 54.661101656278184 87.56568143284143 0 0 1:-0.0043250377 2:0.064015422 3:0.089298341 4:-0.0028316399 5:0.057359836 6:0.086948174 7:-0.0020791812 8:0.052566448 9:0.087894075 
13837.62043747383 0 54.661101656278184 87.56568143284143 0 37112.874347331868 1:0.0066091157 2:0.13556711 3:0.0067118309 4:0.0089815022 5:0.12992983 6:0.0022077733 7:0.0086063344 8:0.12466253 9:0.0048182955 
0 0.12794115743390649 0 0 22.653665680034862 37112.874347331868 1:0.07464377 2:0.096047422 3:-0.0073061848 4:0.07732385 5:0.1020695 6:-0.010386832 7:0.071974004 8:0.10585573 9:-0.0047819991 
0 0 54.661101656278184 87.56568143284143 22.653665680034862 37112.874347331868 1:0.033139896 2:0.16498936 3:-0.029596001 4:0.029571954 5:0.17067421 6:-0.028785399 7:0.028714187 8:0.17174633 9:-0.02619586 
0 0.12794115743390649 0 0 0 0 1:0.039355156 2:0.088775238 3:0.11421651 4:0.037634015 5:0.080116542 6:0.10568982 7:0.036623148 8:0.074555519 9:0.10125409 
0 0.12794115743390649 0 0 22.653665680034862 0 1:0.05049266 2:-0.0013166287 3:0.08484674 4:0.026478566 5:-0.00095189874 6:0.10218067 7:-0.00061931762 8:0.037119463 9:0.22912969 
0 0.12794115743390649 0 0 22.653665680034862 0 1:0.01483951 2:0.020858044 3:0.10001269 4:0.016514982 5:0.020971472 6:0.10229403 7:0.018724589 8:0.023802852 9:0.10157072 
13837.62043747383 0.12794115743390649 0 87.56568143284143 0 37112.874347331868 1:0.0071795601 2:0.072653425 3:0.082000223 4:0.011063359 5:0.060940459 6:0.083427383 7:0.025470221 8:0.054147343 9:0.085173643 
1708.3128646270927 0.12794115743390649 0 0 0 37112.874347331868 1:0.038784738 2:0.09999593 3:0.040235565 4:0.048498712 5:0.10408067 6:0.057163038 7:0.054043451 8:0.10947824 9:0.067912718 
782.13828090628908 0.12794115743390649 0 0 22.653665680034862 37112.874347331868 1:0.091565552 2:0.078047312 3:0.029886169 4:0.088542482 5:0.071716413 6:0.032978054 7:0.084175456 8:0.069888513 9:0.03516265 
13837.62043747383 0.12794115743390649 54.661101656278184 87.56568143284143 0 37112.874347331868 1:-0.0094391339 2:0.14007686 3:0.06651202 4:0.0089262812 5:0.14006685 6:0.056518227 7:0.021650825 8:0.13729989 9:0.043395666 
13837.62043747383 0.12794115743390649 54.661101656278184 87.56568143284143 0 0 1:-0.018951938 2:0.081814379 3:0.07157944 4:-0.028742462 5:0.071049547 6:0.074044874 7:-0.025654213 8:0.0682762 9:0.076922186 
0 0.12794115743390649 0 0 0 0 1:0.041461341 2:0.11305891 3:0.01968951 4:0.040167687 5:0.1164965 6:0.023529112 7:0.03953658 8:0.12219024 9:0.027594488 
13837.62043747383 0 54.661101656278184 87.56568143284143 0 37112.874347331868 1:0.0084153577 2:0.13725498 3:-0.013035325 4:0.0080852311 5:0.13672583 6:-0.010599881 7:0.007916194 8:0.13406796 9:-0.0088973206 
0 0.12794115743390649 0 0 0 0 1:0.036286729 2:0.14926187 3:0.14877235 4:0.03750366 5:0.13658224 6:0.11955188 7:0.026411037 8:0.102803 9:0.082902047 
0 0.12794115743390649 0 0 0 37112.874347331868 1:0.035462502 2:0.1155273 3:0.066285451 4:0.040062122 5:0.11555271 6:0.05776078 7:0.043468587 8:0.11840221 9:0.054842737 
13837.62043747383 0.12794115743390649 54.661101656278184 87.56568143284143 0 37112.874347331868 1:0.02252756 2:0.13848831 3:0.076832427 4:0.0049970665 5:0.12541864 6:0.065167792 7:-0.012086193 8:0.11268837 9:0.068875343 
13837.62043747383 0 54.661101656278184 87.56568143284143 22.653665680034862 37112.874347331868 1:0.013326308 2:0.13541574 3:-0.023768025 4:0.016553385 5:0.13808854 6:-0.025823321 7:0.020801787 8:0.14233913 9:-0.024902993 
13837.62043747383 0.12794115743390649 0 0 0 0 1:0.034673795 2:0.074945373 3:0.09003356 4:0.035922733 5:0.076167461 6:0.089046646 7:0.038980211 8:0.07606915 9:0.0882281 
0 0.12794115743390649 0 0 22.653665680034862 0 1:0.038558178 2:0.11227951 3:0.011029063 4:0.038927307 5:0.11126317 6:0.0097253384 7:0.038428419 8:0.11398677 9:0.012250586 
0 0.12794115743390649 0 0 22.653665680034862 37112.874347331868 1:0.065643915 2:0.12470898 3:0.0077521715 4:0.056634241 5:0.12170348 6:0.008376283 7:0.048811961 8:0.11220665 9:0.0079122015 
13837.62043747383 0 54.661101656278184 87.56568143284143 0 0 1:0.0092977738 2:0.15888505 3:0.031271825 4:-0.0064173379 5:0.15683662 6:0.032512098 7:-0.018187428 8:0.15370794 9:0.026389133 
13837.62043747383 0.12794115743390649 54.661101656278184 0 22.653665680034862 37112.874347331868 1:0.034188987 2:0.069698777 3:0.015822959 4:0.026781049 5:0.065371942 6:0.019850852 7:0.023270013 8:0.080560671 9:0.020077751 
0 0.12794115743390649 0 0 22.653665680034862 37112.874347331868 1:0.04822234 2:0.11491984 3:0.020033064 4:0.044877697 5:0.11239308 6:0.014069455 7:0.043394307 8:0.11035961 9:0.011699083 
0 0.12794115743390649 0 0 22.653665680034862 37112.874347331868 1:0.041327802 2:0.10371436 3:0.00098428249 4:0.037149907 5:0.10449653 6:-0.00039111937 7:0.037141072 8:0.10868965 9:-0.0018415542 
13837.62043747383 0 54.661101656278184 87.56568143284143 0 37112.874347331868 1:-0.0019427324 2:0.15121478 3:0.022531382 4:0.0025182741 5:0.15302144 6:0.021709478 7:0.0053040258 8:0.15275456 9:0.018133131 
13837.62043747383 0 54.661101656278184 87.56568143284143 0 37112.874347331868 1:-0.015566082 2:0.15202858 3:0.0028432743 4:-0.012319298 5:0.14855701 6:0.003719729 7:-0.0069791715 8:0.14534388 9:0.0078684776 
13837.62043747383 0.12794115743390649 54.661101656278184 87.56568143284143 0 0 1:-0.024362023 2:0.11389785 3:0.055901695 4:-0.02098135 5:0.12242694 6:0.056949655 7:-0.017462299 8:0.12812062 9:0.05909302 
13837.62043747383 0 54.661101656278184 87.56568143284143 22.653665680034862 37112.874347331868 1:0.011094309 2:0.12325134 3:-0.0099186228 4:0.016312671 5:0.11979256 6:-0.02191349 7:0.019999132 8:0.11741307 9:-0.035358123 
13837.62043747383 0 54.661101656278184 87.56568143284143 22.653665680034862 37112.874347331868 1:0.030949614 2:0.15948948 3:-0.018199703 4:0.021321331 5:0.15289246 6:-0.017255707 7:0.014419054 8:0.14531917 9:-0.013340399 
13837.62043747383 0.12794115743390649 54.661101656278184 87.56568143284143 0 0 1:0.00030160207 2:0.11426681 3:0.070092301 4:-0.0020096316 5:0.11301865 6:0.072828831 7:-0.011282975 8:0.10038116 9:0.068617526 
13837.62043747383 0.12794115743390649 0 0 22.653665680034862 37112.874347331868 1:0.037150839 2:0.11164332 3:-0.0067013333 4:0.039373157 5:0.11549991 6:-0.0098800124 7:0.040503038 8:0.12037353 9:-0.011458859 
13837.62043747383 0.12794115743390649 0 0 0 0 1:0.029822242 2:0.095154994 3:0.069121031 4:0.031614715 5:0.095038275 6:0.069487862 7:0.044554247 8:0.11477788 9:0.052603808 
13837.62043747383 0.12794115743390649 54.661101656278184 87.56568143284143 22.653665680034862 0 1:0.035948329 2:0.11798369 3:0.00096392721 4:0.029895415 5:0.12092569 6:0.00036606155 7:0.025788072 8:0.12476892 9:-0.000150057 
13837.62043747383 0.12794115743390649 54.661101656278184 87.56568143284143 0 37112.874347331868 1:0.012053244 2:0.13771834 3:0.056619427 4:0.0029807253 5:0.12982601 6:0.049575074 7:-0.0019641335 8:0.12142063 9:0.050790058 
13837.62043747383 0.12794115743390649 54.661101656278184 87.56568143284143 0 37112.874347331868 1:0.028027238 2:0.13478072 3:0.026933132 4:0.018338796 5:0.12901766 6:0.030115556 7:0.017124549 8:0.12243308 9:0.041349281 
13837.62043747383 0.12794115743390649 54.661101656278184 87.56568143284143 0 0 1:-4.0859628e-05 2:0.11278434 3:0.0752495 4:0.0013170224 5:0.11325054 6:0.074813847 7:0.0020781009 8:0.11184017 9:0.073276187 
13837.62043747383 0.12794115743390649 0 0 22.653665680034862 37112.874347331868 1:0.059617698 2:0.11142266 3:-0.017885439 4:0.060135162 5:0.11700125 6:-0.019921094 7:0.057460514 8:0.11890764 9:-0.021887756 
0 0.12794115743390649 0 0 22.653665680034862 37112.874347331868 1:0.0097016404 2:0.036175054 3:0.086889131 4:0.014712853 5:0.033551279 6:0.089114416 7:0.021505296 8:0.032703194 9:0.092107271 
0 0.12794115743390649 0 0 22.653665680034862 37112.874347331868 1:0.032483828 2:0.1142557 3:-0.011476249 4:0.039722861 5:0.12237005 6:-0.0067356766 7:0.047282726 8:0.13465923 9:0.0022428361 
13837.62043747383 0 54.661101656278184 87.56568143284143 0 37112.874347331868 1:0.022327796 2:0.14596662 3:0.016254258 4:0.025462105 5:0.15293768 6:0.0086141617 7:0.02518984 8:0.14684248 9:-0.0091185456 
0 0.12794115743390649 0 0 22.653665680034862 37112.874347331868 1:0.060135114 2:0.10425896 3:-0.00023972124 4:0.063576161 5:0.10582383 6:-0.0046562058 7:0.062675757 8:0.10600724 9:-0.0042476897 
13837.62043747383 0 54.661101656278184 87.56568143284143 0 37112.874347331868 1:0.0019326835 2:0.12488891 3:0.0014242414 4:0.0028653742 5:0.12418228 6:0.006881866 7:0.0049116614 8:0.12922645 9:0.0020334764 
0 0.12794115743390649 0 0 0 37112.874347331868 1:0.049328103 2:0.10221152 3:0.076939284 4:0.064077062 5:0.10558778 6:0.069493624 7:0.075098052 8:0.10831262 9:0.058864588 
0 0.12794115743390649 0 0 22.653665680034862 37112.874347331868 1:0.045779974 2:0.11254939 3:-0.0045391501 4:0.048267454 5:0.11485484 6:-0.0021373351 7:0.047741655 8:0.11764508 9:-0.0017207627 
0 0.12794115743390649 0 0 22.653665680034862 37112.874347331868 1:0.061559302 2:0.11332306 3:0.020654207 4:0.065269434 5:0.12384241 6:0.018404192 7:0.061239138 8:0.13378786 9:0.01641778 
13837.62043747383 0.12794115743390649 54.661101656278184 87.56568143284143 0 0 1:-0.032549272 2:0.12582221 3:0.038322349 4:-0.033791496 5:0.12509688 6:0.037013429 7:-0.035312262 8:0.11849015 9:0.063489367 
13837.62043747383 0 54.661101656278184 87.56568143284143 22.653665680034862 37112.874347331868 1:0.02837978 2:0.12288507 3:-0.016561607 4:0.027597371 5:0.12677907 6:-0.015888145 7:0.022616693 8:0.12989783 9:-0.014173717 
13837.62043747383 0 54.661101656278184 87.56568143284143 22.653665680034862 37112.874347331868 1:0.034317504 2:0.16187214 3:-0.034178731 4:0.028327151 5:0.1558242 6:-0.027650994 7:0.026956234 8:0.15209969 9:-0.02426523 
9440.2284548336775 0.12794115743390649 0 0 22.653665680034862 37112.874347331868 1:0.044458223 2:0.08747797 3:0.036049869 4:0.043366846 5:0.088339612 6:0.036995205 7:0.0437879 8:0.092352238 9:0.039315272 
0 0.12794115743390649 0 0 22.653665680034862 37112.874347331868 1:0.05840763 2:0.1102745 3:0.0075728992 4:0.057796728 5:0.10628109 6:-0.0017317125 7:0.061969985 8:0.10409045 9:-0.0079499175 
13837.62043747383 0 0 0 22.653665680034862 37112.874347331868 1:0.043351064 2:0.14019454 3:-0.017751483 4:0.039159116 5:0.14581807 6:-0.012077267 7:0.038920804 8:0.14771881 9:-0.011792075 
13837.62043747383 0 54.661101656278184 87.56568143284143 0 37112.874347331868 1:-0.02586926 2:0.15402283 3:-0.0092953127 4:-0.027456552 5:0.1527309 6:-0.0062937258 7:-0.027063866 8:0.15191944 9:-0.0051817552 
13837.62043747383 0.12794115743390649 0 0 22.653665680034862 37112.874347331868 1:0.042440593 2:0.094109728 3:-0.00086388396 4:0.043962597 5:0.09411061 6:-0.0039521981 7:0.043721385 8:0.093740471 9:-0.0073153523 
0 0.12794115743390649 0 0 22.653665680034862 37112.874347331868 1:0.063776358 2:0.12096808 3:-0.004121898 4:0.062596351 5:0.11697663 6:-6.6873995e-05 7:0.061035518 8:0.11466093 9:0.0033112231 
13837.62043747383 0.12794115743390649 54.661101656278184 87.56568143284143 22.653665680034862 37112.874347331868 1:0.023659757 2:0.10142372 3:-0.026148834 4:0.023026248 5:0.099653073 6:-0.011123906 7:0.021648551 8:0.10569055 9:0.0042873885 
13837.62043747383 0.12794115743390649 0 0 0 37112.874347331868 1:0.045512513 2:0.14882785 3:0.082768437 4:0.043033865 5:0.15258003 6:0.050438509 7:0.045408093 8:0.143694 9:0.038033717 
13837.62043747383 0.12794115743390649 0 0 22.653665680034862 1605.6956002620623 1:0.018686595 2:0.054112815 3:0.083722441 4:0.023976568 5:0.048029302 6:0.087352941 7:0.029299888 8:0.041714368 9:0.090802049 
13837.62043747383 0.12794115743390649 54.661101656278184 87.56568143284143 22.653665680034862 37112.874347331868 1:0.025482761 2:0.10455561 3:-0.013168004 4:0.021491358 5:0.10516556 6:-0.017042686 7:0.017950613 8:0.11073877 9:-0.020355149 
0 0.12794115743390649 0 0 22.653665680034862 37112.874347331868 1:0.053351101 2:0.1183544 3:0.012804398 4:0.058928519 5:0.10865795 6:0.0096462479 7:0.062196111 8:0.096961976 9:0.0085709808 
0 0.12794115743390649 0 0 22.653665680034862 37112.874347331868 1:0.054520307 2:0.11859184 3:-0.0036875778 4:0.054430223 5:0.12132635 6:-0.0025175287 7:0.050139747 8:0.12047026 9:-0.001428165 
13837.62043747383 0.12794115743390649 0 0 0 37112.874347331868 1:0.069879912 2:0.14502926 3:0.092018159 4:0.065338366 5:0.13895469 6:0.095625275 7:0.059490244 8:0.12745495 9:0.086195217 
0 0.12794115743390649 0 0 22.653665680034862 37112.874347331868 1:0.05612526 2:0.094437888 3:0.050792572 4:0.055057267 5:0.094851285 6:0.049392831 7:0.054668784 8:0.096123005 9:0.04177209 
13837.62043747383 0 54.661101656278184 87.56568143284143 22.653665680034862 37112.874347331868 1:0.023010181 2:0.12407842 3:-0.012611694 4:0.025999576 5:0.11988364 6:-0.02470219 7:0.024238157 8:0.1160544 9:-0.029046889 
13837.62043747383 0.12794115743390649 54.661101656278184 87.56568143284143 0 37112.874347331868 1:-0.025540017 2:0.12079014 3:0.062555094 4:-0.012595611 5:0.1179163 6:0.066904492 7:-0.00055206372 8:0.11413092 9:0.072399215 
13837.62043747383 0.12794115743390649 54.661101656278184 87.56568143284143 0 0 1:0.0012575145 2:0.10434945 3:0.078895852 4:0.00099553398 5:0.1021325 6:0.075960468 7:0.00076287623 8:0.097479714 9:0.073452563 
7220.9880231865745 0 0 0 22.653665680034862 37112.874347331868 1:0.061414239 2:0.14161721 3:-0.034245771 4:0.066355287 5:0.13131599 6:-0.02664563 7:0.063904729 8:0.12429896 9:-0.021708715 
0 0.12794115743390649 0 0 0 0 1:0.029042124 2:0.091378806 3:0.11494497 4:0.039377352 5:0.099993416 6:0.11873831 7:0.041896557 8:0.10342955 9:0.11882178 
13837.62043747383 0 54.661101656278184 87.56568143284143 0 37112.874347331868 1:0.015286173 2:0.14814288 3:0.02268931 4:0.016993609 5:0.14783391 6:0.033197427 7:0.019103234 8:0.14936072 9:0.03465228 
0 0 0 0 22.653665680034862 37112.874347331868 1:0.072934562 2:0.1209006 3:-0.039260275 4:0.076875839 5:0.12011175 6:-0.035174978 7:0.078667033 8:0.11399225 9:-0.034352401 
13837.62043747383 0 54.661101656278184 87.56568143284143 0 37112.874347331868 1:0.019943547 2:0.14977414 3:0.0096538231 4:0.0211508 5:0.15180559 6:-0.0046188214 7:0.019095784 8:0.14694953 9:-0.0050143677 
0 0.12794115743390649 0 0 22.653665680034862 37112.874347331868 1:0.066604715 2:0.07256474 3:0.07237165 4:0.064626577 5:0.067832011 6:0.065233293 7:0.058253777 8:0.069684703 9:0.065175606 
13837.62043747383 0 54.661101656278184 87.56568143284143 0 37112.874347331868 1:0.0088635683 2:0.17702878 3:-0.01879408 4:0.0018699737 5:0.17233371 6:-0.02028525 7:-0.0054977295 8:0.16521152 9:-0.018604732 
13837.62043747383 0.12794115743390649 0 87.56568143284143 0 37112.874347331868 1:0.0084263854 2:0.11345124 3:0.05639291 4:0.020552524 5:0.11444985 6:0.060573167 7:0.02727968 8:0.11447609 9:0.066484238 
13837.62043747383 0 54.661101656278184 87.56568143284143 22.653665680034862 37112.874347331868 1:0.019381517 2:0.13267957 3:-0.015949904 4:0.02077264 5:0.13246024 6:-0.019881497 7:0.021731577 8:0.13198541 9:-0.022054182 
13837.62043747383 0 54.661101656278184 0 22.653665680034862 37112.874347331868 1:0.045117659 2:0.1482942 3:-0.027189986 4:0.037521043 5:0.14334099 6:-0.024872604 7:0.03277796 8:0.14010435 9:-0.021564168 
13837.62043747383 0 54.661101656278184 87.56568143284143 22.653665680034862 37112.874347331868 1:0.031754605 2:0.14961346 3:-0.022622143 4:0.036103052 5:0.16305492 6:-0.024412274 7:0.041698205 8:0.16747056 9:-0.021147149 
13837.62043747383 0 54.661101656278184 87.56568143284143 0 37112.874347331868 1:0.017605914 2:0.13826011 3:0.0068694807 4:0.019882283 5:0.14257027 6:-0.00094021764 7:0.019843174 8:0.14636555 9:-0.0038877539 
0 0.12794115743390649 0 0 22.653665680034862 37112.874347331868 1:0.060736186 2:0.12500304 3:-0.0026361661 4:0.067029036 5:0.12606203 6:0.0061430383 7:0.071391147 8:0.12959792 9:0.0081508233 
13837.62043747383 0 54.661101656278184 87.56568143284143 22.653665680034862 37112.874347331868 1:0.025557862 2:0.13165217 3:-0.0098372866 4:0.024409857 5:0.12430436 6:-0.0045737753 7:0.02520188 8:0.12531315 9:-0.0028896856 
0 0.12794115743390649 0 0 22.653665680034862 37112.874347331868 1:0.04078784 2:0.11367818 3:-0.018810841 4:0.040698492 5:0.10998893 6:-0.014823076 7:0.042381369 8:0.11051675 9:-0.0073708764 
13837.62043747383 0.12794115743390649 54.661101656278184 87.56568143284143 0 37112.874347331868 1:0.0027367715 2:0.13816691 3:0.028068264 4:0.0064173005 5:0.13977373 6:0.039132171 7:0.0097426888 8:0.13949631 9:0.053266376 
13837.62043747383 0.12794115743390649 54.661101656278184 87.56568143284143 22.653665680034862 37112.874347331868 1:0.023710713 2:0.071603728 3:-0.024877876 4:0.0066257872 5:0.086824698 6:-0.034639013 7:0.0023444277 8:0.10553286 9:-0.04126114 
0 0.12794115743390649 0 0 22.653665680034862 37112.874347331868 1:0.063558278 2:0.11636579 3:0.012390127 4:0.049838521 5:0.10878052 6:0.012594138 7:0.044678518 8:0.10641368 9:0.007989082 
13837.62043747383 0.12794115743390649 54.661101656278184 87.56568143284143 22.653665680034862 37112.874347331868 1:0.028664061 2:0.097238721 3:0.026917835 4:0.025100748 5:0.081967991 6:0.022224819 7:0.023615234 8:0.074472262 9:0.020876161 
0 0.12794115743390649 0 0 0 37112.874347331868 1:0.033765931 2:0.099349469 3:0.0764332 4:0.043472458 5:0.10589193 6:0.065706129 7:0.052705781 8:0.11021695 9:0.061830217 
13837.62043747383 0 54.661101656278184 87.56568143284143 22.653665680034862 37112.874347331868 1:0.026661647 2:0.13880817 3:-0.0091535824 4:0.026044422 5:0.13386472 6:-0.0097894961 7:0.02948155 8:0.12964044 9:-0.013567383 
13837.62043747383 0.12794115743390649 0 0 22.653665680034862 37112.874347331868 1:0.048316519 2:0.033222798 3:0.083956988 4:0.052164108 5:0.035078956 6:0.080581468 7:0.052492936 8:0.035579634 9:0.074320305 
13837.62043747383 0 0 0 22.653665680034862 37112.874347331868 1:0.043837524 2:0.1342911 3:-0.0073905605 4:0.045399308 5:0.14374482 6:-0.0067686356 7:0.047943976 8:0.16038397 9:-0.011812481 
13837.62043747383 0 54.661101656278184 87.56568143284143 22.653665680034862 37112.874347331868 1:0.028382334 2:0.13379661 3:-0.025721477 4:0.025292288 5:0.12511854 6:-0.016360521 7:0.02396758 8:0.12005832 9:-0.0062295848 
13837.62043747383 0 54.661101656278184 87.56568143284143 0 37112.874347331868 1:0.037444278 2:0.15972262 3:0.0076663625 4:0.032211496 5:0.14710046 6:0.0061465461 7:0.028948059 8:0.14151095 9:0.0016794745 
13837.62043747383 0.12794115743390649 54.661101656278184 87.56568143284143 0 0 1:-0.0027129707 2:0.069789874 3:0.086511566 4:-0.003934731 5:0.070319985 6:0.090045383 7:-0.0014946522 8:0.073683592 9:0.092803294 
13837.62043747383 0.12794115743390649 0 0 0 0 1:0.030584556 2:0.11277578 3:0.1025204 4:0.034133034 5:0.12636505 6:0.10206455 7:0.039180233 8:0.13895789 9:0.10632762 
0 0.12794115743390649 0 0 0 37112.874347331868 1:0.047443489 2:0.12052777 3:0.080996931 4:0.044106341 5:0.099861091 6:0.056447201 7:0.048773329 8:0.093119577 9:0.064286827 
0 0.12794115743390649 0 0 22.653665680034862 37112.874347331868 1:0.078905577 2:0.086759007 3:0.031612657 4:0.077866347 5:0.081752042 6:0.030551553 7:0.080510888 8:0.080675039 9:0.029896951 
13837.62043747383 0 54.661101656278184 87.56568143284143 22.653665680034862 37112.874347331868 1:0.018325761 2:0.13163671 3:-0.027325099 4:0.022262896 5:0.13730488 6:-0.026120356 7:0.030848896 8:0.14332758 9:-0.020815269 
0 0.12794115743390649 0 0 22.653665680034862 0 1:0.030633647 2:0.05700873 3:0.097415428 4:0.03456143 5:0.059131389 6:0.098691175 7:0.040680584 8:0.062191727 9:0.09903865 
0 0.12794115743390649 0 0 22.653665680034862 37112.874347331868 1:0.046350027 2:0.11438384 3:-0.021006257 4:0.044656757 5:0.11759407 6:-0.020500487 7:0.0441412 8:0.12239501 9:-0.015515284 
13837.62043747383 0.12794115743390649 54.661101656278184 87.56568143284143 0 37112.874347331868 1:0.019171876 2:0.12886909 3:0.018117671 4:0.016276269 5:0.1240668 6:0.017756383 7:0.013739435 8:0.1173109 9:0.018094348 
0 0.12794115743390649 54.661101656278184 87.56568143284143 22.653665680034862 0 1:0.03106384 2:0.12376272 3:0.006025985 4:0.030823905 5:0.12009593 6:-0.00091178468 7:0.031849366 8:0.12206348 9:0.00028875433 
0 0.12794115743390649 0 0 0 0 1:0.045620987 2:0.098821424 3:0.073537024 4:0.043510446 5:0.10090102 6:0.081114017 7:0.043912186 8:0.11345168 9:0.08265337 
13837.62043747383 0 54.661101656278184 87.56568143284143 22.653665680034862 37112.874347331868 1:0.012560466 2:0.121403 3:-0.013641247 4:0.013025004 5:0.12126424 6:-0.0092505528 7:0.013535363 8:0.12364361 9:-0.0026911996 
0 0.12794115743390649 0 0 0 37112.874347331868 1:0.041203375 2:0.083868864 3:0.087247074 4:0.046846535 5:0.085722726 6:0.09021475 7:0.050955892 8:0.089715082 9:0.092527824 
13837.62043747383 0 54.661101656278184 87.56568143284143 22.653665680034862 37112.874347331868 1:0.027710553 2:0.13170697 3:-0.0098125936 4:0.024680103 5:0.12911033 6:-0.011929886 7:0.02401342 8:0.12811189 9:-0.0084587383 
13837.62043747383 0 54.661101656278184 87.56568143284143 0 37112.874347331868 1:-0.0087847898 2:0.1671614 3:-0.0063835277 4:-0.012127178 5:0.16513105 6:-0.0082418096 7:-0.01371995 8:0.16263019 9:-0.010444206 
13837.62043747383 0 0 0 22.653665680034862 37112.874347331868 1:0.037093606 2:0.13571463 3:-0.0069727759 4:0.047117393 5:0.13686035 6:-0.012229184 7:0.051450681 8:0.13134825 9:-0.015517588 
0 0.12794115743390649 0 0 22.653665680034862 37112.874347331868 1:0.057376211 2:0.10138986 3:0.052682989 4:0.061377858 5:0.10440679 6:0.048543359 7:0.063990002 8:0.1063053 9:0.044440433 
13837.62043747383 0.12794115743390649 54.661101656278184 87.56568143284143 0 37112.874347331868 1:-0.017075265 2:0.11158536 3:0.014570209 4:-0.010776788 5:0.11615216 6:0.043361841 7:-0.010237087 8:0.1241975 9:0.069288143 
13837.62043747383 0.12794115743390649 54.661101656278184 87.56568143284143 0 37112.874347331868 1:0.0098138872 2:0.11748087 3:0.013264343 4:0.011814744 5:0.11483549 6:0.012963363 7:0.011883626 8:0.11363275 9:0.014619367 
13837.62043747383 0.12794115743390649 54.661101656278184 87.56568143284143 0 37112.874347331868 1:-0.017109782 2:0.11186488 3:0.0092490327 4:-0.014419311 5:0.1143352 6:0.011725881 7:-0.0098619401 8:0.11671776 9:0.015929631 
13837.62043747383 0 0 71.237271527159791 0 37112.874347331868 1:0.035417203 2:0.16224964 3:0.015905636 4:0.029247852 5:0.15603207 6:0.022800313 7:0.029507817 8:0.15317765 9:0.032767298 
13837.62043747383 0 54.661101656278184 87.56568143284143 22.653665680034862 37112.874347331868 1:0.033258791 2:0.13264624 3:-0.01562448 4:0.030302312 5:0.13110908 6:-0.019546739 7:0.025034838 8:0.12984503 9:-0.01488462 
13837.62043747383 0 54.661101656278184 87.56568143284143 0 37112.874347331868 1:-0.013282804 2:0.12995937 3:-0.0015897329 4:-0.0044328543 5:0.13098309 6:0.0052021017 7:-0.0034046866 8:0.12923242 9:0.015386873 
13837.62043747383 0 54.661101656278184 87.56568143284143 0 37112.874347331868 1:0.0051876749 2:0.1299337 3:0.0028336415 4:0.0048494925 5:0.1331089 6:0.0055810221 7:0.0059442265 8:0.1338355 9:0.005558805 
13837.62043747383 0.12794115743390649 54.661101656278184 87.56568143284143 0 37112.874347331868 1:-0.0022053841 2:0.11490549 3:0.0098515979 4:-0.0014450858 5:0.12003394 6:0.013855647 7:-0.0024223213 8:0.12158796 9:0.01707142 
13837.62043747383 0.12794115743390649 54.661101656278184 87.56568143284143 0 37112.874347331868 1:0.0049756109 2:0.11026802 3:0.0087832828 4:0.004802721 5:0.10733571 6:0.014889401 7:0.00049210514 8:0.10270956 9:0.018558451 
13837.62043747383 0.12794115743390649 54.661101656278184 87.56568143284143 0 0 1:-0.0029980346 2:0.10830103 3:0.067448613 4:-0.00085187287 5:0.10512845 6:0.070017628 7:-0.0006629805 8:0.10070621 9:0.071909424 
13837.62043747383 0.12794115743390649 0 0 0 37112.874347331868 1:0.016769262 2:0.079656601 3:0.080075109 4:0.021743379 5:0.076652114 6:0.084178421 7:0.026251683 8:0.073305351 9:0.083521527 
13837.62043747383 0.12794115743390649 54.661101656278184 0 22.653665680034862 37112.874347331868 1:0.030155857 2:0.10894199 3:-0.008450517 4:0.036564862 5:0.10626024 6:-0.011928378 7:0.04243436 8:0.10629835 9:-0.014511595 
0 0.12794115743390649 0 0 0 37112.874347331868 1:0.038359758 2:0.14141019 3:0.01921538 4:0.037798982 5:0.13693507 6:0.02240155 7:0.038609305 8:0.13070238 9:0.02642602 
13837.62043747383 0.12794115743390649 54.661101656278184 87.56568143284143 22.653665680034862 37112.874347331868 1:0.039562327 2:0.058877131 3:-0.014919173 4:0.0018804463 5:0.050732611 6:-0.043557946 7:-0.0081791858 8:0.054490117 9:-0.053862509 
13837.62043747383 0.12794115743390649 54.661101656278184 87.56568143284143 22.653665680034862 37112.874347331868 1:0.024522045 2:0.097914845 3:-0.015205426 4:0.019793666 5:0.093636165 6:-0.0099046468 7:0.019648125 8:0.092931648 9:-0.0041279834 
13837.62043747383 0 0 0 22.653665680034862 37112.874347331868 1:0.045854134 2:0.11977936 3:-0.019299776 4:0.043899167 5:0.12494511 6:-0.019911912 7:0.047764732 8:0.12971087 9:-0.022590366 
0 0.12794115743390649 0 0 22.653665680034862 37112.874347331868 1:0.053770827 2:0.096948471 3:0.042940213 4:0.05244181 5:0.096460677 6:0.040846091 7:0.052360453 8:0.096688918 9:0.042770288 
13837.62043747383 0.12794115743390649 0 0 22.653665680034862 37112.874347331868 1:0.12629544 2:0.18838007 3:0.25127488 4:0.21669882 5:0.2580255 6:0.12005158 7:0.13289228 8:0.24011434 9:0.036088954 
13837.62043747383 0.12794115743390649 54.661101656278184 87.56568143284143 0 0 1:0.027082485 2:0.11073923 3:0.034090536 4:0.023058122 5:0.11540477 6:0.036439039 7:0.021152507 8:0.12089708 9:0.035267431 
0 0.12794115743390649 0 0 0 37112.874347331868 1:0.041163354 2:0.10182468 3:0.095043737 4:0.045658056 5:0.10029217 6:0.086936478 7:0.047713959 8:0.096003489 9:0.081479029 
0 0.12794115743390649 0 0 22.653665680034862 37112.874347331868 1:0.054642865 2:0.12856867 3:0.014294124 4:0.057237947 5:0.13056074 6:0.013274812 7:0.060342827 8:0.128748 9:0.013141138 
0 0.12794115743390649 0 0 22.653665680034862 37112.874347331868 1:0.055356431 2:0.11384737 3:-0.020320818 4:0.057661343 5:0.12327559 6:-0.020745229 7:0.05683961 8:0.12671759 9:-0.019256077 
13837.62043747383 0.12794115743390649 0 0 0 37112.874347331868 1:0.04215347 2:0.16380044 3:0.090334741 4:0.050933956 5:0.16939424 6:0.07492185 7:0.043685026 8:0.16096876 9:0.047140584 
0 0.12794115743390649 0 0 22.653665680034862 37112.874347331868 1:0.055271716 2:0.082996973 3:0.017566046 4:0.059947107 5:0.082626547 6:0.015433595 7:0.06448144 8:0.085000213 9:0.013035029 
13837.62043747383 0.12794115743390649 0 0 22.653665680034862 37112.874347331868 1:0.024181595 2:0.052347261 3:0.085938975 4:0.025740629 5:0.051855373 6:0.085663851 7:0.036648645 8:0.051593179 9:0.087413359 
13837.62043747383 0 54.661101656278184 87.56568143284143 0 37112.874347331868 1:0.0078164739 2:0.14129742 3:-0.0028282737 4:0.0086859984 5:0.14593156 6:-0.0081750468 7:0.0097646215 8:0.14733801 9:-0.013757555 
0 0.12794115743390649 0 0 22.653665680034862 37112.874347331868 1:0.027406822 2:0.049529081 3:0.096262341 4:0.0053610766 5:0.03602884 6:0.095701182 7:0.021916175 8:0.044991913 9:0.090417791 
13837.62043747383 0.12794115743390649 0 87.56568143284143 0 0 1:0.021690395 2:0.088493688 3:0.068418637 4:0.019505279 5:0.082264809 6:0.066117604 7:0.014970384 8:0.080932606 9:0.064174674 
0 0.12794115743390649 0 0 22.653665680034862 37112.874347331868 1:0.049846208 2:0.12041313 3:-0.010652796 4:0.045049011 5:0.12110203 6:-0.0071786823 7:0.043062707 8:0.12264227 9:-0.0061039787 
13837.62043747383 0 54.661101656278184 87.56568143284143 22.653665680034862 37112.874347331868 1:0.025698878 2:0.15225317 3:-0.016610937 4:0.021156103 5:0.15744462 6:-0.011751351 7:0.017697883 8:0.16104082 9:-0.008679712 
0 0.12794115743390649 0 0 0 37112.874347331868 1:0.045913919 2:0.104161 3:0.059506722 4:0.046602153 5:0.10060543 6:0.06309448 7:0.047898319 8:0.095031254 9:0.053379732 
13837.62043747383 0.12794115743390649 0 0 22.653665680034862 0 1:0.058326236 2:0.050232285 3:0.078629699 4:0.054977286 5:0.048608178 6:0.074033154 7:0.050596789 8:0.066839052 9:0.07376704 
13837.62043747383 0.12794115743390649 54.661101656278184 87.56568143284143 0 37112.874347331868 1:0.019332962 2:0.12540764 3:0.036794247 4:0.014603412 5:0.12172286 6:0.042420629 7:0.010142449 8:0.12399319 9:0.056021932 
13837.62043747383 0.12794115743390649 54.661101656278184 87.56568143284143 22.653665680034862 37112.874347331868 1:0.035209512 2:0.094271057 3:-0.011660832 4:0.032393139 5:0.09923951 6:-0.01038749 7:0.031927605 8:0.10285099 9:-0.012097717 
13837.62043747383 0 54.661101656278184 87.56568143284143 22.653665680034862 37112.874347331868 1:0.037333845 2:0.13149473 3:-0.02002747 4:0.038692291 5:0.13102154 6:-0.026931719 7:0.036898412 8:0.12726989 9:-0.029019129 
0 0.12794115743390649 0 0 0 37112.874347331868 1:0.033889303 2:0.13169703 3:0.026698286 4:0.037759289 5:0.13110212 6:0.026816066 7:0.04120168 8:0.12936685 9:0.030260296 
0 0.12794115743390649 0 0 0 37112.874347331868 1:0.072604984 2:0.13526822 3:0.079264937 4:0.073652662 5:0.1472202 6:0.086934642 7:0.073752707 8:0.14752868 9:0.086317698 
13837.62043747383 0 0 0 22.653665680034862 37112.874347331868 1:0.044678565 2:0.13276807 3:-0.020341412 4:0.043942606 5:0.13678582 6:-0.020716191 7:0.045215949 8:0.13964215 9:-0.020410404 
13837.62043747383 0.12794115743390649 0 87.56568143284143 0 37112.874347331868 1:0.040819452 2:0.13628649 3:0.064293026 4:0.028152748 5:0.13527064 6:0.058197821 7:0.020389888 8:0.13733919 9:0.05497265 
13837.62043747383 0 54.661101656278184 87.56568143284143 0 37112.874347331868 1:0.016161862 2:0.17741516 3:-0.010764081 4:0.010922973 5:0.17822244 6:-0.013249937 7:0.0099654464 8:0.17549803 9:-0.016253645 
13837.62043747383 0.12794115743390649 0 87.56568143284143 0 0 1:0.02040782 2:0.12447397 3:0.081050053 4:0.017318272 5:0.12569281 6:0.078957771 7:0.016551758 8:0.12701007 9:0.077080524 
0 0.12794115743390649 0 0 22.653665680034862 37112.874347331868 1:0.050500201 2:0.098923301 3:0.022331671 4:0.05337214 5:0.099296063 6:0.017870815 7:0.054501849 8:0.096384844 9:0.01604376 
0 0.12794115743390649 0 0 22.653665680034862 37112.874347331868 1:0.050862926 2:0.1132439 3:0.018136704 4:0.04989028 5:0.1109386 6:0.015106361 7:0.04934233 8:0.11383192 9:0.01177023 
13837.62043747383 0 54.661101656278184 87.56568143284143 22.653665680034862 37112.874347331868 1:0.030718297 2:0.12707234 3:-0.007926647 4:0.028172845 5:0.12877741 6:-0.0087052431 7:0.026239922 8:0.13137607 9:-0.012838269 
13837.62043747383 0.12794115743390649 0 0 22.653665680034862 37112.874347331868 1:0.018971484 2:0.051789 3:0.077731087 4:0.032967142 5:0.053843409 6:0.084137127 7:0.045736125 8:0.054114676 9:0.089763898 
13837.62043747383 0.12794115743390649 0 0 22.653665680034862 37112.874347331868 1:0.042147583 2:0.099122539 3:0.019259807 4:0.044666789 5:0.099064676 6:0.014570882 7:0.044467196 8:0.09698303 9:0.0070733599 
13837.62043747383 0 54.661101656278184 87.56568143284143 22.653665680034862 37112.874347331868 1:0.039300073 2:0.12657816 3:-0.0087955641 4:0.035777732 5:0.13454203 6:-0.01208884 7:0.033528064 8:0.14271334 9:-0.013961002 
0 0.12794115743390649 0 0 22.653665680034862 37112.874347331868 1:0.069629617 2:0.10367801 3:-0.002300864 4:0.067428562 5:0.10436278 6:0.0041152428 7:0.065353518 8:0.10431209 9:0.010083442 
13837.62043747383 0.12794115743390649 54.661101656278184 87.56568143284143 22.653665680034862 37112.874347331868 1:0.032330268 2:0.084122718 3:0.0072148604 4:0.030049591 5:0.085357055 6:0.0019795428 7:0.030896053 8:0.094465718 9:0.0025124434 
13837.62043747383 0 54.661101656278184 87.56568143284143 0 37112.874347331868 1:0.021020806 2:0.15813352 3:-0.0059933105 4:0.021100321 5:0.14939621 6:-0.010204336 7:0.016552348 8:0.14155479 9:-0.013684492 
13837.62043747383 0.12794115743390649 54.661101656278184 87.56568143284143 0 37112.874347331868 1:0.0075806495 2:0.13066609 3:0.015521339 4:0.0088147097 5:0.12364592 6:0.016958846 7:0.0084729964 8:0.1152649 9:0.016489392 
13837.62043747383 0.12794115743390649 0 0 22.653665680034862 37112.874347331868 1:0.050625996 2:0.11729774 3:0.0031346078 4:0.052889999 5:0.11680166 6:-0.0019321267 7:0.046476859 8:0.11204564 9:-0.0043354576 
13837.62043747383 0.12794115743390649 54.661101656278184 87.56568143284143 0 0 1:0.021638649 2:0.10300771 3:0.0085526465 4:0.014503974 5:0.099673096 6:0.0091192862 7:0.010204533 8:0.10127562 9:0.014116011 
13837.62043747383 0 54.661101656278184 0 22.653665680034862 37112.874347331868 1:0.04002314 2:0.13177355 3:-0.030805224 4:0.039349851 5:0.13939227 6:-0.029049956 7:0.040986949 8:0.14717573 9:-0.030195276 
0 0 0 81.724011847890893 0 0 1:0.03923309 2:0.14248626 3:0.0099690185 4:0.034553175 5:0.14749759 6:0.011759369 7:0.034531975 8:0.15180429 9:0.011592454 
13837.62043747383 0.12794115743390649 54.661101656278184 87.56568143284143 0 37112.874347331868 1:0.00096924707 2:0.12326273 3:0.008825488 4:0.0076797268 5:0.12135219 6:0.0087960597 7:0.0096244539 8:0.11879042 9:0.007384235 
13837.62043747383 0.12794115743390649 0 0 0 37112.874347331868 1:0.047340737 2:0.13468585 3:0.057647725 4:0.041315519 5:0.12831775 6:0.052720666 7:0.031950927 8:0.12427498 9:0.047094849 
0 0.12794115743390649 0 0 22.653665680034862 37112.874347331868 1:0.05689096 2:0.12620931 3:-0.016913171 4:0.059650205 5:0.12913167 6:-0.011535841 7:0.062318028 8:0.12891769 9:-0.0048394583 
0 0 0 0 22.653665680034862 37112.874347331868 1:0.059920602 2:0.13050307 3:-0.02384303 4:0.055931148 5:0.13291576 6:-0.021414861 7:0.054265791 8:0.1368106 9:-0.013163189 
13837.62043747383 0.12794115743390649 0 0 22.653665680034862 37112.874347331868 1:0.042855739 2:0.11156068 3:-0.0017606729 4:0.050771525 5:0.11361653 6:-0.0046716119 7:0.058342522 8:0.12435537 9:-0.014341712 
0 0.12794115743390649 0 0 22.653665680034862 37112.874347331868 1:0.05227995 2:0.11582694 3:-0.001161334 4:0.048024378 5:0.11172155 6:-0.0086504117 7:0.041800978 8:0.11134653 9:-0.0098107811 
13837.62043747383 0.12794115743390649 0 0 0 37112.874347331868 1:0.039615518 2:0.14848545 3:0.12588122 4:0.050170843 5:0.202082 6:0.17386522 7:0.065336727 8:0.22717221 9:0.18087616 
13837.62043747383 0.12794115743390649 0 0 0 37112.874347331868 1:0.052549961 2:0.12475279 3:0.06770005 4:0.056978813 5:0.14262736 6:0.053562879 7:0.059288073 8:0.15371746 9:0.053189722 
13837.62043747383 0 54.661101656278184 87.56568143284143 22.653665680034862 37112.874347331868 1:0.0266158 2:0.15376109 3:-0.020474697 4:0.025510041 5:0.15067759 6:-0.014740217 7:0.024812414 8:0.14685688 9:-0.013620862 
13837.62043747383 0.12794115743390649 54.661101656278184 87.56568143284143 22.653665680034862 37112.874347331868 1:0.016875411 2:0.10544432 3:-0.014462719 4:0.018553806 5:0.10763284 6:-0.014382206 7:0.022113479 8:0.11083635 9:-0.016565807 
0 0.12794115743390649 0 0 14.971382856660375 37112.874347331868 1:0.059118757 2:0.11395476 3:0.040840302 4:0.050565715 5:0.1073516 6:0.041462116 7:0.044768567 8:0.10571143 9:0.041768467 
13837.62043747383 0.12794115743390649 0 0 22.653665680034862 37112.874347331868 1:0.044692801 2:0.046291163 3:0.085139744 4:0.034964273 5:0.044137232 6:0.077947337 7:0.026454759 8:0.042852368 9:0.078018343 
13837.62043747383 0.12794115743390649 54.661101656278184 87.56568143284143 22.653665680034862 37112.874347331868 1:0.025834479 2:0.11784373 3:0.024317012 4:0.034338061 5:0.1213274 6:0.011365114 7:0.036760144 8:0.12785098 9:-0.0092356108 
8535.8889134668152 0.12794115743390649 0 0 22.653665680034862 37112.874347331868 1:0.041228084 2:0.063817651 3:0.09067303 4:0.038136631 5:0.062472239 6:0.0898951 7:0.0405766 8:0.065174083 9:0.094358252 
13837.62043747383 0 54.661101656278184 87.56568143284143 0 37112.874347331868 1:0.012550181 2:0.13686957 3:-0.0079270143 4:0.011518007 5:0.13931385 6:-0.0082778422 7:0.01427065 8:0.13688904 9:-0.0080434511 
0 0.12794115743390649 0 0 22.653665680034862 37112.874347331868 1:0.054793408 2:0.11183527 3:-0.012015552 4:0.05816451 5:0.11230349 6:-0.011871136 7:0.059750071 8:0.11532886 9:-0.018516155 
13837.62043747383 0.12794115743390649 54.661101656278184 87.56568143284143 0 0 1:0.01784227 2:0.12272126 3:0.017653012 4:0.013336979 5:0.12295939 6:0.020551973 7:0.012710293 8:0.12518508 9:0.032680907 
13837.62043747383 0.12794115743390649 54.661101656278184 87.56568143284143 22.653665680034862 37112.874347331868 1:0.027229869 2:0.11591261 3:0.0015776221 4:0.029260434 5:0.12002755 6:-0.0018028784 7:0.030722845 8:0.12387974 9:-0.0027219705 
13837.62043747383 0.12794115743390649 0 0 0 37112.874347331868 1:0.03253068 2:0.10719165 3:0.025719927 4:0.031961745 5:0.10625895 6:0.023107951 7:0.031562517 8:0.10595345 9:0.023077181 
13837.62043747383 0 54.661101656278184 0 22.653665680034862 37112.874347331868 1:0.043914391 2:0.14957038 3:-0.016377879 4:0.038079649 5:0.1457582 6:-0.013858393 7:0.032623045 8:0.14407118 9:-0.0063366375 
0 0.12794115743390649 0 0 22.653665680034862 37112.874347331868 1:0.071334281 2:0.10782253 3:0.075008381 4:0.066189151 5:0.10136223 6:0.073203203 7:0.059569925 8:0.096315877 9:0.076598644 
13837.62043747383 0.12794115743390649 0 0 0 37112.874347331868 1:0.038539623 2:0.071988226 3:0.078908609 4:0.035041277 5:0.073407042 6:0.079730235 7:0.035878341 8:0.075236283 9:0.081346457 
13837.62043747383 0.12794115743390649 54.661101656278184 87.56568143284143 0 37112.874347331868 1:-0.0010957063 2:0.11609141 3:0.075821313 4:0.00096103903 5:0.11175885 6:0.075494433 7:-0.00023391216 8:0.10931776 9:0.073522009 
13837.62043747383 0.12794115743390649 0 0 22.653665680034862 37112.874347331868 1:0.063003093 2:0.10850222 3:-0.020148771 4:0.06776638 5:0.10799135 6:-0.023198757 7:0.068266995 8:0.10511203 9:-0.024362483 
13837.62043747383 0 54.661101656278184 87.56568143284143 0 37112.874347331868 1:-0.00059279847 2:0.12787874 3:0.00395029 4:-0.0025461432 5:0.12672677 6:0.00457059 7:-0.003656209 8:0.12653442 9:0.006171872 
0 0.12794115743390649 0 0 22.653665680034862 37112.874347331868 1:0.071565661 2:0.10594676 3:-0.0062902304 4:0.073004963 5:0.10335022 6:-0.0050728437 7:0.072706455 8:0.10474969 9:-0.0068883787 
13837.62043747383 0.12794115743390649 54.661101656278184 87.56568143284143 22.653665680034862 37112.874347331868 1:0.028062274 2:0.097162866 3:0.015040054 4:0.024283715 5:0.09809803 6:0.012518446 7:0.021095077 8:0.10139293 9:0.0087260717 
0 0.12794115743390649 0 0 22.653665680034862 37112.874347331868 1:0.059956636 2:0.12609837 3:0.0066372408 4:0.056937638 5:0.12388029 6:0.0038776031 7:0.055153332 8:0.12405749 9:0.0024491051 
0 0.12794115743390649 0 0 0 37112.874347331868 1:0.039581045 2:0.13412486 3:0.00045543048 4:0.036145259 5:0.13176882 6:0.0056432372 7:0.03405594 8:0.12689531 9:0.013329546 
13837.62043747383 0.12794115743390649 54.661101656278184 87.56568143284143 0 37112.874347331868 1:0.022289144 2:0.14833776 3:0.031525497 4:0.024004067 5:0.14489499 6:0.029184901 7:0.022395899 8:0.13816935 9:0.029047762 
13837.62043747383 0 54.661101656278184 87.56568143284143 22.653665680034862 0 1:0.0094718288 2:0.1211072 3:-0.039116045 4:0.009575684 5:0.12673017 6:-0.036687983 7:0.0096375739 8:0.13419402 9:-0.0274518 
13837.62043747383 0.12794115743390649 0 0 0 0 1:0.045356816 2:0.064335653 3:0.083881039 4:0.033355692 5:0.082080401 6:0.084573647 7:0.0088185461 8:0.11714878 9:0.11072931 
0 0.12794115743390649 0 0 22.653665680034862 37112.874347331868 1:0.045215252 2:0.086778975 3:-0.0079868581 4:0.05561516 5:0.091257282 6:0.0015485064 7:0.07201103 8:0.10361455 9:-0.012729551 
0 0.12794115743390649 0 0 22.653665680034862 37112.874347331868 1:0.044738166 2:0.11176029 3:-0.005922 4:0.048910081 5:0.1145756 6:-0.0079076322 7:0.05079556 8:0.11703252 9:-0.010525149 
13837.62043747383 0 54.661101656278184 87.56568143284143 22.653665680034862 37112.874347331868 1:0.0096347788 2:0.12819356 3:-0.009076556 4:0.015719697 5:0.14381663 6:-0.022844384 7:0.020376574 8:0.1572451 9:-0.033938741 
13837.62043747383 0.12794115743390649 54.661101656278184 87.56568143284143 0 37112.874347331868 1:0.01859523 2:0.12027273 3:0.01770377 4:0.014992592 5:0.11745076 6:0.030781569 7:0.016896198 8:0.1162469 9:0.043677016 
13837.62043747383 0.12794115743390649 0 0 22.653665680034862 37112.874347331868 1:0.052047392 2:0.11597204 3:-0.0060026336 4:0.054215663 5:0.11155869 6:-0.0086284896 7:0.05495621 8:0.11084361 9:-0.015271602 
13837.62043747383 0.12794115743390649 54.661101656278184 87.56568143284143 0 37112.874347331868 1:0.010694495 2:0.12191616 3:0.021848032 4:0.015470535 5:0.11948816 6:0.018481348 7:0.018157261 8:0.11754294 9:0.014545445 
0 0.12794115743390649 0 0 22.653665680034862 0 1:0.074542244 2:0.16633073 3:0.16292043 4:0.082062287 5:0.14468767 6:0.16565499 7:0.057287221 8:0.074236334 9:0.048538801 
13837.62043747383 0.12794115743390649 0 0 0 37112.874347331868 1:0.037353108 2:0.12914793 3:0.020368733 4:0.03808991 5:0.13068426 6:0.016265699 7:0.040482155 8:0.12830801 9:0.0034699088 
0 0.12794115743390649 0 0 22.653665680034862 37112.874347331868 1:0.071761704 2:0.14767057 3:0.10272489 4:0.078125884 5:0.12970594 6:0.06586002 7:0.0684955 8:0.10658887 9:0.041187773 
13837.62043747383 0 54.661101656278184 0 22.653665680034862 37112.874347331868 1:0.047170295 2:0.12857132 3:-0.03121676 4:0.045279339 5:0.13192716 6:-0.035568563 7:0.040888256 8:0.13480196 9:-0.033910091 
13837.62043747383 0 54.661101656278184 87.56568143284143 0 37112.874347331868 1:-0.0089957515 2:0.17052237 3:-0.0068970698 4:-0.0010375447 5:0.16195994 6:-0.013835338 7:0.0016587105 8:0.1538288 9:-0.019738574 
13837.62043747383 0.12794115743390649 0 87.56568143284143 0 37112.874347331868 1:0.011761228 2:0.1273534 3:0.063003487 4:0.01655009 5:0.12940723 6:0.051279043 7:0.029045358 8:0.12469792 9:0.047462115 
13837.62043747383 0.12794115743390649 54.661101656278184 87.56568143284143 0 37112.874347331868 1:0.013060086 2:0.11641849 3:0.023478195 4:0.00978052 5:0.11843471 6:0.019424835 7:0.0052340384 8:0.11968807 9:0.016062958 
13837.62043747383 0 54.661101656278184 87.56568143284143 22.653665680034862 37112.874347331868 1:0.00034423753 2:0.12558735 3:-0.022171066 4:-0.0091789792 5:0.1219093 6:-0.023380224 7:-0.012230414 8:0.1204164 9:-0.021683703 
0 0.12794115743390649 0 0 22.653665680034862 37112.874347331868 1:0.041742814 2:0.10899472 3:-0.006632602 4:0.034760286 5:0.10941047 6:-0.0012365859 7:0.030435897 8:0.11436489 9:0.0041970884 
13837.62043747383 0.12794115743390649 54.661101656278184 87.56568143284143 0 37112.874347331868 1:0.014467863 2:0.11584824 3:0.013267939 4:0.017198179 5:0.11345813 6:0.022358861 7:0.020207929 8:0.11330118 9:0.026537989 
13837.62043747383 0.12794115743390649 0 0 0 37112.874347331868 1:0.033002191 2:0.11969948 3:0.079168608 4:0.04160978 5:0.12952674 6:0.052371834 7:0.04760193 8:0.12586374 9:0.053752493 
13837.62043747383 0.12794115743390649 54.661101656278184 87.56568143284143 22.653665680034862 37112.874347331868 1:0.03703557 2:0.11788996 3:-0.0079006379 4:0.030712514 5:0.11791379 6:-0.011117537 7:0.027970892 8:0.12135403 9:-0.01118575 
13837.62043747383 0.12794115743390649 54.661101656278184 87.56568143284143 0 37112.874347331868 1:-0.016494397 2:0.12957591 3:0.012693286 4:-0.012627705 5:0.12219002 6:0.016592417 7:-0.0068213733 8:0.1174917 9:0.018493942 
13837.62043747383 0.12794115743390649 0 0 0 5446.4691336546221 1:0.027312819 2:0.075340891 3:0.098754978 4:0.044901389 5:0.092214616 6:0.09558531 7:0.056635686 8:0.10628438 9:0.099192533 
0 0.12794115743390649 0 0 22.653665680034862 37112.874347331868 1:0.065961284 2:0.10300984 3:-0.017386103 4:0.068697142 5:0.10782293 6:-0.013347189 7:0.069235872 8:0.11216512 9:-0.01312343 
13837.62043747383 0 54.661101656278184 87.56568143284143 22.653665680034862 37112.874347331868 1:0.029222358 2:0.15799763 3:-0.031444493 4:0.024310066 5:0.15099132 6:-0.029918635 7:0.020041353 8:0.14838091 9:-0.026352143 
13837.62043747383 0.12794115743390649 0 0 22.653665680034862 37112.874347331868 1:0.053101026 2:0.11211 3:-0.0093436371 4:0.063920194 5:0.110688 6:-0.02429141 7:0.062963159 8:0.10827215 9:-0.023562165 
13837.62043747383 0.12794115743390649 0 87.56568143284143 0 0 1:0.035877972 2:0.13353227 3:0.061333624 4:0.021475248 5:0.14711026 6:0.064234536 7:0.01895459 8:0.1529287 9:0.060278042 
13837.62043747383 0 54.661101656278184 87.56568143284143 0 0 1:0.013482649 2:0.13185944 3:0.0064078083 4:0.0096772392 5:0.1368255 6:0.0040547817 7:0.0043060176 8:0.13810286 9:0.0052795527 
13837.62043747383 0.12794115743390649 0 0 22.653665680034862 37112.874347331868 1:0.050000484 2:0.070117582 3:0.086400089 4:0.048235082 5:0.07132596 6:0.08656443 7:0.047808093 8:0.073416898 9:0.087474684 
13837.62043747383 0 54.661101656278184 87.56568143284143 0 37112.874347331868 1:0.011086146 2:0.13771146 3:-0.0053287482 4:0.010480225 5:0.13586163 6:-0.0099965801 7:0.01000434 8:0.13467893 9:-0.013036885 
13837.62043747383 0.12794115743390649 0 0 0 0 1:0.055568353 2:0.12647812 3:0.1249437 4:0.06346972 5:0.15571967 6:0.14456534 7:0.064584871 8:0.16174432 9:0.14590846 
13837.62043747383 0 54.661101656278184 87.56568143284143 22.653665680034862 37112.874347331868 1:0.013912503 2:0.14355139 3:-0.033824554 4:0.010618274 5:0.14663051 6:-0.02831602 7:0.010316169 8:0.15134636 9:-0.022249291 
13837.62043747383 0 54.661101656278184 87.56568143284143 0 20807.225979746461 1:-0.010573603 2:0.18612111 3:0.0042101894 4:-0.012927799 5:0.19772149 6:0.0088995688 7:-0.012313757 8:0.20464789 9:0.0067227476 
13837.62043747383 0 54.661101656278184 87.56568143284143 0 37112.874347331868 1:0.016461289 2:0.17039771 3:0.045626971 4:0.023518919 5:0.18279429 6:0.023449845 7:0.028907508 8:0.19087887 9:0.0081131278 
0 0.12794115743390649 0 0 22.653665680034862 0 1:0.040929973 2:0.048776796 3:0.19652259 4:0.1376473 5:0.15199123 6:0.24250937 7:0.20444309 8:0.22708983 9:0.12276913 
13837.62043747383 0.12794115743390649 0 0 22.653665680034862 37112.874347331868 1:0.045015187 2:0.11507812 3:-0.021659753 4:0.042887153 5:0.11217233 6:-0.016901556 7:0.043778722 8:0.10701596 9:-0.018145967 
13837.62043747383 0.12794115743390649 54.661101656278184 87.56568143284143 22.653665680034862 37112.874347331868 1:0.004694638 2:0.1088385 3:0.0017224277 4:0.0048193038 5:0.10347057 6:-0.0096177735 7:0.0051042824 8:0.10702408 9:-0.024343348 
13837.62043747383 0.12794115743390649 0 0 0 37112.874347331868 1:0.050474158 2:0.1166348 3:0.053363503 4:0.048092483 5:0.10246343 6:0.045165316 7:0.049051635 8:0.090305179 9:0.036267988 
13837.62043747383 0 54.661101656278184 87.56568143284143 0 37112.874347331868 1:0.01053198 2:0.14415088 3:-0.0094875632 4:0.012134106 5:0.14576374 6:-0.01233343 7:0.010468813 8:0.14633526 9:-0.010689229 
0 0.12794115743390649 54.661101656278184 0 22.653665680034862 37112.874347331868 1:0.040196209 2:0.11696633 3:-0.0063352595 4:0.035257952 5:0.11519265 6:-0.0017202424 7:0.031149656 8:0.11478548 9:0.0025480817 
13837.62043747383 0.12794115743390649 0 0 0 6301.9787189666895 1:0.056125572 2:0.1688568 3:0.085876673 4:0.052195818 5:0.17690831 6:0.073557833 7:0.044639309 8:0.16959252 9:0.057621127 
13837.62043747383 0 0 0 22.653665680034862 37112.874347331868 1:0.052369397 2:0.12434026 3:-0.027148084 4:0.054186946 5:0.12370032 6:-0.026308161 7:0.055296626 8:0.12092076 9:-0.024682647 
0 0.12794115743390649 0 0 22.653665680034862 37112.874347331868 1:0.065231305 2:0.10066988 3:0.0020363777 4:0.067353689 5:0.093680917 6:0.0049107212 7:0.068583439 8:0.089502006 9:0.00735853 
0 0.12794115743390649 0 0 22.653665680034862 37112.874347331868 1:0.042400676 2:0.026618923 3:0.090871522 4:0.045182295 5:0.025991524 6:0.09403286 7:0.044736552 8:0.026964904 9:0.097286181 
0 0.12794115743390649 0 0 22.653665680034862 0 1:0.028397491 2:0.025156782 3:0.087326982 4:0.032447254 5:0.022120574 6:0.099599552 7:0.038626457 8:0.034409031 9:0.11127627 
13837.62043747383 0.12794115743390649 0 87.56568143284143 0 37112.874347331868 1:0.031538013 2:0.12452163 3:0.067187398 4:0.031162844 5:0.13125799 6:0.066712188 7:0.031733296 8:0.14254928 9:0.058330196 
0 0.12794115743390649 0 0 0 37112.874347331868 1:0.027001515 2:0.11809751 3:0.03064354 4:0.025823345 5:0.12073132 6:0.042953592 7:0.033778843 8:0.12383557 9:0.057565414 
13837.62043747383 0.12794115743390649 0 87.56568143284143 0 37112.874347331868 1:0.020963953 2:0.12608184 3:0.048940527 4:0.023288332 5:0.12885688 6:0.063106345 7:0.025890625 8:0.13048261 9:0.061189423 
13837.62043747383 0.12794115743390649 0 0 22.653665680034862 37112.874347331868 1:0.004968867 2:0.034184787 3:0.083070683 4:0.011529887 5:0.035491151 6:0.091674308 7:0.022002858 8:0.037651932 9:0.095036293 
0 0.12794115743390649 0 0 22.653665680034862 37112.874347331868 1:0.028511494 2:-0.0018609904 3:0.090818795 4:0.034519798 5:0.001994535 6:0.083212216 7:0.026379519 8:0.0048690032 9:0.094480982 
13837.62043747383 0 54.661101656278184 87.56568143284143 0 37112.874347331868 1:0.028692663 2:0.15630405 3:0.0059848261 4:0.024121193 5:0.15337503 6:0.0014444542 7:0.02200845 8:0.15320286 9:0.00012080792 
13837.62043747383 0.12794115743390649 0 0 22.653665680034862 37112.874347331868 1:0.054947795 2:0.043699959 3:0.087126046 4:0.06075053 5:0.041218409 6:0.082643645 7:0.06558129 8:0.03922338 9:0.080983438 
0 0.12794115743390649 0 0 22.653665680034862 37112.874347331868 1:0.050743774 2:0.12166806 3:0.016678266 4:0.044420611 5:0.1229767 6:0.019036273 7:0.036325611 8:0.12294968 9:0.01893153 
0 0.12794115743390649 0 0 22.653665680034862 37112.874347331868 1:0.058199986 2:0.053921565 3:0.050920585 4:0.059120704 5:0.077419347 6:0.066433616 7:0.07798201 8:0.11946486 9:0.059757825 
13837.62043747383 0 54.661101656278184 87.56568143284143 22.653665680034862 37112.874347331868 1:0.032518499 2:0.12392274 3:-0.013951147 4:0.02417971 5:0.12802627 6:-0.015671055 7:0.019484356 8:0.13307062 9:-0.012764424 
13837.62043747383 0.12794115743390649 54.661101656278184 87.56568143284143 0 37112.874347331868 1:-0.033773673 2:0.12140951 3:0.056317206 4:-0.027890468 5:0.1174687 6:0.066180575 7:-0.023014882 8:0.11624975 9:0.070765598 
0 0.12794115743390649 0 0 0 37112.874347331868 1:0.035900275 2:0.11580236 3:0.018887627 4:0.035220878 5:0.11150468 6:0.018379564 7:0.035512675 8:0.11037084 9:0.01953008 
13837.62043747383 0 54.661101656278184 87.56568143284143 22.653665680034862 37112.874347331868 1:0.028208901 2:0.12206068 3:-0.016862434 4:0.02984639 5:0.12525479 6:-0.015353921 7:0.029596278 8:0.12487962 9:-0.015153831 
13837.62043747383 0 54.661101656278184 87.56568143284143 0 37112.874347331868 1:0.0060101006 2:0.17794101 3:0.0043768661 4:-0.0019384035 5:0.17380304 6:0.0074147677 7:-0.0089223196 8:0.16750113 9:0.0081285734 
13837.62043747383 0 54.661101656278184 87.56568143284143 0 37112.874347331868 1:-0.014027817 2:0.14603898 3:-0.031399892 4:0.0023865026 5:0.16219575 6:0.035931147 7:0.032803842 8:0.15470776 9:0.03646327 
13837.62043747383 0.12794115743390649 54.661101656278184 87.56568143284143 0 0 1:0.013753228 2:0.11081409 3:0.074982394 4:0.0089573734 5:0.11234291 6:0.077347958 7:0.005320932 8:0.11446424 9:0.084966859 
5893.8100299481493 0.12794115743390649 0 87.56568143284143 10.339721124858768 37112.874347331868 1:0.027676662 2:0.1298951 3:0.03111211 4:0.024577609 5:0.13025837 6:0.0031909533 7:0.042198638 8:0.12782813 9:-0.0035376529 
13837.62043747383 0.12794115743390649 0 0 0 6797.5426960119194 1:0.059706597 2:0.10095496 3:0.10346455 4:0.065977426 5:0.13173614 6:0.13217243 7:0.076851336 8:0.1649117 9:0.15455629 
13837.62043747383 0.12794115743390649 54.661101656278184 87.56568143284143 0 0 1:0.0083771388 2:0.067488063 3:0.088097431 4:0.009304568 5:0.065050606 6:0.089199054 7:0.011829534 8:0.06440703 9:0.089956558 
13837.62043747383 0 54.661101656278184 87.56568143284143 3.3911359766554416 37112.874347331868 1:0.0084180859 2:0.16435846 3:-0.015356672 4:0.011813983 5:0.16529906 6:-0.01586389 7:0.012033 8:0.16740102 9:-0.020976273 
0 0.12794115743390649 0 0 22.653665680034862 37112.874347331868 1:0.095042704 2:0.053477399 3:0.085796249 4:0.091005132 5:0.0607537 6:0.087507709 7:0.083297124 8:0.082071826 9:0.108343 
13837.62043747383 0 54.661101656278184 87.56568143284143 0 37112.874347331868 1:-0.016008251 2:0.16292216 3:-0.0091273594 4:-0.014456818 5:0.16072362 6:-0.0024442923 7:-0.014339427 8:0.15869915 9:0.0011317724 
0 0.12794115743390649 0 0 22.653665680034862 37112.874347331868 1:0.055693771 2:0.11257302 3:-0.013048072 4:0.058189477 5:0.11174939 6:-0.013367458 7:0.06363446 8:0.11340288 9:-0.011748267 
0 0.12794115743390649 0 0 0 24702.837860555006 1:0.044053031 2:0.11990375 3:0.068511409 4:0.042918625 5:0.1181649 6:0.078197402 7:0.037259849 8:0.11632279 9:0.10653565 
0 0.12794115743390649 0 0 22.653665680034862 37112.874347331868 1:0.045396404 2:0.11084711 3:0.0062033372 4:0.042357267 5:0.10962397 6:0.0015802651 7:0.039153296 8:0.11109319 9:-0.0020548308 
13837.62043747383 0 54.661101656278184 87.56568143284143 22.653665680034862 37112.874347331868 1:0.028890224 2:0.14180427 3:-0.011552797 4:0.030370436 5:0.13687015 6:-0.020155016 7:0.02910164 8:0.13206932 9:-0.026055286 
0 0.12794115743390649 0 0 0 37112.874347331868 1:0.047270525 2:0.11424428 3:0.063036445 4:0.051068445 5:0.11352011 6:0.054833738 7:0.056750994 8:0.11273682 9:0.050700325 
13837.62043747383 0 54.661101656278184 87.56568143284143 0 37112.874347331868 1:-0.023025449 2:0.14531621 3:0.0024927521 4:-0.017638723 5:0.15039759 6:0.00036147045 7:-0.01394583 8:0.15019103 9:-0.00096659381 
0 0.12794115743390649 0 0 0 37112.874347331868 1:0.023527018 2:0.1015429 3:0.069314665 4:0.026460392 5:0.097759537 6:0.069760341 7:0.023980686 8:0.094073252 9:0.074509709 
13837.62043747383 0.12794115743390649 54.661101656278184 87.56568143284143 0 37112.874347331868 1:0.019427834 2:0.11648196 3:0.022921842 4:0.020323258 5:0.11774589 6:0.020411364 7:0.022169953 8:0.12025426 9:0.017633146 
13837.62043747383 0.12794115743390649 54.661101656278184 87.56568143284143 0 37112.874347331868 1:-0.0045601221 2:0.12197995 3:0.05021925 4:-0.00056126746 5:0.11960777 6:0.045456743 7:0.0067842382 8:0.11790408 9:0.047564747 
13837.62043747383 0.12794115743390649 0 0 22.653665680034862 37112.874347331868 1:0.038660363 2:0.12648762 3:0.0012333667 4:0.047461781 5:0.12319481 6:-0.0080073441 7:0.047715814 8:0.11528598 9:-0.024661706 
13837.62043747383 0 54.661101656278184 87.56568143284143 7.1859108286247588 37112.874347331868 1:-0.092067498 2:0.11741936 3:-0.024686036 4:-0.09223211 5:0.11802786 6:-0.015168752 7:-0.086082299 8:0.12482776 9:-0.0079818882 
0 0.12794115743390649 0 0 22.653665680034862 6821.1676387942798 1:0.059777745 2:0.11372361 3:0.01133723 4:0.063295561 5:0.11259609 6:0.0068458189 7:0.058288311 8:0.10657592 9:0.0055066242 
13837.62043747383 0.12794115743390649 54.661101656278184 87.56568143284143 0 37112.874347331868 1:-0.027206719 2:0.1207022 3:0.055622545 4:-0.023510189 5:0.11757891 6:0.057327228 7:-0.014860071 8:0.11267189 9:0.062019225 
13837.62043747383 0.12794115743390649 54.661101656278184 87.56568143284143 0 37112.874347331868 1:0.00025578889 2:0.10245574 3:0.018557152 4:0.0071650583 5:0.10129353 6:0.019878719 7:0.011913056 8:0.10709873 9:0.01553547 
13837.62043747383 0 54.661101656278184 87.56568143284143 0 37112.874347331868 1:0.015176765 2:0.13398669 3:-0.0077747079 4:0.017828758 5:0.13262041 6:-0.0056349809 7:0.016578479 8:0.13118809 9:-9.5891283e-05 
13837.62043747383 0 54.661101656278184 87.56568143284143 22.653665680034862 37112.874347331868 1:0.025648443 2:0.16403259 3:-0.024828891 4:0.023387624 5:0.15463905 6:-0.027813412 7:0.019001345 8:0.14953407 9:-0.03068312 
13837.62043747383 0.12794115743390649 54.661101656278184 87.56568143284143 0 0 1:0.01286796 2:0.11421885 3:0.077186115 4:0.010315124 5:0.11166824 6:0.074989478 7:0.013548135 8:0.11076039 9:0.075526406 
0 0.12794115743390649 0 0 22.653665680034862 0 1:0.052604112 2:0.1083261 3:0.024089971 4:0.051234537 5:0.11183961 6:0.019773812 7:0.050420471 8:0.11575329 9:0.02120948 
13837.62043747383 0.12794115743390649 54.661101656278184 87.56568143284143 0 37112.874347331868 1:-0.013088432 2:0.12044183 3:0.043308527 4:-0.010182299 5:0.12664893 6:0.058488507 7:-0.0051353788 8:0.13005233 9:0.06684722 
13837.62043747383 0 54.661101656278184 87.56568143284143 0 37112.874347331868 1:0.022806558 2:0.14657563 3:0.023784054 4:0.023950773 5:0.14602047 6:0.028444893 7:0.02752439 8:0.14963487 9:0.024084189 
13837.62043747383 0.12794115743390649 54.661101656278184 87.56568143284143 0 37112.874347331868 1:0.0059469592 2:0.11727439 3:0.076687415 4:0.0072808924 5:0.11843324 6:0.076303909 7:0.011740793 8:0.11682384 9:0.070088568 
13837.62043747383 0 54.661101656278184 87.56568143284143 22.653665680034862 37112.874347331868 1:0.013434928 2:0.13560669 3:-0.017059384 4:0.01097352 5:0.13592809 6:-0.018511161 7:0.011288705 8:0.13312609 9:-0.021781158 
13837.62043747383 0 54.661101656278184 87.56568143284143 22.653665680034862 37112.874347331868 1:0.028235665 2:0.12228065 3:-0.018808806 4:0.028758389 5:0.11931861 6:-0.017050853 7:0.027885683 8:0.119358 9:-0.013190937 
13837.62043747383 0.12794115743390649 0 87.56568143284143 0 37112.874347331868 1:0.017090791 2:0.097176509 3:0.077210769 4:0.014821481 5:0.087221346 6:0.089340762 7:0.028009785 8:0.084554909 9:0.070532337 
13837.62043747383 0.12794115743390649 54.661101656278184 87.56568143284143 0 37112.874347331868 1:0.00255563 2:0.11417221 3:0.025032158 4:-7.7046595e-05 5:0.11630162 6:0.047731488 7:-0.0034610122 8:0.1262183 9:0.075577786 
0 0.12794115743390649 0 0 22.653665680034862 37112.874347331868 1:0.083419207 2:0.11618223 3:0.0087335285 4:0.07046915 5:0.12177177 6:0.005675596 7:0.068101246 8:0.12607892 9:0.0050563568 
13837.62043747383 0 54.661101656278184 87.56568143284143 22.653665680034862 37112.874347331868 1:0.032749165 2:0.12648439 3:0.001355619 4:0.032943991 5:0.13118674 6:-0.01076515 7:0.031696895 8:0.13252773 9:-0.01875625 
0 0 0 0 22.653665680034862 37112.874347331868 1:0.058225145 2:0.12316938 3:-0.020853113 4:0.056665271 5:0.12573968 6:-0.016829142 7:0.05526312 8:0.12957804 9:-0.014396665 
0 0.12794115743390649 0 0 22.653665680034862 37112.874347331868 1:0.064404201 2:0.10451042 3:0.0099002368 4:0.055048509 5:0.097310602 6:0.0125788 7:0.044750834 8:0.093398344 9:0.017266663 
13837.62043747383 0 54.661101656278184 87.56568143284143 0 37112.874347331868 1:0.02146084 2:0.14551321 3:-0.013531449 4:0.019579065 5:0.14522841 6:-0.01239072 7:0.011940486 8:0.14231708 9:-0.0047222551 
13837.62043747383 0 0 0 22.653665680034862 37112.874347331868 1:0.044070396 2:0.1241269 3:-0.025852749 4:0.044304789 5:0.12719787 6:-0.027075788 7:0.043310099 8:0.12635431 9:-0.025446917 
4048.0085026095012 0 54.661101656278184 87.56568143284143 22.653665680034862 21120.632650931668 1:0.030903251 2:0.1560268 3:-0.028628518 4:0.02315986 5:0.16397876 6:-0.037794932 7:0.010399149 8:0.1699205 9:-0.039428 
0 0 0 0 22.653665680034862 37112.874347331868 1:0.047368092 2:0.1424122 3:-0.011457972 4:0.0507228 5:0.14303444 6:-0.012672284 7:0.049939115 8:0.14496864 9:-0.011788554 
13837.62043747383 0.12794115743390649 54.661101656278184 87.56568143284143 0 37112.874347331868 1:-0.01130471 2:0.11396785 3:0.035371672 4:-0.018164974 5:0.10961086 6:0.045041945 7:-0.023046495 8:0.10941391 9:0.052187081 
13837.62043747383 0.12794115743390649 0 0 0 37112.874347331868 1:0.067085425 2:0.15424964 3:0.069417686 4:0.050209236 5:0.15900474 6:0.060931624 7:0.034084721 8:0.15457247 9:0.061732265 
13837.62043747383 0 54.661101656278184 87.56568143284143 22.653665680034862 37112.874347331868 1:0.0077384103 2:0.16886577 3:-0.025518984 4:0.0099983872 5:0.16739658 6:-0.023738422 7:0.0082314249 8:0.16632248 9:-0.024866396 
0 0 54.661101656278184 87.56568143284143 22.653665680034862 37112.874347331868 1:0.039189677 2:0.19523639 3:-0.023108075 4:0.036038132 5:0.17930515 6:-0.02225646 7:0.030747596 8:0.1656868 9:-0.019101168 
0 0.12794115743390649 0 0 22.653665680034862 37112.874347331868 1:0.088350947 2:0.12473106 3:0.03182966 4:0.08502746 5:0.1312453 6:0.0045844163 7:0.081247566 8:0.13147276 9:-0.015481241 
13837.62043747383 0.12794115743390649 0 87.56568143284143 0 37112.874347331868 1:0.019131625 2:0.11693083 3:0.05528016 4:0.019928129 5:0.11198311 6:0.058016586 7:0.018964778 8:0.10890823 9:0.063597533 
13837.62043747383 0 54.661101656278184 87.56568143284143 22.653665680034862 37112.874347331868 1:0.026316038 2:0.12089096 3:-0.028978612 4:0.021096053 5:0.12174583 6:-0.028455108 7:0.017475229 8:0.12330264 9:-0.025345421 
0 0.12794115743390649 0 0 22.653665680034862 37112.874347331868 1:0.043880029 2:0.10961279 3:0.0078194328 4:0.047580584 5:0.11168102 6:0.011685605 7:0.056301712 8:0.10991158 9:0.0067370395 
13837.62043747383 0.12794115743390649 0 87.56568143284143 0 0 1:0.026281127 2:0.12906496 3:0.040477005 4:0.022905042 5:0.13170866 6:0.048726947 7:0.021063437 8:0.13770554 9:0.052370097 
13837.62043747383 0.12794115743390649 0 87.56568143284143 0 0 1:0.030831895 2:0.095484839 3:0.079339324 4:0.017173618 5:0.10659665 6:0.069217182 7:0.0061596232 8:0.13490478 9:0.064409526 
0 0 0 0 22.653665680034862 37112.874347331868 1:0.048562928 2:0.13546174 3:-0.017605508 4:0.050718336 5:0.13702873 6:-0.018406322 7:0.049342544 8:0.13680486 9:-0.016487562 
0 0.12794115743390649 0 0 22.653665680034862 37112.874347331868 1:0.052019419 2:0.11602437 3:0.012709267 4:0.051392622 5:0.12085634 6:0.0073233214 7:0.048744725 8:0.1236279 9:0.00094900752 
13837.62043747383 0.12794115743390649 54.661101656278184 87.56568143284143 22.653665680034862 37112.874347331868 1:0.02041869 2:0.12213892 3:0.00062863301 4:0.023028974 5:0.12242748 6:-0.0048877401 7:0.025949634 8:0.12375302 9:-0.0017178552 
13837.62043747383 0.12794115743390649 54.661101656278184 87.56568143284143 0 37112.874347331868 1:-0.026289152 2:0.063277093 3:0.050088985 4:-0.02998094 5:0.053015124 6:0.055111567 7:-0.012654025 8:0.047371137 9:0.062650387 
0 0.12794115743390649 0 0 0 37112.874347331868 1:0.031104769 2:0.078029121 3:0.071340926 4:0.0097754038 5:0.050157143 6:0.073346308 7:0.010438344 8:0.052953876 9:0.092392804 
0 0.12794115743390649 0 0 22.653665680034862 37112.874347331868 1:0.072740558 2:0.096019272 3:0.0043846715 4:0.069841878 5:0.098620675 6:0.0071012815 7:0.0682294 8:0.09902008 9:0.012821881 
13837.62043747383 0 54.661101656278184 87.56568143284143 22.653665680034862 37112.874347331868 1:0.023771367 2:0.1259325 3:-0.0093223376 4:0.026244578 5:0.12710494 6:-0.013275304 7:0.027961518 8:0.12802152 9:-0.017758767 
13837.62043747383 0 54.661101656278184 87.56568143284143 0 37112.874347331868 1:0.00081491065 2:0.14331797 3:-0.0081278405 4:0.0001834152 5:0.13484851 6:-0.0057003433 7:-0.0020984322 8:0.12987914 9:-0.0063558971 
13837.62043747383 0.12794115743390649 54.661101656278184 87.56568143284143 22.653665680034862 37112.874347331868 1:0.034104837 2:0.10106856 3:-0.012503008 4:0.033223791 5:0.10088493 6:-0.017851796 7:0.032320702 8:0.10233447 9:-0.02448668 
13837.62043747383 0.12794115743390649 0 0 22.653665680034862 37112.874347331868 1:0.057327108 2:0.063689994 3:0.091031891 4:0.057762866 5:0.062706999 6:0.086331556 7:0.054410774 8:0.062551842 9:0.080564183 
13837.62043747383 0.12794115743390649 54.661101656278184 87.56568143284143 0 37112.874347331868 1:-0.0086175515 2:0.13609017 3:0.021892461 4:0.026341981 5:0.13108962 6:0.05958333 7:0.036342531 8:0.10828614 9:0.042205375 
0 0.12794115743390649 0 0 22.653665680034862 4670.6656648420912 1:0.060874872 2:0.063701302 3:0.097051952 4:0.075067373 5:0.065483877 6:0.093740836 7:0.079722494 8:0.063502443 9:0.086536736 
0 0.12794115743390649 0 0 0 32117.059717758348 1:0.038833866 2:0.096991989 3:0.11019099 4:0.046532 5:0.10599547 6:0.11066977 7:0.069232456 8:0.11537384 9:0.082519195 
13837.62043747383 0.12794115743390649 0 87.56568143284143 0 0 1:0.02499417 2:0.17558095 3:0.17759627 4:0.01814592 5:0.19741337 6:0.17153378 7:0.012205328 8:0.16661062 9:0.13089523 
13837.62043747383 0.12794115743390649 54.661101656278184 87.56568143284143 0 37112.874347331868 1:0.0010526746 2:0.12325009 3:0.039968183 4:0.0061229839 5:0.13092298 6:0.054353951 7:0.0090091939 8:0.13691584 9:0.065643134 
13837.62043747383 0.12794115743390649 0 87.56568143284143 0 37112.874347331868 1:0.021436829 2:0.11981957 3:0.051328482 4:0.025837593 5:0.11845021 6:0.051572943 7:0.03080909 8:0.12367881 9:0.055508671 
0 0.12794115743390649 54.661101656278184 87.56568143284143 22.653665680034862 37112.874347331868 1:0.0058365942 2:0.036112991 3:0.089518642 4:0.0054993004 5:0.033236135 6:0.08912048 7:0.0089965199 8:0.034435291 9:0.091827971 
13837.62043747383 0.12794115743390649 54.661101656278184 87.56568143284143 0 37112.874347331868 1:-0.0010436727 2:0.11080054 3:0.018407216 4:-0.0034969199 5:0.10607308 6:0.025608415 7:0.00022388638 8:0.105647 9:0.029281168 
0 0.12794115743390649 0 0 0 37112.874347331868 1:0.030931287 2:0.13247959 3:0.03221875 4:0.043142396 5:0.13389626 6:0.032408098 7:0.052730903 8:0.13328886 9:0.021780296 
0 0.12794115743390649 0 0 22.653665680034862 0 1:0.057741829 2:0.011425154 3:0.089292917 4:0.053913787 5:0.01630585 6:0.090386761 7:0.038376204 8:0.024949325 9:0.12453749 
13837.62043747383 0 54.661101656278184 87.56568143284143 0 37112.874347331868 1:0.0059235423 2:0.21268592 3:-0.017501701 4:-0.0027901328 5:0.21181091 6:-0.0021596818 7:0.0017423162 8:0.22845604 9:0.023860772 
13837.62043747383 0 54.661101656278184 87.56568143284143 0 37112.874347331868 1:-0.037552947 2:0.12764697 3:-0.0041047815 4:-0.039827519 5:0.1289846 6:-0.0013060339 7:-0.033856457 8:0.13141238 9:0.0022462999 
13837.62043747383 0.12794115743390649 54.661101656278184 87.56568143284143 0 0 1:0.0013706163 2:0.12610091 3:0.051522412 4:-0.0069817718 5:0.12912222 6:0.064228227 7:-0.013520921 8:0.13353637 9:0.062524818 
13837.62043747383 0 54.661101656278184 87.56568143284143 22.653665680034862 37112.874347331868 1:-0.00016884389 2:0.15925353 3:-0.04222491 4:-0.0078122329 5:0.16488093 6:-0.039212018 7:-0.016108881 8:0.17818544 9:-0.030653043 
0 0.12794115743390649 0 0 22.653665680034862 37112.874347331868 1:0.085567383 2:0.11919336 3:0.083722405 4:0.084625918 5:0.13839417 6:0.07980058 7:0.083961767 8:0.1481848 9:0.08525175 
13837.62043747383 0.12794115743390649 54.661101656278184 87.56568143284143 0 37112.874347331868 1:-0.0034979551 2:0.11215564 3:0.027459139 4:0.0044435119 5:0.1080873 6:0.028804765 7:0.0092816172 8:0.10630243 9:0.031577438 
13837.62043747383 0 54.661101656278184 0 22.653665680034862 37112.874347331868 1:0.03781888 2:0.12764616 3:-0.02646951 4:0.040517365 5:0.12120839 6:-0.029364164 7:0.04088974 8:0.12114294 9:-0.033054762 
13837.62043747383 0 54.661101656278184 87.56568143284143 0 37112.874347331868 1:-0.030595741 2:0.24388391 3:-0.026235191 4:-0.03694694 5:0.22363989 6:0.041118114 7:-0.025891953 8:0.19412847 9:0.081081597 
0 0.12794115743390649 0 0 22.653665680034862 0 1:0.061508509 2:0.071105079 3:0.075843032 4:0.056270162 5:0.075776617 6:0.086844621 7:0.06352093 8:0.095663381 9:0.077009791 
13837.62043747383 0.12794115743390649 54.661101656278184 87.56568143284143 0 37112.874347331868 1:0.02675608 2:0.12582228 3:0.0064033054 4:0.019831518 5:0.12442418 6:0.0077587842 7:0.017929256 8:0.12339048 9:0.0080246177 
0 0 0 0 22.653665680034862 37112.874347331868 1:0.049721856 2:0.15362881 3:-0.024665743 4:0.051031122 5:0.15693293 6:-0.021809136 7:0.052094027 8:0.16090728 9:-0.017098276 
0 0.12794115743390649 0 0 22.653665680034862 37112.874347331868 1:0.068239963 2:0.095708694 3:0.021590169 4:0.066832733 5:0.09855342 6:0.0096014517 7:0.070848257 8:0.10068877 9:0.0083779575 
13837.62043747383 0.12794115743390649 0 0 22.653665680034862 37112.874347331868 1:0.043288802 2:0.10344553 3:0.031831308 4:0.042366853 5:0.09716108 6:0.027954824 7:0.041714265 8:0.094801129 9:0.024276702 
13837.62043747383 0.12794115743390649 54.661101656278184 87.56568143284143 0 37112.874347331868 1:0.013568758 2:0.079438823 3:0.074015332 4:0.01342092 5:0.073285471 6:0.074923852 7:0.011448822 8:0.068566277 9:0.075585627 
10013.109168638248 0.12794115743390649 0 0 0 0 1:0.049802575 2:0.086755325 3:0.097955075 4:0.049482129 5:0.085146982 6:0.091273348 7:0.047699552 8:0.083009593 9:0.092773806 
0 0.12794115743390649 0 0 22.653665680034862 37112.874347331868 1:0.051197363 2:0.11082341 3:-0.021989542 4:0.049244689 5:0.10734876 6:-0.012426373 7:0.050213589 8:0.10983839 9:-0.010891398 
13837.62043747383 0.12794115743390649 54.661101656278184 87.56568143284143 0 0 1:-0.011440003 2:0.13761689 3:0.059489518 4:-0.0044749309 5:0.13021874 6:0.06858503 7:0.0029950703 8:0.12154973 9:0.072846922 
13837.62043747383 0 54.661101656278184 87.56568143284143 22.653665680034862 37112.874347331868 1:0.024057794 2:0.1732567 3:-0.016981233 4:0.027507612 5:0.17329364 6:-0.012455693 7:0.032184106 8:0.17087663 9:-0.011493681 
0 0.12794115743390649 0 0 0 37112.874347331868 1:0.061280028 2:0.11147817 3:0.077801922 4:0.063284349 5:0.11439773 6:0.076473967 7:0.067887217 8:0.11933291 9:0.075349068 
13837.62043747383 0.12794115743390649 54.661101656278184 87.56568143284143 22.653665680034862 37112.874347331868 1:-0.0085642439 2:0.049865549 3:0.070910174 4:-0.020899114 5:0.037661695 6:0.073715028 7:0.0071752905 8:0.038069712 9:0.075255659 
13837.62043747383 0 54.661101656278184 87.56568143284143 0 37112.874347331868 1:0.0050261303 2:0.12796072 3:-0.0088520398 4:0.005580968 5:0.13994451 6:-0.0063095561 7:0.0083411682 8:0.15103756 9:-0.012231762 
8532.0220777598333 0.12794115743390649 0 87.56568143284143 0 0 1:-0.020701635 2:0.085493687 3:0.15985151 4:0.033373449 5:0.1223466 6:0.13161514 7:0.075600705 8:0.14257846 9:0.074846658 
13837.62043747383 0.12794115743390649 54.661101656278184 87.56568143284143 0 0 1:0.012155323 2:0.11543478 3:0.053905137 4:0.0041053216 5:0.12887219 6:0.069480139 7:0.0015458406 8:0.13658399 9:0.070730701 
13837.62043747383 0.12794115743390649 0 0 22.653665680034862 37112.874347331868 1:0.07413075 2:0.11105975 3:-0.011821611 4:0.058342773 5:0.091126202 6:-0.027551339 7:0.044461754 8:0.086131411 9:-0.02830252 
0 0.12794115743390649 0 0 22.653665680034862 0 1:0.024331955 2:0.036907829 3:0.088584697 4:0.027449913 5:0.037050016 6:0.090939456 7:0.03168292 8:0.036292576 9:0.093537611 
13837.62043747383 0.12794115743390649 0 0 22.653665680034862 37112.874347331868 1:0.010305425 2:0.013823939 3:0.053101325 4:0.046778559 5:0.023490792 6:0.029243429 7:0.057498004 8:0.038656805 9:0.036810291 
0 0.12794115743390649 0 0 22.653665680034862 37112.874347331868 1:0.047655514 2:0.12545795 3:-0.0067486707 4:0.048392814 5:0.12113614 6:-0.0062418411 7:0.048066044 8:0.11932912 9:-0.012934306 
13837.62043747383 0 54.661101656278184 87.56568143284143 0 37112.874347331868 1:-0.018569487 2:0.18483876 3:-0.021338385 4:-0.026526111 5:0.1716959 6:-0.030080385 7:-0.035061915 8:0.15941374 9:-0.035834506 
13837.62043747383 0 54.661101656278184 87.56568143284143 0 37112.874347331868 1:-0.017193067 2:0.1437301 3:0.021104703 4:-0.011037812 5:0.13548722 6:0.021278157 7:-0.0068871601 8:0.12842597 9:0.027854962 
13837.62043747383 0 54.661101656278184 87.56568143284143 22.653665680034862 37112.874347331868 1:0.04403614 2:0.18876391 3:-0.017612577 4:0.033839743 5:0.19837475 6:-0.0071077075 7:0.014916396 8:0.19844681 9:0.0025798466 
0 0.12794115743390649 0 0 22.653665680034862 0 1:0.033164362 2:0.018207786 3:0.086278422 4:0.027729345 5:0.037572892 6:0.11722305 7:0.028339273 8:0.069501735 9:0.14317432 
0 0.12794115743390649 0 0 0 37112.874347331868 1:0.049702917 2:0.14348581 3:0.024714449 4:0.054972429 5:0.14687979 6:0.026647481 7:0.058945491 8:0.14524611 9:0.028411368 
13837.62043747383 0 54.661101656278184 87.56568143284143 0 37112.874347331868 1:-0.030810221 2:0.17439213 3:-0.016525511 4:-0.02016871 5:0.15742506 6:-0.023140299 7:-0.018450711 8:0.14195027 9:-0.026977261 
13837.62043747383 0.12794115743390649 54.661101656278184 87.56568143284143 0 37112.874347331868 1:-0.0057478642 2:0.11913364 3:0.021868767 4:-0.00014638749 5:0.11769485 6:0.023837228 7:0.006217012 8:0.11703909 9:0.027683609 
0 0.12794115743390649 0 0 0 37112.874347331868 1:0.05252259 2:0.1273465 3:0.097345395 4:0.046909639 5:0.11460693 6:0.094790546 7:0.047708479 8:0.10571413 9:0.0813232 
13837.62043747383 0.12794115743390649 54.661101656278184 87.56568143284143 0 0 1:-0.018362237 2:0.077321973 3:0.084331874 4:-0.017312718 5:0.070411466 6:0.086944135 7:-0.0085633996 8:0.070418135 9:0.087718139 
13837.62043747383 0 54.661101656278184 87.56568143284143 0 0 1:-0.02362336 2:0.18713131 3:-0.0021051347 4:-0.023280976 5:0.1825926 6:0.0014405484 7:-0.022422863 8:0.17765198 9:-0.00031550083 
13837.62043747383 0 54.661101656278184 87.56568143284143 22.653665680034862 37112.874347331868 1:0.021968436 2:0.13662695 3:-0.019865256 4:0.017090662 5:0.13718414 6:-0.02097493 7:0.013281548 8:0.14213553 9:-0.018169298 
0 0.12794115743390649 0 0 22.653665680034862 37112.874347331868 1:0.078142532 2:0.12967378 3:-0.0093970602 4:0.076497553 5:0.13614264 6:0.0014300522 7:0.076739718 8:0.14456445 9:0.0045137763 
13837.62043747383 0 54.661101656278184 87.56568143284143 22.653665680034862 37112.874347331868 1:0.023256568 2:0.12063391 3:-0.028331308 4:0.024679762 5:0.12555055 6:-0.025960827 7:0.028428004 8:0.12791319 9:-0.021105161 
13837.62043747383 0.12794115743390649 0 87.56568143284143 0 0 1:0.02930482 2:0.1154394 3:0.056035556 4:0.019552259 5:0.11666664 6:0.067126702 7:0.0053903156 8:0.11827195 9:0.080644011 
0 0.12794115743390649 0 0 22.653665680034862 37112.874347331868 1:0.061551559 2:0.13290006 3:0.029080778 4:0.06307328 5:0.13285082 6:0.023147266 7:0.059907811 8:0.12946718 9:0.020532155 
13837.62043747383 0 54.661101656278184 87.56568143284143 0 0 1:-0.031358435 2:0.11694613 3:0.020767647 4:-0.036411612 5:0.12580934 6:0.014393614 7:-0.035721974 8:0.13132525 9:0.015926468 
13837.62043747383 0 54.661101656278184 87.56568143284143 22.653665680034862 37112.874347331868 1:0.028579001 2:0.15508263 3:-0.023651911 4:0.014529228 5:0.13921881 6:-0.026464323 7:0.0024688981 8:0.1287707 9:-0.025162287 
13837.62043747383 0.12794115743390649 54.661101656278184 87.56568143284143 22.653665680034862 37112.874347331868 1:0.025287632 2:0.11296461 3:-0.01111847 4:0.024624065 5:0.11037178 6:-0.0055363519 7:0.02233152 8:0.11256898 9:-0.0010776181 
13837.62043747383 0 54.661101656278184 87.56568143284143 22.653665680034862 37112.874347331868 1:0.021813388 2:0.13730139 3:-0.015068338 4:0.022583648 5:0.1385391 6:-0.021895149 7:0.023608611 8:0.1425394 9:-0.030229803 
0 0.12794115743390649 54.661101656278184 87.56568143284143 0 0 1:-0.019078621 2:0.043188635 3:0.10070692 4:0.00077081335 5:0.053873739 6:0.11131754 7:0.018308017 8:0.062498909 9:0.11395623 
0 0.12794115743390649 0 0 22.653665680034862 37112.874347331868 1:0.051195005 2:0.090624668 3:0.038548751 4:0.050316858 5:0.089135579 6:0.042508884 7:0.049240358 8:0.087464418 9:0.04555205 
13837.62043747383 0.12794115743390649 0 0 13.671593119957718 0 1:0.017848752 2:0.059956693 3:0.080679275 4:0.021913846 5:0.054220094 6:0.085780247 7:0.024121049 8:0.047361061 9:0.091955921 
0 0.12794115743390649 0 0 22.653665680034862 37112.874347331868 1:0.043400201 2:0.10760761 3:-0.0012004654 4:0.046308067 5:0.10977581 6:-0.005193665 7:0.048852175 8:0.11106889 9:-0.0086427678 
6219.1445709704594 0.12794115743390649 0 87.56568143284143 0 37112.874347331868 1:0.011858207 2:0.12120979 3:0.065717488 4:0.019755413 5:0.11677808 6:0.069499187 7:0.025767529 8:0.11097623 9:0.073134457 
13837.62043747383 0.12794115743390649 54.661101656278184 87.56568143284143 22.653665680034862 37112.874347331868 1:0.043562808 2:0.11548174 3:-0.011230988 4:0.03530241 5:0.11536569 6:-0.018138203 7:0.029545779 8:0.11828649 9:-0.018431235 
0 0.12794115743390649 0 0 22.653665680034862 37112.874347331868 1:0.057034524 2:0.1158373 3:-0.0035710662 4:0.061447438 5:0.12045448 6:-0.0024381119 7:0.059971775 8:0.12082132 9:-0.0029883588 
13837.62043747383 0 54.661101656278184 87.56568143284143 0 37112.874347331868 1:0.013121411 2:0.13241584 3:-0.0064462627 4:0.0087763209 5:0.13668303 6:-0.011108162 7:0.0058386384 8:0.14064725 9:-0.014052839 
13837.62043747383 0.12794115743390649 0 0 0 37112.874347331868 1:0.029728393 2:0.061925157 3:0.085685292 4:0.035574158 5:0.06757146 6:0.089124046 7:0.039562984 8:0.07328216 9:0.089691243 
13837.62043747383 0.12794115743390649 54.661101656278184 87.56568143284143 0 37112.874347331868 1:0.012144586 2:0.12252222 3:0.00713408 4:0.0082376143 5:0.11952303 6:0.0090890487 7:0.0098547908 8:0.11643282 9:0.0039654707 
0 0 54.661101656278184 87.56568143284143 22.653665680034862 37112.874347331868 1:0.028619669 2:0.11986228 3:-0.016278599 4:0.031023454 5:0.12137981 6:-0.011574345 7:0.033775665 8:0.12213015 9:-0.0032079677 
13837.62043747383 0.12794115743390649 0 0 0 0 1:0.034208087 2:0.083093341 3:0.087231913 4:0.035437515 5:0.10201015 6:0.095970107 7:0.03572626 8:0.12987576 9:0.1177998 
13837.62043747383 0.12794115743390649 0 0 0 37112.874347331868 1:0.032954407 2:0.10751583 3:0.098071177 4:0.038419915 5:0.10725809 6:0.1046162 7:0.05202111 8:0.12206475 9:0.10718995 
0 0.12794115743390649 0 0 0 37112.874347331868 1:0.040913242 2:0.11282258 3:0.03003157 4:0.044653862 5:0.11128839 6:0.028817433 7:0.048180403 8:0.1092787 9:0.027677657 
13837.62043747383 0 54.661101656278184 87.56568143284143 22.653665680034862 30042.589167020811 1:0.002804546 2:0.074262885 3:-0.11177918 4:-0.004896856 5:0.079028007 6:-0.10135845 7:-0.0042741295 8:0.094133971 9:-0.091170113 
0 0.12794115743390649 0 0 22.653665680034862 37112.874347331868 1:0.064948877 2:0.10048732 3:0.022866132 4:0.066473393 5:0.10127301 6:0.026485831 7:0.068247072 8:0.10109815 9:0.023577685 
13837.62043747383 0.12794115743390649 54.661101656278184 87.56568143284143 0 0 1:-0.0026035279 2:0.090028857 3:0.074279753 4:0.00056031731 5:0.0844614 6:0.071809902 7:-0.00012271554 8:0.079107243 9:0.074507994 
13837.62043747383 0.12794115743390649 54.661101656278184 87.56568143284143 22.653665680034862 37112.874347331868 1:0.033184015 2:0.10822279 3:-0.0096284714 4:0.029177951 5:0.10966701 6:-0.0067499278 7:0.024028408 8:0.11403387 9:-0.0032412301 
13837.62043747383 0.12794115743390649 54.661101656278184 87.56568143284143 0 37112.874347331868 1:0.015907051 2:0.13015668 3:0.061029655 4:0.012819019 5:0.1252015 6:0.056725256 7:0.0092899025 8:0.11725651 9:0.055037422 
13837.62043747383 0.12794115743390649 0 0 22.653665680034862 37112.874347331868 1:0.039374425 2:0.087105466 3:0.076393855 4:0.040552638 5:0.073196423 6:0.067893805 7:0.040462771 8:0.068134909 9:0.059035086 
0 0.12794115743390649 0 0 22.653665680034862 37112.874347331868 1:0.061981376 2:0.10781793 3:0.016917942 4:0.062871885 5:0.10476173 6:0.01562485 7:0.063363275 8:0.10483698 9:0.014345358 
13837.62043747383 0 54.661101656278184 87.56568143284143 0 37112.874347331868 1:0.015108104 2:0.14088959 3:-0.0060723718 4:0.018556992 5:0.14010376 6:-0.0086189912 7:0.018334077 8:0.14143091 9:-0.0085737761 
13837.62043747383 0 54.661101656278184 87.56568143284143 0 37112.874347331868 1:-0.0051045293 2:0.13427661 3:0.022463656 4:-0.0042410025 5:0.13380581 6:0.017780211 7:0.0030108291 8:0.13085587 9:0.017869905 
0 0 54.661101656278184 87.56568143284143 22.653665680034862 37112.874347331868 1:0.038574663 2:0.18957752 3:-0.012937468 4:0.032784465 5:0.19553083 6:-0.015812266 7:0.028416725 8:0.20444643 9:-0.016556346 
13837.62043747383 0.12794115743390649 54.661101656278184 87.56568143284143 0 37112.874347331868 1:0.0037338647 2:0.1009465 3:0.028616369 4:0.0039226064 5:0.10602592 6:0.039754076 7:0.0036224727 8:0.10938576 9:0.039820772 
0 0.12794115743390649 0 0 22.653665680034862 37112.874347331868 1:0.066939968 2:0.088891655 3:0.034985796 4:0.063629238 5:0.081409683 6:0.031768052 7:0.062516877 8:0.076716166 9:0.027654603 
13837.62043747383 0 54.661101656278184 87.56568143284143 0 37112.874347331868 1:0.0094364006 2:0.14239489 3:-0.022028023 4:0.0044155523 5:0.14252375 6:-0.014145478 7:0.0039880007 8:0.13869849 9:-0.0069753958 
0 0.12794115743390649 0 0 0 0 1:0.036966484 2:0.075018584 3:0.10013995 4:0.027228735 5:0.073775189 6:0.097705851 7:0.02157494 8:0.075867639 9:0.095325126 
13837.62043747383 0.12794115743390649 54.661101656278184 87.56568143284143 22.653665680034862 0 1:0.029730513 2:0.10740277 3:0.0053770355 4:0.028185296 5:0.1098592 6:0.004212075 7:0.026163804 8:0.11174401 9:0.0043922428 
13837.62043747383 0 54.661101656278184 87.56568143284143 0 37112.874347331868 1:0.0069394992 2:0.13730561 3:0.012730727 4:0.0120741 5:0.14547664 6:0.0040853071 7:0.016062991 8:0.1497749 9:-0.0046842158 
13837.62043747383 0 54.661101656278184 87.56568143284143 0 37112.874347331868 1:-0.031460881 2:0.13357812 3:0.015194386 4:-0.020004848 5:0.12882928 6:0.013408953 7:-0.015291865 8:0.12339454 9:0.011167274 
13837.62043747383 0 54.661101656278184 87.56568143284143 0 37112.874347331868 1:-0.02406806 2:0.16834496 3:0.0068032375 4:-0.033281613 5:0.16041053 6:0.0019727996 7:-0.036310265 8:0.15603516 9:-0.0038032587 
13837.62043747383 0 54.661101656278184 87.56568143284143 0 37112.874347331868 1:0.0097910617 2:0.18244012 3:-0.019557078 4:0.0048059241 5:0.17310065 6:-0.022707323 7:-0.0021110827 8:0.1629754 9:-0.010789611 
13837.62043747383 0.12794115743390649 54.661101656278184 87.56568143284143 0 37112.874347331868 1:0.013279167 2:0.12688424 3:0.017816753 4:0.0051550628 5:0.12415873 6:0.013710364 7:-0.0049714551 8:0.1226262 9:0.0084739856 
13837.62043747383 0.12794115743390649 54.661101656278184 87.56568143284143 0 0 1:-0.00022626866 2:0.098026739 3:0.065519459 4:-0.0010788379 5:0.097484264 6:0.065957854 7:-0.004766641 8:0.094925388 9:0.070897349 
0 0.12794115743390649 0 0 22.653665680034862 37112.874347331868 1:0.034853615 2:0.079156662 3:0.070529937 4:0.045746904 5:0.075288151 6:0.054416417 7:0.05827489 8:0.082490499 9:0.058685133 
13837.62043747383 0 54.661101656278184 87.56568143284143 22.653665680034862 37112.874347331868 1:0.0070914746 2:0.13148075 3:-0.044284838 4:0.0073174841 5:0.13657578 6:-0.044436247 7:0.0066026841 8:0.14589644 9:-0.038276014 
13837.62043747383 0.12794115743390649 54.661101656278184 87.56568143284143 0 37112.874347331868 1:0.0019150528 2:0.13253695 3:0.017640946 4:0.002999263 5:0.13313895 6:0.019573027 7:0.0043998919 8:0.13314729 9:0.020573476 
13837.62043747383 0 54.661101656278184 87.56568143284143 22.653665680034862 37112.874347331868 1:0.025174962 2:0.13302201 3:-0.012864816 4:0.02320399 5:0.13114408 6:-0.012641058 7:0.023119278 8:0.13019673 9:-0.013225887 
0 0.12794115743390649 0 0 22.653665680034862 37112.874347331868 1:0.054515189 2:0.11183886 3:0.027466054 4:0.051889051 5:0.1127998 6:0.025159023 7:0.052333885 8:0.11336926 9:0.016102618 
13837.62043747383 0 54.661101656278184 87.56568143284143 0 37112.874347331868 1:0.0019760161 2:0.13111688 3:-0.0040793577 4:0.007273894 5:0.12959359 6:-0.003446411 7:0.011988285 8:0.1261389 9:0.0090532733 
13837.62043747383 0 0 0 0 37112.874347331868 1:0.03072002 2:0.1619212 3:0.015465363 4:0.033715954 5:0.18469007 6:0.037652274 7:0.039515182 8:0.21482444 9:0.068472136 
0 0.12794115743390649 0 0 22.653665680034862 37112.874347331868 1:0.048142955 2:0.11844031 3:-0.018661675 4:0.048667128 5:0.12057266 6:-0.013662763 7:0.049997207 8:0.12173504 9:-0.011051958 
13837.62043747383 0.12794115743390649 54.661101656278184 87.56568143284143 0 0 1:0.016629107 2:0.1303113 3:0.02498169 4:0.01853466 5:0.14264152 6:0.01704072 7:0.017934715 8:0.14502593 9:0.024513125 
13837.62043747383 0.12794115743390649 54.661101656278184 87.56568143284143 22.653665680034862 37112.874347331868 1:0.029524428 2:0.11523911 3:-0.012486033 4:0.028222717 5:0.11538592 6:-0.01321768 7:0.028598167 8:0.11514599 9:-0.012517193 
13837.62043747383 0 54.661101656278184 87.56568143284143 0 37112.874347331868 1:0.0025180979 2:0.14073475 3:-0.017421365 4:0.0022143259 5:0.13877497 6:-0.018368999 7:0.0011382797 8:0.13663631 9:-0.018670757 
13837.62043747383 0 54.661101656278184 87.56568143284143 0 37112.874347331868 1:0.0066547863 2:0.12497005 3:0.031384081 4:0.0084669628 5:0.13372443 6:0.011208374 7:0.0081240821 8:0.13784185 9:0.0008753321 
13837.62043747383 0 54.661101656278184 87.56568143284143 22.653665680034862 37112.874347331868 1:0.025796413 2:0.14458557 3:-0.014086901 4:0.032544376 5:0.15271756 6:-0.00068021007 7:0.042389382 8:0.15083275 9:0.0022874658 
0 0.12794115743390649 0 0 0 37112.874347331868 1:0.037705913 2:0.13542483 3:0.012817153 4:0.034440507 5:0.13036534 6:0.014814089 7:0.033189102 8:0.12229495 9:0.016299605 
0 0.12794115743390649 0 0 22.653665680034862 37112.874347331868 1:0.10076906 2:0.14084564 3:0.071689965 4:0.08636252 5:0.097342793 6:0.05606481 7:0.06698975 8:0.073877614 9:0.04958088 
3324.2339213076925 0.12794115743390649 0 0 22.653665680034862 30358.695282214663 1:0.054590036 2:0.060979968 3:0.090863955 4:0.056414902 5:0.054492468 6:0.092907842 7:0.056201147 8:0.048143618 9:0.090169469 
