svm_type nu_svc
kernel_type rbf
gamma 0.1111111111111111
nr_class 7
total_sv 6430
rho -0.037902273272185517 -0.084735721390632818 -0.030515212874029553 1.0902434164483312 -0.068149656304875836 -0.040854559833925726 -236.56600126582182 -1742.2059487867352 43.821873861545676 -626.88579608118596 -79.236333359478991 -34.381201037281436 78.724068720172454 -549.14411999550373 13.368032376990893 35.422931135876965 8.1619001217522573 850.81733721426428 -95.656027809864895 -35.669641188044196 5.7237305030561467
label 4 1 5 3 2 6 0
nr_sv 735 1199 921 1022 824 868 861
SV
0.15420421636023401 0.18899005558665891 0.13261800003382399 0.17634922275924286 0.17239631622063065 0.12991198669138251 1:0.053462166 2:-0.00052509069 3:0.13235216 4:0.053443575 5:-0.00079709809 6:0.13222026 7:0.052786258 8:-0.00099904923 9:0.13209732 
0.15420421636023401 0.18899005558665891 0.13261800003382399 0 0.17239631622063065 0.12991198669138251 1:0.055961564 2:0.0109313 3:0.13884514 4:0.055996591 5:0.010994578 6:0.13947708 7:0.056225351 8:0.0098490277 9:0.13980271 
0.15420421636023401 0.18899005558665891 0.13261800003382399 0.17634922275924286 0.17239631622063065 0.12991198669138251 1:0.055155876 2:-0.00018895262 3:0.13239678 4:0.055304924 5:-3.0966427e-05 6:0.13216946 7:0.055436102 8:-8.3148767e-05 9:0.13217913 
0.15420421636023401 0.18899005558665891 0.13261800003382399 0.17634922275924286 0.17239631622063065 0.12991198669138251 1:0.094489115 2:0.0040716868 3:0.10837505 4:0.094557728 5:0.0040016302 6:0.10872534 7:0.094215667 8:0.0037310621 9:0.10851373 
0.15420421636023401 0.18899005558665891 0.13261800003382399 0.17634922275924286 0.17239631622063065 0.12991198669138251 1:0.036740382 2:0.021095039 3:0.13588009 4:0.03681044 5:0.021051073 6:0.13598517 7:0.036670325 8:0.020779785 9:0.13603808 
0.15420421636023401 0.18899005558665891 0.13261800003382399 0.17634922275924286 0.17239631622063065 0.12991198669138251 1:0.094949248 2:0.0030729497 3:0.10706642 4:0.094862033 5:0.0030021739 6:0.10696133 7:0.094984995 8:0.0029753631 9:0.10687413 
0.15420421636023401 0.18899005558665891 0.13261800003382399 0.17634922275924286 0.17239631622063065 0 1:0.09611402 2:-0.0027850316 3:0.10308189 4:0.095440991 5:-0.0037633577 6:0.10408055 7:0.094384813 8:-0.0041157973 9:0.10474608 
0.15420421636023401 0.18899005558665891 0.13261800003382399 0.17634922275924286 0.17239631622063065 0.12991198669138251 1:0.093506084 2:0.0027839164 3:0.10686072 4:0.094100843 5:0.0032131905 6:0.10716703 7:0.094844647 8:0.0031438539 9:0.10769246 
0.15420421636023401 0.18899005558665891 0.13261800003382399 0.17634922275924286 0.17239631622063065 0.12991198669138251 1:0.055435283 2:-0.00085188936 3:0.13201052 4:0.055330199 5:-0.00077217658 6:0.13221248 7:0.05509394 8:-0.0010345275 9:0.13206415 
0.15420421636023401 0.18899005558665891 0.13261800003382399 0.17634922275924286 0.17239631622063065 0.12991198669138251 1:0.094197265 2:0.0035069824 3:0.10758095 4:0.093776927 5:0.0034190524 6:0.10752805 7:0.093908105 8:0.0034190524 9:0.10757201 
0.15420421636023401 0.18899005558665891 0.13261800003382399 0.17634922275924286 0.17239631622063065 0.12991198669138251 1:0.054045374 2:2.2252932e-05 3:0.13263993 4:0.054255543 5:0.00018023913 6:0.13221959 7:0.054307727 8:-0.00028406294 9:0.13214954 
0.15420421636023401 0.18899005558665891 0.13261800003382399 0.17634922275924286 0.17239631622063065 0.12991198669138251 1:0.094550868 2:0.0030513044 3:0.10734824 4:0.094533715 5:0.0030252133 6:0.1073132 7:0.094524778 8:0.003226445 9:0.10721706 
0.15420421636023401 0.18899005558665891 0.13261800003382399 0.17634922275924286 0.17239631622063065 0.12991198669138251 1:0.097057151 2:-0.0013561652 3:0.10406087 4:0.096337996 5:-0.00086649154 6:0.10473534 7:0.096258284 8:-0.00049833698 9:0.10454377 
0.15420421636023401 0 0 0 0 0 1:0.055068119 2:-0.00037748056 3:0.13298627 4:0.054963755 5:-0.00084178269 6:0.13313532 7:0.054797554 8:-0.00099904923 9:0.13300486 
0.15420421636023401 0.18899005558665891 0.13261800003382399 0.17634922275924286 0.17239631622063065 0.12991198669138251 1:0.036511249 2:0.021121331 3:0.13634985 4:0.036529123 5:0.021165295 6:0.13628802 7:0.036503033 8:0.021121331 9:0.13595561 
0.15420421636023401 0.18899005558665891 0.13261800003382399 0.17634922275924286 0.17239631622063065 0.12991198669138251 1:0.053177037 2:0.0034938681 3:0.13235393 4:0.053054799 5:0.003502805 6:0.1328093 7:0.053361833 8:0.0037308473 9:0.13309845 
0.15420421636023401 0.18899005558665891 0.13261800003382399 0 0.17239631622063065 0.12991198669138251 1:0.05600231 2:0.0044528811 3:0.1363365 4:0.055066208 5:0.0037097933 6:0.13562628 7:0.054838886 8:0.0034810315 9:0.13605484 
0.15420421636023401 0.18899005558665891 0.13261800003382399 0.17634922275924286 0.17239631622063065 0.12991198669138251 1:0.094603048 2:0.0029909048 3:0.10729605 4:0.094892215 5:0.0030430871 6:0.10748835 7:0.094576958 8:0.0028329187 9:0.1070412 
0.15420421636023401 0.18899005558665891 0.13261800003382399 0.17634922275924286 0.17239631622063065 0.12991198669138251 1:0.045900114 2:0.016988839 3:0.1360803 4:0.041432236 5:0.011683162 6:0.13279443 7:0.045229546 8:0.019306332 9:0.13919749 
0 0 0 0.17634922275924286 0 0 1:0.068497071 2:-0.0051791602 3:0.12394144 4:0.068889156 5:-0.0040471654 6:0.12480143 7:0.069403483 8:-0.003791593 9:0.12646779 
0.15420421636023401 0.18899005558665891 0.13261800003382399 0.17634922275924286 0.17239631622063065 0.12991198669138251 1:0.054121044 2:0.0093655986 3:0.12607254 4:0.053779701 5:0.0095668297 6:0.12581235 7:0.05398165 8:0.0096980052 9:0.12626988 
0.15420421636023401 0 0 0 0 0 1:0.054270155 2:-0.0013254865 3:0.13305257 4:0.054033896 5:-0.0012464933 6:0.13288637 7:0.054244065 8:-0.0012375564 9:0.13250927 
0.15420421636023401 0.18899005558665891 0.13261800003382399 0.17634922275924286 0.17239631622063065 0.12991198669138251 1:0.052140879 2:0.010754187 3:0.12583863 4:0.052595523 5:0.01050971 6:0.12580894 7:0.052655923 8:0.010517928 9:0.12541253 
0.15420421636023401 0 0.13261800003382399 0.17634922275924286 0 0.12991198669138251 1:0.05382572 2:-0.0017297907 3:0.13184794 4:0.053746726 5:-0.0017126365 6:0.13214604 7:0.053737789 8:-0.0018616857 9:0.132269 
0.15420421636023401 0 0 0 0 0 1:0.05411217 2:-0.0014030404 3:0.13266654 4:0.054392393 5:-0.0014820334 6:0.13291996 7:0.054173287 8:-0.0016310828 9:0.13246459 
0.15420421636023401 0.18899005558665891 0.13261800003382399 0.17634922275924286 0.17239631622063065 0.12991198669138251 1:0.05081906 2:0.0060680729 3:0.13335577 4:0.050486653 5:0.0060598554 6:0.13335577 7:0.050531338 8:0.0062432135 9:0.13335505 
0 0 0 0.17634922275924286 0 0 1:0.06960225 2:-0.006972069 3:0.1253022 4:0.069251973 5:-0.0069109497 6:0.12509204 7:0.069225883 8:-0.0066135707 9:0.12497801 
0.15420421636023401 0.18899005558665891 0.13261800003382399 0.17634922275924286 0.17239631622063065 0.12991198669138251 1:0.051908528 2:0.0078359118 3:0.1326095 4:0.051628302 5:0.008169039 6:0.13255661 7:0.051479253 8:0.0081951299 9:0.1326699 
0.15420421636023401 0.18899005558665891 0.13261800003382399 0.17634922275924286 0.17239631622063065 0.12991198669138251 1:0.054697806 2:0.0033122842 3:0.13221421 4:0.054741774 5:0.0033555296 6:0.13224996 7:0.054881885 8:0.0036789995 9:0.13212772 
0.15420421636023401 0.18899005558665891 0.13261800003382399 0.17634922275924286 0.17239631622063065 0.12991198669138251 1:0.094914941 2:0.003043534 3:0.10715409 4:0.094809853 5:0.0027111271 6:0.10721593 7:0.094914941 8:0.0028423024 9:0.10713766 
0.15420421636023401 0.18899005558665891 0.13261800003382399 0.17634922275924286 0.17239631622063065 0.12991198669138251 1:0.054098996 2:7.371568e-05 3:0.13188503 4:0.054352411 5:2.1533327e-05 6:0.13169272 7:0.054036437 8:-0.00011857903 9:0.13206017 
0.15420421636023401 0.18899005558665891 0.13261800003382399 0.17634922275924286 0.17239631622063065 0.12991198669138251 1:0.095320435 2:0.0031477018 3:0.10793427 4:0.095162447 5:0.0027809862 6:0.10749606 7:0.09518032 8:0.002763832 9:0.10764511 
0.15420421636023401 0.18899005558665891 0.13261800003382399 0.17634922275924286 0.17239631622063065 0.12991198669138251 1:0.053141699 2:0.0047612035 3:0.12595018 4:0.053053767 5:0.0047261757 6:0.12610818 7:0.053062704 8:0.0047440495 9:0.12623113 
0.15420421636023401 0.18899005558665891 0.13261800003382399 0.17634922275924286 0.17239631622063065 0.12991198669138251 1:0.094791259 2:0.0033759411 3:0.10717052 4:0.094975338 5:0.0035950465 6:0.10717946 7:0.094931374 8:0.0031568357 9:0.10742466 
0.15420421636023401 0.18899005558665891 0.13261800003382399 0.17634922275924286 0.17239631622063065 0.12991198669138251 1:0.094389018 2:0.0028777949 3:0.10696157 4:0.094520196 5:0.0031319285 6:0.10690939 7:0.094809356 8:0.0029306968 9:0.1070234 
0.15420421636023401 0.18899005558665891 0.13261800003382399 0.17634922275924286 0.17239631622063065 0.12991198669138251 1:0.094968498 2:0.0027961432 3:0.10647783 4:0.095073579 5:0.0028401082 6:0.10694285 7:0.095038552 8:0.002778989 9:0.10706509 
0.15420421636023401 0.18899005558665891 0.13261800003382399 0.17634922275924286 0.17239631622063065 0.12991198669138251 1:0.093930739 2:0.0044620847 3:0.10753375 4:0.094044037 5:0.0044181194 6:0.10789297 7:0.094210242 8:0.0043741547 9:0.1080413 
0.15420421636023401 0.18899005558665891 0.13261800003382399 0.17634922275924286 0.17239631622063065 0.12991198669138251 1:0.037046698 2:0.021413169 3:0.1359934 4:0.037063852 5:0.021159035 6:0.13614244 7:0.037238994 8:0.021220155 9:0.13660674 
0.15420421636023401 0.18899005558665891 0.13261800003382399 0.17634922275924286 0.17239631622063065 0.12991198669138251 1:0.053598092 2:0.0037712145 3:0.13222204 4:0.053501944 5:0.0036579129 6:0.13238823 7:0.053528038 8:0.0034477442 9:0.13235321 
0.15420421636023401 0.18899005558665891 0.13261800003382399 0.17634922275924286 0.17239631622063065 0.12991198669138251 1:0.094799415 2:0.0034202189 3:0.10685948 4:0.094361203 5:0.0034023451 6:0.10710468 7:0.094352266 8:0.0034820577 9:0.10734094 
0.15420421636023401 0.18899005558665891 0.13261800003382399 0.17634922275924286 0.17239631622063065 0.12991198669138251 1:0.094791259 2:0.0033703287 3:0.10664608 4:0.094922437 5:0.0032831183 6:0.106892 7:0.095062552 8:0.003143006 9:0.10700602 
0.15420421636023401 0.18899005558665891 0.13261800003382399 0.17634922275924286 0.17239631622063065 0.12991198669138251 1:0.094275033 2:0.0032787078 3:0.107344 4:0.094380114 5:0.0033316097 6:0.10749305 7:0.094441238 8:0.0031914974 9:0.10708165 
0.15420421636023401 0.18899005558665891 0.13261800003382399 0.17634922275924286 0.17239631622063065 0.12991198669138251 1:0.045734953 2:0.007363142 3:0.13497524 4:0.045778196 5:0.0070389521 6:0.13456384 7:0.045584463 8:0.0067311974 9:0.13488875 
0 0 0 0.17634922275924286 0 0 1:0.071030189 2:-0.0077255326 3:0.124166 4:0.070734968 5:-0.0081265569 6:0.12344829 7:0.070352533 8:-0.0080110968 9:0.12354371 
0.15420421636023401 0.18899005558665891 0.13261800003382399 0.17634922275924286 0.17239631622063065 0.12991198669138251 1:0.054061068 2:0.00055629376 3:0.13255405 4:0.054131125 5:0.00047730069 6:0.13232673 7:0.053955983 8:0.00058238492 9:0.13257193 
0.15420421636023401 0.18899005558665891 0.13261800003382399 0.17634922275924286 0.17239631622063065 0.12991198669138251 1:0.094283714 2:0.0038134325 3:0.10707438 4:0.094256903 5:0.0036554463 6:0.10734566 7:0.094414171 8:0.0035242707 9:0.10745969 
0.15420421636023401 0.18899005558665891 0.13261800003382399 0.17634922275924286 0.17239631622063065 0.12991198669138251 1:0.052903589 2:0.0087673944 3:0.13281145 4:0.052999736 5:0.0087502404 6:0.13284791 7:0.052816378 8:0.0088031421 9:0.13319964 
0.15420421636023401 0 0 0 0 0 1:0.054338589 2:-0.0013217998 3:0.13258986 4:0.054426521 5:-0.0015058771 6:0.13244153 7:0.054549479 8:-0.0014536948 9:0.1324065 
0.15420421636023401 0.18899005558665891 0.13261800003382399 0.17634922275924286 0.17239631622063065 0.12991198669138251 1:0.054769127 2:3.9809342e-05 3:0.13193249 4:0.054681199 5:-0.00031047154 6:0.13202935 7:0.05470801 8:-0.00028438037 9:0.13215232 
0.15420421636023401 0 0 0 0 0 1:0.054873666 2:-0.001592368 3:0.13235432 4:0.05498697 5:-0.0017406977 6:0.13200332 7:0.055004844 8:-0.00170495 9:0.13201226 
0 0 0 0.17634922275924286 0 0 1:0.068914223 2:-0.0076316601 3:0.12061336 4:0.071530959 5:-0.0074089566 6:0.1216828 7:0.074654513 8:-0.0065632452 9:0.12320831 
0.15420421636023401 0.18899005558665891 0.13261800003382399 0.17634922275924286 0.17239631622063065 0.12991198669138251 1:0.044115339 2:0.017777225 3:0.13393647 4:0.043861206 5:0.018041016 6:0.13431285 7:0.044158585 8:0.017752573 9:0.1346281 
0.15420421636023401 0.18899005558665891 0.13261800003382399 0.17634922275924286 0.17239631622063065 0.12991198669138251 1:0.053834354 2:0.003756219 3:0.13287791 4:0.053940156 5:0.0032479519 6:0.13315814 7:0.053468359 8:0.0031771762 9:0.13298371 
0.15420421636023401 0.18899005558665891 0.13261800003382399 0.17634922275924286 0.17239631622063065 0.12991198669138251 1:0.09477891 2:0.0031646062 3:0.10743472 4:0.094638796 5:0.0032346624 6:0.10729533 7:0.094454724 8:0.0031906974 9:0.1070941 
0.15420421636023401 0.18899005558665891 0.13261800003382399 0.17634922275924286 0.17239631622063065 0.12991198669138251 1:0.037258297 2:0.021288767 3:0.13643947 4:0.037092092 5:0.021113626 6:0.13606238 7:0.037223267 8:0.02110469 9:0.13598339 
0.15420421636023401 0 0.13261800003382399 0.17634922275924286 0 0.12991198669138251 1:0.053869101 2:-0.001966046 3:0.13204794 4:0.054114297 5:-0.001545709 6:0.1318728 7:0.054202225 8:-0.0015367721 9:0.13224989 
0.15420421636023401 0.18899005558665891 0.13261800003382399 0.17634922275924286 0.17239631622063065 0.12991198669138251 1:0.03623996 2:0.021069147 3:0.13624478 4:0.036389011 5:0.021157079 6:0.13631554 7:0.036353981 8:0.021262161 9:0.13645567 
0.15420421636023401 0.18899005558665891 0.13261800003382399 0.17634922275924286 0.17239631622063065 0.12991198669138251 1:0.094237087 2:0.0027894717 3:0.10530089 4:0.094368978 5:0.0026046747 6:0.10479479 7:0.094193836 8:0.0021739615 9:0.10445488 
0.15420421636023401 0 0 0 0 0 1:0.053980995 2:-0.0015177811 3:0.13258755 4:0.054278371 5:-0.0013337038 6:0.13264867 7:0.05411217 8:-0.0013948231 9:0.13257788 
0.15420421636023401 0.18899005558665891 0.13261800003382399 0.17634922275924286 0.17239631622063065 0.12991198669138251 1:0.054085177 2:-0.001015484 3:0.13286116 4:0.053831041 5:-0.0009804559 6:0.13252802 7:0.053971156 8:-0.0007352592 9:0.13251908 
0.15420421636023401 0.18899005558665891 0.13261800003382399 0.17634922275924286 0.17239631622063065 0.12991198669138251 1:0.09568499 2:0.0041485208 3:0.10627253 4:0.095500911 5:0.0037885833 6:0.10641265 7:0.095360796 8:0.003525513 9:0.10591331 
0.15420421636023401 0.18899005558665891 0.13261800003382399 0.17634922275924286 0.17239631622063065 0.12991198669138251 1:0.053975553 2:0.00046146447 3:0.13238066 4:0.053975553 5:0.00032135208 6:0.13236279 7:0.053940522 8:0.00025129591 9:0.13233671 
0.15420421636023401 0.18899005558665891 0.13261800003382399 0.17634922275924286 0.17239631622063065 0.12991198669138251 1:0.053331346 2:0.0085185638 3:0.13203509 4:0.053401403 5:0.0086243681 6:0.13214017 7:0.052972129 8:0.0087033607 9:0.13228028 
0.15420421636023401 0.18899005558665891 0.13261800003382399 0.17634922275924286 0.17239631622063065 0 1:0.09838154 2:0.0017511639 3:0.10840818 4:0.098539529 5:0.0016736099 6:0.1083903 7:0.098986677 8:0.0017361684 9:0.10826734 
0.15420421636023401 0.18899005558665891 0.13261800003382399 0.17634922275924286 0.17239631622063065 0.12991198669138251 1:0.052240934 2:0.0080639545 3:0.13296728 4:0.052363172 5:0.0079685268 6:0.13262593 7:0.052214124 8:0.0079513728 9:0.13247689 
0 0 0 0.17634922275924286 0 0 1:0.067361059 2:-0.010288642 3:0.12065979 4:0.067784993 5:-0.0090887502 6:0.1206301 7:0.068574923 8:-0.0081354938 9:0.12101324 
0.15420421636023401 0.18899005558665891 0.13261800003382399 0.17634922275924286 0.17239631622063065 0.12991198669138251 1:0.037074226 2:0.02106001 3:0.13655456 4:0.037004172 5:0.020919897 6:0.13641445 7:0.036881214 8:0.020954925 9:0.13627434 
0.15420421636023401 0.18899005558665891 0.13261800003382399 0.17634922275924286 0.17239631622063065 0.12991198669138251 1:0.094754835 2:-0.00078174175 3:0.10498156 4:0.094764493 5:-0.00029494644 6:0.10546158 7:0.094336659 8:-0.00038503521 9:0.10561668 
0.15420421636023401 0.18899005558665891 0.13261800003382399 0.17634922275924286 0.17239631622063065 0.12991198669138251 1:0.094688408 2:0.003203558 3:0.10677944 4:0.094862829 5:0.0030112631 6:0.10668329 7:0.094520768 8:0.003282551 9:0.1067705 
0.15420421636023401 0.18899005558665891 0.13261800003382399 0.17634922275924286 0.17239631622063065 0.12991198669138251 1:0.093307008 2:0.0049696322 3:0.10775069 4:0.093359915 5:0.00509259 6:0.10829327 7:0.093394942 8:0.0053206328 9:0.10795121 
0.15420421636023401 0.18899005558665891 0.13261800003382399 0.17634922275924286 0.17239631622063065 0.12991198669138251 1:0.053868055 2:0.00016204786 3:0.13249222 4:0.054253363 5:0.00025891481 6:0.13249222 7:0.05397314 8:0.00041618141 9:0.13236926 
0.15420421636023401 0.18899005558665891 0.13261800003382399 0.17634922275924286 0.17239631622063065 0.12991198669138251 1:0.093172473 2:0.0040236009 3:0.1082943 4:0.09318141 5:0.0039796362 6:0.10795224 7:0.093417669 8:0.0037337196 9:0.10812738 
0 0 0 0.17634922275924286 0.17239631622063065 0 1:0.07644705 2:-0.0075853503 3:0.12473907 4:0.077743393 5:-0.00085881963 6:0.12585894 7:0.078952104 8:0.0084244592 9:0.12844394 
0.15420421636023401 0.18899005558665891 0.13261800003382399 0.17634922275924286 0.17239631622063065 0.12991198669138251 1:0.096874508 2:0.0020644076 3:0.10635194 4:0.096875942 5:0.0019689797 6:0.10676478 7:0.096667935 8:0.0018213696 9:0.10699283 
0.15420421636023401 0.18899005558665891 0.13261800003382399 0.17634922275924286 0.17239631622063065 0.12991198669138251 1:0.094376447 2:0.0046533578 3:0.10804418 4:0.094787847 5:0.004961113 6:0.10844664 7:0.094481534 8:0.0050758537 9:0.10860319 
0.15420421636023401 0.18899005558665891 0.13261800003382399 0.17634922275924286 0.17239631622063065 0.12991198669138251 1:0.053528038 2:0.0032204216 3:0.13270277 4:0.053642059 5:0.0032472323 6:0.1328772 7:0.053686023 8:0.0034924288 9:0.13266702 
0.15420421636023401 0.18899005558665891 0.13261800003382399 0.17634922275924286 0.17239631622063065 0.12991198669138251 1:0.036820086 2:0.020815528 3:0.13641266 4:0.036934107 5:0.020806591 6:0.13647378 7:0.037039191 8:0.020894522 9:0.13642087 
0.15420421636023401 0 0.13261800003382399 0 0 0 1:0.054024959 2:-0.0014648792 3:0.1324914 4:0.054200098 5:-0.0015610266 6:0.13236844 7:0.054471387 8:-0.0013247669 9:0.13233342 
0.15420421636023401 0.18899005558665891 0.13261800003382399 0.17634922275924286 0.17239631622063065 0.12991198669138251 1:0.053923003 2:0.0036840039 3:0.13210946 4:0.05369496 5:0.0040081937 6:0.1323718 7:0.053791107 8:0.004219082 9:0.13259912 
0.15420421636023401 0.18899005558665891 0.13261800003382399 0.17634922275924286 0.17239631622063065 0.12991198669138251 1:0.053511602 2:0.004176556 3:0.13271603 4:0.053354337 5:0.0043867244 6:0.13323179 7:0.053039084 8:0.0046319212 9:0.13323108 
0.15420421636023401 0.18899005558665891 0.13261800003382399 0.17634922275924286 0.17239631622063065 0.12991198669138251 1:0.094520693 2:0.002867674 3:0.10740001 4:0.094616838 5:0.0029727582 6:0.10717268 7:0.094721925 8:0.0028326459 9:0.10735676 
0.15420421636023401 0.18899005558665891 0.13261800003382399 0.17634922275924286 0.17239631622063065 0.12991198669138251 1:0.094057593 2:0.0044109238 3:0.1077964 4:0.094101564 5:0.0046464638 6:0.10835685 7:0.094145528 8:0.0052612544 9:0.10841725 
0.15420421636023401 0.18899005558665891 0.13261800003382399 0.17634922275924286 0.17239631622063065 0.12991198669138251 1:0.043621347 2:0.018092479 3:0.13450269 4:0.043147388 5:0.017786162 6:0.13370525 7:0.04284857 8:0.017672141 9:0.13371492 
0.15420421636023401 0.18899005558665891 0.13261800003382399 0.17634922275924286 0.17239631622063065 0.12991198669138251 1:0.045699101 2:0.018928533 3:0.13420243 4:0.045585079 5:0.018876351 6:0.13445656 7:0.045594016 8:0.018963561 9:0.1340884 
0.15420421636023401 0.18899005558665891 0.13261800003382399 0.17634922275924286 0.17239631622063065 0.12991198669138251 1:0.093915631 2:0.0029830132 3:0.10712756 4:0.093941728 5:0.0025969847 6:0.1075293 7:0.094353129 8:0.0025523001 9:0.10693311 
0.15420421636023401 0 0.13261800003382399 0 0 0 1:0.054314385 2:-0.0017311895 3:0.13245623 4:0.054043095 5:-0.0014069998 6:0.13223713 7:0.054227174 8:-0.0011178382 9:0.13262244 
0.15420421636023401 0.18899005558665891 0.13261800003382399 0.17634922275924286 0.17239631622063065 0.12991198669138251 1:0.094292651 2:0.0031478988 3:0.10735676 4:0.09450282 5:0.0034892427 6:0.10752296 7:0.094520693 8:0.0034370603 9:0.10739107 
0.15420421636023401 0.18899005558665891 0.13261800003382399 0.17634922275924286 0.17239631622063065 0.12991198669138251 1:0.053929172 2:0.00086404884 3:0.13208082 4:0.053780124 5:0.00079399264 6:0.13227384 7:0.054191525 8:0.0007761188 9:0.13274635 
0.15420421636023401 0.18899005558665891 0.13261800003382399 0.17634922275924286 0.17239631622063065 0.12991198669138251 1:0.044789088 2:0.019104394 3:0.13390432 4:0.044736188 5:0.018885288 6:0.13448193 7:0.044797308 8:0.019191604 9:0.13464886 
0.15420421636023401 0.18899005558665891 0.13261800003382399 0.17634922275924286 0.17239631622063065 0.12991198669138251 1:0.052489914 2:0.0025602268 3:0.12971629 4:0.052937062 5:0.0027964864 6:0.12932203 7:0.052998183 8:0.0028919143 9:0.12899713 
0.15420421636023401 0.18899005558665891 0.13261800003382399 0.17634922275924286 0.17239631622063065 0.12991198669138251 1:0.094941752 2:0.0028002228 3:0.10681013 4:0.094259058 5:0.003123693 6:0.10649488 7:0.094486387 8:0.0030983214 9:0.10668789 
0.15420421636023401 0.18899005558665891 0.13261800003382399 0.17634922275924286 0.17239631622063065 0.12991198669138251 1:0.095371101 2:0.0029755154 3:0.10715653 4:0.094994727 5:0.003115628 6:0.10677122 7:0.094828522 8:0.0030716627 9:0.10691134 
0.15420421636023401 0.18899005558665891 0.13261800003382399 0.17634922275924286 0.17239631622063065 0.12991198669138251 1:0.054510983 2:0.0039381375 3:0.13233215 4:0.054791927 5:0.004542552 6:0.13287472 7:0.054993876 8:0.0050769102 9:0.13312887 
0.15420421636023401 0.18899005558665891 0.13261800003382399 0.17634922275924286 0.17239631622063065 0.12991198669138251 1:0.055208234 2:0.0025284117 3:0.13103436 4:0.054971972 5:0.0029137206 6:0.13128098 7:0.055549578 8:0.0028511621 9:0.13284903 
0.15420421636023401 0.18899005558665891 0.13261800003382399 0.17634922275924286 0.17239631622063065 0.12991198669138251 1:0.094152071 2:0.0031475324 3:0.10739618 4:0.094327213 5:0.0034545678 6:0.1072911 7:0.094248222 8:0.0031564693 9:0.10741406 
0.15420421636023401 0.18899005558665891 0.13261800003382399 0.17634922275924286 0.17239631622063065 0.12991198669138251 1:0.054823469 2:-0.00051314233 3:0.13200254 4:0.054841343 5:-0.00057426161 6:0.13239678 7:0.05487637 8:-0.00035515614 9:0.13233567 
0.15420421636023401 0.18899005558665891 0.13261800003382399 0.17634922275924286 0.17239631622063065 0.12991198669138251 1:0.053949093 2:0.0037458429 3:0.13233534 4:0.054010213 5:0.0039560114 6:0.13251048 7:0.053992339 8:0.0036847237 9:0.13237929 
0.15420421636023401 0.18899005558665891 0.13261800003382399 0.17634922275924286 0.17239631622063065 0.12991198669138251 1:0.052805423 2:0.007927417 3:0.13268407 4:0.053199671 5:0.0077172481 6:0.13297324 7:0.052875481 8:0.008137585 9:0.13290319 
0.15420421636023401 0 0 0 0 0 1:0.054741774 2:-0.0016370526 3:0.13231786 4:0.054619533 5:-0.0013128629 6:0.13214272 7:0.054916912 8:-0.0015230315 9:0.13240579 
0.15420421636023401 0.18899005558665891 0.13261800003382399 0.17634922275924286 0.17239631622063065 0.12991198669138251 1:0.094620922 2:0.0032346624 3:0.10751444 4:0.094384663 5:0.003138515 6:0.10729533 7:0.09446294 8:0.003138515 9:0.10723349 
0.15420421636023401 0.18899005558665891 0.13261800003382399 0.17634922275924286 0.17239631622063065 0.12991198669138251 1:0.053063736 2:0.0018543259 3:0.13238002 4:0.053370052 5:0.001889354 6:0.13256337 7:0.053510164 8:0.0019951581 9:0.13293009 
0.15420421636023401 0.18899005558665891 0.13261800003382399 0.17634922275924286 0 0.12991198669138251 1:0.053953282 2:-0.0014157884 3:0.13261667 4:0.053655902 5:-0.0014947815 6:0.13232824 7:0.053638746 8:-0.0014865642 9:0.13224031 
0.15420421636023401 0.18899005558665891 0.13261800003382399 0.17634922275924286 0.17239631622063065 0.12991198669138251 1:0.054157215 2:-0.00026794572 3:0.13243038 4:0.054157215 5:-0.00025007188 6:0.13244825 7:0.054305546 8:-0.00015320495 9:0.1322463 
0.15420421636023401 0.18899005558665891 0.13261800003382399 0.17634922275924286 0.17239631622063065 0.12991198669138251 1:0.052749203 2:0.0081593822 3:0.13246724 4:0.053029426 5:0.0077301084 6:0.13259018 7:0.052670209 8:0.0081854732 9:0.13248511 
0.15420421636023401 0 0 0 0 0 1:0.054313402 2:-0.0015960547 3:0.13236772 4:0.054313402 5:-0.0015960547 6:0.13235879 7:0.054637592 8:-0.0014820334 9:0.13249068 
0.15420421636023401 0.18899005558665891 0.13261800003382399 0.17634922275924286 0.17239631622063065 0.12991198669138251 1:0.094025116 2:0.0030254634 3:0.10842394 4:0.093657679 5:0.0032191972 6:0.10821377 7:0.09352578 8:0.0032116995 9:0.10762651 
0.15420421636023401 0.18899005558665891 0.13261800003382399 0.17634922275924286 0.17239631622063065 0.12991198669138251 1:0.094387293 2:0.0030788748 3:0.10713006 4:0.094518471 5:0.0034724012 6:0.10712184 7:0.094247185 8:0.0033844712 9:0.10724407 
0.15420421636023401 0 0.13261800003382399 0.17634922275924286 0 0.032477996672845628 1:0.054549661 2:-0.0017711951 3:0.13226408 4:0.054243344 5:-0.0013419211 6:0.13223727 7:0.054330555 8:-0.0013858861 9:0.13220225 
0.15420421636023401 0.18899005558665891 0.13261800003382399 0.17634922275924286 0.17239631622063065 0.12991198669138251 1:0.05251698 2:0.0080750266 3:0.13260364 4:0.052823297 5:0.0079788799 6:0.13234951 7:0.053016313 8:0.0080399987 9:0.13238454 
0.15420421636023401 0.18899005558665891 0.13261800003382399 0.17634922275924286 0.17239631622063065 0.12991198669138251 1:0.093126249 2:0.0069520721 3:0.10679328 4:0.092773089 5:0.0070453412 6:0.10706672 7:0.092323065 8:0.0078077418 9:0.10654347 
0.15420421636023401 0.18899005558665891 0.13261800003382399 0.17634922275924286 0.17239631622063065 0.12991198669138251 1:0.045418874 2:0.019226631 3:0.13408019 4:0.045541833 5:0.019077583 6:0.13393113 7:0.045252673 8:0.019041835 9:0.13419422 
0.15420421636023401 0.18899005558665891 0.13261800003382399 0.17634922275924286 0.17239631622063065 0.12991198669138251 1:0.093931723 2:0.003218424 3:0.10740384 4:0.094255917 5:0.003350319 6:0.10758792 7:0.094369935 8:0.003306354 9:0.10735166 
0.15420421636023401 0 0 0 0 0 1:0.054314808 2:-0.0017119126 3:0.13249581 4:0.054060675 5:-0.0017469406 6:0.13234676 7:0.053973465 8:-0.0017201299 9:0.13250475 
0.15420421636023401 0.18899005558665891 0.13261800003382399 0.17634922275924286 0.17239631622063065 0.12991198669138251 1:0.052613128 2:0.008137585 3:0.13284063 4:0.052657095 5:0.0082598235 6:0.13294572 7:0.052394022 8:0.0082069218 9:0.13291962 
0 0 0 0.17634922275924286 0 0 1:0.06561583 2:-0.0091713411 3:0.122902 4:0.066326048 5:-0.0086287658 6:0.12286337 7:0.06679035 8:-0.0081376524 9:0.12311534 
0 0 0 0.17634922275924286 0 0 1:0.06920801 2:-0.0068394544 3:0.12543337 4:0.069698401 5:-0.0061299559 6:0.12570466 7:0.069515043 8:-0.0062961592 9:0.12567785 
0.15420421636023401 0.18899005558665891 0.13261800003382399 0.17634922275924286 0.17239631622063065 0.12991198669138251 1:0.048811061 2:0.0070988828 3:0.1336775 4:0.049309672 5:0.0073358624 6:0.13378259 7:0.049317889 8:0.0073455192 9:0.13396666 
0.15420421636023401 0.18899005558665891 0.13261800003382399 0.17634922275924286 0.17239631622063065 0.12991198669138251 1:0.051077617 2:0.0058426413 3:0.13551336 4:0.05100756 5:0.0055883215 6:0.13382092 7:0.052501232 8:0.008484673 9:0.13469302 
0.15420421636023401 0.18899005558665891 0.13261800003382399 0.17634922275924286 0.17239631622063065 0.12991198669138251 1:0.093666228 2:0.0041014278 3:0.10778573 4:0.093972541 5:0.0042243856 6:0.10765383 7:0.094068692 8:0.0042154487 9:0.10831043 
0.15420421636023401 0.18899005558665891 0.13261800003382399 0.17634922275924286 0.17239631622063065 0.12991198669138251 1:0.054133306 2:0.00046868116 3:0.13230536 4:0.054150459 5:0.0006438216 6:0.13189396 7:0.054167612 8:0.00054767429 9:0.13194614 
0.15420421636023401 0.18899005558665891 0.13261800003382399 0.17634922275924286 0.17239631622063065 0.12991198669138251 1:0.045073935 2:0.018933873 3:0.13595816 4:0.045625447 5:0.019012866 6:0.13577264 7:0.045573263 8:0.019459294 9:0.13512353 
0.15420421636023401 0.18899005558665891 0.13261800003382399 0.17634922275924286 0.17239631622063065 0.12991198669138251 1:0.046987022 2:0.0080421808 3:0.13378 4:0.04719719 5:0.0082777208 6:0.13428756 7:0.047250095 8:0.0077165517 9:0.13425252 
0.15420421636023401 0.18899005558665891 0.13261800003382399 0.17634922275924286 0.17239631622063065 0.12991198669138251 1:0.094624068 2:0.003429312 3:0.10777272 4:0.094133676 5:0.0034032209 6:0.10753646 7:0.093949597 8:0.0034993682 9:0.10756255 
0.15420421636023401 0.18899005558665891 0.13261800003382399 0.17634922275924286 0.17239631622063065 0.12991198669138251 1:0.052806144 2:0.0081718939 3:0.13236738 4:0.052587038 5:0.0081897677 6:0.1325075 7:0.052648158 8:0.0079624448 9:0.13227052 
0.15420421636023401 0.18899005558665891 0.13261800003382399 0.17634922275924286 0.17239631622063065 0.12991198669138251 1:0.052797636 2:0.0079154634 3:0.13245555 4:0.052403388 5:0.0081695971 6:0.13260459 7:0.052849816 8:0.0079683651 9:0.13262174 
0.15420421636023401 0.18899005558665891 0.13261800003382399 0.17634922275924286 0.17239631622063065 0.12991198669138251 1:0.094632704 2:0.0030783653 3:0.10694628 4:0.09461483 5:0.0031573584 6:0.10709606 7:0.094982988 8:0.0032102603 9:0.10681583 
0.15420421636023401 0.18899005558665891 0.13261800003382399 0.17634922275924286 0.17239631622063065 0.12991198669138251 1:0.053564503 2:0.004857085 3:0.13258228 4:0.05393266 5:0.0051984293 6:0.13178413 7:0.053687461 8:0.0052759832 9:0.13184452 
0.15420421636023401 0.18899005558665891 0.13261800003382399 0.17634922275924286 0.17239631622063065 0.12991198669138251 1:0.095933394 2:0.0042115492 3:0.10681922 4:0.09542585 5:0.0038344573 6:0.1069243 7:0.095171717 8:0.0035013308 9:0.10681994 
0.15420421636023401 0.18899005558665891 0.13261800003382399 0.17634922275924286 0.17239631622063065 0.12991198669138251 1:0.093613327 2:0.004355561 3:0.10800483 4:0.093622264 5:0.0044695824 6:0.10789903 7:0.093403159 8:0.0043644979 9:0.10789903 
0.15420421636023401 0.18899005558665891 0.13261800003382399 0.17634922275924286 0.17239631622063065 0.12991198669138251 1:0.094121593 2:0.0047580245 3:0.10782681 4:0.093946451 5:0.0048809824 6:0.10818531 7:0.093473213 8:0.0046007578 9:0.10787078 
0.15420421636023401 0.18899005558665891 0.13261800003382399 0.17634922275924286 0.17239631622063065 0.12991198669138251 1:0.054032273 2:-0.00075241349 3:0.13212556 4:0.054286406 5:-0.00075241349 6:0.13200261 7:0.054286406 8:-0.00074347657 9:0.13201154 
0.15420421636023401 0.18899005558665891 0.13261800003382399 0.17634922275924286 0.17239631622063065 0.12991198669138251 1:0.053703176 2:0.0036757868 3:0.13223847 4:0.053913345 5:0.0038948921 6:0.13229959 7:0.053791107 8:0.0037025975 9:0.13235177 
0.15420421636023401 0.18899005558665891 0.13261800003382399 0.17634922275924286 0.17239631622063065 0.12991198669138251 1:0.036835439 2:0.021279316 3:0.1360346 4:0.037115662 5:0.021139205 6:0.13585946 7:0.036966614 8:0.021279316 9:0.13594739 
0.15420421636023401 0.18899005558665891 0.13261800003382399 0.17634922275924286 0.17239631622063065 0.12991198669138251 1:0.054497295 2:-0.00075241349 3:0.13241472 4:0.054252099 5:-0.0009804559 6:0.13237148 7:0.054278189 8:-0.00080531541 9:0.13232824 
0.15420421636023401 0.18899005558665891 0.13261800003382399 0.17634922275924286 0.17239631622063065 0.12991198669138251 1:0.094484991 2:0.003252849 3:0.10709878 4:0.094555044 5:0.0032267578 6:0.10738794 7:0.094283759 8:0.0031567017 9:0.10755414 
0.15420421636023401 0.18899005558665891 0.13261800003382399 0.17634922275924286 0.17239631622063065 0.12991198669138251 1:0.037086894 2:0.020878511 3:0.13603156 4:0.036954999 5:0.020738398 6:0.13610088 7:0.037104051 8:0.020502139 9:0.13610911 
0.15420421636023401 0.18899005558665891 0.13261800003382399 0.17634922275924286 0.17239631622063065 0.12991198669138251 1:0.053677086 2:0.0018007044 3:0.13239574 4:0.053712113 5:0.0019147258 6:0.1326059 7:0.053633122 8:0.0017835502 9:0.13279821 
0.15420421636023401 0.18899005558665891 0.13261800003382399 0.17634922275924286 0.17239631622063065 0.12991198669138251 1:0.09376198 2:0.0043598775 3:0.10827927 4:0.093858124 5:0.0042898214 6:0.10784999 7:0.093682982 8:0.0045521726 9:0.10827033 
0.15420421636023401 0.18899005558665891 0.13261800003382399 0.17634922275924286 0.17239631622063065 0.12991198669138251 1:0.094755666 2:0.0029657831 3:0.10711393 4:0.094790693 5:0.0030798043 6:0.1068598 7:0.094571587 8:0.0029479093 9:0.10699097 
0.15420421636023401 0.18899005558665891 0.13261800003382399 0.17634922275924286 0.17239631622063065 0.12991198669138251 1:0.045995039 2:0.016963665 3:0.13484074 4:0.046539056 5:0.017676042 6:0.13456729 7:0.046705257 8:0.018371984 9:0.1336812 
0.15420421636023401 0.18899005558665891 0.13261800003382399 0.17634922275924286 0.17239631622063065 0.12991198669138251 1:0.095883658 2:0.0020048194 3:0.10863074 4:0.096111701 5:0.00217996 6:0.10895492 7:0.096707901 8:0.0028633675 9:0.10899889 
0.15420421636023401 0.18899005558665891 0.13261800003382399 0.17634922275924286 0.17239631622063065 0.12991198669138251 1:0.094834656 2:0.0029486289 3:0.10716539 4:0.09485253 5:0.0028524816 6:0.10727048 7:0.094581244 8:0.0030447762 9:0.10728013 
0.15420421636023401 0 0.13261800003382399 0 0 0.12991198669138251 1:0.054287308 2:-0.0015170616 3:0.13259576 4:0.053963121 5:-0.0014209142 6:0.13239453 7:0.054033175 8:-0.0014820334 9:0.13205247 
0.15420421636023401 0.18899005558665891 0.13261800003382399 0.17634922275924286 0.17239631622063065 0.12991198669138251 1:0.043772557 2:0.017624276 3:0.13458846 4:0.044097465 5:0.017650368 6:0.13502594 7:0.043721094 8:0.017387298 9:0.13462348 
0 0 0 0 0.17239631622063065 0 1:0.060295576 2:-0.00034990318 3:0.13037613 4:0.060834551 5:0.00041075644 6:0.13234304 7:0.061535832 8:0.0011441876 9:0.13361082 
0.15420421636023401 0.18899005558665891 0.13261800003382399 0.17634922275924286 0.17239631622063065 0.12991198669138251 1:0.094641641 2:0.0027988601 3:0.10703421 4:0.094991924 5:0.0029829374 6:0.10708712 7:0.09489578 8:0.0029657831 9:0.10714824 
0.15420421636023401 0.18899005558665891 0.13261800003382399 0.17634922275924286 0.17239631622063065 0.12991198669138251 1:0.046412299 2:0.011860358 3:0.13268705 4:0.047296217 5:0.012131646 6:0.13139246 7:0.045990523 8:0.010613623 9:0.13236719 
0.15420421636023401 0.18899005558665891 0.13261800003382399 0.17634922275924286 0.17239631622063065 0.12991198669138251 1:0.094870506 2:0.0037355122 3:0.10768534 4:0.094757208 5:0.003647582 6:0.10756239 7:0.09454704 8:0.0037869747 9:0.10743049 
0.15420421636023401 0.18899005558665891 0.13261800003382399 0.17634922275924286 0.17239631622063065 0.12991198669138251 1:0.093972541 2:0.0050822143 3:0.10812707 4:0.093649075 5:0.0047319331 6:0.10809204 7:0.093868181 8:0.0047669614 9:0.10796086 
0.15420421636023401 0.18899005558665891 0.13261800003382399 0.17634922275924286 0.17239631622063065 0.12991198669138251 1:0.051987522 2:0.0081504453 3:0.13310667 4:0.052171598 5:0.008010333 6:0.13294047 7:0.051593275 8:0.0083166485 9:0.13327359 
0 0 0 0.17634922275924286 0 0 1:0.069583663 2:-0.0071382726 3:0.12551309 4:0.06931237 5:-0.0075496726 6:0.1251889 7:0.069032868 8:-0.0075146448 9:0.12515387 
0.15420421636023401 0.18899005558665891 0.13261800003382399 0.17634922275924286 0.17239631622063065 0.12991198669138251 1:0.053551741 2:-0.0011398852 3:0.1324117 4:0.053805156 5:-0.0012889345 6:0.13234163 7:0.054024262 8:-0.0010087098 9:0.13230661 
0.15420421636023401 0.18899005558665891 0.13261800003382399 0.17634922275924286 0.17239631622063065 0.12991198669138251 1:0.054454595 2:0.00016276745 3:0.13205545 4:0.054191525 5:0.00054807645 6:0.13221272 7:0.05408644 8:0.00020673246 9:0.13256299 
0.15420421636023401 0.18899005558665891 0.13261800003382399 0.17634922275924286 0.17239631622063065 0.12991198669138251 1:0.09429193 2:0.0032426069 3:0.10746791 4:0.093915556 5:0.0028304871 6:0.10734566 7:0.093854439 8:0.0029005433 9:0.10748578 
0.15420421636023401 0.18899005558665891 0.13261800003382399 0.17634922275924286 0.17239631622063065 0.12991198669138251 1:0.094152536 2:0.0033670042 3:0.10757371 4:0.094353768 5:0.0034370603 6:0.10733745 7:0.094222597 8:0.0034452777 9:0.10732923 
0.15420421636023401 0.18899005558665891 0.13261800003382399 0.17634922275924286 0.17239631622063065 0.12991198669138251 1:0.054185486 2:-1.2775144e-05 3:0.13261312 4:0.054307727 5:0.00028460381 6:0.13239401 7:0.05394029 8:0.00018845646 9:0.13236719 
0.15420421636023401 0.18899005558665891 0.13261800003382399 0.17634922275924286 0.17239631622063065 0.12991198669138251 1:0.092225912 2:0.0025290114 3:0.10458921 4:0.093017283 5:0.0015639401 6:0.1041585 7:0.093661044 8:0.0007218267 9:0.10367632 
0.15420421636023401 0.18899005558665891 0.13261800003382399 0.17634922275924286 0.17239631622063065 0.12991198669138251 1:0.053771187 2:-4.8752703e-06 3:0.13233351 4:0.053955266 5:-0.00019788954 6:0.13244754 7:0.054305546 8:-0.00031191075 9:0.13218447 
0.15420421636023401 0.18899005558665891 0.13261800003382399 0.17634922275924286 0.17239631622063065 0.12991198669138251 1:0.094406204 2:0.003076037 3:0.10772859 4:0.094371177 5:0.003076037 6:0.10709809 7:0.094292186 8:0.003163967 9:0.10739546 
0.15420421636023401 0.18899005558665891 0.13261800003382399 0.17634922275924286 0.17239631622063065 0.12991198669138251 1:0.095131319 2:0.0032199168 3:0.10692913 4:0.095245337 5:0.0028167339 6:0.10718254 7:0.095167066 8:0.0031670149 9:0.1070864 
0.15420421636023401 0.18899005558665891 0.13261800003382399 0.17634922275924286 0.17239631622063065 0.12991198669138251 1:0.054275442 2:0.0043137898 3:0.13228675 4:0.054257568 5:0.0042258598 6:0.13223457 7:0.054222541 8:0.0041647406 9:0.13210412 
0.15420421636023401 0.18899005558665891 0.13261800003382399 0.17634922275924286 0.17239631622063065 0.12991198669138251 1:0.054909545 2:0.0045826172 3:0.13383272 4:0.055050377 5:0.0048717788 6:0.13334089 7:0.054927419 8:0.0048546248 9:0.13308604 
0.15420421636023401 0.18899005558665891 0.13261800003382399 0.17634922275924286 0.17239631622063065 0.12991198669138251 1:0.053382809 2:0.0078133825 3:0.13309559 4:0.05313833 5:0.0079617128 6:0.13373504 7:0.052876698 8:0.0084781964 9:0.13345552 
0.15420421636023401 0.18899005558665891 0.13261800003382399 0.17634922275924286 0.17239631622063065 0.12991198669138251 1:0.054403132 2:-0.0012308584 3:0.13187958 4:0.054280173 5:-0.0013359427 6:0.13209869 7:0.053991014 8:-0.0016243847 9:0.13241394 
0.15420421636023401 0.18899005558665891 0.13261800003382399 0.17634922275924286 0.17239631622063065 0.12991198669138251 1:0.094055105 2:0.0035784149 3:0.10764684 4:0.094256337 5:0.0035262326 6:0.10776909 7:0.094134096 8:0.0033861203 9:0.10753283 
0.15420421636023401 0.18899005558665891 0.13261800003382399 0.17634922275924286 0.17239631622063065 0.12991198669138251 1:0.052858824 2:0.007785133 3:0.13285112 4:0.053297036 5:0.0079163084 6:0.13292117 7:0.053183735 8:0.0083888272 9:0.13291295 
0.15420421636023401 0.18899005558665891 0.13261800003382399 0.17634922275924286 0.17239631622063065 0.12991198669138251 1:0.046734529 2:0.020887227 3:0.13368768 4:0.04626057 5:0.020237409 6:0.13378455 7:0.047134114 8:0.019566537 9:0.13213752 
0.15420421636023401 0.18899005558665891 0.13261800003382399 0.17634922275924286 0.17239631622063065 0.12991198669138251 1:0.094634214 2:0.0030886831 3:0.10735653 4:0.094713212 5:0.0029575075 6:0.10720676 7:0.094783266 8:0.0030275637 9:0.10710168 
0.15420421636023401 0.18899005558665891 0.13261800003382399 0.17634922275924286 0.17239631622063065 0.12991198669138251 1:0.093473213 2:0.0043123156 3:0.10773282 4:0.093517176 5:0.0042944418 6:0.1074526 7:0.094024728 8:0.0042862247 9:0.10737361 
0.15420421636023401 0.18899005558665891 0.13261800003382399 0.17634922275924286 0.17239631622063065 0.12991198669138251 1:0.094904503 2:0.0023046589 3:0.10720689 4:0.095114672 5:0.0025073299 6:0.10731269 7:0.095421705 8:0.0029105126 9:0.1072337 
0 0 0 0.17634922275924286 0 0 1:0.075253171 2:-0.0078029008 3:0.12120841 4:0.077637245 5:-0.0081746533 6:0.12236866 7:0.08069362 8:-0.0042879748 9:0.12007756 
0.15420421636023401 0.18899005558665891 0.13261800003382399 0.17634922275924286 0.17239631622063065 0.12991198669138251 1:0.092615326 2:0.0024872972 3:0.10637204 4:0.092326166 5:0.0024254584 6:0.10633629 7:0.091975161 8:0.0019783105 9:0.10586377 
0.15420421636023401 0.18899005558665891 0.13261800003382399 0.17634922275924286 0.17239631622063065 0.12991198669138251 1:0.054497841 2:-3.9183744e-05 3:0.13229992 4:0.054445658 5:0.00036399907 6:0.13256299 7:0.054121467 8:0.00039902717 9:0.13219556 
0.15420421636023401 0.18899005558665891 0.13261800003382399 0.17634922275924286 0.17239631622063065 0.12991198669138251 1:0.053506484 2:0.0081071638 3:0.13246653 4:0.05334922 5:0.0081339746 6:0.13248368 7:0.053209108 8:0.0081690024 9:0.13235178 
0 0 0 0.17634922275924286 0 0 1:0.062489999 2:-0.016509667 3:0.12055625 4:0.064586038 5:-0.012066439 6:0.12029637 7:0.066406481 8:-0.008270151 9:0.12121244 
0.15420421636023401 0.18899005558665891 0.13261800003382399 0.17634922275924286 0.17239631622063065 0.12991198669138251 1:0.054130404 2:0.00048623761 3:0.13218734 4:0.054498558 5:0.00042511833 6:0.13272992 7:0.054367384 8:0.00056523068 9:0.13280819 
0.15420421636023401 0.18899005558665891 0.13261800003382399 0.17634922275924286 0.17239631622063065 0.12991198669138251 1:0.053896192 2:0.0041929906 3:0.13235248 4:0.053738207 5:0.0042280189 6:0.13262378 7:0.053247811 8:0.0039656681 9:0.13262306 
0.15420421636023401 0.18899005558665891 0.13261800003382399 0.17634922275924286 0.17239631622063065 0.12991198669138251 1:0.095685408 2:0.003764651 3:0.1068484 4:0.095431275 5:0.0034054333 6:0.10696242 7:0.094957316 8:0.0036506298 9:0.10711147 
0.15420421636023401 0.18899005558665891 0.13261800003382399 0.17634922275924286 0.17239631622063065 0.12991198669138251 1:0.094561967 2:0.0054993712 3:0.1071052 4:0.094885433 5:0.0054911536 6:0.10722815 7:0.094228115 8:0.0053331675 9:0.10748229 
0.15420421636023401 0.18899005558665891 0.13261800003382399 0.17634922275924286 0 0.12991198669138251 1:0.054426521 2:-0.0014097298 3:0.13236254 4:0.054426521 5:-0.0013836387 6:0.13228355 7:0.054487638 8:-0.0012084982 9:0.13208231 
0.15420421636023401 0.18899005558665891 0.13261800003382399 0.17634922275924286 0.17239631622063065 0.12991198669138251 1:0.054952866 2:-0.0014640749 3:0.13184303 4:0.054645832 5:-0.0012099413 6:0.1319399 7:0.054636895 8:-0.001490166 9:0.13182587 
0.15420421636023401 0.18899005558665891 0.13261800003382399 0.17634922275924286 0.17239631622063065 0.12991198669138251 1:0.054119483 2:-0.00078744157 3:0.13284328 4:0.054031556 5:-0.00099761013 6:0.13211662 7:0.054005462 8:-0.001103414 9:0.13229176 
0.15420421636023401 0.18899005558665891 0.13261800003382399 0.17634922275924286 0.17239631622063065 0.12991198669138251 1:0.094655949 2:0.0027621429 3:0.10737433 4:0.09472601 5:0.0029372833 6:0.10726924 7:0.094585895 8:0.0024729812 9:0.10748835 
0.15420421636023401 0.18899005558665891 0.13261800003382399 0.17634922275924286 0.17239631622063065 0.12991198669138251 1:0.053909315 2:-0.0012338697 3:0.13206372 4:0.054040493 5:-0.0014708491 6:0.13209874 7:0.054347526 8:-0.0014447579 9:0.1323872 
0.15420421636023401 0.18899005558665891 0.13261800003382399 0.17634922275924286 0.17239631622063065 0.12991198669138251 1:0.052884846 2:0.008221779 3:0.13264855 4:0.052866973 5:0.0085109414 6:0.13270968 7:0.052805852 8:0.0083797651 9:0.13264784 
0.15420421636023401 0.18899005558665891 0.13261800003382399 0.17634922275924286 0.17239631622063065 0.12991198669138251 1:0.094167982 2:0.003044003 3:0.1075268 4:0.093852732 5:0.0032802628 6:0.10759685 7:0.094211953 8:0.0033331647 9:0.10796429 
0.15420421636023401 0.18899005558665891 0.13261800003382399 0.17634922275924286 0.17239631622063065 0.12991198669138251 1:0.095028393 2:0.0031319868 3:0.10680761 4:0.094817503 5:0.0030358393 6:0.10693057 7:0.094860746 8:0.0031416433 9:0.10705353 
0.15420421636023401 0.18899005558665891 0.13261800003382399 0.17634922275924286 0.17239631622063065 0.12991198669138251 1:0.037001703 2:0.020912488 3:0.13607466 4:0.036765444 5:0.020956454 6:0.13599567 7:0.037054608 8:0.020912488 9:0.1362759 
0.15420421636023401 0.18899005558665891 0.13261800003382399 0.17634922275924286 0.17239631622063065 0.12991198669138251 1:0.054107448 2:0.00046218401 3:0.13231061 4:0.053888342 5:0.0001730224 6:0.13236279 7:0.053923369 8:0.00031313474 9:0.13249397 
0 0 0 0.17634922275924286 0 0 1:0.070029183 2:-0.0080672942 3:0.12478212 4:0.070091021 5:-0.007243055 6:0.12459732 7:0.070081363 8:-0.0061639623 9:0.12430816 
0.15420421636023401 0.18899005558665891 0.13261800003382399 0.17634922275924286 0.17239631622063065 0.12991198669138251 1:0.036834719 2:0.021236071 3:0.13594739 4:0.036939803 5:0.021402994 6:0.13583338 7:0.036869746 8:0.021271819 9:0.13613147 
0.15420421636023401 0.18899005558665891 0.13261800003382399 0.17634922275924286 0.17239631622063065 0.12991198669138251 1:0.036896556 2:0.021006589 3:0.13648248 4:0.036748229 5:0.020753175 6:0.13644744 7:0.036713202 8:0.020884351 9:0.1361061 
0.15420421636023401 0.18899005558665891 0.13261800003382399 0.17634922275924286 0.17239631622063065 0.12991198669138251 1:0.053896192 2:0.0038151792 3:0.13240539 4:0.054097424 5:0.0034298704 6:0.13249261 7:0.054106361 8:0.0034388073 9:0.13240468 
0.15420421636023401 0.18899005558665891 0.13261800003382399 0.17634922275924286 0.17239631622063065 0.12991198669138251 1:0.070379929 2:0.023459064 3:0.13401074 4:0.066843533 5:0.024146489 6:0.13625571 7:0.063991258 8:0.023563241 9:0.13601441 
0.15420421636023401 0.18899005558665891 0.13261800003382399 0.17634922275924286 0.17239631622063065 0.12991198669138251 1:0.094835267 2:0.0033668701 3:0.10734469 4:0.094695159 5:0.0035159194 6:0.1070995 7:0.094520017 8:0.0031745755 9:0.10744977 
0.15420421636023401 0.18899005558665891 0.13261800003382399 0.17634922275924286 0.17239631622063065 0.12991198669138251 1:0.052657524 2:0.0080637929 3:0.13241086 4:0.052736515 5:0.0077664142 6:0.13258599 7:0.052709704 8:0.0077664142 9:0.13264784 
0.15420421636023401 0 0 0 0 0 1:0.054505511 2:-0.0016899546 3:0.13216059 4:0.054610596 5:-0.0017249826 6:0.13201154 7:0.054470484 8:-0.0018740318 9:0.13206444 
0.15420421636023401 0.18899005558665891 0.13261800003382399 0.17634922275924286 0.17239631622063065 0.12991198669138251 1:0.093700856 2:0.0043337866 3:0.10799905 4:0.093482471 5:0.0039574145 6:0.10799905 7:0.093517498 8:0.0040013797 9:0.10777994 
0.15420421636023401 0 0 0 0 0 1:0.05476055 2:-0.0015871178 3:0.13258755 4:0.054594345 5:-0.0015692439 6:0.13221045 7:0.054323056 8:-0.0014559423 9:0.13239453 
0.15420421636023401 0.18899005558665891 0.13261800003382399 0.17634922275924286 0.17239631622063065 0.12991198669138251 1:0.043275384 2:0.018382359 3:0.13513535 4:0.043668911 5:0.019400333 6:0.1355035 7:0.044333724 8:0.019629095 9:0.13540736 
0.15420421636023401 0.18899005558665891 0.13261800003382399 0.17634922275924286 0.17239631622063065 0.12991198669138251 1:0.03724793 2:0.020954925 3:0.13584507 4:0.0372129 5:0.020788722 6:0.13595908 7:0.037107816 8:0.020806596 9:0.13620356 
0.15420421636023401 0.18899005558665891 0.13261800003382399 0.17634922275924286 0.17239631622063065 0.12991198669138251 1:0.053991014 2:0.0003021602 3:0.13245792 4:0.054061068 5:0.00049445493 6:0.13249294 7:0.054148278 8:0.00023210405 9:0.13248473 
0.15420421636023401 0.18899005558665891 0.13261800003382399 0.17634922275924286 0.17239631622063065 0.12991198669138251 1:0.093946773 2:0.0044127797 3:0.10809519 4:0.094104762 5:0.0041675829 6:0.10804301 7:0.093771638 8:0.004334506 9:0.10804229 
0 0 0 0.17634922275924286 0 0 1:0.069411397 2:-0.0070517819 3:0.12422527 4:0.069446424 5:-0.0068312373 6:0.12460163 7:0.069568665 8:-0.0067597419 9:0.12475141 
0.15420421636023401 0.18899005558665891 0.13261800003382399 0.17634922275924286 0.17239631622063065 0.12991198669138251 1:0.054116152 2:0.00030175804 3:0.13276216 4:0.053800899 5:0.00037181425 6:0.13233289 7:0.05388811 8:0.00037181425 9:0.13250803 
0.15420421636023401 0.18899005558665891 0.13261800003382399 0.17634922275924286 0.17239631622063065 0.12991198669138251 1:0.093283107 2:0.00010874343 3:0.10687859 4:0.093292044 5:0.0005380174 6:0.10684285 7:0.093143713 8:0.00067812981 9:0.10700905 
0.15420421636023401 0.18899005558665891 0.13261800003382399 0.17634922275924286 0.17239631622063065 0.12991198669138251 1:0.053694351 2:0.0003132559 3:0.13249149 4:0.053589267 5:5.9122379e-05 6:0.13217697 7:0.053808373 8:0.00015526972 9:0.13248328 
0.15420421636023401 0.18899005558665891 0.13261800003382399 0.17634922275924286 0.17239631622063065 0.12991198669138251 1:0.054694476 2:0.00039718578 3:0.13278753 4:0.054563298 5:0.00044043123 6:0.13260345 7:0.054476087 8:0.00051942432 9:0.13248051 
0.15420421636023401 0.18899005558665891 0.13261800003382399 0.17634922275924286 0.17239631622063065 0.12991198669138251 1:0.09351649 2:-0.00038698877 3:0.10625558 4:0.093681974 5:-0.0003512411 6:0.10615872 7:0.093594047 8:3.4787455e-05 9:0.10605292 
0.15420421636023401 0.18899005558665891 0.13261800003382399 0.17634922275924286 0.17239631622063065 0.12991198669138251 1:0.094016512 2:0.0054943337 3:0.10848701 4:0.093675165 5:0.0053892497 6:0.10835583 7:0.09343069 8:0.0051790812 9:0.10825969 
0.15420421636023401 0.18899005558665891 0.13261800003382399 0.17634922275924286 0.17239631622063065 0.12991198669138251 1:0.056520707 2:0.003657226 3:0.13209732 4:0.056153273 5:0.0036840368 6:0.13235145 7:0.056153273 8:0.0034559945 9:0.13208909 
0.15420421636023401 0.18899005558665891 0.13261800003382399 0.17634922275924286 0.17239631622063065 0.12991198669138251 1:0.041618688 2:0.017104194 3:0.13529508 4:0.042091927 5:0.017244308 6:0.1353905 7:0.04238109 8:0.017130286 9:0.13512743 
0.15420421636023401 0.18899005558665891 0.13261800003382399 0.17634922275924286 0.17239631622063065 0.12991198669138251 1:0.094397018 2:0.0031793289 3:0.10710868 4:0.095035741 5:0.0027850829 6:0.10726595 7:0.094493162 8:0.0027060898 9:0.10680165 
0.15420421636023401 0.18899005558665891 0.13261800003382399 0 0 0.12991198669138251 1:0.054006183 2:-0.0010229817 3:0.1322478 4:0.05410233 5:-0.0012503045 6:0.13260701 7:0.054181321 8:-0.0011802482 9:0.13280825 
0.15420421636023401 0.18899005558665891 0.13261800003382399 0.17634922275924286 0.17239631622063065 0.12991198669138251 1:0.054124491 2:-0.00129099 3:0.13196319 4:0.053905385 5:-0.0011859057 6:0.13247145 7:0.053756333 8:-0.0011337233 9:0.13224413 
0.15420421636023401 0.18899005558665891 0.13261800003382399 0.17634922275924286 0.17239631622063065 0.12991198669138251 1:0.052740267 2:0.0083927636 3:0.13276461 4:0.053020489 5:0.0081654407 6:0.13285254 7:0.052950432 8:0.0082444334 9:0.13282644 
0.15420421636023401 0.18899005558665891 0.13261800003382399 0.17634922275924286 0.17239631622063065 0.12991198669138251 1:0.09486897 2:0.0033332183 3:0.10709534 4:0.095035888 5:0.0034293657 6:0.10727869 7:0.095105949 8:0.0033153445 9:0.10713036 
0.15420421636023401 0.18899005558665891 0.13261800003382399 0.17634922275924286 0.17239631622063065 0.12991198669138251 1:0.094205437 2:0.0020525157 3:0.10676082 4:0.09385516 5:0.0022008456 6:0.1071715 7:0.093767946 8:0.002200126 9:0.10696883 
0.15420421636023401 0 0.13261800003382399 0.17634922275924286 0 0 1:0.054618816 2:-0.0016116811 3:0.13213378 4:0.05451301 5:-0.001576653 6:0.13191467 7:0.054276751 8:-0.0018218495 9:0.13205479 
0.15420421636023401 0.18899005558665891 0.13261800003382399 0.17634922275924286 0.17239631622063065 0.12991198669138251 1:0.046006134 2:0.019043275 3:0.13401763 4:0.04590105 5:0.019174449 6:0.13390361 7:0.045576863 8:0.019271316 9:0.13397439 
0.15420421636023401 0.18899005558665891 0.13261800003382399 0 0 0.12991198669138251 1:0.054267815 2:-0.0012867718 3:0.1323007 4:0.054311778 5:-0.0010676663 6:0.13230963 7:0.054477983 8:-0.0011727505 9:0.13272103 
0.15420421636023401 0 0 0 0 0 1:0.054392211 2:-0.0017331999 3:0.1323007 4:0.054698527 5:-0.0017153261 6:0.13211662 7:0.054286406 8:-0.0011720309 9:0.13237969 
0.15420421636023401 0.18899005558665891 0.13261800003382399 0.17634922275924286 0.17239631622063065 0.12991198669138251 1:0.098819945 2:0.00031996709 3:0.10574105 4:0.099220247 5:0.00031966524 6:0.10361472 7:0.099516188 8:-0.00030940118 9:0.10251601 
0.15420421636023401 0.18899005558665891 0.13261800003382399 0.17634922275924286 0.17239631622063065 0.12991198669138251 1:0.095649242 2:0.0032817556 3:0.10638727 4:0.095623152 5:0.0031945452 6:0.10637012 7:0.095579902 8:0.0034658329 9:0.10631794 
0.15420421636023401 0.18899005558665891 0.13261800003382399 0.17634922275924286 0.17239631622063065 0.12991198669138251 1:0.052866973 2:0.0079154635 3:0.13265749 4:0.053068205 5:0.0080645127 6:0.13256884 7:0.052761888 8:0.0079333373 9:0.13257778 
0.15420421636023401 0.18899005558665891 0.13261800003382399 0.17634922275924286 0.17239631622063065 0.12991198669138251 1:0.093491086 2:0.0049428214 3:0.10775892 4:0.093657291 5:0.0053191935 6:0.10795193 7:0.093771316 8:0.0051969551 9:0.10822322 
0.15420421636023401 0.18899005558665891 0.13261800003382399 0.17634922275924286 0.17239631622063065 0.12991198669138251 1:0.094734947 2:0.0030252133 3:0.10727818 4:0.094690983 5:0.002841136 6:0.10727818 7:0.094288519 8:0.0027360518 9:0.10718131 
0.15420421636023401 0.18899005558665891 0.13261800003382399 0.17634922275924286 0.17239631622063065 0.12991198669138251 1:0.094029626 2:0.0031567017 3:0.10792301 4:0.093881295 5:0.0030866455 6:0.1075638 7:0.094056436 8:0.0033229051 9:0.1076167 
0.15420421636023401 0.18899005558665891 0.13261800003382399 0.17634922275924286 0.17239631622063065 0.12991198669138251 1:0.094758329 2:0.0033394384 3:0.1069332 4:0.094504196 5:0.003085305 6:0.10700325 7:0.094810509 8:0.0030592136 9:0.1069861 
0.15420421636023401 0.18899005558665891 0.13261800003382399 0.17634922275924286 0.17239631622063065 0.12991198669138251 1:0.055793686 2:0.011902732 3:0.13202585 4:0.055592458 5:0.011720094 6:0.13187896 7:0.055566364 8:0.011667912 9:0.13237079 
0.15420421636023401 0.18899005558665891 0.13261800003382399 0.17634922275924286 0.17239631622063065 0.12991198669138251 1:0.094032457 2:0.0036498339 3:0.10680017 4:0.093620335 5:0.003964367 6:0.10680089 7:0.093645712 8:0.0035090018 9:0.10681054 
0.15420421636023401 0.18899005558665891 0.13261800003382399 0.17634922275924286 0.17239631622063065 0.12991198669138251 1:0.053736779 2:-0.0012043289 3:0.13240334 4:0.053999132 5:-0.0010030974 6:0.13259707 7:0.053876173 8:-0.0010820905 9:0.13257026 
0 0 0 0.17634922275924286 0 0 1:0.068132812 2:-0.0092213644 3:0.12160493 4:0.068731888 5:-0.0094322522 6:0.12220791 7:0.069681969 8:-0.0093182318 9:0.12351145 
0.15420421636023401 0.18899005558665891 0.13261800003382399 0.17634922275924286 0.17239631622063065 0.12991198669138251 1:0.09448499 2:0.0030777086 3:0.10744905 4:0.094353812 5:0.0029815611 6:0.10744084 7:0.094292695 8:0.0030165892 9:0.10747586 
0.15420421636023401 0.18899005558665891 0.13261800003382399 0.17634922275924286 0.17239631622063065 0.12991198669138251 1:0.053877853 2:-0.0011069126 3:0.13227988 4:0.053947911 5:-0.0012298707 6:0.1324811 7:0.053947911 8:-0.0011687514 9:0.13283961 
0.15420421636023401 0.18899005558665891 0.13261800003382399 0.17634922275924286 0.17239631622063065 0.12991198669138251 1:0.048098684 2:0.0073887641 3:0.13438483 4:0.048028627 5:0.0075117224 6:0.1342969 7:0.048457901 8:0.0073984209 9:0.13416502 
0.15420421636023401 0.18899005558665891 0.13261800003382399 0.17634922275924286 0.17239631622063065 0.12991198669138251 1:0.095225338 2:0.0032786274 3:0.10721778 4:0.094971206 5:0.003314375 6:0.10681532 7:0.095128474 8:0.0030863327 9:0.1072185 
0.15420421636023401 0 0 0 0 0 1:0.054023521 2:-0.0016489566 3:0.13244744 4:0.053787259 5:-0.0015967743 6:0.1325175 7:0.053691111 8:-0.001955992 9:0.13256145 
0.15420421636023401 0.18899005558665891 0.13261800003382399 0.17634922275924286 0.17239631622063065 0.12991198669138251 1:0.095168577 2:0.0030282833 3:0.10725966 4:0.095002372 5:0.0031683958 6:0.10718961 7:0.095073146 8:0.0037199083 9:0.10736475 
0.15420421636023401 0.18899005558665891 0.13261800003382399 0.17634922275924286 0.17239631622063065 0.12991198669138251 1:0.095799625 2:0.0028574657 3:0.10677099 4:0.096070911 5:0.0029722064 6:0.10640284 7:0.096298233 8:0.0029990172 9:0.10588635 
0.15420421636023401 0.18899005558665891 0.13261800003382399 0.17634922275924286 0.17239631622063065 0.12991198669138251 1:0.094678899 2:0.0030969005 3:0.10689151 4:0.094704996 5:0.0028256126 6:0.10679536 7:0.094696059 8:0.0028517037 9:0.10676105 
0 0 0 0.17634922275924286 0 0 1:0.068911347 2:-0.0070160342 3:0.12508597 4:0.068368055 5:-0.0070860903 6:0.12528721 7:0.068718332 8:-0.0073312866 9:0.12521643 
0.15420421636023401 0.18899005558665891 0.13261800003382399 0 0 0.12991198669138251 1:0.05386003 2:-0.0014928114 3:0.132556 4:0.054096289 5:-0.0011864955 6:0.13237192 7:0.053816063 8:-0.0015196221 9:0.13231974 
0.15420421636023401 0.18899005558665891 0.13261800003382399 0.17634922275924286 0.17239631622063065 0.12991198669138251 1:0.053195631 2:0.0080117718 3:0.13259768 4:0.053003336 5:0.0081869128 6:0.13231746 7:0.052889315 8:0.0082748424 9:0.13235321 
0.15420421636023401 0.18899005558665891 0.13261800003382399 0.17634922275924286 0.17239631622063065 0.12991198669138251 1:0.053800044 2:0.00384199 3:0.13223025 4:0.053817198 5:0.0040789697 6:0.1321602 7:0.05372105 8:0.0044560612 9:0.13263271 
0.15420421636023401 0.18899005558665891 0.13261800003382399 0.17634922275924286 0.17239631622063065 0.12991198669138251 1:0.045226579 2:0.01899859 3:0.13401908 4:0.045025351 5:0.018858477 6:0.13408019 7:0.045392784 8:0.01893747 9:0.1340541 
0.15420421636023401 0.18899005558665891 0.13261800003382399 0.17634922275924286 0.17239631622063065 0.12991198669138251 1:0.094546828 2:0.0030516172 3:0.10767782 4:0.094380623 5:0.0032789401 6:0.10742368 7:0.094266605 8:0.0029368765 9:0.1070734 
0.15420421636023401 0.18899005558665891 0.13261800003382399 0.17634922275924286 0.17239631622063065 0.12991198669138251 1:0.09520332 2:0.0034716816 3:0.10780381 4:0.094861973 5:0.0032965412 6:0.10748783 7:0.094363365 8:0.0028061479 9:0.10698922 
0.15420421636023401 0.18899005558665891 0.13261800003382399 0.17634922275924286 0.17239631622063065 0.12991198669138251 1:0.053879039 2:0.00054934976 3:0.13268562 4:0.054150325 5:0.0002862793 6:0.13290472 7:0.054439488 8:0.00061868638 9:0.13268562 
0.15420421636023401 0 0.13261800003382399 0 0 0 1:0.054524652 2:-0.0014663985 3:0.13216875 4:0.054192242 5:-0.0014395877 6:0.13238713 7:0.054516432 8:-0.0014134966 9:0.13241323 
0.15420421636023401 0.18899005558665891 0.13261800003382399 0.17634922275924286 0.17239631622063065 0.12991198669138251 1:0.036695328 2:0.021560262 3:0.13633198 4:0.036905493 5:0.021253945 6:0.13651606 7:0.036730355 8:0.021402994 9:0.13649891 
0.15420421636023401 0.18899005558665891 0.13261800003382399 0.17634922275924286 0.17239631622063065 0.12991198669138251 1:0.092754625 2:0.0019523954 3:0.10934405 4:0.093077371 5:0.0018473112 6:0.10935155 7:0.093251792 8:0.0016535774 9:0.10938585 
0 0.18899005558665891 0 0.17634922275924286 0.17239631622063065 0 1:0.093851305 2:-0.0047763833 3:0.10719378 4:0.094988636 5:-0.0048643133 6:0.10658649 7:0.096082003 8:-0.004173408 9:0.10541947 
0.15420421636023401 0.18899005558665891 0.13261800003382399 0.17634922275924286 0.17239631622063065 0.12991198669138251 1:0.047856651 2:0.0075394715 3:0.13713367 4:0.046996663 5:0.004971023 6:0.13613675 7:0.046963377 8:0.0022974909 9:0.1355877 
0.15420421636023401 0.18899005558665891 0.13261800003382399 0.17634922275924286 0.17239631622063065 0.12991198669138251 1:0.052634461 2:0.0091491053 3:0.13209548 4:0.05184669 5:0.0083523962 6:0.13276995 7:0.052004675 8:0.008396361 9:0.13229744 
0.15420421636023401 0.18899005558665891 0.13261800003382399 0.17634922275924286 0.17239631622063065 0.12991198669138251 1:0.055844798 2:0.0019015039 3:0.13206444 4:0.055923789 5:0.001848602 6:0.13190717 7:0.055827642 8:0.0019797776 9:0.13192433 
0.15420421636023401 0.18899005558665891 0.13261800003382399 0.17634922275924286 0.17239631622063065 0.12991198669138251 1:0.09448903 2:0.0029097529 3:0.10741685 4:0.094427913 5:0.0030588024 6:0.10732071 7:0.094647012 8:0.0028218229 9:0.10739076 
0.15420421636023401 0.18899005558665891 0.13261800003382399 0.17634922275924286 0.17239631622063065 0.12991198669138251 1:0.094932094 2:0.0027673535 3:0.10656781 4:0.094835943 5:0.0024521006 6:0.10699708 7:0.094590747 8:0.0028463466 9:0.10737418 
0.15420421636023401 0 0 0 0 0 1:0.054314385 2:-0.001239357 3:0.13292054 4:0.054314385 5:-0.0013794694 6:0.13292054 7:0.053929074 8:-0.0012743852 9:0.13241227 
0.15420421636023401 0.18899005558665891 0.13261800003382399 0.17634922275924286 0.17239631622063065 0.12991198669138251 1:0.094432301 2:0.0032615535 3:0.10726429 4:0.094546319 5:0.0031393151 6:0.10719423 7:0.094563472 8:0.0031571889 9:0.10732541 
0.15420421636023401 0 0 0 0 0 1:0.054744669 2:-0.0017558818 3:0.13252919 4:0.054184217 5:-0.0013526991 6:0.13231008 7:0.054140253 8:-0.001361636 9:0.13233618 
0.15420421636023401 0.18899005558665891 0.13261800003382399 0.17634922275924286 0.17239631622063065 0.12991198669138251 1:0.053686023 2:0.0035610458 3:0.13248438 4:0.053703176 5:0.0035871369 6:0.1325455 7:0.05372105 8:0.0035960739 9:0.1325455 
0.15420421636023401 0.18899005558665891 0.13261800003382399 0.17634922275924286 0.17239631622063065 0.12991198669138251 1:0.053773234 2:0.004000696 3:0.13240468 4:0.053790387 5:0.004079689 6:0.13225635 7:0.053956592 8:0.0038695206 9:0.13239574 
0.15420421636023401 0 0 0 0 0 1:0.054159518 2:-0.0015622778 3:0.13282245 4:0.054492645 5:-0.0010986953 6:0.13301547 7:0.054711751 8:-0.0011776883 9:0.13256903 
0.15420421636023401 0.18899005558665891 0.13261800003382399 0.17634922275924286 0 0.12991198669138251 1:0.054224568 2:-0.001094477 3:0.13242295 4:0.054592722 5:-0.0012174351 6:0.13239685 7:0.054303562 8:-0.001147379 9:0.13245797 
0 0 0 0.17634922275924286 0 0 1:0.068546375 2:-0.0063497807 3:0.12534617 4:0.068729733 5:-0.0069616928 6:0.1253283 7:0.068520285 8:-0.0073298479 9:0.12479394 
0.15420421636023401 0.18899005558665891 0.13261800003382399 0.17634922275924286 0.17239631622063065 0.12991198669138251 1:0.053712834 2:0.0053607331 3:0.13264453 4:0.053782891 5:0.0051326903 6:0.1325037 7:0.053791107 8:0.0053160485 9:0.13208336 
0.15420421636023401 0.18899005558665891 0.13261800003382399 0.17634922275924286 0.17239631622063065 0.12991198669138251 1:0.053945062 2:-0.0008045958 3:0.13244976 4:0.054234225 5:-0.00075241349 6:0.13233573 7:0.054225289 8:-0.00076135041 9:0.13244082 
0.15420421636023401 0.18899005558665891 0.13261800003382399 0.17634922275924286 0.17239631622063065 0.12991198669138251 1:0.053545912 2:0.0038427098 3:0.13236142 4:0.053835071 5:0.0036757868 6:0.13264165 7:0.053782891 8:0.0039992568 9:0.13220417 
0.15420421636023401 0.18899005558665891 0.13261800003382399 0.17634922275924286 0.17239631622063065 0.12991198669138251 1:0.036318954 2:0.020947629 3:0.13606141 4:0.036310017 5:0.020921539 6:0.13606963 7:0.036064821 8:0.021218916 9:0.13627086 
0.15420421636023401 0.18899005558665891 0.13261800003382399 0.17634922275924286 0.17239631622063065 0.12991198669138251 1:0.094161008 2:0.0033233924 3:0.10728217 4:0.094327213 5:0.0032354624 6:0.10744836 7:0.094196035 8:0.0033845116 9:0.10769356 
0.15420421636023401 0.18899005558665891 0.13261800003382399 0.17634922275924286 0.17239631622063065 0.12991198669138251 1:0.053428142 2:0.0083097094 3:0.13233259 4:0.053279091 5:0.0084937865 6:0.13270895 7:0.053130042 8:0.0084937865 9:0.13220962 
0.15420421636023401 0.18899005558665891 0.13261800003382399 0.17634922275924286 0.17239631622063065 0.12991198669138251 1:0.096343143 2:0.0033518118 3:0.10634517 4:0.09635208 5:0.0038772331 6:0.10678338 7:0.096089011 8:0.0043072268 9:0.10724768 
0.15420421636023401 0.18899005558665891 0.13261800003382399 0.17634922275924286 0.17239631622063065 0.12991198669138251 1:0.045848974 2:0.0072669944 3:0.13462855 4:0.045857911 5:0.007039672 6:0.13481192 7:0.04612098 8:0.006821286 9:0.13457493 
0.15420421636023401 0.18899005558665891 0.13261800003382399 0.17634922275924286 0.17239631622063065 0.12991198669138251 1:0.057174843 2:0.0010951384 3:0.13269002 4:0.057001142 5:0.0012263138 6:0.13330409 7:0.057247059 8:0.0012777766 9:0.13275043 
0.15420421636023401 0.18899005558665891 0.13261800003382399 0.17634922275924286 0.17239631622063065 0.12991198669138251 1:0.052560007 2:0.0077590412 3:0.13278928 4:0.052647938 5:0.0079341822 6:0.13316564 7:0.05278805 8:0.0078290978 9:0.13272816 
0.15420421636023401 0.18899005558665891 0.13261800003382399 0.17634922275924286 0.17239631622063065 0.12991198669138251 1:0.095071636 2:0.003472611 3:0.10697309 4:0.09568499 5:0.003569478 6:0.10691198 7:0.095474821 8:0.0039286961 9:0.10666678 
0 0 0 0.17634922275924286 0.17239631622063065 0 1:0.07629603 2:0.00093450648 3:0.12770127 4:0.077521599 5:0.0010982494 6:0.1283329 7:0.077164122 8:-0.00039398413 9:0.12705978 
0.15420421636023401 0.18899005558665891 0.13261800003382399 0.17634922275924286 0.17239631622063065 0.12991198669138251 1:0.094933471 2:0.0032164804 3:0.10678414 4:0.094907381 5:0.0031642981 6:0.10666191 7:0.09483732 8:0.0035324527 9:0.10680202 
0 0 0 0.17634922275924286 0 0 1:0.068789827 2:-0.0061495706 3:0.12552388 4:0.068438829 5:-0.0064737605 6:0.12560965 7:0.068280841 8:-0.0064387322 9:0.12531012 
0.15420421636023401 0.18899005558665891 0.13261800003382399 0.17634922275924286 0.17239631622063065 0.12991198669138251 1:0.053905263 2:0.00032712965 3:0.1324916 4:0.054325601 5:0.00036215772 6:0.13253484 7:0.054150459 8:0.00054623508 9:0.13260562 
0.15420421636023401 0.18899005558665891 0.13261800003382399 0.17634922275924286 0.17239631622063065 0.12991198669138251 1:0.093236954 2:0.004792333 3:0.10744294 4:0.093078251 5:0.0044770801 6:0.10748762 7:0.093261609 8:0.0047222768 9:0.1076188 
0.15420421636023401 0 0 0 0 0 1:0.054323322 2:-0.0014234344 3:0.13240334 4:0.054183207 5:-0.0015553295 6:0.13247339 7:0.054262201 8:-0.0015724838 9:0.1325874 
0.15420421636023401 0 0.13261800003382399 0 0 0 1:0.053840698 2:-0.0013747018 3:0.13254662 4:0.054095552 5:-0.0015759334 6:0.13275678 7:0.05427069 8:-0.00097151897 9:0.13273891 
0.15420421636023401 0.18899005558665891 0.13261800003382399 0.17634922275924286 0.17239631622063065 0.12991198669138251 1:0.093546452 2:0.0061298765 3:0.10729245 4:0.093449587 5:0.0059100518 6:0.10844982 7:0.093125393 8:0.0058049673 9:0.10893272 
0.15420421636023401 0.18899005558665891 0.13261800003382399 0.17634922275924286 0.17239631622063065 0.12991198669138251 1:0.094748016 2:0.0026794235 3:0.10701423 4:0.09417041 5:0.0029857393 6:0.10685697 7:0.094205437 8:0.0031608799 9:0.10684804 
0.15420421636023401 0.18899005558665891 0.13261800003382399 0.17634922275924286 0.17239631622063065 0.12991198669138251 1:0.094025449 2:0.0051172422 3:0.10790796 4:0.093876397 5:0.0046969053 6:0.10762774 7:0.094077629 8:0.0047669614 9:0.10780288 
0.15420421636023401 0.18899005558665891 0.13261800003382399 0.17634922275924286 0.17239631622063065 0.12991198669138251 1:0.054469895 2:0.0023604343 3:0.13479821 4:0.055059314 5:0.0024208341 6:0.13395148 7:0.054946734 8:0.002088427 9:0.1333939 
0.15420421636023401 0.18899005558665891 0.13261800003382399 0.17634922275924286 0.17239631622063065 0.12991198669138251 1:0.093420312 2:0.0050657793 3:0.10783719 4:0.093656571 5:0.0049778493 6:0.10777607 7:0.09386674 8:0.0046715337 9:0.10781038 
0.15420421636023401 0.18899005558665891 0.13261800003382399 0.17634922275924286 0.17239631622063065 0.12991198669138251 1:0.053773759 2:0.0022941259 3:0.13033864 4:0.052358357 5:-0.00020180542 6:0.12964412 7:0.051980246 8:-0.0015149989 9:0.12832806 
0.15420421636023401 0 0 0 0 0 1:0.054087486 2:-0.0012908559 3:0.13271564 4:0.054359493 5:-0.0014048771 6:0.13280284 7:0.054052459 8:-0.0013519752 9:0.13247865 
0.15420421636023401 0.18899005558665891 0.13261800003382399 0.17634922275924286 0.17239631622063065 0.12991198669138251 1:0.045183336 2:0.018166133 3:0.13403407 4:0.044954573 5:0.018515694 6:0.13382318 7:0.044445586 8:0.018707989 9:0.1332806 
0 0 0 0.044087305689810716 0 0 1:0.066471684 2:-0.0067671237 3:0.12689039 4:0.064862549 5:-0.008899218 6:0.1260268 7:0.064376474 8:-0.0098135457 9:0.12439045 
0.15420421636023401 0.18899005558665891 0.13261800003382399 0.17634922275924286 0.17239631622063065 0.12991198669138251 1:0.094605893 2:0.0034039941 3:0.10793672 4:0.094308517 5:0.0032906926 6:0.1079807 7:0.094020078 8:0.0032556645 9:0.10775337 
0.15420421636023401 0.18899005558665891 0.13261800003382399 0.17634922275924286 0.17239631622063065 0.12991198669138251 1:0.094196009 2:0.0023530931 3:0.10741088 4:0.094721428 5:0.002195107 6:0.10753383 7:0.094739302 8:0.0023001912 9:0.10734975 
0.15420421636023401 0.18899005558665891 0.13261800003382399 0.17634922275924286 0.17239631622063065 0.12991198669138251 1:0.092939578 2:0.0055547336 3:0.10780144 4:0.093491086 5:0.0055107683 6:0.1081167 7:0.093683381 8:0.0054228384 9:0.1083358 
0.15420421636023401 0.18899005558665891 0.13261800003382399 0.17634922275924286 0.17239631622063065 0.12991198669138251 1:0.036623313 2:0.021070806 3:0.13627675 4:0.03695644 5:0.020921756 6:0.13633787 7:0.036877446 8:0.021008967 9:0.13657413 
0.15420421636023401 0.18899005558665891 0.13261800003382399 0.17634922275924286 0.17239631622063065 0.12991198669138251 1:0.054943002 2:0.0037319017 3:0.13259807 4:0.054584506 5:0.0037401188 6:0.13258914 7:0.054287126 8:0.0035292307 9:0.13250121 
0.15420421636023401 0.18899005558665891 0.13261800003382399 0.17634922275924286 0.17239631622063065 0.12991198669138251 1:0.054487638 2:-0.0012778348 3:0.13223137 4:0.054548758 5:-0.0012345893 6:0.13179316 7:0.054014399 8:-0.001391856 9:0.13188109 
0.15420421636023401 0.18899005558665891 0.13261800003382399 0.17634922275924286 0.17239631622063065 0.12991198669138251 1:0.054604986 2:-0.00098666266 3:0.13242942 4:0.054534929 5:-0.0010395647 6:0.13210595 7:0.054666103 8:-0.0011878943 9:0.13186969 
0.15420421636023401 0.18899005558665891 0.13261800003382399 0.17634922275924286 0.17239631622063065 0.12991198669138251 1:0.054050147 2:-0.00074419612 3:0.132493 4:0.054225289 5:-0.00068235728 6:0.13197651 7:0.053901098 8:-0.00072632228 9:0.13215165 
0.15420421636023401 0 0 0 0 0 1:0.053982938 2:-0.0017642289 3:0.13263015 4:0.054140923 5:-0.0016241166 6:0.13263908 7:0.054210981 8:-0.0016151797 9:0.13230596 
0.15420421636023401 0.18899005558665891 0.13261800003382399 0.17634922275924286 0.17239631622063065 0.12991198669138251 1:0.053850181 2:6.6620114e-05 3:0.13248328 4:0.054007446 5:0.00053985913 6:0.13255334 7:0.054191525 8:7.5557036e-05 9:0.1323782 
0.15420421636023401 0.18899005558665891 0.13261800003382399 0.17634922275924286 0.17239631622063065 0.12991198669138251 1:0.09517906 2:0.0027984086 3:0.10661606 4:0.094959954 5:0.0028155628 6:0.1064856 7:0.094959954 8:0.002964612 9:0.10645951 
0.15420421636023401 0.18899005558665891 0.13261800003382399 0.17634922275924286 0.17239631622063065 0.12991198669138251 1:0.05279862 2:0.0029416359 3:0.13509427 4:0.053218958 5:0.0029684467 6:0.13492735 7:0.053411973 8:0.0030116921 9:0.13483942 
0 0 0 0.17634922275924286 0 0 1:0.070890377 2:-0.0090759134 3:0.12286913 4:0.070766701 5:-0.009206369 6:0.12230724 7:0.070494695 8:-0.0090819719 9:0.12171926 
0.15420421636023401 0.18899005558665891 0.13261800003382399 0.17634922275924286 0.17239631622063065 0.12991198669138251 1:0.043386526 2:0.016474524 3:0.1363302 4:0.043186014 5:0.016959579 6:0.13659184 7:0.043063777 8:0.016664358 9:0.13645921 
0.15420421636023401 0.18899005558665891 0.13261800003382399 0.17634922275924286 0.17239631622063065 0.12991198669138251 1:0.095930076 2:0.00095917071 3:0.10493813 4:0.095973326 5:0.00092126421 6:0.10544712 7:0.096007632 8:0.001060657 9:0.10594717 
0.15420421636023401 0.18899005558665891 0.13261800003382399 0.17634922275924286 0.17239631622063065 0.12991198669138251 1:0.052849887 2:0.0080117361 3:0.13222954 4:0.052963909 5:0.0079155886 6:0.13266704 7:0.052779833 8:0.0078805607 9:0.13229066 
0.15420421636023401 0.18899005558665891 0.13261800003382399 0.17634922275924286 0.17239631622063065 0.12991198669138251 1:0.0537979 2:-0.00089801306 3:0.13246517 4:0.054139243 5:-0.00099416048 6:0.13253522 7:0.053718905 8:-0.0011782378 9:0.13229896 
0.15420421636023401 0.18899005558665891 0.13261800003382399 0.17634922275924286 0.17239631622063065 0.12991198669138251 1:0.095193877 2:0.0033414357 3:0.10651845 4:0.095281805 5:0.0034293657 6:0.10643124 7:0.09542192 8:0.003193106 9:0.10649236 
0.15420421636023401 0.18899005558665891 0.13261800003382399 0.17634922275924286 0.17239631622063065 0.12991198669138251 1:0.054312499 2:-0.0011295051 3:0.13268673 4:0.054373616 5:-0.00090218232 6:0.13231036 7:0.054609879 8:-0.00098117539 9:0.13192504 
0.15420421636023401 0.18899005558665891 0.13261800003382399 0.17634922275924286 0.17239631622063065 0.12991198669138251 1:0.05343189 2:0.0036825646 3:0.1323868 4:0.053326806 5:0.0031660804 6:0.13227278 7:0.053633122 8:0.0033762489 9:0.13228172 
0.15420421636023401 0.18899005558665891 0.13261800003382399 0.17634922275924286 0.17239631622063065 0.12991198669138251 1:0.04561189 2:0.018858477 3:0.13393113 4:0.045366694 5:0.018972498 6:0.13387824 7:0.045375631 8:0.01902468 9:0.13408913 
0.15420421636023401 0.18899005558665891 0.13261800003382399 0.17634922275924286 0.17239631622063065 0.12991198669138251 1:0.093587237 2:0.0049510385 3:0.10784612 4:0.093832433 5:0.0051529899 6:0.10811741 7:0.093876397 8:0.0054332145 9:0.1082754 
0.15420421636023401 0.18899005558665891 0.13261800003382399 0.17634922275924286 0.17239631622063065 0.12991198669138251 1:0.05464689 2:-0.00043271007 3:0.13206366 4:0.054655827 5:-0.0005728224 6:0.13238785 7:0.054778785 8:3.1592011e-05 9:0.13241323 
0.15420421636023401 0.18899005558665891 0.13261800003382399 0.17634922275924286 0.17239631622063065 0 1:0.095437529 2:-0.0019310064 3:0.1061632 4:0.095973326 5:-0.0022358831 6:0.1063176 7:0.0968594 8:-0.0024646452 9:0.1063065 
0.15420421636023401 0.18899005558665891 0.13261800003382399 0.17634922275924286 0.17239631622063065 0.12991198669138251 1:0.094494827 2:0.0028338299 3:0.10665453 4:0.094345775 5:0.0027458999 6:0.10647867 7:0.094406892 8:0.002815956 9:0.10683789 
0.15420421636023401 0.18899005558665891 0.13261800003382399 0.17634922275924286 0.17239631622063065 0.12991198669138251 1:0.093690884 2:0.0047594637 3:0.10814422 4:0.09389283 5:0.0048302393 6:0.10807345 7:0.093096125 8:0.0045768254 9:0.10817853 
0.15420421636023401 0.18899005558665891 0.13261800003382399 0.17634922275924286 0.17239631622063065 0.12991198669138251 1:0.045439325 2:0.016901222 3:0.13642419 4:0.044818476 5:0.01720076 6:0.13687134 7:0.044049299 8:0.017731937 9:0.13493515 
0.15420421636023401 0.18899005558665891 0.13261800003382399 0 0 0.12991198669138251 1:0.054516072 2:-0.001062416 3:0.13287527 4:0.054034617 5:-0.0014298511 6:0.13234985 7:0.053719363 8:-0.0015177811 9:0.13221045 
0.15420421636023401 0.18899005558665891 0.13261800003382399 0.17634922275924286 0.17239631622063065 0.12991198669138251 1:0.095386893 2:0.0032549449 3:0.1071393 4:0.095308616 5:0.0036574079 6:0.10713036 7:0.094660235 8:0.0031752322 9:0.10685014 
0.15420421636023401 0.18899005558665891 0.13261800003382399 0.17634922275924286 0.17239631622063065 0.12991198669138251 1:0.0941004 2:0.0032878771 3:0.10734541 4:0.094344876 5:0.0027184907 6:0.10734541 7:0.094239795 8:0.0029726242 9:0.10713452 
0.15420421636023401 0.18899005558665891 0.13261800003382399 0.17634922275924286 0.17239631622063065 0.12991198669138251 1:0.093517816 2:0.00034212475 3:0.10363934 4:0.093342674 5:0.00015876702 6:0.10363041 7:0.093176469 8:-8.642957e-05 9:0.10309677 
0.15420421636023401 0.18899005558665891 0.13261800003382399 0.17634922275924286 0.17239631622063065 0.12991198669138251 1:0.053130042 2:0.0078714987 3:0.13234902 4:0.0529549 5:0.0078893725 6:0.13236689 7:0.053156132 8:0.0075651823 9:0.13249879 
0.15420421636023401 0.18899005558665891 0.13261800003382399 0.17634922275924286 0.17239631622063065 0.12991198669138251 1:0.094511292 2:0.0033577009 3:0.10744836 4:0.094485202 5:0.0032354624 6:0.10714205 7:0.094161008 8:0.0032615535 9:0.10725607 
0.15420421636023401 0.18899005558665891 0.13261800003382399 0.17634922275924286 0.17239631622063065 0.12991198669138251 1:0.054071468 2:0.00033750572 3:0.13247301 4:0.054229453 5:-1.2775144e-05 6:0.13237613 7:0.05400141 8:0.00036359691 9:0.13223602 
0.15420421636023401 0.18899005558665891 0.13261800003382399 0.17634922275924286 0.17239631622063065 0.12991198669138251 1:0.03715963 2:0.02120854 3:0.13626265 4:0.037019515 5:0.021234632 6:0.13614934 7:0.037089572 8:0.021112394 9:0.13624549 
0.15420421636023401 0.18899005558665891 0.13261800003382399 0.17634922275924286 0.17239631622063065 0.12991198669138251 1:0.042135174 2:0.018395615 3:0.13502523 4:0.04245936 5:0.018509635 6:0.13508635 7:0.042538355 8:0.018588629 9:0.13519143 
0.15420421636023401 0.18899005558665891 0.13261800003382399 0.17634922275924286 0.17239631622063065 0.12991198669138251 1:0.095370073 2:0.003016996 3:0.10775531 4:0.094836431 5:0.0025698483 6:0.10754443 7:0.094188051 8:0.0020101185 9:0.10698326 
0.15420421636023401 0.18899005558665891 0.13261800003382399 0.17634922275924286 0.17239631622063065 0.12991198669138251 1:0.09524814 2:0.0034569718 3:0.1073213 4:0.095116969 5:0.0033079226 6:0.1072423 7:0.095125905 8:0.003386196 9:0.10684806 
0.15420421636023401 0.18899005558665891 0.13261800003382399 0.17634922275924286 0.17239631622063065 0.12991198669138251 1:0.054120204 2:-0.0010065471 3:0.13253768 4:0.054269252 5:-0.0006912942 6:0.13251981 7:0.054181321 8:-0.00093649079 9:0.13228355 
0.15420421636023401 0.18899005558665891 0.13261800003382399 0.17634922275924286 0.17239631622063065 0.12991198669138251 1:0.094494603 2:0.0035257099 3:0.10767201 4:0.094459576 5:0.0034906819 6:0.10772419 7:0.09414432 8:0.0032976676 9:0.1075923 
0.15420421636023401 0.18899005558665891 0.13261800003382399 0.17634922275924286 0.17239631622063065 0.12991198669138251 1:0.045778095 2:0.01870193 3:0.13372026 4:0.045515022 5:0.018965001 6:0.13365913 7:0.045532179 8:0.019236289 9:0.13377315 
0.15420421636023401 0.18899005558665891 0.13261800003382399 0.17634922275924286 0.17239631622063065 0.12991198669138251 1:0.054439854 2:0.00012012047 3:0.132801 4:0.054343707 5:0.00043537326 6:0.13297614 7:0.054475602 8:0.0005665487 9:0.13284426 
0.15420421636023401 0 0 0 0 0 1:0.055118865 2:-0.001147379 3:0.1324251 4:0.055408025 5:-0.0010512317 6:0.13235505 7:0.055188919 8:-0.0011563159 9:0.132399 
0.15420421636023401 0.18899005558665891 0.13261800003382399 0.17634922275924286 0.17239631622063065 0.12991198669138251 1:0.095063347 2:0.0027646274 3:0.10695386 4:0.095055124 5:0.0027556905 6:0.10675191 7:0.095178086 8:0.0026684801 9:0.10703213 
0.15420421636023401 0.18899005558665891 0.13261800003382399 0.17634922275924286 0 0.12991198669138251 1:0.054330579 2:-0.0014819487 3:0.13224477 4:0.054531811 5:-0.0011838502 6:0.13207856 7:0.054225494 8:-0.0014640749 9:0.13236773 
0.15420421636023401 0.18899005558665891 0.13261800003382399 0.17634922275924286 0.17239631622063065 0.12991198669138251 1:0.094060476 2:0.0040231541 3:0.10796909 4:0.093771316 5:0.0043913087 6:0.10812707 7:0.093798127 8:0.0042161685 9:0.10794299 
0.15420421636023401 0.18899005558665891 0.13261800003382399 0.17634922275924286 0.17239631622063065 0.12991198669138251 1:0.037047416 2:0.020395195 3:0.13586221 4:0.037143563 5:0.020483126 6:0.13603735 7:0.036907304 8:0.020641112 9:0.13606345 
0.15420421636023401 0.18899005558665891 0.13261800003382399 0.17634922275924286 0.17239631622063065 0.12991198669138251 1:0.095422486 2:0.0033613918 3:0.10718793 4:0.095519351 5:0.003431448 6:0.10680263 7:0.095081139 8:0.0031154757 9:0.10692486 
0.15420421636023401 0 0.13261800003382399 0 0 0 1:0.05412377 2:-0.001579432 3:0.13255938 4:0.054220635 5:-0.001579432 6:0.1323753 7:0.054228854 8:-0.0013431723 9:0.13233206 
0.15420421636023401 0.18899005558665891 0.13261800003382399 0.17634922275924286 0.17239631622063065 0.12991198669138251 1:0.094993435 2:0.0031147743 3:0.10712028 4:0.094975561 5:0.003106557 6:0.1069362 7:0.094931597 8:0.0026601287 9:0.10704056 
0.15420421636023401 0 0.13261800003382399 0 0 0.12991198669138251 1:0.054158261 2:-0.0013787859 3:0.13255693 4:0.053790107 5:-0.0017640949 6:0.13225062 7:0.053860164 8:-0.0017029756 9:0.13208441 
0.15420421636023401 0.18899005558665891 0.13261800003382399 0.17634922275924286 0.17239631622063065 0.12991198669138251 1:0.09430062 2:0.0035928988 3:0.11019704 4:0.094221629 5:0.003487095 6:0.10996972 7:0.094194818 8:0.003487095 9:0.10998759 
0.15420421636023401 0.18899005558665891 0.13261800003382399 0.17634922275924286 0.17239631622063065 0.12991198669138251 1:0.056044107 2:0.0041461113 3:0.12969799 4:0.056291461 5:0.0033443648 6:0.13023018 7:0.05541648 8:0.0028600302 9:0.13318681 
0.15420421636023401 0.18899005558665891 0.13261800003382399 0.17634922275924286 0.17239631622063065 0.12991198669138251 1:0.054036023 2:-0.0014130944 3:0.13248688 4:0.053667869 5:-0.0012379539 6:0.13247794 7:0.05378117 8:-0.0010009747 9:0.13238179 
0.15420421636023401 0.18899005558665891 0.13261800003382399 0.17634922275924286 0.17239631622063065 0.12991198669138251 1:0.053957312 2:0.0036675692 3:0.1325455 4:0.054272562 5:0.0036496954 6:0.13271243 7:0.054325467 8:0.0036496954 9:0.13265952 
0.15420421636023401 0.18899005558665891 0.13261800003382399 0.17634922275924286 0.17239631622063065 0.12991198669138251 1:0.054235489 2:0.00011880244 3:0.13242217 4:0.05428839 5:0.00024176055 6:0.13244825 7:0.054183305 8:0.00018064129 9:0.13244825 
0.15420421636023401 0.18899005558665891 0.13261800003382399 0.17634922275924286 0.17239631622063065 0.12991198669138251 1:0.052875981 2:0.0079170282 3:0.13202759 4:0.052902071 5:0.0078119438 6:0.13231603 7:0.052867044 8:0.0078119438 9:0.13244722 
0.15420421636023401 0.18899005558665891 0.13261800003382399 0.17634922275924286 0.17239631622063065 0.12991198669138251 1:0.094181996 2:0.0024454508 3:0.10744438 4:0.094558363 5:0.0022792473 6:0.10764561 7:0.094794622 8:0.0024104227 9:0.10735645 
0.15420421636023401 0.18899005558665891 0.13261800003382399 0.17634922275924286 0.17239631622063065 0.12991198669138251 1:0.054020588 2:0.0038323337 3:0.13209908 4:0.05389763 5:0.0034909896 6:0.13195002 7:0.053808981 8:0.0033687512 9:0.13200293 
0.15420421636023401 0.18899005558665891 0.13261800003382399 0.17634922275924286 0.17239631622063065 0.12991198669138251 1:0.094853892 2:0.0030888172 3:0.1069628 4:0.094915016 5:0.0032117753 6:0.10682268 7:0.094836018 8:0.0032028383 9:0.10678765 
0.15420421636023401 0.18899005558665891 0.13261800003382399 0.17634922275924286 0.17239631622063065 0.12991198669138251 1:0.095046187 2:0.0030537889 3:0.10699782 4:0.095212392 5:0.003044852 6:0.10668185 7:0.094967196 8:0.003044852 9:0.10637553 
0.15420421636023401 0.18899005558665891 0.13261800003382399 0.17634922275924286 0.17239631622063065 0.12991198669138251 1:0.054325833 2:0.00016480507 3:0.13232704 4:0.054448071 5:0.00016480507 6:0.13224878 7:0.05436086 8:0.00023486125 9:0.13245894 
0.15420421636023401 0.18899005558665891 0.13261800003382399 0.17634922275924286 0.17239631622063065 0.12991198669138251 1:0.048300633 2:0.0076250239 3:0.13444596 4:0.048195549 5:0.0075728412 6:0.13427082 7:0.048335664 8:0.0076078699 9:0.13427976 
0.15420421636023401 0.18899005558665891 0.13261800003382399 0.17634922275924286 0.17239631622063065 0.12991198669138251 1:0.094888205 2:0.0025969847 3:0.1067326 4:0.094932169 5:0.0026663213 6:0.10660964 7:0.095229545 8:0.0027192232 9:0.10661857 
0.15420421636023401 0.18899005558665891 0.13261800003382399 0.17634922275924286 0.17239631622063065 0.12991198669138251 1:0.037096552 2:0.020745897 3:0.13620597 4:0.037175546 5:0.021043275 6:0.13646904 7:0.037289568 8:0.021139423 9:0.13614485 
0.15420421636023401 0 0.13261800003382399 0.17634922275924286 0 0 1:0.054366303 2:-0.001482753 3:0.13193845 4:0.054296245 5:-0.0017018585 6:0.1322723 7:0.05443636 8:-0.001526718 9:0.13233342 
0.15420421636023401 0.18899005558665891 0.13261800003382399 0.17634922275924286 0.17239631622063065 0.12991198669138251 1:0.052595683 2:0.0081174144 3:0.13289303 4:0.052464509 5:0.008204625 6:0.13315539 7:0.052700768 8:0.0083447373 9:0.13284907 
0.15420421636023401 0 0 0 0 0 1:0.054806457 2:-0.0013975134 3:0.13220016 4:0.054657408 5:-0.0015808712 6:0.13255938 7:0.054806457 8:-0.0011776883 9:0.13247145 
0.15420421636023401 0.18899005558665891 0.13261800003382399 0.17634922275924286 0.17239631622063065 0.12991198669138251 1:0.09440675 2:0.0032289295 3:0.10677872 4:0.094625849 5:0.0028168097 6:0.10714615 7:0.094713063 8:0.0030970345 9:0.10725946 
0.15420421636023401 0.18899005558665891 0.13261800003382399 0.17634922275924286 0.17239631622063065 0.12991198669138251 1:0.036999684 2:0.020859919 3:0.13602333 4:0.037183762 5:0.021026122 6:0.13619848 7:0.037148735 8:0.021210199 9:0.13606658 
0.15420421636023401 0.18899005558665891 0.13261800003382399 0.17634922275924286 0.17239631622063065 0.12991198669138251 1:0.05432342 2:0.00039974675 3:0.13221272 4:0.053903082 5:0.00039974675 6:0.13225668 7:0.05408644 8:0.00042583793 9:0.13244076 
0.15420421636023401 0.18899005558665891 0.13261800003382399 0.17634922275924286 0.17239631622063065 0.12991198669138251 1:0.094651865 2:0.0034191865 3:0.1074261 4:0.094354489 5:0.0030949969 6:0.10747828 7:0.094275498 8:0.0031389619 9:0.10740001 
0.15420421636023401 0.18899005558665891 0.13261800003382399 0.17634922275924286 0.17239631622063065 0.12991198669138251 1:0.054183305 2:0.0003468448 3:0.13277244 4:0.054437441 5:0.00072321688 6:0.13263162 7:0.054472468 8:0.00060025876 9:0.13265843 
0 0 0 0.17634922275924286 0 0 1:0.069741645 2:-0.0079625123 3:0.12469563 4:0.070240973 5:-0.0077859325 6:0.12492295 7:0.070188793 8:-0.0073201911 9:0.12481715 
0.15420421636023401 0.18899005558665891 0.13261800003382399 0.17634922275924286 0.17239631622063065 0.12991198669138251 1:0.055380497 2:-0.00062873577 3:0.13203978 4:0.055065243 5:-0.00069951152 6:0.13203085 7:0.055301502 8:-0.0008038762 9:0.13200403 
0.15420421636023401 0 0.13261800003382399 0 0 0 1:0.05440133 2:-0.0015520897 3:0.13241241 4:0.054366303 5:-0.0013508581 6:0.1322723 7:0.054226191 8:-0.0015349355 9:0.13221118 
0.15420421636023401 0.18899005558665891 0.13261800003382399 0.17634922275924286 0.17239631622063065 0.12991198669138251 1:0.045383127 2:0.018771266 3:0.13441332 4:0.045260889 5:0.018780203 6:0.13399298 7:0.045322727 8:0.018876351 9:0.1340541 
0.15420421636023401 0.18899005558665891 0.13261800003382399 0.17634922275924286 0.17239631622063065 0 1:0.099200745 2:0.0016668318 3:0.10751316 4:0.098886209 5:0.0018955938 6:0.10712857 7:0.098290729 8:0.0019753065 9:0.10760181 
0.15420421636023401 0.18899005558665891 0.13261800003382399 0.17634922275924286 0.17239631622063065 0.12991198669138251 1:0.094161517 2:0.0029204419 3:0.10703909 4:0.094178671 5:0.0028242945 6:0.10709127 7:0.094546828 8:0.0032356948 9:0.10714346 
0.15420421636023401 0.18899005558665891 0.13261800003382399 0.17634922275924286 0.17239631622063065 0.12991198669138251 1:0.045533 2:0.0067683843 3:0.1346264 4:0.045954055 5:0.0067683843 6:0.1350378 7:0.045927965 8:0.0071015106 9:0.13549317 
0.15420421636023401 0.18899005558665891 0.13261800003382399 0.17634922275924286 0.17239631622063065 0.12991198669138251 1:0.056997295 2:0.012031447 3:0.13416825 4:0.056954048 5:0.012205868 6:0.13383584 7:0.0568579 8:0.012135092 9:0.1338791 
0.15420421636023401 0.18899005558665891 0.13261800003382399 0.17634922275924286 0.17239631622063065 0.12991198669138251 1:0.094800961 2:0.0026738061 3:0.1065637 4:0.094950013 5:0.0029286592 6:0.1068089 7:0.094766655 8:0.0029122245 9:0.10683571 
0.15420421636023401 0.18899005558665891 0.13261800003382399 0.17634922275924286 0.17239631622063065 0 1:0.09548765 2:-0.00027974572 3:0.10827113 4:0.09548765 5:-0.00028046534 6:0.10797375 7:0.095653855 8:-0.00053531846 9:0.10798197 
0.15420421636023401 0.18899005558665891 0.13261800003382399 0.17634922275924286 0.17239631622063065 0.12991198669138251 1:0.093289854 2:0.0050650599 3:0.1081546 4:0.093175837 5:0.0051969551 6:0.10853919 7:0.093421032 8:0.005135116 9:0.10847879 
0.15420421636023401 0 0 0 0 0 1:0.054277674 2:-0.001402236 3:0.13250857 4:0.054199401 5:-0.0016034677 6:0.13256075 7:0.054190464 8:-0.0016124046 9:0.13257862 
0.15420421636023401 0.18899005558665891 0.13261800003382399 0.17634922275924286 0.17239631622063065 0.12991198669138251 1:0.054062763 2:-0.00017725848 3:0.13267805 4:0.054448071 5:-1.3984453e-06 6:0.13262514 7:0.054378013 8:2.469271e-05 9:0.13259833 
0.15420421636023401 0.18899005558665891 0.13261800003382399 0.17634922275924286 0.17239631622063065 0.12991198669138251 1:0.094590971 2:0.0028613602 3:0.10704878 4:0.094590971 5:0.0029314164 6:0.10701375 7:0.094678185 8:0.0029835987 9:0.10700553 
0.15420421636023401 0.18899005558665891 0.13261800003382399 0.17634922275924286 0.17239631622063065 0.12991198669138251 1:0.094646981 2:0.0032942904 3:0.10669923 4:0.094953301 5:0.0036274171 6:0.10755778 7:0.094717756 8:0.0042647008 9:0.10848566 
0.15420421636023401 0.18899005558665891 0.13261800003382399 0.17634922275924286 0.17239631622063065 0.12991198669138251 1:0.093572929 2:0.0034465199 3:0.10711464 4:0.093686227 5:0.0037178078 6:0.10713252 7:0.094123717 8:0.0034897653 9:0.10706174 
0.15420421636023401 0.18899005558665891 0.13261800003382399 0.17634922275924286 0.17239631622063065 0.12991198669138251 1:0.05337077 2:0.0039821027 3:0.13243149 4:0.053659933 5:0.0037108146 6:0.13261484 7:0.053721771 8:0.0038948921 9:0.13282502 
0.15420421636023401 0.18899005558665891 0.13261800003382399 0.17634922275924286 0.17239631622063065 0.12991198669138251 1:0.03698455 2:0.021045104 3:0.13653824 4:0.036949523 5:0.020869964 6:0.13638919 7:0.036861592 8:0.020720914 9:0.13622299 
0.15420421636023401 0.18899005558665891 0.13261800003382399 0.17634922275924286 0.17239631622063065 0.12991198669138251 1:0.094756952 2:0.0025296545 3:0.10712826 4:0.09484416 5:0.0025296545 6:0.106892 7:0.095028238 8:0.0027927251 9:0.10693524 
0.15420421636023401 0.18899005558665891 0.13261800003382399 0.17634922275924286 0.17239631622063065 0.12991198669138251 1:0.09443281 2:0.0032171013 3:0.10728285 4:0.094414937 5:0.0031820732 6:0.10709056 7:0.094520017 8:0.003164919 9:0.10758989 
0.15420421636023401 0 0 0 0 0 1:0.053806935 2:-0.0015439525 3:0.13235571 4:0.053824809 5:-0.0019031704 6:0.13260984 7:0.053544582 8:-0.0014217139 9:0.13282 
0.15420421636023401 0 0.13261800003382399 0 0 0 1:0.054662779 2:-0.0012435263 3:0.13273891 4:0.054636689 5:-0.0010415751 6:0.13258986 7:0.054548758 8:-0.001059449 9:0.13259807 
0.15420421636023401 0 0 0 0 0 1:0.054472128 2:-0.0015877527 3:0.13271873 4:0.054743417 5:-0.0011152332 6:0.13271873 7:0.054533248 8:-0.0014476402 9:0.13262258 
0.15420421636023401 0.18899005558665891 0.13261800003382399 0.17634922275924286 0.17239631622063065 0.12991198669138251 1:0.097661727 2:0.021334526 3:0.10022443 4:0.098650006 5:0.021116444 6:0.10264887 7:0.098410871 8:0.02100674 9:0.10165093 
0.15420421636023401 0.18899005558665891 0.13261800003382399 0.17634922275924286 0.17239631622063065 0.12991198669138251 1:0.053180856 2:0.0081332547 3:0.132726 4:0.053171919 5:0.0080281703 6:0.1329712 7:0.053040745 8:0.0080117361 9:0.13317171 
0.15420421636023401 0 0 0 0 0 1:0.055050431 2:-0.0013783884 3:0.13284024 4:0.054858136 5:-0.001194311 6:0.13260398 7:0.054735177 8:-0.0013605146 9:0.13245565 
0.15420421636023401 0.18899005558665891 0.13261800003382399 0.17634922275924286 0.17239631622063065 0.12991198669138251 1:0.093762379 2:0.0039166309 3:0.10766133 4:0.093649075 5:0.0042669116 6:0.10750406 7:0.093473933 8:0.0042758485 9:0.10735573 
0.15420421636023401 0.18899005558665891 0.13261800003382399 0.17634922275924286 0.17239631622063065 0.12991198669138251 1:0.037151472 2:0.02085209 3:0.13633628 4:0.036862313 5:0.020843153 6:0.13584589 7:0.037151472 8:0.020887117 9:0.13642423 
0 0 0 0.17634922275924286 0.17239631622063065 0 1:0.059398171 2:-0.001924844 3:0.13063601 4:0.059451793 5:-0.0019605916 6:0.13072538 7:0.059005365 8:-0.0013568968 9:0.12850217 
0.15420421636023401 0.18899005558665891 0.13261800003382399 0.17634922275924286 0.17239631622063065 0.12991198669138251 1:0.094142098 2:0.0029194495 3:0.10741849 4:0.094440201 5:0.0028493933 6:0.10726123 7:0.094475228 8:0.0031296182 9:0.10740956 
0.15420421636023401 0.18899005558665891 0.13261800003382399 0.17634922275924286 0.17239631622063065 0.12991198669138251 1:0.09568365 2:0.0026535411 3:0.10690363 4:0.095648623 5:0.0026535411 6:0.10702587 7:0.095421301 8:0.0024090642 9:0.10678068 
0.15420421636023401 0.18899005558665891 0.13261800003382399 0.17634922275924286 0.17239631622063065 0.12991198669138251 1:0.094672857 2:0.0024923343 3:0.10691557 4:0.094656424 5:0.0024744604 6:0.10712717 7:0.09425396 8:0.0022382008 9:0.10695275 
0.15420421636023401 0.18899005558665891 0.13261800003382399 0.17634922275924286 0.17239631622063065 0.12991198669138251 1:0.054496574 2:-0.0010058274 3:0.13239829 4:0.054514448 5:-0.0011109117 6:0.13203085 7:0.054479421 8:-0.001259961 9:0.13221492 
0.15420421636023401 0.094495027793329453 0.13261800003382399 0.17634922275924286 0 0.12991198669138251 1:0.054830628 2:-0.0012278152 3:0.13216722 4:0.054646549 5:-0.0015080399 6:0.13213219 7:0.054645832 8:-0.0016563696 9:0.13185197 
0.15420421636023401 0.18899005558665891 0.13261800003382399 0.17634922275924286 0.17239631622063065 0.12991198669138251 1:0.053729987 2:0.0035789196 3:0.13272064 4:0.053773954 5:0.0034037793 6:0.13242255 7:0.053966249 8:0.0034470246 9:0.13209908 
0.15420421636023401 0.18899005558665891 0.13261800003382399 0.17634922275924286 0.17239631622063065 0.12991198669138251 1:0.052511503 2:0.0084567608 3:0.13266918 4:0.052800663 5:0.0084828527 6:0.13268705 7:0.052327424 8:0.0081154174 9:0.13283611 
0.15420421636023401 0.18899005558665891 0.13261800003382399 0.17634922275924286 0.17239631622063065 0.12991198669138251 1:0.03729964 2:0.021772691 3:0.13778145 4:0.037939083 5:0.021920302 6:0.13762952 7:0.038298301 8:0.021299452 9:0.13650502 
0.15420421636023401 0.18899005558665891 0.13261800003382399 0.17634922275924286 0.17239631622063065 0.12991198669138251 1:0.037101029 2:0.021513932 3:0.13584399 4:0.037101029 5:0.021540743 6:0.13620321 7:0.037101029 8:0.021479624 9:0.1362822 
0.15420421636023401 0.18899005558665891 0.13261800003382399 0.17634922275924286 0.17239631622063065 0.12991198669138251 1:0.092657848 2:0.0020923317 3:0.10524364 4:0.092623542 5:0.0020923317 6:0.10545381 7:0.092894828 8:0.0018993174 9:0.10507744 
0.15420421636023401 0 0.13261800003382399 0 0 0.12991198669138251 1:0.053726162 2:-0.001358271 3:0.13250034 4:0.053717225 5:-0.001411173 6:0.13277164 7:0.053866277 8:-0.0012621237 9:0.13262258 
0.15420421636023401 0.18899005558665891 0.13261800003382399 0.17634922275924286 0.17239631622063065 0.12991198669138251 1:0.03645157 2:0.02118101 3:0.13668299 4:0.036635645 5:0.021374024 6:0.13631554 7:0.036933025 8:0.020656309 9:0.13630734 
0.15420421636023401 0.18899005558665891 0.13261800003382399 0.17634922275924286 0 0.12991198669138251 1:0.054085359 2:-0.0012725845 3:0.13246532 4:0.054094296 5:-0.0012725845 6:0.13247425 7:0.054269434 8:-0.001018451 9:0.13243028 
0.15420421636023401 0.18899005558665891 0.13261800003382399 0.17634922275924286 0.17239631622063065 0.12991198669138251 1:0.095990367 2:0.0020376889 3:0.10755111 4:0.095579687 5:0.0024580258 6:0.10726267 7:0.095186167 8:0.0024669627 9:0.10686914 
0.15420421636023401 0.18899005558665891 0.13261800003382399 0.17634922275924286 0.17239631622063065 0.12991198669138251 1:0.093942412 2:0.0036731861 3:0.10773893 4:0.094056436 5:0.0035420105 6:0.10788799 7:0.09412649 8:0.0036999969 9:0.10758167 
0.15420421636023401 0 0 0 0 0 1:0.053772953 2:-0.0017640949 3:0.13239966 4:0.054149324 5:-0.0016239826 6:0.13243541 7:0.053851227 8:-0.001922081 9:0.13236463 
0.15420421636023401 0.18899005558665891 0.13261800003382399 0.17634922275924286 0.17239631622063065 0.12991198669138251 1:0.043900156 2:-0.0026538415 3:0.13336855 4:0.044871285 5:-0.0035710484 6:0.13127436 7:0.046615191 8:-0.0038255998 9:0.13248175 
0.15420421636023401 0.18899005558665891 0.13261800003382399 0.17634922275924286 0.17239631622063065 0.12991198669138251 1:0.046164224 2:0.0073742375 3:0.1350639 4:0.045962275 5:0.0074435742 6:0.13487159 7:0.045908653 8:0.0074346373 9:0.13490734 
0.15420421636023401 0.18899005558665891 0.13261800003382399 0.17634922275924286 0.17239631622063065 0.12991198669138251 1:0.094440201 2:0.0030431272 3:0.10746246 4:0.094545282 5:0.003235422 6:0.1076376 7:0.094309023 8:0.0032443589 9:0.10737453 
0.15420421636023401 0.18899005558665891 0.13261800003382399 0.17634922275924286 0.17239631622063065 0.12991198669138251 1:0.051563166 2:0.0041207758 3:0.13081923 4:0.052052841 5:0.0039978175 6:0.1304064 7:0.052578263 8:0.0037526208 9:0.13079099 
0.15420421636023401 0.18899005558665891 0.13261800003382399 0.17634922275924286 0.17239631622063065 0.12991198669138251 1:0.09350896 2:0.0044359933 3:0.10789153 4:0.093500023 5:0.00426979 6:0.10803986 7:0.093596174 8:0.0045500146 9:0.10782897 
0 0 0 0.17634922275924286 0 0 1:0.068249944 2:-0.0093272843 3:0.12517997 4:0.068451176 5:-0.0081459855 6:0.12481859 7:0.069018403 8:-0.0067448621 9:0.12515027 
0.15420421636023401 0 0.13261800003382399 0 0 0.12991198669138251 1:0.053587488 2:-0.0012464086 3:0.13307939 4:0.053832688 5:-0.0013336191 6:0.1327552 7:0.053893805 8:-0.0011502613 9:0.13265833 
0 0 0 0.17634922275924286 0 0 1:0.069019195 2:-0.0077973296 3:0.12295521 4:0.069467065 5:-0.0090962475 6:0.12370579 7:0.069625767 8:-0.0098794008 9:0.12436988 
0.15420421636023401 0.18899005558665891 0.13261800003382399 0.17634922275924286 0.17239631622063065 0.12991198669138251 1:0.054550742 2:0.00011880245 3:0.13180881 4:0.054078224 5:0.00036399907 6:0.13209797 7:0.054139341 8:0.00055701337 9:0.1325444 
0.15420421636023401 0.18899005558665891 0.13261800003382399 0.17634922275924286 0.17239631622063065 0.12991198669138251 1:0.094528129 2:0.0019901258 3:0.10708681 4:0.09458103 5:0.0019990628 6:0.10758614 7:0.094879127 8:0.0021570489 9:0.10736703 
0.15420421636023401 0.18899005558665891 0.13261800003382399 0.17634922275924286 0.17239631622063065 0.12991198669138251 1:0.054877568 2:0.0027839844 3:0.13135308 4:0.054623432 5:0.0030030898 6:0.13140526 7:0.054667399 8:0.0029062229 9:0.13137845 
0.15420421636023401 0 0 0 0 0 1:0.054672619 2:-0.0016929216 3:0.13195632 4:0.05473374 5:-0.0015789005 6:0.13213146 7:0.054663682 8:-0.0015610266 9:0.13259576 
0.15420421636023401 0.18899005558665891 0.13261800003382399 0.17634922275924286 0.17239631622063065 0.12991198669138251 1:0.094121593 2:0.0051612074 3:0.10800699 4:0.093929298 5:0.0052141091 6:0.10824397 7:0.093631922 8:0.0050039406 9:0.10813066 
0.15420421636023401 0.18899005558665891 0.13261800003382399 0.17634922275924286 0.17239631622063065 0.12991198669138251 1:0.093951349 2:0.0033311225 3:0.10774716 4:0.094012473 5:0.0035591648 6:0.10760632 7:0.094266605 8:0.0036292209 9:0.10745799 
0.15420421636023401 0.18899005558665891 0.13261800003382399 0.17634922275924286 0.17239631622063065 0.12991198669138251 1:0.046539877 2:0.0074517913 3:0.1355625 4:0.046627808 5:0.0076008406 6:0.1351697 7:0.046321492 8:0.0071358191 9:0.13446092 
0.15420421636023401 0.18899005558665891 0.13261800003382399 0.17634922275924286 0.17239631622063065 0.12991198669138251 1:0.054960159 2:0.002214598 3:0.13198545 4:0.055389434 5:0.0021445419 6:0.1328783 7:0.055407308 8:0.002608844 9:0.13243115 
